~o
<STREAMINFO> 1 39
<VECSIZE> 39<NULLD><MFCC_D_A_Z_0><DIAGC>
~h "b"
<BEGINHMM>
<NUMSTATES> 5
<STATE> 2
<MEAN> 39
 -1.759808e+00 2.124672e+00 4.296593e+00 5.494572e+00 3.919488e+00 5.258795e+00 3.765391e+00 2.751157e+00 9.720910e-01 3.169754e+00 2.496690e+00 2.704016e+00 -9.279278e+00 8.236346e-01 -4.312130e-01 -5.780624e-01 -7.572913e-01 -8.606714e-01 -1.327769e+00 -8.754052e-01 -9.176729e-01 -7.412434e-01 -9.984421e-01 -5.561427e-01 -4.362470e-01 2.031707e+00 5.695127e-01 -7.798482e-01 -8.319364e-01 -4.947741e-01 -4.638881e-01 -7.448989e-01 -4.019780e-01 -3.819588e-01 -3.004689e-01 -4.899135e-01 -3.068942e-01 -3.175648e-01 1.386986e+00
<VARIANCE> 39
 3.190430e+01 5.793283e+01 5.641127e+01 7.510963e+01 8.607632e+01 1.644556e+02 1.503891e+02 1.314528e+02 1.139249e+02 9.640839e+01 8.556060e+01 8.146334e+01 3.980919e+01 5.342244e+00 6.833541e+00 7.905298e+00 7.294378e+00 9.989204e+00 1.986541e+01 1.661913e+01 1.490794e+01 1.359404e+01 1.205676e+01 8.855921e+00 9.504685e+00 1.303590e+01 6.447702e-01 1.384129e+00 1.536697e+00 1.291898e+00 1.770154e+00 2.672255e+00 2.817008e+00 3.065426e+00 2.595410e+00 2.275715e+00 1.904543e+00 1.886435e+00 1.357038e+00
<GCONST> 1.670352e+02
<STATE> 3
<MEAN> 39
 7.848637e+00 -5.472044e+00 -6.814253e+00 -1.298200e+00 -4.286940e+00 -8.743005e+00 -3.074944e+00 -3.140862e+00 -6.929216e+00 -5.341414e+00 -2.438812e+00 -1.036902e+00 1.047382e+01 8.112911e-01 -4.433984e+00 -3.699751e+00 -1.313957e+00 -6.607836e-01 -3.232960e-01 7.593443e-01 -8.972522e-01 -6.735786e-01 -1.152243e+00 -4.653976e-01 -8.183871e-01 5.669711e+00 -6.186218e-01 1.549708e-01 5.460677e-01 1.822852e-01 4.150002e-01 7.277150e-01 1.520149e-01 -1.864126e-01 3.802467e-01 4.092221e-01 1.836762e-01 1.207953e-01 -5.859929e-01
<VARIANCE> 39
 5.318484e+01 1.832642e+02 2.235492e+02 1.144667e+02 1.128954e+02 1.923048e+02 2.219365e+02 1.906458e+02 1.750019e+02 1.217597e+02 1.005130e+02 1.012643e+02 2.086160e+02 7.763272e+00 1.518819e+01 2.292575e+01 1.468848e+01 1.410034e+01 2.645260e+01 2.869357e+01 2.912649e+01 2.466892e+01 1.700888e+01 1.399809e+01 1.201112e+01 1.796418e+01 9.820337e-01 3.772613e+00 4.598011e+00 2.135682e+00 2.274627e+00 4.193522e+00 5.214326e+00 5.054008e+00 4.289694e+00 2.934925e+00 2.461750e+00 2.381850e+00 3.546106e+00
<GCONST> 1.881656e+02
<STATE> 4
<MEAN> 39
 2.883318e+00 -1.809184e+01 -8.626951e+00 -4.166106e+00 -3.597120e+00 -1.203856e+00 -1.376656e+00 -1.203307e+01 -6.032826e+00 -5.261002e+00 -2.335750e+00 -2.387710e+00 2.315376e+01 -5.918515e-01 6.902608e-01 1.065266e+00 -1.694108e+00 3.414369e-01 9.416190e-01 -1.411126e+00 -8.482355e-01 1.208735e+00 -4.339688e-01 -3.622919e-01 -1.719465e-01 2.043891e-01 1.640965e-01 1.188722e+00 3.569048e-01 3.483097e-02 1.469285e-01 -3.810728e-01 -1.368700e-01 7.840278e-01 1.791420e-01 -9.293422e-03 1.575574e-02 1.177629e-01 -1.098253e+00
<VARIANCE> 39
 5.392371e+01 1.379663e+02 1.230112e+02 1.778534e+02 1.088905e+02 1.644091e+02 1.840172e+02 1.780586e+02 2.040677e+02 1.447803e+02 1.016000e+02 8.146334e+01 2.233260e+02 3.038677e+00 8.167143e+00 8.435009e+00 1.090604e+01 8.466255e+00 1.287988e+01 1.297482e+01 1.577076e+01 1.419498e+01 1.362760e+01 9.565342e+00 7.869978e+00 5.012817e+00 7.428182e-01 1.821204e+00 1.906980e+00 1.834629e+00 1.657096e+00 2.822143e+00 2.703336e+00 2.674757e+00 3.081810e+00 2.592987e+00 2.159543e+00 1.615301e+00 1.935758e+00
<GCONST> 1.735064e+02
<TRANSP> 5
 0.000000e+00 1.000000e+00 0.000000e+00 0.000000e+00 0.000000e+00
 0.000000e+00 6.626634e-01 3.373366e-01 0.000000e+00 0.000000e+00
 0.000000e+00 0.000000e+00 6.282129e-01 3.717872e-01 0.000000e+00
 0.000000e+00 0.000000e+00 0.000000e+00 5.477003e-01 4.522996e-01
 0.000000e+00 0.000000e+00 0.000000e+00 0.000000e+00 0.000000e+00
<ENDHMM>
~h "c"
<BEGINHMM>
<NUMSTATES> 5
<STATE> 2
<MEAN> 39
 -1.024502e+01 6.127461e+00 -3.524330e+00 6.318195e-01 1.129321e-01 2.036360e+00 3.583282e+00 3.078599e+00 2.950236e+00 -3.126740e-01 1.940165e+00 6.758995e-01 3.952294e+00 1.033034e+00 9.642044e-02 -1.312824e+00 -3.485995e+00 -1.245586e+00 -1.073048e+00 -1.545947e+00 -1.136262e+00 -5.966804e-01 -1.643051e+00 -1.069736e+00 -6.828820e-01 3.480544e+00 7.504659e-01 -4.734890e-01 -3.874951e-02 -6.687708e-01 -2.255062e-01 -1.564262e-01 -4.638128e-01 -4.374517e-01 -3.396457e-01 -2.519436e-01 -3.062401e-01 -1.716934e-01 3.408423e-01
<VARIANCE> 39
 1.213328e+02 7.205251e+01 9.045930e+01 2.019099e+02 1.064547e+02 1.289778e+02 1.396640e+02 1.195595e+02 1.126842e+02 1.197125e+02 1.057993e+02 9.577125e+01 1.356472e+02 2.582563e+01 1.187458e+01 1.284099e+01 2.830153e+01 1.529193e+01 1.405172e+01 1.695418e+01 1.469825e+01 1.307715e+01 1.362664e+01 1.289484e+01 1.133006e+01 9.103852e+00 4.093189e+00 2.383205e+00 2.128610e+00 4.715233e+00 2.852245e+00 2.759864e+00 3.254190e+00 2.700905e+00 2.477047e+00 2.689959e+00 2.182879e+00 2.283082e+00 1.485046e+00
<GCONST> 1.810641e+02
<STATE> 3
<MEAN> 39
 3.043588e+00 -4.815843e+00 -1.168477e+01 -2.432977e+01 -7.469976e+00 -1.451511e+00 -8.196111e+00 -7.361801e+00 -4.413711e+00 -1.092504e+01 -7.293877e+00 -5.126722e+00 2.624795e+01 3.014343e-01 -3.789237e+00 -6.234307e-01 6.276248e-01 1.226465e+00 5.776905e-01 -1.406572e+00 -1.699840e+00 -1.071346e+00 -2.914946e-01 -2.540982e-01 -7.458774e-01 2.348359e+00 -1.202588e+00 5.989513e-01 8.639402e-01 2.453126e+00 8.997319e-01 1.667332e-01 5.194920e-01 5.145554e-01 4.375429e-01 7.749989e-01 7.748882e-01 4.049319e-01 -1.384840e+00
<VARIANCE> 39
 3.540480e+01 9.083665e+01 1.170006e+02 1.434472e+02 1.541187e+02 1.496367e+02 1.264239e+02 1.139914e+02 1.288409e+02 1.108383e+02 1.291829e+02 1.016111e+02 9.397565e+01 4.146758e+00 6.566205e+00 9.422618e+00 1.930445e+01 1.053190e+01 1.414887e+01 1.596857e+01 1.127173e+01 1.178570e+01 1.176063e+01 1.173959e+01 1.433847e+01 7.349861e+00 1.050127e+00 1.409048e+00 1.982210e+00 3.508344e+00 2.844268e+00 2.366019e+00 2.426361e+00 2.196665e+00 2.173262e+00 2.101429e+00 2.106032e+00 2.022200e+00 5.672672e-01
<GCONST> 1.717639e+02
<STATE> 4
<MEAN> 39
 1.203695e+00 -1.031910e+01 -9.503274e+00 -1.615353e+01 -5.382652e-01 -1.207976e+00 -1.485195e+01 -1.000084e+01 -5.413698e+00 -1.151388e+01 -3.911045e+00 -6.169689e+00 2.535230e+01 1.463334e-01 2.612430e-01 3.670806e-01 5.006315e-01 1.873285e-01 -2.855290e-01 -2.258832e-01 -4.752532e-02 3.906528e-02 1.077538e-01 1.380653e-01 1.859394e-01 -5.715581e-01 7.525039e-02 5.220200e-01 -3.014395e-02 -2.186247e-01 -1.996250e-01 -1.956153e-01 1.849459e-01 1.629353e-01 1.551922e-01 6.323083e-02 -7.498745e-02 3.026194e-02 -2.695461e-01
<VARIANCE> 39
 3.447123e+01 8.832079e+01 6.871889e+01 9.713546e+01 8.843588e+01 1.891375e+02 1.801234e+02 1.014653e+02 9.766006e+01 1.014470e+02 1.404114e+02 1.621802e+02 7.408517e+01 9.803140e-01 3.528049e+00 3.371583e+00 5.072392e+00 4.944879e+00 6.627976e+00 7.194198e+00 7.712735e+00 7.609119e+00 7.110920e+00 7.257784e+00 6.329379e+00 8.369775e-01 1.578552e-01 4.041275e-01 5.629291e-01 7.655918e-01 8.795463e-01 1.266415e+00 1.272813e+00 1.368484e+00 1.422092e+00 1.336309e+00 1.366397e+00 1.170496e+00 1.459560e-01
<GCONST> 1.470644e+02
<TRANSP> 5
 0.000000e+00 1.000000e+00 0.000000e+00 0.000000e+00 0.000000e+00
 0.000000e+00 8.576498e-01 1.423502e-01 0.000000e+00 0.000000e+00
 0.000000e+00 0.000000e+00 6.292100e-01 3.707900e-01 0.000000e+00
 0.000000e+00 0.000000e+00 0.000000e+00 8.257492e-01 1.742508e-01
 0.000000e+00 0.000000e+00 0.000000e+00 0.000000e+00 0.000000e+00
<ENDHMM>
~h "d"
<BEGINHMM>
<NUMSTATES> 5
<STATE> 2
<MEAN> 39
 6.263520e+00 8.996728e+00 7.724520e+00 -1.684510e+00 -1.301523e+01 -1.001411e+01 -5.742226e+00 -9.680032e+00 -8.073056e+00 -1.567960e+00 -1.794713e-01 6.718290e-01 -4.700845e+00 1.802622e-01 -1.683511e+00 -1.551648e+00 -9.432154e-01 -1.562346e+00 -1.394353e-01 2.757227e-01 -1.177093e+00 -3.013365e-01 -1.530323e+00 -3.362890e-01 -9.075680e-01 3.806680e+00 -4.649606e-01 -1.915086e+00 -1.488897e+00 -2.943905e-01 7.527137e-01 1.178591e+00 9.274360e-01 3.556478e-01 6.627002e-01 -2.662429e-01 -3.315525e-02 -2.032778e-01 1.947150e+00
<VARIANCE> 39
 4.265970e+01 5.586514e+01 6.183528e+01 1.100886e+02 1.224257e+02 1.745936e+02 1.327802e+02 1.358941e+02 1.607600e+02 1.244057e+02 1.074461e+02 9.500224e+01 5.087847e+01 6.299906e+00 1.687475e+01 1.573970e+01 1.249880e+01 1.584428e+01 2.289232e+01 2.472111e+01 1.738684e+01 1.969268e+01 1.547033e+01 1.205839e+01 9.509532e+00 2.298829e+01 1.074739e+00 1.614543e+00 1.813639e+00 2.331168e+00 2.868734e+00 3.098717e+00 3.806470e+00 3.252431e+00 3.604082e+00 2.842617e+00 2.591490e+00 2.107069e+00 1.850469e+00
<GCONST> 1.779484e+02
<STATE> 3
<MEAN> 39
 2.791718e+00 -1.290080e+01 -1.106957e+01 -8.637866e+00 -1.142242e+01 1.187261e+00 3.838405e+00 -1.088403e+01 -3.515468e+00 -8.658621e+00 -2.123838e+00 -3.188381e+00 2.444133e+01 -2.627726e-01 -6.657887e+00 -4.128212e+00 7.610469e-01 2.381601e+00 1.284993e+00 -1.050085e-01 -1.301914e+00 -4.075400e-01 -1.228618e+00 -2.817250e-01 -6.496341e-01 6.481597e+00 3.265367e-01 9.785985e-01 1.240070e+00 1.293356e+00 7.056342e-01 -1.287222e+00 -1.209244e+00 2.731995e-01 -4.876566e-01 6.822724e-01 1.079875e-01 3.183308e-01 -2.004639e+00
<VARIANCE> 39
 4.265684e+01 9.917785e+01 7.449526e+01 1.170700e+02 1.234559e+02 1.779651e+02 2.476688e+02 1.521108e+02 1.630067e+02 1.208932e+02 1.063560e+02 8.146334e+01 8.429939e+01 8.714778e+00 8.680305e+00 1.601363e+01 1.517514e+01 1.420391e+01 2.325170e+01 3.013293e+01 2.092378e+01 2.178729e+01 1.610346e+01 1.461035e+01 1.134166e+01 1.493805e+01 9.400220e-01 2.099303e+00 1.870342e+00 1.983339e+00 2.530500e+00 3.290751e+00 4.904198e+00 3.179991e+00 3.679938e+00 2.687048e+00 2.586380e+00 1.888086e+00 1.746226e+00
<GCONST> 1.800569e+02
<STATE> 4
<MEAN> 39
 3.940524e+00 -2.359922e+01 -1.402667e+01 3.648552e+00 -4.050944e+00 -6.511120e+00 -5.741092e+00 -1.228595e+01 -8.301635e+00 -8.201451e+00 -2.287030e+00 -3.732384e+00 2.852660e+01 5.903977e-01 -3.276073e-01 -1.342849e-02 1.155161e+00 9.649387e-01 -1.555742e+00 -1.329820e+00 1.183324e+00 -3.595113e-01 9.940596e-02 -3.080327e-01 2.914927e-01 -5.922234e-01 1.617558e-01 1.235455e+00 5.274552e-01 -5.703684e-01 -3.843428e-01 4.038857e-02 2.199622e-01 3.977835e-01 2.461994e-01 6.490372e-02 -1.151341e-01 1.632877e-01 -1.044733e+00
<VARIANCE> 39
 4.888430e+01 5.572745e+01 1.395478e+02 1.187390e+02 1.109193e+02 1.332420e+02 2.176291e+02 1.502523e+02 1.485302e+02 1.132396e+02 8.556060e+01 1.027662e+02 6.595942e+01 2.028534e+00 3.952746e+00 5.850687e+00 7.652206e+00 7.902164e+00 9.642384e+00 1.161373e+01 8.438952e+00 8.976494e+00 8.011291e+00 7.257784e+00 6.596456e+00 1.724337e+00 5.165274e-01 1.372583e+00 1.396173e+00 9.503583e-01 1.281567e+00 1.778462e+00 2.258454e+00 1.889932e+00 2.096034e+00 1.648017e+00 1.366397e+00 1.335302e+00 1.499332e+00
<GCONST> 1.602500e+02
<TRANSP> 5
 0.000000e+00 1.000000e+00 0.000000e+00 0.000000e+00 0.000000e+00
 0.000000e+00 7.222493e-01 2.777508e-01 0.000000e+00 0.000000e+00
 0.000000e+00 0.000000e+00 6.313445e-01 3.686555e-01 0.000000e+00
 0.000000e+00 0.000000e+00 0.000000e+00 7.291151e-01 2.708848e-01
 0.000000e+00 0.000000e+00 0.000000e+00 0.000000e+00 0.000000e+00
<ENDHMM>
~h "k"
<BEGINHMM>
<NUMSTATES> 5
<STATE> 2
<MEAN> 39
 -4.338802e+00 3.811850e+00 4.695311e+00 3.629415e+00 4.095535e+00 9.570696e+00 8.761265e+00 6.724387e+00 4.454639e+00 5.115124e+00 3.564481e+00 1.934516e+00 -1.263114e+01 -3.233003e-01 -2.501618e+00 -1.368349e-01 7.185068e-01 -5.458035e-01 -5.033387e-01 3.722433e-01 4.312261e-02 -4.103628e-01 -4.158776e-01 8.904308e-02 -1.162182e-01 2.241333e+00 3.032458e-01 -7.810050e-01 -5.507352e-01 -5.856898e-01 -6.570396e-01 -9.143961e-01 -5.578786e-01 -5.353670e-01 -5.551051e-01 -6.727467e-01 -3.773891e-01 -1.967277e-01 1.789626e+00
<VARIANCE> 39
 2.412221e+01 4.762243e+01 5.365977e+01 8.517680e+01 8.298854e+01 1.006097e+02 1.035045e+02 1.004209e+02 9.508286e+01 9.372124e+01 8.556060e+01 8.146334e+01 3.542134e+01 4.518585e+00 1.420712e+01 8.742644e+00 1.359684e+01 1.300947e+01 1.617111e+01 1.326194e+01 1.372347e+01 1.282771e+01 1.161117e+01 9.997528e+00 9.106504e+00 1.786126e+01 7.357991e-01 1.761778e+00 1.525359e+00 2.457282e+00 1.926234e+00 2.408141e+00 2.396047e+00 2.562916e+00 2.329098e+00 2.289115e+00 2.018724e+00 1.855963e+00 1.456184e+00
<GCONST> 1.671328e+02
<STATE> 3
<MEAN> 39
 -5.379503e+00 -1.248124e+01 2.071921e+00 5.877362e+00 -2.904250e+00 1.478650e+00 8.179070e+00 3.874796e+00 -8.408855e-01 -1.335921e-01 2.388030e+00 2.329173e-01 7.395023e+00 2.143065e+00 -1.775408e+00 -2.675153e+00 -2.086408e+00 -1.760089e+00 -2.904243e+00 -1.926367e+00 -1.840253e+00 -2.237966e+00 -2.437220e+00 -1.355121e+00 -7.027370e-01 5.173213e+00 8.486992e-01 1.357922e+00 -7.143987e-01 -1.132035e+00 3.102627e-01 -9.231757e-02 -8.885386e-01 -4.904541e-01 7.369023e-03 -2.173644e-01 -3.488359e-01 -1.566102e-01 -5.630299e-01
<VARIANCE> 39
 6.806130e+01 1.713370e+02 1.411783e+02 1.940794e+02 1.520084e+02 1.955640e+02 1.449537e+02 1.643294e+02 1.627104e+02 1.245099e+02 1.135365e+02 9.956126e+01 1.080549e+02 8.657016e+00 1.998319e+01 1.548261e+01 2.279046e+01 1.585705e+01 1.978437e+01 1.735875e+01 1.966718e+01 1.794959e+01 1.448112e+01 1.388719e+01 1.267114e+01 1.683111e+01 1.317066e+00 3.112889e+00 3.057171e+00 3.182125e+00 2.979507e+00 4.142578e+00 3.103945e+00 3.394543e+00 3.635122e+00 2.932460e+00 2.705128e+00 2.548224e+00 1.976991e+00
<GCONST> 1.852569e+02
<STATE> 4
<MEAN> 39
 4.637858e+00 -8.628193e+00 -7.829615e+00 -9.674051e+00 -5.438510e+00 -4.442204e+00 -3.468695e+00 -5.488678e+00 -4.899395e+00 -8.044538e+00 -2.805079e+00 -2.774928e+00 1.706933e+01 1.542413e+00 -4.343212e-02 -2.090477e+00 -2.035686e+00 -2.315366e-01 -1.399863e+00 -2.068727e+00 -1.328905e+00 -6.286045e-01 -1.047155e+00 -9.274023e-01 -7.753811e-01 2.362548e+00 -6.866468e-01 3.487979e-01 9.353283e-01 1.006609e+00 5.108180e-01 4.654543e-01 5.409225e-01 5.852636e-01 5.144541e-01 7.439247e-01 4.481240e-01 2.174036e-01 -1.200089e+00
<VARIANCE> 39
 7.154340e+01 1.671281e+02 1.339543e+02 2.042951e+02 1.410162e+02 1.815706e+02 1.685760e+02 2.023148e+02 1.563251e+02 1.371983e+02 1.020376e+02 1.040282e+02 1.799721e+02 8.838737e+00 1.336087e+01 1.846808e+01 1.933961e+01 1.294044e+01 1.931147e+01 1.662851e+01 1.551308e+01 1.336983e+01 1.524253e+01 1.193430e+01 1.199069e+01 1.181650e+01 1.083701e+00 2.327350e+00 2.798716e+00 3.028436e+00 2.238963e+00 3.015161e+00 2.528633e+00 2.977132e+00 2.801390e+00 2.779702e+00 2.214420e+00 2.222475e+00 1.957603e+00
<GCONST> 1.820893e+02
<TRANSP> 5
 0.000000e+00 1.000000e+00 0.000000e+00 0.000000e+00 0.000000e+00
 0.000000e+00 6.714514e-01 3.285486e-01 0.000000e+00 0.000000e+00
 0.000000e+00 0.000000e+00 5.403464e-01 4.596536e-01 0.000000e+00
 0.000000e+00 0.000000e+00 0.000000e+00 5.596386e-01 4.403614e-01
 0.000000e+00 0.000000e+00 0.000000e+00 0.000000e+00 0.000000e+00
<ENDHMM>
~h "l"
<BEGINHMM>
<NUMSTATES> 5
<STATE> 2
<MEAN> 39
 7.289975e+00 7.257164e-01 -9.539225e-01 -8.284486e+00 -1.552494e+01 -1.316653e+01 -2.246470e+00 -5.974951e+00 -4.902788e+00 -2.747448e+00 -4.267128e+00 -3.799422e+00 1.206631e+01 -1.474621e-01 -1.792251e+00 -1.813341e+00 -7.772947e-01 -4.761443e-04 1.156753e+00 2.911497e-01 -1.223840e-01 -2.250708e-01 -8.392891e-01 -4.871261e-01 -9.213334e-02 2.346733e+00 -3.079034e-01 -4.356338e-01 -8.722499e-02 7.752117e-02 6.551846e-01 5.526832e-01 -2.396623e-02 1.398650e-01 1.831059e-01 -2.493985e-01 7.052367e-02 1.844417e-01 1.179536e-01
<VARIANCE> 39
 4.020142e+01 1.364014e+02 1.524859e+02 1.886952e+02 1.707400e+02 2.177871e+02 1.803199e+02 2.067397e+02 1.881676e+02 2.064661e+02 1.492206e+02 1.137271e+02 8.595137e+01 4.596541e+00 1.045414e+01 1.270151e+01 1.776548e+01 1.911237e+01 2.337173e+01 1.887856e+01 2.082053e+01 1.731788e+01 1.901177e+01 1.695291e+01 1.157192e+01 7.593046e+00 7.139235e-01 1.571462e+00 2.121939e+00 2.668124e+00 2.901360e+00 3.328755e+00 3.080021e+00 3.788774e+00 3.053021e+00 3.274476e+00 2.885789e+00 1.990026e+00 8.315123e-01
<GCONST> 1.812736e+02
<STATE> 3
<MEAN> 39
 3.805712e+00 -9.437840e+00 -6.782674e+00 -5.950024e+00 -7.760784e+00 -4.314105e+00 -6.106135e+00 -7.477684e+00 -4.449511e+00 -5.902061e+00 -1.876588e+00 -4.617403e-01 1.737511e+01 -1.032604e+00 -1.059451e+00 1.745464e-01 -3.093507e-01 2.042700e+00 1.199578e+00 -3.770961e-01 5.824937e-01 8.629630e-01 -6.492332e-01 -4.477675e-02 3.451023e-01 5.834007e-01 1.515490e-01 7.029346e-01 2.587627e-01 1.451045e-03 -8.812571e-02 -5.358614e-01 3.225939e-02 1.578629e-01 2.360873e-01 1.660829e-01 -1.245592e-01 -8.701343e-02 -6.332266e-01
<VARIANCE> 39
 4.483502e+01 1.594788e+02 1.298392e+02 3.036111e+02 1.308075e+02 1.304068e+02 2.589611e+02 1.882251e+02 1.702667e+02 2.259800e+02 1.852650e+02 1.891860e+02 1.461556e+02 3.585275e+00 1.137475e+01 1.451645e+01 1.490721e+01 1.077036e+01 1.447893e+01 1.996040e+01 2.043290e+01 1.571366e+01 1.661132e+01 1.482581e+01 1.270098e+01 7.404593e+00 5.447382e-01 1.630979e+00 1.744932e+00 2.359713e+00 1.815211e+00 2.773679e+00 2.977208e+00 2.943565e+00 2.876879e+00 2.889625e+00 3.157452e+00 2.192051e+00 8.871992e-01
<GCONST> 1.796471e+02
<STATE> 4
<MEAN> 39
 5.178504e+00 -9.095139e+00 -5.792596e+00 -6.255091e+00 -5.553744e+00 -3.650921e+00 -5.804063e+00 -1.052077e+01 -3.912854e+00 -9.905144e+00 -4.533019e+00 -1.082910e+00 1.740675e+01 6.082042e-02 8.036169e-01 4.097953e-01 1.499896e-01 4.552938e-01 -9.850168e-01 -4.672870e-01 3.131422e-01 2.033261e-01 2.301910e-01 4.806757e-02 1.523780e-01 -1.007936e+00 1.148360e-01 4.097652e-01 7.915982e-02 -8.492911e-02 -2.554002e-01 -2.932998e-01 -6.742557e-03 1.401557e-01 -3.256410e-02 2.409731e-01 1.703424e-02 -3.865952e-02 -3.159145e-01
<VARIANCE> 39
 4.146934e+01 1.800893e+02 1.224724e+02 2.206932e+02 1.143604e+02 1.957689e+02 2.249378e+02 1.707515e+02 1.221958e+02 1.606921e+02 1.056868e+02 9.998580e+01 1.343858e+02 2.864275e+00 1.000753e+01 7.694324e+00 9.922078e+00 7.294637e+00 1.441107e+01 1.063157e+01 1.133258e+01 9.628985e+00 9.466476e+00 8.236317e+00 7.172313e+00 5.094290e+00 3.882207e-01 1.492303e+00 1.145218e+00 1.566069e+00 1.207852e+00 1.986978e+00 1.773301e+00 1.896190e+00 1.787828e+00 1.922392e+00 1.453196e+00 1.298384e+00 8.530436e-01
<GCONST> 1.666179e+02
<TRANSP> 5
 0.000000e+00 1.000000e+00 0.000000e+00 0.000000e+00 0.000000e+00
 0.000000e+00 6.805739e-01 3.194261e-01 0.000000e+00 0.000000e+00
 0.000000e+00 0.000000e+00 4.685426e-01 5.314574e-01 0.000000e+00
 0.000000e+00 0.000000e+00 0.000000e+00 6.476602e-01 3.523399e-01
 0.000000e+00 0.000000e+00 0.000000e+00 0.000000e+00 0.000000e+00
<ENDHMM>
~h "m"
<BEGINHMM>
<NUMSTATES> 5
<STATE> 2
<MEAN> 39
 1.047583e+01 5.147916e+00 6.741889e+00 -1.586131e+00 -9.093775e+00 -2.479814e+01 -1.444632e+01 -6.400941e+00 -7.222687e+00 -2.473199e+00 -2.533284e+00 3.287799e+00 2.562107e+00 -6.894200e-02 7.669363e-01 8.435550e-01 5.115511e-02 -1.537844e-01 -4.362013e-01 -5.394168e-01 -4.510828e-01 -1.435222e-01 1.057370e-01 1.041535e-01 2.301011e-01 -4.378028e-01 -2.264298e-01 -4.836864e-01 -5.935503e-01 -2.042694e-01 3.092262e-01 1.182511e+00 4.843532e-01 9.119646e-02 4.401698e-02 -8.961812e-02 -5.257193e-02 -2.306067e-01 3.112300e-01
<VARIANCE> 39
 2.577997e+01 5.047317e+01 6.016741e+01 1.278795e+02 1.179806e+02 1.778584e+02 1.229612e+02 1.883752e+02 1.406277e+02 1.610152e+02 1.874116e+02 1.722585e+02 4.035492e+01 2.225596e+00 3.829947e+00 5.694706e+00 5.932420e+00 6.477958e+00 1.866355e+01 1.025690e+01 1.075757e+01 9.824390e+00 1.003213e+01 9.667724e+00 7.926970e+00 4.417544e+00 3.108486e-01 6.585053e-01 1.032631e+00 1.095084e+00 1.237144e+00 1.964152e+00 1.800959e+00 2.210953e+00 1.901696e+00 1.836249e+00 2.030988e+00 1.557233e+00 4.540012e-01
<GCONST> 1.599012e+02
<STATE> 3
<MEAN> 39
 8.532454e+00 4.783466e-01 4.008934e+00 -3.382759e+00 -8.180846e+00 -1.915379e+01 -1.205020e+01 -7.860065e+00 -8.088096e+00 -4.178803e+00 -3.940145e+00 -1.827920e-01 7.428164e+00 -9.398434e-01 -9.923829e-01 -1.745842e+00 -1.097996e+00 8.484641e-01 2.880069e+00 7.507723e-01 -5.224589e-02 3.384923e-01 -4.359859e-01 -4.051195e-01 -9.835626e-01 1.773436e+00 -5.231773e-01 2.330853e-02 -5.103793e-01 1.494692e-01 6.890045e-01 1.098275e+00 6.864343e-01 5.234842e-01 4.227455e-01 2.500611e-01 2.294873e-01 6.647627e-02 -2.882147e-01
<VARIANCE> 39
 4.078982e+01 1.096610e+02 1.164138e+02 1.546813e+02 1.311775e+02 3.024017e+02 1.816802e+02 2.020580e+02 1.582550e+02 1.683271e+02 1.348915e+02 1.460439e+02 1.236350e+02 5.951484e+00 1.144372e+01 1.586774e+01 1.519968e+01 1.400132e+01 3.148915e+01 2.023285e+01 1.816378e+01 1.688935e+01 1.492323e+01 1.427219e+01 1.233009e+01 1.468402e+01 8.541219e-01 2.234624e+00 2.613339e+00 2.338432e+00 2.148780e+00 6.031750e+00 4.133623e+00 3.432218e+00 3.121729e+00 2.993526e+00 2.576909e+00 2.369081e+00 1.707525e+00
<GCONST> 1.832152e+02
<STATE> 4
<MEAN> 39
 2.746929e+00 4.630984e+00 3.148688e+00 -1.286117e+00 -5.584140e-01 -5.544805e+00 -6.412939e+00 -5.558844e+00 -5.502050e+00 -4.115576e+00 -4.127582e+00 -1.362105e+00 1.068694e+00 -2.063779e+00 -9.713899e-01 -2.297662e+00 2.534572e-01 2.193734e+00 3.728415e+00 2.878652e+00 2.510861e+00 1.486590e+00 7.948434e-01 5.478032e-01 1.828177e-01 -3.867523e-01 1.857159e-01 -2.457413e-01 -9.355691e-02 1.345484e-01 -3.281506e-01 -5.369893e-01 -1.117086e-01 2.654199e-01 3.322995e-01 3.863938e-01 3.753839e-01 2.847610e-01 -2.998213e-02
<VARIANCE> 39
 5.267453e+01 8.671239e+01 1.645084e+02 2.115184e+02 9.752132e+01 1.775543e+02 1.314621e+02 1.371637e+02 1.257243e+02 1.376944e+02 1.136620e+02 1.287845e+02 1.732350e+02 5.951199e+00 1.147475e+01 1.515320e+01 1.286000e+01 1.111863e+01 2.040125e+01 1.907792e+01 1.669313e+01 1.564214e+01 1.635462e+01 1.532782e+01 1.326318e+01 8.241871e+00 6.009331e-01 9.674932e-01 1.717816e+00 1.995443e+00 1.772871e+00 2.399062e+00 2.379957e+00 2.220834e+00 2.150013e+00 2.184040e+00 2.106718e+00 1.722511e+00 7.425778e-01
<GCONST> 1.746180e+02
<TRANSP> 5
 0.000000e+00 1.000000e+00 0.000000e+00 0.000000e+00 0.000000e+00
 0.000000e+00 7.669747e-01 2.330254e-01 0.000000e+00 0.000000e+00
 0.000000e+00 0.000000e+00 5.582329e-01 4.417671e-01 0.000000e+00
 0.000000e+00 0.000000e+00 0.000000e+00 4.458518e-01 5.541482e-01
 0.000000e+00 0.000000e+00 0.000000e+00 0.000000e+00 0.000000e+00
<ENDHMM>
~h "n"
<BEGINHMM>
<NUMSTATES> 5
<STATE> 2
<MEAN> 39
 1.192049e+01 7.405706e+00 5.591979e+00 -1.077939e+01 -1.150405e+01 -2.146314e+01 -7.498749e+00 -8.781703e+00 -8.894419e+00 -4.260032e+00 -7.530521e+00 -1.061825e+00 5.089209e+00 -4.778419e-01 -1.441026e-01 1.112148e-01 9.541335e-01 2.671535e-01 7.989848e-01 -6.034138e-02 -3.397838e-01 1.670581e-02 2.242085e-02 2.159286e-01 -1.653099e-01 -3.222516e-01 -5.208768e-01 -6.468215e-01 -4.793778e-01 5.184242e-01 3.714297e-01 1.089578e+00 1.564565e-01 1.548202e-01 2.362929e-01 -7.119789e-02 3.168615e-01 -4.771391e-02 2.435339e-01
<VARIANCE> 39
 2.412221e+01 4.950709e+01 7.130238e+01 1.260923e+02 9.128399e+01 1.865672e+02 1.438423e+02 1.724935e+02 1.183877e+02 1.271519e+02 1.144246e+02 1.350727e+02 4.503373e+01 2.675019e+00 6.251151e+00 5.596700e+00 7.864994e+00 7.365409e+00 1.446273e+01 9.713205e+00 9.708408e+00 8.334655e+00 9.979445e+00 9.397417e+00 7.951038e+00 5.697271e+00 4.302569e-01 1.009310e+00 9.812328e-01 1.227476e+00 1.369112e+00 2.186082e+00 2.163278e+00 2.049411e+00 1.806246e+00 1.941142e+00 1.769988e+00 1.493232e+00 5.549253e-01
<GCONST> 1.606664e+02
<STATE> 3
<MEAN> 39
 4.138452e+00 1.234002e+00 3.815875e+00 -1.149203e+00 -6.345391e+00 -6.328928e+00 -5.704328e+00 -9.409622e+00 -6.820560e+00 -4.333793e+00 -3.493362e+00 -2.403471e+00 4.910683e+00 -2.225398e+00 -2.542289e+00 -1.849213e+00 2.079357e+00 2.102920e+00 4.000709e+00 1.672237e+00 1.940339e+00 1.102196e+00 6.695750e-02 1.194034e+00 3.009981e-02 4.023030e-02 1.976246e-01 1.643701e-01 -2.769600e-01 -4.572795e-01 7.731244e-02 -4.850737e-01 1.358565e-01 6.433517e-01 2.801878e-01 1.909683e-01 2.226228e-02 2.723129e-01 -1.375650e-01
<VARIANCE> 39
 4.053304e+01 1.472746e+02 1.184551e+02 1.353242e+02 1.137363e+02 1.805055e+02 1.859404e+02 1.582279e+02 1.260580e+02 1.424621e+02 1.146842e+02 1.326151e+02 2.180590e+02 4.385025e+00 7.274698e+00 1.017957e+01 1.100791e+01 9.864297e+00 1.711166e+01 2.066745e+01 1.953196e+01 1.553141e+01 1.478354e+01 1.285103e+01 1.281360e+01 9.367557e+00 5.972760e-01 1.373083e+00 1.048030e+00 1.277704e+00 1.743215e+00 2.607092e+00 3.092037e+00 2.407980e+00 2.263607e+00 2.289305e+00 2.074744e+00 1.761468e+00 9.588739e-01
<GCONST> 1.736860e+02
<STATE> 4
<MEAN> 39
 4.147626e+00 -3.460685e+00 -3.942447e+00 -2.404077e+00 -6.560263e+00 -5.773184e+00 -6.126908e+00 -4.388192e+00 -4.483582e+00 -4.079203e+00 -1.162300e+00 -1.324051e+00 8.782805e+00 -4.522041e-01 -2.482996e-01 -9.163806e-01 6.725650e-01 1.171926e+00 6.160551e-01 5.144291e-01 1.585567e+00 5.801036e-01 2.498321e-01 5.859451e-01 4.816786e-01 -6.447805e-01 2.167940e-01 4.013566e-01 2.400904e-01 -3.082907e-01 -1.706384e-01 -4.253832e-01 -1.397168e-01 -2.493945e-01 1.159674e-02 9.247939e-02 -2.526713e-01 -2.670215e-02 -7.949500e-02
<VARIANCE> 39
 5.835609e+01 1.768405e+02 1.461035e+02 1.787778e+02 1.132582e+02 2.037956e+02 1.973108e+02 1.850487e+02 1.474708e+02 1.338999e+02 1.274224e+02 1.807630e+02 2.532957e+02 3.543985e+00 3.646427e+00 5.559248e+00 5.358567e+00 6.257588e+00 1.021283e+01 1.109476e+01 1.093520e+01 9.651519e+00 8.707115e+00 8.201498e+00 7.538037e+00 2.119175e+00 4.087021e-01 8.765822e-01 9.370090e-01 1.126965e+00 1.146662e+00 1.618269e+00 1.986144e+00 1.973142e+00 1.929392e+00 1.886565e+00 1.503764e+00 1.544639e+00 1.053654e+00
<GCONST> 1.645262e+02
<TRANSP> 5
 0.000000e+00 1.000000e+00 0.000000e+00 0.000000e+00 0.000000e+00
 0.000000e+00 7.628694e-01 2.371307e-01 0.000000e+00 0.000000e+00
 0.000000e+00 0.000000e+00 5.386484e-01 4.613516e-01 0.000000e+00
 0.000000e+00 0.000000e+00 0.000000e+00 5.226836e-01 4.773165e-01
 0.000000e+00 0.000000e+00 0.000000e+00 0.000000e+00 0.000000e+00
<ENDHMM>
~h "p"
<BEGINHMM>
<NUMSTATES> 5
<STATE> 2
<MEAN> 39
 -4.959508e+00 1.895978e+00 5.030939e+00 3.771654e+00 4.260278e+00 8.047415e+00 8.149131e+00 5.715918e+00 3.985871e+00 2.852309e+00 3.077769e+00 1.094734e+00 -7.032132e+00 1.855181e+00 -1.717864e+00 -2.789572e+00 -1.497804e+00 -1.416473e+00 -1.918193e+00 -7.834458e-01 -6.500207e-01 -5.486674e-01 -1.545670e+00 -8.309999e-01 -8.819716e-01 4.904263e+00 1.163739e+00 -6.366695e-01 -1.579651e+00 -6.375619e-01 -5.916603e-01 -1.162302e+00 -9.729782e-01 -6.679283e-01 -5.848032e-01 -5.865214e-01 -5.863448e-01 -2.236838e-01 1.439032e+00
<VARIANCE> 39
 3.050139e+01 5.384116e+01 5.475674e+01 7.736752e+01 7.849200e+01 9.793477e+01 1.035045e+02 1.004209e+02 9.508286e+01 9.372124e+01 8.556060e+01 8.146334e+01 1.027687e+02 1.025140e+01 9.465564e+00 1.947713e+01 1.085889e+01 1.074570e+01 1.524090e+01 1.361138e+01 1.318621e+01 1.259345e+01 1.170334e+01 1.176757e+01 1.078317e+01 1.575365e+01 1.101026e+00 1.754660e+00 2.473798e+00 1.993627e+00 1.918087e+00 2.504895e+00 2.451986e+00 2.568123e+00 2.336452e+00 2.372404e+00 2.126855e+00 2.105078e+00 1.931079e+00
<GCONST> 1.705505e+02
<STATE> 3
<MEAN> 39
 1.194512e+01 -1.065584e+01 -2.145341e+01 -7.333814e+00 -4.448507e+00 -7.816839e+00 -3.277900e+00 -1.920587e+00 -3.029727e+00 -6.270380e+00 -5.629001e+00 -4.121689e+00 2.023928e+01 2.027211e+00 -1.863390e+00 -4.431620e+00 -2.243358e+00 -9.359005e-01 -2.517469e+00 -2.184987e+00 -1.629629e+00 -1.199407e+00 -1.092641e+00 -1.848435e+00 -9.487693e-01 3.818967e+00 -1.236097e+00 1.000477e+00 1.917555e+00 5.221918e-01 5.771739e-01 8.787734e-01 4.647944e-01 1.984438e-01 3.073055e-01 5.817916e-01 4.828410e-01 3.307966e-01 -1.766594e+00
<VARIANCE> 39
 7.213250e+01 1.237180e+02 2.749996e+02 1.980659e+02 1.342203e+02 1.455596e+02 1.529197e+02 1.454106e+02 1.439277e+02 1.388843e+02 1.182312e+02 1.161291e+02 8.573674e+01 1.245730e+01 1.754716e+01 3.562580e+01 1.934613e+01 1.541847e+01 1.929604e+01 1.750700e+01 1.609336e+01 1.692900e+01 1.995428e+01 1.367842e+01 1.294093e+01 1.550424e+01 1.184422e+00 1.948983e+00 4.273504e+00 2.393662e+00 2.358824e+00 2.973110e+00 2.829391e+00 2.687911e+00 3.125990e+00 2.997058e+00 2.630946e+00 2.541688e+00 1.224294e+00
<GCONST> 1.839276e+02
<STATE> 4
<MEAN> 39
 1.158173e+01 -1.072074e+01 -2.068584e+01 -6.139357e+00 -5.941061e+00 -1.120011e+01 -6.678023e+00 -6.351062e+00 -6.032807e+00 -6.446265e+00 -6.707892e+00 -3.980125e+00 2.037596e+01 -3.582238e-01 6.721497e-01 1.360598e+00 -3.407093e-01 -2.901675e-01 -2.395244e-01 -3.102721e-01 -4.010244e-01 -2.185115e-01 1.038623e-01 1.618181e-01 2.912131e-01 -3.825960e-01 -3.381823e-02 1.838516e-01 2.907226e-01 7.365289e-02 5.379375e-03 9.625234e-02 1.070365e-01 1.406865e-01 9.217588e-02 3.547419e-02 1.268095e-01 6.564414e-02 -2.613176e-01
<VARIANCE> 39
 5.019314e+01 1.389620e+02 2.479192e+02 2.391907e+02 1.955095e+02 1.537758e+02 1.419343e+02 1.348850e+02 1.503052e+02 1.852430e+02 1.023861e+02 1.110457e+02 7.800961e+01 1.029382e+00 3.371591e+00 4.997650e+00 4.910380e+00 4.944879e+00 6.627976e+00 7.194198e+00 7.712735e+00 7.983965e+00 7.110920e+00 7.257784e+00 6.329379e+00 1.031322e+00 2.753518e-01 5.253947e-01 1.190920e+00 9.708002e-01 9.938085e-01 1.266415e+00 1.272813e+00 1.368484e+00 1.422092e+00 1.336309e+00 1.366397e+00 1.170496e+00 2.844231e-01
<GCONST> 1.543171e+02
<TRANSP> 5
 0.000000e+00 1.000000e+00 0.000000e+00 0.000000e+00 0.000000e+00
 0.000000e+00 7.485519e-01 2.514480e-01 0.000000e+00 0.000000e+00
 0.000000e+00 0.000000e+00 7.226258e-01 2.773742e-01 0.000000e+00
 0.000000e+00 0.000000e+00 0.000000e+00 7.730629e-01 2.269371e-01
 0.000000e+00 0.000000e+00 0.000000e+00 0.000000e+00 0.000000e+00
<ENDHMM>
~h "r"
<BEGINHMM>
<NUMSTATES> 5
<STATE> 2
<MEAN> 39
 2.068126e+00 -3.607717e+00 1.727434e+00 -6.983562e+00 -7.674652e+00 -2.477568e+00 -6.726094e-01 -6.883306e+00 -8.793069e-01 -5.365616e+00 -2.242213e+00 -2.354191e+00 1.226957e+01 6.767562e-01 -1.223882e+00 -7.596695e-01 -1.724246e+00 -6.140961e-01 -8.600396e-01 -9.441873e-02 -2.780176e-01 -1.172200e-01 -9.711167e-01 -7.827945e-02 -4.226677e-01 2.046641e+00 1.608279e-01 -5.624332e-01 -5.994590e-01 -1.298089e-01 2.133917e-01 -2.121110e-01 -1.395241e-01 1.512076e-01 -2.396945e-01 -1.375448e-01 3.556168e-02 -9.894773e-02 4.017308e-01
<VARIANCE> 39
 7.671633e+01 1.390518e+02 1.143484e+02 2.220608e+02 1.601226e+02 1.790292e+02 1.955992e+02 1.529146e+02 1.455369e+02 1.339905e+02 1.199775e+02 1.027495e+02 1.527919e+02 1.004815e+01 1.354303e+01 1.252124e+01 2.262652e+01 1.453854e+01 1.761294e+01 1.772186e+01 1.785760e+01 1.622660e+01 1.500258e+01 1.317659e+01 1.129650e+01 1.523815e+01 1.940958e+00 2.534231e+00 2.479807e+00 4.286387e+00 2.860812e+00 3.423994e+00 3.403316e+00 3.522651e+00 3.241252e+00 2.885656e+00 2.795928e+00 2.250601e+00 2.744618e+00
<GCONST> 1.848821e+02
<STATE> 3
<MEAN> 39
 5.447064e+00 -1.580348e+01 -6.247672e+00 -1.185004e+01 -8.005687e+00 -7.483047e+00 -8.577469e-01 -9.228316e+00 -4.775914e+00 -1.119331e+01 -9.997122e-01 -5.469990e+00 2.413327e+01 2.107612e-01 -9.180382e-01 -1.537591e+00 4.302258e-01 8.300201e-01 -1.402945e+00 -9.409066e-01 2.924748e-01 -8.707153e-01 -5.907751e-01 6.493568e-02 -1.879071e-01 9.071934e-01 -2.640250e-01 9.768001e-01 3.525209e-01 7.636757e-01 2.317581e-01 4.937029e-03 -2.353113e-01 2.793439e-01 1.206473e-01 5.409892e-01 -1.324819e-01 3.486318e-01 -9.430582e-01
<VARIANCE> 39
 5.325468e+01 1.625024e+02 9.755472e+01 2.190997e+02 1.221041e+02 1.827399e+02 2.221585e+02 2.022861e+02 1.329130e+02 1.459205e+02 1.265452e+02 1.118271e+02 9.606226e+01 4.055160e+00 1.038527e+01 1.004937e+01 1.403343e+01 1.016929e+01 1.450449e+01 1.579960e+01 1.610159e+01 1.201908e+01 1.349638e+01 1.337029e+01 1.077915e+01 6.956663e+00 7.484804e-01 1.096456e+00 1.501640e+00 2.391084e+00 1.651248e+00 2.558737e+00 2.557029e+00 2.902127e+00 2.291162e+00 2.456143e+00 2.138718e+00 1.991193e+00 7.957218e-01
<GCONST> 1.741297e+02
<STATE> 4
<MEAN> 39
 5.277528e+00 -1.662383e+01 -9.738992e+00 -5.657278e+00 -5.380335e+00 -8.921027e+00 -5.622282e+00 -9.393997e+00 -7.832108e+00 -9.751267e+00 -1.948616e+00 -3.480163e+00 2.423295e+01 2.304318e-01 9.020203e-01 -1.667444e-01 5.697987e-01 2.981189e-01 -5.894210e-01 -9.854924e-01 6.901537e-01 -7.937368e-02 4.383281e-01 -3.235840e-01 3.274875e-01 -7.889403e-01 3.157010e-02 4.662130e-01 2.799361e-01 -8.627762e-02 -1.417422e-01 1.961306e-02 7.349187e-02 2.060536e-02 2.362551e-01 1.755406e-01 -1.107888e-01 -3.213244e-02 -4.027339e-01
<VARIANCE> 39
 4.501754e+01 1.135520e+02 1.215285e+02 1.965292e+02 1.129807e+02 1.544553e+02 2.059966e+02 1.621921e+02 1.245110e+02 1.262548e+02 1.082007e+02 9.486693e+01 9.566379e+01 1.445316e+00 4.793045e+00 6.124413e+00 7.674049e+00 5.656908e+00 8.154250e+00 8.400050e+00 8.291976e+00 7.609119e+00 7.110920e+00 7.547101e+00 6.329379e+00 2.403603e+00 2.614693e-01 5.366495e-01 7.211657e-01 1.126209e+00 8.795463e-01 1.271166e+00 1.283362e+00 1.419849e+00 1.422092e+00 1.336309e+00 1.366397e+00 1.170496e+00 3.367406e-01
<GCONST> 1.550991e+02
<TRANSP> 5
 0.000000e+00 1.000000e+00 0.000000e+00 0.000000e+00 0.000000e+00
 0.000000e+00 6.464472e-01 3.535528e-01 0.000000e+00 0.000000e+00
 0.000000e+00 0.000000e+00 5.414088e-01 4.585912e-01 0.000000e+00
 0.000000e+00 0.000000e+00 0.000000e+00 7.290127e-01 2.709873e-01
 0.000000e+00 0.000000e+00 0.000000e+00 0.000000e+00 0.000000e+00
<ENDHMM>
~h "s"
<BEGINHMM>
<NUMSTATES> 5
<STATE> 2
<MEAN> 39
 -1.678672e+01 3.676410e+00 1.625090e+00 7.816731e+00 4.586433e+00 8.427221e+00 6.920221e+00 6.011958e+00 5.645251e+00 3.002101e+00 2.838007e+00 2.000976e+00 -1.604200e+00 7.931849e-01 -7.462612e-01 -3.105416e-01 -7.951165e-01 -6.561176e-01 -2.699124e-01 -2.021218e-01 -5.904805e-01 -3.422053e-01 -2.295564e-01 -1.353926e-01 1.289902e-02 7.398303e-01 1.023262e+00 -3.520792e-01 -2.447691e-01 -5.801033e-01 -5.935237e-01 -5.572149e-01 -5.442858e-01 -6.521521e-01 -4.467465e-01 -3.240283e-01 -2.719773e-01 -1.756672e-01 5.527526e-01
<VARIANCE> 39
 4.144047e+01 4.709619e+01 6.259539e+01 7.510963e+01 8.384476e+01 9.569573e+01 1.035045e+02 1.004209e+02 9.508286e+01 9.372124e+01 8.556060e+01 8.146334e+01 3.542134e+01 1.183978e+01 5.310045e+00 5.568789e+00 9.826899e+00 1.076816e+01 1.080556e+01 1.200006e+01 1.328888e+01 1.178969e+01 1.017771e+01 1.015271e+01 8.440667e+00 5.419572e+00 1.023311e+00 1.120091e+00 1.171729e+00 1.531765e+00 1.794664e+00 1.993375e+00 2.210925e+00 2.316254e+00 2.083542e+00 2.110761e+00 1.954743e+00 1.650642e+00 1.036874e+00
<GCONST> 1.626784e+02
<STATE> 3
<MEAN> 39
 4.980890e+00 -8.962071e+00 -6.637630e+00 -6.912613e+00 -1.071816e+01 -2.754338e+00 -2.848053e+00 -9.275779e+00 -5.354475e+00 -4.354777e+00 -2.815493e+00 -6.238379e-01 1.545016e+01 3.162347e+00 -3.842825e+00 -2.536510e+00 -2.215854e+00 -2.002349e+00 -2.113471e+00 -2.358397e+00 -2.570126e+00 -1.785667e+00 -1.867669e+00 -1.009948e+00 -6.200855e-01 5.036632e+00 -1.581124e+00 5.657389e-01 5.575773e-01 1.122501e+00 1.377956e+00 5.630659e-01 2.676375e-01 1.008430e+00 6.916839e-01 3.644612e-01 4.435320e-01 6.574512e-02 -7.689697e-01
<VARIANCE> 39
 7.869314e+01 1.638038e+02 1.042998e+02 1.432809e+02 1.107879e+02 1.538768e+02 1.875236e+02 1.544946e+02 1.434811e+02 1.401507e+02 1.624788e+02 1.030994e+02 1.640311e+02 1.648370e+01 1.409240e+01 1.200723e+01 1.765913e+01 1.807217e+01 1.839615e+01 2.019139e+01 2.222387e+01 1.646495e+01 1.792319e+01 1.601427e+01 1.200683e+01 1.382636e+01 1.482817e+00 2.205422e+00 1.995649e+00 2.062643e+00 2.110297e+00 2.537342e+00 2.915351e+00 3.001186e+00 2.639969e+00 2.879541e+00 3.081211e+00 2.068652e+00 2.410505e+00
<GCONST> 1.830043e+02
<STATE> 4
<MEAN> 39
 2.779773e+00 -1.736243e+01 -6.515686e+00 -3.007357e+00 -7.320236e+00 -3.708146e+00 -1.142994e+01 -1.131126e+01 -7.394914e+00 -7.229206e+00 -1.521864e+00 -1.818451e+00 2.334968e+01 8.010902e-04 4.288340e-01 -1.258693e-01 4.180125e-01 9.608908e-01 -6.872355e-01 -5.795630e-01 6.799030e-01 -1.224089e-01 -1.084915e-01 1.259058e-01 1.695158e-02 -2.753361e-01 -5.433461e-03 6.567321e-01 1.319002e-01 1.031639e-02 1.813904e-01 8.759172e-02 2.741372e-01 2.566674e-01 2.058028e-01 1.825319e-01 -8.102764e-02 8.381123e-02 -6.858448e-01
<VARIANCE> 39
 5.834837e+01 1.318066e+02 9.900715e+01 1.924093e+02 1.034444e+02 1.393049e+02 2.338489e+02 1.521771e+02 1.353075e+02 1.428925e+02 1.351112e+02 1.085506e+02 1.386378e+02 2.036356e+00 3.339978e+00 5.232758e+00 5.997151e+00 5.220919e+00 6.687424e+00 8.259500e+00 7.712735e+00 7.609119e+00 7.396068e+00 8.160602e+00 6.329379e+00 1.835304e+00 5.492457e-01 9.202870e-01 8.829015e-01 1.176154e+00 1.125495e+00 1.372109e+00 1.563695e+00 1.581247e+00 1.422092e+00 1.601460e+00 1.411141e+00 1.177187e+00 9.228409e-01
<GCONST> 1.585281e+02
<TRANSP> 5
 0.000000e+00 1.000000e+00 0.000000e+00 0.000000e+00 0.000000e+00
 0.000000e+00 8.601298e-01 1.398701e-01 0.000000e+00 0.000000e+00
 0.000000e+00 0.000000e+00 6.444621e-01 3.555380e-01 0.000000e+00
 0.000000e+00 0.000000e+00 0.000000e+00 6.613904e-01 3.386096e-01
 0.000000e+00 0.000000e+00 0.000000e+00 0.000000e+00 0.000000e+00
<ENDHMM>
~h "t"
<BEGINHMM>
<NUMSTATES> 5
<STATE> 2
<MEAN> 39
 -4.345271e+00 1.669499e+00 3.830309e+00 3.392618e+00 4.744232e+00 8.426437e+00 6.279357e+00 4.662180e+00 3.589332e+00 3.880625e+00 3.552515e+00 2.371812e+00 -8.654176e+00 -9.285975e-01 -1.069153e+00 -4.463872e-01 8.836994e-02 2.375717e-01 8.263369e-01 5.794519e-01 5.669441e-01 5.642555e-01 -2.903795e-01 1.070697e-01 -1.310560e-01 1.659535e+00 5.796647e-01 -4.225339e-01 -6.067516e-01 -9.556042e-01 -9.134311e-01 -7.763390e-01 -7.378604e-01 -7.690841e-01 -3.790026e-01 -6.613537e-01 -4.402633e-01 -2.643320e-01 1.633802e+00
<VARIANCE> 39
 3.628897e+01 5.271571e+01 7.647881e+01 9.034075e+01 9.411387e+01 1.132695e+02 1.130504e+02 1.195112e+02 9.596517e+01 9.372124e+01 8.556060e+01 8.146334e+01 7.168466e+01 4.768741e+00 5.792281e+00 7.713730e+00 1.166767e+01 1.363434e+01 1.496058e+01 1.583039e+01 1.525432e+01 1.148744e+01 1.236504e+01 1.135612e+01 9.131405e+00 2.253263e+01 7.562476e-01 1.314689e+00 1.493490e+00 1.779000e+00 1.998390e+00 2.441350e+00 2.707429e+00 2.730900e+00 2.336982e+00 2.089599e+00 2.173321e+00 1.798910e+00 1.883456e+00
<GCONST> 1.685608e+02
<STATE> 3
<MEAN> 39
 1.374140e+00 -7.355658e+00 -5.690980e+00 -6.184032e+00 -7.073946e+00 4.582912e-02 -1.028298e+00 -5.534064e+00 -1.420544e-01 -5.122179e+00 -1.880282e+00 -1.285636e+00 1.578242e+01 1.179199e+00 -4.414716e-01 -8.761983e-01 -1.546884e+00 -1.719731e+00 -1.451514e+00 -5.203645e-01 -1.377268e+00 -9.754736e-01 -9.424662e-01 -9.053981e-01 -7.140739e-01 1.944398e+00 8.998100e-02 5.080028e-01 2.823603e-01 4.135244e-01 4.774958e-01 -2.527302e-01 9.989814e-02 3.746854e-01 -1.061891e-01 3.924899e-01 7.880411e-02 1.183310e-01 -1.225472e+00
<VARIANCE> 39
 1.009762e+02 1.388938e+02 1.489749e+02 1.658864e+02 1.616359e+02 2.300509e+02 2.269854e+02 1.981457e+02 1.538127e+02 1.469293e+02 1.420588e+02 1.094846e+02 2.016216e+02 8.651134e+00 1.686820e+01 1.781644e+01 2.063215e+01 1.779646e+01 2.206169e+01 2.283550e+01 2.403781e+01 1.734101e+01 1.664374e+01 1.535965e+01 1.209565e+01 3.258719e+01 1.688257e+00 2.199254e+00 2.199764e+00 2.870712e+00 3.035184e+00 3.683888e+00 3.930671e+00 4.178781e+00 3.428164e+00 2.933624e+00 2.826504e+00 2.285047e+00 3.040609e+00
<GCONST> 1.887605e+02
<STATE> 4
<MEAN> 39
 -1.146842e+00 -7.129547e-02 3.637230e-01 -6.511770e-01 -9.151542e-02 3.894357e+00 3.407135e+00 2.835690e-01 1.634777e+00 2.458985e-01 3.983813e-01 8.662857e-01 -1.870441e+00 1.829531e-01 3.423759e-01 -5.199015e-02 2.746288e-01 4.757280e-01 -4.021158e-01 1.819713e-01 7.142377e-01 -1.448197e-01 3.941118e-01 1.111883e-01 1.213775e-01 -8.157240e-01 9.987547e-02 -9.605694e-02 3.011872e-02 -3.186914e-02 -9.811320e-02 -2.116656e-01 -1.736385e-01 -1.046801e-01 -5.963924e-02 -5.635455e-02 5.043896e-02 2.683933e-02 2.656882e-01
<VARIANCE> 39
 4.993791e+01 7.682102e+01 8.593908e+01 1.338200e+02 1.426611e+02 1.878219e+02 1.460428e+02 1.536032e+02 1.258203e+02 1.167297e+02 9.947712e+01 8.985990e+01 1.937304e+02 5.201346e+00 6.147113e+00 7.381633e+00 8.539298e+00 1.018567e+01 1.557312e+01 1.301558e+01 1.467151e+01 1.283237e+01 1.244513e+01 9.285993e+00 8.888552e+00 9.444121e+00 7.232033e-01 1.532578e+00 1.493515e+00 1.739753e+00 2.175540e+00 2.589457e+00 2.690853e+00 2.968309e+00 2.468181e+00 2.455356e+00 2.032587e+00 1.919620e+00 2.365760e+00
<GCONST> 1.720010e+02
<TRANSP> 5
 0.000000e+00 1.000000e+00 0.000000e+00 0.000000e+00 0.000000e+00
 0.000000e+00 6.756548e-01 3.243452e-01 0.000000e+00 0.000000e+00
 0.000000e+00 0.000000e+00 6.374596e-01 3.625404e-01 0.000000e+00
 0.000000e+00 0.000000e+00 0.000000e+00 4.925480e-01 5.074521e-01
 0.000000e+00 0.000000e+00 0.000000e+00 0.000000e+00 0.000000e+00
<ENDHMM>
~h "w"
<BEGINHMM>
<NUMSTATES> 5
<STATE> 2
<MEAN> 39
 1.241045e+01 -5.666557e+00 -9.744253e+00 -2.285944e+00 -1.096070e+01 -1.454084e+01 -3.934458e+00 3.746150e-01 -7.040081e+00 -4.740214e+00 -2.632256e+00 -4.281604e+00 1.157441e+01 -4.864580e-01 -5.597169e-01 -8.232625e-02 -1.281745e-02 -1.321665e-01 4.105092e-01 6.733435e-01 -3.295968e-01 -2.516184e-01 1.831376e-01 3.431413e-01 2.668533e-03 8.503682e-01 -3.710802e-01 1.658210e-01 2.401784e-01 -5.198010e-01 3.026503e-01 6.025050e-01 -2.174397e-01 -4.134791e-01 3.957070e-01 2.955257e-02 -1.680462e-01 1.632855e-01 1.183781e-01
<VARIANCE> 39
 5.577306e+01 1.843381e+02 1.472724e+02 1.394022e+02 1.606858e+02 1.314216e+02 1.627730e+02 1.857117e+02 1.460141e+02 1.811562e+02 1.761916e+02 1.572577e+02 1.369405e+02 4.827648e+00 9.499209e+00 1.192638e+01 1.494317e+01 1.283867e+01 1.604614e+01 1.553602e+01 1.760991e+01 1.553954e+01 1.463783e+01 1.452475e+01 9.750781e+00 9.683179e+00 6.364651e-01 1.329875e+00 1.461144e+00 1.987590e+00 2.486197e+00 2.317765e+00 3.249826e+00 2.867653e+00 2.860740e+00 2.649295e+00 2.640346e+00 1.859827e+00 9.833570e-01
<GCONST> 1.775330e+02
<STATE> 3
<MEAN> 39
 3.279817e+00 -1.143411e+01 -2.528165e+00 -8.070936e+00 -1.072333e+01 -2.618568e+00 -6.460964e+00 -1.174442e+01 -4.294850e+00 -2.194685e+00 -5.967019e+00 -2.986083e+00 2.082749e+01 -1.392706e+00 1.548116e+00 4.787976e-01 -2.761355e+00 2.004493e+00 1.454316e+00 -2.076624e+00 -1.472214e-02 1.883661e+00 -1.580196e+00 -4.111114e-01 1.354068e+00 4.636219e-01 2.515739e-01 4.587584e-01 -5.341977e-01 2.743444e-01 4.508138e-01 -8.022954e-01 9.545571e-02 8.557309e-01 -2.422262e-01 -3.525513e-01 4.151431e-01 -1.080294e-02 -4.502488e-01
<VARIANCE> 39
 3.543000e+01 2.427282e+02 8.558220e+01 2.173596e+02 1.050635e+02 1.565180e+02 1.890288e+02 1.955255e+02 1.323442e+02 1.747483e+02 1.102704e+02 1.013463e+02 1.685506e+02 1.684719e+00 5.859461e+00 5.914288e+00 1.004517e+01 9.246047e+00 1.093313e+01 1.098800e+01 1.219833e+01 7.609119e+00 9.818628e+00 1.122237e+01 8.424944e+00 2.107571e+00 2.774634e-01 5.352544e-01 7.973654e-01 1.712801e+00 1.280843e+00 1.570758e+00 1.914487e+00 1.424807e+00 1.600689e+00 2.098109e+00 1.369610e+00 1.493436e+00 4.087028e-01
<GCONST> 1.619265e+02
<STATE> 4
<MEAN> 39
 3.849055e+00 -3.005445e+00 -1.002358e+01 -1.463353e+01 -1.363217e+00 -8.344714e+00 -9.658728e+00 -8.365040e+00 -3.887455e+00 -1.077972e+01 -8.169031e+00 -2.207771e+00 1.732772e+01 -2.196616e-02 1.513638e+00 -3.628384e-01 -1.434108e-01 3.225997e-01 -6.067914e-01 1.681879e-01 5.870513e-01 1.891732e-01 -8.514965e-02 5.651459e-03 -1.047386e-01 -7.776963e-01 7.536335e-02 -7.032892e-02 8.093413e-02 2.508650e-01 -1.990013e-01 -4.291971e-02 7.886138e-02 -4.983526e-02 -2.505641e-02 2.000305e-01 3.373897e-02 -6.177440e-02 -9.885891e-02
<VARIANCE> 39
 4.121065e+01 1.304885e+02 1.230727e+02 1.716003e+02 1.198103e+02 1.683983e+02 1.619832e+02 1.291061e+02 9.508286e+01 1.053451e+02 8.556060e+01 9.283970e+01 1.119387e+02 9.803140e-01 2.723183e+00 4.008788e+00 4.873399e+00 6.404074e+00 6.627976e+00 7.194198e+00 7.712735e+00 7.609119e+00 7.110920e+00 7.257784e+00 6.329379e+00 8.286127e-01 1.578552e-01 4.041275e-01 5.629291e-01 7.655918e-01 9.317580e-01 1.266415e+00 1.272813e+00 1.368484e+00 1.422092e+00 1.336309e+00 1.366397e+00 1.170496e+00 1.459560e-01
<GCONST> 1.486582e+02
<TRANSP> 5
 0.000000e+00 1.000000e+00 0.000000e+00 0.000000e+00 0.000000e+00
 0.000000e+00 7.819686e-01 2.180314e-01 0.000000e+00 0.000000e+00
 0.000000e+00 0.000000e+00 5.658409e-01 4.341591e-01 0.000000e+00
 0.000000e+00 0.000000e+00 0.000000e+00 7.985931e-01 2.014069e-01
 0.000000e+00 0.000000e+00 0.000000e+00 0.000000e+00 0.000000e+00
<ENDHMM>
~h "y"
<BEGINHMM>
<NUMSTATES> 5
<STATE> 2
<MEAN> 39
 6.670846e+00 1.579625e+01 -8.313402e+00 -1.732135e+01 -1.104359e+01 -1.829905e+01 -7.204862e+00 -6.010336e+00 3.322932e+00 -1.991669e+00 1.358763e+00 3.949071e-01 6.366182e+00 8.700138e-02 5.910475e-01 2.151422e+00 2.937135e+00 1.915875e-01 -1.036178e-01 5.026911e-01 -2.388793e-01 -1.509878e-01 8.325727e-01 1.518191e-01 -3.118229e-01 -2.734520e+00 -3.383422e-01 -5.990037e-01 2.787628e-01 7.093850e-01 6.267629e-01 8.283855e-01 2.392417e-01 -1.395853e-01 -3.762114e-01 -2.278231e-01 -1.791035e-01 1.666194e-01 -7.181270e-02
<VARIANCE> 39
 2.624288e+01 6.941528e+01 2.059898e+02 1.215654e+02 1.177180e+02 9.840206e+01 1.174008e+02 1.440699e+02 1.331693e+02 2.103136e+02 2.462872e+02 3.044449e+02 5.704167e+01 2.688755e+00 4.892652e+00 7.458806e+00 1.172993e+01 1.021450e+01 1.140742e+01 1.012010e+01 1.100225e+01 1.368041e+01 1.309640e+01 1.586451e+01 1.274851e+01 3.528450e+00 3.593079e-01 7.597501e-01 1.132684e+00 1.674855e+00 1.418385e+00 1.677366e+00 2.015712e+00 2.357078e+00 2.120780e+00 2.572608e+00 2.535041e+00 2.082069e+00 2.614287e-01
<GCONST> 1.659788e+02
<STATE> 3
<MEAN> 39
 2.724428e+00 1.284726e+01 7.038322e+00 8.353060e-01 4.954811e-01 -8.089569e+00 -4.377997e+00 -7.369395e+00 -4.160489e+00 -6.507717e+00 -4.941096e+00 -4.688582e+00 -5.169647e+00 -1.754302e+00 -2.262945e+00 7.387482e-01 3.383446e+00 2.431981e+00 3.553594e+00 2.337500e+00 1.534138e+00 3.681318e-01 5.414231e-01 3.329249e-01 8.662647e-01 -2.518536e+00 -1.617490e-01 -3.482993e-01 -8.622355e-01 -1.179765e+00 -3.081261e-01 1.211798e-01 4.111023e-02 8.119484e-01 1.039160e+00 6.455032e-01 4.851995e-01 2.660568e-01 6.175752e-01
<VARIANCE> 39
 3.690720e+01 5.430127e+01 5.365977e+01 7.510963e+01 1.150701e+02 1.189856e+02 1.092774e+02 1.090775e+02 1.477548e+02 1.323850e+02 1.384317e+02 1.770600e+02 3.542134e+01 3.521348e+00 4.655481e+00 7.686849e+00 1.111300e+01 1.137663e+01 1.170860e+01 1.117764e+01 1.629358e+01 1.471040e+01 1.496142e+01 1.462329e+01 1.306911e+01 2.596470e+00 4.292168e-01 5.406713e-01 8.826129e-01 1.519366e+00 1.702855e+00 1.737646e+00 1.720655e+00 2.172886e+00 2.386807e+00 2.412849e+00 2.056926e+00 2.088346e+00 6.548219e-01
<GCONST> 1.630111e+02
<STATE> 4
<MEAN> 39
 -3.210421e+00 4.521407e+00 3.135747e+00 2.583440e+00 3.202275e+00 1.366638e+00 4.259438e+00 2.667545e+00 5.358590e+00 1.700631e+00 3.852277e-01 1.100340e+00 -8.858310e+00 -8.769957e-01 -1.561610e+00 -4.644172e-01 4.581692e-01 7.172450e-01 1.851669e+00 1.291782e+00 2.123013e+00 1.688233e+00 1.944546e+00 1.431268e+00 1.035600e+00 -8.908636e-01 5.157359e-01 5.020832e-01 -7.640819e-02 -9.504586e-01 -6.362502e-01 -8.596300e-01 -7.127218e-01 -5.112630e-01 -5.195424e-01 -3.857872e-01 -3.213469e-01 -3.185335e-01 7.983286e-01
<VARIANCE> 39
 5.204940e+01 4.484703e+01 5.365977e+01 7.510963e+01 1.027164e+02 1.347662e+02 1.354948e+02 1.132703e+02 1.180997e+02 1.004541e+02 9.000924e+01 1.037027e+02 3.542134e+01 1.936844e+00 2.978487e+00 4.005072e+00 5.478273e+00 8.480777e+00 8.945760e+00 9.060361e+00 1.131694e+01 1.164937e+01 1.145830e+01 1.137240e+01 1.069509e+01 9.755524e-01 6.082677e-01 7.095633e-01 1.491566e+00 2.772878e+00 1.900956e+00 1.904933e+00 2.319166e+00 2.373445e+00 2.199869e+00 2.295738e+00 2.197970e+00 2.114035e+00 8.436112e-01
<GCONST> 1.590260e+02
<TRANSP> 5
 0.000000e+00 1.000000e+00 0.000000e+00 0.000000e+00 0.000000e+00
 0.000000e+00 7.536466e-01 2.463534e-01 0.000000e+00 0.000000e+00
 0.000000e+00 0.000000e+00 5.976101e-01 4.023899e-01 0.000000e+00
 0.000000e+00 0.000000e+00 0.000000e+00 4.601630e-01 5.398371e-01
 0.000000e+00 0.000000e+00 0.000000e+00 0.000000e+00 0.000000e+00
<ENDHMM>
~h "aa"
<BEGINHMM>
<NUMSTATES> 5
<STATE> 2
<MEAN> 39
 6.590667e+00 -1.889388e+01 -1.492371e+01 5.681100e-02 -3.927276e+00 -7.194655e+00 -6.437716e+00 -8.809766e+00 -7.536504e+00 -8.298026e+00 -1.503110e+00 -2.036803e+00 2.358482e+01 8.065893e-01 2.780415e+00 1.477845e+00 -8.978733e-01 -2.393478e-01 -5.646878e-01 -2.082738e-01 5.502362e-01 3.741909e-01 5.473934e-01 -4.863054e-01 6.153224e-02 -2.541781e+00 -3.329073e-01 1.303548e+00 1.182190e+00 9.318117e-02 -5.158695e-02 8.109753e-02 4.106768e-01 3.281111e-01 3.524681e-01 4.707267e-01 5.856554e-02 1.766548e-01 -1.477531e+00
<VARIANCE> 39
 6.427760e+01 1.050662e+02 1.535548e+02 1.929949e+02 1.582298e+02 1.407305e+02 1.684191e+02 1.727577e+02 1.626149e+02 1.271268e+02 1.074163e+02 1.122437e+02 7.511227e+01 4.633310e+00 1.494831e+01 1.210355e+01 1.306332e+01 1.181758e+01 1.518588e+01 1.512542e+01 1.594201e+01 1.528552e+01 1.451272e+01 1.123632e+01 1.105219e+01 1.641787e+01 1.134916e+00 1.577703e+00 1.980686e+00 2.604516e+00 2.413394e+00 3.515823e+00 2.869499e+00 2.953002e+00 2.938660e+00 2.881324e+00 2.429071e+00 2.120880e+00 1.399788e+00
<GCONST> 1.783428e+02
<STATE> 3
<MEAN> 39
 8.168548e+00 -2.812760e+00 -4.112525e+00 -2.021574e+00 -5.365579e+00 -8.537794e+00 -5.317356e+00 -4.928674e+00 -4.923625e+00 -4.304874e+00 -3.763843e+00 -6.848543e-01 8.250112e+00 -6.814473e-01 3.596726e+00 3.795914e+00 9.079142e-01 2.619881e-01 -4.220829e-01 6.148040e-01 1.057410e+00 5.021254e-01 1.477553e+00 3.404360e-01 9.196361e-01 -4.851731e+00 -4.526285e-01 -9.138691e-01 -2.755485e-01 1.755699e-01 2.924098e-01 4.468217e-01 2.246851e-01 -6.239760e-02 -1.614076e-02 -3.773932e-02 3.159954e-01 -1.763232e-02 6.175828e-01
<VARIANCE> 39
 5.413074e+01 1.327008e+02 1.611539e+02 1.865155e+02 1.508293e+02 1.926639e+02 1.768991e+02 1.644638e+02 1.461685e+02 1.320097e+02 1.212272e+02 1.073394e+02 1.193828e+02 7.877285e+00 1.357059e+01 1.170866e+01 1.632028e+01 1.396599e+01 2.773204e+01 1.963954e+01 1.743443e+01 1.412996e+01 1.509247e+01 1.356621e+01 1.085683e+01 1.306051e+01 7.974283e-01 1.552244e+00 1.971485e+00 2.348703e+00 1.871002e+00 2.498045e+00 2.525909e+00 2.505398e+00 2.570088e+00 2.449672e+00 2.220865e+00 2.013580e+00 1.389473e+00
<GCONST> 1.789905e+02
<STATE> 4
<MEAN> 39
 8.931782e+00 -8.404768e+00 -1.225783e+01 3.486351e+00 -9.397427e-01 -9.048571e+00 -8.392757e+00 -4.278785e+00 -5.294771e+00 -6.850991e+00 -3.557614e+00 -8.214943e-01 1.158182e+01 -3.417037e-01 8.889832e-01 1.003624e+00 -3.927370e-02 3.100236e-01 2.283179e-01 -1.290090e-01 8.934876e-02 2.382986e-01 5.490682e-01 1.358746e-01 3.208737e-02 -1.198938e+00 -7.701904e-02 -2.508043e-01 -2.254087e-01 -5.637645e-02 -2.207771e-02 1.544767e-01 2.836950e-02 -5.408732e-02 -5.827509e-03 -4.763918e-02 1.824961e-02 -9.359279e-02 3.038460e-01
<VARIANCE> 39
 5.882355e+01 1.290820e+02 2.581742e+02 1.551667e+02 1.503158e+02 1.756426e+02 1.611023e+02 1.364285e+02 1.263148e+02 1.190238e+02 1.007653e+02 1.092089e+02 1.534295e+02 2.469765e+00 4.286934e+00 5.954321e+00 5.648713e+00 5.236295e+00 8.320031e+00 7.914403e+00 7.879284e+00 7.609119e+00 7.110920e+00 7.257784e+00 6.329379e+00 3.919896e+00 3.297610e-01 1.113411e+00 1.147831e+00 9.936509e-01 8.964951e-01 1.409910e+00 1.359223e+00 1.368484e+00 1.422092e+00 1.336309e+00 1.366397e+00 1.170496e+00 8.118519e-01
<GCONST> 1.592011e+02
<TRANSP> 5
 0.000000e+00 1.000000e+00 0.000000e+00 0.000000e+00 0.000000e+00
 0.000000e+00 5.591623e-01 4.408377e-01 0.000000e+00 0.000000e+00
 0.000000e+00 0.000000e+00 4.572862e-01 5.427139e-01 0.000000e+00
 0.000000e+00 0.000000e+00 0.000000e+00 6.979613e-01 3.020387e-01
 0.000000e+00 0.000000e+00 0.000000e+00 0.000000e+00 0.000000e+00
<ENDHMM>
~h "ae"
<BEGINHMM>
<NUMSTATES> 5
<STATE> 2
<MEAN> 39
 -5.242882e-01 -1.293114e+01 -5.547380e+00 -1.334086e+01 1.798988e+00 -4.523826e+00 -1.795177e+01 -1.275650e+01 -5.620000e+00 -8.726123e+00 -1.138116e+00 -3.092310e+00 2.788166e+01 1.177458e-01 8.630115e-01 -8.711214e-01 -1.269164e+00 4.931999e-01 2.093642e-01 5.682466e-01 3.060672e-01 -1.369604e-01 -2.137969e-01 -3.361162e-01 3.900436e-01 -9.277023e-02 1.020649e-01 3.627186e-01 1.135808e-01 -4.291890e-03 -1.756233e-01 4.847737e-03 3.040465e-01 1.523883e-01 1.001782e-01 -1.747050e-02 -9.807314e-02 1.918388e-02 -4.626812e-01
<VARIANCE> 39
 4.106355e+01 7.436236e+01 7.308472e+01 9.489330e+01 9.729467e+01 2.209354e+02 1.035045e+02 1.004209e+02 9.508286e+01 1.003329e+02 1.021730e+02 1.410813e+02 6.095948e+01 9.803140e-01 2.389376e+00 3.172375e+00 4.301279e+00 4.944879e+00 6.627976e+00 7.194198e+00 7.712735e+00 7.609119e+00 7.110920e+00 7.257784e+00 6.329379e+00 9.579530e-01 2.439051e-01 4.107516e-01 5.629291e-01 7.655918e-01 8.795463e-01 1.266415e+00 1.272813e+00 1.368484e+00 1.422092e+00 1.336309e+00 1.366397e+00 1.170496e+00 3.345153e-01
<GCONST> 1.469022e+02
<STATE> 3
<MEAN> 39
 3.016623e+00 -5.611951e+00 -1.020444e+01 -2.372806e+01 -4.787530e-01 -3.212706e+00 -1.013229e+01 -8.665310e+00 -4.476800e+00 -8.925487e+00 -4.536056e+00 3.029135e-01 2.362743e+01 1.562422e+00 2.925756e+00 1.811030e+00 4.315789e-01 -2.911941e+00 -3.344858e-01 1.857747e+00 1.514081e+00 1.057539e+00 8.624714e-01 -4.812717e-01 -4.526818e-01 -4.157622e+00 -2.448080e-01 3.633768e-01 1.018721e+00 1.779175e+00 -4.284110e-02 -2.725396e-01 -2.243311e-02 2.381827e-02 7.026196e-02 6.779812e-01 5.511283e-01 5.991202e-02 -1.389914e+00
<VARIANCE> 39
 4.499448e+01 1.031923e+02 1.093740e+02 1.353925e+02 1.599664e+02 1.830164e+02 1.035045e+02 1.462260e+02 9.508286e+01 9.372124e+01 1.711104e+02 1.200260e+02 6.923704e+01 2.684144e+00 6.556859e+00 7.382266e+00 1.290665e+01 9.656597e+00 1.791789e+01 9.674989e+00 1.053314e+01 9.906200e+00 9.589516e+00 1.039409e+01 9.638921e+00 8.126821e+00 7.191291e-01 1.062032e+00 1.456895e+00 1.562421e+00 2.559604e+00 2.400749e+00 1.920851e+00 2.500643e+00 2.056363e+00 1.914274e+00 2.192529e+00 1.803503e+00 9.149879e-01
<GCONST> 1.679477e+02
<STATE> 4
<MEAN> 39
 5.100345e+00 6.130370e+00 1.152420e+00 -1.061942e+01 -6.254216e+00 -5.449534e+00 -8.065724e+00 -7.222040e+00 -2.424546e+00 -3.188847e+00 -1.847447e+00 5.122678e-01 2.547621e+00 -1.502738e+00 1.388041e+00 2.607255e+00 5.344996e+00 1.352685e+00 1.501982e+00 2.130263e+00 1.111992e+00 6.941617e-01 1.883316e+00 1.741884e+00 8.137900e-01 -5.772332e+00 -8.055639e-01 -1.165797e+00 -7.289502e-01 -2.405151e-02 1.201722e+00 7.692231e-01 4.494539e-01 4.425321e-01 1.170114e-01 -6.921287e-02 1.334612e-01 1.467388e-01 9.719934e-01
<VARIANCE> 39
 3.551283e+01 8.012803e+01 8.723326e+01 1.395866e+02 1.471902e+02 1.608214e+02 1.210999e+02 1.299521e+02 1.372454e+02 1.224578e+02 1.550786e+02 1.160738e+02 8.364001e+01 6.364696e+00 9.731095e+00 1.097257e+01 1.107931e+01 1.799920e+01 2.395064e+01 1.580342e+01 1.822748e+01 1.507830e+01 1.380105e+01 1.556106e+01 1.259099e+01 1.009186e+01 7.188348e-01 1.148940e+00 1.322868e+00 2.450683e+00 2.494431e+00 2.901993e+00 2.582891e+00 2.865068e+00 2.568838e+00 2.336707e+00 2.501654e+00 2.084953e+00 1.336150e+00
<GCONST> 1.750110e+02
<TRANSP> 5
 0.000000e+00 1.000000e+00 0.000000e+00 0.000000e+00 0.000000e+00
 0.000000e+00 8.724462e-01 1.275538e-01 0.000000e+00 0.000000e+00
 0.000000e+00 0.000000e+00 6.638573e-01 3.361427e-01 0.000000e+00
 0.000000e+00 0.000000e+00 0.000000e+00 5.824684e-01 4.175316e-01
 0.000000e+00 0.000000e+00 0.000000e+00 0.000000e+00 0.000000e+00
<ENDHMM>
~h "ah"
<BEGINHMM>
<NUMSTATES> 5
<STATE> 2
<MEAN> 39
 4.111613e+00 -1.115151e+01 -3.823468e+00 -7.625369e+00 -3.279568e+00 -4.920965e+00 -1.750465e+01 -1.180382e+01 -5.914540e+00 -8.563220e+00 -2.353955e+00 -4.131443e+00 2.187006e+01 2.143753e-01 4.831435e-01 1.633569e-01 1.130192e-03 -2.649695e-02 -6.496082e-02 -2.677923e-01 9.989039e-03 3.574003e-02 7.905352e-02 5.376619e-02 7.515245e-02 -5.647998e-01 5.785889e-02 1.663128e-01 -3.238287e-02 1.889677e-03 -3.495334e-02 -1.012095e-02 1.647222e-01 1.431425e-02 2.664673e-03 3.971045e-02 -9.105255e-03 5.003283e-02 -1.701298e-01
<VARIANCE> 39
 3.492707e+01 8.392033e+01 5.572063e+01 7.510963e+01 7.849200e+01 1.618086e+02 1.346629e+02 1.230509e+02 1.157214e+02 1.075049e+02 8.734291e+01 1.309438e+02 7.553436e+01 9.803140e-01 2.389376e+00 3.172375e+00 4.301279e+00 4.944879e+00 6.627976e+00 7.194198e+00 7.712735e+00 7.609119e+00 7.110920e+00 7.257784e+00 6.329379e+00 8.286127e-01 1.578552e-01 4.041275e-01 5.629291e-01 7.655918e-01 8.795463e-01 1.266415e+00 1.272813e+00 1.368484e+00 1.422092e+00 1.336309e+00 1.366397e+00 1.170496e+00 1.501793e-01
<GCONST> 1.451476e+02
<STATE> 3
<MEAN> 39
 6.658955e+00 -5.557835e+00 -1.901246e+00 -6.208506e+00 -5.747940e+00 -7.420440e+00 -1.722858e+01 -1.327498e+01 -6.227029e+00 -3.626262e+00 8.187852e-01 6.048815e-01 1.342931e+01 -1.579099e-01 3.055566e+00 1.391172e+00 8.496640e-01 1.784334e-01 -7.953452e-02 1.701629e+00 8.207763e-01 7.793503e-01 8.606852e-01 -4.504043e-01 6.124769e-01 -3.424853e+00 -5.691097e-01 1.117166e-01 2.823585e-01 3.348056e-01 2.868927e-01 2.850040e-01 6.720210e-01 6.354652e-01 3.600812e-01 1.781809e-01 -9.323765e-02 -1.420648e-01 -3.815649e-01
<VARIANCE> 39
 3.805533e+01 1.296412e+02 1.148910e+02 1.384467e+02 9.984187e+01 1.900426e+02 2.481620e+02 1.602962e+02 1.434399e+02 1.975512e+02 2.229378e+02 1.690125e+02 1.307447e+02 4.572669e+00 7.419896e+00 6.590638e+00 1.021737e+01 8.434378e+00 1.221200e+01 1.252726e+01 1.211357e+01 1.209690e+01 1.221816e+01 1.158001e+01 1.283522e+01 5.584907e+00 6.331483e-01 1.689694e+00 1.083673e+00 1.576953e+00 1.616208e+00 2.325170e+00 2.409565e+00 2.157461e+00 2.205212e+00 2.149470e+00 2.193551e+00 2.229952e+00 8.363407e-01
<GCONST> 1.716083e+02
<STATE> 4
<MEAN> 39
 1.425003e-01 1.123363e+00 5.981511e+00 3.635861e+00 1.248575e+00 1.255166e+00 -5.808277e+00 -7.281199e+00 7.117615e-01 -8.923045e-01 -4.462731e+00 -7.680458e-01 -9.025800e-02 -1.953581e+00 3.226539e-01 5.581650e-02 1.238697e+00 1.027069e+00 1.524878e+00 3.299510e+00 3.127935e+00 2.019666e+00 1.490368e+00 4.255080e-01 1.980262e-01 -2.641029e+00 1.591590e-01 -4.909821e-01 -5.259329e-01 -4.035026e-01 -2.755842e-01 -1.253323e-01 -3.261265e-01 -7.213441e-02 -9.797032e-02 3.071951e-02 4.742024e-01 1.804796e-01 4.702581e-01
<VARIANCE> 39
 5.540140e+01 6.768575e+01 1.183534e+02 1.881058e+02 1.033669e+02 1.540708e+02 1.244757e+02 1.905457e+02 1.380035e+02 1.725103e+02 1.674968e+02 1.150748e+02 1.061715e+02 5.260815e+00 9.960352e+00 8.411901e+00 1.002042e+01 1.103315e+01 1.796628e+01 1.571745e+01 1.144948e+01 1.298008e+01 1.362356e+01 1.486737e+01 1.351886e+01 3.326049e+00 6.128124e-01 1.249546e+00 1.331034e+00 1.735790e+00 1.610754e+00 2.043865e+00 2.070295e+00 2.214759e+00 2.385134e+00 2.378036e+00 2.217587e+00 2.225557e+00 7.041460e-01
<GCONST> 1.710980e+02
<TRANSP> 5
 0.000000e+00 1.000000e+00 0.000000e+00 0.000000e+00 0.000000e+00
 0.000000e+00 9.057754e-01 9.422456e-02 0.000000e+00 0.000000e+00
 0.000000e+00 0.000000e+00 6.907310e-01 3.092690e-01 0.000000e+00
 0.000000e+00 0.000000e+00 0.000000e+00 5.436081e-01 4.563919e-01
 0.000000e+00 0.000000e+00 0.000000e+00 0.000000e+00 0.000000e+00
<ENDHMM>
~h "am"
<BEGINHMM>
<NUMSTATES> 5
<STATE> 2
<MEAN> 39
 5.342980e+00 -6.305710e+00 1.813493e+00 -8.988572e+00 -7.199207e+00 -1.557035e+01 -1.674325e+01 -8.359788e+00 -6.033818e+00 -8.418708e+00 -5.999369e+00 -4.400804e+00 1.754437e+01 4.544137e-01 1.342046e+00 7.159098e-01 3.978244e-01 -4.982445e-01 -1.555954e+00 1.811018e-01 2.399603e-01 1.792683e-01 2.387052e-01 -3.275056e-01 1.551875e-01 -1.410888e+00 -8.407549e-03 -4.385408e-02 -1.448584e-01 8.287089e-02 1.237188e-02 2.786311e-01 6.829715e-02 -2.259412e-01 -5.785078e-02 1.655536e-02 1.810879e-01 2.062075e-02 -1.805513e-02
<VARIANCE> 39
 4.508130e+01 7.563408e+01 1.122181e+02 1.140146e+02 9.472350e+01 3.051880e+02 1.433222e+02 1.527787e+02 1.160923e+02 1.276381e+02 1.065255e+02 1.278812e+02 1.005831e+02 1.080248e+00 4.935366e+00 5.259144e+00 4.301279e+00 4.944879e+00 1.128445e+01 7.253512e+00 7.713222e+00 7.609119e+00 7.110920e+00 7.257784e+00 6.329379e+00 1.883648e+00 1.838972e-01 6.309630e-01 8.066823e-01 7.655918e-01 8.795463e-01 1.863108e+00 1.272813e+00 1.368484e+00 1.422092e+00 1.336309e+00 1.366397e+00 1.170496e+00 2.545625e-01
<GCONST> 1.527150e+02
<STATE> 3
<MEAN> 39
 9.753452e+00 6.360661e+00 9.792626e+00 3.332781e-01 -8.486185e+00 -2.378196e+01 -1.607036e+01 -7.645205e+00 -7.971361e+00 -4.266552e+00 -6.405348e+00 -3.894999e-01 2.643678e+00 -1.187755e+00 1.111232e+00 1.616434e-01 1.143934e+00 1.246134e+00 2.441380e+00 7.840585e-01 -8.017336e-01 5.291568e-02 6.684212e-01 6.837152e-01 5.938705e-01 -2.082671e+00 -4.424051e-01 -7.163717e-01 -4.244539e-01 1.638305e-02 4.954394e-01 1.174628e+00 7.065257e-01 3.060483e-01 2.220858e-01 7.172835e-02 3.484564e-01 5.690167e-02 1.359202e-01
<VARIANCE> 39
 2.461978e+01 5.040178e+01 6.270436e+01 1.188306e+02 1.071263e+02 1.931825e+02 1.297848e+02 1.623874e+02 1.358527e+02 1.278359e+02 1.243196e+02 1.498839e+02 3.542134e+01 3.456537e+00 5.080557e+00 6.990839e+00 6.323761e+00 8.502774e+00 2.151148e+01 1.263457e+01 1.171690e+01 1.188785e+01 1.170472e+01 1.127945e+01 1.006171e+01 1.799696e+00 3.968148e-01 7.688759e-01 1.340523e+00 9.735417e-01 1.447751e+00 2.497133e+00 2.021136e+00 2.745373e+00 2.612777e+00 2.268493e+00 2.125358e+00 1.798702e+00 2.844356e-01
<GCONST> 1.618298e+02
<STATE> 4
<MEAN> 39
 -5.411724e-01 3.010512e+00 6.297717e+00 4.496852e+00 5.921123e-01 -1.202064e+00 -9.661806e-01 -1.001894e+00 -1.187214e+00 2.774850e+00 1.869181e+00 3.697682e+00 -7.621014e+00 -1.050341e+00 -4.854508e-01 -5.411083e-01 2.520635e-01 1.055915e+00 2.342559e+00 1.868800e+00 1.362803e+00 1.125611e+00 8.394719e-01 8.519637e-01 4.458517e-01 -9.030093e-01 3.484698e-01 3.872996e-02 -3.327896e-02 -2.294605e-01 -3.258384e-01 -6.412320e-01 -4.020055e-01 -9.378238e-02 -8.275016e-02 -1.642770e-01 -2.689523e-01 -2.010099e-01 4.558100e-01
<VARIANCE> 39
 3.011882e+01 5.576198e+01 5.365977e+01 7.510963e+01 8.433042e+01 2.637663e+02 1.328165e+02 1.390728e+02 1.190200e+02 1.131137e+02 9.791662e+01 9.506750e+01 4.156255e+01 2.649204e+00 2.935811e+00 3.172375e+00 4.552438e+00 7.656916e+00 1.370687e+01 1.016741e+01 1.221439e+01 1.289778e+01 1.090014e+01 9.077984e+00 8.579608e+00 1.236991e+00 3.275160e-01 6.393771e-01 8.302342e-01 8.412935e-01 1.304580e+00 2.368799e+00 1.617340e+00 2.178206e+00 2.317158e+00 2.021990e+00 1.504344e+00 1.508049e+00 2.707638e-01
<GCONST> 1.548452e+02
<TRANSP> 5
 0.000000e+00 1.000000e+00 0.000000e+00 0.000000e+00 0.000000e+00
 0.000000e+00 8.700756e-01 1.299244e-01 0.000000e+00 0.000000e+00
 0.000000e+00 0.000000e+00 7.894610e-01 2.105391e-01 0.000000e+00
 0.000000e+00 0.000000e+00 0.000000e+00 7.344288e-01 2.655712e-01
 0.000000e+00 0.000000e+00 0.000000e+00 0.000000e+00 0.000000e+00
<ENDHMM>
~h "aw"
<BEGINHMM>
<NUMSTATES> 5
<STATE> 2
<MEAN> 39
 1.489270e+01 -1.477287e+01 -1.941062e+01 1.081497e+00 3.229080e+00 -7.199154e+00 -1.202550e+01 -3.733697e+00 -1.129518e+01 -6.503663e+00 -3.640454e+00 -6.206450e-01 1.583990e+01 2.954019e-01 2.808122e+00 7.497475e-01 -3.246180e+00 -8.550763e-01 4.662614e-01 1.045952e+00 -7.862309e-01 9.809150e-01 6.377755e-01 -7.421162e-01 -2.191179e-01 -1.425744e+00 -3.490008e-01 3.818436e-01 9.074056e-01 -2.535194e-03 -5.844846e-01 -5.060047e-01 8.402702e-02 -9.921231e-02 2.781242e-01 5.331985e-02 1.567445e-01 -1.180858e-01 -9.947231e-02
<VARIANCE> 39
 3.205774e+01 9.403155e+01 7.099924e+01 1.521396e+02 1.150217e+02 1.133336e+02 1.294861e+02 1.425944e+02 1.261675e+02 1.014092e+02 9.817048e+01 8.146334e+01 5.314009e+01 1.654258e+00 2.601450e+00 1.071094e+01 7.899494e+00 1.185301e+01 1.305981e+01 1.040188e+01 1.112667e+01 1.076852e+01 9.452495e+00 9.054409e+00 6.554461e+00 1.009412e+00 1.578552e-01 4.171302e-01 7.524936e-01 2.262202e+00 1.537191e+00 2.102860e+00 2.348348e+00 2.151538e+00 1.969922e+00 1.581317e+00 1.509082e+00 1.226587e+00 1.459560e-01
<GCONST> 1.555303e+02
<STATE> 3
<MEAN> 39
 1.051458e+01 2.380935e+00 -2.070231e+00 -4.573815e+00 -7.726685e+00 -2.015876e+01 -1.159448e+01 -9.161082e+00 -3.387084e+00 6.116524e-01 6.491476e+00 8.350016e+00 4.261099e+00 -1.021958e+00 1.606890e+00 2.528875e+00 5.410990e-01 -7.598072e-01 -7.516814e-01 -7.314712e-01 -5.981765e-01 1.458486e+00 9.173064e-01 1.583758e+00 6.364636e-01 -1.060194e+00 1.280151e-02 -2.319804e-01 -3.915643e-01 1.981143e-01 5.500427e-01 5.241888e-01 -4.028657e-02 1.458988e-01 -2.473180e-01 -1.683673e-02 -3.254925e-01 -2.277105e-01 1.684096e-02
<VARIANCE> 39
 2.412221e+01 6.253151e+01 5.620255e+01 8.135683e+01 8.992976e+01 1.933073e+02 1.632929e+02 1.840013e+02 1.219319e+02 1.985187e+02 3.236110e+02 2.423898e+02 5.507098e+01 1.053994e+00 4.415019e+00 7.042085e+00 1.486664e+01 6.037883e+00 1.450501e+01 1.347869e+01 1.373824e+01 1.226812e+01 1.353667e+01 1.651319e+01 1.052586e+01 8.286127e-01 1.578552e-01 5.062506e-01 8.268001e-01 1.393459e+00 1.273426e+00 2.699469e+00 2.907130e+00 2.886903e+00 2.085310e+00 2.845601e+00 3.335737e+00 1.631525e+00 2.144898e-01
<GCONST> 1.617479e+02
<STATE> 4
<MEAN> 39
 6.647600e+00 7.131300e+00 6.770571e+00 -5.448164e+00 -5.433381e+00 -8.970837e+00 -1.068932e+01 -1.172551e+01 -1.843841e+00 -3.230561e+00 -2.635417e+00 -2.792249e+00 3.390883e+00 -8.928132e-01 2.325901e+00 1.146618e+00 -1.278577e-01 7.665399e-01 -3.488916e-01 2.355147e-01 1.286753e+00 7.694356e-01 -8.977504e-01 -1.880263e+00 -1.209127e+00 -1.675942e+00 8.398393e-02 -3.954856e-01 -4.248428e-01 9.418640e-01 2.628413e-01 1.326208e-02 4.426143e-01 2.697037e-01 -6.342766e-01 4.849464e-02 2.669639e-01 5.874494e-02 -2.715214e-01
<VARIANCE> 39
 2.412221e+01 6.597063e+01 1.087543e+02 3.061761e+02 8.983308e+01 1.478558e+02 1.035045e+02 1.097491e+02 1.489330e+02 1.549021e+02 1.694571e+02 1.198608e+02 1.251188e+02 1.065923e+00 8.118139e+00 5.385628e+00 1.036085e+01 7.416539e+00 1.690864e+01 1.680656e+01 8.626731e+00 1.326731e+01 1.183071e+01 1.204238e+01 8.156752e+00 8.904771e-01 2.243233e-01 4.107863e-01 1.149423e+00 3.250506e+00 1.652609e+00 2.586957e+00 1.439925e+00 1.368484e+00 2.935490e+00 2.972440e+00 2.398370e+00 1.208186e+00 3.551114e-01
<GCONST> 1.618642e+02
<TRANSP> 5
 0.000000e+00 1.000000e+00 0.000000e+00 0.000000e+00 0.000000e+00
 0.000000e+00 8.433479e-01 1.566521e-01 0.000000e+00 0.000000e+00
 0.000000e+00 0.000000e+00 7.422295e-01 2.577704e-01 0.000000e+00
 0.000000e+00 0.000000e+00 0.000000e+00 5.284820e-01 4.715180e-01
 0.000000e+00 0.000000e+00 0.000000e+00 0.000000e+00 0.000000e+00
<ENDHMM>
~h "ay"
<BEGINHMM>
<NUMSTATES> 5
<STATE> 2
<MEAN> 39
 -1.387310e-02 -3.055060e+00 -1.263944e+01 -1.947815e+01 3.285401e+00 -5.811597e+00 -1.317235e+01 -1.078682e+01 -5.320716e+00 -1.281229e+01 -3.528149e+00 -3.179600e+00 2.612437e+01 8.175221e-01 3.862507e+00 -1.790977e+00 -1.681545e+00 -9.185420e-01 -1.415259e+00 2.034895e+00 1.411388e+00 5.103505e-01 -9.563439e-03 -7.913757e-01 -4.890842e-01 -1.565228e+00 1.954768e-01 1.327368e-01 4.781690e-01 4.344269e-01 -7.267985e-01 -3.517947e-01 4.951575e-02 5.884544e-02 2.207875e-01 4.144082e-01 2.711509e-02 -2.109835e-01 -4.106183e-01
<VARIANCE> 39
 3.805501e+01 1.133803e+02 1.539588e+02 1.132061e+02 1.018985e+02 2.131326e+02 1.035045e+02 1.175998e+02 9.508286e+01 9.372124e+01 1.043684e+02 1.110270e+02 6.269490e+01 9.803140e-01 3.823077e+00 5.794114e+00 5.642890e+00 9.543255e+00 8.840776e+00 7.194198e+00 8.246511e+00 9.597851e+00 8.020958e+00 9.277295e+00 1.026281e+01 9.868100e-01 1.578552e-01 7.265550e-01 1.384824e+00 9.689433e-01 1.051015e+00 1.275271e+00 1.510201e+00 1.463354e+00 1.469607e+00 1.336309e+00 1.670079e+00 1.655384e+00 1.729447e-01
<GCONST> 1.531612e+02
<STATE> 3
<MEAN> 39
 6.668136e+00 1.536657e+01 -8.486657e+00 -1.990824e+01 -1.042138e+01 -1.520781e+01 -8.016068e+00 -5.847764e+00 1.552420e+00 -8.388790e+00 -5.779180e+00 -7.000922e+00 1.167862e+01 2.164409e-01 7.679871e-01 2.890564e+00 2.155261e+00 -7.635679e-01 -3.292450e-01 -2.446826e-01 -2.030507e-01 2.365980e-01 1.132735e+00 4.369231e-01 3.010126e-01 -2.840183e+00 -4.332308e-01 -8.606920e-01 2.128490e-01 7.768332e-01 8.297449e-01 7.320675e-01 4.655881e-02 -2.141555e-01 -3.813700e-01 1.060793e-01 2.435296e-01 4.814256e-01 -5.080335e-02
<VARIANCE> 39
 2.534847e+01 5.883646e+01 1.717500e+02 1.147755e+02 1.232361e+02 1.289183e+02 1.277966e+02 1.067310e+02 1.208372e+02 9.372124e+01 1.387935e+02 1.123233e+02 7.469725e+01 3.290570e+00 5.782866e+00 8.302268e+00 1.211264e+01 9.715394e+00 1.084604e+01 9.431651e+00 1.001738e+01 1.127100e+01 8.609457e+00 1.083498e+01 9.411584e+00 4.587551e+00 5.593120e-01 7.548735e-01 1.661159e+00 1.746700e+00 1.616955e+00 1.616992e+00 2.082338e+00 1.845268e+00 1.934122e+00 1.432460e+00 2.174786e+00 1.788693e+00 4.596690e-01
<GCONST> 1.629665e+02
<STATE> 4
<MEAN> 39
 7.819152e-01 9.369802e+00 1.484166e+00 -2.943396e+00 -2.974608e+00 -5.143146e+00 -2.642465e+00 -4.498249e+00 1.918205e+00 1.271158e+00 1.831254e+00 1.123128e+00 -2.883888e+00 -1.445584e+00 -1.544683e+00 4.749770e-01 1.911007e+00 1.406063e+00 2.146252e+00 1.807023e+00 1.489821e+00 6.685801e-01 1.449027e+00 1.088322e+00 7.730807e-01 -1.374281e+00 3.540296e-02 -1.036592e-01 -5.659925e-01 -6.052912e-01 -2.246305e-01 -8.629288e-02 1.489776e-01 3.103239e-01 1.127366e-01 -2.780439e-01 -1.506037e-01 -2.116204e-01 6.364056e-01
<VARIANCE> 39
 4.123255e+01 6.028188e+01 9.530745e+01 1.036557e+02 1.460891e+02 1.548634e+02 1.282396e+02 1.233594e+02 1.457019e+02 1.507668e+02 1.515289e+02 1.499310e+02 7.112769e+01 5.338058e+00 4.047477e+00 6.046901e+00 9.717985e+00 1.046074e+01 1.273796e+01 1.128175e+01 1.268930e+01 1.256776e+01 1.075785e+01 1.159994e+01 1.178611e+01 3.193282e+00 4.442753e-01 7.447019e-01 1.174109e+00 1.615581e+00 1.408470e+00 1.614484e+00 1.886326e+00 2.254488e+00 2.462502e+00 2.140704e+00 2.045633e+00 1.975599e+00 5.774897e-01
<GCONST> 1.649835e+02
<TRANSP> 5
 0.000000e+00 1.000000e+00 0.000000e+00 0.000000e+00 0.000000e+00
 0.000000e+00 8.127646e-01 1.872353e-01 0.000000e+00 0.000000e+00
 0.000000e+00 0.000000e+00 7.958771e-01 2.041229e-01 0.000000e+00
 0.000000e+00 0.000000e+00 0.000000e+00 7.327996e-01 2.672004e-01
 0.000000e+00 0.000000e+00 0.000000e+00 0.000000e+00 0.000000e+00
<ENDHMM>
~h "ch"
<BEGINHMM>
<NUMSTATES> 5
<STATE> 2
<MEAN> 39
 -1.622772e+01 5.072610e+00 -1.944007e+00 2.291032e+00 4.393687e+00 5.328889e+00 4.907022e+00 3.512026e+00 5.319154e+00 -2.258092e-01 2.311495e+00 1.458521e+00 7.112846e+00 2.071156e-01 -2.477958e-03 2.470290e-01 -7.868444e-01 7.307810e-02 -4.728430e-01 -7.122646e-01 -6.079362e-01 -8.113807e-02 -4.332184e-01 -4.224497e-01 -7.612631e-02 9.588118e-01 9.261177e-01 -3.801898e-03 6.318437e-02 -5.020528e-01 -4.880755e-01 -5.727686e-01 -5.464568e-01 -3.983698e-01 -3.632576e-01 -1.969391e-01 -2.047161e-01 -1.246462e-01 -1.731628e-02
<VARIANCE> 39
 9.106958e+01 8.821442e+01 1.088919e+02 1.250769e+02 1.175222e+02 1.348834e+02 1.283629e+02 1.256567e+02 1.294403e+02 1.197942e+02 1.073444e+02 9.167384e+01 1.039609e+02 1.814318e+01 1.132635e+01 1.290400e+01 1.672296e+01 1.443548e+01 1.803204e+01 1.832736e+01 1.652617e+01 1.632925e+01 1.323300e+01 1.334529e+01 1.101230e+01 1.211080e+01 1.716143e+00 2.173201e+00 2.629156e+00 3.481746e+00 2.787080e+00 3.191620e+00 3.136758e+00 2.861420e+00 3.172925e+00 2.882188e+00 2.480201e+00 2.203210e+00 2.577317e+00
<GCONST> 1.806382e+02
<STATE> 3
<MEAN> 39
 5.450406e+00 4.156746e+00 -3.318660e+00 -1.187544e+01 -7.470680e+00 -1.379508e+01 -1.224199e+01 -9.718688e+00 -5.868732e+00 -7.327087e+00 -4.469194e+00 -1.204213e+00 1.415150e+01 3.806094e+00 -1.554490e+00 -2.634745e+00 -3.317897e+00 -2.412337e+00 -2.916607e+00 -1.995259e+00 -1.015312e+00 -2.087007e+00 -1.316027e+00 -8.441785e-01 -3.328255e-01 2.455531e+00 -1.129435e+00 -5.589998e-01 -2.184919e-01 8.425834e-01 9.793796e-01 1.259318e+00 1.189479e+00 1.016824e+00 7.352081e-01 4.596082e-01 3.450340e-01 1.928393e-01 -2.481474e-01
<VARIANCE> 39
 8.646969e+01 1.852424e+02 1.818770e+02 2.108784e+02 1.239342e+02 2.613768e+02 1.750145e+02 1.819037e+02 1.468473e+02 1.365815e+02 1.726313e+02 1.333647e+02 1.160842e+02 9.848487e+00 1.317358e+01 1.674166e+01 2.420268e+01 1.707908e+01 3.274672e+01 2.498517e+01 2.160065e+01 1.771734e+01 1.846172e+01 1.626435e+01 1.503416e+01 8.571871e+00 1.259768e+00 1.767197e+00 2.362488e+00 4.644668e+00 2.517765e+00 4.582289e+00 3.378832e+00 3.281829e+00 3.325169e+00 2.944654e+00 3.524382e+00 2.606239e+00 1.568418e+00
<GCONST> 1.872943e+02
<STATE> 4
<MEAN> 39
 1.344189e+01 -8.957148e+00 -2.036233e+01 -9.640673e+00 -4.983096e+00 -1.173169e+01 -1.452289e+01 -8.920439e+00 -7.826083e+00 -7.172690e+00 -5.256537e+00 -1.559267e+00 1.854508e+01 3.054245e-01 -4.357404e-01 -6.326289e-01 8.359784e-01 2.825476e-01 4.710912e-01 -2.321343e-01 2.519521e-01 2.913166e-01 3.331914e-01 -8.785607e-02 2.021542e-02 -4.481659e-01 -3.025357e-01 2.893509e-01 5.381628e-01 2.887755e-01 4.465231e-02 1.365221e-01 9.580247e-02 -3.650961e-02 6.193276e-02 1.615735e-01 1.166814e-01 5.713094e-02 -3.685554e-01
<VARIANCE> 39
 8.749072e+01 1.981322e+02 2.160560e+02 2.553525e+02 1.280072e+02 1.602084e+02 1.257282e+02 1.575288e+02 1.074969e+02 1.755071e+02 1.492168e+02 1.541027e+02 9.629910e+01 1.942620e+00 4.357303e+00 9.889458e+00 1.238754e+01 7.602142e+00 8.736026e+00 7.827777e+00 9.329972e+00 8.100862e+00 9.750522e+00 9.619538e+00 7.009289e+00 3.322867e+00 4.104270e-01 7.673188e-01 1.175504e+00 1.656922e+00 1.197983e+00 1.583392e+00 1.646017e+00 1.750570e+00 1.514284e+00 1.694943e+00 1.746011e+00 1.308658e+00 4.540378e-01
<GCONST> 1.640348e+02
<TRANSP> 5
 0.000000e+00 1.000000e+00 0.000000e+00 0.000000e+00 0.000000e+00
 0.000000e+00 8.808544e-01 1.191456e-01 0.000000e+00 0.000000e+00
 0.000000e+00 0.000000e+00 6.632453e-01 3.367547e-01 0.000000e+00
 0.000000e+00 0.000000e+00 0.000000e+00 7.857614e-01 2.142387e-01
 0.000000e+00 0.000000e+00 0.000000e+00 0.000000e+00 0.000000e+00
<ENDHMM>
~h "ea"
<BEGINHMM>
<NUMSTATES> 5
<STATE> 2
<MEAN> 39
 2.392274e+00 1.418171e+01 -1.315799e+01 -2.480160e+01 -7.661333e+00 -1.738612e+01 -5.771308e+00 -3.775275e+00 -7.697843e-01 -8.547858e+00 -4.573262e+00 -5.132633e+00 1.836008e+01 2.531818e-02 -6.999301e-01 -1.482291e-01 -2.095998e-01 2.394404e-01 8.773077e-01 1.752022e-01 6.198390e-02 -4.841314e-02 -2.790128e-01 -1.486806e-01 2.145724e-01 8.463678e-02 1.093505e-01 -4.262243e-01 3.340477e-01 2.451191e-01 -5.359422e-02 4.089108e-01 -6.109985e-02 -8.497545e-02 -5.952002e-02 4.634558e-02 6.914492e-03 8.655203e-02 -1.553654e-01
<VARIANCE> 39
 2.585725e+01 7.599850e+01 1.615385e+02 1.460902e+02 1.116521e+02 1.178476e+02 1.907764e+02 1.174999e+02 9.508286e+01 9.561549e+01 1.192782e+02 8.630965e+01 6.263200e+01 9.803140e-01 4.292229e+00 3.172375e+00 4.301279e+00 5.027681e+00 7.010412e+00 7.194198e+00 7.712735e+00 7.609119e+00 7.110920e+00 7.257784e+00 6.329379e+00 1.304413e+00 1.578552e-01 4.041275e-01 5.629291e-01 9.467168e-01 8.795463e-01 1.266415e+00 1.272813e+00 1.368484e+00 1.422092e+00 1.336309e+00 1.366397e+00 1.170496e+00 2.745887e-01
<GCONST> 1.481369e+02
<STATE> 3
<MEAN> 39
 4.349887e+00 -3.061767e+00 -8.893201e+00 -2.311684e+01 -5.744936e+00 -7.116508e-01 -8.679352e+00 -5.298221e+00 -2.181277e+00 -8.679672e+00 -4.456409e+00 2.996898e-01 1.845870e+01 9.207957e-01 -1.382028e+00 1.962900e+00 3.452609e+00 -8.291840e-01 9.173011e-01 -5.828038e-02 -9.730704e-01 -5.627703e-02 1.264681e+00 3.887257e-01 5.413917e-01 -2.376414e+00 1.876332e-03 8.189366e-01 4.493635e-01 8.386274e-01 -2.579291e-02 -1.030578e+00 3.066373e-01 1.891658e-01 -1.363991e-02 4.654147e-01 5.274513e-02 -8.369956e-02 -8.318119e-01
<VARIANCE> 39
 3.927523e+01 1.081407e+02 1.264286e+02 1.651541e+02 1.437776e+02 1.618728e+02 2.837345e+02 1.444469e+02 1.454917e+02 1.577142e+02 2.663181e+02 1.637700e+02 5.874372e+01 2.320229e+00 8.015417e+00 7.568699e+00 1.092631e+01 1.128726e+01 1.766734e+01 2.158697e+01 1.369956e+01 1.374658e+01 1.181001e+01 1.624959e+01 1.195356e+01 6.413663e+00 4.548798e-01 1.043337e+00 1.060937e+00 1.912683e+00 2.373445e+00 2.781040e+00 3.434287e+00 2.188727e+00 2.741504e+00 2.547081e+00 3.381816e+00 2.229736e+00 5.667279e-01
<GCONST> 1.732540e+02
<STATE> 4
<MEAN> 39
 5.558387e+00 -4.530457e-01 4.297901e+00 -2.411440e+00 -5.741830e+00 -2.182328e+00 -5.849665e+00 -8.024286e+00 -1.004635e+00 -1.685655e+00 -6.358756e+00 -2.619349e-01 2.638844e+00 -7.447596e-01 6.355003e-01 2.081383e+00 3.721478e+00 1.181974e+00 -7.428126e-01 1.718382e+00 1.682748e+00 3.263622e-01 1.428020e+00 4.160166e-01 -2.732912e-01 -3.562110e+00 -2.921963e-01 -1.348542e-01 -5.643201e-01 -7.501789e-01 2.493371e-01 1.935841e-01 8.571591e-02 4.938890e-01 2.013896e-01 -2.419586e-01 2.210746e-01 1.317547e-01 5.033363e-01
<VARIANCE> 39
 5.120937e+01 8.338900e+01 8.494372e+01 2.138686e+02 1.169016e+02 2.254561e+02 2.340788e+02 2.576332e+02 2.078215e+02 1.566937e+02 1.879024e+02 1.505881e+02 6.682490e+01 4.596921e+00 6.868304e+00 9.725771e+00 1.354726e+01 1.228135e+01 2.315218e+01 1.668464e+01 1.612776e+01 1.664805e+01 1.736568e+01 1.841330e+01 1.499143e+01 4.652638e+00 5.167970e-01 9.523754e-01 1.175849e+00 1.791137e+00 1.786229e+00 2.257464e+00 2.551378e+00 2.654945e+00 2.581942e+00 2.643825e+00 2.618267e+00 2.338864e+00 5.150489e-01
<GCONST> 1.746902e+02
<TRANSP> 5
 0.000000e+00 1.000000e+00 0.000000e+00 0.000000e+00 0.000000e+00
 0.000000e+00 8.801568e-01 1.198432e-01 0.000000e+00 0.000000e+00
 0.000000e+00 0.000000e+00 7.451273e-01 2.548727e-01 0.000000e+00
 0.000000e+00 0.000000e+00 0.000000e+00 5.963994e-01 4.036006e-01
 0.000000e+00 0.000000e+00 0.000000e+00 0.000000e+00 0.000000e+00
<ENDHMM>
~h "eh"
<BEGINHMM>
<NUMSTATES> 5
<STATE> 2
<MEAN> 39
 3.547884e+00 -2.170848e+01 -1.257902e+01 -2.416989e+00 -8.886984e+00 -2.627502e+00 -6.295694e+00 -1.492703e+01 -7.701854e+00 -8.976606e+00 -2.415668e+00 -3.290811e+00 2.789632e+01 5.976506e-01 7.093878e-01 3.160597e-01 -2.717521e-01 -2.016892e-01 -4.452751e-01 6.674565e-02 3.257104e-01 -2.711369e-01 2.126249e-01 8.964776e-02 -1.555296e-02 -8.963292e-01 1.734658e-01 4.941526e-01 1.565863e-01 -2.078637e-01 -1.289827e-01 -3.938376e-01 1.425397e-01 2.766163e-01 7.222483e-02 1.074431e-01 -1.374279e-01 2.218671e-02 -4.050532e-01
<VARIANCE> 39
 3.486620e+01 4.705951e+01 5.365977e+01 8.984368e+01 9.792380e+01 1.212758e+02 1.960651e+02 1.566654e+02 1.656141e+02 9.554485e+01 8.556060e+01 8.492278e+01 6.020161e+01 1.083950e+00 2.523100e+00 3.172375e+00 4.301279e+00 4.944879e+00 6.627976e+00 7.194198e+00 7.712735e+00 7.609119e+00 7.110920e+00 7.257784e+00 6.329379e+00 1.372165e+00 1.578552e-01 5.260314e-01 5.629291e-01 7.655918e-01 8.795463e-01 1.266415e+00 1.272813e+00 1.368484e+00 1.422092e+00 1.336309e+00 1.366397e+00 1.170496e+00 2.811858e-01
<GCONST> 1.463691e+02
<STATE> 3
<MEAN> 39
 1.040566e+01 -4.072353e+00 -1.931824e+00 -8.539556e+00 -1.270802e+01 -1.688995e+01 -3.226360e+00 -3.519240e+00 -9.532578e+00 -3.654372e+00 -5.555300e+00 -1.410449e-02 1.272548e+01 3.452709e-01 3.226546e+00 2.352292e+00 -3.078666e-01 -4.473011e-01 -3.630053e+00 -2.334158e-01 1.091057e+00 6.976425e-01 4.639645e-01 -6.774504e-01 7.665309e-01 -2.701887e+00 -3.304545e-01 -7.298060e-01 -4.703435e-01 3.126175e-01 4.423196e-01 6.726956e-01 -2.165393e-01 -5.286571e-01 2.087098e-01 -2.374842e-01 1.802901e-01 -7.659389e-02 5.840352e-01
<VARIANCE> 39
 2.579483e+01 1.278024e+02 1.160204e+02 1.157197e+02 9.598930e+01 2.624962e+02 1.453870e+02 1.741143e+02 1.361290e+02 1.457323e+02 1.149516e+02 1.396596e+02 9.255924e+01 1.967007e+00 1.090279e+01 7.636099e+00 8.710582e+00 9.579057e+00 1.446087e+01 1.254260e+01 1.515071e+01 9.063543e+00 1.238224e+01 8.984632e+00 9.293653e+00 6.697944e+00 3.116930e-01 1.846306e+00 1.804338e+00 1.205505e+00 1.364395e+00 2.633782e+00 1.752868e+00 1.775932e+00 1.422092e+00 1.953845e+00 1.460512e+00 1.728272e+00 9.106531e-01
<GCONST> 1.666451e+02
<STATE> 4
<MEAN> 39
 9.777551e+00 -7.131102e+00 -6.833065e+00 -9.317242e+00 -8.101478e+00 -1.571302e+01 -2.613078e-01 -9.569405e+00 -7.795790e+00 -5.457920e+00 -4.526415e+00 -1.580618e+00 1.625741e+01 1.223866e-01 5.769337e-01 1.574060e-01 6.805291e-01 4.083361e-01 -3.807839e-02 -6.901827e-01 -2.698360e-01 2.127670e-01 1.361621e-01 2.943545e-01 2.279426e-01 -8.967955e-01 -5.602402e-02 2.728723e-02 5.253579e-02 2.433224e-01 8.829904e-02 3.625713e-01 -1.475062e-01 1.247616e-02 -7.133093e-02 2.491673e-02 6.113509e-02 -6.758205e-02 -1.025753e-01
<VARIANCE> 39
 2.904812e+01 8.569556e+01 8.988107e+01 1.097511e+02 8.910177e+01 1.421181e+02 2.590898e+02 1.543308e+02 9.608439e+01 1.278162e+02 9.722235e+01 9.698696e+01 9.224561e+01 9.803140e-01 2.389376e+00 3.172375e+00 4.301279e+00 4.944879e+00 6.627976e+00 7.194198e+00 7.712735e+00 7.609119e+00 7.110920e+00 7.257784e+00 6.329379e+00 1.432076e+00 1.727167e-01 4.041275e-01 6.184517e-01 7.655918e-01 8.795463e-01 1.266415e+00 1.272813e+00 1.368484e+00 1.422092e+00 1.336309e+00 1.366397e+00 1.170496e+00 1.863888e-01
<GCONST> 1.476607e+02
<TRANSP> 5
 0.000000e+00 1.000000e+00 0.000000e+00 0.000000e+00 0.000000e+00
 0.000000e+00 8.399138e-01 1.600861e-01 0.000000e+00 0.000000e+00
 0.000000e+00 0.000000e+00 6.531513e-01 3.468486e-01 0.000000e+00
 0.000000e+00 0.000000e+00 0.000000e+00 8.104557e-01 1.895443e-01
 0.000000e+00 0.000000e+00 0.000000e+00 0.000000e+00 0.000000e+00
<ENDHMM>
~h "eo"
<BEGINHMM>
<NUMSTATES> 5
<STATE> 2
<MEAN> 39
 3.375991e+00 -1.586060e+01 -8.644449e+00 -1.613416e+01 -1.665376e+01 4.039041e+00 2.548037e+00 -1.517469e+01 -5.316075e+00 -3.872328e+00 -1.346535e+01 -3.202659e+00 3.076633e+01 1.806312e+00 -7.780575e-01 -9.487109e-01 -4.873566e-01 -2.386538e+00 -3.123351e+00 1.056167e+00 4.209019e-01 -3.277500e+00 1.725619e+00 -3.537304e-01 -1.648899e+00 -8.656865e-01 -3.430207e-01 1.431059e+00 8.544168e-01 1.799509e+00 1.283747e+00 -3.185724e-01 5.978695e-02 1.635296e+00 4.828463e-01 6.519430e-01 1.323234e+00 3.103528e-01 -3.011497e+00
<VARIANCE> 39
 3.222805e+01 1.171113e+02 5.882118e+01 1.213485e+02 7.849200e+01 9.569573e+01 1.133365e+02 1.345389e+02 1.591746e+02 1.628638e+02 1.740428e+02 1.126768e+02 1.656916e+02 2.941811e+00 8.800707e+00 6.254910e+00 1.870931e+01 1.084810e+01 1.172604e+01 8.914275e+00 1.838477e+01 1.500347e+01 2.034518e+01 2.390969e+01 8.882516e+00 2.667219e+01 7.112414e-01 1.254344e+00 1.793199e+00 3.119137e+00 2.369463e+00 1.866402e+00 2.104631e+00 2.444845e+00 2.660572e+00 4.748292e+00 4.280372e+00 2.892884e+00 3.241528e+00
<GCONST> 1.757848e+02
<STATE> 3
<MEAN> 39
 5.884517e+00 -6.889403e+00 -2.886299e+00 -4.482722e+00 -1.738205e+01 -5.933718e+00 4.954619e+00 -4.897548e+00 -8.680216e+00 4.014162e+00 -4.452507e+00 -7.060344e+00 7.774889e+00 -5.702869e-01 3.545890e+00 2.146313e+00 2.108904e+00 2.282159e+00 4.752695e-01 -4.195188e-01 2.201256e+00 1.418765e+00 7.020926e-01 1.782600e+00 1.882709e+00 -6.784230e+00 -7.283862e-01 -2.220625e-02 -6.594421e-02 -2.522960e-01 1.252374e+00 1.523788e+00 -2.396434e-01 -1.342209e-01 8.909889e-01 -4.293619e-01 -3.278273e-01 8.632138e-01 4.739870e-01
<VARIANCE> 39
 2.538997e+01 1.199321e+02 6.765966e+01 1.229471e+02 7.849200e+01 1.598379e+02 1.546494e+02 1.422351e+02 1.487052e+02 9.653339e+01 1.257359e+02 1.199824e+02 1.381735e+02 4.641540e+00 7.038330e+00 5.930810e+00 1.091617e+01 9.078875e+00 2.379445e+01 1.762202e+01 1.490552e+01 1.397005e+01 1.643375e+01 1.463519e+01 1.438948e+01 1.045162e+01 5.858457e-01 1.812277e+00 1.130509e+00 2.039168e+00 1.686853e+00 2.354098e+00 2.663687e+00 2.559741e+00 3.717928e+00 3.434768e+00 2.601668e+00 2.746356e+00 2.504665e+00
<GCONST> 1.736439e+02
<STATE> 4
<MEAN> 39
 3.277111e+00 -1.073302e+00 -2.340936e+00 -7.191922e+00 -7.224833e+00 -5.342026e-01 5.349561e+00 1.112932e+00 -3.363058e+00 1.822848e+00 -2.644127e+00 2.385851e+00 -2.853754e-01 -1.704309e-01 6.578912e-01 3.737220e-01 2.171666e-01 9.851438e-01 -8.256763e-02 1.044146e-01 1.960783e-01 -3.298670e-02 -4.234879e-01 4.106069e-01 4.340288e-01 -5.720409e-01 7.340706e-02 -3.652612e-01 -1.879057e-01 -3.814301e-02 -3.168294e-01 9.118503e-02 1.353296e-01 -3.647771e-01 -1.365248e-01 -1.568981e-01 -2.261403e-01 -3.271560e-01 7.026777e-01
<VARIANCE> 39
 2.412221e+01 4.484703e+01 5.365977e+01 9.916197e+01 1.031488e+02 3.062868e+02 1.773130e+02 1.004209e+02 1.058223e+02 1.036668e+02 1.184055e+02 8.146334e+01 5.443317e+01 2.277511e+00 2.791196e+00 3.172375e+00 5.381346e+00 9.852057e+00 1.523695e+01 8.582376e+00 9.910874e+00 1.128477e+01 1.098051e+01 1.016968e+01 8.507711e+00 5.573089e+00 3.012898e-01 7.589912e-01 7.872584e-01 1.123714e+00 2.007191e+00 2.448178e+00 1.893411e+00 1.558377e+00 1.741650e+00 2.005073e+00 1.989750e+00 1.281074e+00 1.009033e+00
<GCONST> 1.582761e+02
<TRANSP> 5
 0.000000e+00 1.000000e+00 0.000000e+00 0.000000e+00 0.000000e+00
 0.000000e+00 6.743263e-01 3.256737e-01 0.000000e+00 0.000000e+00
 0.000000e+00 0.000000e+00 6.207073e-01 3.792928e-01 0.000000e+00
 0.000000e+00 0.000000e+00 0.000000e+00 7.116989e-01 2.883010e-01
 0.000000e+00 0.000000e+00 0.000000e+00 0.000000e+00 0.000000e+00
<ENDHMM>
~h "er"
<BEGINHMM>
<NUMSTATES> 5
<STATE> 2
<MEAN> 39
 9.222361e+00 -1.682151e+01 -9.508191e+00 -1.114833e+00 -1.000132e+01 -1.332758e+00 -3.263405e+00 -1.637020e+01 -1.134045e+01 -6.761302e+00 -5.875149e+00 -6.442621e+00 2.144209e+01 1.542260e-01 3.982733e-01 4.897066e-01 8.718401e-01 2.652592e-01 -3.781308e-01 -4.308102e-01 -3.867375e-02 -2.665164e-01 1.175173e-01 2.051486e-01 1.634367e-01 -9.737449e-01 -6.334732e-02 1.934658e-01 1.860390e-01 3.431550e-02 6.221777e-02 9.249197e-03 5.009989e-02 1.254709e-01 1.452245e-01 4.848391e-02 -2.903147e-02 9.564029e-02 -1.659843e-01
<VARIANCE> 39
 2.704444e+01 5.728683e+01 5.365977e+01 1.147397e+02 7.849200e+01 9.569573e+01 2.591217e+02 1.228457e+02 1.442668e+02 9.594553e+01 9.914948e+01 9.561773e+01 5.882032e+01 9.803140e-01 2.389376e+00 3.172375e+00 4.301279e+00 4.944879e+00 6.627976e+00 7.194198e+00 7.712735e+00 7.609119e+00 7.110920e+00 7.257784e+00 6.329379e+00 9.090592e-01 1.578552e-01 4.041275e-01 5.629291e-01 7.655918e-01 8.795463e-01 1.266415e+00 1.272813e+00 1.368484e+00 1.422092e+00 1.336309e+00 1.366397e+00 1.170496e+00 1.459560e-01
<GCONST> 1.447568e+02
<STATE> 3
<MEAN> 39
 3.070118e+00 -6.907596e+00 6.805772e+00 1.092253e+01 8.132374e-01 -5.641245e-01 -3.393849e+00 -5.844633e+00 -4.491100e+00 1.940872e+00 -1.288570e+00 1.649445e+00 -6.952678e-01 -1.794660e+00 -2.110150e-01 9.166908e-01 5.532463e-01 1.820622e+00 1.261081e+00 1.570693e+00 2.344296e+00 1.998179e+00 1.527249e+00 7.009814e-01 2.750516e-01 -1.872947e+00 6.055301e-02 -2.644846e-01 -5.125744e-01 -2.918194e-01 -1.575076e-01 1.225144e-01 3.176915e-02 -5.207296e-02 1.594547e-01 3.321874e-02 -3.889937e-02 -2.645609e-01 2.365610e-01
<VARIANCE> 39
 3.720229e+01 4.778134e+01 8.526286e+01 1.484365e+02 1.198642e+02 1.328136e+02 2.096138e+02 1.413061e+02 2.236003e+02 1.714553e+02 2.128100e+02 1.622387e+02 3.741195e+01 2.478915e+00 5.541203e+00 8.523390e+00 8.950114e+00 6.764740e+00 9.511130e+00 9.787148e+00 1.104689e+01 1.313032e+01 1.564430e+01 1.377038e+01 1.058621e+01 1.414845e+00 6.425446e-01 1.019138e+00 1.038629e+00 1.317459e+00 1.146862e+00 1.859460e+00 2.022207e+00 2.460469e+00 2.688681e+00 3.102677e+00 2.672279e+00 2.230090e+00 1.459560e-01
<GCONST> 1.638932e+02
<STATE> 4
<MEAN> 39
 -2.004442e+00 -4.380840e+00 5.227356e+00 6.528669e+00 7.615407e+00 5.901713e+00 4.819917e+00 3.430627e+00 3.089744e+00 5.889229e+00 6.302404e-01 -1.474874e+00 -1.008500e+01 3.818471e-04 8.853438e-01 -2.844789e-01 -4.792148e-01 -9.374116e-03 3.152850e-01 5.694047e-01 1.653921e-01 2.151721e-01 -2.308021e-01 3.304003e-01 6.990702e-02 -5.450218e-01 1.711525e-02 1.242625e-01 8.517373e-02 -4.955390e-02 -1.180363e-01 -8.943001e-02 5.176761e-02 -2.315905e-03 -7.774498e-02 -6.750655e-02 8.723661e-04 1.075103e-01 5.687285e-02
<VARIANCE> 39
 2.412221e+01 4.484703e+01 6.148352e+01 7.510963e+01 7.849200e+01 9.569573e+01 1.260565e+02 1.004209e+02 9.508286e+01 9.372124e+01 1.381964e+02 8.146334e+01 3.542134e+01 9.803140e-01 2.389376e+00 3.172375e+00 4.301279e+00 5.190138e+00 6.935840e+00 1.196825e+01 7.712735e+00 7.609119e+00 7.110920e+00 1.138387e+01 7.064888e+00 8.286127e-01 1.578552e-01 4.041275e-01 6.581439e-01 7.655918e-01 8.795463e-01 1.443303e+00 2.361427e+00 1.368484e+00 1.534274e+00 1.361548e+00 2.264086e+00 1.419624e+00 1.459560e-01
<GCONST> 1.451800e+02
<TRANSP> 5
 0.000000e+00 1.000000e+00 0.000000e+00 0.000000e+00 0.000000e+00
 0.000000e+00 9.526424e-01 4.735766e-02 0.000000e+00 0.000000e+00
 0.000000e+00 0.000000e+00 8.686814e-01 1.313186e-01 0.000000e+00
 0.000000e+00 0.000000e+00 0.000000e+00 9.069235e-01 9.307654e-02
 0.000000e+00 0.000000e+00 0.000000e+00 0.000000e+00 0.000000e+00
<ENDHMM>
~h "eu"
<BEGINHMM>
<NUMSTATES> 5
<STATE> 2
<MEAN> 39
 9.609124e+00 6.330779e+00 3.244720e+00 -1.132742e+01 -1.573524e+01 -9.640814e+00 -1.077863e+01 -8.579350e+00 6.687598e-01 2.479269e+00 -4.408487e+00 3.047632e-01 2.982525e+00 -7.531872e-01 4.173381e-01 8.525963e-01 2.076602e+00 1.709051e+00 1.008657e+00 4.763553e-01 3.892503e-01 5.231959e-01 -1.637876e-03 2.652985e-01 1.844510e-01 -1.666399e+00 -2.732581e-01 -2.734735e-01 -6.171893e-03 1.448767e-01 1.852429e-01 3.542856e-01 4.850218e-01 4.231921e-01 1.334651e-01 2.409760e-03 1.471973e-01 -3.960170e-02 -1.717893e-02
<VARIANCE> 39
 2.546535e+01 4.484703e+01 1.054864e+02 1.242731e+02 1.044661e+02 1.239179e+02 1.039597e+02 1.099580e+02 1.499111e+02 2.574126e+02 3.154118e+02 2.487559e+02 3.971907e+01 2.524048e+00 3.638074e+00 3.714173e+00 6.769238e+00 5.521532e+00 1.029242e+01 1.128159e+01 1.029401e+01 8.677896e+00 1.517839e+01 8.958060e+00 1.049535e+01 1.169805e+00 2.751075e-01 7.079687e-01 6.203593e-01 1.291636e+00 8.795463e-01 1.495794e+00 1.607350e+00 1.926165e+00 1.447554e+00 2.064399e+00 1.580962e+00 1.748065e+00 1.459560e-01
<GCONST> 1.560757e+02
<STATE> 3
<MEAN> 39
 -2.427407e+00 1.714183e+00 8.824188e+00 4.177270e+00 8.498815e-01 6.346847e+00 3.916153e+00 4.416343e+00 7.664432e+00 2.605817e+00 -2.001141e+00 -1.378434e-01 -8.896511e+00 -1.306771e+00 -1.409473e+00 -5.366145e-01 4.944323e-01 1.441400e+00 1.732448e+00 1.757944e+00 2.525609e+00 1.585969e+00 9.146996e-01 1.342516e+00 6.057590e-01 -9.655612e-01 4.701098e-01 3.435444e-01 -2.620216e-01 -4.443020e-01 -4.130123e-01 -8.492385e-01 -7.417822e-01 -5.065492e-01 -4.181988e-01 4.230766e-02 -1.065416e-01 -1.227886e-02 2.018719e-01
<VARIANCE> 39
 2.412221e+01 4.484703e+01 5.365977e+01 7.510963e+01 1.108014e+02 9.569573e+01 1.063269e+02 1.298509e+02 9.912408e+01 1.170806e+02 9.973068e+01 9.732949e+01 3.542134e+01 1.899084e+00 3.980337e+00 5.505739e+00 6.396729e+00 6.351961e+00 1.163403e+01 1.138165e+01 1.082193e+01 1.403799e+01 1.457770e+01 1.414549e+01 1.272263e+01 8.286127e-01 2.291704e-01 7.487814e-01 8.037517e-01 1.412972e+00 1.250200e+00 1.731401e+00 2.287534e+00 2.190052e+00 2.965447e+00 2.927449e+00 1.617350e+00 2.072066e+00 1.459560e-01
<GCONST> 1.550951e+02
<STATE> 4
<MEAN> 39
 -4.499596e+00 1.659654e+00 4.306682e+00 6.216117e+00 5.244579e+00 8.179465e+00 4.532174e+00 5.097104e+00 6.589630e+00 1.408587e+00 6.625056e+00 3.000423e+00 -1.402553e+01 -3.075736e-02 2.075090e-01 -2.107326e-02 4.015632e-02 1.989187e-01 7.979185e-02 -5.373144e-02 -1.090669e-01 -2.997609e-01 -2.436521e-01 1.069127e-01 1.055664e-01 -1.479101e-01 1.367908e-02 2.408481e-02 4.348862e-02 4.676571e-03 -2.337000e-02 2.135069e-02 2.663786e-02 -6.985193e-02 -3.220591e-02 1.657141e-02 -4.610858e-02 -3.103293e-02 4.083956e-02
<VARIANCE> 39
 2.412221e+01 4.484703e+01 5.365977e+01 7.510963e+01 7.849200e+01 9.569573e+01 1.035045e+02 1.004209e+02 9.508286e+01 9.372124e+01 8.556060e+01 8.146334e+01 3.542134e+01 9.803140e-01 2.389376e+00 3.172375e+00 4.301279e+00 4.944879e+00 6.627976e+00 7.194198e+00 7.712735e+00 1.033001e+01 7.380743e+00 7.324357e+00 6.329379e+00 8.286127e-01 1.578552e-01 4.041275e-01 5.629291e-01 7.655918e-01 8.795463e-01 1.316015e+00 1.272813e+00 1.795748e+00 2.291467e+00 1.603408e+00 1.679866e+00 1.318407e+00 1.459560e-01
<GCONST> 1.431539e+02
<TRANSP> 5
 0.000000e+00 1.000000e+00 0.000000e+00 0.000000e+00 0.000000e+00
 0.000000e+00 9.039150e-01 9.608506e-02 0.000000e+00 0.000000e+00
 0.000000e+00 0.000000e+00 8.032465e-01 1.967536e-01 0.000000e+00
 0.000000e+00 0.000000e+00 0.000000e+00 9.230417e-01 7.695833e-02
 0.000000e+00 0.000000e+00 0.000000e+00 0.000000e+00 0.000000e+00
<ENDHMM>
~h "ey"
<BEGINHMM>
<NUMSTATES> 5
<STATE> 2
<MEAN> 39
 4.698256e+00 1.338072e+01 -9.832265e+00 -2.181340e+01 -8.701894e+00 -1.468798e+01 -7.728699e+00 -4.039690e+00 2.430672e+00 -8.007602e+00 -4.021836e+00 -4.198561e+00 1.338628e+01 3.231187e-01 1.761491e+00 4.091466e-01 1.079986e+00 -4.163616e-01 -1.542851e+00 -2.489058e-01 -7.949668e-02 1.929500e-01 6.233047e-01 5.955971e-01 7.674218e-02 -1.597247e+00 -6.538905e-03 -3.876037e-01 2.258638e-01 3.968613e-01 1.023722e-01 3.450119e-01 9.844787e-03 -2.584887e-01 -1.730922e-01 3.511444e-02 2.708469e-02 8.453063e-02 -5.766248e-02
<VARIANCE> 39
 2.412221e+01 1.063626e+02 1.468127e+02 1.329007e+02 1.158051e+02 1.308997e+02 1.183640e+02 1.004209e+02 1.085293e+02 1.043786e+02 1.810242e+02 1.420330e+02 7.672288e+01 9.803140e-01 5.506500e+00 3.722934e+00 5.444887e+00 6.256069e+00 7.998375e+00 9.406745e+00 7.712735e+00 8.724930e+00 7.935142e+00 1.300756e+01 8.719980e+00 8.286127e-01 1.578552e-01 4.041275e-01 5.629291e-01 8.758712e-01 9.501092e-01 1.266415e+00 1.321008e+00 1.368484e+00 1.427742e+00 1.336309e+00 1.698377e+00 1.258338e+00 1.459560e-01
<GCONST> 1.507173e+02
<STATE> 3
<MEAN> 39
 4.288045e+00 1.518201e+01 2.778883e+00 -2.757983e+00 -2.219579e+00 -1.138612e+01 -5.768384e+00 -8.768252e+00 -7.040670e-01 -3.825394e+00 -1.880809e+00 -2.588160e+00 -2.403722e+00 -1.508675e+00 -1.871573e+00 1.233630e+00 2.795178e+00 2.352375e+00 3.076143e+00 1.961326e+00 1.026624e+00 2.069299e-01 5.186424e-01 -2.001724e-01 3.997124e-01 -1.880957e+00 -2.701144e-01 -3.694862e-01 -5.296836e-01 -3.149673e-01 4.865594e-02 3.130464e-01 3.353883e-01 7.228205e-01 4.263237e-01 2.038726e-01 1.902066e-01 1.562808e-01 1.546487e-01
<VARIANCE> 39
 3.345292e+01 4.484703e+01 9.638775e+01 1.127180e+02 1.674607e+02 1.452345e+02 1.282149e+02 1.314672e+02 1.438924e+02 2.036986e+02 2.184673e+02 2.477493e+02 3.542134e+01 2.778010e+00 3.512114e+00 7.563095e+00 8.175518e+00 1.127117e+01 1.114460e+01 1.342785e+01 1.496749e+01 1.385841e+01 1.626747e+01 1.605687e+01 1.131723e+01 1.645388e+00 4.459258e-01 5.292234e-01 8.534295e-01 1.371659e+00 2.088547e+00 2.015916e+00 2.222395e+00 2.170550e+00 2.551664e+00 2.897758e+00 2.718201e+00 1.865733e+00 1.944336e-01
<GCONST> 1.642362e+02
<STATE> 4
<MEAN> 39
 -4.506193e+00 2.220504e+00 4.165569e-01 2.448667e+00 4.516523e+00 2.772151e+00 4.487848e+00 3.598887e+00 6.093843e+00 3.110623e+00 2.497080e+00 3.228128e+00 -8.923623e+00 -5.381343e-01 -1.353326e+00 -1.284009e-01 4.256096e-01 -1.171865e-02 1.424584e+00 7.790260e-01 1.598530e+00 9.240389e-01 1.324791e+00 9.808269e-01 8.328064e-01 -8.292729e-01 4.024186e-01 4.636777e-01 1.991252e-01 -1.743519e-01 -3.100528e-01 -5.035340e-01 -4.304061e-01 -5.515983e-01 -4.981223e-01 -3.168524e-01 -3.029089e-01 -3.311176e-01 2.380014e-01
<VARIANCE> 39
 3.026176e+01 4.484703e+01 5.365977e+01 7.510963e+01 8.976420e+01 9.569573e+01 1.072555e+02 1.004209e+02 9.508286e+01 1.017218e+02 1.102110e+02 9.888538e+01 3.542134e+01 1.792664e+00 3.129052e+00 4.784939e+00 5.522948e+00 7.137595e+00 8.219486e+00 9.707611e+00 1.121383e+01 1.139170e+01 1.228754e+01 1.255303e+01 1.028504e+01 8.286127e-01 3.188154e-01 5.555721e-01 7.974802e-01 1.101884e+00 1.648789e+00 1.729181e+00 2.057009e+00 2.158849e+00 2.142404e+00 2.396230e+00 2.465842e+00 1.714376e+00 1.832169e-01
<GCONST> 1.530091e+02
<TRANSP> 5
 0.000000e+00 1.000000e+00 0.000000e+00 0.000000e+00 0.000000e+00
 0.000000e+00 9.212416e-01 7.875841e-02 0.000000e+00 0.000000e+00
 0.000000e+00 0.000000e+00 8.023923e-01 1.976077e-01 0.000000e+00
 0.000000e+00 0.000000e+00 0.000000e+00 7.258034e-01 2.741967e-01
 0.000000e+00 0.000000e+00 0.000000e+00 0.000000e+00 0.000000e+00
<ENDHMM>
~h "gn"
<BEGINHMM>
<NUMSTATES> 5
<STATE> 2
<MEAN> 39
 1.203557e+01 9.921976e+00 7.848528e+00 -4.191115e+00 -9.800571e+00 -1.606458e+01 -1.510516e+01 -9.059665e+00 -8.490227e+00 -4.048080e+00 -3.810799e+00 -1.490572e+00 1.197169e+00 -1.469126e+00 2.648749e-01 4.134756e-01 1.468971e+00 1.408952e+00 2.010595e+00 1.098427e+00 1.079512e-01 -1.089720e-01 6.539104e-01 4.780594e-02 -1.873722e-02 -1.500194e+00 -5.013915e-01 -3.764130e-01 -4.599501e-01 -1.482062e-03 4.267533e-01 6.671708e-01 7.436792e-01 4.202052e-01 3.496292e-01 -3.870889e-02 1.697946e-01 1.926475e-01 -2.501340e-03
<VARIANCE> 39
 2.623584e+01 4.484703e+01 5.912798e+01 7.510963e+01 8.223399e+01 1.160916e+02 1.051803e+02 1.304109e+02 1.628031e+02 1.388947e+02 1.225923e+02 1.351707e+02 3.542134e+01 2.980474e+00 3.343170e+00 4.940342e+00 4.755340e+00 5.936522e+00 1.049140e+01 1.191834e+01 9.745312e+00 8.936276e+00 8.982913e+00 8.962793e+00 6.956122e+00 2.132222e+00 3.705609e-01 6.410933e-01 8.150600e-01 8.744830e-01 1.097965e+00 1.347672e+00 1.980177e+00 1.912436e+00 1.656692e+00 1.770405e+00 1.743326e+00 1.301726e+00 2.136800e-01
<GCONST> 1.530628e+02
<STATE> 3
<MEAN> 39
 -1.510171e-01 4.886881e+00 5.993535e+00 2.880774e+00 1.068609e+00 3.019747e+00 7.209432e-01 -1.508004e+00 -1.721313e+00 5.737513e-01 -8.023201e-01 2.257980e+00 -8.352260e+00 -2.813365e+00 -2.197256e+00 -1.702341e+00 5.819658e-01 2.123995e+00 4.278772e+00 4.285923e+00 3.259552e+00 2.766545e+00 1.713195e+00 1.857577e+00 7.842185e-01 -1.269021e+00 4.118754e-01 2.238410e-01 -2.145748e-01 -4.022358e-01 -5.334584e-01 -1.060167e+00 -8.661494e-01 -1.980131e-01 -2.061630e-02 -1.196256e-01 1.768634e-03 -2.437546e-01 7.197838e-01
<VARIANCE> 39
 2.412221e+01 4.484703e+01 5.548226e+01 7.510963e+01 7.849200e+01 1.127242e+02 1.035045e+02 1.104737e+02 1.291400e+02 9.943243e+01 1.034048e+02 1.090658e+02 4.323387e+01 3.154414e+00 3.174257e+00 5.415252e+00 8.089836e+00 8.318544e+00 1.028166e+01 1.010341e+01 8.788702e+00 1.044003e+01 1.211908e+01 1.183916e+01 1.139917e+01 2.544517e+00 4.834535e-01 6.825891e-01 9.228052e-01 1.075540e+00 1.277007e+00 1.951087e+00 2.075848e+00 2.072165e+00 2.088177e+00 2.356305e+00 1.961752e+00 1.803072e+00 5.481544e-01
<GCONST> 1.571980e+02
<STATE> 4
<MEAN> 39
 -5.354037e+00 5.166286e-01 -1.150784e-01 3.649792e+00 2.780125e+00 5.544796e+00 5.470447e+00 3.964288e+00 2.271079e+00 3.775558e+00 3.606732e+00 1.598028e+00 -4.993596e+00 -2.318911e+00 -4.407755e-02 -1.442390e+00 5.306291e-01 3.630660e-01 3.707746e-02 2.100236e-01 4.447512e-01 6.448519e-01 -1.063085e-01 3.114871e-01 -8.299739e-02 2.002726e+00 1.551412e-01 5.238957e-01 1.490678e-01 -2.011625e-01 -3.866107e-01 -7.638634e-01 -7.605469e-01 -4.785936e-01 -4.934306e-01 -3.297952e-01 -3.933037e-01 2.507187e-03 5.383606e-01
<VARIANCE> 39
 5.285328e+01 7.865640e+01 8.580872e+01 7.510963e+01 7.849200e+01 1.092100e+02 1.035045e+02 1.004209e+02 9.508286e+01 9.372124e+01 8.647421e+01 8.146334e+01 9.666520e+01 4.664673e+00 4.691331e+00 5.764993e+00 6.064531e+00 6.704629e+00 8.308815e+00 7.194198e+00 8.137653e+00 1.019763e+01 8.166018e+00 8.220172e+00 8.334669e+00 6.555748e+00 1.173285e+00 1.080192e+00 1.386370e+00 1.217796e+00 1.376809e+00 2.080086e+00 1.629086e+00 1.689015e+00 1.990438e+00 1.517999e+00 1.588813e+00 1.648013e+00 1.139065e+00
<GCONST> 1.598954e+02
<TRANSP> 5
 0.000000e+00 1.000000e+00 0.000000e+00 0.000000e+00 0.000000e+00
 0.000000e+00 8.382055e-01 1.617945e-01 0.000000e+00 0.000000e+00
 0.000000e+00 0.000000e+00 5.796407e-01 4.203592e-01 0.000000e+00
 0.000000e+00 0.000000e+00 0.000000e+00 6.092161e-01 3.907839e-01
 0.000000e+00 0.000000e+00 0.000000e+00 0.000000e+00 0.000000e+00
<ENDHMM>
~h "hh"
<BEGINHMM>
<NUMSTATES> 5
<STATE> 2
<MEAN> 39
 -1.019678e+00 -3.971490e+00 -8.320650e-01 -1.431220e+00 3.901847e-01 -5.076906e+00 -1.952866e+01 -1.256107e+01 -1.511933e+00 -7.026379e+00 -1.147518e+00 -1.897055e+00 1.475283e+01 1.344993e+00 -1.794801e+00 -1.430367e+00 -1.452831e+00 -1.106640e+00 -5.162613e-01 -9.915491e-01 -4.305046e-01 -9.231691e-01 -6.150056e-01 4.675616e-01 2.368494e-01 1.902830e+00 -1.547248e-01 -2.270580e-01 -7.955429e-02 5.967285e-02 -3.440484e-02 2.982306e-01 5.930077e-01 2.510259e-01 -4.452984e-02 1.119599e-01 -1.312319e-01 -6.034928e-02 6.969574e-02
<VARIANCE> 39
 1.114872e+02 9.246489e+01 1.641434e+02 1.683684e+02 1.417374e+02 2.060103e+02 2.604461e+02 1.217971e+02 1.525992e+02 1.005382e+02 1.628534e+02 1.303213e+02 7.470251e+01 6.973830e+00 5.473636e+00 8.314706e+00 6.768341e+00 8.494520e+00 1.073292e+01 1.262495e+01 1.079333e+01 9.845075e+00 8.589112e+00 1.275771e+01 1.016975e+01 3.374176e+00 1.297835e+00 9.697223e-01 1.304782e+00 1.044200e+00 1.609796e+00 1.728029e+00 1.941557e+00 1.776127e+00 1.706053e+00 1.632541e+00 2.240025e+00 1.730247e+00 5.039195e-01
