~o
<STREAMINFO> 1 39
<VECSIZE> 39<NULLD><MFCC_D_A_Z_0><DIAGC>
~h "b"
<BEGINHMM>
<NUMSTATES> 5
<STATE> 2
<MEAN> 39
 -4.563204e-01 1.212499e+00 2.002973e+00 2.235107e+00 1.429832e+00 1.475450e+00 9.627113e-01 6.230762e-01 8.263607e-02 1.218667e+00 8.473907e-01 1.103201e+00 -3.895600e+00 4.541984e-01 -2.059075e-01 -2.848570e-01 -3.574195e-01 -4.132105e-01 -6.343423e-01 -4.089591e-01 -4.517779e-01 -3.936104e-01 -4.730040e-01 -2.398420e-01 -1.739380e-01 1.051313e+00 2.174331e-01 -3.608517e-01 -3.610289e-01 -2.287499e-01 -2.001747e-01 -2.412660e-01 -8.528939e-02 -9.540898e-02 -9.588795e-02 -1.928966e-01 -1.136377e-01 -1.221557e-01 5.944374e-01
<VARIANCE> 39
 6.958020e+00 1.113346e+01 1.111497e+01 1.380677e+01 1.626767e+01 3.099004e+01 3.097315e+01 2.727345e+01 2.259878e+01 1.919020e+01 1.480474e+01 1.423597e+01 8.663579e+00 1.003360e+00 1.408003e+00 1.610054e+00 1.462445e+00 1.876660e+00 3.482315e+00 3.090644e+00 2.846893e+00 2.608186e+00 2.274236e+00 1.697201e+00 1.692307e+00 2.742033e+00 1.257603e-01 2.795336e-01 3.092158e-01 2.591594e-01 3.396894e-01 5.146654e-01 5.778284e-01 6.260564e-01 5.028128e-01 4.382540e-01 3.500701e-01 3.440079e-01 2.747985e-01
<GCONST> 1.031486e+02
<STATE> 3
<MEAN> 39
 3.458022e+00 -2.659671e+00 -3.179735e+00 -7.644274e-01 -2.003481e+00 -3.519849e+00 -8.522931e-01 -1.175031e+00 -2.998990e+00 -2.502145e+00 -1.356377e+00 -6.472884e-01 5.052744e+00 3.153221e-01 -1.898121e+00 -1.606682e+00 -6.321958e-01 -3.669056e-01 -7.352577e-02 3.770852e-01 -3.039951e-01 -2.063547e-01 -4.332393e-01 -2.057001e-01 -3.367532e-01 2.439295e+00 -2.770939e-01 1.277817e-01 2.783389e-01 1.061548e-01 1.936941e-01 3.103523e-01 8.817340e-03 -9.803255e-02 1.731347e-01 1.709415e-01 7.952132e-02 4.442739e-02 -3.398050e-01
<VARIANCE> 39
 1.054509e+01 3.474305e+01 4.240813e+01 2.225463e+01 2.156559e+01 3.493111e+01 3.757335e+01 3.398496e+01 3.297480e+01 2.340743e+01 2.001763e+01 1.987305e+01 4.165852e+01 1.442699e+00 2.963789e+00 4.533226e+00 2.871418e+00 2.615264e+00 4.487183e+00 4.777329e+00 5.131742e+00 4.573617e+00 3.215097e+00 2.506150e+00 2.374553e+00 3.652117e+00 1.937152e-01 7.119990e-01 8.745921e-01 4.318231e-01 4.415245e-01 7.209479e-01 8.722418e-01 8.886821e-01 7.961577e-01 5.321289e-01 4.448391e-01 4.451693e-01 7.156862e-01
<GCONST> 1.228530e+02
<STATE> 4
<MEAN> 39
 1.282541e+00 -7.586209e+00 -3.783300e+00 -1.824248e+00 -1.795396e+00 -1.220817e-01 -4.216987e-01 -4.624626e+00 -2.653577e+00 -2.051069e+00 -1.325584e+00 -1.011341e+00 9.955915e+00 -3.067963e-01 4.026665e-01 5.242380e-01 -7.001898e-01 1.976158e-01 4.533883e-01 -5.996461e-01 -3.308887e-01 5.720288e-01 -2.071194e-01 -1.300584e-01 -1.101552e-01 -1.927590e-02 6.099860e-02 5.201355e-01 1.600428e-01 3.430734e-02 8.535784e-02 -1.801870e-01 -7.590508e-02 3.154009e-01 6.432751e-02 -2.414745e-02 3.132177e-02 3.576009e-02 -4.622736e-01
<VARIANCE> 39
 9.745485e+00 2.638194e+01 2.456362e+01 3.043303e+01 2.004586e+01 2.943003e+01 3.424515e+01 3.052641e+01 3.737294e+01 2.451467e+01 1.771232e+01 1.476052e+01 4.488569e+01 5.557302e-01 1.612971e+00 1.594980e+00 2.048204e+00 1.629577e+00 2.324489e+00 2.507287e+00 2.865451e+00 2.399307e+00 2.325374e+00 1.546275e+00 1.402323e+00 9.669110e-01 1.375619e-01 3.460568e-01 3.712239e-01 3.546246e-01 3.107335e-01 5.379511e-01 4.823727e-01 4.873378e-01 5.492115e-01 4.497290e-01 3.366469e-01 2.773264e-01 3.674319e-01
<GCONST> 1.071238e+02
<TRANSP> 5
 0.000000e+00 1.000000e+00 0.000000e+00 0.000000e+00 0.000000e+00
 0.000000e+00 6.531324e-01 3.468676e-01 0.000000e+00 0.000000e+00
 0.000000e+00 0.000000e+00 6.229635e-01 3.770366e-01 0.000000e+00
 0.000000e+00 0.000000e+00 0.000000e+00 5.279427e-01 4.720573e-01
 0.000000e+00 0.000000e+00 0.000000e+00 0.000000e+00 0.000000e+00
<ENDHMM>
~h "c"
<BEGINHMM>
<NUMSTATES> 5
<STATE> 2
<MEAN> 39
 -4.208202e+00 2.412254e+00 -1.653308e+00 1.013986e-01 -2.606680e-01 6.219811e-01 1.035386e+00 1.342821e+00 1.126566e+00 -1.942949e-01 8.195010e-01 2.234119e-01 1.972775e+00 4.112590e-01 4.482963e-02 -6.376070e-01 -1.483923e+00 -5.588459e-01 -4.584853e-01 -6.541315e-01 -4.269837e-01 -2.493727e-01 -6.525734e-01 -4.053702e-01 -2.252719e-01 1.534900e+00 2.847892e-01 -1.827510e-01 -1.799734e-02 -2.513956e-01 -5.526288e-02 -3.713101e-02 -1.384418e-01 -1.451504e-01 -1.290254e-01 -8.321331e-02 -1.204568e-01 -4.993031e-02 1.208100e-01
<VARIANCE> 39
 2.335017e+01 1.443264e+01 1.846945e+01 3.995662e+01 2.117196e+01 2.385332e+01 2.563606e+01 2.153020e+01 2.035188e+01 2.197514e+01 1.818426e+01 1.598202e+01 2.862877e+01 4.627774e+00 2.238756e+00 2.577080e+00 5.429798e+00 2.791602e+00 2.586146e+00 2.991449e+00 2.523464e+00 2.282211e+00 2.397009e+00 2.179367e+00 1.936096e+00 1.876753e+00 7.633102e-01 4.519151e-01 4.276843e-01 9.596826e-01 5.337241e-01 5.121137e-01 5.851837e-01 4.721054e-01 4.317897e-01 4.603523e-01 3.633258e-01 3.733822e-01 2.965507e-01
<GCONST> 1.151451e+02
<STATE> 3
<MEAN> 39
 9.604230e-01 -1.873801e+00 -5.353514e+00 -1.040870e+01 -3.496686e+00 -1.182651e-01 -3.038461e+00 -2.683892e+00 -1.750182e+00 -4.346125e+00 -3.161446e+00 -1.411044e+00 1.144965e+01 4.538873e-02 -1.573993e+00 -2.109058e-01 4.079255e-01 6.101335e-01 4.033901e-01 -4.344274e-01 -7.472935e-01 -5.200275e-01 -1.604890e-02 -1.101853e-01 -2.317283e-01 8.671125e-01 -4.561752e-01 2.367523e-01 3.985349e-01 1.025933e+00 3.603585e-01 5.310804e-03 1.507159e-01 1.647691e-01 1.651435e-01 2.992746e-01 3.222508e-01 6.574351e-02 -5.859911e-01
<VARIANCE> 39
 6.808212e+00 1.577711e+01 2.289681e+01 2.332388e+01 2.751859e+01 2.454863e+01 2.059977e+01 2.042148e+01 2.069840e+01 1.906320e+01 2.224201e+01 1.706454e+01 1.953705e+01 6.127661e-01 1.036730e+00 1.513879e+00 2.954983e+00 1.718556e+00 2.286304e+00 2.718056e+00 1.747097e+00 1.860986e+00 1.776664e+00 1.781056e+00 1.991431e+00 1.179982e+00 1.922083e-01 2.249408e-01 3.514809e-01 6.350298e-01 4.686124e-01 4.289672e-01 4.223363e-01 3.484561e-01 3.593478e-01 3.366028e-01 3.237906e-01 3.064054e-01 1.097419e-01
<GCONST> 1.018852e+02
<STATE> 4
<MEAN> 39
 2.856725e-01 -3.984133e+00 -4.639964e+00 -6.413460e+00 -1.935108e-02 -9.045061e-01 -6.408114e+00 -3.301647e+00 -2.782234e+00 -4.201190e+00 -1.381887e+00 -2.548747e+00 1.060106e+01 5.010684e-02 9.612751e-02 1.904146e-01 2.121668e-01 8.374034e-02 -1.176814e-01 -1.183666e-01 -4.662921e-02 5.750395e-02 2.187709e-02 4.241958e-02 2.743791e-02 -2.230652e-01 3.072999e-02 2.131938e-01 -9.751827e-03 -9.984980e-02 -1.017322e-01 -5.620700e-02 8.158551e-02 7.703920e-02 7.405769e-02 1.199316e-02 -2.640661e-02 2.212081e-02 -1.023570e-01
<VARIANCE> 39
 5.555736e+00 1.469414e+01 1.320448e+01 1.530023e+01 1.709742e+01 3.683197e+01 3.010277e+01 2.052333e+01 1.631200e+01 1.554992e+01 2.269773e+01 2.437336e+01 1.454960e+01 1.689938e-01 6.098324e-01 6.158003e-01 8.564216e-01 9.225196e-01 1.175864e+00 1.375108e+00 1.289518e+00 1.307889e+00 1.189187e+00 1.184514e+00 9.998834e-01 1.448617e-01 3.135733e-02 7.540579e-02 1.110718e-01 1.458303e-01 1.677696e-01 2.246915e-01 2.269374e-01 2.540992e-01 2.483865e-01 2.230696e-01 2.091501e-01 1.824314e-01 2.437782e-02
<GCONST> 7.903488e+01
<TRANSP> 5
 0.000000e+00 1.000000e+00 0.000000e+00 0.000000e+00 0.000000e+00
 0.000000e+00 8.624337e-01 1.375664e-01 0.000000e+00 0.000000e+00
 0.000000e+00 0.000000e+00 6.143464e-01 3.856536e-01 0.000000e+00
 0.000000e+00 0.000000e+00 0.000000e+00 8.297136e-01 1.702864e-01
 0.000000e+00 0.000000e+00 0.000000e+00 0.000000e+00 0.000000e+00
<ENDHMM>
~h "d"
<BEGINHMM>
<NUMSTATES> 5
<STATE> 2
<MEAN> 39
 2.601971e+00 3.830609e+00 3.551820e+00 -2.627452e-01 -4.919797e+00 -3.623048e+00 -2.448121e+00 -4.527390e+00 -3.612687e+00 -1.634114e+00 -8.170942e-01 -7.227193e-02 -2.032391e+00 6.994636e-02 -7.257628e-01 -7.128035e-01 -4.648558e-01 -6.947830e-01 3.156465e-02 6.747457e-02 -4.035514e-01 -7.498404e-02 -6.497439e-01 -1.759357e-01 -4.501942e-01 1.737875e+00 -1.952635e-01 -8.051223e-01 -6.703981e-01 -1.982523e-01 2.419584e-01 4.758684e-01 3.752007e-01 2.302955e-01 3.164046e-01 -1.457925e-02 7.921138e-02 -6.061713e-02 8.300934e-01
<VARIANCE> 39
 8.037685e+00 1.062889e+01 1.269293e+01 1.994276e+01 2.117978e+01 2.885339e+01 2.301118e+01 2.391916e+01 2.620040e+01 2.407672e+01 2.035145e+01 1.771124e+01 9.992605e+00 1.204457e+00 3.019670e+00 3.122246e+00 2.533624e+00 2.751784e+00 3.722551e+00 4.144137e+00 3.174570e+00 3.423348e+00 2.771640e+00 2.219922e+00 1.753864e+00 4.226460e+00 2.010508e-01 2.914619e-01 3.729492e-01 4.567643e-01 5.400785e-01 5.230061e-01 6.417432e-01 5.753535e-01 6.019404e-01 5.240444e-01 4.519821e-01 3.806765e-01 3.627519e-01
<GCONST> 1.115394e+02
<STATE> 3
<MEAN> 39
 1.236081e+00 -5.406317e+00 -4.929373e+00 -4.031097e+00 -5.162043e+00 1.053504e+00 1.188241e+00 -4.181027e+00 -1.510541e+00 -3.834647e+00 -8.927236e-01 -1.792428e+00 1.072023e+01 -1.184920e-01 -2.768992e+00 -1.818373e+00 2.573116e-01 9.401429e-01 5.453322e-01 -6.852376e-02 -4.492585e-01 -2.394912e-01 -2.763023e-01 -1.319676e-02 -2.607316e-01 2.707054e+00 1.282961e-01 4.017508e-01 5.713855e-01 6.237472e-01 3.779193e-01 -5.564564e-01 -4.658485e-01 2.002070e-02 -2.341125e-01 2.582745e-01 -1.718288e-02 1.629226e-01 -8.825652e-01
<VARIANCE> 39
 7.764209e+00 1.808037e+01 1.440680e+01 2.373253e+01 2.603658e+01 3.124263e+01 4.302347e+01 2.738294e+01 2.713850e+01 2.061738e+01 1.785258e+01 1.425644e+01 1.573391e+01 1.472782e+00 1.593915e+00 3.033134e+00 3.164180e+00 2.921444e+00 4.004467e+00 5.067586e+00 3.722103e+00 3.936217e+00 2.700544e+00 2.185270e+00 1.964378e+00 2.883203e+00 1.723458e-01 3.874407e-01 3.503117e-01 3.960676e-01 5.118158e-01 5.849861e-01 8.251137e-01 5.893151e-01 6.622846e-01 4.539449e-01 4.061008e-01 3.071997e-01 3.125449e-01
<GCONST> 1.131875e+02
<STATE> 4
<MEAN> 39
 1.771982e+00 -1.008293e+01 -6.112463e+00 1.625116e+00 -1.855161e+00 -2.272375e+00 -2.423890e+00 -5.147032e+00 -3.517664e+00 -3.042138e+00 -1.205224e+00 -1.469776e+00 1.219106e+01 2.443448e-01 -1.679549e-01 3.200595e-02 5.565212e-01 4.174986e-01 -7.095875e-01 -5.324746e-01 4.451038e-01 -1.102202e-01 7.698607e-02 -1.370449e-01 1.535394e-01 -2.654789e-01 7.096832e-02 5.047072e-01 2.083840e-01 -2.446472e-01 -1.718309e-01 1.765868e-02 8.967539e-02 1.714693e-01 1.042325e-01 -9.467011e-03 -4.542699e-02 3.691476e-02 -4.088157e-01
<VARIANCE> 39
 8.027526e+00 9.715049e+00 2.278393e+01 2.129228e+01 2.294502e+01 2.237525e+01 3.720998e+01 2.552826e+01 2.749039e+01 1.607492e+01 1.480474e+01 1.708116e+01 1.349656e+01 3.490680e-01 6.973934e-01 1.044418e+00 1.354134e+00 1.550939e+00 1.652459e+00 1.901761e+00 1.463431e+00 1.451139e+00 1.216917e+00 1.184514e+00 1.035197e+00 2.778747e-01 8.398769e-02 2.308416e-01 2.367007e-01 1.798248e-01 2.524769e-01 3.013630e-01 3.593383e-01 3.001038e-01 3.709471e-01 2.483126e-01 2.091501e-01 2.130935e-01 2.482315e-01
<GCONST> 9.114073e+01
<TRANSP> 5
 0.000000e+00 1.000000e+00 0.000000e+00 0.000000e+00 0.000000e+00
 0.000000e+00 7.208608e-01 2.791393e-01 0.000000e+00 0.000000e+00
 0.000000e+00 0.000000e+00 6.423841e-01 3.576159e-01 0.000000e+00
 0.000000e+00 0.000000e+00 0.000000e+00 7.399907e-01 2.600093e-01
 0.000000e+00 0.000000e+00 0.000000e+00 0.000000e+00 0.000000e+00
<ENDHMM>
~h "h"
<BEGINHMM>
<NUMSTATES> 5
<STATE> 2
<MEAN> 39
 2.594815e+00 1.228024e+00 1.517954e+00 -3.861905e+00 -2.068896e+00 -5.081970e+00 -5.078308e+00 -5.680153e+00 -2.433916e+00 -2.483552e+00 -3.699206e+00 -1.228597e+00 5.053203e+00 2.918936e-01 -2.501005e-01 9.737585e-02 1.018495e-01 -4.324040e-01 -2.678328e-01 1.696556e-01 1.227875e-02 -3.278410e-01 -2.803027e-02 8.478663e-02 -2.315849e-01 -2.623446e-02 6.796755e-03 -8.498339e-02 -1.533571e-01 7.091746e-03 -1.048373e-02 2.968737e-02 9.938828e-02 1.198145e-01 -2.169242e-02 -5.736095e-02 3.426759e-02 -1.099648e-02 7.653486e-02
<VARIANCE> 39
 1.056765e+01 1.863093e+01 1.811197e+01 1.944876e+01 2.285752e+01 5.138381e+01 2.909185e+01 2.749843e+01 1.753934e+01 2.337173e+01 2.269495e+01 3.018418e+01 1.582831e+01 5.510708e-01 2.167244e+00 1.279574e+00 1.512923e+00 1.187140e+00 3.463346e+00 2.443879e+00 2.180354e+00 1.457797e+00 1.486616e+00 1.586227e+00 1.582672e+00 1.590658e+00 9.582664e-02 2.722540e-01 1.976913e-01 2.234873e-01 2.281989e-01 5.539617e-01 4.161422e-01 3.935684e-01 3.009960e-01 2.770428e-01 2.988635e-01 2.862523e-01 1.940379e-01
<GCONST> 1.007419e+02
<STATE> 3
<MEAN> 39
 5.059606e+00 -4.585389e+00 -3.555288e+00 6.311899e-01 -3.698685e+00 -6.977701e+00 -3.550419e-01 -1.541122e+00 -6.681441e+00 -3.664579e+00 -2.153833e+00 -2.759861e+00 7.520842e+00 6.023066e-01 -8.127173e-01 -1.647157e+00 7.207435e-01 7.301278e-01 -5.964181e-01 -7.164868e-01 2.188115e+00 3.128563e-01 -5.863261e-01 -3.325797e-01 4.274448e-01 9.678368e-02 7.341500e-02 4.831217e-01 7.580180e-02 -3.050839e-01 2.540615e-01 -7.922413e-02 -5.138042e-01 -1.611508e-01 5.608164e-01 2.087791e-01 -3.575970e-01 8.085038e-02 -3.351942e-01
<VARIANCE> 39
 5.099701e+00 1.248684e+01 1.303261e+01 1.380677e+01 1.391700e+01 1.745019e+01 1.824618e+01 3.682588e+01 1.910068e+01 1.860980e+01 1.480474e+01 2.169560e+01 7.442319e+00 2.918677e-01 1.180580e+00 1.243533e+00 1.342257e+00 1.212045e+00 2.485565e+00 2.192665e+00 1.968184e+00 3.577568e+00 1.301753e+00 1.841685e+00 1.221488e+00 8.001426e-01 6.897111e-02 8.708070e-02 1.546748e-01 1.810078e-01 1.677696e-01 5.280578e-01 3.218359e-01 8.319625e-01 3.965095e-01 4.238443e-01 2.228989e-01 2.886155e-01 7.739134e-02
<GCONST> 9.129896e+01
<STATE> 4
<MEAN> 39
 7.742875e+00 -3.224550e+00 -8.759277e+00 -2.314821e-01 6.466515e-01 -8.047445e+00 -6.529325e+00 1.519555e+00 -5.606834e-01 -2.104171e+00 -5.779901e+00 -1.992770e+00 5.218237e+00 3.433174e-01 5.507697e-01 -5.760868e-01 -8.727611e-01 3.966960e-01 9.047725e-01 -9.247843e-01 -9.156120e-01 8.605189e-01 1.052273e+00 -3.936989e-02 -1.339848e-01 -6.602099e-01 -2.019907e-01 1.592072e-01 3.731379e-01 -1.556262e-01 -3.054688e-01 3.444769e-01 4.159643e-01 -4.227280e-01 -4.394846e-01 -1.098667e-03 5.098727e-01 4.847478e-02 -1.138892e-01
<VARIANCE> 39
 8.166202e+00 1.060029e+01 1.748692e+01 1.497068e+01 1.391700e+01 1.926045e+01 1.824618e+01 2.152501e+01 1.631200e+01 1.931562e+01 1.480474e+01 1.436764e+01 6.717731e+00 2.735571e-01 5.230862e-01 9.150574e-01 7.791576e-01 9.225196e-01 1.701671e+00 1.613155e+00 2.043809e+00 2.174599e+00 1.189187e+00 2.724299e+00 1.468549e+00 4.688026e-01 3.922415e-02 7.653502e-02 1.276249e-01 1.505002e-01 1.677696e-01 3.172347e-01 2.269374e-01 4.919690e-01 2.908196e-01 3.085994e-01 2.926048e-01 2.209440e-01 2.437782e-02
<GCONST> 8.347763e+01
<TRANSP> 5
 0.000000e+00 1.000000e+00 0.000000e+00 0.000000e+00 0.000000e+00
 0.000000e+00 9.158630e-01 8.413703e-02 0.000000e+00 0.000000e+00
 0.000000e+00 0.000000e+00 6.824023e-01 3.175977e-01 0.000000e+00
 0.000000e+00 0.000000e+00 0.000000e+00 6.620040e-01 3.379960e-01
 0.000000e+00 0.000000e+00 0.000000e+00 0.000000e+00 0.000000e+00
<ENDHMM>
~h "k"
<BEGINHMM>
<NUMSTATES> 5
<STATE> 2
<MEAN> 39
 -1.838548e+00 1.431087e+00 2.040669e+00 1.530415e+00 1.657563e+00 3.914928e+00 3.783793e+00 2.846882e+00 1.969843e+00 2.341024e+00 1.529436e+00 1.008430e+00 -5.623796e+00 -1.833840e-01 -1.104113e+00 -1.863954e-02 2.659330e-01 -2.572270e-01 -1.941411e-01 1.378346e-01 1.163344e-02 -1.733698e-01 -1.825311e-01 2.912242e-02 -6.134860e-02 1.035056e+00 1.215962e-01 -3.258386e-01 -2.307091e-01 -2.416340e-01 -2.694977e-01 -3.613302e-01 -2.291817e-01 -2.204274e-01 -2.332722e-01 -2.895035e-01 -1.509853e-01 -8.752996e-02 7.775505e-01
<VARIANCE> 39
 4.461345e+00 9.507402e+00 1.057138e+01 1.614338e+01 1.545025e+01 1.874664e+01 1.867876e+01 1.835891e+01 1.631200e+01 1.554992e+01 1.480474e+01 1.409041e+01 7.009238e+00 8.818051e-01 2.711595e+00 1.661232e+00 2.487811e+00 2.333844e+00 2.884917e+00 2.412738e+00 2.444141e+00 2.201858e+00 2.014505e+00 1.675579e+00 1.491526e+00 3.525130e+00 1.428199e-01 3.402101e-01 2.963619e-01 4.332791e-01 3.503565e-01 4.329016e-01 4.354510e-01 4.397843e-01 3.950694e-01 3.748819e-01 3.354742e-01 3.046791e-01 2.800021e-01
<GCONST> 1.004526e+02
<STATE> 3
<MEAN> 39
 -2.490215e+00 -5.662719e+00 1.110365e+00 2.265696e+00 -1.288166e+00 7.338834e-01 3.439634e+00 1.487812e+00 -2.748172e-01 2.644780e-02 9.629085e-01 2.161974e-01 3.416062e+00 9.219559e-01 -7.003504e-01 -1.208549e+00 -9.084545e-01 -7.843825e-01 -1.193116e+00 -7.533573e-01 -7.919874e-01 -9.333922e-01 -9.913789e-01 -5.462668e-01 -2.468039e-01 2.253606e+00 3.860520e-01 6.180297e-01 -3.496755e-01 -4.473389e-01 1.303718e-01 -5.055303e-02 -3.505313e-01 -1.687126e-01 2.066761e-03 -7.688843e-02 -1.472702e-01 -5.970361e-02 -2.896930e-01
<VARIANCE> 39
 1.367306e+01 3.250815e+01 2.692357e+01 3.560414e+01 2.961652e+01 3.619328e+01 2.666060e+01 2.824989e+01 2.721812e+01 2.006410e+01 1.918151e+01 1.664029e+01 2.064260e+01 1.726630e+00 3.906041e+00 3.126323e+00 4.107675e+00 2.961103e+00 3.592035e+00 3.158456e+00 3.349498e+00 2.942394e+00 2.342020e+00 2.478271e+00 2.137753e+00 3.280060e+00 2.673128e-01 5.973482e-01 5.860668e-01 5.917030e-01 5.631399e-01 7.562334e-01 5.731587e-01 6.111699e-01 5.827155e-01 4.796538e-01 4.497593e-01 4.172547e-01 3.769187e-01
<GCONST> 1.185872e+02
<STATE> 4
<MEAN> 39
 1.970568e+00 -3.737346e+00 -3.570073e+00 -4.238071e+00 -2.476846e+00 -1.813003e+00 -1.126046e+00 -2.152170e+00 -2.261086e+00 -3.107058e+00 -1.266033e+00 -1.004460e+00 7.510205e+00 6.715261e-01 5.330275e-02 -9.328269e-01 -8.177378e-01 -9.263541e-02 -5.651641e-01 -8.530297e-01 -5.079423e-01 -2.603350e-01 -4.506751e-01 -4.122984e-01 -3.728437e-01 9.755927e-01 -3.082979e-01 1.348329e-01 4.447166e-01 4.579469e-01 2.319514e-01 2.063791e-01 2.099245e-01 2.477218e-01 2.484452e-01 3.038223e-01 1.787299e-01 7.816581e-02 -5.458716e-01
<VARIANCE> 39
 1.342733e+01 3.087711e+01 2.626663e+01 3.822301e+01 2.682978e+01 3.412274e+01 2.941659e+01 3.445338e+01 2.633173e+01 2.198999e+01 1.943153e+01 1.779725e+01 3.470454e+01 1.628517e+00 2.453897e+00 3.447346e+00 3.497625e+00 2.344430e+00 3.594557e+00 2.996487e+00 2.786132e+00 2.311866e+00 2.463611e+00 2.153442e+00 2.034926e+00 2.138583e+00 2.033172e-01 4.590920e-01 5.382419e-01 5.648268e-01 4.091583e-01 5.552247e-01 4.688361e-01 5.454468e-01 4.587095e-01 4.404245e-01 3.981307e-01 3.820063e-01 3.522016e-01
<GCONST> 1.152830e+02
<TRANSP> 5
 0.000000e+00 1.000000e+00 0.000000e+00 0.000000e+00 0.000000e+00
 0.000000e+00 6.707195e-01 3.292805e-01 0.000000e+00 0.000000e+00
 0.000000e+00 0.000000e+00 5.434964e-01 4.565037e-01 0.000000e+00
 0.000000e+00 0.000000e+00 0.000000e+00 5.459365e-01 4.540634e-01
 0.000000e+00 0.000000e+00 0.000000e+00 0.000000e+00 0.000000e+00
<ENDHMM>
~h "l"
<BEGINHMM>
<NUMSTATES> 5
<STATE> 2
<MEAN> 39
 3.154118e+00 7.509919e-01 2.700268e-01 -3.692371e+00 -6.534124e+00 -5.820776e+00 -1.097060e+00 -2.529536e+00 -1.671050e+00 -1.306804e+00 -1.769377e+00 -1.306353e+00 4.733505e+00 -9.542010e-02 -7.100115e-01 -7.712947e-01 -4.028036e-01 2.761019e-02 5.123335e-01 1.904200e-01 5.622065e-02 -2.162904e-02 -3.078762e-01 -2.307815e-01 -1.055847e-01 9.723780e-01 -1.354279e-01 -2.182211e-01 -1.205412e-01 5.967262e-02 2.797426e-01 2.751602e-01 2.788248e-02 5.867905e-02 5.050816e-02 -9.705597e-02 5.502064e-02 1.752780e-02 8.966337e-02
<VARIANCE> 39
 6.898603e+00 2.242241e+01 2.641110e+01 3.335154e+01 2.915488e+01 3.755698e+01 3.215855e+01 3.499785e+01 3.108068e+01 3.179291e+01 2.510943e+01 2.307852e+01 1.576850e+01 8.341419e-01 1.855181e+00 2.477078e+00 2.898069e+00 3.375286e+00 4.007988e+00 3.190735e+00 3.507874e+00 2.761475e+00 2.754508e+00 2.458393e+00 1.826606e+00 1.446702e+00 1.257779e-01 2.687736e-01 3.690782e-01 4.766585e-01 4.989436e-01 5.642598e-01 5.284653e-01 6.449672e-01 4.939094e-01 4.662142e-01 4.535144e-01 3.394459e-01 1.470112e-01
<GCONST> 1.121424e+02
<STATE> 3
<MEAN> 39
 1.767111e+00 -4.260203e+00 -3.441607e+00 -2.392419e+00 -3.234615e+00 -9.324799e-01 -1.149282e+00 -3.363860e+00 -2.086322e+00 -3.495190e+00 -1.179213e+00 -1.212510e+00 8.225630e+00 -4.575664e-01 -8.043325e-01 -2.362439e-01 1.361808e-01 8.971812e-01 6.513486e-01 -3.449316e-01 7.293195e-03 6.183785e-02 -1.837343e-01 2.262804e-01 -1.207196e-02 4.745783e-01 8.999383e-02 3.445908e-01 2.107016e-01 -2.394345e-02 -6.474717e-02 -3.605314e-01 -1.041572e-01 7.093465e-02 1.263728e-01 1.512193e-01 -7.316017e-02 9.427315e-03 -3.130127e-01
<VARIANCE> 39
 7.321852e+00 2.738035e+01 2.475829e+01 5.631042e+01 2.568160e+01 2.420980e+01 4.001989e+01 3.065988e+01 2.961817e+01 2.966303e+01 2.315286e+01 2.150474e+01 2.774860e+01 6.161758e-01 1.747826e+00 2.653996e+00 3.279966e+00 1.918745e+00 2.646744e+00 3.361072e+00 3.744916e+00 2.882101e+00 2.564895e+00 2.310423e+00 1.764131e+00 1.258983e+00 8.154406e-02 2.599496e-01 3.344668e-01 4.552355e-01 3.509275e-01 3.940657e-01 4.787889e-01 5.210505e-01 4.596218e-01 4.299276e-01 3.964801e-01 2.719338e-01 1.689677e-01
<GCONST> 1.093765e+02
<STATE> 4
<MEAN> 39
 2.091827e+00 -4.161593e+00 -2.489684e+00 -2.564293e+00 -2.243902e+00 -1.105350e+00 -2.661488e+00 -4.198167e+00 -1.850448e+00 -3.560328e+00 -1.304266e+00 -7.253896e-01 7.503555e+00 4.040411e-02 5.104365e-01 3.064155e-01 -2.813076e-02 1.602111e-01 -5.431291e-01 -1.280238e-01 1.451721e-01 1.417629e-01 1.638713e-01 -9.412817e-02 4.212917e-02 -4.773562e-01 6.102264e-02 2.081593e-01 5.184748e-02 -6.207712e-02 -1.006905e-01 -1.345185e-01 1.636905e-02 4.263497e-02 -7.359574e-03 4.353560e-02 -2.263825e-02 -5.665779e-04 -1.339323e-01
<VARIANCE> 39
 7.880712e+00 3.136996e+01 2.086259e+01 3.387883e+01 2.110046e+01 3.405304e+01 3.969436e+01 2.860456e+01 2.038170e+01 2.476185e+01 1.952155e+01 1.596357e+01 2.546939e+01 5.136383e-01 1.698630e+00 1.373258e+00 1.528528e+00 1.378271e+00 2.486353e+00 1.884074e+00 1.845792e+00 1.600090e+00 1.386181e+00 1.256110e+00 1.160353e+00 8.330795e-01 6.536125e-02 2.663593e-01 1.996374e-01 2.438268e-01 2.127541e-01 3.731796e-01 3.137241e-01 3.055421e-01 3.181804e-01 2.767348e-01 2.240155e-01 1.824314e-01 1.624301e-01
<GCONST> 9.724101e+01
<TRANSP> 5
 0.000000e+00 1.000000e+00 0.000000e+00 0.000000e+00 0.000000e+00
 0.000000e+00 6.804509e-01 3.195491e-01 0.000000e+00 0.000000e+00
 0.000000e+00 0.000000e+00 4.889072e-01 5.110928e-01 0.000000e+00
 0.000000e+00 0.000000e+00 0.000000e+00 6.071366e-01 3.928635e-01
 0.000000e+00 0.000000e+00 0.000000e+00 0.000000e+00 0.000000e+00
<ENDHMM>
~h "m"
<BEGINHMM>
<NUMSTATES> 5
<STATE> 2
<MEAN> 39
 4.282708e+00 2.589368e+00 3.311499e+00 -5.920090e-01 -3.692978e+00 -9.550741e+00 -5.627542e+00 -3.601201e+00 -3.535414e+00 -1.217876e+00 -1.105227e+00 1.079799e+00 9.049236e-01 -4.128054e-02 3.090517e-01 3.331304e-01 3.109983e-02 -1.013120e-02 -1.388725e-01 -2.046839e-01 -1.590107e-01 -7.311478e-02 3.946441e-03 2.966424e-02 1.167216e-01 -1.752877e-01 -9.152834e-02 -2.204116e-01 -2.594055e-01 -9.005406e-02 1.153949e-01 4.500352e-01 1.885006e-01 1.087281e-01 6.336046e-02 -3.194560e-02 -2.409421e-02 -8.916260e-02 1.342565e-01
<VARIANCE> 39
 4.767617e+00 9.403818e+00 1.077744e+01 2.228683e+01 2.285912e+01 3.378049e+01 2.170446e+01 3.234795e+01 2.271896e+01 2.333260e+01 2.618904e+01 2.898306e+01 7.690589e+00 4.137632e-01 7.010592e-01 1.033723e+00 1.056921e+00 1.178232e+00 3.098761e+00 1.715149e+00 1.854149e+00 1.616367e+00 1.515191e+00 1.480670e+00 1.335244e+00 8.429129e-01 5.622694e-02 1.220231e-01 1.858522e-01 1.941842e-01 2.225358e-01 3.584835e-01 3.043925e-01 3.788671e-01 3.170058e-01 2.904254e-01 3.046383e-01 2.618079e-01 8.122922e-02
<GCONST> 9.140260e+01
<STATE> 3
<MEAN> 39
 3.698824e+00 3.254476e-01 1.966285e+00 -1.171795e+00 -3.203076e+00 -7.647610e+00 -4.676666e+00 -3.461469e+00 -3.572436e+00 -1.807598e+00 -2.037263e+00 -3.042104e-01 3.242947e+00 -3.702959e-01 -5.351728e-01 -7.917427e-01 -4.807367e-01 2.959240e-01 1.246990e+00 3.268175e-01 1.717422e-01 2.590541e-01 -1.761627e-01 -1.968816e-01 -3.885200e-01 7.773577e-01 -2.292407e-01 1.122088e-02 -2.259516e-01 4.974220e-02 2.743579e-01 4.419762e-01 2.576332e-01 2.223372e-01 1.984019e-01 1.099301e-01 1.130050e-01 1.934711e-02 -1.262597e-01
<VARIANCE> 39
 7.415205e+00 2.289561e+01 2.288542e+01 2.578812e+01 2.397004e+01 5.378602e+01 3.044974e+01 3.120704e+01 2.475038e+01 2.555940e+01 2.386200e+01 2.757134e+01 2.234125e+01 1.119481e+00 2.194028e+00 3.000756e+00 2.723157e+00 2.488619e+00 5.153346e+00 3.427458e+00 3.072406e+00 2.756465e+00 2.437488e+00 2.191970e+00 2.087679e+00 2.723207e+00 1.510404e-01 4.651561e-01 5.225704e-01 4.143581e-01 3.729035e-01 1.024677e+00 6.854159e-01 5.568607e-01 4.986298e-01 4.801562e-01 4.209066e-01 4.075256e-01 3.109657e-01
<GCONST> 1.151170e+02
<STATE> 4
<MEAN> 39
 1.158181e+00 1.832876e+00 8.719912e-01 -1.040743e+00 9.450182e-02 -2.251280e+00 -2.299368e+00 -1.907292e+00 -1.957266e+00 -1.786151e+00 -1.607618e+00 -5.564270e-01 1.126323e+00 -8.094175e-01 -3.328498e-01 -1.141339e+00 3.395659e-02 8.856854e-01 1.381553e+00 1.049661e+00 9.789962e-01 6.519673e-01 2.987055e-01 1.963527e-01 -4.536394e-02 -7.040033e-02 9.385208e-02 -8.552390e-02 5.515721e-03 1.024965e-01 -1.660661e-01 -2.339453e-01 -7.435992e-02 2.517461e-02 7.000715e-02 1.639010e-01 1.340906e-01 9.565566e-02 -4.286414e-02
<VARIANCE> 39
 1.031716e+01 1.702504e+01 3.294284e+01 4.207676e+01 1.991351e+01 3.404961e+01 2.518125e+01 2.219193e+01 2.034151e+01 2.182207e+01 1.888956e+01 2.108938e+01 3.470615e+01 1.176238e+00 2.477885e+00 2.950776e+00 2.561114e+00 2.141645e+00 4.129847e+00 3.421916e+00 2.850411e+00 2.569108e+00 2.606333e+00 2.581932e+00 2.201273e+00 1.701492e+00 1.172852e-01 1.954785e-01 3.520072e-01 4.231019e-01 3.451988e-01 4.715730e-01 4.218718e-01 3.803910e-01 3.723387e-01 3.674035e-01 3.338929e-01 2.772436e-01 1.775169e-01
<GCONST> 1.088529e+02
<TRANSP> 5
 0.000000e+00 1.000000e+00 0.000000e+00 0.000000e+00 0.000000e+00
 0.000000e+00 7.699184e-01 2.300816e-01 0.000000e+00 0.000000e+00
 0.000000e+00 0.000000e+00 5.529859e-01 4.470141e-01 0.000000e+00
 0.000000e+00 0.000000e+00 0.000000e+00 4.247485e-01 5.752515e-01
 0.000000e+00 0.000000e+00 0.000000e+00 0.000000e+00 0.000000e+00
<ENDHMM>
~h "n"
<BEGINHMM>
<NUMSTATES> 5
<STATE> 2
<MEAN> 39
 4.939417e+00 3.410042e+00 2.289518e+00 -4.519933e+00 -4.502114e+00 -8.067539e+00 -3.268489e+00 -4.254381e+00 -3.611840e+00 -2.030674e+00 -2.418228e+00 -4.206832e-01 1.954083e+00 -1.590176e-01 2.066595e-02 8.978669e-02 3.567166e-01 1.199748e-01 2.388126e-01 -7.651658e-02 -7.545086e-02 1.751344e-02 7.398276e-03 5.688553e-02 7.298638e-03 -2.127622e-01 -1.983331e-01 -2.495587e-01 -1.654898e-01 1.952631e-01 1.219027e-01 3.928368e-01 5.539381e-02 1.049084e-01 9.744873e-02 6.060349e-04 8.698853e-02 -2.789880e-02 8.402205e-02
<VARIANCE> 39
 4.343294e+00 8.909564e+00 1.342569e+01 2.204329e+01 1.682092e+01 3.670225e+01 2.966034e+01 2.807137e+01 2.032179e+01 2.055767e+01 2.226738e+01 2.552363e+01 8.058210e+00 4.195186e-01 9.127283e-01 8.965316e-01 1.218448e+00 1.190018e+00 2.154157e+00 1.664100e+00 1.561138e+00 1.307889e+00 1.479339e+00 1.384486e+00 1.341007e+00 8.366041e-01 7.343276e-02 1.755033e-01 1.706183e-01 2.080889e-01 2.369063e-01 4.015925e-01 3.800603e-01 3.342885e-01 2.966585e-01 3.020207e-01 2.878332e-01 2.569025e-01 9.420772e-02
<GCONST> 9.127805e+01
<STATE> 3
<MEAN> 39
 1.988954e+00 1.297407e+00 1.902943e+00 -3.775682e-01 -2.182488e+00 -2.912024e+00 -2.397705e+00 -3.477242e+00 -2.754997e+00 -1.759201e+00 -1.492825e+00 -8.120082e-01 1.311191e+00 -1.046818e+00 -1.071952e+00 -6.991080e-01 8.080596e-01 8.203505e-01 1.786154e+00 6.877887e-01 9.469178e-01 6.015576e-01 2.101627e-01 5.032663e-01 2.383099e-02 -8.044988e-02 3.229713e-02 -1.752544e-04 -1.302232e-01 -1.759669e-01 2.291652e-02 -1.066608e-01 1.069022e-01 1.966975e-01 1.188266e-01 1.180956e-01 4.840243e-02 7.702135e-02 -6.713258e-03
<VARIANCE> 39
 8.043759e+00 2.366919e+01 2.301450e+01 2.614869e+01 2.292249e+01 3.350241e+01 3.226985e+01 2.494082e+01 2.006425e+01 2.202176e+01 2.001095e+01 2.253703e+01 3.671638e+01 6.941204e-01 1.419440e+00 1.922128e+00 2.111602e+00 1.969101e+00 3.153892e+00 3.933207e+00 3.159967e+00 2.637486e+00 2.433636e+00 2.327262e+00 2.219285e+00 1.896844e+00 1.172817e-01 2.407323e-01 2.033949e-01 2.541682e-01 3.188494e-01 4.732257e-01 5.135151e-01 4.016281e-01 3.846591e-01 3.693632e-01 3.330395e-01 3.023201e-01 1.560515e-01
<GCONST> 1.062355e+02
<STATE> 4
<MEAN> 39
 1.466270e+00 -4.120468e-01 -8.190579e-01 -8.494434e-01 -2.303780e+00 -1.948779e+00 -1.720889e+00 -1.361924e+00 -1.168884e+00 -1.068682e+00 -6.218108e-01 -7.476486e-01 2.029998e+00 -3.290336e-01 -2.461914e-01 -3.011289e-01 3.398287e-01 3.862652e-01 4.552151e-01 3.735158e-01 6.107888e-01 2.735801e-01 2.816887e-01 2.747438e-01 1.213151e-01 -2.438167e-01 9.457667e-02 1.548746e-01 7.841647e-02 -9.702954e-02 -8.061229e-02 -2.093342e-01 -6.325262e-02 -1.359130e-01 -6.982559e-02 -3.460442e-02 -7.431127e-02 2.653286e-03 2.964860e-02
<VARIANCE> 39
 1.055365e+01 2.852246e+01 2.770797e+01 2.784572e+01 2.562390e+01 3.432104e+01 3.545953e+01 2.921172e+01 2.171821e+01 2.158250e+01 1.841336e+01 2.702745e+01 4.606086e+01 6.843362e-01 7.693560e-01 1.094089e+00 1.138698e+00 1.230939e+00 1.941207e+00 2.075276e+00 1.893296e+00 1.738862e+00 1.562093e+00 1.423857e+00 1.415044e+00 4.812765e-01 8.389679e-02 1.774187e-01 1.879904e-01 2.299792e-01 2.343805e-01 3.208624e-01 3.973720e-01 3.652761e-01 3.357675e-01 3.147984e-01 2.592530e-01 2.596028e-01 2.267572e-01
<GCONST> 9.843555e+01
<TRANSP> 5
 0.000000e+00 1.000000e+00 0.000000e+00 0.000000e+00 0.000000e+00
 0.000000e+00 7.742603e-01 2.257397e-01 0.000000e+00 0.000000e+00
 0.000000e+00 0.000000e+00 5.183447e-01 4.816553e-01 0.000000e+00
 0.000000e+00 0.000000e+00 0.000000e+00 4.607134e-01 5.392866e-01
 0.000000e+00 0.000000e+00 0.000000e+00 0.000000e+00 0.000000e+00
<ENDHMM>
~h "p"
<BEGINHMM>
<NUMSTATES> 5
<STATE> 2
<MEAN> 39
 -2.160062e+00 8.210242e-01 2.104098e+00 1.639242e+00 1.804911e+00 3.425682e+00 3.435790e+00 2.601513e+00 1.796787e+00 1.439691e+00 1.444209e+00 7.643723e-01 -3.495964e+00 6.034447e-01 -6.247585e-01 -9.624552e-01 -5.072616e-01 -4.947799e-01 -5.810578e-01 -1.882805e-01 -1.647970e-01 -1.266842e-01 -4.927104e-01 -2.059757e-01 -2.708249e-01 1.805087e+00 4.570442e-01 -2.213575e-01 -5.578212e-01 -2.197379e-01 -2.363911e-01 -4.808756e-01 -3.819759e-01 -2.858990e-01 -2.537390e-01 -2.391428e-01 -2.372760e-01 -9.600773e-02 5.876777e-01
<VARIANCE> 39
 5.296720e+00 9.908914e+00 1.034937e+01 1.380677e+01 1.405491e+01 1.745019e+01 1.824618e+01 1.793711e+01 1.631200e+01 1.601768e+01 1.480474e+01 1.409041e+01 1.924329e+01 1.872570e+00 1.660299e+00 3.368606e+00 1.786608e+00 1.923762e+00 2.883312e+00 2.464937e+00 2.419982e+00 2.276066e+00 2.081121e+00 1.997885e+00 1.734020e+00 3.472954e+00 2.047982e-01 3.235482e-01 5.362874e-01 3.378888e-01 3.506090e-01 4.515247e-01 4.352942e-01 4.663572e-01 4.038333e-01 3.932860e-01 3.710780e-01 3.413493e-01 3.667293e-01
<GCONST> 1.034580e+02
<STATE> 3
<MEAN> 39
 5.037745e+00 -4.714272e+00 -9.040554e+00 -2.945818e+00 -2.173208e+00 -3.239986e+00 -1.129391e+00 -6.602305e-01 -1.193052e+00 -2.429851e+00 -2.153943e+00 -1.421385e+00 8.927201e+00 9.056298e-01 -8.335009e-01 -2.045882e+00 -9.201127e-01 -4.423057e-01 -1.094138e+00 -9.281052e-01 -7.045957e-01 -4.782810e-01 -4.122556e-01 -8.477769e-01 -4.970494e-01 1.659561e+00 -5.439730e-01 4.489779e-01 8.237080e-01 2.219613e-01 2.803181e-01 3.917411e-01 1.743382e-01 6.980261e-02 1.404661e-01 2.382130e-01 1.893041e-01 1.062508e-01 -8.021427e-01
<VARIANCE> 39
 1.405039e+01 2.401839e+01 5.243418e+01 3.426547e+01 2.531547e+01 2.512387e+01 2.707851e+01 2.549496e+01 2.444545e+01 2.198709e+01 2.234102e+01 1.972944e+01 1.652983e+01 2.406021e+00 3.265749e+00 6.553164e+00 3.372290e+00 2.914599e+00 3.378796e+00 3.009736e+00 2.953872e+00 2.866838e+00 3.070421e+00 2.334194e+00 2.084904e+00 3.010312e+00 2.317757e-01 3.646662e-01 8.394778e-01 4.244515e-01 4.342889e-01 5.105751e-01 4.846716e-01 4.839751e-01 5.231850e-01 4.664974e-01 4.540709e-01 4.080938e-01 2.340530e-01
<GCONST> 1.166468e+02
<STATE> 4
<MEAN> 39
 4.856270e+00 -4.686990e+00 -8.972632e+00 -2.514435e+00 -2.822610e+00 -4.376726e+00 -2.956645e+00 -2.734811e+00 -2.142473e+00 -2.404473e+00 -2.783710e+00 -1.617965e+00 8.835646e+00 -1.447574e-01 3.026049e-01 5.526854e-01 -1.478387e-01 -6.613101e-02 -4.243113e-02 -1.716735e-01 -1.887428e-01 -6.601892e-02 4.332365e-02 4.517783e-02 1.267243e-01 -1.766587e-01 -1.571425e-02 8.204046e-02 1.386779e-01 2.121997e-02 3.993032e-03 3.725177e-02 6.039813e-02 6.079603e-02 2.570358e-02 -1.180940e-02 7.138859e-02 4.555544e-02 -1.053099e-01
<VARIANCE> 39
 9.337337e+00 2.560778e+01 4.721284e+01 3.911009e+01 3.376094e+01 2.546099e+01 2.522230e+01 2.219259e+01 2.605539e+01 2.819820e+01 1.962099e+01 2.124060e+01 1.558061e+01 1.872312e-01 6.381061e-01 9.327440e-01 8.428063e-01 9.225196e-01 1.175864e+00 1.375108e+00 1.289518e+00 1.411379e+00 1.189187e+00 1.184514e+00 9.998834e-01 1.969577e-01 4.939106e-02 1.021970e-01 2.364006e-01 1.658593e-01 1.681874e-01 2.246915e-01 2.269374e-01 2.540992e-01 2.483865e-01 2.230696e-01 2.091501e-01 1.824314e-01 5.014529e-02
<GCONST> 8.667982e+01
<TRANSP> 5
 0.000000e+00 1.000000e+00 0.000000e+00 0.000000e+00 0.000000e+00
 0.000000e+00 7.880203e-01 2.119798e-01 0.000000e+00 0.000000e+00
 0.000000e+00 0.000000e+00 7.170467e-01 2.829533e-01 0.000000e+00
 0.000000e+00 0.000000e+00 0.000000e+00 7.745256e-01 2.254743e-01
 0.000000e+00 0.000000e+00 0.000000e+00 0.000000e+00 0.000000e+00
<ENDHMM>
~h "r"
<BEGINHMM>
<NUMSTATES> 5
<STATE> 2
<MEAN> 39
 6.541462e-01 -1.262817e+00 9.893153e-01 -2.938054e+00 -3.355924e+00 -7.573996e-01 -3.500073e-01 -2.736646e+00 -3.046505e-01 -2.427397e+00 -9.319181e-01 -7.829378e-01 5.205542e+00 2.590672e-01 -4.512506e-01 -3.426533e-01 -7.338114e-01 -3.102913e-01 -2.631993e-01 -8.325377e-02 -1.117047e-01 3.387402e-03 -4.018666e-01 5.739480e-02 -1.583978e-01 8.562096e-01 8.715466e-02 -2.335840e-01 -2.753915e-01 -9.316407e-02 7.470872e-02 -1.001024e-01 -4.097107e-02 5.385327e-02 -1.016709e-01 -4.463267e-02 9.696115e-04 -8.346871e-02 1.882136e-01
<VARIANCE> 39
 1.420017e+01 2.538546e+01 2.107106e+01 3.972421e+01 2.920220e+01 3.168471e+01 3.339437e+01 2.636067e+01 2.376997e+01 2.260205e+01 1.948645e+01 1.873670e+01 2.728353e+01 1.802507e+00 2.439984e+00 2.345927e+00 4.030584e+00 2.639550e+00 3.073167e+00 2.983101e+00 2.959289e+00 2.610070e+00 2.368191e+00 2.078077e+00 1.914751e+00 2.750428e+00 3.554655e-01 4.653580e-01 4.698572e-01 7.927790e-01 5.207959e-01 5.932288e-01 5.754898e-01 5.937440e-01 5.451593e-01 4.671843e-01 4.427036e-01 3.972147e-01 4.980042e-01
<GCONST> 1.167729e+02
<STATE> 3
<MEAN> 39
 2.100460e+00 -6.322196e+00 -2.608213e+00 -5.378066e+00 -3.734195e+00 -2.484059e+00 -1.153950e-01 -3.799626e+00 -1.775201e+00 -4.928348e+00 -3.066357e-01 -2.484536e+00 1.047849e+01 8.083237e-02 -5.141950e-01 -7.695372e-01 1.639307e-01 3.967622e-01 -4.832626e-01 -4.442365e-01 7.782714e-02 -4.271335e-01 -2.415602e-01 1.716276e-02 -2.437310e-01 5.216122e-01 -1.020715e-01 3.603275e-01 1.216982e-01 3.652160e-01 1.251331e-01 -2.782501e-02 -1.220255e-01 1.226967e-01 1.430151e-02 2.491575e-01 -9.554429e-02 1.443377e-01 -3.726512e-01
<VARIANCE> 39
 8.842178e+00 2.820132e+01 1.738204e+01 3.637621e+01 2.260921e+01 3.325171e+01 3.811428e+01 3.236993e+01 2.203180e+01 2.200850e+01 2.060759e+01 1.964098e+01 1.819107e+01 7.183953e-01 1.649609e+00 1.736155e+00 2.477617e+00 1.803662e+00 2.533582e+00 2.886216e+00 2.766703e+00 2.188504e+00 2.047676e+00 2.131282e+00 1.825226e+00 1.099003e+00 1.261836e-01 1.987495e-01 2.646857e-01 3.937557e-01 2.872438e-01 4.325772e-01 4.281648e-01 4.552109e-01 3.781889e-01 3.514858e-01 3.521464e-01 3.176658e-01 1.434558e-01
<GCONST> 1.048347e+02
<STATE> 4
<MEAN> 39
 2.147045e+00 -7.128317e+00 -4.226300e+00 -2.267317e+00 -2.295950e+00 -3.148079e+00 -2.483944e+00 -3.905327e+00 -3.200382e+00 -3.875619e+00 -9.353514e-01 -1.950555e+00 1.045695e+01 1.122808e-01 3.498552e-01 -1.074333e-01 2.858007e-01 1.914370e-01 -3.025574e-01 -3.801535e-01 2.753566e-01 -7.000174e-02 1.934466e-01 -1.847687e-01 1.211017e-01 -3.094253e-01 1.699338e-02 2.130128e-01 1.351540e-01 -4.584481e-02 -6.217380e-02 -7.341987e-03 4.642962e-02 9.950702e-03 1.030289e-01 5.593543e-02 -4.321190e-02 8.589387e-03 -1.796005e-01
<VARIANCE> 39
 8.265476e+00 2.053190e+01 2.136073e+01 3.511171e+01 2.043550e+01 2.758937e+01 3.535299e+01 2.884608e+01 2.299017e+01 1.833766e+01 1.723791e+01 1.603611e+01 1.783348e+01 2.580598e-01 8.010314e-01 1.023861e+00 1.334612e+00 9.982861e-01 1.374030e+00 1.457459e+00 1.398447e+00 1.307889e+00 1.189187e+00 1.184514e+00 9.998834e-01 3.728083e-01 4.679179e-02 1.005807e-01 1.386239e-01 2.079924e-01 1.677696e-01 2.246915e-01 2.269374e-01 2.577839e-01 2.483865e-01 2.230696e-01 2.091501e-01 1.824314e-01 6.076349e-02
<GCONST> 8.664671e+01
<TRANSP> 5
 0.000000e+00 1.000000e+00 0.000000e+00 0.000000e+00 0.000000e+00
 0.000000e+00 6.541947e-01 3.458054e-01 0.000000e+00 0.000000e+00
 0.000000e+00 0.000000e+00 5.449523e-01 4.550477e-01 0.000000e+00
 0.000000e+00 0.000000e+00 0.000000e+00 7.259583e-01 2.740417e-01
 0.000000e+00 0.000000e+00 0.000000e+00 0.000000e+00 0.000000e+00
<ENDHMM>
~h "s"
<BEGINHMM>
<NUMSTATES> 5
<STATE> 2
<MEAN> 39
 -7.143190e+00 1.420640e+00 6.329845e-01 3.283518e+00 2.034739e+00 3.526096e+00 2.777137e+00 2.581963e+00 2.365570e+00 1.152570e+00 1.421028e+00 8.744054e-01 -7.927542e-01 2.953094e-01 -3.029084e-01 -1.372154e-01 -3.454693e-01 -2.870510e-01 -1.031116e-01 -6.106967e-02 -2.074283e-01 -1.086241e-01 -9.138055e-02 -2.817761e-02 3.333662e-02 3.098006e-01 4.388944e-01 -1.382302e-01 -9.523460e-02 -2.528827e-01 -2.554642e-01 -2.223861e-01 -2.181930e-01 -2.675947e-01 -1.856938e-01 -1.376487e-01 -1.244396e-01 -6.818686e-02 2.410782e-01
<VARIANCE> 39
 7.685857e+00 8.926242e+00 1.199387e+01 1.380677e+01 1.640784e+01 1.765402e+01 1.824618e+01 1.793711e+01 1.631200e+01 1.554992e+01 1.480474e+01 1.409041e+01 6.719109e+00 2.291111e+00 9.951504e-01 1.057212e+00 1.882634e+00 2.065394e+00 1.987679e+00 2.209299e+00 2.392866e+00 2.063546e+00 1.805693e+00 1.778304e+00 1.433111e+00 1.058124e+00 1.893171e-01 2.118741e-01 2.192262e-01 2.883482e-01 3.428869e-01 3.586938e-01 4.090847e-01 4.083641e-01 3.656686e-01 3.654461e-01 3.371763e-01 2.763477e-01 1.923617e-01
<GCONST> 9.625667e+01
<STATE> 3
<MEAN> 39
 2.241674e+00 -3.765184e+00 -2.908105e+00 -3.229584e+00 -4.800627e+00 -1.145172e+00 -1.154870e+00 -3.638032e+00 -2.166487e+00 -2.146221e+00 -1.097968e+00 -7.084569e-02 6.742968e+00 1.295304e+00 -1.589282e+00 -1.062757e+00 -9.774901e-01 -8.780598e-01 -7.333485e-01 -9.684086e-01 -1.041190e+00 -7.581833e-01 -7.057524e-01 -4.436771e-01 -2.543133e-01 2.167614e+00 -6.817962e-01 2.327509e-01 2.356375e-01 4.981000e-01 6.038416e-01 2.415823e-01 8.640088e-02 4.094906e-01 2.786438e-01 1.869873e-01 1.855749e-01 1.167150e-02 -3.475979e-01
<VARIANCE> 39
 1.445934e+01 3.027024e+01 1.949768e+01 2.720114e+01 2.236300e+01 2.920582e+01 3.447246e+01 2.809512e+01 2.456934e+01 2.407245e+01 2.869305e+01 1.782304e+01 3.060085e+01 3.021279e+00 2.609054e+00 2.199546e+00 3.286569e+00 3.522187e+00 3.408779e+00 3.903296e+00 3.895442e+00 2.936991e+00 2.959556e+00 2.827537e+00 1.982692e+00 2.638325e+00 2.820100e-01 4.133297e-01 3.705966e-01 4.078809e-01 4.244706e-01 4.815772e-01 5.613831e-01 5.397519e-01 4.613046e-01 4.761886e-01 5.274241e-01 3.430809e-01 4.481884e-01
<GCONST> 1.166887e+02
<STATE> 4
<MEAN> 39
 1.030129e+00 -7.216293e+00 -2.741178e+00 -1.865039e+00 -3.267205e+00 -1.137612e+00 -5.159745e+00 -4.779046e+00 -2.909437e+00 -2.695263e+00 -8.631433e-01 -8.885165e-01 1.025705e+01 -4.179122e-02 1.906334e-01 1.755428e-02 1.967389e-01 3.826135e-01 -2.736144e-01 -2.390403e-01 2.486324e-01 -5.469983e-02 -7.681940e-03 5.157286e-02 -4.900819e-02 -1.183356e-01 1.023806e-02 2.732312e-01 4.676900e-02 1.616031e-02 6.518184e-02 1.594000e-03 1.466873e-01 1.259754e-01 7.188320e-02 4.854356e-02 -2.213138e-02 4.179967e-02 -2.889917e-01
<VARIANCE> 39
 9.983883e+00 2.350780e+01 1.633348e+01 3.232396e+01 1.852805e+01 2.351517e+01 4.395231e+01 2.588605e+01 2.476152e+01 2.144966e+01 2.062176e+01 1.833698e+01 2.610231e+01 3.883319e-01 6.726989e-01 9.207717e-01 1.119675e+00 9.633708e-01 1.228856e+00 1.634623e+00 1.289518e+00 1.307889e+00 1.201045e+00 1.184514e+00 9.998834e-01 3.238266e-01 9.495293e-02 1.719779e-01 1.621012e-01 2.143526e-01 2.063764e-01 2.310045e-01 2.951187e-01 2.685130e-01 2.483865e-01 2.524937e-01 2.091501e-01 1.824314e-01 1.676985e-01
<GCONST> 9.021260e+01
<TRANSP> 5
 0.000000e+00 1.000000e+00 0.000000e+00 0.000000e+00 0.000000e+00
 0.000000e+00 8.647396e-01 1.352603e-01 0.000000e+00 0.000000e+00
 0.000000e+00 0.000000e+00 6.517729e-01 3.482271e-01 0.000000e+00
 0.000000e+00 0.000000e+00 0.000000e+00 6.758679e-01 3.241320e-01
 0.000000e+00 0.000000e+00 0.000000e+00 0.000000e+00 0.000000e+00
<ENDHMM>
~h "t"
<BEGINHMM>
<NUMSTATES> 5
<STATE> 2
<MEAN> 39
 -1.988980e+00 5.347414e-01 1.687101e+00 1.404084e+00 1.822446e+00 3.528833e+00 2.645644e+00 2.173720e+00 1.648740e+00 1.643017e+00 1.390456e+00 1.064666e+00 -3.695737e+00 -3.771598e-01 -4.969676e-01 -2.634535e-01 -2.763374e-02 5.362340e-02 2.941042e-01 2.014592e-01 2.488828e-01 2.396436e-01 -1.142582e-01 1.139450e-01 -4.671681e-02 7.987567e-01 2.649148e-01 -1.649988e-01 -2.586861e-01 -4.071006e-01 -3.665390e-01 -3.104354e-01 -3.134255e-01 -3.326508e-01 -1.679576e-01 -2.765702e-01 -1.763689e-01 -1.057578e-01 6.939088e-01
<VARIANCE> 39
 7.275704e+00 1.046208e+01 1.438882e+01 1.748128e+01 1.833445e+01 2.152835e+01 2.123707e+01 2.231842e+01 1.828690e+01 1.721572e+01 1.565804e+01 1.409041e+01 1.575293e+01 9.319947e-01 1.103125e+00 1.478363e+00 2.225772e+00 2.434421e+00 2.642930e+00 2.962957e+00 2.835744e+00 2.135057e+00 2.357448e+00 2.007286e+00 1.559762e+00 4.466654e+00 1.528628e-01 2.433633e-01 2.823510e-01 3.479870e-01 3.836691e-01 4.352788e-01 4.991902e-01 5.045466e-01 4.253391e-01 3.671410e-01 3.834195e-01 2.971587e-01 3.790959e-01
<GCONST> 1.032656e+02
<STATE> 3
<MEAN> 39
 7.021232e-01 -3.331854e+00 -2.703602e+00 -2.871563e+00 -3.052057e+00 8.532889e-02 -5.698513e-01 -2.082653e+00 -2.339714e-01 -2.357389e+00 -6.616721e-01 -6.458760e-01 7.156178e+00 5.588593e-01 -1.763205e-01 -4.060281e-01 -6.915828e-01 -7.704364e-01 -5.690763e-01 -2.177434e-01 -6.472382e-01 -4.362784e-01 -3.787093e-01 -3.945418e-01 -2.829462e-01 8.538973e-01 1.349283e-02 2.421742e-01 1.563027e-01 2.251963e-01 2.121929e-01 -9.302348e-02 5.495156e-02 1.540464e-01 -2.670022e-02 1.776603e-01 1.610275e-02 4.639365e-02 -5.736986e-01
<VARIANCE> 39
 1.800412e+01 2.385633e+01 2.648916e+01 3.044743e+01 2.969408e+01 3.986127e+01 4.064628e+01 3.460563e+01 2.724948e+01 2.405613e+01 2.404242e+01 1.832355e+01 3.733447e+01 1.652033e+00 2.943886e+00 3.238027e+00 3.916424e+00 3.242305e+00 3.769968e+00 4.164035e+00 4.086345e+00 3.053161e+00 2.725257e+00 2.622117e+00 2.020673e+00 6.065872e+00 3.025578e-01 3.617329e-01 3.953233e-01 5.394537e-01 5.631756e-01 6.342772e-01 7.012386e-01 7.332419e-01 5.795911e-01 4.835189e-01 4.948573e-01 3.816683e-01 5.636266e-01
<GCONST> 1.210351e+02
<STATE> 4
<MEAN> 39
 -3.767215e-01 -2.113913e-01 8.348998e-02 -3.389001e-01 -2.331474e-01 1.912842e+00 1.309223e+00 -1.627493e-01 8.339920e-01 1.242126e-01 7.728933e-02 3.965835e-01 -9.210856e-01 2.884103e-02 1.752900e-01 3.642646e-02 2.125825e-01 2.555404e-01 -1.575981e-01 8.934747e-02 2.766146e-01 -3.128384e-02 1.966161e-01 3.521695e-02 5.242526e-02 -4.282874e-01 2.141216e-02 -3.507839e-02 2.705269e-02 -1.016532e-02 -2.138327e-02 -8.975562e-02 -6.277090e-02 -1.673623e-02 -2.690919e-02 -3.414234e-02 2.859387e-02 1.388104e-03 1.230741e-01
<VARIANCE> 39
 8.790004e+00 1.551824e+01 1.628856e+01 2.385172e+01 2.516376e+01 3.497364e+01 2.642967e+01 2.628791e+01 2.361985e+01 2.085339e+01 1.712941e+01 1.536837e+01 3.785024e+01 8.814743e-01 1.036575e+00 1.256712e+00 1.462290e+00 1.810415e+00 2.739218e+00 2.381934e+00 2.512561e+00 2.137657e+00 2.173720e+00 1.632985e+00 1.463227e+00 1.618488e+00 1.301825e-01 2.940646e-01 2.837415e-01 3.304941e-01 3.876962e-01 4.756984e-01 4.901170e-01 4.824086e-01 4.435858e-01 4.332820e-01 3.296838e-01 3.111826e-01 4.211652e-01
<GCONST> 1.045294e+02
<TRANSP> 5
 0.000000e+00 1.000000e+00 0.000000e+00 0.000000e+00 0.000000e+00
 0.000000e+00 6.754499e-01 3.245502e-01 0.000000e+00 0.000000e+00
 0.000000e+00 0.000000e+00 6.381176e-01 3.618824e-01 0.000000e+00
 0.000000e+00 0.000000e+00 0.000000e+00 5.119446e-01 4.880554e-01
 0.000000e+00 0.000000e+00 0.000000e+00 0.000000e+00 0.000000e+00
<ENDHMM>
~h "v"
<BEGINHMM>
<NUMSTATES> 5
<STATE> 2
<MEAN> 39
 4.174763e+00 -8.877563e+00 -7.464750e+00 8.784330e-01 -7.911963e-01 -4.383206e+00 -2.653786e+00 -1.304599e+00 -5.879692e+00 -4.153497e+00 -1.399659e+00 -8.420557e-01 1.084588e+01 -6.247233e-01 -7.423224e-01 9.761528e-01 6.294805e-01 -2.363174e-01 2.603526e-01 -2.507808e-02 -9.037167e-01 -3.394002e-01 2.101844e-01 5.010421e-01 5.317138e-02 5.250062e-01 1.588763e-02 2.588132e-01 2.176531e-01 -1.234778e-01 -1.834546e-01 -2.089407e-02 -1.388256e-01 -9.961944e-02 2.027348e-01 1.244849e-01 -6.975570e-02 -9.269866e-02 -1.827234e-01
<VARIANCE> 39
 1.065594e+01 1.588957e+01 2.362683e+01 1.380677e+01 1.751454e+01 1.787784e+01 2.120824e+01 3.695422e+01 3.082623e+01 1.938355e+01 1.480474e+01 1.409041e+01 3.023977e+01 2.630653e-01 8.615988e-01 1.566793e+00 1.013823e+00 9.658094e-01 1.183222e+00 1.903676e+00 1.691206e+00 2.646743e+00 1.819543e+00 1.570576e+00 1.429055e+00 3.667319e-01 6.233774e-02 7.540579e-02 2.335921e-01 2.048319e-01 1.830245e-01 2.246915e-01 2.269374e-01 2.540992e-01 3.217592e-01 2.764462e-01 2.593451e-01 2.212460e-01 3.359565e-02
<GCONST> 8.869275e+01
<STATE> 3
<MEAN> 39
 1.885936e+00 -9.247739e+00 -1.883950e+00 -1.987423e-01 -2.972517e+00 -1.671700e+00 -4.608626e+00 -8.833054e+00 -2.260172e+00 -3.001997e+00 -1.445649e+00 -8.125904e-01 1.163749e+01 7.657845e-03 3.251016e-01 2.278544e-01 -5.698257e-01 -1.252408e-01 4.132845e-01 -1.509529e-01 -2.702835e-02 2.925692e-01 -1.464466e-01 -1.143527e-01 9.781128e-02 -1.735119e-01 4.538722e-02 1.049952e-01 -7.285669e-02 -1.074435e-01 1.076353e-02 -3.582876e-03 3.797716e-02 1.680707e-01 -5.535308e-02 -5.860230e-02 -1.914673e-02 -4.949592e-03 -4.169650e-02
<VARIANCE> 39
 4.817832e+00 8.442718e+00 1.028112e+01 1.380677e+01 1.391700e+01 1.745019e+01 1.869942e+01 1.793711e+01 2.343068e+01 1.752051e+01 1.480474e+01 1.731731e+01 1.644644e+01 1.689938e-01 4.463741e-01 6.158003e-01 7.791576e-01 9.225196e-01 1.175864e+00 1.375108e+00 1.289518e+00 1.307889e+00 1.189187e+00 1.184514e+00 9.998834e-01 1.448617e-01 3.135733e-02 7.540579e-02 1.110718e-01 1.458303e-01 1.677696e-01 2.246915e-01 2.269374e-01 2.540992e-01 2.483865e-01 2.230696e-01 2.091501e-01 1.824314e-01 2.437782e-02
<GCONST> 7.584995e+01
<STATE> 4
<MEAN> 39
 4.450167e+00 1.790429e-01 -1.769823e+00 -6.687972e+00 -6.584362e+00 -3.912602e+00 -3.125375e+00 -3.182596e+00 -4.523688e-01 -1.058036e+00 -1.012870e+00 7.159324e-01 2.817200e+00 -6.220917e-02 4.907525e-01 3.304473e-01 1.647938e-01 3.162410e-01 -2.300789e-02 8.953924e-02 4.742185e-01 -2.592627e-03 4.002316e-01 1.235796e-01 -2.157176e-02 -5.880461e-01 -5.150518e-02 -4.206243e-02 4.214145e-03 1.213299e-01 1.650699e-01 8.571012e-02 8.867713e-02 6.335873e-03 -2.378665e-02 -3.842058e-02 -9.923272e-03 -4.562573e-02 -6.609160e-03
<VARIANCE> 39
 4.392794e+00 1.444748e+01 1.594743e+01 1.570765e+01 2.117668e+01 1.745019e+01 2.069650e+01 1.894715e+01 2.537578e+01 4.564972e+01 2.866129e+01 2.838675e+01 2.292169e+01 2.858067e-01 4.644269e-01 7.350417e-01 1.505425e+00 1.467300e+00 1.175864e+00 2.024683e+00 1.702937e+00 1.819870e+00 1.606801e+00 1.778394e+00 1.465160e+00 1.448617e-01 3.748056e-02 7.540579e-02 1.177417e-01 1.778033e-01 1.969999e-01 2.246915e-01 3.294558e-01 2.933775e-01 2.828954e-01 2.909722e-01 3.272493e-01 2.145170e-01 2.437782e-02
<GCONST> 8.603008e+01
<TRANSP> 5
 0.000000e+00 1.000000e+00 0.000000e+00 0.000000e+00 0.000000e+00
 0.000000e+00 6.514444e-01 3.485556e-01 0.000000e+00 0.000000e+00
 0.000000e+00 0.000000e+00 8.811262e-01 1.188738e-01 0.000000e+00
 0.000000e+00 0.000000e+00 0.000000e+00 8.437957e-01 1.562042e-01
 0.000000e+00 0.000000e+00 0.000000e+00 0.000000e+00 0.000000e+00
<ENDHMM>
~h "w"
<BEGINHMM>
<NUMSTATES> 5
<STATE> 2
<MEAN> 39
 3.963663e+00 -9.144790e-01 -4.793562e+00 -4.711703e+00 -4.148803e+00 -5.414434e+00 -1.844371e+00 -1.284693e+00 -1.999505e+00 -3.383436e+00 -2.051205e+00 -1.276857e+00 6.632805e+00 1.856095e-01 5.014793e-01 -3.033372e-01 -3.210598e-01 -4.601462e-01 -4.726260e-01 3.897932e-01 2.807558e-01 8.740366e-02 6.889074e-02 -6.695459e-03 -1.821313e-01 -3.636739e-02 -8.733264e-02 -2.275917e-03 2.299833e-01 1.026730e-01 4.006540e-02 1.930596e-01 -1.598327e-01 -1.718576e-01 4.728078e-02 1.148280e-01 3.113530e-02 2.528958e-03 -7.869352e-02
<VARIANCE> 39
 1.157881e+01 2.662244e+01 3.097644e+01 4.897072e+01 3.028301e+01 2.674800e+01 2.743066e+01 3.472168e+01 2.150889e+01 1.958333e+01 1.693360e+01 2.040782e+01 1.738019e+01 6.889045e-01 2.171107e+00 2.051894e+00 3.065656e+00 2.517788e+00 2.799108e+00 2.692509e+00 2.750468e+00 2.356573e+00 1.966066e+00 2.008691e+00 1.917081e+00 1.892414e+00 1.105833e-01 2.245054e-01 2.874019e-01 6.537033e-01 4.730400e-01 4.557030e-01 5.063181e-01 4.703820e-01 4.192902e-01 4.119526e-01 3.784378e-01 3.315647e-01 2.057500e-01
<GCONST> 1.089984e+02
<STATE> 3
<MEAN> 39
 4.293204e+00 4.565539e+00 -3.692683e+00 -5.874648e+00 -5.766077e+00 -6.652377e+00 -2.305907e+00 -2.011929e+00 3.724688e-01 -8.267370e-01 -8.476873e-01 -6.055614e-01 3.291538e+00 -1.211752e-01 3.911091e-01 8.163773e-01 6.595014e-01 9.169397e-02 2.178056e-01 -6.118847e-02 -2.581874e-01 8.920632e-02 3.312276e-01 8.768474e-02 -3.448265e-02 -7.287731e-01 -1.301599e-01 -1.413894e-01 8.941651e-02 1.661176e-01 2.932491e-01 2.481658e-01 2.706008e-02 1.245289e-02 -1.048337e-01 -1.101466e-01 -3.610504e-02 4.666320e-02 -2.176007e-02
<VARIANCE> 39
 5.312456e+00 2.807264e+01 2.556495e+01 2.204622e+01 2.162777e+01 1.997309e+01 1.976561e+01 2.081318e+01 2.468712e+01 3.022880e+01 3.416848e+01 3.853935e+01 1.313292e+01 4.267091e-01 6.772294e-01 1.056895e+00 2.123013e+00 1.613666e+00 1.877795e+00 1.592156e+00 1.717486e+00 1.930848e+00 2.149735e+00 1.925404e+00 1.417833e+00 7.842819e-01 4.427680e-02 1.183559e-01 1.295773e-01 1.866546e-01 2.082740e-01 2.753262e-01 3.084153e-01 3.095371e-01 3.087028e-01 3.532111e-01 3.049889e-01 2.820275e-01 3.472707e-02
<GCONST> 9.313285e+01
<STATE> 4
<MEAN> 39
 1.987362e+00 4.021389e+00 1.627169e+00 -6.510115e-01 -1.298123e+00 -2.413897e+00 -1.732464e+00 -2.675996e+00 -9.331362e-01 -1.595417e+00 -2.311642e+00 -1.906962e+00 2.310766e-01 -7.317117e-01 -3.427028e-01 1.935714e-01 6.993396e-01 9.125924e-01 9.774238e-01 4.942379e-01 4.139944e-01 3.326326e-01 1.304322e-01 7.969293e-02 3.134913e-01 -6.250859e-01 1.219707e-02 -9.065946e-02 -3.231956e-01 -2.900265e-01 -8.267092e-02 -1.678438e-01 4.219901e-02 2.185512e-01 1.938466e-01 7.628855e-02 1.550705e-01 9.582324e-02 1.631960e-01
<VARIANCE> 39
 5.880429e+00 2.575229e+01 1.695178e+01 2.966157e+01 2.747031e+01 2.450063e+01 2.646066e+01 2.435248e+01 2.258166e+01 2.098789e+01 1.995340e+01 2.034585e+01 2.553093e+01 5.189604e-01 1.256704e+00 1.468429e+00 3.135285e+00 2.090770e+00 2.295730e+00 2.462773e+00 2.173391e+00 2.126009e+00 2.241927e+00 1.908469e+00 1.825599e+00 7.892721e-01 8.877252e-02 1.523132e-01 2.115365e-01 4.056953e-01 3.447424e-01 3.785785e-01 3.908438e-01 3.731871e-01 4.066396e-01 4.089575e-01 2.851568e-01 3.040929e-01 1.459369e-01
<GCONST> 1.013396e+02
<TRANSP> 5
 0.000000e+00 1.000000e+00 0.000000e+00 0.000000e+00 0.000000e+00
 0.000000e+00 7.179287e-01 2.820712e-01 0.000000e+00 0.000000e+00
 0.000000e+00 0.000000e+00 7.185928e-01 2.814073e-01 0.000000e+00
 0.000000e+00 0.000000e+00 0.000000e+00 5.952913e-01 4.047087e-01
 0.000000e+00 0.000000e+00 0.000000e+00 0.000000e+00 0.000000e+00
<ENDHMM>
~h "y"
<BEGINHMM>
<NUMSTATES> 5
<STATE> 2
<MEAN> 39
 1.253328e+00 6.414792e+00 1.729913e+00 -2.821524e+00 -2.052413e+00 -6.058716e+00 -3.182777e+00 -3.107680e+00 -1.201518e+00 -1.461250e+00 -6.385152e-01 -7.490076e-01 1.088646e-01 -4.607683e-01 -6.762315e-01 8.208174e-01 2.083425e+00 1.245697e+00 1.123438e+00 9.085802e-01 1.105695e-01 -3.583502e-01 2.356735e-01 -1.111992e-02 2.710875e-01 -1.507047e+00 -1.403760e-01 -3.630637e-01 -2.664373e-01 -6.236038e-02 9.127873e-02 4.560919e-01 1.981040e-01 3.021000e-01 2.919435e-01 8.125854e-02 8.764982e-02 9.823076e-02 9.200788e-02
<VARIANCE> 39
 6.046132e+00 1.243067e+01 1.668332e+01 2.985483e+01 2.816793e+01 2.140740e+01 2.072549e+01 2.179294e+01 2.245869e+01 2.648016e+01 3.166807e+01 4.067246e+01 1.057905e+01 9.100069e-01 1.139962e+00 1.475989e+00 2.095399e+00 2.102486e+00 2.864616e+00 2.146378e+00 2.613487e+00 2.327006e+00 2.395892e+00 2.449969e+00 2.285640e+00 9.828576e-01 9.235477e-02 2.137315e-01 1.948799e-01 5.073030e-01 3.812908e-01 4.204147e-01 4.008337e-01 4.607641e-01 4.164269e-01 5.004972e-01 4.315775e-01 3.817103e-01 1.181918e-01
<GCONST> 1.034738e+02
<STATE> 3
<MEAN> 39
 -4.660701e-01 3.581625e+00 3.104371e+00 1.844806e+00 1.818242e+00 -4.165100e-01 2.284839e-01 -8.380647e-01 -4.908404e-02 -1.235883e+00 -9.620366e-01 -6.204684e-01 -3.230547e+00 -6.422216e-01 -1.228270e+00 -1.779882e-01 5.108734e-01 5.692831e-01 1.384634e+00 1.005369e+00 1.199276e+00 7.773795e-01 8.475598e-01 2.228476e-01 2.771483e-01 -7.654272e-01 7.699828e-02 7.203858e-02 -2.704701e-01 -4.748544e-01 -2.944839e-01 -2.237967e-01 -1.516075e-01 4.208234e-02 1.630752e-01 1.447111e-01 1.350972e-01 5.857477e-02 2.475784e-01
<VARIANCE> 39
 8.612575e+00 8.442718e+00 1.096277e+01 1.380677e+01 1.997678e+01 2.572586e+01 1.954358e+01 1.830198e+01 2.396953e+01 1.998346e+01 1.600971e+01 2.336559e+01 6.717731e+00 4.774888e-01 7.121726e-01 1.029681e+00 1.431016e+00 2.241931e+00 1.934554e+00 1.767518e+00 2.078466e+00 1.934478e+00 1.899683e+00 2.345267e+00 2.248546e+00 2.791108e-01 8.633775e-02 1.046871e-01 1.721366e-01 2.978631e-01 2.615133e-01 2.969835e-01 2.814921e-01 3.742806e-01 3.987472e-01 3.745391e-01 3.089948e-01 2.994212e-01 8.922286e-02
<GCONST> 9.169043e+01
<STATE> 4
<MEAN> 39
 -1.344434e+00 1.031486e+00 1.317428e+00 8.967348e-01 1.194073e+00 9.255886e-01 1.811989e+00 1.942313e+00 2.252388e+00 1.952828e+00 8.668137e-01 6.246478e-01 -4.003348e+00 -1.383354e-01 -4.838576e-01 -1.043997e-01 2.376019e-02 3.617140e-02 4.350856e-01 3.604941e-01 5.129761e-01 3.751264e-01 6.065711e-01 4.325798e-01 2.924446e-01 -2.965022e-01 1.192074e-01 2.745408e-01 7.584574e-02 -2.360145e-01 -1.290876e-01 -2.882864e-01 -2.682574e-01 -2.904398e-01 -2.897525e-01 -2.681029e-01 -1.416993e-01 -1.416190e-01 2.798489e-01
<VARIANCE> 39
 1.156451e+01 8.506387e+00 1.028112e+01 1.414630e+01 1.932346e+01 2.860610e+01 2.619942e+01 1.888312e+01 2.242530e+01 1.572814e+01 1.651183e+01 2.118418e+01 7.604912e+00 2.363146e-01 4.463741e-01 7.262785e-01 8.412523e-01 1.322935e+00 1.175864e+00 1.446273e+00 1.791137e+00 1.690846e+00 1.552601e+00 1.537866e+00 1.559044e+00 1.448617e-01 9.103965e-02 1.249819e-01 2.092947e-01 3.479865e-01 3.942539e-01 3.317622e-01 3.515792e-01 3.254231e-01 3.425895e-01 3.157676e-01 3.480870e-01 3.887153e-01 1.087375e-01
<GCONST> 8.833522e+01
<TRANSP> 5
 0.000000e+00 1.000000e+00 0.000000e+00 0.000000e+00 0.000000e+00
 0.000000e+00 4.958012e-01 5.041988e-01 0.000000e+00 0.000000e+00
 0.000000e+00 0.000000e+00 5.061128e-01 4.938872e-01 0.000000e+00
 0.000000e+00 0.000000e+00 0.000000e+00 3.851798e-01 6.148202e-01
 0.000000e+00 0.000000e+00 0.000000e+00 0.000000e+00 0.000000e+00
<ENDHMM>
~h "aa"
<BEGINHMM>
<NUMSTATES> 5
<STATE> 2
<MEAN> 39
 3.117366e+00 -7.749987e+00 -6.417979e+00 -8.019604e-02 -1.429887e+00 -2.766522e+00 -2.621196e+00 -3.095929e+00 -3.316462e+00 -3.385715e+00 -1.146872e+00 -9.235648e-01 9.966578e+00 3.033644e-01 1.305400e+00 7.324014e-01 -2.873954e-01 -5.832948e-02 -2.777714e-01 -8.825887e-03 2.289236e-01 1.870948e-01 2.677263e-01 -1.798330e-01 -1.626897e-02 -1.218736e+00 -1.674087e-01 5.090726e-01 4.989483e-01 5.660466e-02 -2.462642e-02 2.713708e-02 1.763105e-01 7.845844e-02 1.438444e-01 1.791894e-01 4.707065e-02 6.058367e-02 -5.892121e-01
<VARIANCE> 39
 1.124398e+01 1.982892e+01 2.901609e+01 3.323221e+01 2.860838e+01 2.425837e+01 2.945598e+01 2.934032e+01 2.780535e+01 1.854995e+01 1.798311e+01 1.770844e+01 1.419663e+01 8.428226e-01 2.682197e+00 2.264186e+00 2.378732e+00 2.134995e+00 2.853563e+00 2.685355e+00 2.762939e+00 2.669525e+00 2.180516e+00 1.789958e+00 1.759390e+00 3.020256e+00 1.999246e-01 3.003478e-01 3.541726e-01 4.570887e-01 4.207542e-01 6.052753e-01 4.818804e-01 5.175394e-01 5.003629e-01 4.296641e-01 3.915779e-01 3.336799e-01 2.462197e-01
<GCONST> 1.098827e+02
<STATE> 3
<MEAN> 39
 2.942706e+00 -7.393934e-01 -9.017826e-01 -1.084353e-01 -1.655441e+00 -2.717038e+00 -1.375316e+00 -1.748399e+00 -1.829698e+00 -1.379512e+00 -1.419318e+00 -3.931687e-01 2.421590e+00 -4.577518e-01 1.317377e+00 1.474499e+00 4.090214e-01 2.733274e-01 4.052428e-02 4.021485e-01 3.281068e-01 2.633634e-01 5.952381e-01 2.642058e-01 3.413310e-01 -1.973061e+00 -1.165739e-01 -4.575593e-01 -2.430388e-01 -2.872627e-03 7.678391e-02 1.431313e-01 2.158777e-02 -3.508272e-02 -3.718282e-02 -5.012988e-02 8.836810e-02 -2.682581e-03 3.814890e-01
<VARIANCE> 39
 1.066817e+01 2.354244e+01 2.668559e+01 3.178183e+01 2.663697e+01 3.915077e+01 3.253465e+01 2.888850e+01 2.331913e+01 2.281112e+01 2.082180e+01 1.902048e+01 2.475470e+01 1.394230e+00 2.434279e+00 2.138014e+00 2.661148e+00 2.418049e+00 4.655034e+00 3.186306e+00 2.958586e+00 2.307055e+00 2.484540e+00 2.180880e+00 1.776331e+00 2.304051e+00 1.540466e-01 2.762497e-01 3.376881e-01 3.948825e-01 3.358961e-01 4.775006e-01 4.333346e-01 4.537170e-01 4.176413e-01 4.188836e-01 3.647336e-01 3.333386e-01 2.664284e-01
<GCONST> 1.109674e+02
<STATE> 4
<MEAN> 39
 3.386310e+00 -4.061707e+00 -5.044737e+00 2.039929e+00 -1.640369e-01 -3.052581e+00 -2.586620e+00 -1.428065e+00 -2.134629e+00 -2.404418e+00 -1.371917e+00 -5.337209e-01 4.517609e+00 -8.805627e-02 2.758932e-01 3.155352e-01 -3.018034e-02 1.236345e-01 5.369347e-02 -1.083793e-01 2.415191e-02 8.169635e-02 1.688653e-01 4.707555e-02 3.327427e-02 -3.724450e-01 -6.125092e-03 -7.849178e-02 -8.108447e-02 -2.767275e-02 -2.103412e-02 4.000077e-02 -1.110097e-02 -2.527322e-02 -9.578195e-03 -2.420010e-02 -1.487307e-03 -3.296512e-02 1.200220e-01
<VARIANCE> 39
 1.085917e+01 2.425380e+01 4.614302e+01 2.411565e+01 2.351608e+01 3.214231e+01 3.011320e+01 2.341371e+01 2.073295e+01 1.957771e+01 1.688829e+01 1.882947e+01 3.359582e+01 3.084537e-01 6.192293e-01 8.346286e-01 8.515639e-01 9.225196e-01 1.175864e+00 1.375108e+00 1.289518e+00 1.307889e+00 1.189187e+00 1.184514e+00 9.998834e-01 4.145966e-01 5.859971e-02 1.704150e-01 1.815666e-01 1.622029e-01 1.677696e-01 2.538792e-01 2.343193e-01 2.540992e-01 2.483865e-01 2.230696e-01 2.091501e-01 1.824314e-01 1.311959e-01
<GCONST> 8.882286e+01
<TRANSP> 5
 0.000000e+00 1.000000e+00 0.000000e+00 0.000000e+00 0.000000e+00
 0.000000e+00 5.826628e-01 4.173372e-01 0.000000e+00 0.000000e+00
 0.000000e+00 0.000000e+00 5.222968e-01 4.777032e-01 0.000000e+00
 0.000000e+00 0.000000e+00 0.000000e+00 7.180344e-01 2.819656e-01
 0.000000e+00 0.000000e+00 0.000000e+00 0.000000e+00 0.000000e+00
<ENDHMM>
~h "ae"
<BEGINHMM>
<NUMSTATES> 5
<STATE> 2
<MEAN> 39
 -2.914066e-01 -4.852862e+00 -2.801168e+00 -5.551149e+00 6.282337e-01 -2.083333e+00 -7.600593e+00 -4.921025e+00 -2.443783e+00 -3.665485e+00 -8.706161e-01 -1.240429e+00 1.165558e+01 4.706648e-02 4.021664e-01 -3.416039e-01 -4.867159e-01 1.768356e-01 5.359211e-02 1.937374e-01 9.382352e-02 -2.689555e-02 -6.812248e-02 -1.093355e-01 1.187583e-01 -6.749463e-02 5.965126e-02 1.201076e-01 4.741760e-02 -1.467803e-02 -7.422242e-02 8.735823e-03 1.265973e-01 6.233291e-02 3.806635e-02 -8.408323e-03 -3.023726e-02 -7.828237e-03 -1.633810e-01
<VARIANCE> 39
 6.671397e+00 1.444002e+01 1.424872e+01 1.614676e+01 1.733118e+01 3.979127e+01 1.824618e+01 1.793711e+01 1.631200e+01 1.554992e+01 1.593658e+01 2.370710e+01 1.334742e+01 1.689938e-01 4.463741e-01 6.158003e-01 7.791576e-01 9.225196e-01 1.175864e+00 1.375108e+00 1.289518e+00 1.307889e+00 1.189187e+00 1.184514e+00 9.998834e-01 1.448617e-01 3.230203e-02 7.540579e-02 1.110718e-01 1.458303e-01 1.677696e-01 2.246915e-01 2.269374e-01 2.540992e-01 2.483865e-01 2.230696e-01 2.091501e-01 1.824314e-01 4.677390e-02
<GCONST> 7.859306e+01
<STATE> 3
<MEAN> 39
 1.044310e+00 -2.100755e+00 -4.277565e+00 -1.007123e+01 -1.343311e-01 -1.063677e+00 -4.354938e+00 -3.452440e+00 -1.868458e+00 -3.999900e+00 -1.824464e+00 -2.525722e-02 1.039004e+01 7.023995e-01 1.142611e+00 7.955321e-01 3.520357e-02 -1.204363e+00 -7.726593e-02 7.885553e-01 6.026492e-01 4.912070e-01 2.837192e-01 -2.165217e-01 -2.587629e-01 -1.619609e+00 -7.896421e-02 1.517441e-01 4.381870e-01 7.625465e-01 -3.709726e-02 -1.164376e-01 1.431568e-04 -1.141350e-02 1.779892e-02 2.867791e-01 1.809305e-01 3.245636e-02 -6.017619e-01
<VARIANCE> 39
 7.443810e+00 1.934421e+01 1.930397e+01 2.297777e+01 2.751545e+01 2.990454e+01 1.824618e+01 2.428238e+01 1.631200e+01 1.554992e+01 2.370973e+01 1.831733e+01 1.341307e+01 4.094657e-01 1.102000e+00 1.398920e+00 2.239794e+00 1.666943e+00 3.212379e+00 1.613897e+00 1.743604e+00 1.580611e+00 1.444358e+00 1.368708e+00 1.390482e+00 1.343881e+00 1.194607e-01 1.798727e-01 2.587382e-01 2.798108e-01 4.215844e-01 3.945182e-01 3.387446e-01 3.844790e-01 3.289651e-01 2.738236e-01 3.065132e-01 2.651541e-01 1.644504e-01
<GCONST> 9.755747e+01
<STATE> 4
<MEAN> 39
 2.271698e+00 2.389853e+00 5.928805e-01 -4.704700e+00 -2.710017e+00 -1.887320e+00 -3.212395e+00 -2.986564e+00 -1.095840e+00 -1.670056e+00 -1.156026e+00 -1.880239e-01 1.661664e+00 -5.843262e-01 5.914676e-01 1.120938e+00 2.265973e+00 5.485682e-01 6.055488e-01 8.441802e-01 3.958769e-01 2.627220e-01 7.945318e-01 6.549399e-01 3.296275e-01 -2.554383e+00 -3.633604e-01 -4.665320e-01 -3.236731e-01 1.910270e-02 4.857367e-01 2.947398e-01 1.668492e-01 1.680490e-01 5.083308e-02 1.128327e-02 1.001914e-01 9.872758e-02 3.556246e-01
<VARIANCE> 39
 6.624086e+00 1.566480e+01 1.602080e+01 2.682098e+01 2.707097e+01 3.021383e+01 2.067017e+01 2.238828e+01 2.329670e+01 1.888009e+01 2.409090e+01 1.887432e+01 1.812985e+01 1.151060e+00 1.795469e+00 1.982282e+00 2.060963e+00 3.150159e+00 4.051762e+00 2.877902e+00 2.906480e+00 2.539083e+00 2.078422e+00 2.246982e+00 1.901341e+00 1.908547e+00 1.308246e-01 2.145295e-01 2.502139e-01 4.992185e-01 4.658229e-01 5.492194e-01 4.321083e-01 4.727179e-01 4.534681e-01 3.629297e-01 3.808298e-01 3.274322e-01 2.884597e-01
<GCONST> 1.071616e+02
<TRANSP> 5
 0.000000e+00 1.000000e+00 0.000000e+00 0.000000e+00 0.000000e+00
 0.000000e+00 8.800570e-01 1.199429e-01 0.000000e+00 0.000000e+00
 0.000000e+00 0.000000e+00 6.598995e-01 3.401005e-01 0.000000e+00
 0.000000e+00 0.000000e+00 0.000000e+00 5.934838e-01 4.065162e-01
 0.000000e+00 0.000000e+00 0.000000e+00 0.000000e+00 0.000000e+00
<ENDHMM>
~h "ah"
<BEGINHMM>
<NUMSTATES> 5
<STATE> 2
<MEAN> 39
 1.616301e+00 -4.075995e+00 -1.806339e+00 -3.328043e+00 -1.297196e+00 -2.248642e+00 -7.657223e+00 -4.145587e+00 -2.631447e+00 -3.374913e+00 -1.385661e+00 -2.099853e+00 9.178090e+00 8.212238e-02 2.089252e-01 1.003012e-01 6.595311e-03 -4.223704e-03 -3.317908e-02 -9.300298e-02 7.581794e-03 7.189641e-03 4.608807e-02 2.293079e-02 6.843713e-02 -2.363801e-01 2.615991e-02 5.615788e-02 -1.126421e-02 -4.890458e-04 -1.189721e-02 4.895274e-03 7.540961e-02 -3.176650e-03 -1.648416e-03 8.391918e-03 2.322417e-03 2.341712e-02 -6.644414e-02
<VARIANCE> 39
 5.920909e+00 1.666537e+01 1.097467e+01 1.380677e+01 1.391700e+01 3.142697e+01 2.371225e+01 2.272662e+01 1.685117e+01 1.673523e+01 1.480474e+01 2.254876e+01 1.525845e+01 1.689938e-01 4.463741e-01 6.158003e-01 7.791576e-01 9.225196e-01 1.175864e+00 1.375108e+00 1.289518e+00 1.307889e+00 1.189187e+00 1.184514e+00 9.998834e-01 1.448617e-01 3.135733e-02 7.540579e-02 1.110718e-01 1.458303e-01 1.677696e-01 2.246915e-01 2.269374e-01 2.540992e-01 2.483865e-01 2.230696e-01 2.091501e-01 1.824314e-01 2.451965e-02
<GCONST> 7.768322e+01
<STATE> 3
<MEAN> 39
 2.849410e+00 -2.545584e+00 -2.710757e-01 -2.495492e+00 -2.092783e+00 -2.214428e+00 -6.877313e+00 -5.494657e+00 -2.812975e+00 -1.738562e+00 -1.979037e-01 -2.130672e-01 5.989064e+00 -2.350222e-02 1.275148e+00 6.662769e-01 4.155675e-01 1.401132e-01 5.480140e-03 7.824663e-01 2.830541e-01 2.948731e-01 2.544622e-01 -1.773619e-01 1.526802e-01 -1.515026e+00 -2.529813e-01 8.290777e-02 9.281003e-02 1.410227e-01 1.231769e-01 1.009149e-01 2.919507e-01 2.513718e-01 1.544725e-01 8.207723e-02 -2.431437e-02 -1.395248e-02 -1.750932e-01
<VARIANCE> 39
 7.240691e+00 2.445914e+01 1.876041e+01 2.290002e+01 1.810548e+01 3.122570e+01 4.384798e+01 2.471217e+01 2.345779e+01 2.911456e+01 2.985887e+01 2.544138e+01 2.548306e+01 8.257431e-01 1.316908e+00 1.097807e+00 1.777050e+00 1.466202e+00 2.254173e+00 2.220664e+00 1.993587e+00 1.910261e+00 1.756257e+00 1.614675e+00 1.767588e+00 1.029035e+00 1.170754e-01 3.008114e-01 1.890073e-01 2.563643e-01 2.676505e-01 3.868984e-01 4.185218e-01 3.533414e-01 3.461023e-01 3.209078e-01 3.060569e-01 3.247398e-01 1.557755e-01
<GCONST> 1.014447e+02
<STATE> 4
<MEAN> 39
 3.301554e-01 3.464708e-01 3.140601e+00 1.902500e+00 1.210230e+00 1.105896e+00 -2.329304e+00 -3.217978e+00 -1.414964e-01 -3.359066e-01 -1.719212e+00 -4.667951e-01 -1.267994e-01 -8.329415e-01 1.113142e-01 -3.397440e-02 4.540187e-01 3.529119e-01 5.646266e-01 1.327103e+00 1.149029e+00 7.908261e-01 6.159545e-01 2.264142e-01 2.039770e-01 -1.089447e+00 4.860622e-02 -2.048188e-01 -2.464322e-01 -2.053858e-01 -1.434411e-01 -6.110653e-02 -1.236924e-01 1.407295e-02 -6.157763e-03 2.955288e-02 1.583768e-01 6.496958e-02 2.032191e-01
<VARIANCE> 39
 9.548108e+00 1.260828e+01 2.086406e+01 2.992153e+01 1.993098e+01 2.839722e+01 2.301439e+01 2.838955e+01 2.161066e+01 2.655573e+01 2.281209e+01 1.596624e+01 2.046403e+01 9.241063e-01 1.748074e+00 1.544935e+00 1.823259e+00 1.839827e+00 2.836916e+00 2.719813e+00 2.110112e+00 2.108468e+00 2.201706e+00 2.132252e+00 1.978170e+00 5.772536e-01 1.016712e-01 2.219079e-01 2.276910e-01 2.692760e-01 2.732175e-01 3.645384e-01 3.522776e-01 3.932080e-01 3.764125e-01 3.530239e-01 3.217508e-01 3.200383e-01 1.227246e-01
<GCONST> 1.010780e+02
<TRANSP> 5
 0.000000e+00 1.000000e+00 0.000000e+00 0.000000e+00 0.000000e+00
 0.000000e+00 9.068267e-01 9.317330e-02 0.000000e+00 0.000000e+00
 0.000000e+00 0.000000e+00 6.719299e-01 3.280701e-01 0.000000e+00
 0.000000e+00 0.000000e+00 0.000000e+00 5.612343e-01 4.387657e-01
 0.000000e+00 0.000000e+00 0.000000e+00 0.000000e+00 0.000000e+00
<ENDHMM>
~h "am"
<BEGINHMM>
<NUMSTATES> 5
<STATE> 2
<MEAN> 39
 1.488570e+00 -3.476176e+00 -4.383118e-01 -4.315402e+00 -2.071681e+00 -4.151058e+00 -7.725716e+00 -4.076970e+00 -2.428801e+00 -3.438437e+00 -2.247093e+00 -2.335692e+00 9.200533e+00 2.796801e-01 5.693656e-01 3.965522e-01 1.707663e-01 -2.266847e-01 -7.166206e-01 1.644270e-01 1.184719e-01 -3.251106e-03 1.517737e-01 -2.362145e-01 4.777105e-02 -6.466829e-01 1.470255e-02 5.901293e-02 2.311599e-02 1.281648e-02 -3.822953e-02 -2.312572e-02 8.185913e-02 -3.277968e-02 -1.935655e-02 3.878726e-04 4.871880e-02 3.451158e-02 -6.611884e-02
<VARIANCE> 39
 8.215078e+00 1.404305e+01 2.075974e+01 1.708616e+01 1.521630e+01 4.572737e+01 2.488893e+01 2.452971e+01 2.069022e+01 1.853791e+01 1.531534e+01 2.150794e+01 1.685359e+01 2.526851e-01 1.041273e+00 1.000148e+00 7.791576e-01 9.225196e-01 2.053844e+00 1.375108e+00 1.440317e+00 1.307889e+00 1.189187e+00 1.184514e+00 9.998834e-01 4.339343e-01 4.434178e-02 1.182699e-01 1.400986e-01 1.458303e-01 1.677696e-01 2.792774e-01 2.269374e-01 2.540992e-01 2.483865e-01 2.230696e-01 2.091501e-01 1.824314e-01 4.261203e-02
<GCONST> 8.497131e+01
<STATE> 3
<MEAN> 39
 4.161079e+00 2.165550e+00 4.651121e+00 -5.937921e-01 -3.529788e+00 -1.039080e+01 -5.928103e+00 -2.950852e+00 -3.518079e+00 -2.174331e+00 -3.446307e+00 -6.735838e-01 2.042164e+00 -3.513374e-01 6.679809e-01 2.112097e-01 4.308024e-01 2.779225e-01 4.844709e-01 2.688348e-01 -2.355870e-01 3.020125e-02 2.297693e-01 2.257494e-01 2.485607e-01 -9.551551e-01 -1.801102e-01 -3.295442e-01 -2.489400e-01 2.433275e-02 1.790647e-01 5.638896e-01 1.812328e-01 -7.521596e-03 5.632746e-02 1.086491e-02 2.080362e-01 -7.444555e-04 1.080752e-01
<VARIANCE> 39
 4.893738e+00 1.045654e+01 1.201752e+01 2.252435e+01 1.994158e+01 3.706208e+01 2.514598e+01 2.848409e+01 2.091300e+01 2.245042e+01 2.010935e+01 2.145592e+01 6.991084e+00 6.280046e-01 1.205907e+00 1.626541e+00 1.174013e+00 1.489955e+00 5.173683e+00 2.218510e+00 2.132636e+00 1.964402e+00 1.762923e+00 1.719965e+00 1.592668e+00 3.668659e-01 7.720833e-02 1.481039e-01 2.568668e-01 2.046727e-01 2.400956e-01 4.850967e-01 4.041908e-01 4.700500e-01 3.923918e-01 3.461984e-01 3.117929e-01 2.869440e-01 6.459792e-02
<GCONST> 9.539162e+01
<STATE> 4
<MEAN> 39
 1.580541e+00 1.727859e+00 3.160267e+00 7.262864e-01 -1.870528e+00 -4.065797e+00 -2.811986e+00 -2.114938e+00 -2.309382e+00 -6.825078e-01 3.488898e-03 5.383459e-01 -9.986882e-01 -3.015436e-01 -3.412704e-02 -1.428858e-01 1.645891e-01 3.481846e-01 7.190810e-01 4.396933e-01 2.370314e-01 2.330292e-01 2.318004e-01 2.909165e-01 1.493587e-01 -3.909037e-01 5.234409e-02 -1.852340e-02 -2.350244e-02 -4.128139e-02 -2.666901e-02 -6.555372e-02 -3.944897e-02 3.931385e-02 3.379181e-02 -3.736626e-03 -8.228792e-02 -4.586130e-02 8.285467e-02
<VARIANCE> 39
 6.685647e+00 8.956025e+00 1.028112e+01 1.856001e+01 2.411463e+01 4.702771e+01 2.223296e+01 2.468622e+01 2.006370e+01 2.255707e+01 1.804866e+01 2.101470e+01 1.169384e+01 3.876740e-01 4.634514e-01 6.158003e-01 7.791576e-01 1.115189e+00 1.713713e+00 1.471079e+00 1.820554e+00 1.681213e+00 1.485060e+00 1.277548e+00 1.330616e+00 1.700390e-01 4.358167e-02 7.650419e-02 1.166088e-01 1.458303e-01 1.940026e-01 3.154452e-01 2.281071e-01 2.865692e-01 2.807723e-01 2.753864e-01 2.091501e-01 2.325339e-01 3.005926e-02
<GCONST> 8.334319e+01
<TRANSP> 5
 0.000000e+00 1.000000e+00 0.000000e+00 0.000000e+00 0.000000e+00
 0.000000e+00 8.529844e-01 1.470156e-01 0.000000e+00 0.000000e+00
 0.000000e+00 0.000000e+00 7.912363e-01 2.087637e-01 0.000000e+00
 0.000000e+00 0.000000e+00 0.000000e+00 8.180678e-01 1.819322e-01
 0.000000e+00 0.000000e+00 0.000000e+00 0.000000e+00 0.000000e+00
<ENDHMM>
~h "aw"
<BEGINHMM>
<NUMSTATES> 5
<STATE> 2
<MEAN> 39
 5.707995e+00 -6.669323e+00 -7.443734e+00 6.294577e-01 6.028880e-01 -2.736253e+00 -4.580208e+00 -1.488144e+00 -4.719424e+00 -2.717063e+00 -1.452576e+00 1.042672e-02 7.598906e+00 1.692373e-01 1.266219e+00 5.162307e-02 -1.346109e+00 -9.263862e-02 1.297812e-01 2.762151e-01 -1.318261e-01 4.726931e-01 2.125228e-01 -3.414880e-01 -8.281577e-02 -6.324693e-01 -1.135999e-01 1.826270e-01 3.207057e-01 7.660296e-03 -2.093644e-01 -1.893719e-01 2.249480e-02 -6.448511e-02 8.308433e-02 7.163536e-02 6.479543e-02 -8.805574e-02 -7.624498e-02
<VARIANCE> 39
 7.686431e+00 1.750850e+01 1.456957e+01 3.741368e+01 2.211497e+01 2.083505e+01 2.273926e+01 2.618782e+01 2.128238e+01 1.572626e+01 1.493572e+01 1.463253e+01 1.102012e+01 3.318778e-01 8.472703e-01 1.850587e+00 1.462644e+00 2.188324e+00 2.075001e+00 2.076287e+00 1.788436e+00 1.740296e+00 1.419802e+00 1.346321e+00 1.049258e+00 2.121032e-01 3.135733e-02 7.928990e-02 1.831260e-01 4.422423e-01 3.011726e-01 4.123580e-01 3.960408e-01 3.401160e-01 3.085673e-01 2.838032e-01 2.652848e-01 1.824314e-01 2.437782e-02
<GCONST> 8.947517e+01
<STATE> 3
<MEAN> 39
 4.212542e+00 3.271219e+00 -1.635292e+00 -3.844286e+00 -4.006486e+00 -8.104880e+00 -4.470852e+00 -4.197532e+00 -1.065150e+00 -1.034714e+00 8.446389e-02 1.753267e+00 2.044131e+00 -3.038417e-01 7.691457e-01 1.037021e+00 6.457052e-01 -3.433723e-01 -6.823481e-01 -4.685810e-01 -1.925149e-01 5.008543e-01 2.812946e-01 7.033321e-01 1.799835e-01 -6.244191e-01 -8.699012e-03 -2.424109e-01 -4.256626e-02 2.307733e-01 2.215455e-01 2.617502e-01 2.426669e-03 -2.870569e-02 -1.932310e-01 -1.694600e-02 -5.957954e-03 -1.374427e-02 1.780215e-02
<VARIANCE> 39
 4.771444e+00 1.437501e+01 2.360977e+01 2.104473e+01 1.847094e+01 2.408423e+01 2.179374e+01 2.705340e+01 2.062193e+01 1.997205e+01 3.333616e+01 4.206630e+01 7.156152e+00 2.805642e-01 7.500621e-01 1.557766e+00 1.826172e+00 1.127373e+00 2.177164e+00 1.950332e+00 2.142791e+00 1.720559e+00 1.871928e+00 1.989241e+00 1.570121e+00 2.536985e-01 3.699661e-02 1.119776e-01 1.865843e-01 3.443562e-01 2.384987e-01 3.237695e-01 4.296301e-01 4.005441e-01 3.316305e-01 3.213550e-01 4.001863e-01 2.563981e-01 4.267269e-02
<GCONST> 9.235505e+01
<STATE> 4
<MEAN> 39
 3.161766e+00 5.055069e+00 4.110391e+00 1.282784e+00 -7.645347e-01 -4.877963e+00 -4.330554e+00 -4.571661e+00 -1.723075e+00 -8.156049e-01 4.218023e-01 -1.698742e+00 -7.511833e-01 -3.578298e-01 1.361829e-01 7.772999e-01 8.010716e-01 5.619834e-01 6.951545e-01 4.434828e-01 1.705485e-01 -3.402336e-01 -3.116283e-01 -5.557116e-01 -2.438492e-01 -7.454859e-01 -2.528290e-02 -2.153054e-01 -1.971426e-01 -1.466004e-02 1.393588e-01 3.157806e-01 2.020912e-01 1.578104e-01 -2.182704e-02 1.325253e-02 -1.150577e-01 1.097680e-01 -3.034938e-02
<VARIANCE> 39
 4.343294e+00 8.629123e+00 1.524942e+01 2.871454e+01 2.503025e+01 2.534474e+01 1.824618e+01 1.969169e+01 1.959888e+01 2.615349e+01 3.119887e+01 2.471449e+01 9.401306e+00 1.689938e-01 4.505523e-01 8.586073e-01 1.026242e+00 1.051219e+00 2.340017e+00 1.716432e+00 1.523174e+00 1.849981e+00 1.953414e+00 1.502046e+00 1.192814e+00 3.493726e-01 5.358291e-02 8.088633e-02 1.484835e-01 3.785070e-01 2.965754e-01 3.929342e-01 3.337079e-01 2.765171e-01 4.225643e-01 4.177711e-01 3.994887e-01 2.810962e-01 4.476625e-02
<GCONST> 8.894381e+01
<TRANSP> 5
 0.000000e+00 1.000000e+00 0.000000e+00 0.000000e+00 0.000000e+00
 0.000000e+00 8.692937e-01 1.307063e-01 0.000000e+00 0.000000e+00
 0.000000e+00 0.000000e+00 8.011479e-01 1.988521e-01 0.000000e+00
 0.000000e+00 0.000000e+00 0.000000e+00 6.400204e-01 3.599797e-01
 0.000000e+00 0.000000e+00 0.000000e+00 0.000000e+00 0.000000e+00
<ENDHMM>
~h "ay"
<BEGINHMM>
<NUMSTATES> 5
<STATE> 2
<MEAN> 39
 5.044196e-02 -4.053872e-01 -5.535395e+00 -8.049877e+00 7.076039e-01 -2.167866e+00 -5.286692e+00 -3.837860e+00 -1.921639e+00 -5.239125e+00 -1.767256e+00 -1.838063e+00 1.100883e+01 3.318912e-01 1.670828e+00 -6.576538e-01 -6.469635e-01 -4.754020e-01 -6.884642e-01 8.387386e-01 5.784911e-01 3.192034e-01 1.741964e-02 -1.727167e-01 -2.981323e-01 -6.839605e-01 7.593346e-02 1.727431e-02 2.305971e-01 1.950906e-01 -2.742528e-01 -1.571524e-01 -3.287281e-02 1.376645e-02 7.220835e-02 1.876416e-01 2.890627e-02 -8.501105e-02 -1.630151e-01
<VARIANCE> 39
 6.768939e+00 2.213867e+01 2.628507e+01 1.958511e+01 2.125167e+01 3.813449e+01 1.921088e+01 1.863067e+01 1.631200e+01 1.554992e+01 1.719856e+01 1.826884e+01 1.394069e+01 1.739626e-01 7.371610e-01 1.090549e+00 1.018938e+00 1.729621e+00 1.837825e+00 1.375108e+00 1.468901e+00 1.670678e+00 1.352995e+00 1.533163e+00 1.588474e+00 1.767489e-01 3.135733e-02 1.403142e-01 2.351372e-01 1.823156e-01 2.072228e-01 2.627668e-01 2.824233e-01 2.571108e-01 2.534228e-01 2.230696e-01 2.676301e-01 2.778289e-01 3.128291e-02
<GCONST> 8.626765e+01
<STATE> 3
<MEAN> 39
 2.660544e+00 7.206786e+00 -2.892187e+00 -7.744101e+00 -4.771949e+00 -6.411407e+00 -3.754888e+00 -1.934778e+00 9.929745e-01 -3.398456e+00 -1.643278e+00 -3.624252e+00 4.806606e+00 7.962617e-02 1.382560e-01 1.234733e+00 9.486772e-01 -1.212926e-01 1.557446e-02 -9.808442e-02 -1.644762e-01 -1.466665e-03 4.004725e-01 1.727608e-01 2.040353e-01 -1.183037e+00 -1.802647e-01 -3.662219e-01 4.325544e-02 2.885366e-01 3.538072e-01 3.384105e-01 6.943395e-02 -9.296079e-02 -1.582169e-01 2.569950e-02 3.126785e-02 2.132335e-01 -1.340460e-02
<VARIANCE> 39
 5.005771e+00 1.082861e+01 2.603799e+01 2.114306e+01 2.197584e+01 2.020416e+01 2.484789e+01 1.793711e+01 1.763135e+01 1.554992e+01 2.371786e+01 1.989478e+01 1.459017e+01 5.918533e-01 1.114246e+00 1.420393e+00 2.033665e+00 1.827806e+00 2.044150e+00 1.691286e+00 1.659923e+00 1.732497e+00 1.317159e+00 1.804242e+00 1.544801e+00 8.470551e-01 9.787411e-02 1.453612e-01 2.822664e-01 3.037356e-01 2.966861e-01 2.781690e-01 3.517684e-01 3.115573e-01 3.079992e-01 2.347731e-01 3.643560e-01 2.898655e-01 8.155098e-02
<GCONST> 9.451006e+01
<STATE> 4
<MEAN> 39
 5.216500e-02 3.887217e+00 1.103976e+00 -6.081112e-01 -7.501986e-01 -1.295849e+00 -1.242450e+00 -1.731775e+00 8.618615e-01 2.432107e-01 6.431584e-01 9.996664e-02 -1.501963e+00 -6.261329e-01 -6.833283e-01 1.712527e-01 7.429243e-01 5.818309e-01 8.657150e-01 7.298267e-01 5.704690e-01 2.815741e-01 5.663786e-01 4.086625e-01 3.826588e-01 -5.606599e-01 2.289832e-02 -4.353502e-03 -2.261931e-01 -2.557621e-01 -1.371167e-01 -8.529741e-02 4.382461e-02 1.139119e-01 5.015687e-02 -1.002809e-01 -4.686311e-02 -9.712826e-02 2.682520e-01
<VARIANCE> 39
 8.030334e+00 1.059435e+01 1.606316e+01 1.854085e+01 2.554389e+01 2.865314e+01 2.297030e+01 2.126492e+01 2.396469e+01 2.349763e+01 2.245796e+01 2.171684e+01 1.297140e+01 9.264290e-01 7.612244e-01 1.138046e+00 1.642188e+00 1.987095e+00 2.106429e+00 1.971685e+00 2.120547e+00 2.082710e+00 1.874229e+00 1.898381e+00 1.895222e+00 5.670674e-01 8.039262e-02 1.359441e-01 2.220420e-01 2.815762e-01 2.674141e-01 3.023976e-01 3.274508e-01 3.920977e-01 4.133725e-01 3.544829e-01 3.452296e-01 3.059112e-01 1.031416e-01
<GCONST> 9.660703e+01
<TRANSP> 5
 0.000000e+00 1.000000e+00 0.000000e+00 0.000000e+00 0.000000e+00
 0.000000e+00 8.154735e-01 1.845265e-01 0.000000e+00 0.000000e+00
 0.000000e+00 0.000000e+00 7.988108e-01 2.011892e-01 0.000000e+00
 0.000000e+00 0.000000e+00 0.000000e+00 7.286932e-01 2.713068e-01
 0.000000e+00 0.000000e+00 0.000000e+00 0.000000e+00 0.000000e+00
<ENDHMM>
~h "ch"
<BEGINHMM>
<NUMSTATES> 5
<STATE> 2
<MEAN> 39
 -7.003376e+00 2.051865e+00 -1.002837e+00 1.234458e+00 1.874957e+00 2.418932e+00 2.244984e+00 1.857746e+00 1.937689e+00 -3.571864e-02 9.897031e-01 3.767327e-01 2.821656e+00 1.325594e-02 3.081408e-03 3.216944e-02 -2.975819e-01 2.066270e-02 -1.557539e-01 -2.548043e-01 -2.214048e-01 -2.520183e-02 -1.860401e-01 -1.402823e-01 -2.613659e-02 4.550568e-01 3.836561e-01 1.295062e-02 4.068022e-02 -1.949632e-01 -1.817189e-01 -2.389817e-01 -2.154482e-01 -1.730585e-01 -1.456873e-01 -7.248633e-02 -7.934502e-02 -3.407217e-02 -7.466989e-03
<VARIANCE> 39
 1.734722e+01 1.586449e+01 2.045851e+01 2.135847e+01 2.097485e+01 2.311554e+01 2.204970e+01 2.186928e+01 2.223547e+01 2.009008e+01 1.768573e+01 1.412028e+01 1.941494e+01 3.494121e+00 2.030999e+00 2.547350e+00 2.852460e+00 2.550227e+00 3.261303e+00 3.020211e+00 2.933630e+00 2.883539e+00 2.231722e+00 2.105536e+00 1.708764e+00 2.212563e+00 3.400207e-01 3.898436e-01 4.975460e-01 5.947443e-01 4.964899e-01 5.818857e-01 5.185458e-01 4.921686e-01 5.622879e-01 4.763848e-01 3.856704e-01 3.373425e-01 4.634434e-01
<GCONST> 1.125326e+02
<STATE> 3
<MEAN> 39
 2.218359e+00 1.710943e+00 -1.389633e+00 -4.602045e+00 -2.969435e+00 -5.482980e+00 -4.492817e+00 -4.251584e+00 -2.778625e+00 -2.887655e+00 -1.615324e+00 -3.220632e-01 6.267242e+00 1.602654e+00 -6.307433e-01 -1.024769e+00 -1.338508e+00 -9.959125e-01 -1.218856e+00 -7.879999e-01 -4.851785e-01 -8.120641e-01 -4.067266e-01 -2.488576e-01 -6.264342e-02 1.030905e+00 -5.003695e-01 -2.119615e-01 -9.400065e-02 3.209723e-01 3.599316e-01 5.228401e-01 4.411209e-01 4.223045e-01 3.281265e-01 1.838420e-01 1.257158e-01 4.274995e-02 -1.104665e-01
<VARIANCE> 39
 1.580808e+01 3.542620e+01 3.543009e+01 3.914301e+01 2.332519e+01 4.661452e+01 2.996193e+01 3.313875e+01 2.491187e+01 2.161479e+01 2.746319e+01 2.300932e+01 2.354864e+01 1.876075e+00 2.481247e+00 3.254525e+00 4.493793e+00 2.986063e+00 5.829723e+00 4.151327e+00 3.960536e+00 3.322206e+00 2.989731e+00 2.530312e+00 2.582006e+00 1.729579e+00 2.387354e-01 3.478110e-01 4.633970e-01 8.350747e-01 4.553782e-01 8.637821e-01 6.020577e-01 5.809571e-01 5.738522e-01 4.880525e-01 5.333562e-01 4.696647e-01 3.086542e-01
<GCONST> 1.203726e+02
<STATE> 4
<MEAN> 39
 5.780298e+00 -3.593246e+00 -8.613429e+00 -3.639201e+00 -2.227530e+00 -5.075821e+00 -5.651492e+00 -3.705651e+00 -3.130385e+00 -2.365127e+00 -2.499965e+00 -8.732984e-01 8.034538e+00 1.536583e-01 -1.803540e-01 -2.366945e-01 3.067296e-01 1.238653e-01 1.407094e-01 -1.215866e-01 1.593359e-01 1.525568e-01 7.204226e-02 -9.203008e-02 -3.385846e-02 -1.942280e-01 -1.183341e-01 1.113374e-01 2.132037e-01 9.914776e-02 3.302674e-02 5.831304e-02 3.700974e-02 -1.731288e-02 1.686539e-02 3.428495e-02 2.719146e-02 2.701938e-02 -1.475389e-01
<VARIANCE> 39
 1.555258e+01 3.698982e+01 4.033634e+01 4.096248e+01 2.056536e+01 2.555636e+01 2.174464e+01 2.689318e+01 1.984683e+01 2.262622e+01 2.490010e+01 1.883975e+01 2.053809e+01 3.315715e-01 7.927656e-01 1.730040e+00 1.941714e+00 1.223353e+00 1.480143e+00 1.375108e+00 1.512328e+00 1.391268e+00 1.376612e+00 1.426640e+00 9.998834e-01 6.420904e-01 7.208756e-02 1.334048e-01 2.043319e-01 2.816789e-01 1.978929e-01 2.621126e-01 2.834806e-01 2.856140e-01 2.688756e-01 2.395667e-01 2.492950e-01 1.824314e-01 8.282370e-02
<GCONST> 9.382555e+01
<TRANSP> 5
 0.000000e+00 1.000000e+00 0.000000e+00 0.000000e+00 0.000000e+00
 0.000000e+00 8.884690e-01 1.115310e-01 0.000000e+00 0.000000e+00
 0.000000e+00 0.000000e+00 6.728954e-01 3.271046e-01 0.000000e+00
 0.000000e+00 0.000000e+00 0.000000e+00 7.870840e-01 2.129160e-01
 0.000000e+00 0.000000e+00 0.000000e+00 0.000000e+00 0.000000e+00
<ENDHMM>
~h "ea"
<BEGINHMM>
<NUMSTATES> 5
<STATE> 2
<MEAN> 39
 9.109173e-01 6.439669e+00 -5.824970e+00 -9.907327e+00 -3.572793e+00 -7.455820e+00 -2.551528e+00 -1.482428e+00 -3.680851e-01 -3.310593e+00 -1.397064e+00 -2.241069e+00 7.626655e+00 1.177876e-02 -2.947764e-01 -5.354291e-02 -1.060493e-01 1.129329e-01 3.297951e-01 4.436798e-02 5.394134e-02 -1.439658e-02 -8.730071e-02 -5.728734e-02 6.917248e-02 5.219853e-02 4.936392e-02 -1.864897e-01 1.480679e-01 7.917999e-02 -1.151234e-02 1.738273e-01 -2.395881e-02 -2.685102e-02 -2.784880e-02 7.390748e-03 -6.276253e-03 3.964562e-02 -5.586855e-02
<VARIANCE> 39
 4.505384e+00 1.454353e+01 2.848925e+01 2.473473e+01 1.953832e+01 1.867197e+01 3.539682e+01 1.812023e+01 1.631200e+01 1.554992e+01 1.906829e+01 1.988463e+01 1.157049e+01 1.689938e-01 7.974471e-01 6.158003e-01 7.791576e-01 9.225196e-01 1.175864e+00 1.375108e+00 1.289518e+00 1.307889e+00 1.189187e+00 1.184514e+00 9.998834e-01 2.336360e-01 3.135733e-02 7.540579e-02 1.110718e-01 1.687554e-01 1.677696e-01 2.246915e-01 2.269374e-01 2.540992e-01 2.483865e-01 2.230696e-01 2.091501e-01 1.824314e-01 4.771026e-02
<GCONST> 8.041815e+01
<STATE> 3
<MEAN> 39
 1.969440e+00 -9.521379e-01 -3.425823e+00 -9.986149e+00 -2.511837e+00 -3.167510e-01 -3.505593e+00 -1.775871e+00 -9.615541e-01 -3.534867e+00 -2.001231e+00 -4.185811e-01 7.945191e+00 4.357429e-01 -6.505983e-01 8.970778e-01 1.469111e+00 -3.414784e-01 4.527212e-01 7.523690e-02 -4.439021e-01 -5.642238e-02 4.476427e-01 5.213269e-02 2.512235e-01 -1.048388e+00 -1.449211e-02 3.552304e-01 1.822497e-01 3.839597e-01 1.058846e-02 -4.249440e-01 1.407045e-01 3.580734e-02 -2.110463e-03 1.981862e-01 3.828585e-02 -5.980907e-03 -3.611561e-01
<VARIANCE> 39
 6.804445e+00 2.039730e+01 2.219053e+01 2.926554e+01 2.481425e+01 2.802894e+01 4.479363e+01 2.701484e+01 2.345757e+01 2.279456e+01 3.500618e+01 2.263835e+01 1.126815e+01 4.258130e-01 1.456422e+00 1.440033e+00 1.989614e+00 2.017454e+00 3.174264e+00 3.623173e+00 2.425754e+00 2.327634e+00 1.793569e+00 2.449157e+00 1.858940e+00 1.179206e+00 8.622750e-02 1.947249e-01 1.882223e-01 3.414759e-01 4.253389e-01 4.765624e-01 5.555309e-01 4.023644e-01 4.484843e-01 3.839895e-01 4.974170e-01 3.380554e-01 1.074520e-01
<GCONST> 1.041247e+02
<STATE> 4
<MEAN> 39
 2.274456e+00 -1.073831e-02 2.250527e+00 -6.729916e-01 -1.908085e+00 -6.675094e-01 -2.071417e+00 -2.669170e+00 -3.084783e-01 -4.713382e-01 -2.228404e+00 7.340282e-02 7.197747e-01 -3.178434e-01 2.583889e-01 8.704884e-01 1.492384e+00 5.503570e-01 -2.468001e-01 7.300300e-01 5.513940e-01 1.136419e-01 6.071789e-01 1.954604e-01 -3.501867e-02 -1.455395e+00 -1.190828e-01 -4.199578e-02 -2.481945e-01 -3.221363e-01 8.240642e-02 6.779715e-02 1.228929e-02 1.636617e-01 6.465723e-02 -9.954455e-02 8.530352e-02 1.161761e-02 2.136886e-01
<VARIANCE> 39
 9.214987e+00 1.553716e+01 1.546024e+01 3.475816e+01 2.221390e+01 3.945714e+01 4.419186e+01 4.249342e+01 3.390301e+01 2.582745e+01 2.726073e+01 2.189193e+01 1.331046e+01 7.452655e-01 1.251569e+00 1.737893e+00 2.311633e+00 2.208218e+00 3.674529e+00 2.736001e+00 2.807037e+00 2.609840e+00 2.466925e+00 2.556953e+00 2.111091e+00 8.923070e-01 9.176818e-02 1.790641e-01 2.150322e-01 2.940245e-01 3.414908e-01 4.010989e-01 4.491674e-01 4.587001e-01 4.108741e-01 3.906907e-01 3.929801e-01 3.443500e-01 9.589276e-02
<GCONST> 1.052733e+02
<TRANSP> 5
 0.000000e+00 1.000000e+00 0.000000e+00 0.000000e+00 0.000000e+00
 0.000000e+00 8.874378e-01 1.125622e-01 0.000000e+00 0.000000e+00
 0.000000e+00 0.000000e+00 7.478812e-01 2.521188e-01 0.000000e+00
 0.000000e+00 0.000000e+00 0.000000e+00 6.232870e-01 3.767130e-01
 0.000000e+00 0.000000e+00 0.000000e+00 0.000000e+00 0.000000e+00
<ENDHMM>
~h "eh"
<BEGINHMM>
<NUMSTATES> 5
<STATE> 2
<MEAN> 39
 1.679133e+00 -8.752103e+00 -5.118004e+00 -1.323179e+00 -3.604756e+00 -1.692603e+00 -2.039115e+00 -6.019098e+00 -3.155686e+00 -3.297289e+00 -1.477631e+00 -1.254473e+00 1.152579e+01 2.081674e-01 2.658333e-01 8.466527e-02 -5.037798e-02 -2.513609e-02 -1.641289e-01 3.047169e-02 5.021401e-02 -9.326772e-02 9.398728e-02 5.547448e-02 -3.802674e-04 -3.264104e-01 5.972782e-02 1.608750e-01 3.794033e-02 -5.982919e-02 -3.717368e-02 -9.687646e-02 4.038123e-02 7.320154e-02 3.942162e-02 1.767571e-02 -2.390502e-02 6.402350e-03 -1.269980e-01
<VARIANCE> 39
 5.113936e+00 8.442718e+00 1.028112e+01 1.484542e+01 1.794379e+01 2.079162e+01 3.746594e+01 1.946587e+01 2.869770e+01 1.612623e+01 1.480474e+01 1.409041e+01 1.147229e+01 1.689938e-01 4.463741e-01 6.158003e-01 7.791576e-01 9.225196e-01 1.175864e+00 1.375108e+00 1.289518e+00 1.307889e+00 1.189187e+00 1.184514e+00 9.998834e-01 1.467606e-01 3.135733e-02 7.540579e-02 1.110718e-01 1.458303e-01 1.677696e-01 2.246915e-01 2.269374e-01 2.540992e-01 2.483865e-01 2.230696e-01 2.091501e-01 1.824314e-01 3.579215e-02
<GCONST> 7.713874e+01
<STATE> 3
<MEAN> 39
 4.221337e+00 -2.044468e+00 -1.659234e+00 -3.228136e+00 -5.068427e+00 -5.837302e+00 -1.482719e+00 -2.367581e+00 -3.558671e+00 -1.588277e+00 -2.137597e+00 -1.197363e-01 6.141642e+00 2.488433e-01 1.657740e+00 1.214207e+00 -9.528348e-02 -2.892188e-01 -1.403719e+00 -6.306238e-02 4.078341e-01 2.634671e-01 1.391115e-01 -1.645199e-01 2.926671e-01 -1.399605e+00 -1.425405e-01 -1.790618e-01 -3.747636e-02 1.151172e-01 1.149300e-01 1.620230e-01 -7.329234e-02 -1.374678e-01 3.421042e-02 -5.581852e-02 5.183157e-02 -1.251169e-03 1.281054e-01
<VARIANCE> 39
 5.194180e+00 2.480409e+01 2.229042e+01 2.060972e+01 2.071557e+01 4.457043e+01 2.903032e+01 2.979595e+01 2.034108e+01 2.207900e+01 1.929280e+01 2.417311e+01 1.762774e+01 4.401340e-01 1.602619e+00 1.287468e+00 1.545724e+00 1.585846e+00 2.600744e+00 2.114109e+00 2.726755e+00 1.745717e+00 2.011556e+00 1.499372e+00 1.357619e+00 9.643863e-01 5.882864e-02 4.112327e-01 4.016739e-01 2.296582e-01 2.816400e-01 4.747911e-01 3.065796e-01 3.672467e-01 2.607733e-01 3.361350e-01 2.722538e-01 2.367384e-01 2.236210e-01
<GCONST> 9.984146e+01
<STATE> 4
<MEAN> 39
 4.617689e+00 -6.545742e-01 -2.105905e+00 -3.967619e+00 -4.577806e+00 -6.538895e+00 -1.074494e+00 -3.467646e+00 -2.510995e+00 -2.111736e+00 -1.404219e+00 -1.848189e-02 4.904214e+00 -4.170164e-02 2.539426e-01 2.545912e-01 3.088402e-01 2.805739e-01 -3.965109e-02 -3.239054e-01 -1.259875e-03 1.024455e-01 1.321049e-01 1.245709e-01 9.073283e-02 -4.044590e-01 -4.192974e-02 -7.801245e-02 -2.423575e-02 1.054993e-01 1.095795e-01 1.842713e-01 -1.732422e-02 2.693846e-02 -2.106922e-02 2.013589e-02 4.337225e-03 -6.524374e-02 4.043572e-03
<VARIANCE> 39
 4.503599e+00 1.317745e+01 1.790886e+01 1.926136e+01 1.747860e+01 3.196619e+01 4.604903e+01 2.795558e+01 1.631200e+01 2.103743e+01 1.559909e+01 2.829794e+01 1.553227e+01 1.689938e-01 4.463741e-01 6.553159e-01 7.791576e-01 9.225196e-01 1.175864e+00 1.375108e+00 1.289518e+00 1.307889e+00 1.189187e+00 1.184514e+00 9.998834e-01 2.537992e-01 4.016474e-02 1.087664e-01 1.669579e-01 1.458303e-01 1.677696e-01 2.246915e-01 2.269374e-01 2.540992e-01 2.483865e-01 2.230696e-01 2.091501e-01 1.824314e-01 5.261899e-02
<GCONST> 8.201452e+01
<TRANSP> 5
 0.000000e+00 1.000000e+00 0.000000e+00 0.000000e+00 0.000000e+00
 0.000000e+00 8.700961e-01 1.299039e-01 0.000000e+00 0.000000e+00
 0.000000e+00 0.000000e+00 6.802531e-01 3.197469e-01 0.000000e+00
 0.000000e+00 0.000000e+00 0.000000e+00 7.787158e-01 2.212842e-01
 0.000000e+00 0.000000e+00 0.000000e+00 0.000000e+00 0.000000e+00
<ENDHMM>
~h "eo"
<BEGINHMM>
<NUMSTATES> 5
<STATE> 2
<MEAN> 39
 1.633528e+00 -7.227699e+00 -3.694368e+00 -6.344908e+00 -7.303163e+00 1.401942e+00 6.644496e-02 -6.492652e+00 -2.634123e+00 -2.179197e+00 -5.605974e+00 -9.439640e-01 1.382468e+01 7.694234e-01 -2.814145e-01 -2.874576e-01 1.492669e-02 -7.950060e-01 -1.208727e+00 5.914391e-01 3.867278e-01 -1.360018e+00 8.513622e-01 -2.109928e-01 -5.617769e-01 -4.618154e-01 -1.601904e-01 5.082750e-01 2.877598e-01 6.713262e-01 5.625817e-01 -1.339134e-01 2.749739e-02 6.497004e-01 2.065428e-01 1.919728e-01 5.614979e-01 1.234689e-01 -1.180782e+00
<VARIANCE> 39
 5.235799e+00 2.301005e+01 1.028112e+01 2.213266e+01 1.391700e+01 1.745019e+01 2.950840e+01 2.481609e+01 2.726203e+01 2.927335e+01 2.579931e+01 1.956638e+01 2.973458e+01 5.761464e-01 1.436985e+00 1.193832e+00 3.063269e+00 2.051993e+00 2.571154e+00 1.375108e+00 2.982635e+00 2.524438e+00 3.474384e+00 3.657336e+00 1.422033e+00 4.093229e+00 1.400949e-01 2.116143e-01 2.258046e-01 5.635216e-01 4.567575e-01 3.598108e-01 3.605535e-01 4.013447e-01 4.494551e-01 7.176937e-01 6.714838e-01 4.797443e-01 5.424171e-01
<GCONST> 1.075004e+02
<STATE> 3
<MEAN> 39
 3.075264e+00 -3.985101e+00 -1.891009e+00 -2.385436e+00 -7.396434e+00 -3.870091e+00 2.176094e+00 -1.744816e-01 -3.697776e+00 1.137706e+00 -2.431430e+00 -1.422791e+00 4.070121e+00 -1.517366e-01 1.531602e+00 9.482399e-01 7.714078e-01 8.281834e-01 -1.903074e-01 5.222371e-02 7.372093e-01 5.716881e-01 1.610149e-01 5.615373e-01 1.979214e-01 -2.814615e+00 -3.067652e-01 1.449191e-01 7.455850e-02 -1.161862e-01 4.989016e-01 5.917265e-01 -1.753186e-01 -2.934424e-01 2.528584e-01 -1.329939e-01 -1.280775e-01 2.126967e-01 1.219840e-01
<VARIANCE> 39
 4.343294e+00 2.285405e+01 1.058587e+01 2.742823e+01 1.391700e+01 3.476096e+01 2.345928e+01 3.032090e+01 3.542154e+01 1.599166e+01 2.200527e+01 3.073136e+01 2.659725e+01 7.329451e-01 1.368623e+00 1.303589e+00 3.538188e+00 1.906651e+00 4.249871e+00 2.555170e+00 3.756099e+00 3.809461e+00 2.511748e+00 3.458666e+00 4.249443e+00 2.891781e+00 1.188089e-01 3.343492e-01 2.177339e-01 6.588060e-01 3.797337e-01 6.235685e-01 4.483798e-01 5.371715e-01 1.185045e+00 4.276193e-01 5.150077e-01 7.446730e-01 4.685536e-01
<GCONST> 1.122971e+02
<STATE> 4
<MEAN> 39
 1.898737e+00 -4.601647e-01 -4.829040e-01 -3.009244e+00 -3.716521e+00 -1.673499e+00 1.374634e+00 -9.087166e-01 -1.984683e+00 1.151889e+00 -1.986143e+00 -2.901459e-01 4.467088e-01 -2.502624e-01 4.818467e-01 3.453172e-01 2.043303e-01 6.483312e-01 1.269893e-01 2.105290e-02 -3.283740e-02 3.388270e-02 8.326454e-02 2.183972e-01 2.169783e-01 -6.059365e-01 -5.499094e-02 -2.249171e-01 -1.240237e-01 2.243344e-02 -4.219710e-02 2.058427e-01 1.148227e-01 -3.210019e-02 1.298008e-02 -1.034154e-01 -2.290978e-02 2.834793e-02 2.780465e-01
<VARIANCE> 39
 4.343294e+00 8.442718e+00 1.028112e+01 2.147690e+01 1.733157e+01 5.549336e+01 2.557369e+01 2.278685e+01 2.190930e+01 1.868107e+01 2.310784e+01 1.409041e+01 8.684613e+00 5.123146e-01 7.936108e-01 6.374679e-01 1.494951e+00 2.112707e+00 2.878276e+00 2.078285e+00 2.193829e+00 2.146442e+00 1.964514e+00 1.392390e+00 1.775470e+00 1.834041e+00 6.887505e-02 1.626579e-01 1.437177e-01 2.352228e-01 3.927637e-01 3.915575e-01 4.240123e-01 3.691379e-01 3.483133e-01 3.946463e-01 3.299922e-01 3.418410e-01 1.620707e-01
<GCONST> 9.560783e+01
<TRANSP> 5
 0.000000e+00 1.000000e+00 0.000000e+00 0.000000e+00 0.000000e+00
 0.000000e+00 6.729953e-01 3.270048e-01 0.000000e+00 0.000000e+00
 0.000000e+00 0.000000e+00 5.576079e-01 4.423921e-01 0.000000e+00
 0.000000e+00 0.000000e+00 0.000000e+00 6.817060e-01 3.182940e-01
 0.000000e+00 0.000000e+00 0.000000e+00 0.000000e+00 0.000000e+00
<ENDHMM>
~h "er"
<BEGINHMM>
<NUMSTATES> 5
<STATE> 2
<MEAN> 39
 3.782642e+00 -7.568363e+00 -4.343508e+00 -6.903058e-01 -4.407301e+00 -2.391527e-01 -1.634178e+00 -6.770576e+00 -4.187482e+00 -2.859152e+00 -2.694937e+00 -2.388322e+00 9.319714e+00 6.957560e-02 1.493424e-01 1.823889e-01 3.351670e-01 7.373168e-02 -1.916647e-01 -1.364021e-01 -5.172080e-03 -6.781814e-02 6.554215e-02 3.708129e-02 1.071521e-01 -3.842300e-01 -2.425318e-02 8.024628e-02 6.981575e-02 8.102517e-03 2.837651e-02 5.418677e-04 9.948055e-03 5.172883e-02 5.576269e-02 8.092324e-03 -6.752904e-03 3.621572e-02 -6.687611e-02
<VARIANCE> 39
 4.994816e+00 9.534597e+00 1.028112e+01 1.786066e+01 1.391700e+01 1.745019e+01 5.561391e+01 2.380026e+01 2.197630e+01 1.554992e+01 1.595142e+01 1.642139e+01 9.365931e+00 1.689938e-01 4.463741e-01 6.158003e-01 7.791576e-01 9.225196e-01 1.175864e+00 1.375108e+00 1.289518e+00 1.307889e+00 1.189187e+00 1.184514e+00 9.998834e-01 1.448617e-01 3.135733e-02 7.540579e-02 1.110718e-01 1.458303e-01 1.677696e-01 2.246915e-01 2.269374e-01 2.540992e-01 2.483865e-01 2.230696e-01 2.091501e-01 1.824314e-01 2.437782e-02
<GCONST> 7.691290e+01
<STATE> 3
<MEAN> 39
 1.755956e+00 -2.929421e+00 2.589111e+00 4.440797e+00 3.158890e-01 -2.685252e-01 -1.623599e+00 -2.546462e+00 -2.214199e+00 -1.118641e-01 -8.495842e-01 1.072438e+00 2.901796e-01 -7.494569e-01 2.861043e-02 5.049350e-01 2.653063e-01 8.842568e-01 5.883077e-01 6.437196e-01 8.739467e-01 6.809949e-01 5.254569e-01 2.935223e-01 1.554799e-01 -8.733773e-01 2.938885e-03 -1.149165e-01 -2.115884e-01 -1.238421e-01 -5.614019e-02 4.142057e-02 6.823910e-02 -9.429231e-03 7.536167e-02 6.966718e-02 8.704906e-03 -1.166984e-01 9.388324e-02
<VARIANCE> 39
 7.630021e+00 8.956788e+00 1.630944e+01 2.887107e+01 2.232887e+01 2.389164e+01 4.455377e+01 2.373511e+01 3.000856e+01 2.771517e+01 2.947684e+01 2.762253e+01 6.717731e+00 4.465846e-01 1.012269e+00 1.542579e+00 1.637155e+00 1.283546e+00 1.807637e+00 2.035991e+00 1.668964e+00 1.868588e+00 2.352545e+00 2.030565e+00 1.564443e+00 2.507948e-01 1.168402e-01 1.775262e-01 1.849720e-01 2.354712e-01 2.244777e-01 3.702061e-01 3.530017e-01 3.927927e-01 3.438357e-01 3.928171e-01 3.615256e-01 3.231621e-01 2.437782e-02
<GCONST> 9.474468e+01
<STATE> 4
<MEAN> 39
 -7.643391e-01 -1.301860e+00 2.224969e+00 1.340177e+00 2.434612e+00 2.025812e+00 2.447844e+00 5.455176e-01 5.385458e-01 2.103467e+00 6.774352e-01 -3.902591e-02 -3.194037e+00 -9.343704e-03 2.390117e-01 -5.052295e-02 -7.820347e-02 1.183871e-03 5.030162e-02 1.308060e-01 4.827699e-02 8.170918e-02 -2.012092e-02 1.099293e-01 -8.042243e-02 -1.863164e-01 1.278288e-02 2.209495e-02 2.590967e-02 -1.962117e-03 -3.524458e-02 -2.359908e-02 5.933919e-03 3.103288e-04 -3.221444e-02 -3.681425e-02 -4.650203e-03 3.486289e-02 2.045505e-02
<VARIANCE> 39
 4.343294e+00 8.442718e+00 1.117513e+01 1.380677e+01 1.391700e+01 1.745019e+01 2.828727e+01 1.793711e+01 1.631200e+01 1.554992e+01 1.973228e+01 1.409041e+01 6.717731e+00 1.689938e-01 4.463741e-01 6.158003e-01 7.791576e-01 9.225196e-01 1.175864e+00 1.944323e+00 1.289518e+00 1.307889e+00 1.291838e+00 1.563854e+00 9.998834e-01 1.448617e-01 3.135733e-02 7.540579e-02 1.136500e-01 1.458303e-01 1.677696e-01 2.425194e-01 3.715099e-01 2.540992e-01 2.483865e-01 2.677375e-01 3.074194e-01 1.888910e-01 2.437782e-02
<GCONST> 7.684951e+01
<TRANSP> 5
 0.000000e+00 1.000000e+00 0.000000e+00 0.000000e+00 0.000000e+00
 0.000000e+00 9.513212e-01 4.867880e-02 0.000000e+00 0.000000e+00
 0.000000e+00 0.000000e+00 8.623931e-01 1.376069e-01 0.000000e+00
 0.000000e+00 0.000000e+00 0.000000e+00 9.303274e-01 6.967264e-02
 0.000000e+00 0.000000e+00 0.000000e+00 0.000000e+00 0.000000e+00
<ENDHMM>
~h "eu"
<BEGINHMM>
<NUMSTATES> 5
<STATE> 2
<MEAN> 39
 4.146938e+00 4.025296e+00 2.764972e+00 -3.899114e+00 -6.157602e+00 -4.070109e+00 -4.975952e+00 -2.621953e+00 -1.459399e+00 1.824088e+00 -1.823476e+00 -7.534593e-01 1.102851e+00 -3.118555e-01 1.842307e-01 4.023288e-01 9.453902e-01 8.341473e-01 4.987977e-01 2.622942e-01 1.363067e-01 2.238523e-01 -3.534268e-02 1.001009e-01 -5.192812e-03 -7.554789e-01 -1.276191e-01 -1.439686e-01 -1.930479e-02 6.490909e-02 9.081294e-02 1.703962e-01 1.944633e-01 1.419218e-01 8.729031e-02 -2.330369e-02 3.025095e-02 -2.437856e-02 -3.099750e-03
<VARIANCE> 39
 4.450989e+00 8.442718e+00 1.818829e+01 2.144212e+01 1.979599e+01 2.350971e+01 2.469009e+01 2.627651e+01 3.588565e+01 3.098598e+01 3.681657e+01 3.329348e+01 8.419928e+00 4.350345e-01 5.963211e-01 6.627221e-01 1.069508e+00 1.146324e+00 1.829977e+00 2.387221e+00 2.084492e+00 1.798281e+00 2.223757e+00 1.591546e+00 1.901125e+00 2.023398e-01 4.364739e-02 1.148241e-01 1.110718e-01 2.105645e-01 1.923134e-01 2.576761e-01 3.687407e-01 3.873111e-01 2.900424e-01 3.069434e-01 3.052156e-01 3.548019e-01 2.437782e-02
<GCONST> 8.933273e+01
<STATE> 3
<MEAN> 39
 -6.794459e-01 1.061566e+00 4.140818e+00 2.012244e+00 2.934596e-01 2.422393e+00 1.328203e+00 1.225205e+00 2.579546e+00 1.136817e+00 -9.971360e-01 -2.764691e-01 -3.863197e+00 -6.598259e-01 -7.724340e-01 -3.680936e-01 8.636451e-02 4.503672e-01 6.446849e-01 7.770060e-01 1.029443e+00 8.215071e-01 3.782569e-01 7.469862e-01 4.218166e-01 -4.655106e-01 2.032833e-01 1.460522e-01 -1.155718e-01 -1.812835e-01 -2.038034e-01 -3.618082e-01 -3.029723e-01 -1.878587e-01 -1.566928e-01 2.158403e-02 -4.175678e-05 1.399398e-02 8.230338e-02
<VARIANCE> 39
 4.343294e+00 8.442718e+00 1.028112e+01 1.380677e+01 2.042840e+01 1.745019e+01 1.847989e+01 2.137766e+01 1.863999e+01 1.932973e+01 1.627123e+01 1.409041e+01 6.717731e+00 3.388081e-01 6.941869e-01 9.359954e-01 1.160995e+00 1.515988e+00 2.084262e+00 1.985824e+00 1.696853e+00 2.300948e+00 2.411948e+00 2.172813e+00 1.693919e+00 1.448617e-01 4.215856e-02 1.341112e-01 1.437046e-01 2.683558e-01 2.723270e-01 3.070648e-01 3.730878e-01 3.387305e-01 5.146871e-01 4.956583e-01 2.521480e-01 2.401634e-01 2.437782e-02
<GCONST> 8.653735e+01
<STATE> 4
<MEAN> 39
 -1.919098e+00 5.561321e-01 1.659918e+00 2.354141e+00 1.949373e+00 3.485870e+00 1.946554e+00 2.485274e+00 3.003093e+00 7.346852e-01 3.049644e+00 1.431181e+00 -6.472697e+00 -2.011441e-02 5.723281e-02 -1.265938e-02 2.489318e-02 1.002351e-01 5.470379e-02 -1.597726e-02 -1.492738e-02 -8.806340e-02 -9.241681e-02 -3.386981e-03 1.459393e-02 -6.090254e-02 8.509934e-03 1.475469e-02 2.033985e-02 2.574103e-04 -1.078430e-02 5.381720e-03 1.398344e-02 -3.162573e-02 -2.780600e-02 4.289773e-03 -3.062732e-02 -2.044508e-02 1.951157e-02
<VARIANCE> 39
 4.343294e+00 8.442718e+00 1.028112e+01 1.380677e+01 1.391700e+01 1.745019e+01 1.824618e+01 1.793711e+01 1.631200e+01 1.554992e+01 1.480474e+01 1.409041e+01 6.717731e+00 1.689938e-01 4.463741e-01 6.158003e-01 7.791576e-01 9.225196e-01 1.175864e+00 1.375108e+00 1.289518e+00 1.789260e+00 1.276708e+00 1.257137e+00 1.204747e+00 1.448617e-01 3.135733e-02 7.540579e-02 1.110718e-01 1.458303e-01 1.677696e-01 2.390853e-01 2.269374e-01 2.822912e-01 3.799305e-01 2.645274e-01 2.934083e-01 2.703387e-01 2.437782e-02
<GCONST> 7.626357e+01
<TRANSP> 5
 0.000000e+00 1.000000e+00 0.000000e+00 0.000000e+00 0.000000e+00
 0.000000e+00 8.963526e-01 1.036473e-01 0.000000e+00 0.000000e+00
 0.000000e+00 0.000000e+00 7.851852e-01 2.148148e-01 0.000000e+00
 0.000000e+00 0.000000e+00 0.000000e+00 9.289158e-01 7.108422e-02
 0.000000e+00 0.000000e+00 0.000000e+00 0.000000e+00 0.000000e+00
<ENDHMM>
~h "ey"
<BEGINHMM>
<NUMSTATES> 5
<STATE> 2
<MEAN> 39
 1.878756e+00 5.817900e+00 -4.260288e+00 -8.943052e+00 -3.843767e+00 -5.668994e+00 -3.141425e+00 -1.609083e+00 8.687654e-01 -3.278555e+00 -1.577178e+00 -2.167743e+00 5.903836e+00 1.530382e-01 7.910827e-01 1.907117e-01 4.620410e-01 -1.775109e-01 -6.602336e-01 -1.175315e-01 -3.104938e-02 9.675577e-02 2.004278e-01 2.422997e-01 7.692164e-03 -6.949348e-01 4.021255e-03 -1.720026e-01 8.844265e-02 1.747302e-01 4.770567e-02 1.384344e-01 1.024871e-02 -1.159388e-01 -8.233320e-02 2.238100e-02 6.584201e-03 4.814616e-02 -2.411334e-02
<VARIANCE> 39
