~o
<STREAMINFO> 1 39
<VECSIZE> 39<NULLD><MFCC_D_A_Z_0><DIAGC>
~h "b"
<BEGINHMM>
<NUMSTATES> 5
<STATE> 2
<MEAN> 39
 -4.255389e-01 1.187105e+00 2.001976e+00 2.145627e+00 1.319397e+00 1.433775e+00 1.015514e+00 5.810270e-01 4.699250e-02 1.097406e+00 8.152815e-01 9.872048e-01 -3.591167e+00 4.683975e-01 -3.048626e-01 -3.573077e-01 -4.023769e-01 -4.155594e-01 -6.211841e-01 -3.953187e-01 -4.605664e-01 -3.965476e-01 -5.077527e-01 -2.424548e-01 -1.941783e-01 1.157043e+00 2.144301e-01 -3.774919e-01 -3.741800e-01 -2.270344e-01 -1.862178e-01 -2.292341e-01 -8.798492e-02 -9.874699e-02 -1.003851e-01 -1.908600e-01 -1.088024e-01 -1.123022e-01 5.876585e-01
<VARIANCE> 39
 7.506109e+00 1.174082e+01 1.173077e+01 1.379061e+01 1.667865e+01 3.134574e+01 3.142483e+01 2.742924e+01 2.281170e+01 1.945892e+01 1.522864e+01 1.427102e+01 1.075285e+01 1.060939e+00 1.653435e+00 1.819355e+00 1.578833e+00 1.951894e+00 3.581606e+00 3.109825e+00 3.000874e+00 2.678327e+00 2.331940e+00 1.711565e+00 1.715183e+00 3.068102e+00 1.381415e-01 2.964163e-01 3.239607e-01 2.697271e-01 3.474257e-01 5.349527e-01 5.909739e-01 6.311654e-01 5.128958e-01 4.431025e-01 3.574043e-01 3.471656e-01 2.889829e-01
<GCONST> 1.048261e+02
<STATE> 3
<MEAN> 39
 3.457336e+00 -3.613307e+00 -3.681682e+00 -1.040891e+00 -2.216430e+00 -3.409822e+00 -6.765871e-01 -1.581319e+00 -3.120072e+00 -2.626313e+00 -1.364302e+00 -7.554983e-01 6.109515e+00 2.162411e-01 -1.697756e+00 -1.363199e+00 -6.261954e-01 -2.957077e-01 1.931928e-02 2.852602e-01 -3.775375e-01 -1.442606e-01 -3.782595e-01 -1.967034e-01 -3.167678e-01 2.164359e+00 -2.763895e-01 2.585363e-01 3.515696e-01 1.265376e-01 2.144990e-01 2.855859e-01 -2.653895e-02 -4.988579e-02 1.968011e-01 1.764780e-01 7.819195e-02 5.043111e-02 -4.533762e-01
<VARIANCE> 39
 1.057503e+01 3.648441e+01 3.993767e+01 2.357261e+01 2.131931e+01 3.275450e+01 3.676321e+01 3.497970e+01 3.398723e+01 2.325047e+01 1.963192e+01 1.996762e+01 4.258595e+01 1.519153e+00 3.338595e+00 4.943433e+00 2.831883e+00 2.558126e+00 4.389731e+00 4.779852e+00 5.084201e+00 4.450098e+00 3.247455e+00 2.442388e+00 2.319752e+00 4.047375e+00 2.053771e-01 7.408044e-01 8.345457e-01 4.507652e-01 4.417955e-01 7.159486e-01 8.632850e-01 9.123409e-01 8.140011e-01 5.361018e-01 4.361159e-01 4.453375e-01 7.284349e-01
<GCONST> 1.232229e+02
<STATE> 4
<MEAN> 39
 1.300630e+00 -6.883165e+00 -3.276272e+00 -2.179962e+00 -1.574023e+00 -1.258923e-01 -8.057446e-01 -4.615083e+00 -2.360160e+00 -2.369791e+00 -1.412414e+00 -1.035938e+00 9.348407e+00 -2.608930e-01 4.799760e-01 4.496291e-01 -5.870410e-01 2.497860e-01 3.700393e-01 -5.434271e-01 -1.455842e-01 5.138785e-01 -1.626429e-01 -8.403143e-02 -7.673053e-02 -1.246407e-01 6.990134e-02 3.811594e-01 6.931728e-02 5.694987e-02 4.018211e-02 -1.770623e-01 -2.058891e-02 2.870905e-01 1.529567e-02 -1.418764e-03 3.716508e-02 2.828817e-02 -3.342191e-01
<VARIANCE> 39
 9.913139e+00 2.913739e+01 2.569837e+01 3.143307e+01 2.009479e+01 3.122591e+01 3.436610e+01 2.925199e+01 3.434855e+01 2.564091e+01 1.846005e+01 1.430314e+01 4.586382e+01 5.184613e-01 1.550890e+00 1.537024e+00 2.046602e+00 1.594993e+00 2.211005e+00 2.327665e+00 2.609007e+00 2.379960e+00 2.199071e+00 1.532192e+00 1.386277e+00 9.127840e-01 1.231660e-01 3.136597e-01 3.307187e-01 3.218643e-01 2.879861e-01 5.255920e-01 4.277002e-01 4.324316e-01 4.797592e-01 4.411950e-01 3.331225e-01 2.556312e-01 2.987969e-01
<GCONST> 1.055904e+02
<TRANSP> 5
 0.000000e+00 1.000000e+00 0.000000e+00 0.000000e+00 0.000000e+00
 0.000000e+00 6.742555e-01 3.257445e-01 0.000000e+00 0.000000e+00
 0.000000e+00 0.000000e+00 6.383347e-01 3.616653e-01 0.000000e+00
 0.000000e+00 0.000000e+00 0.000000e+00 5.330800e-01 4.669200e-01
 0.000000e+00 0.000000e+00 0.000000e+00 0.000000e+00 0.000000e+00
<ENDHMM>
~h "c"
<BEGINHMM>
<NUMSTATES> 5
<STATE> 2
<MEAN> 39
 -3.517009e+00 2.078299e+00 -1.964377e+00 -8.450577e-01 -7.443702e-01 2.150769e-01 5.654132e-01 1.020114e+00 8.159828e-01 -4.849162e-01 4.452793e-01 7.735160e-02 2.747969e+00 3.929573e-01 -1.109203e-01 -6.894289e-01 -1.372683e+00 -4.727732e-01 -3.638033e-01 -6.235288e-01 -4.581312e-01 -2.452410e-01 -6.043240e-01 -3.903670e-01 -2.113571e-01 1.503016e+00 1.849688e-01 -1.536526e-01 1.897074e-03 -1.214129e-01 1.585350e-02 -2.856126e-03 -9.764536e-02 -1.203139e-01 -1.001141e-01 -4.778521e-02 -7.165757e-02 -3.307164e-02 6.491704e-02
<VARIANCE> 39
 2.606649e+01 1.543400e+01 2.119816e+01 4.825318e+01 2.414187e+01 2.649658e+01 2.696144e+01 2.306174e+01 2.120732e+01 2.352370e+01 1.964011e+01 1.663741e+01 3.359251e+01 4.300076e+00 2.430574e+00 2.549601e+00 5.394774e+00 2.911664e+00 2.806840e+00 3.065887e+00 2.642323e+00 2.329789e+00 2.462218e+00 2.168068e+00 1.997268e+00 2.008941e+00 7.917547e-01 4.450274e-01 4.510244e-01 1.134407e+00 6.023618e-01 5.324197e-01 5.948576e-01 4.999965e-01 4.468069e-01 4.847679e-01 3.856239e-01 3.835812e-01 3.185304e-01
<GCONST> 1.174373e+02
<STATE> 3
<MEAN> 39
 1.232009e+00 -2.629128e+00 -5.524415e+00 -9.467401e+00 -2.603091e+00 2.983592e-01 -3.416328e+00 -3.474267e+00 -1.853013e+00 -3.702101e+00 -3.200968e+00 -1.325029e+00 1.152524e+01 -1.380016e-01 -1.245445e+00 6.625316e-02 8.795118e-01 7.390752e-01 3.187166e-01 -4.780602e-01 -6.719680e-01 -4.221398e-01 1.265923e-01 1.035553e-01 -1.836056e-01 4.121591e-01 -2.630172e-01 2.985273e-01 3.738279e-01 6.814802e-01 1.100355e-01 -1.270005e-01 9.549947e-02 1.970724e-01 1.651214e-01 1.761426e-01 2.497995e-01 3.996412e-02 -4.924839e-01
<VARIANCE> 39
 1.044237e+01 1.692146e+01 2.294683e+01 2.208414e+01 2.481808e+01 2.669801e+01 2.390325e+01 2.033833e+01 1.807831e+01 2.019909e+01 2.223681e+01 1.541598e+01 2.131926e+01 3.321373e-01 9.298413e-01 1.115778e+00 1.422782e+00 1.131885e+00 1.920530e+00 2.319955e+00 1.404375e+00 1.672844e+00 1.382199e+00 1.531183e+00 1.618452e+00 5.759178e-01 1.385076e-01 1.492018e-01 2.458905e-01 5.955405e-01 3.604888e-01 3.267384e-01 3.477022e-01 2.941343e-01 2.831624e-01 2.902775e-01 2.746881e-01 2.290448e-01 1.360817e-01
<GCONST> 9.551968e+01
<STATE> 4
<MEAN> 39
 4.102693e-01 -3.652324e+00 -4.936491e+00 -6.005056e+00 -1.144329e-02 -1.859511e+00 -6.789984e+00 -3.326862e+00 -2.839692e+00 -4.372175e+00 -1.099495e+00 -2.370826e+00 1.003226e+01 6.483062e-02 1.678996e-01 1.616882e-01 1.333270e-01 5.947702e-03 -1.133864e-01 -3.457652e-02 6.598877e-04 7.921884e-02 6.936952e-03 3.812933e-02 6.639381e-02 -2.438995e-01 2.728621e-02 1.679410e-01 -1.071647e-02 -8.668095e-02 -8.830443e-02 -3.925887e-02 8.893266e-02 6.803760e-02 5.589912e-02 2.085639e-02 -3.492710e-02 2.405826e-02 -8.299062e-02
<VARIANCE> 39
 5.843843e+00 1.571991e+01 1.386756e+01 1.463534e+01 1.640458e+01 3.902501e+01 2.907062e+01 2.028001e+01 1.625707e+01 1.539162e+01 2.276772e+01 2.720761e+01 1.473952e+01 1.783983e-01 5.696802e-01 6.053280e-01 7.598185e-01 9.096583e-01 1.161551e+00 1.348902e+00 1.270218e+00 1.350985e+00 1.179817e+00 1.160039e+00 9.744113e-01 1.543871e-01 3.178087e-02 7.230995e-02 1.080907e-01 1.513233e-01 1.643012e-01 2.258437e-01 2.258805e-01 2.527760e-01 2.460654e-01 2.266566e-01 2.048913e-01 1.761761e-01 2.351957e-02
<GCONST> 7.894054e+01
<TRANSP> 5
 0.000000e+00 1.000000e+00 0.000000e+00 0.000000e+00 0.000000e+00
 0.000000e+00 8.783432e-01 1.216568e-01 0.000000e+00 0.000000e+00
 0.000000e+00 0.000000e+00 6.050839e-01 3.949161e-01 0.000000e+00
 0.000000e+00 0.000000e+00 0.000000e+00 8.350478e-01 1.649521e-01
 0.000000e+00 0.000000e+00 0.000000e+00 0.000000e+00 0.000000e+00
<ENDHMM>
~h "d"
<BEGINHMM>
<NUMSTATES> 5
<STATE> 2
<MEAN> 39
 2.552943e+00 3.866203e+00 3.548804e+00 -2.018609e-01 -4.743656e+00 -3.598245e+00 -2.298054e+00 -4.404736e+00 -3.545984e+00 -1.485594e+00 -7.582719e-01 -1.352120e-02 -2.169498e+00 9.224032e-02 -6.142784e-01 -5.999650e-01 -4.106735e-01 -6.972178e-01 -1.407579e-02 -9.516403e-03 -4.469403e-01 -1.334224e-01 -6.260742e-01 -1.902848e-01 -4.252306e-01 1.577019e+00 -1.834233e-01 -7.860020e-01 -6.617061e-01 -2.107377e-01 2.071413e-01 4.472602e-01 3.602367e-01 2.197299e-01 3.147002e-01 -3.281608e-02 7.137778e-02 -7.106970e-02 8.325506e-01
<VARIANCE> 39
 8.473831e+00 1.045443e+01 1.238005e+01 2.038267e+01 2.161189e+01 3.016873e+01 2.398150e+01 2.475245e+01 2.638282e+01 2.474104e+01 2.039132e+01 1.741989e+01 9.672566e+00 1.183023e+00 2.891751e+00 3.055990e+00 2.569153e+00 2.758653e+00 3.712371e+00 4.079259e+00 3.196368e+00 3.424412e+00 2.781850e+00 2.200077e+00 1.749868e+00 4.255762e+00 2.031977e-01 2.946669e-01 3.662225e-01 4.495162e-01 5.381106e-01 5.410190e-01 6.496691e-01 5.713913e-01 6.029530e-01 5.320627e-01 4.504291e-01 3.788987e-01 3.510550e-01
<GCONST> 1.116204e+02
<STATE> 3
<MEAN> 39
 1.233490e+00 -5.155000e+00 -4.761260e+00 -4.080287e+00 -5.296300e+00 1.036622e+00 1.224403e+00 -4.077014e+00 -1.445009e+00 -3.817708e+00 -9.412467e-01 -1.813018e+00 1.051487e+01 -1.195714e-01 -2.800112e+00 -1.890308e+00 1.895823e-01 8.833265e-01 6.066953e-01 -5.391806e-03 -4.487453e-01 -2.166904e-01 -3.009657e-01 -1.563238e-02 -2.727746e-01 2.788304e+00 1.283408e-01 3.649236e-01 5.468939e-01 6.291030e-01 3.970248e-01 -5.456243e-01 -4.677249e-01 4.223844e-03 -2.426294e-01 2.566791e-01 -1.043001e-02 1.627732e-01 -8.542113e-01
<VARIANCE> 39
 7.900255e+00 1.827187e+01 1.543948e+01 2.358173e+01 2.598362e+01 3.140734e+01 4.253998e+01 2.719801e+01 2.685793e+01 2.076473e+01 1.806456e+01 1.412281e+01 1.616590e+01 1.501506e+00 1.592498e+00 2.948729e+00 3.192488e+00 3.035392e+00 3.990920e+00 5.129300e+00 3.711455e+00 3.991498e+00 2.723554e+00 2.231721e+00 1.967728e+00 2.876800e+00 1.752529e-01 3.935973e-01 3.792466e-01 3.932644e-01 5.133314e-01 5.935198e-01 8.260832e-01 5.855743e-01 6.668401e-01 4.609480e-01 4.090950e-01 3.058497e-01 3.366261e-01
<GCONST> 1.135921e+02
<STATE> 4
<MEAN> 39
 1.798904e+00 -1.014654e+01 -6.262417e+00 1.550529e+00 -1.786885e+00 -2.205747e+00 -2.208949e+00 -5.037476e+00 -3.671973e+00 -2.979566e+00 -1.196221e+00 -1.440107e+00 1.232184e+01 2.692163e-01 -1.549265e-01 9.315601e-03 5.549744e-01 4.771355e-01 -7.424732e-01 -5.543669e-01 4.730765e-01 -1.079026e-01 7.698526e-02 -1.448665e-01 1.628536e-01 -2.900159e-01 6.629662e-02 5.487830e-01 2.511160e-01 -2.393144e-01 -1.818624e-01 7.480597e-03 8.754546e-02 1.769764e-01 1.177426e-01 -6.009763e-04 -4.475774e-02 3.359929e-02 -4.571918e-01
<VARIANCE> 39
 8.244244e+00 9.673266e+00 2.220454e+01 2.064279e+01 2.245811e+01 2.211554e+01 3.771256e+01 2.689190e+01 2.726379e+01 1.542666e+01 1.478671e+01 1.701773e+01 1.332904e+01 4.040141e-01 8.452849e-01 1.090961e+00 1.437939e+00 1.617053e+00 1.713979e+00 2.087086e+00 1.581135e+00 1.548699e+00 1.289691e+00 1.160039e+00 1.083336e+00 3.739177e-01 9.197702e-02 2.369856e-01 2.542255e-01 1.899880e-01 2.592811e-01 3.242118e-01 3.775781e-01 3.237858e-01 3.819623e-01 2.601001e-01 2.106094e-01 2.273656e-01 2.636971e-01
<GCONST> 9.288373e+01
<TRANSP> 5
 0.000000e+00 1.000000e+00 0.000000e+00 0.000000e+00 0.000000e+00
 0.000000e+00 7.370622e-01 2.629378e-01 0.000000e+00 0.000000e+00
 0.000000e+00 0.000000e+00 6.394885e-01 3.605115e-01 0.000000e+00
 0.000000e+00 0.000000e+00 0.000000e+00 7.393680e-01 2.606320e-01
 0.000000e+00 0.000000e+00 0.000000e+00 0.000000e+00 0.000000e+00
<ENDHMM>
~h "h"
<BEGINHMM>
<NUMSTATES> 5
<STATE> 2
<MEAN> 39
 2.833905e+00 1.191674e+00 1.485726e+00 -4.416180e+00 -2.373839e+00 -4.686137e+00 -5.199851e+00 -5.191112e+00 -2.463596e+00 -2.731958e+00 -3.323924e+00 -1.158538e+00 4.905427e+00 2.877969e-01 -2.657570e-01 4.664675e-02 1.167203e-01 -4.396123e-01 -1.886403e-01 2.249226e-01 -1.117351e-02 -3.005489e-01 -9.897549e-03 7.971657e-02 -1.889517e-01 -2.422826e-02 -1.642344e-03 -8.256921e-02 -1.437075e-01 3.959555e-02 5.249824e-03 1.592022e-02 9.819329e-02 1.065878e-01 -2.900778e-02 -4.610515e-02 3.138910e-02 -1.106670e-02 6.775860e-02
<VARIANCE> 39
 9.666237e+00 1.827320e+01 1.613758e+01 1.709131e+01 2.184655e+01 4.995911e+01 2.788017e+01 2.990509e+01 1.797120e+01 2.394868e+01 2.176437e+01 2.664205e+01 1.653229e+01 5.486125e-01 2.178329e+00 1.233254e+00 1.392551e+00 1.129318e+00 3.406787e+00 2.345211e+00 2.166870e+00 1.582330e+00 1.441322e+00 1.520059e+00 1.495381e+00 1.571561e+00 9.138827e-02 2.737315e-01 1.846779e-01 1.932654e-01 2.062729e-01 5.288647e-01 4.126870e-01 4.093069e-01 3.137102e-01 2.713201e-01 2.815705e-01 2.596297e-01 1.937515e-01
<GCONST> 9.947885e+01
<STATE> 3
<MEAN> 39
 5.529931e+00 -4.898383e+00 -4.082905e+00 1.079961e+00 -4.252993e+00 -6.956172e+00 -1.942511e-01 -9.938143e-01 -6.310532e+00 -3.676211e+00 -2.224084e+00 -2.934565e+00 7.241942e+00 6.325724e-01 -6.988927e-01 -1.650804e+00 6.930586e-01 7.626774e-01 -6.770723e-01 -7.115086e-01 1.975059e+00 2.879774e-01 -4.460748e-01 -3.926321e-01 4.260194e-01 -6.566200e-03 5.979634e-02 4.644945e-01 9.579810e-02 -3.419806e-01 2.347362e-01 -3.707065e-02 -4.654787e-01 -2.096663e-01 5.094668e-01 2.101550e-01 -3.058262e-01 9.131791e-02 -3.124892e-01
<VARIANCE> 39
 5.335742e+00 1.322052e+01 1.317390e+01 1.379061e+01 1.880714e+01 1.805442e+01 1.841058e+01 4.095074e+01 1.947115e+01 1.848456e+01 1.478671e+01 1.934789e+01 7.312271e+00 2.314909e-01 1.182391e+00 1.039016e+00 1.373948e+00 1.106043e+00 2.019377e+00 2.336785e+00 2.286928e+00 3.496264e+00 1.578833e+00 1.749960e+00 1.123906e+00 7.125024e-01 6.235916e-02 8.884306e-02 1.607202e-01 1.560735e-01 1.643012e-01 4.996176e-01 3.177962e-01 8.297002e-01 4.120302e-01 4.075687e-01 2.466756e-01 2.807489e-01 7.410420e-02
<GCONST> 9.093527e+01
<STATE> 4
<MEAN> 39
 8.061033e+00 -3.274133e+00 -9.019131e+00 -2.590097e-01 6.095561e-01 -7.846309e+00 -6.286096e+00 1.037009e+00 -6.009251e-01 -1.797381e+00 -5.648258e+00 -1.807357e+00 4.899518e+00 3.272171e-01 5.893024e-01 -5.349569e-01 -9.315378e-01 3.498293e-01 8.935552e-01 -7.293831e-01 -9.608450e-01 7.517191e-01 9.638668e-01 1.324287e-01 -1.897164e-02 -6.880971e-01 -2.102524e-01 1.358539e-01 3.591140e-01 -1.271493e-01 -3.129373e-01 3.259802e-01 4.041092e-01 -3.357492e-01 -4.288734e-01 -4.291237e-02 4.849576e-01 3.611883e-02 -9.856714e-02
<VARIANCE> 39
 7.099371e+00 1.141673e+01 1.552670e+01 1.468948e+01 1.446436e+01 1.995289e+01 1.841058e+01 2.284425e+01 1.625707e+01 1.919509e+01 1.519434e+01 1.468382e+01 7.312271e+00 2.403644e-01 5.182384e-01 7.926979e-01 7.497303e-01 9.096583e-01 1.603855e+00 1.537043e+00 2.002336e+00 2.222439e+00 1.289237e+00 2.445559e+00 1.289979e+00 4.194408e-01 3.545529e-02 7.230995e-02 1.255103e-01 1.513233e-01 1.643012e-01 2.994185e-01 2.258805e-01 4.793041e-01 2.960081e-01 2.934709e-01 2.827111e-01 2.137272e-01 2.351957e-02
<GCONST> 8.241566e+01
<TRANSP> 5
 0.000000e+00 1.000000e+00 0.000000e+00 0.000000e+00 0.000000e+00
 0.000000e+00 9.195796e-01 8.042041e-02 0.000000e+00 0.000000e+00
 0.000000e+00 0.000000e+00 7.243844e-01 2.756156e-01 0.000000e+00
 0.000000e+00 0.000000e+00 0.000000e+00 6.422234e-01 3.577767e-01
 0.000000e+00 0.000000e+00 0.000000e+00 0.000000e+00 0.000000e+00
<ENDHMM>
~h "k"
<BEGINHMM>
<NUMSTATES> 5
<STATE> 2
<MEAN> 39
 -2.239494e+00 1.122581e+00 2.187053e+00 1.583244e+00 1.605110e+00 3.733006e+00 3.735269e+00 2.660520e+00 1.940637e+00 2.181305e+00 1.558445e+00 1.007123e+00 -5.027658e+00 -1.689822e-01 -1.116811e+00 -6.868501e-02 2.270240e-01 -3.139893e-01 -2.178074e-01 1.048099e-01 -2.639934e-02 -1.659633e-01 -2.059952e-01 1.854669e-02 -6.299054e-02 1.136551e+00 1.721737e-01 -2.830862e-01 -2.602436e-01 -2.422092e-01 -2.539729e-01 -3.453254e-01 -2.311692e-01 -2.214509e-01 -2.287272e-01 -2.709854e-01 -1.603655e-01 -9.459349e-02 7.080647e-01
<VARIANCE> 39
 7.376714e+00 1.243808e+01 1.282906e+01 1.777013e+01 1.708838e+01 2.117305e+01 1.915080e+01 1.858394e+01 1.663104e+01 1.539162e+01 1.478671e+01 1.378418e+01 1.087881e+01 1.074920e+00 2.957206e+00 1.893258e+00 2.691152e+00 2.422652e+00 3.044832e+00 2.585783e+00 2.561765e+00 2.307544e+00 2.026112e+00 1.721483e+00 1.524895e+00 3.747539e+00 1.910070e-01 3.949327e-01 3.399979e-01 4.715482e-01 3.683271e-01 4.603346e-01 4.507240e-01 4.494388e-01 4.068330e-01 3.752813e-01 3.439865e-01 3.084095e-01 3.592913e-01
<GCONST> 1.042099e+02
<STATE> 3
<MEAN> 39
 -1.689643e+00 -5.863431e+00 2.531723e-01 1.623815e+00 -1.932244e+00 1.633538e-01 3.003887e+00 7.529156e-01 -5.783554e-01 -4.206162e-01 7.193954e-01 2.290423e-01 4.300822e+00 1.084004e+00 -6.475859e-01 -1.435057e+00 -1.055366e+00 -7.998567e-01 -1.229386e+00 -8.522744e-01 -8.733416e-01 -9.762683e-01 -1.063653e+00 -6.431549e-01 -3.436465e-01 2.248045e+00 2.874497e-01 6.160986e-01 -2.468371e-01 -3.511707e-01 2.180850e-01 2.013687e-02 -3.014708e-01 -7.046773e-02 4.483771e-02 -2.264574e-02 -1.193748e-01 -7.231952e-02 -3.793730e-01
<VARIANCE> 39
 1.511602e+01 3.226648e+01 2.893079e+01 4.039122e+01 2.961156e+01 3.673858e+01 2.806958e+01 3.194216e+01 2.780686e+01 2.142672e+01 2.032802e+01 1.739491e+01 1.976754e+01 1.689771e+00 3.832401e+00 3.359995e+00 4.244538e+00 2.979165e+00 3.775453e+00 3.103278e+00 3.501676e+00 2.920427e+00 2.364580e+00 2.506193e+00 2.201297e+00 3.060132e+00 2.946025e-01 6.116342e-01 6.431248e-01 6.838663e-01 5.492458e-01 7.515910e-01 5.949645e-01 6.576403e-01 5.851783e-01 5.006549e-01 4.673057e-01 4.255340e-01 3.716549e-01
<GCONST> 1.198624e+02
<STATE> 4
<MEAN> 39
 2.042791e+00 -3.739638e+00 -3.604955e+00 -3.992448e+00 -2.403595e+00 -1.927910e+00 -1.390250e+00 -2.089895e+00 -2.304260e+00 -3.269830e+00 -1.439987e+00 -1.397377e+00 7.635164e+00 5.233558e-01 1.193996e-01 -6.709671e-01 -5.786731e-01 7.364342e-02 -4.480067e-01 -7.797977e-01 -3.051907e-01 -1.591338e-01 -3.298175e-01 -3.040207e-01 -3.306424e-01 7.394236e-01 -2.947983e-01 1.211161e-01 4.373328e-01 4.124332e-01 1.980449e-01 1.752574e-01 2.019177e-01 2.155135e-01 2.322068e-01 3.030343e-01 1.961941e-01 1.206444e-01 -5.061373e-01
<VARIANCE> 39
 1.359836e+01 3.258261e+01 2.723716e+01 3.865832e+01 2.734620e+01 3.524181e+01 2.902469e+01 3.497291e+01 2.714273e+01 2.226690e+01 1.833263e+01 1.672663e+01 3.521735e+01 1.578984e+00 2.387691e+00 3.280743e+00 3.372325e+00 2.186476e+00 3.394355e+00 2.872847e+00 2.611841e+00 2.300073e+00 2.456342e+00 2.109986e+00 1.936058e+00 2.105142e+00 2.244907e-01 4.553772e-01 5.847788e-01 5.591302e-01 4.071751e-01 5.726376e-01 4.532859e-01 5.284999e-01 4.779935e-01 4.420900e-01 3.707204e-01 3.537475e-01 3.445133e-01
<GCONST> 1.149142e+02
<TRANSP> 5
 0.000000e+00 1.000000e+00 0.000000e+00 0.000000e+00 0.000000e+00
 0.000000e+00 6.873240e-01 3.126759e-01 0.000000e+00 0.000000e+00
 0.000000e+00 0.000000e+00 5.515518e-01 4.484482e-01 0.000000e+00
 0.000000e+00 0.000000e+00 0.000000e+00 5.270512e-01 4.729488e-01
 0.000000e+00 0.000000e+00 0.000000e+00 0.000000e+00 0.000000e+00
<ENDHMM>
~h "l"
<BEGINHMM>
<NUMSTATES> 5
<STATE> 2
<MEAN> 39
 3.100213e+00 -2.580437e-01 -6.301016e-01 -3.190038e+00 -6.131058e+00 -4.994685e+00 -1.042397e+00 -2.522473e+00 -2.013778e+00 -1.729093e+00 -1.573517e+00 -1.370360e+00 5.461565e+00 -9.484248e-02 -7.638934e-01 -7.366580e-01 -3.679571e-01 1.722523e-02 5.374673e-01 1.428787e-01 -7.629017e-02 -1.225893e-01 -2.870884e-01 -2.105362e-01 -1.650215e-01 1.023217e+00 -1.119828e-01 -1.051474e-01 -1.162994e-02 2.260612e-02 2.483874e-01 1.692334e-01 -1.147088e-02 5.532086e-02 8.536843e-02 -6.697769e-02 1.392089e-02 1.903452e-02 3.252275e-03
<VARIANCE> 39
 7.694208e+00 2.839502e+01 2.979431e+01 3.535982e+01 2.942849e+01 3.908986e+01 3.374719e+01 3.566098e+01 3.130134e+01 3.103304e+01 2.435658e+01 2.253253e+01 1.935691e+01 8.549459e-01 2.089942e+00 2.724201e+00 3.277843e+00 3.470553e+00 4.256309e+00 3.351053e+00 3.886230e+00 2.948300e+00 2.829620e+00 2.740105e+00 1.960959e+00 1.386256e+00 1.280979e-01 3.542703e-01 4.307156e-01 5.279799e-01 5.255986e-01 6.263340e-01 5.637030e-01 6.929075e-01 5.206311e-01 4.932748e-01 4.593324e-01 3.484063e-01 1.934354e-01
<GCONST> 1.150133e+02
<STATE> 3
<MEAN> 39
 1.820993e+00 -2.675774e+00 -1.886575e+00 -3.658107e+00 -3.312204e+00 -1.325153e+00 -1.853745e+00 -3.322893e+00 -1.284062e+00 -3.123542e+00 -1.711334e+00 -9.843441e-01 7.040555e+00 -4.147774e-01 -2.647770e-01 5.358452e-02 -4.455077e-02 8.861323e-01 3.222952e-01 -3.531786e-01 2.362899e-01 2.293172e-01 -2.031291e-01 9.641223e-02 -1.401542e-02 7.871620e-02 4.883086e-02 1.976014e-01 4.090589e-02 7.254690e-02 -3.648179e-02 -2.480074e-01 3.525597e-02 7.104392e-02 5.713300e-02 1.280915e-01 2.438569e-02 8.827673e-03 -2.117076e-01
<VARIANCE> 39
 6.804209e+00 3.052962e+01 2.283625e+01 5.774747e+01 2.600713e+01 2.293702e+01 3.920556e+01 2.948830e+01 3.014545e+01 3.115313e+01 2.509524e+01 2.492628e+01 2.872823e+01 6.093114e-01 1.731479e+00 2.278011e+00 3.015186e+00 1.670911e+00 2.310540e+00 3.072577e+00 3.113776e+00 2.618860e+00 2.302446e+00 1.924688e+00 1.791769e+00 1.313535e+00 9.127536e-02 2.830699e-01 2.988779e-01 4.154446e-01 3.253465e-01 4.307944e-01 4.698012e-01 4.348478e-01 4.467516e-01 4.042506e-01 4.126991e-01 2.893679e-01 1.815977e-01
<GCONST> 1.083426e+02
<STATE> 4
<MEAN> 39
 2.106497e+00 -3.238875e+00 -2.129264e+00 -2.767602e+00 -2.152622e+00 -1.897260e+00 -2.587996e+00 -4.155091e+00 -2.057796e+00 -3.492426e+00 -1.109086e+00 -9.296168e-01 7.087084e+00 -6.656054e-03 2.995233e-01 1.546614e-01 3.093576e-02 1.640860e-01 -3.871488e-01 -9.324989e-02 1.365639e-01 5.253181e-02 1.499200e-01 -5.136491e-02 4.800914e-02 -3.122227e-01 5.413324e-02 1.105949e-01 2.391454e-02 -2.846951e-02 -9.641334e-02 -6.956771e-02 6.588615e-03 6.031045e-02 -8.218782e-03 4.035062e-02 -3.237703e-02 1.006838e-02 -8.653804e-02
<VARIANCE> 39
 7.383647e+00 3.474157e+01 2.295450e+01 3.220608e+01 2.388725e+01 3.576939e+01 3.729890e+01 2.807202e+01 1.985965e+01 2.391696e+01 1.913371e+01 1.480849e+01 2.333749e+01 4.646026e-01 1.797906e+00 1.345811e+00 1.472805e+00 1.342998e+00 2.274902e+00 1.739214e+00 1.684208e+00 1.560825e+00 1.323513e+00 1.160039e+00 1.009426e+00 8.845407e-01 5.537679e-02 2.587032e-01 1.854279e-01 2.218717e-01 2.060072e-01 3.360530e-01 2.844117e-01 2.785814e-01 2.958553e-01 2.561753e-01 2.048913e-01 1.761761e-01 1.372895e-01
<GCONST> 9.542159e+01
<TRANSP> 5
 0.000000e+00 1.000000e+00 0.000000e+00 0.000000e+00 0.000000e+00
 0.000000e+00 6.995414e-01 3.004585e-01 0.000000e+00 0.000000e+00
 0.000000e+00 0.000000e+00 4.438793e-01 5.561207e-01 0.000000e+00
 0.000000e+00 0.000000e+00 0.000000e+00 6.678609e-01 3.321391e-01
 0.000000e+00 0.000000e+00 0.000000e+00 0.000000e+00 0.000000e+00
<ENDHMM>
~h "m"
<BEGINHMM>
<NUMSTATES> 5
<STATE> 2
<MEAN> 39
 4.345811e+00 2.366121e+00 3.126950e+00 -7.114707e-01 -3.851534e+00 -9.725766e+00 -5.545259e+00 -3.243847e+00 -3.610764e+00 -1.146316e+00 -1.026382e+00 1.334269e+00 9.892800e-01 -2.450805e-02 3.923735e-01 4.176435e-01 2.759037e-02 -3.381417e-02 -2.684472e-01 -2.653705e-01 -1.879111e-01 -6.729955e-02 2.444930e-02 5.102520e-02 1.574873e-01 -2.227713e-01 -9.875607e-02 -2.226753e-01 -2.419871e-01 -9.173821e-02 1.175613e-01 4.643223e-01 1.644806e-01 6.532519e-02 6.644876e-02 -3.361663e-02 -2.255520e-02 -9.892386e-02 1.521691e-01
<VARIANCE> 39
 5.147074e+00 9.603453e+00 1.193109e+01 2.204903e+01 2.299184e+01 3.471903e+01 2.264709e+01 3.233931e+01 2.261479e+01 2.342560e+01 2.666247e+01 2.928034e+01 8.179440e+00 4.295402e-01 7.896450e-01 1.069974e+00 1.078801e+00 1.221546e+00 3.399378e+00 1.814551e+00 1.967018e+00 1.700999e+00 1.555880e+00 1.523570e+00 1.422526e+00 8.904502e-01 5.855590e-02 1.279410e-01 1.992687e-01 2.009696e-01 2.304795e-01 3.774734e-01 3.208938e-01 3.897574e-01 3.255671e-01 2.929430e-01 3.103424e-01 2.669876e-01 8.785255e-02
<GCONST> 9.294714e+01
<STATE> 3
<MEAN> 39
 3.623083e+00 8.495527e-01 2.161768e+00 -1.344231e+00 -3.012315e+00 -7.603941e+00 -4.889089e+00 -3.543190e+00 -3.513804e+00 -1.790908e+00 -1.927331e+00 -1.449719e-01 2.856811e+00 -3.705434e-01 -3.697598e-01 -7.104490e-01 -4.568588e-01 3.157250e-01 1.003326e+00 2.731436e-01 1.300524e-01 2.294454e-01 -2.088926e-01 -2.115416e-01 -3.892915e-01 7.423051e-01 -2.170468e-01 -2.353720e-02 -2.658983e-01 6.073070e-02 2.552140e-01 4.438090e-01 3.141173e-01 2.552654e-01 1.914269e-01 1.112770e-01 1.004420e-01 6.235121e-03 -1.146744e-01
<VARIANCE> 39
 7.051693e+00 2.202473e+01 2.257279e+01 3.003961e+01 2.374139e+01 5.274957e+01 3.042866e+01 3.174818e+01 2.404968e+01 2.508476e+01 2.401359e+01 2.625991e+01 2.064719e+01 1.162131e+00 2.279986e+00 2.901980e+00 2.778545e+00 2.512958e+00 5.465019e+00 3.377151e+00 2.956030e+00 2.632226e+00 2.356774e+00 2.154227e+00 2.018484e+00 2.672163e+00 1.585994e-01 4.542184e-01 4.935891e-01 4.390269e-01 3.967583e-01 1.008467e+00 6.524321e-01 5.588697e-01 4.821715e-01 4.689276e-01 4.270920e-01 3.934674e-01 2.948568e-01
<GCONST> 1.148085e+02
<STATE> 4
<MEAN> 39
 1.335993e+00 2.148392e+00 1.751883e+00 -1.750669e-01 6.448042e-02 -2.407252e+00 -2.435392e+00 -2.323161e+00 -2.234523e+00 -1.788072e+00 -1.706435e+00 -4.902252e-01 4.565293e-01 -7.636532e-01 -5.034310e-01 -1.039706e+00 1.646402e-02 8.009157e-01 1.533418e+00 1.118560e+00 1.035778e+00 6.550969e-01 3.170859e-01 1.488281e-01 -5.487637e-02 -1.088212e-01 6.133248e-02 -1.272758e-01 -7.855223e-02 4.070420e-02 -1.242148e-01 -1.549520e-01 -5.392216e-02 7.503838e-02 1.129650e-01 1.650307e-01 1.404692e-01 8.969850e-02 -1.574235e-03
<VARIANCE> 39
 9.118589e+00 1.523213e+01 2.944095e+01 3.749993e+01 1.965587e+01 3.364102e+01 2.341466e+01 2.220171e+01 1.938574e+01 2.121506e+01 1.929285e+01 2.060901e+01 3.017609e+01 1.156353e+00 2.083415e+00 2.870173e+00 2.441105e+00 2.074602e+00 3.734691e+00 3.307556e+00 2.792649e+00 2.477878e+00 2.568397e+00 2.567796e+00 2.088687e+00 1.597349e+00 1.051493e-01 1.803333e-01 3.189444e-01 3.637585e-01 3.190052e-01 4.455928e-01 4.014993e-01 3.610450e-01 3.548359e-01 3.598609e-01 3.344329e-01 2.737775e-01 1.284964e-01
<GCONST> 1.063701e+02
<TRANSP> 5
 0.000000e+00 1.000000e+00 0.000000e+00 0.000000e+00 0.000000e+00
 0.000000e+00 7.547219e-01 2.452781e-01 0.000000e+00 0.000000e+00
 0.000000e+00 0.000000e+00 5.519260e-01 4.480740e-01 0.000000e+00
 0.000000e+00 0.000000e+00 0.000000e+00 4.269032e-01 5.730968e-01
 0.000000e+00 0.000000e+00 0.000000e+00 0.000000e+00 0.000000e+00
<ENDHMM>
~h "n"
<BEGINHMM>
<NUMSTATES> 5
<STATE> 2
<MEAN> 39
 4.887690e+00 2.970418e+00 2.027784e+00 -4.237666e+00 -4.594173e+00 -8.156494e+00 -3.083436e+00 -4.477024e+00 -3.762846e+00 -2.213081e+00 -2.610157e+00 -7.709441e-01 2.476599e+00 -2.154777e-01 -3.415151e-02 -1.495747e-02 4.014284e-01 1.671641e-01 2.812260e-01 -1.116382e-01 -4.799401e-02 3.470319e-02 -3.897488e-02 8.834367e-02 1.438821e-02 -1.369699e-01 -2.006365e-01 -2.389686e-01 -1.800598e-01 1.819523e-01 1.607299e-01 3.935401e-01 3.983723e-02 1.291238e-01 9.227651e-02 1.161956e-02 9.535690e-02 -1.934474e-03 7.270929e-02
<VARIANCE> 39
 4.891567e+00 1.316731e+01 1.632570e+01 2.296517e+01 1.693063e+01 3.610762e+01 2.984872e+01 2.841757e+01 2.026876e+01 1.992153e+01 2.105591e+01 2.398149e+01 1.148651e+01 5.597278e-01 1.383631e+00 1.379363e+00 1.549075e+00 1.307683e+00 2.738020e+00 1.975289e+00 1.839506e+00 1.474172e+00 1.560306e+00 1.488080e+00 1.388825e+00 1.215558e+00 8.628003e-02 2.053947e-01 1.972633e-01 2.320542e-01 2.475607e-01 4.265848e-01 4.273321e-01 3.551849e-01 3.025086e-01 3.053269e-01 2.897148e-01 2.523187e-01 1.087594e-01
<GCONST> 9.595109e+01
<STATE> 3
<MEAN> 39
 1.649273e+00 1.403758e+00 1.902314e+00 1.695855e-01 -1.372149e+00 -2.327937e+00 -2.200125e+00 -2.880313e+00 -2.575008e+00 -1.505797e+00 -1.084395e+00 -4.474967e-01 4.214038e-01 -9.484921e-01 -7.704533e-01 -4.804790e-01 6.392448e-01 9.274318e-01 1.560721e+00 8.014400e-01 1.088217e+00 5.639638e-01 3.416610e-01 4.555242e-01 1.483315e-01 -4.414698e-01 6.567389e-02 8.599695e-03 -9.093536e-02 -2.132046e-01 -6.137560e-02 -1.349457e-01 1.010619e-01 1.391194e-01 1.181603e-01 1.147750e-01 8.100120e-03 4.983705e-02 1.139854e-02
<VARIANCE> 39
 8.769335e+00 2.286937e+01 2.374017e+01 2.421075e+01 2.175693e+01 3.242356e+01 3.399155e+01 2.617871e+01 2.189667e+01 2.316557e+01 2.106748e+01 2.284093e+01 3.495991e+01 7.613846e-01 1.033671e+00 1.552181e+00 1.632736e+00 1.720139e+00 2.812965e+00 3.370825e+00 2.653772e+00 2.383826e+00 2.252046e+00 2.288378e+00 2.071343e+00 1.056680e+00 1.143642e-01 2.368501e-01 2.064477e-01 2.349340e-01 3.039363e-01 4.563314e-01 5.236774e-01 4.247721e-01 3.970805e-01 3.722260e-01 3.629318e-01 3.133047e-01 1.522417e-01
<GCONST> 1.043098e+02
<STATE> 4
<MEAN> 39
 2.027908e+00 8.918514e-01 -4.067338e-01 -1.843597e+00 -2.584410e+00 -2.900198e+00 -3.141134e+00 -2.179112e+00 -1.568429e+00 -1.490522e+00 -6.605543e-01 -3.134907e-01 1.914954e+00 -2.384289e-01 -5.144742e-02 -1.175431e-01 2.311195e-01 3.024151e-01 3.437314e-01 2.551711e-01 3.603905e-01 2.243364e-01 2.636106e-01 1.511191e-01 9.998359e-02 -3.002168e-01 3.315512e-02 5.292094e-02 4.306342e-02 -3.177259e-02 -4.811283e-02 -6.928966e-02 6.509243e-03 -7.678520e-02 -1.943149e-02 -5.947930e-03 -3.961880e-02 -1.656236e-02 2.004014e-02
<VARIANCE> 39
 9.606771e+00 2.291744e+01 2.878542e+01 2.485287e+01 2.077389e+01 3.336139e+01 3.253954e+01 2.620775e+01 1.901357e+01 2.147378e+01 1.991152e+01 2.610708e+01 3.368031e+01 4.576426e-01 5.338743e-01 8.105358e-01 8.936033e-01 1.017763e+00 1.473630e+00 1.774650e+00 1.556137e+00 1.362244e+00 1.310151e+00 1.236988e+00 1.167535e+00 3.107528e-01 6.073625e-02 1.162284e-01 1.373199e-01 1.653894e-01 1.885787e-01 2.697496e-01 2.953409e-01 2.768395e-01 2.713611e-01 2.435790e-01 2.165657e-01 2.151813e-01 1.258043e-01
<GCONST> 9.010728e+01
<TRANSP> 5
 0.000000e+00 1.000000e+00 0.000000e+00 0.000000e+00 0.000000e+00
 0.000000e+00 7.368285e-01 2.631715e-01 0.000000e+00 0.000000e+00
 0.000000e+00 0.000000e+00 4.856792e-01 5.143209e-01 0.000000e+00
 0.000000e+00 0.000000e+00 0.000000e+00 5.999686e-01 4.000314e-01
 0.000000e+00 0.000000e+00 0.000000e+00 0.000000e+00 0.000000e+00
<ENDHMM>
~h "p"
<BEGINHMM>
<NUMSTATES> 5
<STATE> 2
<MEAN> 39
 -2.103525e+00 7.123128e-01 2.024784e+00 1.576173e+00 1.678353e+00 3.300041e+00 3.380159e+00 2.540489e+00 1.682483e+00 1.343140e+00 1.374110e+00 7.197822e-01 -3.166523e+00 6.170705e-01 -6.811552e-01 -1.026243e+00 -5.088039e-01 -4.968243e-01 -5.825520e-01 -1.757309e-01 -1.534054e-01 -1.157383e-01 -4.972645e-01 -2.030005e-01 -2.580147e-01 1.838655e+00 4.478341e-01 -2.072346e-01 -5.442865e-01 -2.059625e-01 -2.230408e-01 -4.779299e-01 -3.826509e-01 -2.837882e-01 -2.444873e-01 -2.306918e-01 -2.376498e-01 -9.475680e-02 5.514532e-01
<VARIANCE> 39
 5.913899e+00 1.063266e+01 1.071409e+01 1.379061e+01 1.446436e+01 1.805442e+01 1.841058e+01 1.757509e+01 1.625707e+01 1.629642e+01 1.478671e+01 1.378418e+01 2.161119e+01 2.011449e+00 1.757437e+00 3.576541e+00 1.899380e+00 2.021808e+00 3.141105e+00 2.638431e+00 2.562624e+00 2.375721e+00 2.202340e+00 2.119707e+00 1.743704e+00 3.588704e+00 2.084818e-01 3.304262e-01 5.408807e-01 3.455934e-01 3.592396e-01 4.671119e-01 4.334794e-01 4.646874e-01 4.125026e-01 4.047837e-01 3.793383e-01 3.390637e-01 4.104393e-01
<GCONST> 1.048358e+02
<STATE> 3
<MEAN> 39
 5.168925e+00 -4.772363e+00 -9.261198e+00 -3.117801e+00 -2.189984e+00 -3.403871e+00 -1.362651e+00 -9.100179e-01 -1.273483e+00 -2.594707e+00 -2.352499e+00 -1.505766e+00 9.058855e+00 7.637497e-01 -6.916861e-01 -1.752852e+00 -8.792370e-01 -3.931233e-01 -9.571053e-01 -8.928336e-01 -6.965235e-01 -4.501050e-01 -3.861125e-01 -7.632155e-01 -4.474026e-01 1.450425e+00 -5.358520e-01 4.428667e-01 8.313238e-01 2.222328e-01 2.623204e-01 3.869310e-01 1.887803e-01 7.900631e-02 1.424397e-01 2.370116e-01 2.024698e-01 1.033975e-01 -7.652036e-01
<VARIANCE> 39
 1.311647e+01 2.435416e+01 5.156705e+01 3.699171e+01 2.599464e+01 2.531759e+01 2.774228e+01 2.622250e+01 2.463884e+01 2.250237e+01 2.215062e+01 1.954566e+01 1.555030e+01 2.252794e+00 3.246579e+00 6.825139e+00 3.302553e+00 2.866796e+00 3.406487e+00 3.009100e+00 2.913497e+00 2.951293e+00 2.975004e+00 2.346134e+00 2.099614e+00 2.942382e+00 2.164147e-01 3.652281e-01 7.857400e-01 4.359365e-01 4.450373e-01 5.236487e-01 4.872597e-01 4.898796e-01 5.328544e-01 4.699407e-01 4.385024e-01 3.954835e-01 2.533318e-01
<GCONST> 1.166021e+02
<STATE> 4
<MEAN> 39
 4.835762e+00 -4.055030e+00 -8.352927e+00 -2.844570e+00 -2.760147e+00 -4.728740e+00 -3.048682e+00 -3.111439e+00 -2.422386e+00 -2.630871e+00 -2.825131e+00 -1.523543e+00 8.577980e+00 -1.175186e-01 3.359527e-01 5.288466e-01 -9.838656e-02 -7.811552e-02 -8.560707e-02 -1.324073e-01 -1.385058e-01 -8.035327e-02 4.971541e-02 4.355866e-02 1.137746e-01 -2.022989e-01 -4.245926e-03 5.782273e-02 9.644465e-02 3.460664e-02 5.008662e-03 3.541498e-02 4.050450e-02 6.768984e-02 2.778556e-02 3.876005e-03 5.195904e-02 2.232044e-02 -8.866860e-02
<VARIANCE> 39
 8.989002e+00 2.765322e+01 4.637164e+01 3.733588e+01 3.268148e+01 2.600433e+01 2.536249e+01 2.374858e+01 2.513629e+01 2.702435e+01 2.019022e+01 2.069021e+01 1.745685e+01 1.783983e-01 6.096056e-01 9.173035e-01 8.380064e-01 9.096583e-01 1.161551e+00 1.348902e+00 1.270218e+00 1.350985e+00 1.179817e+00 1.160039e+00 9.744113e-01 1.770012e-01 4.068678e-02 9.186833e-02 1.925262e-01 1.517466e-01 1.643012e-01 2.258437e-01 2.258805e-01 2.527760e-01 2.460654e-01 2.266566e-01 2.048913e-01 1.761761e-01 4.315121e-02
<GCONST> 8.554969e+01
<TRANSP> 5
 0.000000e+00 1.000000e+00 0.000000e+00 0.000000e+00 0.000000e+00
 0.000000e+00 7.968326e-01 2.031674e-01 0.000000e+00 0.000000e+00
 0.000000e+00 0.000000e+00 7.293773e-01 2.706227e-01 0.000000e+00
 0.000000e+00 0.000000e+00 0.000000e+00 8.117905e-01 1.882094e-01
 0.000000e+00 0.000000e+00 0.000000e+00 0.000000e+00 0.000000e+00
<ENDHMM>
~h "r"
<BEGINHMM>
<NUMSTATES> 5
<STATE> 2
<MEAN> 39
 9.393488e-01 -1.790778e+00 4.518779e-01 -3.345376e+00 -3.559251e+00 -8.341995e-01 -5.111930e-01 -3.006909e+00 -4.379135e-01 -2.658526e+00 -9.219559e-01 -9.640682e-01 5.775309e+00 2.560637e-01 -4.798648e-01 -3.876214e-01 -6.121999e-01 -3.021303e-01 -2.559825e-01 -7.301763e-02 -1.171057e-01 -3.701412e-02 -4.139340e-01 2.708814e-02 -2.291263e-01 8.172866e-01 4.408751e-02 -1.397821e-01 -2.057725e-01 -2.387054e-02 9.352175e-02 -1.153075e-01 -3.446758e-02 7.068388e-02 -8.787403e-02 -1.086817e-02 -3.813009e-03 -6.143326e-02 1.080775e-01
<VARIANCE> 39
 1.406325e+01 2.810690e+01 2.143577e+01 4.025103e+01 2.803173e+01 3.131683e+01 3.474446e+01 2.744311e+01 2.390603e+01 2.230669e+01 2.055996e+01 1.940687e+01 2.968826e+01 1.713216e+00 2.533490e+00 2.351963e+00 4.189809e+00 2.575099e+00 3.113513e+00 3.086032e+00 2.995367e+00 2.679336e+00 2.351698e+00 2.207884e+00 2.021246e+00 2.916174e+00 3.370287e-01 4.662069e-01 4.595912e-01 7.946509e-01 5.035059e-01 5.742461e-01 5.706881e-01 5.764892e-01 5.327345e-01 4.499190e-01 4.432526e-01 3.962623e-01 5.216944e-01
<GCONST> 1.171526e+02
<STATE> 3
<MEAN> 39
 2.239758e+00 -6.251782e+00 -2.920058e+00 -4.652502e+00 -3.391560e+00 -2.942773e+00 -6.764266e-01 -3.351167e+00 -2.413129e+00 -4.713800e+00 -3.047065e-01 -2.567538e+00 1.045993e+01 7.788108e-02 -3.197211e-02 -4.619412e-01 2.680493e-01 4.325829e-01 -6.720280e-01 -5.118082e-01 3.160602e-01 -3.269390e-01 -5.012528e-02 -9.575808e-02 -3.025929e-02 7.293524e-02 -8.957005e-02 3.658029e-01 1.798438e-01 2.597364e-01 7.270041e-02 -3.713977e-02 -9.190215e-02 6.192116e-02 8.754224e-02 2.299874e-01 -1.137116e-01 1.525238e-01 -3.558972e-01
<VARIANCE> 39
 8.955899e+00 3.049175e+01 1.912152e+01 3.921636e+01 2.318216e+01 3.396353e+01 3.748708e+01 3.124656e+01 2.363660e+01 2.199877e+01 2.116506e+01 1.977200e+01 1.865614e+01 5.889105e-01 1.868603e+00 2.067361e+00 2.348129e+00 1.763055e+00 2.747426e+00 2.788490e+00 2.597508e+00 2.157299e+00 2.047282e+00 2.078624e+00 1.720138e+00 1.255029e+00 1.107563e-01 1.959095e-01 2.739566e-01 4.326062e-01 2.767536e-01 4.507519e-01 4.164771e-01 4.690054e-01 3.819348e-01 3.674987e-01 3.531919e-01 3.108474e-01 1.360581e-01
<GCONST> 1.052329e+02
<STATE> 4
<MEAN> 39
 2.205003e+00 -6.420318e+00 -3.729832e+00 -2.425595e+00 -2.361327e+00 -3.729009e+00 -2.532934e+00 -3.714305e+00 -3.018389e+00 -3.620476e+00 -1.178967e+00 -1.717606e+00 9.940989e+00 7.731527e-02 4.195001e-01 -1.086456e-02 2.644229e-01 1.558022e-01 -3.045247e-01 -3.277163e-01 1.925203e-01 -1.596433e-02 2.083383e-01 -1.679384e-01 1.002148e-01 -3.567193e-01 8.913210e-03 1.716336e-01 1.021005e-01 -3.155863e-02 -6.168337e-02 4.276917e-02 5.062865e-02 -5.043268e-03 7.728481e-02 4.231996e-02 -1.576547e-02 -8.416384e-03 -1.510439e-01
<VARIANCE> 39
 8.195792e+00 2.395270e+01 2.341838e+01 3.492561e+01 2.147221e+01 3.176257e+01 3.809215e+01 3.033017e+01 2.363153e+01 1.925469e+01 1.717095e+01 1.688944e+01 1.972975e+01 2.661717e-01 9.004111e-01 1.202751e+00 1.380472e+00 1.045271e+00 1.527384e+00 1.505773e+00 1.496311e+00 1.350985e+00 1.181013e+00 1.166056e+00 9.989374e-01 4.503503e-01 4.679065e-02 1.153983e-01 1.478663e-01 2.119193e-01 1.643012e-01 2.347481e-01 2.370045e-01 2.748139e-01 2.460654e-01 2.266566e-01 2.048913e-01 1.761761e-01 6.636483e-02
<GCONST> 8.860223e+01
<TRANSP> 5
 0.000000e+00 1.000000e+00 0.000000e+00 0.000000e+00 0.000000e+00
 0.000000e+00 6.933306e-01 3.066694e-01 0.000000e+00 0.000000e+00
 0.000000e+00 0.000000e+00 5.393399e-01 4.606601e-01 0.000000e+00
 0.000000e+00 0.000000e+00 0.000000e+00 7.095733e-01 2.904267e-01
 0.000000e+00 0.000000e+00 0.000000e+00 0.000000e+00 0.000000e+00
<ENDHMM>
~h "s"
<BEGINHMM>
<NUMSTATES> 5
<STATE> 2
<MEAN> 39
 -6.820929e+00 1.441651e+00 6.993787e-01 3.216466e+00 1.901984e+00 3.380808e+00 2.697374e+00 2.357878e+00 2.236073e+00 1.109756e+00 1.311500e+00 7.789077e-01 -7.478462e-01 3.765011e-01 -3.520446e-01 -1.930215e-01 -3.963680e-01 -3.514007e-01 -1.509364e-01 -1.072835e-01 -2.745163e-01 -1.567125e-01 -1.217615e-01 -4.800521e-02 4.291401e-02 3.846049e-01 4.247683e-01 -1.651912e-01 -1.230100e-01 -2.605490e-01 -2.622553e-01 -2.221191e-01 -2.184084e-01 -2.630520e-01 -1.826722e-01 -1.437830e-01 -1.183516e-01 -5.838235e-02 2.719748e-01
<VARIANCE> 39
 9.933043e+00 9.540231e+00 1.256602e+01 1.379223e+01 1.685444e+01 1.873487e+01 1.841058e+01 1.856566e+01 1.688669e+01 1.581882e+01 1.478671e+01 1.378418e+01 7.465644e+00 2.671592e+00 1.206089e+00 1.213704e+00 2.161849e+00 2.318376e+00 2.278738e+00 2.426824e+00 2.597581e+00 2.195983e+00 1.898705e+00 1.917001e+00 1.504362e+00 1.384449e+00 2.170997e-01 2.327095e-01 2.356566e-01 3.123841e-01 3.601242e-01 3.749458e-01 4.283957e-01 4.272771e-01 3.758895e-01 3.723301e-01 3.509918e-01 2.841474e-01 2.167604e-01
<GCONST> 9.924560e+01
<STATE> 3
<MEAN> 39
 2.655848e+00 -4.339094e+00 -3.417826e+00 -3.531869e+00 -5.165223e+00 -1.445014e+00 -1.478856e+00 -3.959946e+00 -2.415087e+00 -2.460814e+00 -1.263418e+00 -1.627863e-01 7.518266e+00 1.081403e+00 -1.521949e+00 -9.781894e-01 -8.406345e-01 -6.994071e-01 -6.351596e-01 -9.269862e-01 -9.502723e-01 -6.950504e-01 -6.608739e-01 -4.053501e-01 -2.707372e-01 2.058575e+00 -7.151764e-01 3.036166e-01 2.997563e-01 5.326550e-01 6.415699e-01 2.621616e-01 1.097360e-01 4.398642e-01 3.034085e-01 2.266435e-01 2.041672e-01 8.176128e-03 -4.443346e-01
<VARIANCE> 39
 1.280036e+01 2.933326e+01 1.718325e+01 2.637789e+01 2.126611e+01 2.862107e+01 3.641108e+01 2.806475e+01 2.449669e+01 2.294357e+01 2.892931e+01 1.801024e+01 2.769704e+01 2.931068e+00 2.526792e+00 2.155346e+00 3.191751e+00 3.466768e+00 3.198229e+00 3.855787e+00 3.819855e+00 2.838257e+00 2.934229e+00 2.792536e+00 1.952113e+00 2.636868e+00 2.502471e-01 3.837523e-01 3.188305e-01 3.739191e-01 3.888606e-01 4.666084e-01 5.723650e-01 5.268315e-01 4.464417e-01 4.576104e-01 5.298981e-01 3.416361e-01 3.723150e-01
<GCONST> 1.151219e+02
<STATE> 4
<MEAN> 39
 1.183504e+00 -7.133421e+00 -2.908149e+00 -1.614705e+00 -3.156501e+00 -1.416839e+00 -5.097323e+00 -4.665423e+00 -2.970319e+00 -2.735704e+00 -9.214290e-01 -8.603249e-01 1.008093e+01 -7.955201e-03 2.281934e-01 1.084352e-03 1.850117e-01 3.717952e-01 -2.669938e-01 -2.020717e-01 2.504184e-01 -2.735094e-02 8.540399e-03 2.429252e-02 -3.621222e-02 -1.663948e-01 2.848426e-02 2.407262e-01 3.929166e-02 -5.969825e-03 3.567676e-02 1.410242e-03 1.291062e-01 9.991679e-02 6.594601e-02 4.203605e-02 -2.182659e-02 3.032423e-02 -2.493241e-01
<VARIANCE> 39
 1.033973e+01 2.388411e+01 1.698514e+01 3.342062e+01 1.874996e+01 2.419857e+01 4.084079e+01 2.571164e+01 2.461516e+01 2.121955e+01 1.974424e+01 1.794811e+01 2.581058e+01 3.741628e-01 6.725302e-01 9.086572e-01 1.118773e+00 9.472605e-01 1.217233e+00 1.561022e+00 1.270218e+00 1.350985e+00 1.179817e+00 1.160039e+00 9.744113e-01 3.266566e-01 7.702655e-02 1.531921e-01 1.487834e-01 1.937171e-01 1.816957e-01 2.258437e-01 2.663862e-01 2.560646e-01 2.460654e-01 2.398716e-01 2.048913e-01 1.761761e-01 1.450895e-01
<GCONST> 8.896840e+01
<TRANSP> 5
 0.000000e+00 1.000000e+00 0.000000e+00 0.000000e+00 0.000000e+00
 0.000000e+00 8.587105e-01 1.412895e-01 0.000000e+00 0.000000e+00
 0.000000e+00 0.000000e+00 6.455355e-01 3.544645e-01 0.000000e+00
 0.000000e+00 0.000000e+00 0.000000e+00 6.917151e-01 3.082849e-01
 0.000000e+00 0.000000e+00 0.000000e+00 0.000000e+00 0.000000e+00
<ENDHMM>
~h "t"
<BEGINHMM>
<NUMSTATES> 5
<STATE> 2
<MEAN> 39
 -2.098970e+00 2.717085e-01 1.605632e+00 1.327348e+00 1.671922e+00 3.440157e+00 2.568702e+00 2.067143e+00 1.511894e+00 1.373057e+00 1.316112e+00 1.018267e+00 -2.795971e+00 -3.214256e-01 -4.624847e-01 -2.646880e-01 -1.038058e-01 -2.538018e-02 2.211999e-01 1.368343e-01 1.947712e-01 2.363595e-01 -1.779992e-01 1.105463e-01 -3.691234e-02 8.639141e-01 2.827483e-01 -1.492889e-01 -2.649743e-01 -4.136643e-01 -3.565203e-01 -3.027710e-01 -3.081679e-01 -3.332203e-01 -1.605996e-01 -2.477860e-01 -1.743904e-01 -1.102355e-01 6.193251e-01
<VARIANCE> 39
 9.199819e+00 1.274959e+01 1.604701e+01 1.968682e+01 2.000969e+01 2.342483e+01 2.303319e+01 2.484362e+01 1.983942e+01 1.882516e+01 1.652892e+01 1.378418e+01 2.444636e+01 1.100693e+00 1.293334e+00 1.683660e+00 2.558504e+00 2.652019e+00 2.819493e+00 3.209168e+00 3.026384e+00 2.195706e+00 2.430432e+00 2.064914e+00 1.658409e+00 5.075786e+00 1.824071e-01 2.751747e-01 3.067609e-01 3.813361e-01 4.227290e-01 4.534855e-01 5.216568e-01 5.384778e-01 4.524310e-01 4.040886e-01 3.823994e-01 3.038782e-01 4.940429e-01
<GCONST> 1.072577e+02
<STATE> 3
<MEAN> 39
 1.123534e+00 -3.044858e+00 -2.273961e+00 -3.321285e+00 -3.500498e+00 -4.814813e-01 -9.849382e-01 -2.584168e+00 -5.146801e-01 -2.374665e+00 -8.083673e-01 -5.883117e-01 6.998255e+00 4.624223e-01 2.615965e-02 -2.256128e-01 -5.269955e-01 -6.382586e-01 -5.050688e-01 -1.424259e-01 -4.932297e-01 -3.368525e-01 -2.219049e-01 -3.529280e-01 -2.423860e-01 3.926377e-01 -4.893054e-02 2.052179e-01 1.373069e-01 2.622892e-01 2.669599e-01 -2.121758e-02 8.948769e-02 1.895743e-01 1.760738e-03 1.827392e-01 3.454679e-02 5.414984e-02 -5.416925e-01
<VARIANCE> 39
 1.485184e+01 2.663686e+01 2.367405e+01 2.881685e+01 2.762274e+01 4.184564e+01 4.130548e+01 3.322018e+01 2.777381e+01 2.431012e+01 2.398415e+01 1.953425e+01 3.871379e+01 1.666038e+00 3.226669e+00 3.272276e+00 3.982893e+00 3.346187e+00 4.075488e+00 4.249035e+00 4.249322e+00 3.072387e+00 2.757744e+00 2.557664e+00 2.098059e+00 6.656254e+00 2.696453e-01 4.303392e-01 4.111404e-01 5.332220e-01 5.309567e-01 6.487577e-01 7.169241e-01 7.071082e-01 5.788826e-01 4.736175e-01 4.941681e-01 3.927822e-01 6.124196e-01
<GCONST> 1.214083e+02
<STATE> 4
<MEAN> 39
 -5.964163e-01 3.039567e-02 3.340404e-01 1.595969e-02 2.109869e-01 2.289781e+00 1.530628e+00 2.120724e-01 1.015810e+00 4.648386e-01 3.671388e-01 5.624595e-01 -1.826206e+00 -3.330274e-02 9.139868e-02 -1.082452e-02 2.113568e-01 2.852232e-01 -3.042374e-02 1.735270e-01 2.791784e-01 4.773885e-04 1.766492e-01 6.216827e-02 4.217931e-02 -3.883835e-01 3.901700e-02 -7.559121e-02 -2.245180e-03 -4.277422e-02 -7.316379e-02 -1.167528e-01 -7.419670e-02 -5.426168e-02 -5.603673e-02 -7.400828e-02 -1.220439e-03 -1.400948e-02 2.255825e-01
<VARIANCE> 39
 7.665170e+00 1.320675e+01 1.427171e+01 2.216772e+01 2.348693e+01 3.301643e+01 2.493216e+01 2.474082e+01 2.150645e+01 2.032120e+01 1.636061e+01 1.508466e+01 3.122399e+01 8.470744e-01 1.008780e+00 1.157928e+00 1.394062e+00 1.777635e+00 2.632483e+00 2.223764e+00 2.374329e+00 2.130742e+00 2.126712e+00 1.637151e+00 1.442983e+00 1.524093e+00 1.226410e-01 2.547365e-01 2.461755e-01 3.103885e-01 3.792426e-01 4.612530e-01 4.569920e-01 4.600537e-01 4.082849e-01 4.226113e-01 3.333309e-01 3.087166e-01 3.824605e-01
<GCONST> 1.021475e+02
<TRANSP> 5
 0.000000e+00 1.000000e+00 0.000000e+00 0.000000e+00 0.000000e+00
 0.000000e+00 6.641423e-01 3.358577e-01 0.000000e+00 0.000000e+00
 0.000000e+00 0.000000e+00 6.351066e-01 3.648934e-01 0.000000e+00
 0.000000e+00 0.000000e+00 0.000000e+00 5.946683e-01 4.053317e-01
 0.000000e+00 0.000000e+00 0.000000e+00 0.000000e+00 0.000000e+00
<ENDHMM>
~h "v"
<BEGINHMM>
<NUMSTATES> 5
<STATE> 2
<MEAN> 39
 3.919755e+00 -9.067664e+00 -7.085989e+00 1.037188e+00 -7.355112e-01 -4.354051e+00 -2.837731e+00 -1.626469e+00 -6.197859e+00 -4.066505e+00 -1.313064e+00 -7.709067e-01 1.104595e+01 -6.482965e-01 -6.463338e-01 1.102520e+00 6.124712e-01 -3.133948e-01 2.600116e-01 -6.672113e-02 -9.304771e-01 -2.669512e-01 2.733335e-01 5.066141e-01 -3.956193e-03 4.556204e-01 3.785846e-02 2.709303e-01 1.687976e-01 -1.547877e-01 -1.765366e-01 -8.298900e-03 -1.187546e-01 -8.960385e-02 2.455532e-01 1.319754e-01 -8.434653e-02 -9.465432e-02 -1.915233e-01
<VARIANCE> 39
 1.022777e+01 1.521334e+01 2.534686e+01 1.379061e+01 1.697910e+01 1.805442e+01 2.262046e+01 3.675205e+01 2.893871e+01 2.084873e+01 1.478671e+01 1.378418e+01 3.027442e+01 2.519009e-01 8.874704e-01 1.378361e+00 1.078332e+00 9.096583e-01 1.161551e+00 1.865210e+00 1.731151e+00 2.656103e+00 1.725670e+00 1.555949e+00 1.432107e+00 3.483787e-01 5.554489e-02 7.230995e-02 2.588942e-01 1.745205e-01 1.846726e-01 2.258437e-01 2.369615e-01 2.527760e-01 2.909730e-01 2.924494e-01 2.494586e-01 2.253139e-01 2.816068e-02
<GCONST> 8.803512e+01
<STATE> 3
<MEAN> 39
 1.841174e+00 -9.234238e+00 -1.868739e+00 -1.922950e-01 -3.083348e+00 -1.675754e+00 -4.808076e+00 -8.744147e+00 -2.207854e+00 -3.124522e+00 -1.435515e+00 -8.086075e-01 1.155745e+01 2.546987e-02 3.026971e-01 2.088373e-01 -5.457251e-01 -1.242999e-01 3.876504e-01 -1.338663e-01 -2.780575e-02 2.902512e-01 -1.274878e-01 -1.209961e-01 9.604679e-02 -1.757072e-01 4.485939e-02 9.345111e-02 -6.994241e-02 -1.005352e-01 2.061967e-02 -4.922231e-03 4.035564e-02 1.533548e-01 -4.924061e-02 -4.343845e-02 -1.434463e-02 -7.541931e-03 -3.755647e-02
<VARIANCE> 39
 4.761258e+00 8.824914e+00 1.033809e+01 1.379061e+01 1.446436e+01 1.805442e+01 2.041324e+01 1.757509e+01 2.316469e+01 1.732202e+01 1.478671e+01 1.728720e+01 1.619553e+01 1.783983e-01 4.415662e-01 6.053280e-01 7.497303e-01 9.096583e-01 1.161551e+00 1.348902e+00 1.270218e+00 1.350985e+00 1.179817e+00 1.160039e+00 9.744113e-01 1.543871e-01 3.178087e-02 7.230995e-02 1.080907e-01 1.513233e-01 1.643012e-01 2.258437e-01 2.258805e-01 2.527760e-01 2.460654e-01 2.266566e-01 2.048913e-01 1.761761e-01 2.351957e-02
<GCONST> 7.582497e+01
<STATE> 4
<MEAN> 39
 4.403282e+00 3.315955e-02 -1.723526e+00 -6.732893e+00 -6.526505e+00 -3.951509e+00 -3.567588e+00 -3.370952e+00 -8.218531e-01 -1.718708e+00 -1.197557e+00 6.401191e-01 2.971311e+00 -3.863522e-02 4.972502e-01 2.937590e-01 1.250484e-01 3.078024e-01 -6.888340e-02 8.031324e-02 4.526807e-01 1.757543e-03 4.302860e-01 1.978229e-01 4.620447e-02 -5.609434e-01 -5.358282e-02 -5.646462e-02 -1.639375e-02 1.176543e-01 1.536519e-01 7.393304e-02 1.232767e-01 8.978255e-03 8.373903e-03 2.711578e-04 -5.270245e-03 -4.246778e-02 1.115710e-03
<VARIANCE> 39
 4.666050e+00 1.461550e+01 1.569783e+01 1.585599e+01 2.120650e+01 1.805442e+01 2.126956e+01 1.757509e+01 1.968662e+01 4.044311e+01 2.676020e+01 2.755743e+01 2.250594e+01 2.670084e-01 4.415662e-01 6.760468e-01 1.430696e+00 1.367116e+00 1.161551e+00 1.986040e+00 1.540118e+00 1.670983e+00 1.453598e+00 1.564265e+00 1.235380e+00 1.543871e-01 3.477533e-02 7.230995e-02 1.080907e-01 1.767752e-01 1.985104e-01 2.258437e-01 3.170765e-01 2.799878e-01 2.460654e-01 2.598393e-01 3.211383e-01 1.826946e-01 2.351957e-02
<GCONST> 8.396678e+01
<TRANSP> 5
 0.000000e+00 1.000000e+00 0.000000e+00 0.000000e+00 0.000000e+00
 0.000000e+00 6.418170e-01 3.581830e-01 0.000000e+00 0.000000e+00
 0.000000e+00 0.000000e+00 8.817494e-01 1.182506e-01 0.000000e+00
 0.000000e+00 0.000000e+00 0.000000e+00 8.427719e-01 1.572281e-01
 0.000000e+00 0.000000e+00 0.000000e+00 0.000000e+00 0.000000e+00
<ENDHMM>
~h "w"
<BEGINHMM>
<NUMSTATES> 5
<STATE> 2
<MEAN> 39
 3.736793e+00 -4.452230e-01 -5.371180e+00 -5.449140e+00 -3.419655e+00 -5.618327e+00 -2.298902e+00 -1.961830e+00 -1.400093e+00 -3.910848e+00 -2.625529e+00 -1.349305e+00 6.864305e+00 2.208023e-01 6.577807e-01 -2.610546e-01 -3.247616e-01 -4.429028e-01 -4.563600e-01 4.492208e-01 3.811708e-01 2.497807e-01 3.950923e-02 -1.485376e-03 -1.667690e-01 -2.779637e-01 -7.443470e-02 -3.032448e-02 2.263394e-01 1.198636e-01 5.964382e-03 1.203005e-01 -1.432938e-01 -1.386744e-01 1.160378e-02 1.326683e-01 6.745126e-02 -1.951308e-02 -6.522497e-02
<VARIANCE> 39
 1.171081e+01 2.589216e+01 3.006113e+01 4.295148e+01 3.125168e+01 2.871910e+01 2.639663e+01 3.551998e+01 2.060379e+01 1.962768e+01 2.064427e+01 3.072499e+01 1.426078e+01 4.600238e-01 1.683141e+00 1.734262e+00 2.368138e+00 2.287391e+00 2.475837e+00 2.288367e+00 2.490808e+00 2.090688e+00 1.730918e+00 1.879098e+00 2.048258e+00 1.204663e+00 7.256353e-02 1.491191e-01 2.241372e-01 4.719041e-01 3.820881e-01 4.041244e-01 4.047841e-01 4.027904e-01 3.537361e-01 3.477612e-01 3.421269e-01 3.307229e-01 9.973672e-02
<GCONST> 1.037275e+02
<STATE> 3
<MEAN> 39
 4.108514e+00 4.868313e+00 -3.155976e+00 -5.668237e+00 -5.780382e+00 -6.753014e+00 -2.248560e+00 -1.911404e+00 4.660187e-01 -6.054963e-01 -5.674469e-01 -7.609470e-01 3.009060e+00 -1.714261e-01 3.129878e-01 7.943543e-01 8.096336e-01 1.795742e-01 2.421820e-01 2.536926e-02 -2.514931e-01 3.075256e-03 3.103468e-01 6.337436e-02 -5.182101e-02 -7.401972e-01 -1.259862e-01 -1.529820e-01 5.952240e-02 1.470515e-01 2.971931e-01 2.664155e-01 3.702211e-02 -1.100908e-03 -8.646454e-02 -1.181793e-01 -6.969251e-02 7.016413e-02 -1.422907e-02
<VARIANCE> 39
 5.632331e+00 2.645753e+01 2.365930e+01 2.200453e+01 2.213110e+01 1.937735e+01 2.090117e+01 1.987384e+01 2.385288e+01 3.002144e+01 3.805544e+01 3.899791e+01 1.413102e+01 4.309820e-01 7.221794e-01 1.013681e+00 1.815027e+00 1.627499e+00 1.779521e+00 1.612916e+00 1.701626e+00 1.926246e+00 2.157658e+00 1.866716e+00 1.350319e+00 6.517658e-01 5.453278e-02 1.007477e-01 1.460884e-01 1.945032e-01 2.123888e-01 2.663118e-01 3.139868e-01 3.186173e-01 3.028625e-01 3.495777e-01 3.115965e-01 2.647534e-01 3.923496e-02
<GCONST> 9.306966e+01
<STATE> 4
<MEAN> 39
 1.794338e+00 3.832570e+00 1.038824e+00 -5.727135e-01 -1.021083e+00 -2.444615e+00 -9.925525e-01 -2.442057e+00 -7.805089e-01 -1.491494e+00 -2.278070e+00 -2.024725e+00 7.904584e-01 -6.374188e-01 -3.234031e-01 1.591734e-01 4.851847e-01 7.700363e-01 8.220004e-01 3.501825e-01 3.565210e-01 3.472960e-01 1.221967e-01 7.085007e-02 3.223706e-01 -4.908145e-01 3.567826e-02 -7.001439e-02 -2.368903e-01 -2.465545e-01 -9.165411e-02 -1.191288e-01 -3.938105e-02 1.584487e-01 1.671770e-01 7.469810e-02 1.313395e-01 9.741639e-02 1.087593e-01
<VARIANCE> 39
 6.766865e+00 2.746129e+01 1.789860e+01 3.324755e+01 3.029428e+01 2.163904e+01 2.756987e+01 2.402731e+01 2.256984e+01 1.996210e+01 1.910469e+01 1.954700e+01 2.651097e+01 5.836487e-01 1.059135e+00 1.326128e+00 2.743430e+00 2.052755e+00 2.248916e+00 2.378601e+00 2.073876e+00 2.041758e+00 2.121213e+00 1.769562e+00 1.651328e+00 7.386364e-01 6.812172e-02 1.149436e-01 1.910231e-01 2.997458e-01 3.128126e-01 3.241971e-01 3.490984e-01 3.488910e-01 3.912349e-01 3.618569e-01 2.677147e-01 2.863799e-01 9.590822e-02
<GCONST> 9.878259e+01
<TRANSP> 5
 0.000000e+00 1.000000e+00 0.000000e+00 0.000000e+00 0.000000e+00
 0.000000e+00 7.349614e-01 2.650386e-01 0.000000e+00 0.000000e+00
 0.000000e+00 0.000000e+00 7.092152e-01 2.907848e-01 0.000000e+00
 0.000000e+00 0.000000e+00 0.000000e+00 5.943633e-01 4.056367e-01
 0.000000e+00 0.000000e+00 0.000000e+00 0.000000e+00 0.000000e+00
<ENDHMM>
~h "y"
<BEGINHMM>
<NUMSTATES> 5
<STATE> 2
<MEAN> 39
 9.314560e-01 5.908170e+00 2.110974e+00 -1.996085e+00 -1.196263e+00 -5.202216e+00 -2.576030e+00 -2.994473e+00 -1.367258e+00 -1.399709e+00 -8.706659e-01 -7.899328e-01 -4.345956e-01 -5.476600e-01 -8.015133e-01 6.405199e-01 1.874296e+00 1.233625e+00 1.218419e+00 9.361593e-01 3.855548e-01 -1.261802e-01 3.447078e-01 1.004436e-01 3.229293e-01 -1.463012e+00 -1.023682e-01 -3.261189e-01 -3.102013e-01 -1.530142e-01 -1.233356e-02 3.584452e-01 1.452715e-01 3.047218e-01 3.294047e-01 1.097019e-01 1.229029e-01 9.810781e-02 1.233473e-01
<VARIANCE> 39
 6.423471e+00 1.213896e+01 1.469558e+01 3.088866e+01 2.878771e+01 2.314190e+01 1.952064e+01 2.000044e+01 2.394030e+01 2.686786e+01 2.965098e+01 3.817326e+01 1.121511e+01 8.884904e-01 1.283323e+00 1.510110e+00 2.348226e+00 2.154684e+00 3.001025e+00 2.286352e+00 2.690871e+00 2.445022e+00 2.467083e+00 2.383473e+00 2.447476e+00 9.982369e-01 8.966917e-02 2.078421e-01 1.933976e-01 5.699428e-01 3.824810e-01 4.349913e-01 3.851090e-01 4.428191e-01 4.459939e-01 5.221620e-01 4.064668e-01 3.801983e-01 1.225306e-01
<GCONST> 1.040011e+02
<STATE> 3
<MEAN> 39
 -9.003200e-01 2.911993e+00 2.740397e+00 1.828240e+00 1.792426e+00 1.713851e-01 8.830297e-01 -4.974861e-02 5.982251e-01 -5.931246e-01 -7.818947e-01 -2.925828e-01 -3.424485e+00 -6.067350e-01 -1.164204e+00 -2.957806e-01 3.530801e-01 4.861138e-01 1.277654e+00 9.988779e-01 1.193738e+00 8.540519e-01 9.030277e-01 2.853796e-01 2.797725e-01 -6.862978e-01 1.234245e-01 1.420130e-01 -1.965712e-01 -4.483138e-01 -3.082065e-01 -3.002617e-01 -2.229159e-01 -7.367409e-02 5.036973e-02 6.326555e-02 1.209384e-01 3.925984e-02 2.673386e-01
<VARIANCE> 39
 9.593055e+00 8.824914e+00 1.079825e+01 1.379061e+01 2.021394e+01 2.804133e+01 2.258297e+01 1.757509e+01 2.421341e+01 2.010758e+01 1.572073e+01 2.265503e+01 7.312271e+00 4.531974e-01 7.292262e-01 9.250951e-01 1.280161e+00 2.209549e+00 1.758364e+00 1.750287e+00 2.025205e+00 1.899344e+00 1.878892e+00 2.161737e+00 2.174191e+00 2.569033e-01 8.769672e-02 9.588432e-02 1.813933e-01 3.050752e-01 2.615515e-01 3.102782e-01 3.372703e-01 3.593060e-01 3.799151e-01 3.864129e-01 3.043230e-01 3.195798e-01 9.003686e-02
<GCONST> 9.168988e+01
<STATE> 4
<MEAN> 39
 -1.376921e+00 7.282834e-01 1.254473e+00 8.410396e-01 1.084938e+00 7.623831e-01 1.697955e+00 1.879032e+00 2.142137e+00 2.101587e+00 1.065478e+00 7.078308e-01 -3.921283e+00 -1.213783e-01 -4.557767e-01 -5.573498e-02 -4.064040e-03 3.714339e-02 3.764485e-01 2.278340e-01 4.371966e-01 3.280573e-01 5.225764e-01 4.187014e-01 2.995760e-01 -2.527276e-01 1.098672e-01 2.666204e-01 8.540916e-02 -2.203606e-01 -1.073365e-01 -2.336439e-01 -2.295962e-01 -2.637510e-01 -2.734344e-01 -2.740660e-01 -1.527872e-01 -1.524622e-01 2.694106e-01
<VARIANCE> 39
 1.245813e+01 1.102739e+01 1.033809e+01 1.397834e+01 2.022050e+01 2.931260e+01 2.572194e+01 2.009046e+01 2.333331e+01 1.616586e+01 1.666962e+01 2.063814e+01 8.069198e+00 2.394654e-01 4.499185e-01 7.083249e-01 8.418878e-01 1.215743e+00 1.161551e+00 1.353251e+00 1.664006e+00 1.595274e+00 1.534489e+00 1.427448e+00 1.563897e+00 1.543871e-01 9.182820e-02 1.497952e-01 2.056905e-01 3.567699e-01 3.968525e-01 3.354696e-01 3.314473e-01 3.220645e-01 3.496596e-01 3.223450e-01 3.403509e-01 3.722793e-01 1.183461e-01
<GCONST> 8.877404e+01
<TRANSP> 5
 0.000000e+00 1.000000e+00 0.000000e+00 0.000000e+00 0.000000e+00
 0.000000e+00 4.992649e-01 5.007351e-01 0.000000e+00 0.000000e+00
 0.000000e+00 0.000000e+00 4.313129e-01 5.686871e-01 0.000000e+00
 0.000000e+00 0.000000e+00 0.000000e+00 3.378132e-01 6.621869e-01
 0.000000e+00 0.000000e+00 0.000000e+00 0.000000e+00 0.000000e+00
<ENDHMM>
~h "aa"
<BEGINHMM>
<NUMSTATES> 5
<STATE> 2
<MEAN> 39
 2.947511e+00 -7.303283e+00 -5.991747e+00 -3.444823e-01 -1.474345e+00 -2.809847e+00 -2.528943e+00 -3.098723e+00 -3.221926e+00 -3.356541e+00 -1.183734e+00 -1.014871e+00 9.663986e+00 3.346961e-01 1.056433e+00 5.627973e-01 -2.200069e-01 -1.476824e-01 -3.014646e-01 -8.476187e-02 1.561786e-01 1.373181e-01 1.947902e-01 -1.618634e-01 -2.425242e-02 -9.572582e-01 -1.525379e-01 4.718782e-01 4.790276e-01 6.675239e-02 -1.571601e-02 3.570473e-02 1.586263e-01 7.333463e-02 1.317326e-01 1.714818e-01 4.956352e-02 7.243619e-02 -5.743052e-01
<VARIANCE> 39
 1.209156e+01 2.485642e+01 3.328248e+01 3.458918e+01 2.820691e+01 2.569134e+01 2.958424e+01 3.060296e+01 2.965380e+01 2.064207e+01 1.935720e+01 1.823670e+01 1.823752e+01 9.450525e-01 3.283194e+00 2.647356e+00 2.492050e+00 2.257350e+00 3.089893e+00 2.826516e+00 2.911759e+00 2.895999e+00 2.380901e+00 1.977069e+00 1.797281e+00 3.779316e+00 2.121007e-01 3.759499e-01 4.330862e-01 4.885638e-01 4.408157e-01 6.595638e-01 5.086423e-01 5.514930e-01 5.605191e-01 4.805818e-01 4.242716e-01 3.416595e-01 3.349132e-01
<GCONST> 1.136843e+02
<STATE> 3
<MEAN> 39
 3.138684e+00 -1.520994e+00 -1.518879e+00 -1.698241e-03 -1.743566e+00 -2.767495e+00 -1.408382e+00 -1.811484e+00 -2.054855e+00 -1.492830e+00 -1.447930e+00 -4.861595e-01 3.078548e+00 -4.080008e-01 1.350296e+00 1.496639e+00 3.852993e-01 2.422605e-01 6.590737e-02 4.010634e-01 3.128449e-01 2.627919e-01 6.103008e-01 2.634195e-01 3.242036e-01 -2.010432e+00 -1.533438e-01 -3.605844e-01 -1.783868e-01 -1.512154e-02 8.497012e-02 1.473882e-01 3.658299e-02 -2.097528e-02 -9.856557e-03 -3.726218e-02 9.055040e-02 6.668749e-03 3.059918e-01
<VARIANCE> 39
 1.021540e+01 2.689685e+01 2.784903e+01 3.037940e+01 2.649966e+01 3.742507e+01 3.274872e+01 2.907697e+01 2.322703e+01 2.163229e+01 2.007587e+01 1.876436e+01 2.626869e+01 1.345905e+00 2.567993e+00 2.163833e+00 2.523130e+00 2.267099e+00 4.663558e+00 3.087613e+00 2.925682e+00 2.362688e+00 2.340991e+00 2.088966e+00 1.760742e+00 2.453301e+00 1.572267e-01 3.303340e-01 3.557039e-01 3.846573e-01 3.351940e-01 4.833453e-01 4.354589e-01 4.398450e-01 4.212969e-01 3.923845e-01 3.543057e-01 3.228953e-01 3.037482e-01
<GCONST> 1.110393e+02
<STATE> 4
<MEAN> 39
 3.512422e+00 -4.324580e+00 -5.026087e+00 1.842136e+00 -6.543689e-01 -3.487354e+00 -2.815475e+00 -1.832220e+00 -2.340461e+00 -2.584920e+00 -1.421713e+00 -6.799514e-01 5.076148e+00 -9.192131e-02 3.268853e-01 3.400605e-01 -2.938085e-02 1.160796e-01 5.232037e-02 -9.988354e-02 2.769510e-02 1.034728e-01 1.764297e-01 4.213201e-02 4.678879e-02 -4.056363e-01 -1.882541e-02 -5.396991e-02 -6.842644e-02 -2.405918e-02 -7.516620e-03 4.308721e-02 5.669893e-03 -1.650722e-02 -1.933926e-03 -1.760845e-02 2.455477e-03 -2.275481e-02 8.819523e-02
<VARIANCE> 39
 1.037661e+01 2.609011e+01 4.482404e+01 2.581513e+01 2.524512e+01 3.088998e+01 2.962866e+01 2.403255e+01 2.066204e+01 1.912160e+01 1.663732e+01 1.960025e+01 3.386381e+01 3.376221e-01 6.882859e-01 9.142672e-01 9.015142e-01 9.096583e-01 1.208563e+00 1.348902e+00 1.270218e+00 1.350985e+00 1.179817e+00 1.160039e+00 9.744113e-01 5.299118e-01 5.492178e-02 1.606390e-01 1.756773e-01 1.545793e-01 1.643012e-01 2.279266e-01 2.258805e-01 2.527760e-01 2.460654e-01 2.266566e-01 2.048913e-01 1.761761e-01 1.187877e-01
<GCONST> 8.895927e+01
<TRANSP> 5
 0.000000e+00 1.000000e+00 0.000000e+00 0.000000e+00 0.000000e+00
 0.000000e+00 5.309327e-01 4.690673e-01 0.000000e+00 0.000000e+00
 0.000000e+00 0.000000e+00 4.999584e-01 5.000416e-01 0.000000e+00
 0.000000e+00 0.000000e+00 0.000000e+00 7.423961e-01 2.576039e-01
 0.000000e+00 0.000000e+00 0.000000e+00 0.000000e+00 0.000000e+00
<ENDHMM>
~h "ae"
<BEGINHMM>
<NUMSTATES> 5
<STATE> 2
<MEAN> 39
 -3.402618e-01 -5.115991e+00 -2.632637e+00 -5.513593e+00 7.307141e-01 -1.873079e+00 -7.588298e+00 -5.034212e+00 -2.503604e+00 -3.524476e+00 -7.450338e-01 -1.104178e+00 1.184002e+01 3.475673e-02 3.681200e-01 -3.430142e-01 -5.187976e-01 1.692618e-01 8.229038e-02 1.902085e-01 9.331074e-02 -2.181872e-02 -6.968012e-02 -1.054042e-01 1.088208e-01 -3.111073e-02 4.283683e-02 1.402090e-01 6.071334e-02 -7.928119e-03 -6.526797e-02 1.795742e-02 1.356973e-01 7.277971e-02 4.579852e-02 -5.949416e-03 -3.200267e-02 -8.148393e-03 -1.871706e-01
<VARIANCE> 39
 6.886284e+00 1.434863e+01 1.352126e+01 1.538578e+01 1.698739e+01 3.923723e+01 1.841058e+01 1.757509e+01 1.625707e+01 1.539162e+01 1.526472e+01 2.317298e+01 1.287990e+01 1.802674e-01 4.415662e-01 6.053280e-01 7.497303e-01 9.096583e-01 1.161551e+00 1.348902e+00 1.270218e+00 1.350985e+00 1.179817e+00 1.160039e+00 9.744113e-01 1.748645e-01 4.542974e-02 7.230995e-02 1.080907e-01 1.513233e-01 1.643012e-01 2.258437e-01 2.258805e-01 2.527760e-01 2.460654e-01 2.266566e-01 2.048913e-01 1.761761e-01 5.575926e-02
<GCONST> 7.887074e+01
<STATE> 3
<MEAN> 39
 1.094417e+00 -2.047277e+00 -4.168364e+00 -1.021941e+01 -1.781034e-01 -8.978518e-01 -4.340411e+00 -3.362841e+00 -1.836221e+00 -4.039484e+00 -1.902861e+00 -5.467591e-02 1.036561e+01 6.919017e-01 1.167765e+00 8.182554e-01 5.743205e-02 -1.211422e+00 -9.871172e-02 7.953456e-01 6.128924e-01 4.899419e-01 3.140192e-01 -2.306423e-01 -2.688275e-01 -1.644159e+00 -8.922114e-02 1.416284e-01 4.310679e-01 7.784948e-01 -2.661799e-02 -1.243386e-01 2.541353e-03 -1.511825e-02 1.193803e-02 2.965702e-01 1.900957e-01 3.164274e-02 -5.955814e-01
<VARIANCE> 39
 7.242210e+00 1.894823e+01 1.950986e+01 2.296190e+01 2.733956e+01 3.032697e+01 1.841058e+01 2.350081e+01 1.625707e+01 1.539162e+01 2.381580e+01 1.822864e+01 1.328303e+01 4.203452e-01 1.097088e+00 1.394744e+00 2.261872e+00 1.679718e+00 3.146397e+00 1.608049e+00 1.736226e+00 1.581524e+00 1.414866e+00 1.380341e+00 1.388073e+00 1.377733e+00 1.185031e-01 1.768351e-01 2.641360e-01 2.750362e-01 4.218742e-01 3.997286e-01 3.373025e-01 3.830748e-01 3.306340e-01 2.730814e-01 3.061740e-01 2.629197e-01 1.674574e-01
<GCONST> 9.749366e+01
<STATE> 4
<MEAN> 39
 2.229723e+00 2.401761e+00 5.933836e-01 -4.678419e+00 -2.646180e+00 -1.876877e+00 -3.154838e+00 -2.923832e+00 -1.043901e+00 -1.566471e+00 -1.137151e+00 -2.728966e-01 1.651355e+00 -5.940727e-01 5.677087e-01 1.118007e+00 2.263635e+00 5.463327e-01 6.148070e-01 8.582349e-01 4.027711e-01 2.538630e-01 7.884100e-01 6.532543e-01 3.153455e-01 -2.523330e+00 -3.560306e-01 -4.601008e-01 -3.181932e-01 1.849840e-02 4.831811e-01 2.912178e-01 1.559153e-01 1.662214e-01 5.301518e-02 -3.104914e-03 9.573203e-02 1.056161e-01 3.475910e-01
<VARIANCE> 39
 6.781919e+00 1.611677e+01 1.578669e+01 2.698937e+01 2.772202e+01 2.925904e+01 2.139269e+01 2.248274e+01 2.315728e+01 1.916782e+01 2.430738e+01 1.931278e+01 1.858859e+01 1.149729e+00 1.790811e+00 2.005361e+00 2.148496e+00 3.178275e+00 4.012918e+00 2.850866e+00 2.907268e+00 2.547282e+00 2.126794e+00 2.318282e+00 1.911640e+00 1.976189e+00 1.307278e-01 2.254610e-01 2.561063e-01 4.952572e-01 4.731033e-01 5.425375e-01 4.461935e-01 4.671266e-01 4.513978e-01 3.708082e-01 3.856891e-01 3.315257e-01 2.925402e-01
<GCONST> 1.075823e+02
<TRANSP> 5
 0.000000e+00 1.000000e+00 0.000000e+00 0.000000e+00 0.000000e+00
 0.000000e+00 8.802047e-01 1.197952e-01 0.000000e+00 0.000000e+00
 0.000000e+00 0.000000e+00 6.531081e-01 3.468919e-01 0.000000e+00
 0.000000e+00 0.000000e+00 0.000000e+00 5.946739e-01 4.053260e-01
 0.000000e+00 0.000000e+00 0.000000e+00 0.000000e+00 0.000000e+00
<ENDHMM>
~h "ah"
<BEGINHMM>
<NUMSTATES> 5
<STATE> 2
<MEAN> 39
 1.661553e+00 -4.179283e+00 -1.724989e+00 -3.337588e+00 -1.353389e+00 -2.138591e+00 -7.600134e+00 -4.180495e+00 -2.635001e+00 -3.369721e+00 -1.399698e+00 -2.117943e+00 9.220668e+00 8.152641e-02 2.001685e-01 1.062088e-01 2.065453e-02 -2.957309e-03 -4.042209e-02 -1.079209e-01 3.785542e-03 7.268866e-03 4.599925e-02 1.660966e-02 5.958563e-02 -2.348262e-01 2.497812e-02 5.906416e-02 -1.269194e-02 -4.695933e-04 -9.086087e-03 4.848333e-03 7.458163e-02 -3.309567e-03 8.659475e-05 8.498461e-03 1.228443e-03 2.611561e-02 -6.564611e-02
<VARIANCE> 39
 5.979046e+00 1.642750e+01 1.081065e+01 1.379061e+01 1.446436e+01 3.080698e+01 2.425221e+01 2.274498e+01 1.696218e+01 1.659748e+01 1.478671e+01 2.208285e+01 1.538992e+01 1.783983e-01 4.415662e-01 6.053280e-01 7.497303e-01 9.096583e-01 1.161551e+00 1.348902e+00 1.270218e+00 1.350985e+00 1.179817e+00 1.160039e+00 9.744113e-01 1.543871e-01 3.178087e-02 7.230995e-02 1.080907e-01 1.513233e-01 1.643012e-01 2.258437e-01 2.258805e-01 2.527760e-01 2.460654e-01 2.266566e-01 2.048913e-01 1.761761e-01 2.351957e-02
<GCONST> 7.752276e+01
<STATE> 3
<MEAN> 39
 2.607347e+00 -1.714251e+00 5.697545e-01 -1.732395e+00 -1.580310e+00 -2.336262e+00 -7.331193e+00 -5.573184e+00 -2.699011e+00 -1.772509e+00 -4.292447e-01 -2.402997e-01 4.898231e+00 -2.440846e-01 1.008490e+00 6.164564e-01 5.683708e-01 3.091236e-01 2.265507e-01 8.883984e-01 3.374341e-01 3.391122e-01 3.667676e-01 -1.398449e-01 1.675413e-01 -1.330907e+00 -2.204335e-01 -2.729189e-03 -5.651057e-03 7.160538e-02 8.440666e-02 1.438027e-01 3.236727e-01 2.914307e-01 1.787073e-01 9.200060e-02 5.137067e-03 -7.338777e-03 -1.041858e-01
<VARIANCE> 39
 7.262945e+00 2.413286e+01 2.053851e+01 2.367048e+01 1.849665e+01 3.143568e+01 4.082846e+01 2.465545e+01 2.225080e+01 2.896892e+01 3.190955e+01 2.647038e+01 2.546886e+01 9.357138e-01 1.385310e+00 1.092189e+00 1.668737e+00 1.501608e+00 2.298061e+00 2.527719e+00 2.200351e+00 1.918981e+00 1.828638e+00 1.719157e+00 1.944879e+00 7.184320e-01 1.137705e-01 2.979820e-01 2.141529e-01 2.574753e-01 2.591727e-01 3.570451e-01 4.024114e-01 3.469056e-01 3.400046e-01 3.164844e-01 3.178024e-01 3.328170e-01 1.200027e-01
<GCONST> 1.014737e+02
<STATE> 4
<MEAN> 39
 4.640184e-02 -5.523887e-01 2.310751e+00 1.903223e+00 1.238700e+00 1.584003e+00 -1.727695e+00 -2.474019e+00 3.826858e-01 3.365157e-01 -1.097296e+00 -8.335984e-02 1.109824e-01 -5.193068e-01 1.392694e-01 -1.698851e-01 1.939701e-01 1.436548e-01 4.114630e-01 1.130366e+00 9.618294e-01 6.448134e-01 5.148060e-01 2.165442e-01 1.585337e-01 -9.038213e-01 7.981175e-02 -3.678197e-02 -1.162173e-01 -1.694551e-01 -1.408502e-01 -1.447728e-01 -1.612670e-01 -4.172612e-02 -7.038855e-02 -5.885171e-02 7.742259e-02 2.209784e-02 1.141044e-01
<VARIANCE> 39
 1.047700e+01 1.510661e+01 2.261889e+01 2.888157e+01 1.820330e+01 2.495328e+01 2.310850e+01 2.820675e+01 2.217456e+01 2.643141e+01 2.108774e+01 1.523834e+01 2.964046e+01 8.105994e-01 1.532388e+00 1.327583e+00 1.558639e+00 1.497154e+00 2.428907e+00 2.390756e+00 2.027461e+00 1.990027e+00 2.036579e+00 1.923732e+00 1.664590e+00 4.406295e-01 9.510506e-02 2.064094e-01 2.264030e-01 2.634284e-01 2.429747e-01 3.259667e-01 3.350483e-01 3.638022e-01 3.447415e-01 3.380664e-01 2.906412e-01 2.880142e-01 1.317411e-01
<GCONST> 9.886691e+01
<TRANSP> 5
 0.000000e+00 1.000000e+00 0.000000e+00 0.000000e+00 0.000000e+00
 0.000000e+00 9.055788e-01 9.442119e-02 0.000000e+00 0.000000e+00
 0.000000e+00 0.000000e+00 6.619486e-01 3.380514e-01 0.000000e+00
 0.000000e+00 0.000000e+00 0.000000e+00 5.461214e-01 4.538786e-01
 0.000000e+00 0.000000e+00 0.000000e+00 0.000000e+00 0.000000e+00
<ENDHMM>
~h "am"
<BEGINHMM>
<NUMSTATES> 5
<STATE> 2
<MEAN> 39
 1.678980e+00 -2.989603e+00 4.478108e-01 -3.987978e+00 -2.306031e+00 -5.351121e+00 -7.688541e+00 -3.659259e+00 -2.260725e+00 -3.276077e+00 -2.732109e+00 -2.466824e+00 8.705277e+00 2.457207e-01 5.264036e-01 3.471043e-01 1.616037e-01 -2.184425e-01 -6.358292e-01 1.362122e-01 6.069611e-02 4.271278e-02 8.995537e-02 -1.786058e-01 1.501323e-02 -6.028467e-01 2.210817e-02 -5.159968e-03 -7.092452e-02 2.400193e-02 3.951220e-03 1.006632e-01 9.050389e-02 -6.816944e-02 -6.900615e-02 -9.515365e-03 8.853603e-02 3.911222e-02 -3.506009e-02
<VARIANCE> 39
 7.808529e+00 1.487494e+01 2.492088e+01 1.719532e+01 1.494256e+01 5.418910e+01 2.550256e+01 2.548950e+01 1.889384e+01 1.990290e+01 1.591774e+01 2.125496e+01 1.813799e+01 2.133092e-01 7.828788e-01 8.717142e-01 7.497303e-01 9.096583e-01 1.777442e+00 1.348902e+00 1.320709e+00 1.350985e+00 1.179817e+00 1.160039e+00 9.744113e-01 3.148013e-01 3.457855e-02 1.356629e-01 1.674250e-01 1.513233e-01 1.643012e-01 3.570876e-01 2.258805e-01 2.527760e-01 2.460654e-01 2.266566e-01 2.048913e-01 1.761761e-01 4.912965e-02
<GCONST> 8.463583e+01
<STATE> 3
<MEAN> 39
 3.884609e+00 2.545614e+00 4.217597e+00 -1.768590e-01 -3.096906e+00 -9.140526e+00 -5.699940e+00 -3.673773e+00 -3.552255e+00 -2.091131e+00 -2.944671e+00 -5.134829e-01 1.093932e+00 -4.377965e-01 3.496544e-01 -1.089453e-01 4.500005e-01 4.668985e-01 1.176124e+00 5.385576e-01 -2.498161e-01 -8.177359e-02 2.187702e-01 4.463608e-01 2.979358e-01 -9.287432e-01 -1.742710e-01 -2.631077e-01 -1.572929e-01 -4.968761e-03 1.458608e-01 4.196888e-01 1.659054e-01 1.269688e-01 1.209731e-01 4.906438e-02 1.456355e-01 9.121446e-03 7.909387e-02
<VARIANCE> 39
 5.066644e+00 9.643870e+00 1.128826e+01 2.248365e+01 2.044637e+01 4.178724e+01 2.435151e+01 2.774860e+01 2.220615e+01 2.363778e+01 1.960854e+01 2.294128e+01 7.312271e+00 6.645756e-01 9.865440e-01 1.137777e+00 1.225595e+00 1.409541e+00 3.919164e+00 2.193961e+00 2.322071e+00 2.051587e+00 1.857612e+00 1.634720e+00 1.626372e+00 3.064430e-01 7.786802e-02 1.417221e-01 2.187213e-01 1.986955e-01 2.461169e-01 5.412534e-01 3.803375e-01 4.568645e-01 4.045680e-01 3.531842e-01 3.117193e-01 2.918320e-01 4.952967e-02
<GCONST> 9.435471e+01
<STATE> 4
<MEAN> 39
 1.902810e+00 1.601273e+00 2.756478e+00 2.191471e-01 -2.359626e+00 -4.523670e+00 -3.038572e+00 -2.055937e+00 -2.307008e+00 -5.166877e-01 4.722679e-01 9.792953e-01 -7.504157e-01 -2.256549e-01 3.619840e-02 -6.424756e-02 1.718134e-01 2.801170e-01 5.825707e-01 3.184612e-01 1.865145e-01 2.254147e-01 2.575086e-01 2.576770e-01 1.317939e-01 -3.470280e-01 3.062645e-02 -1.453127e-02 -1.423142e-02 -1.704338e-02 2.325947e-03 -2.556458e-02 -2.811220e-02 1.848591e-02 1.641582e-02 -2.497481e-02 -8.835959e-02 -4.997803e-02 6.844337e-02
<VARIANCE> 39
 7.231455e+00 9.309597e+00 1.068089e+01 1.999894e+01 2.471523e+01 4.792303e+01 2.418925e+01 2.510548e+01 1.953570e+01 2.405184e+01 2.028813e+01 2.294871e+01 1.160606e+01 2.875991e-01 4.415662e-01 6.053280e-01 7.497303e-01 1.014774e+00 1.485210e+00 1.393316e+00 1.632321e+00 1.492116e+00 1.461588e+00 1.204141e+00 1.230256e+00 1.543871e-01 4.445561e-02 7.563739e-02 1.124993e-01 1.513233e-01 1.815021e-01 2.928824e-01 2.326416e-01 2.663496e-01 2.537205e-01 2.652627e-01 2.048913e-01 2.253886e-01 2.855589e-02
<GCONST> 8.235327e+01
<TRANSP> 5
 0.000000e+00 1.000000e+00 0.000000e+00 0.000000e+00 0.000000e+00
 0.000000e+00 8.511338e-01 1.488661e-01 0.000000e+00 0.000000e+00
 0.000000e+00 0.000000e+00 7.527738e-01 2.472263e-01 0.000000e+00
 0.000000e+00 0.000000e+00 0.000000e+00 8.140454e-01 1.859546e-01
 0.000000e+00 0.000000e+00 0.000000e+00 0.000000e+00 0.000000e+00
<ENDHMM>
~h "aw"
<BEGINHMM>
<NUMSTATES> 5
<STATE> 2
<MEAN> 39
 5.683795e+00 -5.493257e+00 -7.268027e+00 -5.980867e-01 2.023410e-01 -3.042169e+00 -4.057672e+00 -1.907091e+00 -4.581050e+00 -2.432075e+00 -1.632725e+00 -1.069982e-01 7.013124e+00 1.049142e-01 1.341614e+00 2.311285e-01 -1.175896e+00 -2.300966e-01 -5.200545e-02 2.874658e-01 -1.349049e-01 5.007561e-01 2.089964e-01 -2.489623e-01 -2.405643e-02 -6.796809e-01 -1.171375e-01 1.345405e-01 3.258703e-01 9.061380e-02 -1.765057e-01 -1.869414e-01 -5.001438e-02 -6.772135e-02 9.037949e-02 4.074658e-02 8.972840e-02 -5.533189e-02 -6.411181e-02
<VARIANCE> 39
 7.967265e+00 2.481050e+01 1.774562e+01 3.991789e+01 2.342961e+01 2.295318e+01 2.344901e+01 2.751227e+01 2.198644e+01 1.661876e+01 1.561901e+01 1.785498e+01 1.133790e+01 3.614227e-01 8.395489e-01 2.122989e+00 2.012737e+00 2.281045e+00 2.412527e+00 2.190427e+00 1.982507e+00 1.949020e+00 1.579147e+00 1.495946e+00 1.148074e+00 2.165716e-01 3.409971e-02 1.086559e-01 1.941907e-01 4.859522e-01 3.368303e-01 4.347810e-01 4.422116e-01 3.636319e-01 3.315914e-01 3.031922e-01 2.835121e-01 1.847098e-01 2.351957e-02
<GCONST> 9.310839e+01
<STATE> 3
<MEAN> 39
 4.123224e+00 3.727500e+00 -1.586996e-01 -2.533231e+00 -3.922673e+00 -8.399021e+00 -5.339351e+00 -4.721211e+00 -8.548570e-01 -7.376812e-01 9.515347e-01 1.593867e+00 1.396492e+00 -3.412346e-01 5.785907e-01 1.025926e+00 6.745117e-01 -1.323789e-01 -3.944601e-01 -3.761079e-01 -2.537526e-01 2.928871e-01 2.326599e-01 6.610306e-01 9.813699e-02 -5.676222e-01 2.070790e-03 -2.176315e-01 -1.074193e-01 1.044099e-01 2.267939e-01 3.375078e-01 1.590758e-01 5.272426e-02 -2.142428e-01 -3.625980e-02 -1.323663e-01 -2.988622e-02 1.614837e-02
<VARIANCE> 39
 4.403511e+00 1.362869e+01 1.711455e+01 2.121814e+01 1.990067e+01 2.192413e+01 1.899656e+01 2.561346e+01 2.113345e+01 2.116735e+01 3.187585e+01 4.052422e+01 7.312271e+00 2.340490e-01 6.041832e-01 1.210882e+00 1.670119e+00 1.056733e+00 2.099151e+00 1.843781e+00 1.889925e+00 1.617852e+00 1.721049e+00 1.852024e+00 1.472685e+00 2.295297e-01 3.579424e-02 1.066126e-01 1.720198e-01 2.949696e-01 2.218266e-01 3.047191e-01 3.616441e-01 3.678946e-01 3.204660e-01 3.271790e-01 3.913172e-01 2.585081e-01 4.090965e-02
<GCONST> 8.953426e+01
<STATE> 4
<MEAN> 39
 2.952157e+00 4.948887e+00 4.557718e+00 1.345063e+00 -4.826899e-01 -4.103606e+00 -3.670878e+00 -3.959816e+00 -2.053639e+00 -1.470312e+00 -7.254218e-01 -1.916857e+00 -9.407846e-01 -3.628223e-01 7.597589e-02 6.096851e-01 7.046540e-01 5.769843e-01 8.016154e-01 6.019802e-01 3.552608e-01 -3.193392e-01 -2.835293e-01 -6.543345e-01 -2.188369e-01 -7.633066e-01 -4.903159e-02 -2.161079e-01 -2.236170e-01 -8.127671e-04 1.111277e-01 2.401449e-01 1.153067e-01 1.166247e-01 1.219457e-02 1.096421e-01 5.363045e-02 1.537588e-01 -4.112596e-02
<VARIANCE> 39
 4.403511e+00 9.713579e+00 1.462584e+01 3.050257e+01 2.654478e+01 2.585091e+01 1.841058e+01 1.830803e+01 2.113823e+01 2.739963e+01 3.076667e+01 2.694752e+01 1.158993e+01 1.783983e-01 5.936410e-01 8.887277e-01 1.194690e+00 1.148929e+00 2.615002e+00 1.916736e+00 1.400578e+00 1.862239e+00 2.145278e+00 1.603178e+00 1.384694e+00 3.449993e-01 5.186967e-02 8.933792e-02 1.197076e-01 3.939484e-01 3.173159e-01 4.068123e-01 3.309115e-01 2.846289e-01 4.501556e-01 4.313303e-01 3.712319e-01 2.837677e-01 5.528874e-02
<GCONST> 9.081477e+01
<TRANSP> 5
 0.000000e+00 1.000000e+00 0.000000e+00 0.000000e+00 0.000000e+00
 0.000000e+00 8.723825e-01 1.276176e-01 0.000000e+00 0.000000e+00
 0.000000e+00 0.000000e+00 7.982272e-01 2.017729e-01 0.000000e+00
 0.000000e+00 0.000000e+00 0.000000e+00 5.587569e-01 4.412431e-01
 0.000000e+00 0.000000e+00 0.000000e+00 0.000000e+00 0.000000e+00
<ENDHMM>
~h "ay"
<BEGINHMM>
<NUMSTATES> 5
<STATE> 2
<MEAN> 39
 3.032960e-01 6.660774e-01 -5.685012e+00 -8.397141e+00 7.073280e-02 -2.567139e+00 -4.954140e+00 -3.374928e+00 -1.534967e+00 -5.189424e+00 -1.761624e+00 -2.265055e+00 1.060074e+01 3.463396e-01 1.627822e+00 -4.514173e-01 -5.542979e-01 -5.870340e-01 -7.652490e-01 7.250034e-01 5.497755e-01 3.645296e-01 8.996823e-02 -1.001651e-01 -3.283220e-01 -7.468261e-01 6.052662e-02 -5.812007e-02 2.770832e-01 2.228727e-01 -2.165583e-01 -1.044322e-01 -7.362545e-02 -2.694623e-02 3.506501e-02 1.740268e-01 3.472126e-02 -3.994830e-02 -1.495309e-01
<VARIANCE> 39
 6.693080e+00 2.526280e+01 2.548144e+01 1.973321e+01 2.262427e+01 3.694904e+01 1.997652e+01 1.915664e+01 1.625707e+01 1.539162e+01 1.802118e+01 1.809351e+01 1.445821e+01 1.783983e-01 8.038371e-01 1.311083e+00 1.086838e+00 1.641625e+00 1.839721e+00 1.413919e+00 1.482833e+00 1.676229e+00 1.356407e+00 1.614423e+00 1.593574e+00 1.702532e-01 3.178087e-02 1.529338e-01 2.236230e-01 1.884772e-01 2.319167e-01 2.825887e-01 2.820348e-01 2.746773e-01 2.778524e-01 2.318739e-01 2.838753e-01 2.966974e-01 3.481725e-02
<GCONST> 8.758752e+01
<STATE> 3
<MEAN> 39
 2.876938e+00 7.110169e+00 -1.978661e+00 -7.472954e+00 -4.719167e+00 -6.421631e+00 -4.010153e+00 -2.155679e+00 6.430377e-01 -3.439198e+00 -1.810043e+00 -3.614691e+00 4.349617e+00 -3.702693e-02 -2.972623e-02 1.309493e+00 1.198846e+00 9.233570e-02 2.627956e-01 1.526803e-03 -1.718571e-01 -8.927808e-02 4.477880e-01 1.414379e-01 3.257679e-01 -1.313596e+00 -2.269127e-01 -3.605073e-01 -5.906836e-02 2.649834e-01 3.746818e-01 3.468597e-01 1.325167e-01 -4.665036e-02 -1.049531e-01 5.237309e-02 5.475932e-02 2.185651e-01 1.960100e-02
<VARIANCE> 39
 5.462574e+00 1.139167e+01 2.674249e+01 2.231243e+01 2.316998e+01 2.121288e+01 2.542078e+01 1.821623e+01 1.970651e+01 1.630742e+01 2.457771e+01 2.097283e+01 1.508588e+01 8.486946e-01 1.117147e+00 1.600708e+00 2.240191e+00 2.087384e+00 2.224627e+00 1.957862e+00 1.875923e+00 1.877593e+00 1.530782e+00 1.987596e+00 1.599729e+00 1.016916e+00 1.083817e-01 1.624535e-01 3.100020e-01 3.749208e-01 3.278649e-01 3.052795e-01 3.853688e-01 3.497943e-01 3.526923e-01 2.776717e-01 4.117980e-01 3.027190e-01 1.163452e-01
<GCONST> 9.850149e+01
<STATE> 4
<MEAN> 39
 1.236543e-01 4.109500e+00 7.110745e-01 -9.625468e-01 -1.178566e+00 -1.768106e+00 -1.295468e+00 -1.552855e+00 1.197136e+00 1.679797e-01 7.752938e-01 -2.851519e-02 -1.199645e+00 -4.896385e-01 -5.945370e-01 1.724074e-01 5.784359e-01 4.371862e-01 6.989265e-01 6.024190e-01 4.433528e-01 2.649152e-01 4.653887e-01 3.432874e-01 3.123120e-01 -4.346431e-01 2.736962e-02 -7.352200e-03 -1.763229e-01 -2.052056e-01 -1.038471e-01 -6.000892e-02 3.486585e-02 8.710502e-02 1.209365e-02 -1.136794e-01 -7.884015e-02 -1.059967e-01 2.305608e-01
<VARIANCE> 39
 9.117068e+00 1.124737e+01 1.561147e+01 1.903946e+01 2.546389e+01 2.974084e+01 2.147892e+01 2.124263e+01 2.200340e+01 2.323897e+01 2.209353e+01 2.186709e+01 1.301064e+01 7.885030e-01 7.014475e-01 1.009940e+00 1.366053e+00 1.672799e+00 1.905398e+00 1.877271e+00 1.999052e+00 1.860373e+00 1.777283e+00 1.787802e+00 1.756965e+00 4.104351e-01 7.050944e-02 1.209801e-01 1.975058e-01 2.522246e-01 2.475770e-01 2.841624e-01 3.006452e-01 3.607863e-01 3.556025e-01 3.220125e-01 3.056897e-01 2.870338e-01 8.903748e-02
<GCONST> 9.374086e+01
<TRANSP> 5
 0.000000e+00 1.000000e+00 0.000000e+00 0.000000e+00 0.000000e+00
 0.000000e+00 8.252203e-01 1.747796e-01 0.000000e+00 0.000000e+00
 0.000000e+00 0.000000e+00 7.642380e-01 2.357620e-01 0.000000e+00
 0.000000e+00 0.000000e+00 0.000000e+00 7.496849e-01 2.503152e-01
 0.000000e+00 0.000000e+00 0.000000e+00 0.000000e+00 0.000000e+00
<ENDHMM>
~h "ch"
<BEGINHMM>
<NUMSTATES> 5
<STATE> 2
<MEAN> 39
 -6.542927e+00 2.107617e+00 -8.761358e-01 1.104603e+00 1.600017e+00 2.013083e+00 1.801448e+00 1.463410e+00 1.669071e+00 -2.064076e-01 8.919525e-01 3.292438e-01 2.840822e+00 7.146923e-02 1.302569e-02 -1.710066e-02 -2.949080e-01 -3.823883e-02 -1.985983e-01 -2.858915e-01 -2.649245e-01 -5.887040e-02 -1.916773e-01 -1.454443e-01 -3.270825e-02 4.520542e-01 3.468153e-01 -2.822747e-03 5.451446e-03 -2.014119e-01 -1.711198e-01 -2.254043e-01 -1.776070e-01 -1.546081e-01 -1.337977e-01 -6.616712e-02 -6.598066e-02 -2.698676e-02 2.165652e-02
<VARIANCE> 39
 2.083732e+01 1.732611e+01 2.098071e+01 2.277433e+01 2.256955e+01 2.641413e+01 2.367601e+01 2.415832e+01 2.336002e+01 2.021165e+01 1.822886e+01 1.450553e+01 2.026954e+01 3.669005e+00 2.143142e+00 2.605407e+00 3.105198e+00 2.660251e+00 3.528476e+00 3.117976e+00 3.000742e+00 2.995779e+00 2.307471e+00 2.166595e+00 1.743257e+00 2.387332e+00 3.624287e-01 4.077789e-01 5.104268e-01 6.146100e-01 5.055937e-01 5.918919e-01 5.520003e-01 5.044975e-01 5.727730e-01 4.826210e-01 3.933658e-01 3.483471e-01 4.847419e-01
<GCONST> 1.144260e+02
<STATE> 3
<MEAN> 39
 2.881805e+00 1.259197e+00 -1.961683e+00 -5.559085e+00 -3.484775e+00 -6.238614e+00 -4.403790e+00 -4.117799e+00 -3.234435e+00 -3.054458e+00 -1.785022e+00 -2.744136e-01 6.871327e+00 1.169734e+00 -7.224783e-01 -9.758900e-01 -1.106390e+00 -7.904150e-01 -7.509437e-01 -6.071742e-01 -3.634632e-01 -5.820134e-01 -2.982156e-01 -1.423088e-01 -1.368635e-01 1.015492e+00 -4.943553e-01 -1.706980e-01 -6.119620e-03 3.853484e-01 3.687493e-01 5.797726e-01 3.396901e-01 3.352001e-01 3.233646e-01 1.847404e-01 1.096753e-01 3.105030e-02 -1.605997e-01
<VARIANCE> 39
 1.347240e+01 3.507422e+01 3.362365e+01 3.665396e+01 2.162434e+01 4.816893e+01 3.180190e+01 3.268919e+01 2.435764e+01 2.116446e+01 2.683432e+01 2.322813e+01 2.237044e+01 2.105227e+00 2.365930e+00 2.960613e+00 4.577662e+00 2.875380e+00 6.443140e+00 3.881398e+00 3.551109e+00 3.257660e+00 2.892968e+00 2.485310e+00 2.402446e+00 1.629264e+00 2.305512e-01 3.638012e-01 4.046524e-01 7.449731e-01 4.367502e-01 8.709156e-01 6.657579e-01 6.135346e-01 5.438429e-01 5.045570e-01 5.230438e-01 4.460605e-01 2.637605e-01
<GCONST> 1.192875e+02
<STATE> 4
<MEAN> 39
 5.441346e+00 -3.761640e+00 -8.560512e+00 -3.773591e+00 -2.429637e+00 -4.471675e+00 -5.938571e+00 -3.806324e+00 -3.080561e+00 -2.607212e+00 -2.165022e+00 -8.199230e-01 8.277195e+00 1.378033e-01 -1.513072e-01 -1.855381e-01 3.001848e-01 1.251328e-01 1.615943e-01 -1.120885e-01 1.484866e-01 1.416647e-01 8.167204e-02 -9.104577e-02 -2.431913e-02 -2.060745e-01 -8.003101e-02 1.187606e-01 2.059161e-01 7.128642e-02 2.037036e-02 6.963527e-03 4.885231e-02 -1.588495e-03 1.344107e-03 2.712175e-02 2.521525e-02 3.343597e-02 -1.472935e-01
<VARIANCE> 39
 1.624241e+01 3.526146e+01 3.798254e+01 3.871031e+01 2.130640e+01 2.678141e+01 2.132646e+01 2.537370e+01 1.981048e+01 2.345678e+01 2.492938e+01 2.143387e+01 2.042365e+01 3.125271e-01 7.357100e-01 1.590155e+00 1.771480e+00 1.183767e+00 1.360339e+00 1.348902e+00 1.437506e+00 1.350985e+00 1.375137e+00 1.329432e+00 9.744113e-01 5.814584e-01 6.446169e-02 1.287663e-01 1.935934e-01 2.509070e-01 1.856362e-01 2.313513e-01 2.524374e-01 2.611578e-01 2.512288e-01 2.266566e-01 2.414214e-01 1.761761e-01 7.618667e-02
<GCONST> 9.215971e+01
<TRANSP> 5
 0.000000e+00 1.000000e+00 0.000000e+00 0.000000e+00 0.000000e+00
 0.000000e+00 8.899880e-01 1.100120e-01 0.000000e+00 0.000000e+00
 0.000000e+00 0.000000e+00 7.021880e-01 2.978120e-01 0.000000e+00
 0.000000e+00 0.000000e+00 0.000000e+00 8.035594e-01 1.964406e-01
 0.000000e+00 0.000000e+00 0.000000e+00 0.000000e+00 0.000000e+00
<ENDHMM>
~h "ea"
<BEGINHMM>
<NUMSTATES> 5
<STATE> 2
<MEAN> 39
 8.850014e-01 6.193964e+00 -5.782304e+00 -1.016155e+01 -3.378637e+00 -7.235437e+00 -2.582068e+00 -1.350412e+00 -4.308904e-01 -3.421667e+00 -1.373454e+00 -2.296063e+00 7.807164e+00 2.726951e-02 -3.428081e-01 -2.540860e-02 -7.935623e-02 1.084158e-01 3.782554e-01 1.521625e-02 3.516719e-02 -1.636485e-02 -9.360947e-02 -4.374344e-02 7.485234e-02 3.929577e-02 5.614459e-02 -1.779927e-01 1.558750e-01 1.073737e-01 -2.938550e-02 1.630719e-01 -1.972926e-02 -4.159020e-02 -2.240927e-02 2.149754e-02 -9.860474e-03 4.364548e-02 -7.522820e-02
<VARIANCE> 39
 4.552201e+00 1.596025e+01 2.851262e+01 2.359913e+01 2.014640e+01 1.967284e+01 3.479582e+01 1.787259e+01 1.625707e+01 1.539162e+01 1.879301e+01 1.951698e+01 1.117441e+01 1.783983e-01 8.678430e-01 6.053280e-01 7.881508e-01 9.582673e-01 1.269415e+00 1.348902e+00 1.270218e+00 1.350985e+00 1.179817e+00 1.160039e+00 9.744113e-01 2.530991e-01 3.178087e-02 7.230995e-02 1.116662e-01 1.838882e-01 1.662814e-01 2.258437e-01 2.258805e-01 2.527760e-01 2.460654e-01 2.266566e-01 2.048913e-01 1.761761e-01 5.352533e-02
<GCONST> 8.083192e+01
<STATE> 3
<MEAN> 39
 2.243834e+00 -1.188845e+00 -2.872468e+00 -9.136199e+00 -2.921909e+00 -2.535764e-01 -3.839593e+00 -2.163511e+00 -8.145533e-01 -3.214390e+00 -1.978301e+00 -7.997110e-02 7.240271e+00 3.836244e-01 -4.317521e-01 9.830983e-01 1.644538e+00 -3.061149e-01 2.501462e-01 1.961906e-01 -3.980239e-01 -6.816344e-02 5.837927e-01 4.347679e-02 2.662686e-01 -1.223670e+00 -6.259054e-02 3.548298e-01 1.463695e-01 3.155536e-01 9.080585e-02 -4.019788e-01 1.683324e-01 1.016684e-01 -1.329298e-02 1.669510e-01 5.123677e-02 -3.022490e-02 -3.144672e-01
<VARIANCE> 39
 6.913637e+00 1.999749e+01 2.264975e+01 3.241682e+01 2.488000e+01 2.892276e+01 4.963296e+01 2.940862e+01 2.493499e+01 2.493025e+01 3.695445e+01 2.403332e+01 1.334830e+01 5.157434e-01 1.570448e+00 1.538515e+00 2.055725e+00 2.170409e+00 3.263699e+00 3.584515e+00 2.588473e+00 2.508559e+00 1.870305e+00 2.481451e+00 1.949239e+00 1.215088e+00 9.341516e-02 2.068638e-01 2.094229e-01 3.736691e-01 4.362276e-01 5.309201e-01 5.943547e-01 4.232094e-01 4.635963e-01 4.198979e-01 5.282583e-01 3.605244e-01 1.270299e-01
<GCONST> 1.066304e+02
<STATE> 4
<MEAN> 39
 1.591733e+00 3.976368e-01 2.486659e+00 -3.396191e-01 -1.312812e+00 -5.946262e-02 -6.639029e-01 -1.471043e+00 3.230944e-01 2.756572e-01 -1.686865e+00 -1.156690e-01 -5.258726e-01 -2.834074e-01 1.132935e-01 6.478208e-01 1.242124e+00 4.958698e-01 -1.176289e-01 6.537449e-01 5.153192e-01 1.197675e-01 4.913451e-01 2.084044e-01 -7.737645e-02 -1.187086e+00 -6.274761e-02 -4.772180e-02 -2.468815e-01 -3.230039e-01 7.415009e-03 1.399336e-02 -7.712685e-02 9.862363e-02 4.023739e-02 -1.266703e-01 6.957269e-02 3.405301e-02 2.326558e-01
<VARIANCE> 39
 9.628822e+00 1.402800e+01 1.408047e+01 3.140259e+01 1.993642e+01 3.743443e+01 3.623973e+01 4.810885e+01 3.439073e+01 2.508503e+01 2.631218e+01 1.988395e+01 1.688178e+01 6.394597e-01 1.121045e+00 1.586289e+00 2.085681e+00 1.963742e+00 3.285931e+00 2.421470e+00 2.681569e+00 2.357081e+00 2.308718e+00 2.399475e+00 1.942441e+00 8.872288e-01 8.326244e-02 1.567012e-01 2.086684e-01 2.606771e-01 2.945336e-01 3.463269e-01 3.588690e-01 4.530402e-01 3.869436e-01 3.784100e-01 3.616069e-01 3.352960e-01 9.560222e-02
<GCONST> 1.025836e+02
<TRANSP> 5
 0.000000e+00 1.000000e+00 0.000000e+00 0.000000e+00 0.000000e+00
 0.000000e+00 8.894935e-01 1.105066e-01 0.000000e+00 0.000000e+00
 0.000000e+00 0.000000e+00 7.465742e-01 2.534258e-01 0.000000e+00
 0.000000e+00 0.000000e+00 0.000000e+00 6.209680e-01 3.790320e-01
 0.000000e+00 0.000000e+00 0.000000e+00 0.000000e+00 0.000000e+00
<ENDHMM>
~h "eh"
<BEGINHMM>
<NUMSTATES> 5
<STATE> 2
<MEAN> 39
 1.786687e+00 -8.687593e+00 -5.417286e+00 -1.308790e+00 -3.873538e+00 -1.378729e+00 -1.421451e+00 -5.792409e+00 -3.675978e+00 -2.776384e+00 -1.380844e+00 -1.261297e+00 1.183697e+01 2.577411e-01 3.626496e-01 1.612916e-01 -8.805820e-02 -5.946563e-02 -2.832561e-01 7.441013e-02 1.055126e-01 -5.447046e-02 7.732201e-02 7.808382e-02 4.766320e-03 -4.212434e-01 5.843370e-02 2.052853e-01 7.642487e-02 -6.774860e-02 -4.423741e-02 -1.419133e-01 2.273356e-02 9.118368e-02 5.217307e-02 2.318561e-02 -3.601057e-02 1.405015e-02 -1.606698e-01
<VARIANCE> 39
 5.802329e+00 9.186896e+00 1.033809e+01 1.503407e+01 1.805419e+01 2.166541e+01 3.750401e+01 2.358936e+01 3.032765e+01 1.539162e+01 1.478671e+01 1.378418e+01 1.143508e+01 1.875023e-01 5.349717e-01 6.053280e-01 7.497303e-01 9.096583e-01 1.161551e+00 1.348902e+00 1.270218e+00 1.350985e+00 1.179817e+00 1.160039e+00 9.744113e-01 2.581821e-01 3.178087e-02 8.689310e-02 1.080907e-01 1.513233e-01 1.643012e-01 2.258437e-01 2.258805e-01 2.527760e-01 2.460654e-01 2.266566e-01 2.048913e-01 1.761761e-01 4.358681e-02
<GCONST> 7.858913e+01
<STATE> 3
<MEAN> 39
 4.376361e+00 -1.081620e+00 -4.655451e-01 -3.100283e+00 -5.485769e+00 -7.291866e+00 -1.315077e+00 -1.742235e+00 -3.435335e+00 -1.629254e+00 -2.071110e+00 1.384860e-01 5.287066e+00 1.139969e-01 1.379747e+00 1.051666e+00 1.293508e-02 -1.103898e-01 -1.277659e+00 -2.912047e-01 1.847703e-01 2.737009e-01 9.251486e-02 -1.487019e-01 2.971690e-01 -1.093483e+00 -1.268772e-01 -3.124360e-01 -1.991770e-01 1.121103e-01 1.468509e-01 3.025677e-01 -8.288039e-02 -1.924610e-01 2.207580e-02 -5.629032e-02 5.089604e-02 -5.473696e-02 2.456456e-01
<VARIANCE> 39
 5.046313e+00 2.200489e+01 1.965024e+01 1.936891e+01 1.829787e+01 4.306858e+01 2.370909e+01 2.616485e+01 1.951852e+01 2.379549e+01 1.793096e+01 2.652645e+01 1.587078e+01 2.997852e-01 1.878196e+00 1.404920e+00 1.216118e+00 1.337826e+00 2.691924e+00 1.786780e+00 2.394922e+00 1.519396e+00 1.943575e+00 1.262213e+00 1.322755e+00 1.051912e+00 5.499958e-02 3.183699e-01 3.403865e-01 1.875509e-01 2.252350e-01 3.957587e-01 2.563142e-01 2.766099e-01 2.506475e-01 3.386849e-01 2.281059e-01 2.281729e-01 1.472326e-01
<GCONST> 9.564298e+01
<STATE> 4
<MEAN> 39
 4.019461e+00 -1.767079e+00 -2.384585e+00 -3.783854e+00 -4.276723e+00 -5.608211e+00 -1.962428e+00 -4.329800e+00 -1.793375e+00 -2.596951e+00 -1.182792e+00 -3.689738e-01 5.766943e+00 2.370328e-02 2.360834e-01 9.052296e-02 2.401090e-01 2.267142e-01 1.615319e-03 -3.098066e-01 -6.025090e-02 4.373423e-02 1.525362e-01 1.467612e-01 1.038043e-01 -3.486938e-01 -2.192570e-02 -1.441208e-02 1.766459e-02 9.223810e-02 5.951540e-02 1.188331e-01 -2.151516e-03 2.765070e-02 -2.687856e-02 1.573941e-02 8.214178e-03 -3.607221e-02 -3.444244e-02
<VARIANCE> 39
 5.532382e+00 2.360617e+01 1.582301e+01 1.956467e+01 1.850238e+01 3.211361e+01 4.686987e+01 2.189090e+01 1.625707e+01 2.070982e+01 1.502269e+01 2.479010e+01 1.657204e+01 1.783983e-01 4.415662e-01 6.053280e-01 7.497303e-01 9.096583e-01 1.161551e+00 1.348902e+00 1.270218e+00 1.350985e+00 1.179817e+00 1.160039e+00 9.744113e-01 1.879236e-01 3.178087e-02 8.258898e-02 1.192378e-01 1.513233e-01 1.643012e-01 2.258437e-01 2.258805e-01 2.527760e-01 2.460654e-01 2.266566e-01 2.048913e-01 1.761761e-01 3.549903e-02
<GCONST> 8.067037e+01
<TRANSP> 5
 0.000000e+00 1.000000e+00 0.000000e+00 0.000000e+00 0.000000e+00
 0.000000e+00 8.449100e-01 1.550900e-01 0.000000e+00 0.000000e+00
 0.000000e+00 0.000000e+00 6.538345e-01 3.461655e-01 0.000000e+00
 0.000000e+00 0.000000e+00 0.000000e+00 8.077093e-01 1.922906e-01
 0.000000e+00 0.000000e+00 0.000000e+00 0.000000e+00 0.000000e+00
<ENDHMM>
~h "eo"
<BEGINHMM>
<NUMSTATES> 5
<STATE> 2
<MEAN> 39
 1.614207e+00 -6.263207e+00 -3.608731e+00 -6.071754e+00 -6.766089e+00 1.291175e+00 8.094370e-01 -5.917281e+00 -2.765113e+00 -2.154023e+00 -5.974133e+00 -9.120298e-01 1.296902e+01 8.229118e-01 -3.998891e-01 -3.467423e-01 -2.415318e-01 -9.338971e-01 -1.332654e+00 5.186046e-01 2.531244e-01 -1.378531e+00 6.952577e-01 -4.736425e-01 -5.565879e-01 1.726857e-01 -1.044257e-01 4.075058e-01 2.424455e-01 5.579936e-01 4.147406e-01 -2.253014e-01 -1.054944e-02 5.832051e-01 1.685205e-01 1.920865e-01 5.722811e-01 1.148636e-01 -1.059661e+00
<VARIANCE> 39
 5.864521e+00 2.283976e+01 1.033809e+01 2.261193e+01 1.789057e+01 1.805442e+01 2.327390e+01 2.748023e+01 3.021676e+01 2.640596e+01 2.274111e+01 1.797095e+01 4.195680e+01 6.728101e-01 1.589046e+00 1.129378e+00 3.428928e+00 2.570621e+00 2.965715e+00 1.585756e+00 3.549602e+00 2.148184e+00 3.679448e+00 4.185500e+00 1.434711e+00 5.792836e+00 1.409860e-01 1.578688e-01 1.831508e-01 5.790614e-01 5.759481e-01 3.710094e-01 3.664137e-01 4.272867e-01 5.026973e-01 6.597312e-01 7.014297e-01 4.482457e-01 6.036490e-01
<GCONST> 1.092835e+02
<STATE> 3
<MEAN> 39
 3.241818e+00 -2.149647e+00 -1.453357e+00 -2.977147e+00 -7.165689e+00 -5.598884e+00 2.510198e+00 -8.474034e-02 -3.656520e+00 3.540509e-01 -3.131343e+00 -2.023999e+00 3.124425e+00 1.066721e-01 1.129609e+00 6.774231e-01 1.357887e-01 2.800221e-01 -6.611869e-01 -1.784789e-01 2.715847e-01 3.654966e-01 2.356113e-01 2.849355e-01 -2.746992e-04 -1.724602e+00 -2.530253e-01 6.554779e-03 -1.884317e-02 -9.480052e-02 3.598769e-01 5.461481e-01 -8.370331e-02 -3.160517e-01 1.413080e-01 -7.446858e-02 -3.822128e-02 1.695773e-01 1.819498e-01
<VARIANCE> 39
 4.403511e+00 2.649550e+01 1.033809e+01 2.959635e+01 1.574976e+01 3.336357e+01 2.747776e+01 3.185563e+01 2.694893e+01 1.895807e+01 2.016146e+01 3.810527e+01 2.302505e+01 7.791209e-01 1.405791e+00 1.101483e+00 3.367158e+00 3.269704e+00 4.610060e+00 2.649927e+00 3.942770e+00 3.505286e+00 2.086758e+00 3.160858e+00 4.147777e+00 4.653940e+00 1.224348e-01 3.261912e-01 2.196558e-01 6.401787e-01 3.522958e-01 7.070756e-01 4.522661e-01 4.930520e-01 9.044453e-01 4.168125e-01 5.038869e-01 7.887507e-01 4.305307e-01
<GCONST> 1.129643e+02
<STATE> 4
<MEAN> 39
 3.260332e+00 7.142934e-01 -3.626949e-01 -4.067042e+00 -3.753931e+00 -5.946363e+00 3.194167e-01 -8.360327e-01 -3.632546e+00 1.631173e-02 -1.762086e+00 4.064399e-02 1.430801e+00 -6.987958e-02 1.017946e-01 1.909173e-01 8.215988e-02 2.504742e-01 -1.201792e-01 1.477515e-01 -1.695176e-01 -3.824142e-02 -1.735279e-01 1.045759e-01 1.526518e-01 -1.354169e-02 -9.112038e-02 -2.657325e-01 -1.329253e-01 1.566100e-01 -1.118004e-01 3.158088e-01 9.541132e-02 -2.060957e-02 1.020490e-01 -1.164848e-01 7.448108e-04 -6.013977e-03 1.790211e-01
<VARIANCE> 39
 5.121900e+00 9.732774e+00 1.033809e+01 1.959018e+01 2.498913e+01 7.012024e+01 2.718178e+01 2.211483e+01 1.992860e+01 1.764655e+01 2.478252e+01 1.648018e+01 7.327849e+00 4.474773e-01 9.534336e-01 6.531516e-01 1.366459e+00 2.637237e+00 2.701391e+00 1.686548e+00 1.879203e+00 1.560196e+00 1.633376e+00 1.647979e+00 1.676039e+00 1.330808e+00 5.610747e-02 1.818069e-01 1.815594e-01 2.245443e-01 3.875773e-01 3.921220e-01 3.593491e-01 3.350336e-01 3.066195e-01 3.664708e-01 3.249331e-01 2.719204e-01 1.278046e-01
<GCONST> 9.456416e+01
<TRANSP> 5
 0.000000e+00 1.000000e+00 0.000000e+00 0.000000e+00 0.000000e+00
 0.000000e+00 6.731856e-01 3.268144e-01 0.000000e+00 0.000000e+00
 0.000000e+00 0.000000e+00 6.497812e-01 3.502188e-01 0.000000e+00
 0.000000e+00 0.000000e+00 0.000000e+00 7.858126e-01 2.141874e-01
 0.000000e+00 0.000000e+00 0.000000e+00 0.000000e+00 0.000000e+00
<ENDHMM>
~h "er"
<BEGINHMM>
<NUMSTATES> 5
<STATE> 2
<MEAN> 39
 3.843387e+00 -7.338044e+00 -4.162691e+00 -5.169029e-01 -4.311370e+00 -3.482640e-01 -1.753007e+00 -6.729560e+00 -4.219655e+00 -2.918812e+00 -2.610759e+00 -2.235771e+00 9.048069e+00 5.310401e-02 1.806277e-01 2.311513e-01 3.592030e-01 1.198034e-01 -1.738217e-01 -1.432519e-01 2.567989e-02 -6.855906e-02 4.993483e-02 4.527634e-02 1.333131e-01 -4.174722e-01 -3.614217e-02 7.000589e-02 7.336115e-02 9.014085e-03 3.632905e-02 1.185329e-02 2.916216e-02 6.893987e-02 6.407082e-02 2.199642e-02 -8.971235e-03 2.421922e-02 -6.333072e-02
<VARIANCE> 39
 4.948456e+00 1.068238e+01 1.063918e+01 1.895861e+01 1.446436e+01 1.805442e+01 5.606176e+01 2.374160e+01 2.172923e+01 1.601936e+01 1.630619e+01 1.743137e+01 1.069954e+01 1.783983e-01 4.415662e-01 6.053280e-01 7.497303e-01 9.096583e-01 1.161551e+00 1.348902e+00 1.270218e+00 1.350985e+00 1.179817e+00 1.160039e+00 9.744113e-01 1.663331e-01 3.178087e-02 7.230995e-02 1.080907e-01 1.513233e-01 1.643012e-01 2.258437e-01 2.258805e-01 2.527760e-01 2.460654e-01 2.266566e-01 2.048913e-01 1.761761e-01 2.351957e-02
<GCONST> 7.733649e+01
<STATE> 3
<MEAN> 39
 5.804436e-01 -3.258071e+00 3.300186e+00 4.197240e+00 1.363838e+00 2.735906e-01 -6.570743e-01 -1.410622e+00 -1.307581e+00 1.395899e+00 -9.709246e-01 7.823263e-01 -7.263604e-01 -6.452137e-01 3.217891e-02 1.561042e-01 6.799313e-02 6.263636e-01 3.664390e-01 6.393219e-01 6.904631e-01 7.521631e-01 6.207099e-01 2.410807e-01 -3.615564e-02 -7.247288e-01 6.601874e-02 -4.919800e-02 -2.037231e-01 -9.622772e-02 -9.140559e-02 6.930306e-03 1.509230e-02 -8.127706e-02 3.926314e-03 -2.112268e-02 -3.709853e-02 -7.956512e-02 9.014890e-02
<VARIANCE> 39
 6.812780e+00 8.824914e+00 1.653958e+01 2.555514e+01 1.967674e+01 2.133293e+01 3.969862e+01 2.067126e+01 2.706437e+01 2.647365e+01 3.105504e+01 2.423753e+01 7.312271e+00 4.920298e-01 9.648779e-01 1.494234e+00 1.548939e+00 1.350757e+00 1.927218e+00 2.105224e+00 1.627633e+00 1.669013e+00 2.304919e+00 2.459816e+00 1.549748e+00 2.529451e-01 9.080024e-02 1.733273e-01 1.728387e-01 2.211092e-01 1.863241e-01 3.554698e-01 3.329094e-01 3.123575e-01 3.251467e-01 4.395223e-01 4.729910e-01 3.246022e-01 2.351957e-02
<GCONST> 9.338737e+01
<STATE> 4
<MEAN> 39
 -6.065669e-01 -4.631530e-01 1.936254e+00 1.166552e+00 2.123511e+00 2.285352e+00 2.329196e+00 6.565970e-01 7.616838e-01 1.625892e+00 1.133793e+00 9.854031e-02 -3.726044e+00 1.138613e-03 1.601921e-01 4.502829e-02 -2.308265e-02 4.025780e-02 1.050456e-01 6.276502e-02 7.669604e-02 -3.522029e-03 -1.125041e-01 7.456207e-02 -4.747722e-02 -1.316259e-01 3.554104e-04 -6.734595e-03 2.342011e-02 -6.125341e-03 -1.862299e-02 -1.360644e-02 8.050207e-03 2.431801e-02 -2.120451e-02 -1.018392e-02 2.325583e-02 2.815945e-02 1.432234e-02
<VARIANCE> 39
 4.403511e+00 8.824914e+00 1.033809e+01 1.379061e+01 1.446436e+01 1.805442e+01 2.470978e+01 1.757509e+01 1.625707e+01 1.539162e+01 1.599884e+01 1.378418e+01 7.312271e+00 1.783983e-01 4.415662e-01 6.053280e-01 7.497303e-01 9.096583e-01 1.198505e+00 1.751176e+00 1.270218e+00 1.366298e+00 1.179817e+00 1.212928e+00 9.744113e-01 1.543871e-01 3.178087e-02 7.230995e-02 1.080907e-01 1.513233e-01 1.643012e-01 2.689062e-01 3.648342e-01 2.527760e-01 2.912421e-01 2.324085e-01 2.359145e-01 1.761761e-01 2.351957e-02
<GCONST> 7.585952e+01
<TRANSP> 5
 0.000000e+00 1.000000e+00 0.000000e+00 0.000000e+00 0.000000e+00
 0.000000e+00 9.535317e-01 4.646832e-02 0.000000e+00 0.000000e+00
 0.000000e+00 0.000000e+00 8.787019e-01 1.212981e-01 0.000000e+00
 0.000000e+00 0.000000e+00 0.000000e+00 9.347253e-01 6.527466e-02
 0.000000e+00 0.000000e+00 0.000000e+00 0.000000e+00 0.000000e+00
<ENDHMM>
~h "eu"
<BEGINHMM>
<NUMSTATES> 5
<STATE> 2
<MEAN> 39
 3.736451e+00 4.171470e+00 3.217224e+00 -2.649458e+00 -5.263362e+00 -3.203209e+00 -4.525176e+00 -2.539253e+00 -1.211511e+00 1.677104e+00 -1.695003e+00 -6.753711e-01 2.049190e-01 -4.585237e-01 -2.052808e-02 3.588792e-01 9.561116e-01 9.174854e-01 7.096010e-01 5.379765e-01 3.398196e-01 3.417138e-01 1.124796e-02 1.793604e-01 5.889986e-03 -7.674918e-01 -1.202719e-01 -1.676810e-01 -5.046762e-02 1.549207e-03 5.766284e-02 1.424525e-01 1.751674e-01 1.808440e-01 1.112206e-01 2.381529e-03 3.237035e-02 -1.430611e-02 2.383770e-02
<VARIANCE> 39
 5.397369e+00 8.824914e+00 1.822636e+01 2.344531e+01 2.080007e+01 2.337943e+01 2.753352e+01 2.668583e+01 3.543367e+01 2.901212e+01 3.744600e+01 3.432240e+01 7.551701e+00 4.998853e-01 8.467272e-01 8.116527e-01 1.206550e+00 1.188761e+00 2.118624e+00 2.590020e+00 2.352336e+00 1.968679e+00 2.490080e+00 1.730263e+00 1.992712e+00 2.040998e-01 5.280859e-02 1.220530e-01 1.190412e-01 2.654088e-01 2.225494e-01 2.967194e-01 4.080262e-01 3.840793e-01 3.220419e-01 3.471919e-01 3.100438e-01 3.651940e-01 2.589827e-02
<GCONST> 9.249589e+01
<STATE> 3
<MEAN> 39
 -1.260965e+00 4.440498e-01 3.351985e+00 1.798960e+00 6.918919e-01 2.661946e+00 1.901741e+00 2.757308e+00 3.433258e+00 2.101623e+00 6.033182e-03 2.151558e-01 -4.446975e+00 -3.647297e-01 -4.003537e-01 -3.129274e-01 9.760969e-02 3.594544e-01 2.654162e-01 3.582226e-01 5.782788e-01 4.266540e-01 2.678805e-01 5.296187e-01 2.347997e-01 -3.622300e-01 1.552529e-01 1.680018e-01 -2.716503e-02 -6.694198e-02 -1.167069e-01 -2.194205e-01 -2.239433e-01 -2.278360e-01 -2.124664e-01 -7.271969e-02 -4.968306e-02 -1.123540e-02 6.076552e-02
<VARIANCE> 39
 4.403511e+00 8.824914e+00 1.033809e+01 1.379061e+01 1.709504e+01 1.805442e+01 1.841058e+01 1.807089e+01 1.625707e+01 1.778675e+01 1.601091e+01 1.378418e+01 7.312271e+00 2.952056e-01 6.532150e-01 8.023643e-01 1.013391e+00 1.467879e+00 1.654277e+00 1.881856e+00 1.343088e+00 2.307657e+00 2.078145e+00 2.091254e+00 1.379001e+00 1.543871e-01 4.782363e-02 1.178945e-01 1.492914e-01 2.190809e-01 2.770141e-01 3.771817e-01 4.081472e-01 2.621451e-01 4.706647e-01 4.437484e-01 3.133737e-01 2.218975e-01 2.351957e-02
<GCONST> 8.453587e+01
<STATE> 4
<MEAN> 39
 -1.968097e+00 7.488851e-01 1.685918e+00 2.410643e+00 2.235363e+00 3.593579e+00 1.991001e+00 2.515972e+00 2.731221e+00 7.869505e-01 2.888041e+00 1.351513e+00 -6.534097e+00 -2.237678e-02 5.378677e-02 6.607425e-03 3.204549e-02 9.560337e-02 7.152000e-02 4.115500e-03 -4.386333e-02 -9.364464e-02 -1.017648e-01 -1.800074e-02 -4.271973e-03 -4.243914e-02 1.268778e-03 -1.455420e-03 5.428990e-03 -2.083952e-03 -1.212895e-02 4.173880e-03 2.316796e-02 -6.810217e-03 -2.936565e-03 1.131157e-02 -2.135018e-02 -1.812233e-02 1.274162e-02
<VARIANCE> 39
 4.403511e+00 8.824914e+00 1.033809e+01 1.379061e+01 1.446436e+01 1.805442e+01 1.841058e+01 1.757509e+01 1.625707e+01 1.539162e+01 1.478671e+01 1.378418e+01 7.312271e+00 1.783983e-01 4.415662e-01 6.053280e-01 7.497303e-01 9.096583e-01 1.161551e+00 1.348902e+00 1.270218e+00 1.631032e+00 1.189402e+00 1.301774e+00 1.185981e+00 1.543871e-01 3.178087e-02 7.230995e-02 1.080907e-01 1.513233e-01 1.643012e-01 2.258437e-01 2.258805e-01 2.765826e-01 3.450008e-01 2.367281e-01 2.922097e-01 2.654218e-01 2.351957e-02
<GCONST> 7.589423e+01
<TRANSP> 5
 0.000000e+00 1.000000e+00 0.000000e+00 0.000000e+00 0.000000e+00
 0.000000e+00 8.897774e-01 1.102226e-01 0.000000e+00 0.000000e+00
 0.000000e+00 0.000000e+00 8.254955e-01 1.745045e-01 0.000000e+00
 0.000000e+00 0.000000e+00 0.000000e+00 9.324571e-01 6.754290e-02
 0.000000e+00 0.000000e+00 0.000000e+00 0.000000e+00 0.000000e+00
<ENDHMM>
~h "ey"
<BEGINHMM>
<NUMSTATES> 5
<STATE> 2
<MEAN> 39
 1.930043e+00 5.794877e+00 -4.213082e+00 -8.564901e+00 -3.838701e+00 -5.693824e+00 -3.270446e+00 -1.832453e+00 7.761250e-01 -3.175780e+00 -1.367405e+00 -1.902555e+00 5.665260e+00 1.447588e-01 7.179012e-01 2.178664e-01 4.873656e-01 -1.316579e-01 -5.901542e-01 -1.027044e-01 -4.906582e-02 7.949060e-02 2.085646e-01 2.466001e-01 2.622567e-02 -6.835905e-01 -4.118720e-03 -1.623041e-01 8.826934e-02 1.632569e-01 5.084738e-02 1.383860e-01 2.308491e-02 -9.081157e-02 -6.874094e-02 1.684126e-02 -5.097292e-03 3.660176e-02 -2.292552e-02
<VARIANCE> 39
