~o
<STREAMINFO> 1 39
<VECSIZE> 39<NULLD><MFCC_D_A_Z_0><DIAGC>
~h "b"
<BEGINHMM>
<NUMSTATES> 5
<STATE> 2
<MEAN> 39
 -3.329955e-01 6.847036e-01 1.590271e+00 1.742674e+00 1.151629e+00 1.493383e+00 1.246874e+00 5.438349e-01 7.369632e-02 9.805897e-01 7.758166e-01 9.105332e-01 -2.604056e+00 4.820009e-01 -4.114960e-01 -3.800819e-01 -3.925703e-01 -4.498588e-01 -6.643549e-01 -3.949648e-01 -4.887758e-01 -4.550293e-01 -5.716527e-01 -2.315826e-01 -1.957120e-01 1.235204e+00 1.925307e-01 -3.505599e-01 -3.379474e-01 -2.008111e-01 -1.589559e-01 -2.347420e-01 -1.247875e-01 -1.142881e-01 -1.021731e-01 -1.987687e-01 -1.105462e-01 -1.080992e-01 5.229263e-01
<VARIANCE> 39
 8.920700e+00 1.384173e+01 1.526835e+01 1.538112e+01 1.853695e+01 3.193748e+01 3.151347e+01 2.838654e+01 2.405388e+01 2.091681e+01 1.621980e+01 1.543559e+01 1.960094e+01 1.213009e+00 2.046301e+00 2.141602e+00 1.972356e+00 2.193636e+00 3.622763e+00 3.243577e+00 3.471874e+00 2.882380e+00 2.495318e+00 1.880959e+00 1.850537e+00 3.990095e+00 1.702408e-01 3.274897e-01 3.520333e-01 3.112009e-01 3.817186e-01 5.473788e-01 5.970972e-01 6.487050e-01 5.397713e-01 4.699107e-01 3.759084e-01 3.680450e-01 3.831988e-01
<GCONST> 1.093783e+02
<STATE> 3
<MEAN> 39
 3.225482e+00 -4.380729e+00 -3.465793e+00 -1.432387e+00 -2.357423e+00 -3.238628e+00 -1.076305e+00 -2.390021e+00 -3.235333e+00 -2.841636e+00 -1.417279e+00 -7.607695e-01 7.038969e+00 9.019880e-02 -1.054078e+00 -7.715007e-01 -4.904260e-01 -2.210342e-01 -5.900443e-03 5.505614e-02 -3.234240e-01 -4.806321e-02 -3.491575e-01 -1.841938e-01 -2.872983e-01 1.412079e+00 -2.304038e-01 3.415803e-01 3.105725e-01 1.074725e-01 2.036740e-01 2.234768e-01 -4.628560e-03 4.748217e-02 2.067110e-01 1.717193e-01 6.515914e-02 4.691343e-02 -4.793822e-01
<VARIANCE> 39
 1.048322e+01 3.742321e+01 3.714601e+01 2.526383e+01 2.189548e+01 3.411020e+01 3.681446e+01 3.635651e+01 3.474189e+01 2.318686e+01 1.977172e+01 1.923725e+01 4.270558e+01 1.494978e+00 4.350705e+00 5.161895e+00 2.994774e+00 2.501771e+00 4.375409e+00 4.833158e+00 4.784957e+00 4.385443e+00 3.285308e+00 2.344989e+00 2.216803e+00 5.241958e+00 2.280806e-01 7.487652e-01 7.704814e-01 4.819876e-01 4.478587e-01 7.890739e-01 8.655471e-01 9.272063e-01 8.338584e-01 5.602174e-01 4.421520e-01 4.206081e-01 7.291912e-01
<GCONST> 1.240358e+02
<STATE> 4
<MEAN> 39
 1.921484e+00 -3.879837e+00 -1.772900e+00 -2.037941e+00 -1.926261e+00 -2.352427e+00 -2.001094e+00 -3.615810e+00 -2.449651e+00 -2.594874e+00 -1.559533e+00 -1.069575e+00 6.932788e+00 -1.845530e-01 4.798645e-01 2.455980e-01 -3.196718e-01 1.848262e-01 1.694851e-01 -2.283177e-01 3.482589e-02 3.445906e-01 -8.913290e-03 -1.578287e-02 -2.366368e-02 -2.607591e-01 1.787542e-02 9.968106e-02 -4.131035e-02 4.868299e-02 2.438232e-02 -3.192544e-03 7.686695e-02 1.681831e-01 -3.246600e-04 4.319840e-02 4.053901e-02 3.312627e-02 -1.010418e-01
<VARIANCE> 39
 9.817278e+00 3.997175e+01 3.351851e+01 2.972995e+01 2.028449e+01 4.624844e+01 3.508390e+01 2.831525e+01 3.193697e+01 2.648892e+01 2.057250e+01 1.668072e+01 5.218698e+01 5.534514e-01 1.632026e+00 1.560099e+00 1.731394e+00 1.583646e+00 2.732883e+00 2.349430e+00 2.337206e+00 2.306830e+00 2.088888e+00 1.687799e+00 1.394832e+00 1.109745e+00 1.047032e-01 2.911409e-01 3.105631e-01 2.692947e-01 2.955896e-01 5.240452e-01 3.996809e-01 4.250886e-01 4.572026e-01 3.983557e-01 3.375398e-01 2.629891e-01 2.410298e-01
<GCONST> 1.062683e+02
<TRANSP> 5
 0.000000e+00 1.000000e+00 0.000000e+00 0.000000e+00 0.000000e+00
 0.000000e+00 6.790043e-01 3.209957e-01 0.000000e+00 0.000000e+00
 0.000000e+00 0.000000e+00 6.821854e-01 3.178146e-01 0.000000e+00
 0.000000e+00 0.000000e+00 0.000000e+00 6.020871e-01 3.979129e-01
 0.000000e+00 0.000000e+00 0.000000e+00 0.000000e+00 0.000000e+00
<ENDHMM>
~h "c"
<BEGINHMM>
<NUMSTATES> 5
<STATE> 2
<MEAN> 39
 -3.299388e+00 1.742253e+00 -2.525143e+00 -2.013492e+00 -7.195714e-01 2.890086e-02 6.186366e-02 7.356392e-01 6.979188e-01 -1.122683e+00 1.618247e-01 -9.460127e-02 3.755060e+00 3.165932e-01 -2.346796e-01 -5.483914e-01 -1.297822e+00 -3.819774e-01 -2.251221e-01 -5.934194e-01 -4.755223e-01 -2.302086e-01 -5.699646e-01 -3.850658e-01 -2.032503e-01 1.433448e+00 1.304560e-01 -1.375032e-01 6.699581e-02 1.620987e-02 4.415029e-02 2.604526e-02 -5.223325e-02 -8.576619e-02 -7.593867e-02 1.197579e-02 -3.710222e-02 -1.025858e-02 -2.101277e-02
<VARIANCE> 39
 2.501859e+01 1.752274e+01 2.143195e+01 5.579287e+01 2.439573e+01 2.503767e+01 2.703810e+01 2.331863e+01 2.073877e+01 2.406309e+01 2.083766e+01 1.753299e+01 3.725809e+01 3.914951e+00 2.646803e+00 2.358359e+00 5.361106e+00 2.828238e+00 2.763251e+00 3.060394e+00 2.477318e+00 2.141354e+00 2.361746e+00 2.188960e+00 2.043634e+00 2.059914e+00 7.639344e-01 4.445883e-01 4.263800e-01 1.273609e+00 5.747870e-01 4.979280e-01 6.055949e-01 4.739246e-01 4.086648e-01 4.803384e-01 4.008588e-01 3.801456e-01 3.548473e-01
<GCONST> 1.175030e+02
<STATE> 3
<MEAN> 39
 9.565353e-01 -2.939092e+00 -4.838241e+00 -8.038084e+00 -1.656935e+00 -7.606651e-01 -3.904961e+00 -3.223967e+00 -1.566526e+00 -3.528114e+00 -2.384995e+00 -1.402907e+00 1.057572e+01 -1.149345e-01 -9.367309e-01 3.007362e-01 9.977589e-01 3.812254e-01 2.055999e-01 -2.771944e-01 -3.946535e-01 -3.565394e-01 1.660219e-01 1.671253e-01 -2.390453e-02 8.872019e-02 -1.206286e-01 2.801856e-01 2.142858e-01 3.270077e-01 -3.808045e-02 -6.691035e-02 9.245891e-02 1.610369e-01 1.092004e-01 6.721990e-02 1.729151e-01 4.237178e-02 -3.453650e-01
<VARIANCE> 39
 9.943293e+00 1.939119e+01 2.256051e+01 2.635709e+01 2.528448e+01 3.602413e+01 2.828323e+01 2.249425e+01 1.786586e+01 2.001920e+01 2.397248e+01 1.633553e+01 2.897299e+01 3.274022e-01 8.805278e-01 1.079371e+00 1.343901e+00 1.031324e+00 1.784587e+00 2.396856e+00 1.543143e+00 1.587449e+00 1.337809e+00 1.439581e+00 1.254913e+00 4.203483e-01 9.612418e-02 1.258440e-01 1.919418e-01 4.297698e-01 2.706248e-01 3.403194e-01 3.328818e-01 2.479285e-01 2.409928e-01 2.291912e-01 2.572304e-01 2.216302e-01 1.273396e-01
<GCONST> 9.372604e+01
<STATE> 4
<MEAN> 39
 8.783318e-01 -2.900533e+00 -4.177936e+00 -5.799868e+00 -1.385139e+00 -1.866966e+00 -6.149288e+00 -3.379590e+00 -2.612803e+00 -4.325777e+00 -1.070964e+00 -1.403923e+00 9.089642e+00 7.079224e-02 1.163990e-01 1.488999e-01 1.066960e-01 -8.899461e-02 -2.371577e-02 7.425382e-02 -2.122925e-02 7.392883e-02 5.975636e-02 6.524538e-02 1.026490e-01 -2.323023e-01 1.218653e-02 1.283396e-01 -1.493833e-02 -7.628654e-02 -5.139896e-02 -5.085538e-02 5.068661e-02 5.708057e-02 5.615664e-02 2.461602e-02 -1.296704e-02 -1.995284e-03 -5.265002e-02
<VARIANCE> 39
 6.854305e+00 2.031122e+01 1.599033e+01 1.443429e+01 1.928728e+01 3.932404e+01 3.213005e+01 2.141357e+01 1.698816e+01 1.490654e+01 2.224784e+01 2.314744e+01 1.850775e+01 2.081269e-01 5.215026e-01 6.135288e-01 7.967675e-01 9.050559e-01 1.231494e+00 1.287230e+00 1.303863e+00 1.314289e+00 1.150529e+00 1.147231e+00 1.000949e+00 1.712009e-01 3.385720e-02 7.274863e-02 1.046242e-01 1.355965e-01 1.701223e-01 2.220068e-01 2.183448e-01 2.381989e-01 2.353401e-01 2.031258e-01 1.980799e-01 1.764944e-01 2.273603e-02
<GCONST> 7.972097e+01
<TRANSP> 5
 0.000000e+00 1.000000e+00 0.000000e+00 0.000000e+00 0.000000e+00
 0.000000e+00 8.761545e-01 1.238455e-01 0.000000e+00 0.000000e+00
 0.000000e+00 0.000000e+00 4.761748e-01 5.238252e-01 0.000000e+00
 0.000000e+00 0.000000e+00 0.000000e+00 8.600644e-01 1.399356e-01
 0.000000e+00 0.000000e+00 0.000000e+00 0.000000e+00 0.000000e+00
<ENDHMM>
~h "d"
<BEGINHMM>
<NUMSTATES> 5
<STATE> 2
<MEAN> 39
 2.195353e+00 3.702624e+00 3.300820e+00 -2.372331e-01 -4.192088e+00 -3.187385e+00 -2.088040e+00 -3.910514e+00 -3.102758e+00 -1.135569e+00 -5.554340e-01 1.547218e-01 -2.212580e+00 2.176646e-01 -5.328128e-01 -4.872654e-01 -4.193487e-01 -8.401437e-01 -2.057822e-01 -1.574472e-01 -5.868563e-01 -2.752128e-01 -6.691366e-01 -2.482615e-01 -3.999870e-01 1.521301e+00 -1.538647e-01 -7.064856e-01 -5.874336e-01 -2.013107e-01 1.668988e-01 4.131619e-01 3.322812e-01 1.901837e-01 2.794697e-01 -5.142746e-02 5.321497e-02 -8.117410e-02 7.531158e-01
<VARIANCE> 39
 9.850080e+00 1.192308e+01 1.375679e+01 2.154883e+01 2.201941e+01 3.294038e+01 2.736363e+01 2.682552e+01 2.733659e+01 2.473220e+01 2.047693e+01 1.817770e+01 1.309546e+01 1.235205e+00 2.604841e+00 2.829246e+00 2.562256e+00 2.687688e+00 3.895272e+00 4.142215e+00 3.401074e+00 3.354814e+00 2.839799e+00 2.201850e+00 1.830905e+00 3.769722e+00 2.159319e-01 3.397419e-01 4.059159e-01 4.702850e-01 5.375121e-01 6.097186e-01 7.111692e-01 5.990157e-01 6.195286e-01 5.309635e-01 4.581062e-01 3.823963e-01 4.106322e-01
<GCONST> 1.134657e+02
<STATE> 3
<MEAN> 39
 1.530522e+00 -4.733549e+00 -3.858205e+00 -3.488646e+00 -5.565777e+00 8.813000e-02 7.439266e-01 -4.368706e+00 -1.879115e+00 -3.769033e+00 -1.004903e+00 -1.915170e+00 9.638205e+00 -1.566397e-01 -2.414295e+00 -1.692929e+00 1.683995e-01 7.470073e-01 5.491750e-01 1.424041e-01 -3.361060e-01 -9.532705e-02 -2.515499e-01 -3.680838e-03 -2.386984e-01 2.447128e+00 7.555728e-02 3.087282e-01 4.259254e-01 5.204612e-01 3.894382e-01 -4.082985e-01 -3.578014e-01 4.713318e-02 -1.714056e-01 2.456551e-01 1.937266e-03 1.730108e-01 -7.206051e-01
<VARIANCE> 39
 8.166997e+00 2.545804e+01 2.387272e+01 2.552339e+01 2.613099e+01 3.369398e+01 4.378728e+01 2.755163e+01 2.932713e+01 2.049796e+01 1.842205e+01 1.494950e+01 2.439652e+01 1.326725e+00 3.041651e+00 3.772447e+00 3.207427e+00 3.173629e+00 4.178012e+00 5.276904e+00 3.653173e+00 3.964763e+00 2.637375e+00 2.243366e+00 1.957262e+00 4.505427e+00 2.023437e-01 6.239731e-01 6.016245e-01 4.424202e-01 5.367832e-01 6.938773e-01 9.082934e-01 6.084959e-01 6.972969e-01 4.707941e-01 4.232038e-01 3.316061e-01 6.474141e-01
<GCONST> 1.187920e+02
<STATE> 4
<MEAN> 39
 1.763318e+00 -9.303318e+00 -6.162803e+00 1.122819e+00 -2.055766e+00 -2.306196e+00 -1.737502e+00 -4.754150e+00 -3.628631e+00 -2.810007e+00 -1.187613e+00 -1.069925e+00 1.172136e+01 2.079669e-01 -2.987819e-02 1.337689e-01 5.459777e-01 5.046995e-01 -6.999528e-01 -5.371296e-01 4.444257e-01 -7.438172e-02 9.469995e-02 -9.504691e-02 2.367363e-01 -4.072859e-01 4.999913e-02 5.295900e-01 2.699872e-01 -1.981350e-01 -1.718880e-01 -1.715154e-02 6.624901e-02 1.716761e-01 1.228812e-01 3.625030e-03 -2.256742e-02 1.991995e-02 -4.625852e-01
<VARIANCE> 39
 8.380408e+00 1.698832e+01 2.731313e+01 2.311309e+01 2.558400e+01 2.487700e+01 3.908592e+01 2.937425e+01 2.751297e+01 1.754521e+01 1.528047e+01 1.773220e+01 1.896113e+01 5.569047e-01 1.452453e+00 1.480790e+00 1.587700e+00 1.728751e+00 1.953033e+00 2.477452e+00 1.934301e+00 1.773015e+00 1.470714e+00 1.203694e+00 1.218479e+00 8.692779e-01 1.055084e-01 2.578098e-01 2.948751e-01 2.268434e-01 2.808298e-01 3.708473e-01 4.197654e-01 3.804113e-01 4.038934e-01 2.846667e-01 2.295755e-01 2.471688e-01 2.911987e-01
<GCONST> 9.926513e+01
<TRANSP> 5
 0.000000e+00 1.000000e+00 0.000000e+00 0.000000e+00 0.000000e+00
 0.000000e+00 7.319388e-01 2.680612e-01 0.000000e+00 0.000000e+00
 0.000000e+00 0.000000e+00 6.913216e-01 3.086784e-01 0.000000e+00
 0.000000e+00 0.000000e+00 0.000000e+00 6.957941e-01 3.042059e-01
 0.000000e+00 0.000000e+00 0.000000e+00 0.000000e+00 0.000000e+00
<ENDHMM>
~h "h"
<BEGINHMM>
<NUMSTATES> 5
<STATE> 2
<MEAN> 39
 3.191097e+00 7.076365e-01 6.111443e-02 -4.577158e+00 -2.682825e+00 -4.939229e+00 -4.892385e+00 -4.918556e+00 -2.777520e+00 -2.971762e+00 -2.808978e+00 -1.067553e+00 5.242721e+00 2.237233e-01 -2.671907e-01 -4.776537e-02 1.055911e-01 -3.543370e-01 -1.245159e-01 1.789471e-01 3.150271e-02 -2.538377e-01 5.301831e-02 5.095493e-02 -1.516000e-01 -4.097503e-03 -1.089841e-02 -6.508586e-02 -7.859619e-02 5.495064e-02 2.537912e-02 5.690807e-03 3.650685e-02 8.876980e-02 -3.054085e-02 1.909963e-03 3.188602e-02 8.103098e-04 2.952397e-02
<VARIANCE> 39
 6.824771e+00 1.754497e+01 1.653456e+01 1.386495e+01 1.840892e+01 4.612609e+01 2.388772e+01 2.268035e+01 1.682335e+01 1.776002e+01 1.553879e+01 1.886221e+01 1.633456e+01 3.519058e-01 1.865084e+00 9.401116e-01 8.598561e-01 1.042996e+00 2.744020e+00 1.606199e+00 1.401677e+00 1.440213e+00 1.150529e+00 1.188852e+00 1.204266e+00 1.175168e+00 5.894548e-02 2.463686e-01 1.343112e-01 1.355965e-01 1.701223e-01 4.184669e-01 2.823911e-01 3.010322e-01 2.749815e-01 2.031258e-01 2.143206e-01 1.897575e-01 1.460594e-01
<GCONST> 9.000825e+01
<STATE> 3
<MEAN> 39
 6.397060e+00 -3.946262e+00 -4.607029e+00 6.070926e-01 -2.958796e+00 -7.610372e+00 -1.721114e+00 2.314986e-01 -5.129311e+00 -2.702529e+00 -2.981088e+00 -2.282932e+00 6.520701e+00 6.279421e-01 -3.360644e-01 -1.452243e+00 3.700366e-01 7.332502e-01 -3.874210e-01 -9.314246e-01 1.204331e+00 4.439486e-01 9.675771e-03 -3.982839e-01 3.461127e-01 -1.994081e-01 1.164772e-02 3.973265e-01 1.248441e-01 -3.005664e-01 7.199541e-02 9.599155e-02 -2.225123e-01 -3.406245e-01 2.878636e-01 1.814508e-01 -5.441502e-02 8.803409e-02 -2.566848e-01
<VARIANCE> 39
 5.556608e+00 1.622044e+01 2.274468e+01 1.386495e+01 2.349670e+01 1.968134e+01 2.006687e+01 4.029528e+01 2.764438e+01 1.788639e+01 1.504076e+01 1.471322e+01 8.646251e+00 2.081269e-01 1.298787e+00 1.275990e+00 1.350293e+00 1.213369e+00 2.085578e+00 2.139839e+00 4.230477e+00 3.666039e+00 2.357216e+00 1.842491e+00 1.141284e+00 7.887027e-01 5.727061e-02 1.195934e-01 2.096195e-01 1.355965e-01 2.372487e-01 5.250073e-01 3.965005e-01 8.514605e-01 6.239115e-01 4.278023e-01 3.919023e-01 2.574146e-01 9.063341e-02
<GCONST> 9.582533e+01
<STATE> 4
<MEAN> 39
 7.250758e+00 -2.368760e+00 -7.221432e+00 -2.965516e-01 -4.712583e-01 -6.429685e+00 -6.464406e+00 -7.099081e-01 -2.106158e+00 -1.533116e+00 -3.131537e+00 -6.420674e-01 3.714738e+00 1.133047e-01 4.740290e-01 -6.871891e-02 -6.181387e-01 1.741627e-01 5.942231e-01 -3.164662e-01 -5.274347e-01 2.362803e-01 4.660512e-01 5.779061e-01 3.372605e-01 -6.145192e-01 -1.951283e-01 6.043608e-02 2.801226e-01 -5.147915e-02 -1.958893e-01 1.863314e-01 3.168412e-01 -5.567753e-02 -2.143716e-01 -1.277233e-01 2.083484e-01 -2.033956e-02 -5.528621e-02
<VARIANCE> 39
 8.429787e+00 1.559343e+01 2.031371e+01 1.422774e+01 1.501217e+01 2.165753e+01 2.064556e+01 2.015240e+01 1.717529e+01 1.490654e+01 2.615002e+01 1.582843e+01 8.475169e+00 2.081269e-01 5.798237e-01 9.221374e-01 9.833286e-01 9.050559e-01 1.572403e+00 1.301042e+00 2.170111e+00 1.924358e+00 1.182083e+00 1.989425e+00 1.045821e+00 3.877386e-01 3.385720e-02 7.274863e-02 1.389156e-01 1.355965e-01 1.701223e-01 2.346918e-01 2.431412e-01 3.807727e-01 3.323119e-01 2.212939e-01 3.957523e-01 1.875262e-01 2.273603e-02
<GCONST> 8.295754e+01
<TRANSP> 5
 0.000000e+00 1.000000e+00 0.000000e+00 0.000000e+00 0.000000e+00
 0.000000e+00 9.167939e-01 8.320606e-02 0.000000e+00 0.000000e+00
 0.000000e+00 0.000000e+00 7.395390e-01 2.604610e-01 0.000000e+00
 0.000000e+00 0.000000e+00 0.000000e+00 5.657685e-01 4.342315e-01
 0.000000e+00 0.000000e+00 0.000000e+00 0.000000e+00 0.000000e+00
<ENDHMM>
~h "k"
<BEGINHMM>
<NUMSTATES> 5
<STATE> 2
<MEAN> 39
 -2.485048e+00 4.448935e-01 1.997086e+00 1.391702e+00 1.296240e+00 3.195063e+00 3.393075e+00 2.336713e+00 1.826803e+00 1.786850e+00 1.434847e+00 8.734790e-01 -3.321849e+00 -5.614639e-02 -1.014103e+00 -1.111339e-01 8.309557e-02 -4.100655e-01 -2.450063e-01 2.305701e-03 -1.242534e-01 -2.185598e-01 -2.717440e-01 -2.655920e-02 -6.676725e-02 1.154560e+00 2.207163e-01 -1.711123e-01 -2.668025e-01 -2.409153e-01 -2.178361e-01 -3.106214e-01 -2.102768e-01 -2.089726e-01 -2.091075e-01 -2.364885e-01 -1.530488e-01 -9.379653e-02 5.226215e-01
<VARIANCE> 39
 1.033069e+01 1.965304e+01 1.663686e+01 2.504605e+01 2.014384e+01 2.667734e+01 2.236506e+01 2.070071e+01 1.833260e+01 1.682806e+01 1.551239e+01 1.471322e+01 2.202417e+01 1.303901e+00 3.191325e+00 2.106546e+00 3.214161e+00 2.557842e+00 3.341193e+00 2.776250e+00 2.686966e+00 2.444523e+00 2.168644e+00 1.930332e+00 1.609981e+00 4.315181e+00 2.493370e-01 4.982302e-01 3.927793e-01 5.361847e-01 4.194576e-01 5.268651e-01 5.033501e-01 4.739135e-01 4.415399e-01 4.185443e-01 3.770519e-01 3.206198e-01 5.000634e-01
<GCONST> 1.103784e+02
<STATE> 3
<MEAN> 39
 -1.930798e-01 -5.045982e+00 -1.000873e+00 -6.540890e-01 -3.051589e+00 -5.608409e-01 1.504716e+00 -7.453285e-01 -1.075767e+00 -1.483296e+00 6.482194e-02 -2.985606e-01 5.550237e+00 1.040148e+00 -4.399084e-01 -1.261825e+00 -1.006973e+00 -7.053298e-01 -1.057292e+00 -7.695686e-01 -7.730564e-01 -8.152777e-01 -9.202244e-01 -5.820670e-01 -4.251027e-01 1.748581e+00 5.413537e-02 4.352739e-01 -2.765790e-02 -5.124715e-02 3.063594e-01 7.433179e-02 -1.156776e-01 1.037287e-01 1.156386e-01 9.834719e-02 -1.609394e-02 -7.472008e-03 -4.255770e-01
<VARIANCE> 39
 1.503711e+01 3.649907e+01 3.014268e+01 5.076705e+01 2.976342e+01 3.522496e+01 3.219465e+01 3.663202e+01 2.819538e+01 2.416292e+01 2.272188e+01 1.896383e+01 2.519291e+01 1.864820e+00 3.755765e+00 3.983532e+00 4.781602e+00 3.037548e+00 4.092429e+00 3.336271e+00 3.789356e+00 3.158393e+00 2.675472e+00 2.577700e+00 2.334575e+00 3.649681e+00 3.581800e-01 7.295049e-01 7.592687e-01 9.115478e-01 5.537078e-01 7.278492e-01 6.558626e-01 7.509180e-01 6.035994e-01 5.361871e-01 5.191092e-01 4.449944e-01 4.634757e-01
<GCONST> 1.236469e+02
<STATE> 4
<MEAN> 39
 2.363005e+00 -3.175222e+00 -2.352076e+00 -2.728849e+00 -3.442022e+00 -3.110270e+00 -1.362209e+00 -2.220774e+00 -2.483355e+00 -3.093823e+00 -1.039954e+00 -1.354202e+00 6.233680e+00 1.625891e-01 3.236076e-01 -1.391104e-01 -4.210722e-02 2.552477e-01 -2.436582e-01 -3.867272e-01 6.185777e-02 -3.106702e-02 -7.818073e-02 -1.329471e-01 -6.136837e-02 2.689231e-02 -1.812835e-01 5.855082e-02 1.656947e-01 1.747070e-01 1.542211e-01 1.645400e-01 1.194667e-01 1.089073e-01 1.651388e-01 1.750492e-01 9.059714e-02 7.799958e-02 -2.489615e-01
<VARIANCE> 39
 1.235397e+01 3.493221e+01 2.784098e+01 3.580659e+01 2.677124e+01 3.886546e+01 3.432805e+01 3.522426e+01 2.677385e+01 2.368341e+01 1.989347e+01 1.901744e+01 3.502611e+01 1.400505e+00 2.314119e+00 2.969015e+00 2.964912e+00 2.069790e+00 3.055832e+00 2.911701e+00 2.710929e+00 2.218910e+00 2.383501e+00 1.947707e+00 1.838530e+00 2.436473e+00 2.019907e-01 4.152950e-01 5.306733e-01 5.237083e-01 3.640661e-01 5.195856e-01 4.836458e-01 4.978298e-01 4.466157e-01 4.291996e-01 3.560247e-01 3.514485e-01 3.288645e-01
<GCONST> 1.140414e+02
<TRANSP> 5
 0.000000e+00 1.000000e+00 0.000000e+00 0.000000e+00 0.000000e+00
 0.000000e+00 7.346106e-01 2.653894e-01 0.000000e+00 0.000000e+00
 0.000000e+00 0.000000e+00 6.077198e-01 3.922802e-01 0.000000e+00
 0.000000e+00 0.000000e+00 0.000000e+00 5.993821e-01 4.006179e-01
 0.000000e+00 0.000000e+00 0.000000e+00 0.000000e+00 0.000000e+00
<ENDHMM>
~h "l"
<BEGINHMM>
<NUMSTATES> 5
<STATE> 2
<MEAN> 39
 2.966754e+00 -2.181612e+00 -1.047419e+00 -2.634691e+00 -5.336410e+00 -3.455547e+00 -1.882260e+00 -3.499111e+00 -2.380584e+00 -2.419327e+00 -1.655546e+00 -1.266474e+00 6.251387e+00 -1.775453e-02 -2.919669e-01 -2.926472e-01 -3.053958e-01 2.426617e-04 2.428674e-01 -7.602464e-02 -1.153816e-01 -9.362669e-03 -2.357284e-01 -1.736682e-01 -1.038576e-01 4.961227e-01 -5.555030e-02 4.041754e-02 2.669528e-02 -2.068635e-03 1.537712e-01 3.467236e-02 6.049097e-03 8.162424e-02 7.213499e-02 -2.695306e-02 1.495376e-02 2.016063e-02 -7.806668e-02
<VARIANCE> 39
 7.667738e+00 3.276058e+01 2.700738e+01 3.270589e+01 2.913949e+01 4.124781e+01 3.676569e+01 3.359687e+01 3.254551e+01 3.033871e+01 2.580291e+01 2.307833e+01 2.168701e+01 6.965585e-01 2.429541e+00 2.357133e+00 2.704943e+00 2.873682e+00 3.849681e+00 2.963099e+00 3.219289e+00 2.663802e+00 2.644179e+00 2.329114e+00 1.802319e+00 1.677422e+00 1.042437e-01 3.699425e-01 3.513288e-01 4.298040e-01 4.633757e-01 5.871081e-01 4.835193e-01 5.682710e-01 4.742519e-01 4.711723e-01 4.226613e-01 3.134108e-01 1.798511e-01
<GCONST> 1.125254e+02
<STATE> 3
<MEAN> 39
 2.394809e+00 -1.354825e+00 -1.137540e+00 -4.144386e+00 -3.709484e+00 -2.378560e+00 -2.399465e+00 -3.287977e+00 -1.236273e+00 -3.037899e+00 -1.878510e+00 -9.349527e-01 6.000544e+00 -2.659479e-01 3.675958e-01 1.478159e-01 -1.878643e-02 6.855038e-01 -1.209506e-01 -1.500963e-01 2.916563e-01 1.246449e-01 -1.574520e-02 1.044211e-01 3.032317e-02 -2.834468e-01 -1.031664e-02 -1.009163e-02 -4.369562e-02 8.740272e-02 1.072560e-02 -4.426697e-02 1.035200e-01 5.967715e-02 -1.760638e-02 9.640503e-02 3.218588e-02 1.787765e-02 -6.117836e-02
<VARIANCE> 39
 7.168963e+00 3.154165e+01 2.046519e+01 4.323569e+01 2.916944e+01 3.053456e+01 3.886039e+01 3.163453e+01 2.790757e+01 2.939825e+01 2.504108e+01 2.173336e+01 2.417824e+01 5.097523e-01 1.843450e+00 1.861023e+00 2.290125e+00 1.633981e+00 2.664342e+00 2.710521e+00 2.582937e+00 2.380853e+00 2.090074e+00 1.646529e+00 1.561934e+00 1.155459e+00 7.139356e-02 2.694712e-01 2.450094e-01 3.408133e-01 3.141983e-01 4.520964e-01 4.054450e-01 4.024841e-01 4.373820e-01 3.729599e-01 3.202903e-01 2.607960e-01 1.461887e-01
<GCONST> 1.050660e+02
<STATE> 4
<MEAN> 39
 1.730224e+00 -1.543993e+00 -1.616504e+00 -3.451320e+00 -1.514138e+00 -3.204546e+00 -3.158305e+00 -3.267994e+00 -1.288642e+00 -3.577385e+00 -1.270200e+00 -1.084459e+00 6.044056e+00 -1.033007e-01 2.534541e-01 4.854037e-02 4.154598e-02 1.888935e-01 -1.595053e-01 4.879044e-02 2.028472e-01 6.644064e-02 1.757765e-01 -1.059760e-02 1.207572e-01 -3.098426e-01 2.589935e-02 -3.179155e-02 -1.856530e-02 2.310078e-02 -8.303636e-02 2.833473e-02 2.175652e-02 4.282352e-02 -9.402003e-03 4.159328e-02 -6.874416e-03 3.755874e-02 -3.349918e-02
<VARIANCE> 39
 7.397737e+00 3.130863e+01 2.458344e+01 3.214354e+01 2.563604e+01 3.590857e+01 3.683510e+01 3.003845e+01 2.170050e+01 2.362576e+01 1.846730e+01 1.644751e+01 2.325749e+01 3.907895e-01 1.389492e+00 1.241437e+00 1.275333e+00 1.184584e+00 2.068616e+00 1.764871e+00 1.682791e+00 1.536744e+00 1.373197e+00 1.147231e+00 1.033530e+00 7.606047e-01 4.907923e-02 1.915811e-01 1.666046e-01 2.149323e-01 1.893560e-01 2.910196e-01 2.761905e-01 2.619735e-01 2.600221e-01 2.516993e-01 2.008715e-01 1.804648e-01 1.040120e-01
<GCONST> 9.338004e+01
<TRANSP> 5
 0.000000e+00 1.000000e+00 0.000000e+00 0.000000e+00 0.000000e+00
 0.000000e+00 7.690015e-01 2.309985e-01 0.000000e+00 0.000000e+00
 0.000000e+00 0.000000e+00 4.794075e-01 5.205925e-01 0.000000e+00
 0.000000e+00 0.000000e+00 0.000000e+00 6.427575e-01 3.572425e-01
 0.000000e+00 0.000000e+00 0.000000e+00 0.000000e+00 0.000000e+00
<ENDHMM>
~h "m"
<BEGINHMM>
<NUMSTATES> 5
<STATE> 2
<MEAN> 39
 3.994303e+00 2.037038e+00 2.447698e+00 -4.771158e-01 -3.197775e+00 -9.358728e+00 -5.140070e+00 -2.955073e+00 -3.470280e+00 -7.669406e-01 -6.661826e-01 1.717577e+00 1.034771e+00 6.952834e-02 4.624246e-01 4.655328e-01 9.762782e-02 -7.659779e-02 -6.544519e-01 -3.391854e-01 -1.598709e-01 -7.185061e-02 1.043907e-02 6.145522e-03 1.689897e-01 -2.303371e-01 -1.053872e-01 -1.603096e-01 -1.834195e-01 -1.218788e-01 9.411287e-02 4.081843e-01 1.374671e-01 4.795041e-02 7.210014e-02 -2.048657e-02 -3.648544e-02 -9.497359e-02 1.382179e-01
<VARIANCE> 39
 7.628166e+00 1.381284e+01 1.798140e+01 2.330915e+01 2.364886e+01 4.741662e+01 2.822007e+01 3.348346e+01 2.431745e+01 2.560320e+01 2.925551e+01 3.087997e+01 1.384785e+01 6.312894e-01 9.169620e-01 1.222983e+00 1.376027e+00 1.468530e+00 4.368239e+00 2.277370e+00 2.477262e+00 2.026842e+00 1.834642e+00 1.693155e+00 1.589606e+00 1.188746e+00 8.292995e-02 1.607180e-01 2.660996e-01 2.237945e-01 2.675761e-01 5.752417e-01 3.974279e-01 4.593297e-01 3.806638e-01 3.466694e-01 3.288366e-01 2.923899e-01 1.082223e-01
<GCONST> 1.008519e+02
<STATE> 3
<MEAN> 39
 3.092992e+00 2.361701e+00 2.543624e+00 -7.779561e-01 -2.131882e+00 -7.138944e+00 -4.512974e+00 -3.341876e+00 -2.926992e+00 -1.153436e+00 -1.224020e+00 6.061121e-01 1.207222e+00 -3.615226e-01 -1.736688e-01 -4.312300e-01 -2.391464e-01 3.201462e-01 8.529725e-01 3.839760e-01 2.231985e-01 9.477121e-02 -1.070486e-01 -1.770222e-01 -2.793404e-01 3.448147e-01 -1.232383e-01 -1.730160e-01 -2.883107e-01 -1.991076e-02 1.653502e-01 3.865339e-01 2.389079e-01 2.402239e-01 1.552621e-01 6.781956e-02 3.961443e-02 -5.548111e-02 2.548597e-02
<VARIANCE> 39
 9.033353e+00 1.566074e+01 2.321347e+01 2.915201e+01 2.348069e+01 4.696643e+01 2.822047e+01 2.913448e+01 2.325095e+01 2.580250e+01 2.524747e+01 2.705125e+01 1.916476e+01 1.142617e+00 1.493433e+00 2.549350e+00 2.525946e+00 2.444928e+00 5.662899e+00 3.466605e+00 2.925963e+00 2.316752e+00 2.290125e+00 2.203926e+00 1.877636e+00 1.947596e+00 1.349758e-01 2.685882e-01 3.754346e-01 3.749340e-01 3.749313e-01 8.020856e-01 5.559648e-01 4.808562e-01 4.095848e-01 4.345778e-01 3.999881e-01 3.499866e-01 1.597829e-01
<GCONST> 1.105129e+02
<STATE> 4
<MEAN> 39
 1.838022e+00 2.421311e+00 2.222512e+00 2.333653e-02 -2.888291e-01 -2.918342e+00 -2.807065e+00 -2.289936e+00 -2.278347e+00 -9.105132e-01 -1.470411e+00 -1.945724e-01 6.697774e-03 -4.702298e-01 -4.979887e-01 -6.877739e-01 -6.104997e-02 5.034468e-01 1.160671e+00 7.013630e-01 7.306370e-01 4.334789e-01 1.737323e-01 3.043079e-02 -1.103133e-01 -2.321556e-02 2.582925e-02 -1.320064e-01 -1.189607e-01 -1.537415e-03 -2.973437e-02 -4.825291e-02 -8.975903e-03 8.222362e-02 1.175422e-01 5.487238e-02 8.054821e-02 2.776245e-02 3.954833e-02
<VARIANCE> 39
 1.114656e+01 1.459184e+01 2.851142e+01 3.163440e+01 2.077275e+01 3.681755e+01 2.235001e+01 2.353886e+01 2.067802e+01 2.197365e+01 1.961032e+01 2.033574e+01 2.442735e+01 9.879661e-01 1.286754e+00 2.156523e+00 1.897311e+00 1.960840e+00 4.125969e+00 3.187930e+00 2.749124e+00 2.293722e+00 2.287987e+00 2.161026e+00 1.708162e+00 1.300248e+00 9.387492e-02 1.775552e-01 2.980816e-01 2.725226e-01 2.834105e-01 4.836344e-01 3.897241e-01 3.691360e-01 3.547043e-01 3.216896e-01 3.212771e-01 2.776508e-01 9.957448e-02
<GCONST> 1.034930e+02
<TRANSP> 5
 0.000000e+00 1.000000e+00 0.000000e+00 0.000000e+00 0.000000e+00
 0.000000e+00 6.620530e-01 3.379470e-01 0.000000e+00 0.000000e+00
 0.000000e+00 0.000000e+00 4.793109e-01 5.206891e-01 0.000000e+00
 0.000000e+00 0.000000e+00 0.000000e+00 4.693455e-01 5.306545e-01
 0.000000e+00 0.000000e+00 0.000000e+00 0.000000e+00 0.000000e+00
<ENDHMM>
~h "n"
<BEGINHMM>
<NUMSTATES> 5
<STATE> 2
<MEAN> 39
 4.297806e+00 2.248667e+00 1.248716e+00 -3.326450e+00 -4.141142e+00 -6.800175e+00 -3.212129e+00 -4.255196e+00 -3.491308e+00 -2.168252e+00 -2.336670e+00 -8.857365e-01 2.660609e+00 -2.516988e-01 -2.158793e-02 -7.380675e-02 3.587049e-01 2.832718e-01 2.818075e-01 -3.911851e-02 6.803537e-02 1.476760e-02 -3.622087e-02 1.067064e-01 3.156795e-02 -2.056705e-01 -1.470223e-01 -1.582619e-01 -1.212859e-01 1.072878e-01 1.378516e-01 2.607523e-01 8.768120e-02 1.317693e-01 8.765225e-02 3.785840e-02 8.870472e-02 2.824125e-02 1.837180e-02
<VARIANCE> 39
 7.497995e+00 1.963811e+01 2.630051e+01 2.522762e+01 1.870347e+01 3.682306e+01 3.176514e+01 2.679470e+01 2.066946e+01 2.070596e+01 1.926510e+01 2.343517e+01 1.731015e+01 7.007129e-01 1.465452e+00 1.668357e+00 1.580758e+00 1.358190e+00 2.835359e+00 2.053657e+00 2.015360e+00 1.639856e+00 1.611887e+00 1.529758e+00 1.414344e+00 1.188175e+00 9.818024e-02 2.284258e-01 2.392118e-01 2.505059e-01 2.481446e-01 4.389776e-01 4.083458e-01 3.494479e-01 3.042026e-01 3.170332e-01 2.817335e-01 2.532666e-01 1.117758e-01
<GCONST> 9.920589e+01
<STATE> 3
<MEAN> 39
 2.212483e+00 1.395990e+00 8.733300e-01 -8.632686e-01 -1.615660e+00 -3.391239e+00 -2.707239e+00 -2.978407e+00 -2.385631e+00 -1.252213e+00 -8.833418e-01 -2.095926e-02 1.077364e+00 -6.398910e-01 -3.278118e-01 -2.016864e-01 4.428801e-01 7.131100e-01 9.761283e-01 5.315962e-01 7.766687e-01 4.794154e-01 3.337798e-01 2.946573e-01 1.187987e-01 -5.178055e-01 1.279922e-02 -3.065791e-02 -3.281868e-02 -1.011294e-01 -6.526040e-02 -3.647190e-03 1.032434e-01 1.018867e-01 1.019484e-01 6.213109e-02 -7.052969e-03 -1.112434e-02 1.707426e-02
<VARIANCE> 39
 1.160284e+01 2.284136e+01 2.953915e+01 2.583511e+01 2.049815e+01 3.910416e+01 3.114666e+01 2.573094e+01 2.260867e+01 2.603702e+01 2.200718e+01 2.480227e+01 3.194007e+01 7.139610e-01 9.042954e-01 1.266375e+00 1.244920e+00 1.521148e+00 2.434480e+00 2.702743e+00 2.304884e+00 1.968611e+00 1.839806e+00 1.816841e+00 1.594645e+00 5.735757e-01 8.942892e-02 1.635784e-01 1.886592e-01 2.085080e-01 2.524556e-01 3.811325e-01 3.776371e-01 3.651007e-01 3.438232e-01 3.204712e-01 2.947417e-01 2.666527e-01 1.023384e-01
<GCONST> 9.955110e+01
<STATE> 4
<MEAN> 39
 1.735923e+00 5.246659e-01 -1.255089e+00 -2.308280e+00 -1.857312e+00 -3.175116e+00 -3.946141e+00 -2.621438e+00 -1.822053e+00 -1.879564e+00 -7.451248e-01 -7.563820e-01 3.300862e+00 -1.793922e-01 1.213254e-02 -1.542337e-02 1.286208e-01 2.339401e-01 2.832868e-01 2.157417e-01 2.370830e-01 1.694344e-01 1.747187e-01 1.085500e-01 8.189150e-02 -2.826074e-01 1.185904e-02 -1.907653e-03 1.497890e-02 -1.045255e-02 -4.663767e-02 -4.442733e-03 2.248270e-02 -3.148223e-02 -3.939271e-04 1.839406e-03 -1.560299e-02 -1.213857e-02 1.597512e-02
<VARIANCE> 39
 9.412283e+00 2.544643e+01 3.194978e+01 2.442580e+01 1.960672e+01 3.653752e+01 3.284135e+01 2.528679e+01 2.024144e+01 2.219535e+01 1.895885e+01 2.631258e+01 3.602473e+01 3.360815e-01 4.643514e-01 6.501183e-01 7.967675e-01 9.050559e-01 1.231494e+00 1.447182e+00 1.303863e+00 1.314289e+00 1.150529e+00 1.147231e+00 1.000949e+00 2.566087e-01 4.454741e-02 8.108507e-02 1.055278e-01 1.355965e-01 1.701223e-01 2.220068e-01 2.183448e-01 2.381989e-01 2.353401e-01 2.031258e-01 1.980799e-01 1.764944e-01 6.195184e-02
<GCONST> 8.515712e+01
<TRANSP> 5
 0.000000e+00 1.000000e+00 0.000000e+00 0.000000e+00 0.000000e+00
 0.000000e+00 6.745960e-01 3.254040e-01 0.000000e+00 0.000000e+00
 0.000000e+00 0.000000e+00 3.377050e-01 6.622950e-01 0.000000e+00
 0.000000e+00 0.000000e+00 0.000000e+00 7.139238e-01 2.860762e-01
 0.000000e+00 0.000000e+00 0.000000e+00 0.000000e+00 0.000000e+00
<ENDHMM>
~h "p"
<BEGINHMM>
<NUMSTATES> 5
<STATE> 2
<MEAN> 39
 -1.412259e+00 3.164676e-01 1.271395e+00 1.266712e+00 1.042467e+00 2.361891e+00 2.554165e+00 1.752088e+00 1.153245e+00 7.802411e-01 1.134087e+00 5.080839e-01 -1.600767e+00 7.397487e-01 -8.211616e-01 -1.299273e+00 -5.463564e-01 -5.682561e-01 -7.196483e-01 -2.988768e-01 -2.492940e-01 -2.105701e-01 -5.933288e-01 -2.503361e-01 -2.237905e-01 1.956434e+00 3.429929e-01 -1.955405e-01 -4.890220e-01 -1.739950e-01 -1.483854e-01 -3.609796e-01 -2.896453e-01 -1.854801e-01 -1.740306e-01 -1.726137e-01 -2.141750e-01 -9.182967e-02 4.043418e-01
<VARIANCE> 39
 1.152768e+01 1.370614e+01 1.804788e+01 1.863546e+01 1.711886e+01 2.267238e+01 2.057128e+01 2.004474e+01 1.850722e+01 1.821692e+01 1.543870e+01 1.510874e+01 3.099610e+01 2.366375e+00 2.150559e+00 4.472241e+00 2.379816e+00 2.426900e+00 3.679302e+00 2.790375e+00 2.799890e+00 2.625192e+00 2.383278e+00 2.481298e+00 1.911135e+00 4.032079e+00 2.822226e-01 3.429627e-01 5.879214e-01 3.862156e-01 3.970354e-01 5.155790e-01 4.378121e-01 4.803160e-01 4.364286e-01 4.345530e-01 4.144082e-01 3.572030e-01 5.482277e-01
<GCONST> 1.111319e+02
<STATE> 3
<MEAN> 39
 4.715987e+00 -4.867156e+00 -9.004124e+00 -3.757030e+00 -2.605074e+00 -3.707445e+00 -1.465657e+00 -1.378186e+00 -1.609959e+00 -3.024739e+00 -2.656678e+00 -1.770919e+00 9.685852e+00 4.532214e-01 -4.348921e-01 -1.232430e+00 -7.520081e-01 -2.457246e-01 -7.758173e-01 -7.271984e-01 -5.497639e-01 -3.139947e-01 -3.180876e-01 -5.864500e-01 -3.680288e-01 1.029369e+00 -4.790130e-01 4.198658e-01 7.821708e-01 2.601560e-01 2.540472e-01 3.604345e-01 1.809134e-01 9.933318e-02 1.495272e-01 2.345515e-01 2.106406e-01 1.097532e-01 -6.948541e-01
<VARIANCE> 39
 1.423706e+01 2.771572e+01 5.116398e+01 4.032421e+01 2.798874e+01 2.785921e+01 3.008861e+01 2.852710e+01 2.647597e+01 2.240546e+01 2.325969e+01 1.960350e+01 1.478622e+01 1.827632e+00 3.110226e+00 6.112487e+00 3.274025e+00 2.673911e+00 3.147872e+00 3.024481e+00 2.807279e+00 3.011627e+00 2.654991e+00 2.385006e+00 2.067677e+00 2.334055e+00 2.468852e-01 4.060956e-01 8.053939e-01 4.470147e-01 4.862145e-01 5.543547e-01 4.948709e-01 5.209190e-01 5.677837e-01 4.589582e-01 4.529585e-01 3.792586e-01 2.957494e-01
<GCONST> 1.171153e+02
<STATE> 4
<MEAN> 39
 4.426176e+00 -3.566332e+00 -8.369454e+00 -2.920622e+00 -2.870428e+00 -5.078087e+00 -3.009624e+00 -3.090320e+00 -2.513594e+00 -3.004221e+00 -2.879520e+00 -1.704766e+00 8.570968e+00 -5.819908e-02 3.112285e-01 4.317818e-01 -1.581388e-02 -5.421225e-02 -7.117271e-02 -1.351020e-01 -1.053121e-01 -1.011440e-01 7.975488e-02 4.921630e-02 9.701036e-02 -2.327047e-01 -1.498049e-02 4.868378e-02 1.174070e-01 3.124825e-02 1.395205e-02 5.606905e-02 4.269313e-02 4.605216e-02 2.170208e-02 1.146467e-02 5.325470e-02 2.087605e-02 -9.307517e-02
<VARIANCE> 39
 9.512421e+00 3.262647e+01 4.490024e+01 3.731805e+01 3.085190e+01 2.674600e+01 2.597265e+01 2.372835e+01 2.342254e+01 2.531831e+01 2.155060e+01 2.183537e+01 1.776798e+01 2.252282e-01 6.676754e-01 1.061287e+00 1.011503e+00 1.004925e+00 1.231494e+00 1.287230e+00 1.303863e+00 1.356000e+00 1.150529e+00 1.147231e+00 1.000949e+00 2.277635e-01 4.683781e-02 1.015253e-01 1.966620e-01 1.674016e-01 1.758812e-01 2.220068e-01 2.183448e-01 2.381989e-01 2.353401e-01 2.031258e-01 1.980799e-01 1.764944e-01 4.740546e-02
<GCONST> 8.700093e+01
<TRANSP> 5
 0.000000e+00 1.000000e+00 0.000000e+00 0.000000e+00 0.000000e+00
 0.000000e+00 8.026787e-01 1.973213e-01 0.000000e+00 0.000000e+00
 0.000000e+00 0.000000e+00 7.025970e-01 2.974031e-01 0.000000e+00
 0.000000e+00 0.000000e+00 0.000000e+00 8.515027e-01 1.484973e-01
 0.000000e+00 0.000000e+00 0.000000e+00 0.000000e+00 0.000000e+00
<ENDHMM>
~h "r"
<BEGINHMM>
<NUMSTATES> 5
<STATE> 2
<MEAN> 39
 1.447429e+00 -2.524240e+00 -6.564102e-01 -3.966278e+00 -3.537576e+00 -1.557411e+00 -8.870659e-01 -3.506995e+00 -1.234784e+00 -3.138639e+00 -1.103424e+00 -1.561179e+00 6.746591e+00 2.162159e-01 -2.626410e-01 -3.900239e-01 -3.736424e-01 -2.323749e-01 -3.139764e-01 -5.799662e-02 -4.981927e-02 -8.909839e-02 -3.187133e-01 -6.540036e-02 -2.708186e-01 5.747909e-01 -1.563927e-02 1.074772e-02 -6.560832e-02 6.691228e-02 9.976847e-02 -8.237823e-02 -3.393715e-02 1.125050e-01 -2.303571e-02 6.656776e-02 -1.199572e-02 2.010301e-02 -4.135061e-02
<VARIANCE> 39
 1.273512e+01 3.332288e+01 2.371137e+01 4.206974e+01 2.712594e+01 3.215061e+01 3.673705e+01 2.866478e+01 2.466827e+01 2.291106e+01 2.219422e+01 1.987392e+01 3.263017e+01 1.468319e+00 2.435235e+00 2.404587e+00 4.419449e+00 2.531644e+00 3.030606e+00 3.042723e+00 2.841155e+00 2.725097e+00 2.356177e+00 2.260179e+00 1.985802e+00 2.919052e+00 2.860511e-01 4.174418e-01 4.285363e-01 7.939231e-01 4.592945e-01 5.316526e-01 5.319279e-01 5.151914e-01 5.101015e-01 4.414161e-01 4.442943e-01 3.820103e-01 4.777101e-01
<GCONST> 1.166286e+02
<STATE> 3
<MEAN> 39
 2.575423e+00 -4.162068e+00 -3.088818e+00 -4.070889e+00 -3.218251e+00 -4.026734e+00 -1.581408e+00 -2.949554e+00 -2.447573e+00 -3.985616e+00 -1.441562e+00 -2.321713e+00 9.061862e+00 3.253559e-02 4.702559e-01 5.157224e-02 3.060200e-01 3.262104e-01 -6.028126e-01 -4.402705e-01 2.702919e-01 -9.300503e-02 1.812317e-01 -1.511573e-01 1.217522e-01 -4.285469e-01 -7.342206e-02 1.853539e-01 1.589354e-01 1.252412e-01 3.794152e-02 3.958768e-02 -1.875591e-02 -1.923814e-03 8.130384e-02 1.560304e-01 -4.658539e-03 1.036378e-01 -2.192300e-01
<VARIANCE> 39
 8.870894e+00 4.115680e+01 2.638098e+01 4.208745e+01 2.454175e+01 3.680822e+01 3.856967e+01 2.905893e+01 2.447836e+01 2.172369e+01 2.231240e+01 1.860997e+01 2.361192e+01 5.481067e-01 1.945262e+00 2.309144e+00 2.512498e+00 1.748562e+00 2.822300e+00 2.692023e+00 2.426727e+00 2.044462e+00 1.941287e+00 1.976599e+00 1.593871e+00 1.224975e+00 9.913179e-02 2.578751e-01 2.943816e-01 4.194931e-01 2.848242e-01 4.622724e-01 4.244027e-01 4.393603e-01 3.699490e-01 3.724541e-01 3.596822e-01 2.843463e-01 1.361366e-01
<GCONST> 1.061875e+02
<STATE> 4
<MEAN> 39
 2.595056e+00 -3.444609e+00 -3.215305e+00 -2.397574e+00 -2.347019e+00 -5.232271e+00 -3.166359e+00 -3.256184e+00 -2.720579e+00 -3.025385e+00 -1.502984e+00 -1.351399e+00 7.436386e+00 -1.001942e-02 4.025208e-01 1.489423e-01 2.298642e-01 1.446130e-01 -1.505023e-01 -1.750517e-01 1.010159e-01 3.818126e-02 2.742403e-01 -4.755116e-02 2.009385e-01 -4.500473e-01 -1.228099e-02 3.138248e-02 2.952862e-02 -8.519099e-03 -2.657319e-02 1.100033e-01 6.454454e-02 -1.026638e-02 5.984886e-02 2.097974e-02 1.717461e-02 -8.380383e-03 -6.443486e-02
<VARIANCE> 39
 8.901239e+00 3.640278e+01 3.166899e+01 3.376037e+01 2.439591e+01 3.593091e+01 3.969144e+01 3.057417e+01 2.260659e+01 2.181822e+01 1.984786e+01 2.444395e+01 2.633665e+01 3.641266e-01 1.005280e+00 1.322628e+00 1.490553e+00 1.228049e+00 1.783917e+00 1.812432e+00 1.653507e+00 1.489592e+00 1.328954e+00 1.332687e+00 1.218273e+00 5.055774e-01 5.643924e-02 1.569535e-01 1.893187e-01 2.232470e-01 1.937375e-01 2.771316e-01 2.900555e-01 3.056383e-01 2.557043e-01 2.416067e-01 2.352137e-01 2.137633e-01 7.631882e-02
<GCONST> 9.442255e+01
<TRANSP> 5
 0.000000e+00 1.000000e+00 0.000000e+00 0.000000e+00 0.000000e+00
 0.000000e+00 7.120035e-01 2.879966e-01 0.000000e+00 0.000000e+00
 0.000000e+00 0.000000e+00 5.390960e-01 4.609040e-01 0.000000e+00
 0.000000e+00 0.000000e+00 0.000000e+00 6.777732e-01 3.222269e-01
 0.000000e+00 0.000000e+00 0.000000e+00 0.000000e+00 0.000000e+00
<ENDHMM>
~h "s"
<BEGINHMM>
<NUMSTATES> 5
<STATE> 2
<MEAN> 39
 -5.731847e+00 1.221297e+00 5.511860e-01 2.515173e+00 1.212651e+00 2.670115e+00 1.981986e+00 1.474881e+00 1.738236e+00 7.116727e-01 8.940290e-01 5.835344e-01 -1.075228e-01 4.368778e-01 -4.193679e-01 -2.682910e-01 -4.332753e-01 -4.386206e-01 -1.679704e-01 -1.333631e-01 -3.383348e-01 -2.100506e-01 -1.787878e-01 -7.027510e-02 5.799200e-03 4.727573e-01 3.467720e-01 -1.744151e-01 -1.401701e-01 -2.230514e-01 -2.277717e-01 -1.882764e-01 -1.733598e-01 -2.094585e-01 -1.524621e-01 -1.293354e-01 -9.766610e-02 -4.517852e-02 2.699116e-01
<VARIANCE> 39
 1.883419e+01 1.163061e+01 1.295383e+01 1.778876e+01 1.933964e+01 2.232281e+01 2.406430e+01 2.164506e+01 1.944608e+01 1.793965e+01 1.731603e+01 1.479348e+01 1.126980e+01 3.555737e+00 1.638763e+00 1.468231e+00 2.697836e+00 2.815258e+00 2.758780e+00 2.964414e+00 3.034642e+00 2.576342e+00 2.172812e+00 2.210605e+00 1.682822e+00 2.134789e+00 3.251963e-01 2.727666e-01 2.648141e-01 3.657485e-01 4.205387e-01 4.192679e-01 4.988700e-01 4.768770e-01 4.237395e-01 4.112752e-01 3.888980e-01 3.188315e-01 2.713775e-01
<GCONST> 1.067652e+02
<STATE> 3
<MEAN> 39
 2.934787e+00 -5.229945e+00 -3.824850e+00 -3.572840e+00 -5.261233e+00 -1.524589e+00 -1.735516e+00 -4.121037e+00 -2.576531e+00 -2.745101e+00 -1.342282e+00 -4.835809e-01 8.428497e+00 7.483361e-01 -1.335849e+00 -7.870725e-01 -5.567948e-01 -4.404725e-01 -5.133204e-01 -8.537149e-01 -7.282127e-01 -5.869285e-01 -5.523204e-01 -3.291984e-01 -2.548705e-01 1.757344e+00 -6.734523e-01 3.912753e-01 3.445976e-01 5.009050e-01 6.109010e-01 2.357967e-01 1.265730e-01 4.310381e-01 3.012931e-01 2.470133e-01 1.933323e-01 2.297047e-02 -5.312602e-01
<VARIANCE> 39
 1.219441e+01 2.760759e+01 1.690576e+01 2.731946e+01 2.175800e+01 3.122236e+01 3.979375e+01 2.970608e+01 2.573479e+01 2.249108e+01 2.805774e+01 1.736167e+01 2.476649e+01 2.407215e+00 2.617011e+00 2.197354e+00 3.040890e+00 3.114300e+00 3.041128e+00 3.703238e+00 3.644754e+00 2.656072e+00 2.720435e+00 2.646008e+00 1.875325e+00 3.004624e+00 2.976215e-01 3.421275e-01 3.021991e-01 4.049840e-01 4.233394e-01 5.055473e-01 5.783160e-01 5.447811e-01 4.661653e-01 4.301548e-01 5.224577e-01 3.172761e-01 3.262192e-01
<GCONST> 1.146510e+02
<STATE> 4
<MEAN> 39
 2.050341e+00 -6.096952e+00 -3.588583e+00 -1.662712e+00 -2.897995e+00 -2.104358e+00 -4.693272e+00 -3.911587e+00 -3.038488e+00 -2.925556e+00 -1.527270e+00 -1.270145e+00 9.459633e+00 4.567292e-02 3.106712e-01 -1.375778e-02 3.714032e-02 3.099977e-01 -1.957861e-01 -1.472301e-01 1.951672e-01 2.414824e-02 4.895998e-02 -6.935151e-02 -3.033237e-02 -2.251789e-01 4.085802e-03 1.734827e-01 6.182153e-02 -1.866724e-02 -5.439706e-04 2.974678e-03 1.001722e-01 6.133557e-02 4.962081e-02 4.641341e-02 9.910975e-03 2.365322e-02 -1.803975e-01
<VARIANCE> 39
 1.212670e+01 2.932710e+01 2.299322e+01 3.416622e+01 2.168159e+01 2.854663e+01 3.799023e+01 2.684649e+01 2.461964e+01 1.979266e+01 1.881297e+01 1.834685e+01 2.506141e+01 3.650807e-01 7.410202e-01 9.397691e-01 1.220253e+00 1.013282e+00 1.331198e+00 1.575724e+00 1.303863e+00 1.314289e+00 1.150529e+00 1.147231e+00 1.000949e+00 4.406201e-01 6.881694e-02 1.338181e-01 1.455846e-01 1.844208e-01 1.844921e-01 2.301182e-01 2.465082e-01 2.439087e-01 2.353401e-01 2.103760e-01 1.980799e-01 1.764944e-01 1.164569e-01
<GCONST> 8.962323e+01
<TRANSP> 5
 0.000000e+00 1.000000e+00 0.000000e+00 0.000000e+00 0.000000e+00
 0.000000e+00 8.523061e-01 1.476939e-01 0.000000e+00 0.000000e+00
 0.000000e+00 0.000000e+00 6.361192e-01 3.638808e-01 0.000000e+00
 0.000000e+00 0.000000e+00 0.000000e+00 7.457864e-01 2.542136e-01
 0.000000e+00 0.000000e+00 0.000000e+00 0.000000e+00 0.000000e+00
<ENDHMM>
~h "t"
<BEGINHMM>
<NUMSTATES> 5
<STATE> 2
<MEAN> 39
 -1.702830e+00 -1.594416e-01 1.203107e+00 9.247276e-01 1.101209e+00 2.745096e+00 1.806605e+00 1.277413e+00 1.205323e+00 7.141231e-01 1.093087e+00 8.675579e-01 -1.461829e+00 -2.287815e-01 -2.769936e-01 -1.418879e-01 -1.221001e-01 -9.401250e-02 2.242712e-01 1.133480e-01 8.645615e-02 2.311687e-01 -1.755046e-01 5.800037e-02 -3.531129e-02 6.852927e-01 2.280298e-01 -9.612238e-02 -2.105640e-01 -3.585776e-01 -2.660261e-01 -2.289256e-01 -2.338526e-01 -2.558013e-01 -1.298874e-01 -1.720857e-01 -1.538896e-01 -9.080631e-02 4.579541e-01
<VARIANCE> 39
 1.094818e+01 1.524414e+01 1.672344e+01 2.447830e+01 2.366321e+01 2.830425e+01 2.713934e+01 2.859645e+01 2.243653e+01 2.133542e+01 1.835372e+01 1.471322e+01 3.531330e+01 1.255778e+00 1.628858e+00 1.997429e+00 3.085996e+00 2.757509e+00 2.961740e+00 3.441031e+00 3.153852e+00 2.298674e+00 2.615932e+00 2.261966e+00 1.745217e+00 6.102756e+00 2.237951e-01 3.238997e-01 3.215919e-01 4.437819e-01 4.955630e-01 4.853370e-01 5.602057e-01 5.881884e-01 4.751740e-01 4.562921e-01 4.008034e-01 3.164186e-01 6.947216e-01
<GCONST> 1.122347e+02
<STATE> 3
<MEAN> 39
 8.932790e-01 -1.645066e+00 -1.000748e+00 -3.166036e+00 -3.018336e+00 1.108633e-01 -7.797074e-01 -2.240533e+00 -1.352594e-01 -1.797074e+00 -4.964461e-01 -3.866307e-01 5.018171e+00 2.997105e-01 2.042285e-01 -1.197644e-01 -4.006188e-01 -4.172364e-01 -2.713107e-01 -1.781974e-02 -3.242603e-01 -1.855547e-01 -6.308836e-02 -2.905174e-01 -1.461824e-01 1.863915e-02 -5.246614e-02 6.120209e-02 1.702306e-02 1.951313e-01 2.092768e-01 -5.127083e-02 6.665707e-02 1.598625e-01 -4.358900e-02 1.166888e-01 2.394162e-02 3.894060e-02 -3.125839e-01
<VARIANCE> 39
 1.313101e+01 2.653306e+01 2.073484e+01 3.150060e+01 2.891866e+01 3.797508e+01 3.894320e+01 3.371779e+01 2.750765e+01 2.452826e+01 2.373654e+01 1.929537e+01 4.594440e+01 1.823584e+00 3.239669e+00 3.099847e+00 4.304805e+00 3.801376e+00 4.353688e+00 4.149854e+00 4.248643e+00 3.134860e+00 2.887210e+00 2.551210e+00 2.289893e+00 7.090666e+00 2.628002e-01 4.842048e-01 4.413675e-01 5.735340e-01 5.511364e-01 6.159487e-01 6.820064e-01 6.856678e-01 5.627309e-01 5.046721e-01 4.819036e-01 4.164400e-01 7.778432e-01
<GCONST> 1.222408e+02
<STATE> 4
<MEAN> 39
 -2.495400e-01 1.089483e-02 3.216668e-01 -7.926435e-01 -5.710046e-01 1.614632e+00 1.032378e+00 -4.030446e-01 6.484715e-01 8.374560e-02 5.383882e-02 5.095456e-01 -8.648260e-01 -6.053611e-02 -1.987551e-02 -6.871003e-02 1.385600e-01 1.676827e-01 -1.586631e-02 2.060272e-01 2.349347e-01 -1.210215e-02 1.289662e-01 3.515445e-02 -3.469363e-03 -1.979566e-01 3.655744e-02 -9.915011e-02 -3.796764e-02 -1.776053e-03 -3.200930e-02 -9.490283e-02 -4.373399e-02 -1.621173e-02 -4.616738e-02 -5.516370e-02 1.581957e-03 -1.945305e-02 1.878290e-01
<VARIANCE> 39
 8.302668e+00 1.594470e+01 1.602183e+01 2.499314e+01 2.623675e+01 3.767238e+01 3.027883e+01 2.789068e+01 2.120878e+01 2.157500e+01 1.710819e+01 1.537138e+01 4.079507e+01 9.023101e-01 1.257986e+00 1.296756e+00 1.523683e+00 1.873217e+00 2.711309e+00 2.401087e+00 2.402632e+00 2.018308e+00 2.110610e+00 1.658749e+00 1.490428e+00 2.008931e+00 1.309583e-01 2.510989e-01 2.396241e-01 3.207311e-01 3.966822e-01 5.069500e-01 4.800023e-01 4.722151e-01 3.946242e-01 3.985552e-01 3.395903e-01 3.085964e-01 4.112269e-01
<GCONST> 1.047712e+02
<TRANSP> 5
 0.000000e+00 1.000000e+00 0.000000e+00 0.000000e+00 0.000000e+00
 0.000000e+00 6.510175e-01 3.489825e-01 0.000000e+00 0.000000e+00
 0.000000e+00 0.000000e+00 5.569054e-01 4.430946e-01 0.000000e+00
 0.000000e+00 0.000000e+00 0.000000e+00 6.206710e-01 3.793290e-01
 0.000000e+00 0.000000e+00 0.000000e+00 0.000000e+00 0.000000e+00
<ENDHMM>
~h "v"
<BEGINHMM>
<NUMSTATES> 5
<STATE> 2
<MEAN> 39
 3.239667e+00 -8.813153e+00 -6.145583e+00 1.140624e+00 -1.379819e+00 -4.687641e+00 -2.489327e+00 -2.259388e+00 -6.185680e+00 -4.034271e+00 -9.668550e-01 -9.121759e-01 1.099534e+01 -6.008013e-01 -4.614653e-01 1.185971e+00 4.525908e-01 -3.157132e-01 3.326197e-01 -2.107186e-01 -7.944275e-01 -2.104989e-01 3.299776e-01 4.589404e-01 -3.708757e-02 3.347500e-01 6.862087e-02 2.375363e-01 5.870818e-02 -1.971204e-01 -1.084097e-01 1.799788e-02 -1.290514e-01 -5.253394e-02 2.422688e-01 1.329720e-01 -9.966664e-02 -1.020578e-01 -1.688958e-01
<VARIANCE> 39
 9.002697e+00 1.734179e+01 2.530563e+01 1.446461e+01 1.776712e+01 1.968134e+01 2.861031e+01 3.592912e+01 2.744052e+01 2.319076e+01 1.504076e+01 1.471322e+01 3.645590e+01 2.766996e-01 8.272222e-01 1.329143e+00 1.045473e+00 9.050559e-01 1.231494e+00 2.045854e+00 2.045030e+00 2.511213e+00 1.709750e+00 1.477238e+00 1.195967e+00 2.952692e-01 4.835071e-02 7.274863e-02 2.307240e-01 1.576263e-01 1.880644e-01 2.220068e-01 2.966508e-01 2.381989e-01 3.058600e-01 3.008578e-01 2.491155e-01 2.163972e-01 2.829242e-02
<GCONST> 8.841354e+01
<STATE> 3
<MEAN> 39
 1.683240e+00 -9.012874e+00 -1.515520e+00 -5.716098e-01 -2.995042e+00 -1.607432e+00 -5.464017e+00 -7.758549e+00 -2.524917e+00 -3.200395e+00 -9.525381e-01 -7.826781e-01 1.128717e+01 1.379332e-02 2.788781e-01 1.849243e-01 -4.729713e-01 -4.775967e-02 3.451133e-01 -1.276295e-01 -2.989912e-02 2.803679e-01 -1.058295e-01 -9.448930e-02 3.253055e-02 -1.560713e-01 3.766556e-02 6.544717e-02 -6.551710e-02 -7.941801e-02 2.144673e-02 -1.195010e-02 4.586154e-02 1.021691e-01 -3.816376e-02 -3.327896e-02 -3.023165e-02 1.569611e-02 -2.716117e-02
<VARIANCE> 39
 4.892519e+00 1.002042e+01 1.099682e+01 1.386495e+01 1.501217e+01 1.968134e+01 2.522860e+01 2.004361e+01 2.203062e+01 1.682122e+01 1.504076e+01 1.685201e+01 1.762011e+01 2.081269e-01 4.643514e-01 6.135288e-01 7.967675e-01 9.050559e-01 1.231494e+00 1.287230e+00 1.303863e+00 1.314289e+00 1.150529e+00 1.147231e+00 1.000949e+00 1.712009e-01 3.385720e-02 7.274863e-02 1.046242e-01 1.355965e-01 1.701223e-01 2.220068e-01 2.183448e-01 2.381989e-01 2.353401e-01 2.031258e-01 1.980799e-01 1.764944e-01 2.273603e-02
<GCONST> 7.651859e+01
<STATE> 4
<MEAN> 39
 3.214955e+00 -8.183262e-01 -1.975923e+00 -5.921180e+00 -4.490185e+00 -4.966819e+00 -6.142916e+00 -1.907000e+00 -7.892758e-01 -3.561719e+00 -1.850549e+00 -1.031625e+00 4.505143e+00 -1.713993e-03 4.072950e-01 7.015759e-02 8.734390e-02 2.129417e-01 -9.749432e-02 1.509980e-01 2.770475e-01 -9.550370e-03 3.089263e-01 9.618728e-02 3.464680e-02 -4.250582e-01 -3.867575e-02 -3.256461e-02 -1.731764e-02 7.648028e-02 7.630283e-02 4.824478e-02 8.413585e-02 -2.411540e-02 -6.503227e-03 1.475003e-02 7.344133e-03 1.468677e-03 1.602922e-03
<VARIANCE> 39
 6.688778e+00 1.517591e+01 1.431374e+01 1.619243e+01 2.138444e+01 1.968134e+01 3.957056e+01 2.354316e+01 1.643843e+01 3.606669e+01 2.448869e+01 2.774704e+01 2.416031e+01 2.130164e-01 4.643514e-01 6.135288e-01 8.531026e-01 9.050559e-01 1.231494e+00 1.542069e+00 1.506399e+00 1.314289e+00 1.150529e+00 1.181972e+00 1.000949e+00 1.712009e-01 3.385720e-02 7.274863e-02 1.046242e-01 1.355965e-01 1.701223e-01 2.220068e-01 2.183448e-01 2.419060e-01 2.353401e-01 2.031258e-01 2.234800e-01 1.764944e-01 2.273603e-02
<GCONST> 8.098421e+01
<TRANSP> 5
 0.000000e+00 1.000000e+00 0.000000e+00 0.000000e+00 0.000000e+00
 0.000000e+00 6.188966e-01 3.811034e-01 0.000000e+00 0.000000e+00
 0.000000e+00 0.000000e+00 8.843702e-01 1.156298e-01 0.000000e+00
 0.000000e+00 0.000000e+00 0.000000e+00 8.769665e-01 1.230335e-01
 0.000000e+00 0.000000e+00 0.000000e+00 0.000000e+00 0.000000e+00
<ENDHMM>
~h "w"
<BEGINHMM>
<NUMSTATES> 5
<STATE> 2
<MEAN> 39
 2.987575e+00 3.492327e-01 -4.910647e+00 -6.540077e+00 -3.251508e+00 -5.386273e+00 -3.643455e+00 -2.486110e+00 -1.034230e+00 -3.695874e+00 -2.032928e+00 -1.534574e+00 6.916214e+00 1.532973e-01 6.929770e-01 -5.490302e-02 -1.795406e-01 -3.872886e-01 -3.725547e-01 2.826553e-01 2.261092e-01 3.303943e-01 1.205608e-01 6.251290e-02 -7.909912e-02 -4.363171e-01 -3.220034e-02 -6.508487e-02 1.167131e-01 1.362129e-01 -9.420902e-03 5.752395e-02 -5.197622e-02 -6.774668e-02 5.621606e-03 6.268282e-02 2.773147e-02 1.299248e-02 -4.340206e-02
<VARIANCE> 39
 1.046996e+01 3.159289e+01 3.104441e+01 2.943789e+01 3.007266e+01 3.000319e+01 2.765920e+01 2.979011e+01 1.983150e+01 2.342686e+01 2.608052e+01 3.435662e+01 1.597607e+01 3.748860e-01 1.236910e+00 1.462213e+00 2.025013e+00 1.721152e+00 1.921817e+00 2.039819e+00 1.883252e+00 1.653416e+00 1.767744e+00 1.700737e+00 1.773563e+00 5.657501e-01 4.954116e-02 1.006441e-01 1.727987e-01 2.956635e-01 2.709805e-01 3.120849e-01 3.089329e-01 2.912675e-01 2.561905e-01 2.889442e-01 3.011747e-01 2.836110e-01 4.834224e-02
<GCONST> 9.674515e+01
<STATE> 3
<MEAN> 39
 3.080961e+00 5.507541e+00 -2.681024e+00 -5.590767e+00 -4.666310e+00 -6.138719e+00 -2.391413e+00 -1.882119e+00 8.481076e-01 -1.950596e+00 -1.642792e+00 -2.072030e+00 3.624698e+00 -1.541354e-01 1.958031e-01 4.291497e-01 6.940026e-01 2.211026e-01 2.116739e-01 1.522376e-01 -1.037028e-01 3.849731e-02 1.828495e-01 -6.595226e-02 3.434881e-02 -5.963914e-01 -7.000615e-02 -1.765531e-01 -2.560178e-03 3.907923e-02 1.795250e-01 1.980215e-01 5.180811e-02 1.956950e-02 -4.243164e-02 -2.126250e-02 -3.015145e-02 6.774017e-02 8.989001e-03
<VARIANCE> 39
 6.647980e+00 3.052811e+01 2.515887e+01 2.728945e+01 2.778996e+01 2.253185e+01 2.360265e+01 1.942800e+01 1.994323e+01 2.751834e+01 3.029454e+01 2.832433e+01 1.968622e+01 4.122446e-01 7.109312e-01 1.036313e+00 1.639767e+00 1.691384e+00 1.718216e+00 1.390020e+00 1.394317e+00 1.463510e+00 1.645194e+00 1.501802e+00 1.238327e+00 4.569204e-01 4.741007e-02 8.848744e-02 1.475798e-01 2.221157e-01 2.155523e-01 2.485547e-01 2.573366e-01 2.654054e-01 2.715394e-01 3.132865e-01 2.447246e-01 2.042032e-01 3.736497e-02
<GCONST> 9.062939e+01
<STATE> 4
<MEAN> 39
 1.919969e+00 2.773464e+00 -1.786005e+00 -3.562652e+00 -1.408073e+00 -3.748420e+00 -1.826152e+00 -1.932946e+00 -1.049664e+00 -1.812734e+00 -2.002623e+00 -9.816052e-01 3.067022e+00 -1.948037e-01 -9.196454e-02 1.305726e-01 2.457676e-01 3.585360e-01 3.612276e-01 2.023260e-01 1.454202e-01 1.433169e-01 8.801871e-02 4.115194e-04 1.012205e-01 -3.362516e-01 8.928279e-03 -6.181381e-02 -5.507331e-02 -4.351712e-02 -3.777867e-02 1.245462e-02 8.400093e-03 5.023118e-02 4.724205e-02 2.358184e-02 2.944566e-02 -3.938296e-03 2.033872e-02
<VARIANCE> 39
 7.553514e+00 2.671819e+01 2.254402e+01 3.992815e+01 2.736773e+01 2.209554e+01 2.412273e+01 1.893471e+01 1.903946e+01 1.663744e+01 1.800507e+01 1.918894e+01 2.798702e+01 3.516049e-01 6.982293e-01 8.087341e-01 1.291079e+00 1.476769e+00 1.676721e+00 1.532781e+00 1.536587e+00 1.556499e+00 1.371492e+00 1.269802e+00 1.237301e+00 3.180547e-01 3.437725e-02 7.332262e-02 1.288383e-01 2.023075e-01 2.034957e-01 2.238335e-01 2.331143e-01 2.437678e-01 2.692870e-01 2.310830e-01 2.337099e-01 2.168708e-01 3.698916e-02
<GCONST> 8.707423e+01
<TRANSP> 5
 0.000000e+00 1.000000e+00 0.000000e+00 0.000000e+00 0.000000e+00
 0.000000e+00 7.679603e-01 2.320397e-01 0.000000e+00 0.000000e+00
 0.000000e+00 0.000000e+00 6.679868e-01 3.320133e-01 0.000000e+00
 0.000000e+00 0.000000e+00 0.000000e+00 7.163985e-01 2.836015e-01
 0.000000e+00 0.000000e+00 0.000000e+00 0.000000e+00 0.000000e+00
<ENDHMM>
~h "y"
<BEGINHMM>
<NUMSTATES> 5
<STATE> 2
<MEAN> 39
 1.260164e-01 4.391828e+00 2.200430e+00 -1.147857e+00 -3.113155e-01 -3.239714e+00 -1.401922e+00 -1.841717e+00 -5.578321e-01 -8.898315e-01 -8.409560e-01 -1.609614e-01 -1.216190e+00 -5.655838e-01 -9.213123e-01 2.191285e-01 1.489999e+00 1.010599e+00 1.273605e+00 1.037641e+00 7.586768e-01 3.091322e-01 4.924400e-01 2.696654e-01 2.537100e-01 -1.214652e+00 6.227754e-04 -1.620048e-01 -2.283629e-01 -2.296999e-01 -1.146065e-01 1.299833e-01 -4.111335e-03 1.640355e-01 2.110822e-01 6.698817e-02 1.193027e-01 2.566978e-02 1.633194e-01
<VARIANCE> 39
 8.298781e+00 1.641416e+01 1.478233e+01 2.832689e+01 2.521175e+01 2.602234e+01 2.148623e+01 1.827281e+01 2.288610e+01 2.578325e+01 2.579451e+01 3.052081e+01 1.359235e+01 8.620408e-01 1.422365e+00 1.111279e+00 2.464851e+00 2.334064e+00 3.076482e+00 2.182159e+00 2.401547e+00 2.439973e+00 2.738118e+00 2.497376e+00 2.483581e+00 9.614839e-01 1.059526e-01 2.275732e-01 1.772734e-01 6.150017e-01 3.346672e-01 4.623482e-01 3.428943e-01 3.890201e-01 4.465305e-01 5.081569e-01 3.955370e-01 3.610803e-01 1.351071e-01
<GCONST> 1.040176e+02
<STATE> 3
<MEAN> 39
 -1.037289e+00 2.239408e+00 1.902569e+00 1.420617e+00 1.470557e+00 1.708862e-01 1.179711e+00 5.084474e-01 1.094450e+00 1.074590e-01 -9.369072e-02 1.490385e-01 -3.191174e+00 -4.188536e-01 -8.884426e-01 -2.349730e-01 3.139813e-01 4.320920e-01 1.036093e+00 7.141840e-01 9.823971e-01 7.435217e-01 7.462450e-01 3.886139e-01 2.345200e-01 -5.613297e-01 1.528599e-01 1.958250e-01 -6.636676e-02 -4.228219e-01 -3.152054e-01 -3.453907e-01 -2.632473e-01 -1.890229e-01 -9.540560e-02 -2.277157e-02 -2.688814e-03 -3.696181e-03 2.885666e-01
<VARIANCE> 39
 1.082995e+01 1.002042e+01 1.347935e+01 1.428547e+01 2.101205e+01 2.855007e+01 2.944490e+01 1.986476e+01 2.378810e+01 1.981968e+01 1.528982e+01 2.070111e+01 1.041495e+01 4.373236e-01 7.608246e-01 8.613581e-01 1.206223e+00 2.027019e+00 1.654457e+00 1.901214e+00 2.036474e+00 1.869599e+00 1.944317e+00 1.936355e+00 1.963253e+00 2.912075e-01 8.624021e-02 1.265369e-01 1.576466e-01 2.983803e-01 3.020327e-01 3.256631e-01 3.825753e-01 3.366304e-01 3.475071e-01 3.717789e-01 3.648041e-01 3.349884e-01 1.018904e-01
<GCONST> 9.316746e+01
<STATE> 4
<MEAN> 39
 -1.805948e+00 3.546101e-01 1.530708e+00 8.890686e-01 1.219304e+00 1.047138e+00 1.130194e+00 1.376842e+00 1.437613e+00 1.380006e+00 8.875107e-01 4.871443e-01 -3.384803e+00 -1.482334e-01 -3.526980e-01 -5.702576e-02 3.520690e-03 6.406923e-02 3.235267e-01 2.008302e-01 2.665453e-01 1.979630e-01 3.854164e-01 2.365116e-01 1.737880e-01 -1.530133e-01 6.953295e-02 1.662942e-01 6.415861e-02 -1.915354e-01 -1.290163e-01 -2.237899e-01 -1.484779e-01 -1.902052e-01 -1.827357e-01 -1.172780e-01 -9.860052e-02 -6.802116e-02 2.194490e-01
<VARIANCE> 39
 1.217679e+01 1.323514e+01 1.249363e+01 1.386495e+01 1.690766e+01 2.596085e+01 2.411642e+01 2.097362e+01 2.161729e+01 1.490654e+01 1.504076e+01 1.706763e+01 1.252069e+01 3.497460e-01 6.773926e-01 8.600271e-01 1.084954e+00 1.264702e+00 1.249218e+00 1.531895e+00 1.816096e+00 1.413641e+00 1.619766e+00 1.268165e+00 1.601202e+00 3.370165e-01 9.253262e-02 1.542186e-01 1.663353e-01 3.222051e-01 3.298491e-01 3.140317e-01 3.558657e-01 3.395002e-01 2.964064e-01 3.238595e-01 3.136407e-01 3.483817e-01 1.386342e-01
<GCONST> 9.040560e+01
<TRANSP> 5
 0.000000e+00 1.000000e+00 0.000000e+00 0.000000e+00 0.000000e+00
 0.000000e+00 4.542935e-01 5.457065e-01 0.000000e+00 0.000000e+00
 0.000000e+00 0.000000e+00 2.192667e-01 7.807333e-01 0.000000e+00
 0.000000e+00 0.000000e+00 0.000000e+00 4.073257e-01 5.926743e-01
 0.000000e+00 0.000000e+00 0.000000e+00 0.000000e+00 0.000000e+00
<ENDHMM>
~h "aa"
<BEGINHMM>
<NUMSTATES> 5
<STATE> 2
<MEAN> 39
 2.788470e+00 -5.732281e+00 -4.876373e+00 -6.345292e-01 -1.878786e+00 -2.820666e+00 -1.697760e+00 -2.533938e+00 -3.232600e+00 -3.000785e+00 -1.435920e+00 -9.648335e-01 8.390628e+00 2.783742e-01 2.670488e-01 7.418627e-02 -7.459517e-02 -5.597678e-02 -7.534132e-02 -3.786926e-02 3.132336e-03 -2.676826e-02 6.696871e-02 -2.869490e-02 -4.718101e-02 -3.276054e-01 -1.407367e-01 3.127262e-01 3.623749e-01 7.907905e-02 3.827093e-02 6.622650e-02 5.767424e-02 2.891763e-02 1.234957e-01 1.413771e-01 5.707342e-02 4.266975e-02 -4.304592e-01
<VARIANCE> 39
 1.360094e+01 3.602230e+01 3.975150e+01 3.216798e+01 2.832132e+01 2.976241e+01 3.244557e+01 3.306996e+01 2.899053e+01 2.208821e+01 2.050304e+01 1.888758e+01 2.938581e+01 1.258751e+00 4.465441e+00 4.051973e+00 2.704172e+00 2.572480e+00 3.747318e+00 3.292547e+00 3.547329e+00 3.044575e+00 2.500272e+00 2.234651e+00 1.927100e+00 5.028546e+00 2.395381e-01 6.432073e-01 6.403425e-01 4.960862e-01 4.960668e-01 6.935052e-01 6.105023e-01 6.786168e-01 6.102923e-01 5.055188e-01 4.512382e-01 3.595781e-01 5.799954e-01
<GCONST> 1.199864e+02
<STATE> 3
<MEAN> 39
 3.277205e+00 -3.522316e+00 -2.847308e+00 -5.013874e-01 -1.836784e+00 -3.163075e+00 -1.847940e+00 -2.763730e+00 -2.979017e+00 -2.169278e+00 -1.415815e+00 -6.433682e-01 5.493011e+00 -2.114326e-01 1.271548e+00 1.270842e+00 1.444999e-01 1.497386e-01 -8.384788e-02 1.159930e-01 1.395597e-01 2.922750e-01 4.603334e-01 1.138231e-01 1.720438e-01 -1.611608e+00 -1.628887e-01 -9.197907e-02 1.098005e-02 2.036417e-02 5.195921e-02 9.822886e-02 4.471832e-02 5.391870e-02 7.771492e-02 3.094419e-02 5.973317e-02 2.718412e-02 5.751980e-02
<VARIANCE> 39
 9.467210e+00 3.327252e+01 2.969698e+01 3.187092e+01 2.610070e+01 3.522847e+01 3.175077e+01 2.937174e+01 2.393087e+01 1.865501e+01 1.855714e+01 1.782748e+01 2.955388e+01 1.107512e+00 2.852526e+00 2.203618e+00 2.489172e+00 2.020877e+00 4.303905e+00 2.835199e+00 2.611017e+00 2.278598e+00 2.064156e+00 1.843241e+00 1.612363e+00 2.699990e+00 1.410244e-01 4.515135e-01 3.710634e-01 3.726376e-01 3.296724e-01 5.264123e-01 4.294896e-01 4.296479e-01 4.011428e-01 3.552192e-01 3.131259e-01 2.848328e-01 3.790343e-01
<GCONST> 1.103720e+02
<STATE> 4
<MEAN> 39
 3.339478e+00 -4.141398e+00 -4.078505e+00 1.134405e+00 -1.077278e+00 -3.504179e+00 -3.177262e+00 -2.718592e+00 -2.831182e+00 -2.457384e+00 -1.468999e+00 -8.781500e-01 5.522110e+00 -1.034111e-01 4.288453e-01 3.827048e-01 2.505775e-02 1.292377e-01 5.924975e-02 -7.514840e-02 7.919275e-02 1.634071e-01 1.872249e-01 3.931172e-02 7.505302e-02 -5.360874e-01 -3.530975e-02 -4.483724e-02 -6.469003e-02 -2.204370e-02 1.717036e-03 5.174903e-02 4.271651e-02 2.734223e-02 9.421816e-03 -1.473619e-02 1.342292e-02 -2.324970e-03 5.334096e-02
<VARIANCE> 39
 1.050069e+01 3.021762e+01 4.222203e+01 2.728796e+01 2.565362e+01 3.252327e+01 2.720057e+01 2.683704e+01 2.186973e+01 1.821457e+01 1.624882e+01 1.840267e+01 3.467912e+01 3.979095e-01 8.937154e-01 1.107376e+00 1.093806e+00 9.697904e-01 1.447953e+00 1.436790e+00 1.355394e+00 1.314289e+00 1.150529e+00 1.147231e+00 1.000949e+00 7.984400e-01 6.038319e-02 1.733990e-01 1.924128e-01 1.812431e-01 1.701223e-01 2.483265e-01 2.307139e-01 2.381989e-01 2.353401e-01 2.031258e-01 1.980799e-01 1.764944e-01 1.253499e-01
<GCONST> 9.107897e+01
<TRANSP> 5
 0.000000e+00 1.000000e+00 0.000000e+00 0.000000e+00 0.000000e+00
 0.000000e+00 5.997388e-01 4.002612e-01 0.000000e+00 0.000000e+00
 0.000000e+00 0.000000e+00 4.692512e-01 5.307488e-01 0.000000e+00
 0.000000e+00 0.000000e+00 0.000000e+00 7.619086e-01 2.380914e-01
 0.000000e+00 0.000000e+00 0.000000e+00 0.000000e+00 0.000000e+00
<ENDHMM>
~h "ae"
<BEGINHMM>
<NUMSTATES> 5
<STATE> 2
<MEAN> 39
 -5.754573e-01 -5.326405e+00 -2.486910e+00 -5.581984e+00 8.975639e-01 -1.901479e+00 -7.754712e+00 -5.262081e+00 -2.441238e+00 -3.460765e+00 -4.088440e-01 -8.743249e-01 1.216025e+01 7.646765e-02 2.320178e-01 -3.870063e-01 -5.887259e-01 8.689928e-02 1.561282e-01 2.201115e-01 8.894103e-02 -2.447511e-02 -4.143489e-02 -1.053105e-01 7.501674e-02 7.812539e-02 -9.643031e-03 1.809464e-01 1.151042e-01 3.113183e-02 -4.661819e-02 5.485146e-02 1.748247e-01 1.125660e-01 8.348043e-02 2.011997e-02 -3.790359e-02 4.403433e-04 -2.658092e-01
<VARIANCE> 39
 7.561713e+00 1.434677e+01 1.246768e+01 1.516243e+01 1.766542e+01 3.886366e+01 1.866935e+01 1.821100e+01 1.643843e+01 1.490654e+01 1.563558e+01 2.462551e+01 1.387914e+01 2.804285e-01 5.864094e-01 6.135288e-01 8.158700e-01 9.050559e-01 1.231494e+00 1.287230e+00 1.303863e+00 1.314289e+00 1.150529e+00 1.147231e+00 1.000949e+00 4.417084e-01 9.651292e-02 9.669881e-02 1.253886e-01 1.355965e-01 1.766800e-01 2.220068e-01 2.183448e-01 2.381989e-01 2.353401e-01 2.031258e-01 1.980799e-01 1.764944e-01 8.503903e-02
<GCONST> 8.211301e+01
<STATE> 3
<MEAN> 39
 1.287876e+00 -2.372545e+00 -3.844170e+00 -9.940305e+00 -5.789340e-01 -6.903028e-01 -4.396806e+00 -3.630742e+00 -1.988003e+00 -3.957798e+00 -1.979260e+00 -3.583532e-02 1.003401e+01 6.073285e-01 1.148425e+00 8.560822e-01 1.166091e-01 -1.129921e+00 -3.744280e-02 8.694335e-01 6.619632e-01 4.625772e-01 3.229204e-01 -2.688237e-01 -1.903543e-01 -1.675460e+00 -1.313273e-01 1.350894e-01 3.961916e-01 7.624927e-01 2.709537e-02 -1.069090e-01 4.074175e-02 3.528839e-02 4.593363e-02 2.876779e-01 2.093308e-01 3.433938e-02 -5.728345e-01
<VARIANCE> 39
 7.862482e+00 1.789045e+01 1.902376e+01 2.520317e+01 2.796812e+01 3.350415e+01 1.866935e+01 2.207025e+01 1.643843e+01 1.490654e+01 2.386113e+01 1.787774e+01 1.695460e+01 5.673712e-01 1.254623e+00 1.417461e+00 2.464203e+00 1.927083e+00 2.984071e+00 1.597271e+00 1.826330e+00 1.627324e+00 1.430844e+00 1.537766e+00 1.495727e+00 1.716969e+00 1.336540e-01 1.848628e-01 2.881150e-01 3.348581e-01 4.507730e-01 4.295862e-01 3.439285e-01 3.792204e-01 3.327837e-01 2.843594e-01 3.081581e-01 2.656747e-01 1.983642e-01
<GCONST> 9.980145e+01
<STATE> 4
<MEAN> 39
 1.595818e+00 1.552683e+00 -1.944757e-02 -4.142065e+00 -1.959615e+00 -1.251416e+00 -1.734218e+00 -1.846750e+00 -8.534698e-01 -1.234437e+00 -7.782469e-01 1.445254e-01 1.485114e+00 -4.895637e-01 4.281343e-01 8.388171e-01 1.776039e+00 4.293717e-01 5.388610e-01 8.321956e-01 5.338719e-01 3.398595e-01 6.918578e-01 5.608150e-01 2.222882e-01 -1.970446e+00 -2.400997e-01 -2.894733e-01 -2.031931e-01 1.915018e-02 3.295615e-01 1.570757e-01 9.094480e-03 4.804109e-02 1.608875e-02 -2.066365e-02 6.844953e-02 6.284969e-02 2.730915e-01
<VARIANCE> 39
 1.005495e+01 1.573430e+01 1.688226e+01 3.261540e+01 3.167943e+01 3.200644e+01 2.402624e+01 2.350984e+01 2.086727e+01 1.813685e+01 2.328455e+01 1.954316e+01 2.459526e+01 1.131679e+00 1.768164e+00 2.194279e+00 2.905715e+00 3.161384e+00 3.772794e+00 2.635112e+00 2.616273e+00 2.199479e+00 1.899242e+00 2.143542e+00 1.838203e+00 2.769697e+00 1.699796e-01 2.876042e-01 2.917574e-01 5.512543e-01 5.478883e-01 5.771656e-01 4.616936e-01 4.616183e-01 3.809609e-01 3.319047e-01 3.955679e-01 3.389408e-01 3.258219e-01
<GCONST> 1.096032e+02
<TRANSP> 5
 0.000000e+00 1.000000e+00 0.000000e+00 0.000000e+00 0.000000e+00
 0.000000e+00 8.614010e-01 1.385990e-01 0.000000e+00 0.000000e+00
 0.000000e+00 0.000000e+00 5.915618e-01 4.084382e-01 0.000000e+00
 0.000000e+00 0.000000e+00 0.000000e+00 6.639979e-01 3.360021e-01
 0.000000e+00 0.000000e+00 0.000000e+00 0.000000e+00 0.000000e+00
<ENDHMM>
~h "ah"
<BEGINHMM>
<NUMSTATES> 5
<STATE> 2
<MEAN> 39
 1.611208e+00 -4.729640e+00 -1.500520e+00 -3.211506e+00 -1.497865e+00 -1.758079e+00 -7.628757e+00 -4.689154e+00 -2.761410e+00 -3.284928e+00 -1.243963e+00 -1.873451e+00 9.599161e+00 7.755445e-02 2.348050e-01 1.613288e-01 4.815844e-02 6.532677e-03 -3.254665e-02 -1.438378e-01 8.832641e-03 1.864222e-02 5.630434e-02 2.541418e-03 6.490250e-02 -2.732383e-01 2.302461e-02 7.219431e-02 -1.376686e-02 -4.247071e-03 -8.519530e-03 5.579972e-03 9.860499e-02 1.773548e-02 6.618202e-03 1.118184e-02 -7.928709e-03 2.171761e-02 -7.169856e-02
<VARIANCE> 39
 6.233995e+00 1.591120e+01 1.099682e+01 1.386495e+01 1.501217e+01 2.721110e+01 2.605752e+01 2.259029e+01 1.643843e+01 1.747416e+01 1.504076e+01 2.127451e+01 1.623088e+01 2.081269e-01 4.643514e-01 6.135288e-01 7.967675e-01 9.050559e-01 1.231494e+00 1.287230e+00 1.303863e+00 1.314289e+00 1.150529e+00 1.147231e+00 1.000949e+00 2.217445e-01 3.385720e-02 7.274863e-02 1.046242e-01 1.355965e-01 1.701223e-01 2.220068e-01 2.183448e-01 2.381989e-01 2.353401e-01 2.031258e-01 1.980799e-01 1.764944e-01 2.931039e-02
<GCONST> 7.810806e+01
<STATE> 3
<MEAN> 39
 1.736800e+00 -1.307101e+00 1.412518e+00 -9.419246e-01 -9.671159e-01 -1.339963e+00 -6.387572e+00 -5.094501e+00 -1.997446e+00 -1.301700e+00 -6.601193e-01 5.845553e-02 4.009321e+00 -3.676880e-01 5.840245e-01 3.809409e-01 5.057645e-01 2.988923e-01 2.764461e-01 9.472430e-01 4.789412e-01 4.241369e-01 4.041550e-01 -4.976045e-02 1.424800e-01 -1.006709e+00 -7.650067e-02 -8.353055e-02 -1.229670e-01 -2.280242e-02 3.924619e-03 8.675694e-02 2.230948e-01 2.106503e-01 1.076004e-01 3.737094e-02 3.468847e-02 -3.803354e-02 5.472638e-04
<VARIANCE> 39
 9.637256e+00 2.314450e+01 2.040143e+01 2.673958e+01 1.892320e+01 3.123346e+01 3.995438e+01 2.609079e+01 2.206141e+01 2.653285e+01 3.177351e+01 2.211711e+01 2.954305e+01 7.593624e-01 1.365910e+00 1.263992e+00 1.650639e+00 1.404810e+00 2.194723e+00 2.345106e+00 2.030462e+00 1.821264e+00 1.654192e+00 1.535437e+00 1.681690e+00 5.570055e-01 1.030670e-01 2.345154e-01 2.074463e-01 2.408725e-01 2.392875e-01 3.350902e-01 3.793379e-01 3.316715e-01 3.068051e-01 2.739643e-01 2.888039e-01 2.821410e-01 9.723596e-02
<GCONST> 9.932578e+01
<STATE> 4
<MEAN> 39
 6.539188e-02 -6.599205e-01 1.527337e+00 1.242567e+00 6.226408e-01 1.111173e+00 -1.932484e+00 -2.245790e+00 2.803508e-01 2.526134e-01 -1.374698e-01 3.021736e-01 1.178324e+00 -1.375116e-01 2.435687e-01 9.259172e-03 1.289366e-01 8.693063e-02 1.985311e-01 6.440183e-01 5.030507e-01 2.312148e-01 2.587777e-01 2.884708e-02 -1.909290e-02 -6.128833e-01 1.504440e-02 2.178635e-02 -2.824884e-02 -5.750728e-02 -4.184799e-02 -6.176003e-02 -2.735853e-02 1.728910e-02 -4.603063e-02 -6.199463e-02 -1.564056e-03 -1.577306e-02 2.110457e-02
<VARIANCE> 39
 1.630941e+01 1.665272e+01 1.844437e+01 2.457892e+01 1.735952e+01 2.421259e+01 3.336935e+01 3.043667e+01 2.272213e+01 2.394385e+01 1.786234e+01 1.637145e+01 3.053236e+01 4.032800e-01 8.312335e-01 8.627524e-01 1.079227e+00 1.101802e+00 1.631420e+00 1.864193e+00 1.602292e+00 1.585809e+00 1.603540e+00 1.333954e+00 1.241053e+00 3.921644e-01 8.078472e-02 1.458243e-01 1.496526e-01 2.022954e-01 2.015689e-01 2.682982e-01 2.979053e-01 3.051074e-01 3.014979e-01 2.998680e-01 2.384800e-01 2.434188e-01 9.948359e-02
<GCONST> 9.196444e+01
<TRANSP> 5
 0.000000e+00 1.000000e+00 0.000000e+00 0.000000e+00 0.000000e+00
 0.000000e+00 8.950380e-01 1.049620e-01 0.000000e+00 0.000000e+00
 0.000000e+00 0.000000e+00 5.240091e-01 4.759909e-01 0.000000e+00
 0.000000e+00 0.000000e+00 0.000000e+00 6.270596e-01 3.729404e-01
 0.000000e+00 0.000000e+00 0.000000e+00 0.000000e+00 0.000000e+00
<ENDHMM>
~h "am"
<BEGINHMM>
<NUMSTATES> 5
<STATE> 2
<MEAN> 39
 2.546508e+00 -2.924174e+00 -1.517841e-01 -3.359019e+00 -2.266470e+00 -6.145698e+00 -7.025291e+00 -3.377233e+00 -2.679495e+00 -2.861276e+00 -3.041134e+00 -2.480437e+00 7.922793e+00 2.203248e-01 4.585879e-01 1.494233e-01 9.930459e-02 -1.238138e-01 -3.989593e-01 1.341741e-01 1.397465e-02 -3.533525e-02 1.221947e-01 -9.003633e-02 4.664590e-02 -5.448601e-01 -3.473297e-03 -1.177151e-02 -8.537421e-02 6.341478e-03 1.756781e-02 1.415337e-01 8.961165e-02 -5.298500e-02 -4.556511e-02 -2.186494e-02 9.083286e-02 2.623855e-02 -1.622802e-02
<VARIANCE> 39
 8.878549e+00 1.847245e+01 3.337334e+01 1.802333e+01 1.647037e+01 5.335765e+01 2.521175e+01 2.595743e+01 1.745925e+01 2.209171e+01 1.621807e+01 1.932965e+01 2.163999e+01 2.167167e-01 7.734236e-01 1.051192e+00 7.967675e-01 9.050559e-01 2.149132e+00 1.287230e+00 1.462343e+00 1.347501e+00 1.150529e+00 1.147231e+00 1.000949e+00 3.539988e-01 3.517776e-02 1.454923e-01 1.938126e-01 1.355965e-01 1.701223e-01 4.211744e-01 2.183448e-01 2.381989e-01 2.353401e-01 2.031258e-01 1.980799e-01 1.764944e-01 4.763016e-02
<GCONST> 8.614437e+01
<STATE> 3
<MEAN> 39
 3.898932e+00 1.703227e+00 1.318658e+00 -1.921263e+00 -2.834568e+00 -7.266502e+00 -4.992444e+00 -3.721599e+00 -3.053082e+00 -1.402550e+00 -2.300427e+00 -9.700221e-01 1.864465e+00 -3.184509e-01 1.542006e-01 -1.835108e-01 3.051544e-01 3.766365e-01 1.013786e+00 5.038105e-01 -1.183899e-01 2.123818e-02 2.445074e-01 4.370669e-01 2.835357e-01 -6.820745e-01 -9.884017e-02 -1.562748e-01 -1.724203e-02 2.395095e-02 8.449262e-02 1.836690e-01 5.514747e-02 1.649654e-01 1.154774e-01 2.263195e-02 3.470576e-02 1.939042e-02 4.624922e-02
<VARIANCE> 39
 7.322444e+00 1.195321e+01 3.855159e+01 3.042293e+01 2.054527e+01 3.764182e+01 2.216481e+01 2.241195e+01 2.084439e+01 2.214356e+01 1.645025e+01 1.959362e+01 1.336659e+01 5.150187e-01 6.559730e-01 7.724786e-01 9.650967e-01 1.176282e+00 3.220011e+00 1.849804e+00 2.002411e+00 1.747319e+00 1.700482e+00 1.379668e+00 1.308962e+00 2.856485e-01 5.832762e-02 9.855655e-02 1.447526e-01 1.489093e-01 1.931683e-01 3.903848e-01 3.092321e-01 3.168243e-01 3.018099e-01 2.822319e-01 2.379652e-01 2.160429e-01 3.212025e-02
<GCONST> 8.949452e+01
<STATE> 4
<MEAN> 39
 2.415435e+00 1.425984e+00 1.512286e+00 -8.249341e-01 -2.236449e+00 -4.325085e+00 -3.540551e+00 -2.528262e+00 -1.836187e+00 -5.550146e-01 2.369142e-01 4.579583e-01 3.430411e-01 -1.294143e-01 9.536341e-02 6.015293e-03 2.147337e-01 2.372596e-01 4.652773e-01 1.879254e-01 1.109161e-01 1.467547e-01 1.745052e-01 1.558681e-01 1.096789e-01 -3.518808e-01 7.383176e-05 -2.758374e-02 -6.425018e-03 1.586600e-02 2.307746e-02 1.925388e-04 -9.653554e-03 2.889358e-02 3.197138e-03 -3.596557e-02 -7.201645e-02 -4.540020e-02 4.225054e-02
<VARIANCE> 39
 8.315220e+00 1.253558e+01 2.318499e+01 2.291794e+01 2.261721e+01 4.194585e+01 2.384899e+01 2.709798e+01 2.147705e+01 2.362229e+01 1.965103e+01 2.310267e+01 1.643297e+01 2.189885e-01 4.643514e-01 6.135288e-01 7.967675e-01 9.225782e-01 1.268142e+00 1.287230e+00 1.390003e+00 1.314289e+00 1.361920e+00 1.147231e+00 1.095608e+00 1.712009e-01 3.736962e-02 7.274863e-02 1.046242e-01 1.355965e-01 1.701223e-01 2.357076e-01 2.183448e-01 2.483449e-01 2.373790e-01 2.525395e-01 1.980799e-01 2.019680e-01 2.499443e-02
<GCONST> 8.183906e+01
<TRANSP> 5
 0.000000e+00 1.000000e+00 0.000000e+00 0.000000e+00 0.000000e+00
 0.000000e+00 8.494281e-01 1.505719e-01 0.000000e+00 0.000000e+00
 0.000000e+00 0.000000e+00 6.407647e-01 3.592353e-01 0.000000e+00
 0.000000e+00 0.000000e+00 0.000000e+00 8.348278e-01 1.651722e-01
 0.000000e+00 0.000000e+00 0.000000e+00 0.000000e+00 0.000000e+00
<ENDHMM>
~h "aw"
<BEGINHMM>
<NUMSTATES> 5
<STATE> 2
<MEAN> 39
 4.672240e+00 -3.824961e+00 -3.680222e+00 -1.107062e+00 -1.869295e+00 -4.666611e+00 -4.604395e+00 -3.533771e+00 -4.787092e+00 -1.662606e+00 -9.619787e-01 5.410035e-01 5.505287e+00 -3.155759e-02 8.398675e-01 5.011942e-01 -1.903258e-01 -2.654049e-01 -4.692131e-01 2.847322e-02 -9.343910e-02 3.041304e-01 1.373176e-01 1.966682e-01 2.047312e-01 -5.221080e-01 -6.682452e-02 1.426686e-02 9.060267e-02 7.666503e-02 1.136415e-02 -3.031683e-02 -8.362463e-02 -2.853075e-02 8.759798e-02 -2.010372e-02 4.931393e-02 -8.618159e-03 -6.470453e-03
<VARIANCE> 39
 7.555512e+00 3.744583e+01 1.897334e+01 3.005703e+01 2.216736e+01 2.809816e+01 2.144654e+01 2.574027e+01 2.250093e+01 2.121388e+01 1.729219e+01 2.613407e+01 1.670151e+01 2.744510e-01 9.449303e-01 1.905322e+00 2.474798e+00 1.933650e+00 2.074420e+00 1.977116e+00 2.008803e+00 1.830400e+00 1.653142e+00 1.478597e+00 1.111367e+00 1.946045e-01 3.385720e-02 1.075305e-01 1.755081e-01 3.849413e-01 2.932964e-01 3.707590e-01 3.985174e-01 3.589605e-01 2.815245e-01 2.874453e-01 2.505012e-01 1.764944e-01 2.273603e-02
<GCONST> 9.255977e+01
<STATE> 3
<MEAN> 39
 3.721789e+00 4.178616e+00 1.835118e+00 -1.129366e+00 -3.351607e+00 -7.913556e+00 -5.705384e+00 -5.354986e+00 -5.152380e-01 -1.508799e-01 1.959368e+00 7.097744e-01 6.768370e-01 -4.264112e-01 4.185982e-01 9.804265e-01 6.827992e-01 2.113968e-01 1.856478e-01 5.558476e-02 -4.488415e-02 -3.545045e-02 -4.015200e-03 2.708614e-01 -5.288723e-02 -6.209913e-01 -1.777998e-02 -1.989294e-01 -1.700177e-01 4.438210e-02 2.584116e-01 4.454786e-01 3.014542e-01 1.792902e-01 -2.070429e-01 -1.152616e-01 -3.003702e-01 -8.641779e-04 -4.322434e-03
<VARIANCE> 39
 4.892519e+00 1.456601e+01 1.270363e+01 2.485271e+01 2.263545e+01 2.224377e+01 1.866935e+01 2.539788e+01 2.157502e+01 2.359636e+01 3.391963e+01 3.460616e+01 8.475169e+00 2.081269e-01 6.260718e-01 1.003214e+00 1.589315e+00 1.219235e+00 2.169902e+00 2.301362e+00 1.650636e+00 1.941358e+00 1.666299e+00 2.257211e+00 1.346050e+00 2.242680e-01 4.490186e-02 9.516232e-02 1.533131e-01 2.536870e-01 2.390326e-01 3.668897e-01 3.663519e-01 3.150178e-01 3.527552e-01 3.307242e-01 3.786711e-01 2.716956e-01 3.479030e-02
<GCONST> 8.996941e+01
<STATE> 4
<MEAN> 39
 2.444678e+00 4.576330e+00 4.894357e+00 1.872027e+00 -1.849681e-01 -2.957055e+00 -3.286492e+00 -3.838105e+00 -2.358147e+00 -1.582321e+00 -6.815673e-01 -1.421515e+00 -1.417231e+00 -4.988301e-01 -5.797511e-02 3.173448e-01 4.883484e-01 7.000892e-01 1.095785e+00 7.487390e-01 5.412660e-01 -5.564517e-02 -1.487867e-01 -5.890422e-01 -1.281065e-01 -6.960365e-01 -6.753042e-02 -2.128546e-01 -2.599376e-01 -3.597622e-02 2.442627e-02 8.856101e-02 1.132602e-01 1.620249e-01 1.207166e-01 1.891642e-01 1.162215e-01 1.287553e-01 -1.822142e-02
<VARIANCE> 39
 4.892519e+00 1.254927e+01 1.333537e+01 2.761063e+01 2.798455e+01 2.400218e+01 1.866935e+01 1.821100e+01 2.084995e+01 2.777916e+01 3.085792e+01 2.917089e+01 1.288239e+01 2.570572e-01 8.078976e-01 6.953747e-01 1.240702e+00 1.501980e+00 2.617954e+00 1.927204e+00 1.357531e+00 1.710667e+00 2.060806e+00 1.548767e+00 1.532724e+00 2.513345e-01 4.504715e-02 8.278555e-02 1.302155e-01 3.328596e-01 3.515826e-01 4.119442e-01 3.437614e-01 2.853791e-01 4.402175e-01 4.124793e-01 3.424440e-01 2.565895e-01 5.020878e-02
<GCONST> 9.100337e+01
<TRANSP> 5
 0.000000e+00 1.000000e+00 0.000000e+00 0.000000e+00 0.000000e+00
 0.000000e+00 8.847693e-01 1.152307e-01 0.000000e+00 0.000000e+00
 0.000000e+00 0.000000e+00 7.186009e-01 2.813991e-01 0.000000e+00
 0.000000e+00 0.000000e+00 0.000000e+00 5.427528e-01 4.572472e-01
 0.000000e+00 0.000000e+00 0.000000e+00 0.000000e+00 0.000000e+00
<ENDHMM>
~h "ay"
<BEGINHMM>
<NUMSTATES> 5
<STATE> 2
<MEAN> 39
 6.663365e-01 1.509622e+00 -5.227882e+00 -8.588040e+00 -1.043171e+00 -3.465801e+00 -5.067309e+00 -3.421826e+00 -1.089168e+00 -5.303790e+00 -1.963687e+00 -2.742398e+00 1.020818e+01 3.202403e-01 1.482128e+00 -1.731831e-01 -4.679080e-01 -5.709519e-01 -7.088916e-01 5.128193e-01 5.147818e-01 3.290293e-01 8.501384e-02 -2.406981e-02 -2.918370e-01 -7.734818e-01 3.908508e-02 -1.131664e-01 2.661031e-01 2.607622e-01 -1.199660e-01 -4.351352e-02 -5.685110e-02 -5.221907e-02 -1.982980e-02 1.567789e-01 2.357526e-02 1.160183e-02 -1.470724e-01
<VARIANCE> 39
 7.375499e+00 3.115841e+01 2.631951e+01 2.066840e+01 2.619425e+01 4.263190e+01 2.351870e+01 1.892095e+01 1.657405e+01 1.490654e+01 2.003560e+01 2.021904e+01 1.545218e+01 2.390625e-01 1.098738e+00 1.863918e+00 1.366648e+00 1.710576e+00 2.041982e+00 1.681228e+00 1.605939e+00 1.790707e+00 1.418587e+00 1.781821e+00 1.765988e+00 3.401874e-01 4.061816e-02 1.855584e-01 2.535319e-01 2.219843e-01 2.958294e-01 3.593942e-01 3.287807e-01 2.956606e-01 2.991685e-01 2.525238e-01 3.315988e-01 3.356285e-01 4.896396e-02
<GCONST> 9.349080e+01
<STATE> 3
<MEAN> 39
 2.873338e+00 6.556729e+00 -9.304043e-01 -6.689926e+00 -4.046879e+00 -6.031746e+00 -3.957830e+00 -2.104696e+00 -8.974209e-02 -3.378699e+00 -2.111514e+00 -3.303920e+00 3.753615e+00 -2.135564e-01 -2.178621e-01 1.145019e+00 1.382168e+00 2.715040e-01 5.285393e-01 1.942534e-01 -1.013653e-01 -4.685881e-02 5.392588e-01 1.933588e-01 4.439839e-01 -1.317238e+00 -2.446664e-01 -3.184214e-01 -1.821031e-01 1.968778e-01 3.094833e-01 3.067665e-01 1.507560e-01 1.788022e-02 -3.694321e-03 9.081488e-02 1.044823e-01 1.938192e-01 7.210605e-02
<VARIANCE> 39
 7.093378e+00 1.197688e+01 2.525894e+01 2.739519e+01 2.323002e+01 2.232084e+01 2.407537e+01 1.821100e+01 2.002064e+01 1.590661e+01 2.233630e+01 2.274113e+01 1.697655e+01 1.015929e+00 1.211004e+00 1.880400e+00 2.615385e+00 2.289328e+00 2.371873e+00 2.181634e+00 1.958077e+00 1.969236e+00 1.696064e+00 1.969224e+00 1.799658e+00 1.322012e+00 1.238220e-01 1.702991e-01 3.004238e-01 4.611968e-01 4.002435e-01 3.388647e-01 3.886851e-01 3.942484e-01 3.765735e-01 2.954324e-01 3.740783e-01 3.322907e-01 1.354998e-01
<GCONST> 1.015243e+02
<STATE> 4
<MEAN> 39
 4.155740e-01 4.297840e+00 2.687235e-01 -1.630889e+00 -1.645885e+00 -2.395633e+00 -1.678485e+00 -1.241094e+00 1.214926e+00 -8.212733e-02 4.210018e-01 -6.818144e-01 -2.440274e-01 -3.486075e-01 -4.648743e-01 2.013407e-01 5.738670e-01 3.156273e-01 5.387486e-01 4.876508e-01 2.604556e-01 1.850910e-01 3.620450e-01 1.935550e-01 2.712100e-01 -3.812905e-01 1.056212e-02 -2.499816e-02 -1.234148e-01 -1.507770e-01 -4.084467e-02 -3.214825e-02 3.163883e-02 3.681313e-02 -2.304020e-02 -1.135687e-01 -7.190588e-02 -6.890853e-02 1.869167e-01
<VARIANCE> 39
 1.108155e+01 1.411998e+01 1.666397e+01 2.069780e+01 2.586271e+01 2.964463e+01 2.130773e+01 2.171552e+01 2.049567e+01 2.198263e+01 2.124441e+01 2.120439e+01 1.538687e+01 6.769222e-01 6.793181e-01 9.821093e-01 1.241796e+00 1.490624e+00 1.763934e+00 1.771491e+00 1.938082e+00 1.638352e+00 1.573857e+00 1.666765e+00 1.466713e+00 4.139502e-01 7.273275e-02 1.133089e-01 1.815315e-01 2.340770e-01 2.404651e-01 2.667997e-01 2.988956e-01 3.393456e-01 3.072792e-01 2.917373e-01 2.814045e-01 2.575023e-01 8.077589e-02
<GCONST> 9.234330e+01
<TRANSP> 5
 0.000000e+00 1.000000e+00 0.000000e+00 0.000000e+00 0.000000e+00
 0.000000e+00 8.374738e-01 1.625262e-01 0.000000e+00 0.000000e+00
 0.000000e+00 0.000000e+00 7.019292e-01 2.980708e-01 0.000000e+00
 0.000000e+00 0.000000e+00 0.000000e+00 7.787590e-01 2.212410e-01
 0.000000e+00 0.000000e+00 0.000000e+00 0.000000e+00 0.000000e+00
<ENDHMM>
~h "ch"
<BEGINHMM>
<NUMSTATES> 5
<STATE> 2
<MEAN> 39
 -5.523686e+00 2.203087e+00 -4.361201e-01 5.704405e-01 1.058361e+00 1.467168e+00 1.277062e+00 1.089203e+00 1.564089e+00 -5.371914e-01 5.345187e-01 1.361743e-01 2.970874e+00 2.632786e-01 -5.709232e-02 -6.619004e-02 -3.599913e-01 -1.898967e-01 -3.561441e-01 -3.983287e-01 -3.061153e-01 -1.659283e-01 -2.455263e-01 -1.472101e-01 -3.564909e-02 4.760606e-01 2.819049e-01 -5.533288e-02 -4.080169e-02 -1.751987e-01 -1.216715e-01 -1.702438e-01 -1.407986e-01 -1.144698e-01 -1.152635e-01 -3.899579e-02 -4.702351e-02 -1.528000e-02 3.468550e-02
<VARIANCE> 39
 2.937069e+01 2.158707e+01 2.294594e+01 2.643179e+01 2.418814e+01 3.177109e+01 2.736173e+01 2.532752e+01 2.408443e+01 2.110258e+01 1.968723e+01 1.525387e+01 2.210739e+01 4.045460e+00 2.443637e+00 2.873703e+00 3.702691e+00 2.935241e+00 4.038035e+00 3.537433e+00 3.142865e+00 3.164126e+00 2.554266e+00 2.218142e+00 1.845522e+00 2.691670e+00 4.374378e-01 4.586315e-01 5.348218e-01 6.976023e-01 5.386453e-01 6.549597e-01 6.205780e-01 5.350545e-01 5.961350e-01 5.258647e-01 3.976186e-01 3.543547e-01 5.013174e-01
<GCONST> 1.182333e+02
<STATE> 3
<MEAN> 39
 3.649759e+00 -4.302647e-01 -2.793346e+00 -6.340549e+00 -3.616701e+00 -6.106828e+00 -4.543834e+00 -4.061730e+00 -3.113779e+00 -3.491497e+00 -1.773977e+00 -7.441725e-01 7.550699e+00 6.413812e-01 -8.557620e-01 -6.576763e-01 -4.785878e-01 -4.406734e-01 -2.507598e-01 -4.916056e-01 -1.865393e-01 -3.701170e-01 -1.070962e-01 -7.816400e-02 -1.340305e-01 7.758736e-01 -4.032984e-01 -2.105567e-02 8.670152e-02 3.650564e-01 3.016250e-01 4.592953e-01 2.112054e-01 2.012582e-01 2.524488e-01 1.419389e-01 8.925491e-02 3.546527e-02 -1.978140e-01
<VARIANCE> 39
 1.206828e+01 3.091236e+01 3.576752e+01 3.465475e+01 2.151080e+01 4.894979e+01 3.492507e+01 3.330880e+01 2.153195e+01 2.328045e+01 2.488215e+01 2.140393e+01 2.000406e+01 1.566773e+00 2.350621e+00 3.130372e+00 4.374310e+00 2.705874e+00 6.306528e+00 3.835666e+00 3.301393e+00 2.834017e+00 2.766657e+00 2.227831e+00 2.164161e+00 1.686906e+00 2.222475e-01 3.900414e-01 3.597706e-01 5.843673e-01 4.699993e-01 1.023865e+00 7.992448e-01 6.282634e-01 5.095823e-01 5.462654e-01 4.748887e-01 4.172066e-01 1.964188e-01
<GCONST> 1.177317e+02
<STATE> 4
<MEAN> 39
 5.439520e+00 -3.581800e+00 -8.094418e+00 -4.028915e+00 -2.782440e+00 -4.833574e+00 -6.361690e+00 -4.408470e+00 -2.881108e+00 -2.873549e+00 -2.153037e+00 -6.570858e-01 7.922195e+00 5.630534e-02 -8.469564e-02 -8.150502e-02 3.202821e-01 1.188169e-01 1.052125e-01 -1.048102e-01 1.241267e-01 1.018587e-01 6.133336e-02 -5.278621e-02 5.107671e-02 -1.854710e-01 -7.560348e-02 9.036478e-02 1.788489e-01 6.124084e-02 1.490954e-02 -1.291871e-03 6.286371e-02 4.054818e-02 6.575117e-03 1.394073e-02 3.268244e-02 3.158349e-02 -1.199776e-01
<VARIANCE> 39
 1.656700e+01 3.147746e+01 4.062218e+01 3.490935e+01 2.331990e+01 3.269867e+01 2.300429e+01 2.636096e+01 1.955728e+01 2.680465e+01 2.384601e+01 2.367356e+01 1.752931e+01 3.353903e-01 7.326286e-01 1.648702e+00 1.592921e+00 1.181311e+00 1.369610e+00 1.379601e+00 1.591772e+00 1.337445e+00 1.518544e+00 1.400967e+00 1.098304e+00 5.380920e-01 5.569522e-02 1.257411e-01 2.045831e-01 2.292902e-01 1.829620e-01 2.335077e-01 2.538029e-01 2.757663e-01 2.534387e-01 2.531105e-01 2.435306e-01 1.764944e-01 6.960710e-02
<GCONST> 9.265465e+01
<TRANSP> 5
 0.000000e+00 1.000000e+00 0.000000e+00 0.000000e+00 0.000000e+00
 0.000000e+00 8.864905e-01 1.135095e-01 0.000000e+00 0.000000e+00
 0.000000e+00 0.000000e+00 7.318356e-01 2.681644e-01 0.000000e+00
 0.000000e+00 0.000000e+00 0.000000e+00 8.245917e-01 1.754083e-01
 0.000000e+00 0.000000e+00 0.000000e+00 0.000000e+00 0.000000e+00
<ENDHMM>
~h "ea"
<BEGINHMM>
<NUMSTATES> 5
<STATE> 2
<MEAN> 39
 9.787340e-01 5.496779e+00 -4.985146e+00 -1.087559e+01 -3.402706e+00 -6.768345e+00 -3.119375e+00 -1.138820e+00 -5.111706e-01 -3.420903e+00 -1.291203e+00 -2.064627e+00 8.055936e+00 5.886991e-02 -3.659838e-01 2.656180e-02 1.365590e-02 6.569411e-02 3.799036e-01 3.498548e-02 7.084703e-03 -3.776632e-03 -5.929511e-02 -7.772073e-02 1.023354e-01 -6.244092e-02 3.938007e-02 -1.349227e-01 1.421093e-01 1.954907e-01 -1.006161e-02 1.145674e-01 2.463946e-02 -5.429892e-02 -1.956106e-02 5.816137e-02 -2.262434e-03 4.662245e-02 -1.156475e-01
<VARIANCE> 39
 4.892519e+00 1.816569e+01 2.838574e+01 2.360268e+01 1.931982e+01 2.388414e+01 3.568704e+01 1.821100e+01 1.643843e+01 1.490654e+01 1.937309e+01 1.889465e+01 1.155706e+01 2.131959e-01 9.579442e-01 8.535261e-01 1.260170e+00 1.075775e+00 1.483204e+00 1.605106e+00 1.303863e+00 1.314289e+00 1.150529e+00 1.325127e+00 1.080597e+00 5.167258e-01 4.031155e-02 1.013606e-01 1.207579e-01 2.418571e-01 1.921731e-01 2.365387e-01 2.492627e-01 2.381989e-01 2.353401e-01 2.031258e-01 2.122092e-01 1.764944e-01 7.446682e-02
<GCONST> 8.506558e+01
<STATE> 3
<MEAN> 39
 2.497137e+00 -6.148255e-01 -7.038509e-01 -6.232718e+00 -2.969737e+00 -1.455945e+00 -3.847443e+00 -2.774587e+00 -7.872993e-01 -2.149948e+00 -2.210529e+00 8.184887e-01 4.910800e+00 7.152758e-02 -2.942740e-01 8.825253e-01 1.614298e+00 4.644220e-02 1.816605e-01 3.329412e-01 -2.158803e-01 -3.646871e-02 7.179326e-01 1.979049e-01 2.097696e-01 -1.109890e+00 -8.347459e-02 1.666000e-01 -4.675216e-02 5.344590e-02 1.034903e-01 -1.702234e-01 1.200154e-01 1.459147e-01 4.919765e-03 7.239073e-02 9.846269e-02 -1.120664e-01 -6.369744e-02
<VARIANCE> 39
 7.705418e+00 1.769537e+01 2.525176e+01 4.169382e+01 2.188119e+01 3.556398e+01 4.645395e+01 3.322770e+01 2.643878e+01 2.401932e+01 3.901379e+01 2.839063e+01 1.905078e+01 6.526932e-01 1.240434e+00 1.360789e+00 2.100840e+00 2.211464e+00 3.187647e+00 3.058545e+00 2.670696e+00 2.350650e+00 2.075575e+00 2.441675e+00 1.956362e+00 8.654405e-01 7.145764e-02 2.041283e-01 2.336599e-01 3.542764e-01 3.479297e-01 5.583774e-01 4.540425e-01 3.852672e-01 3.866403e-01 3.926021e-01 4.559090e-01 3.571437e-01 1.351631e-01
<GCONST> 1.060552e+02
<STATE> 4
<MEAN> 39
 1.095321e+00 4.474276e-02 1.707902e+00 -1.019252e+00 -9.312778e-01 2.471659e-01 -5.250617e-01 -7.112076e-01 9.636465e-01 5.317478e-01 -7.646939e-01 4.145313e-01 -1.919041e-01 -9.697011e-02 -1.507294e-01 2.450762e-01 7.807045e-01 2.094971e-01 1.489954e-01 3.574201e-01 2.547836e-01 5.381631e-02 2.939938e-01 2.190576e-01 -7.738237e-02 -6.555095e-01 -2.858273e-03 5.996346e-02 -9.505288e-02 -1.354683e-01 -2.900818e-02 -1.103814e-01 -7.975767e-02 4.235635e-02 -1.310354e-02 -1.054980e-01 9.597014e-03 -8.208491e-03 8.321010e-02
<VARIANCE> 39
 1.084294e+01 1.338992e+01 1.913634e+01 3.743604e+01 2.135751e+01 3.550191e+01 3.217598e+01 4.499902e+01 3.003086e+01 2.591637e+01 3.070022e+01 1.905124e+01 2.590201e+01 4.099080e-01 7.522945e-01 1.015697e+00 1.443515e+00 1.534341e+00 2.323649e+00 1.957793e+00 2.214404e+00 1.888159e+00 1.834282e+00 1.946952e+00 1.513582e+00 5.294368e-01 6.245397e-02 1.408903e-01 1.811495e-01 2.637327e-01 2.699026e-01 3.459605e-01 3.459338e-01 3.913654e-01 3.345147e-01 3.535756e-01 3.608752e-01 2.857113e-01 1.142978e-01
<GCONST> 9.833167e+01
<TRANSP> 5
 0.000000e+00 1.000000e+00 0.000000e+00 0.000000e+00 0.000000e+00
 0.000000e+00 8.870807e-01 1.129193e-01 0.000000e+00 0.000000e+00
 0.000000e+00 0.000000e+00 6.310937e-01 3.689063e-01 0.000000e+00
 0.000000e+00 0.000000e+00 0.000000e+00 6.127360e-01 3.872640e-01
 0.000000e+00 0.000000e+00 0.000000e+00 0.000000e+00 0.000000e+00
<ENDHMM>
~h "eh"
<BEGINHMM>
<NUMSTATES> 5
<STATE> 2
<MEAN> 39
 2.208312e+00 -8.251297e+00 -5.415977e+00 -1.495408e+00 -4.522357e+00 -1.776813e+00 -7.087754e-01 -5.048136e+00 -3.527246e+00 -3.008912e+00 -1.303139e+00 -1.113341e+00 1.146287e+01 2.431706e-01 5.411034e-01 3.280759e-01 -9.914696e-02 -7.483792e-02 -4.685283e-01 1.560631e-02 1.523055e-01 -3.141586e-02 1.229917e-01 4.749221e-02 3.949017e-02 -5.328603e-01 3.540898e-02 1.980422e-01 7.942684e-02 -5.176786e-02 -3.943932e-02 -1.293717e-01 -2.013761e-02 7.192529e-02 4.793248e-02 3.985424e-02 -3.755113e-02 2.443463e-02 -1.415165e-01
<VARIANCE> 39
 7.618917e+00 1.394924e+01 1.122277e+01 1.562392e+01 1.733007e+01 2.498877e+01 3.679451e+01 2.856399e+01 3.298543e+01 1.490654e+01 1.504076e+01 1.535236e+01 1.492632e+01 2.081269e-01 1.066696e+00 7.150709e-01 7.967675e-01 9.050559e-01 1.433346e+00 1.287230e+00 1.303863e+00 1.314289e+00 1.150529e+00 1.147231e+00 1.000949e+00 5.073220e-01 3.723701e-02 1.133605e-01 1.185681e-01 1.355965e-01 1.701223e-01 2.220068e-01 2.183448e-01 2.381989e-01 2.353401e-01 2.031258e-01 1.980799e-01 1.764944e-01 5.498387e-02
<GCONST> 8.233953e+01
<STATE> 3
<MEAN> 39
 3.995111e+00 -1.284220e+00 -4.445256e-01 -2.949940e+00 -5.198158e+00 -7.609385e+00 -1.352152e+00 -2.052668e+00 -3.187791e+00 -1.936753e+00 -1.724584e+00 3.544400e-01 5.313885e+00 -5.809638e-03 5.912510e-01 5.248629e-01 8.369036e-02 1.792988e-01 -4.936668e-01 -3.505094e-01 -1.153625e-01 2.397371e-01 1.622155e-01 -1.593052e-02 1.591341e-01 -4.951123e-01 -5.723208e-02 -2.791109e-01 -2.255945e-01 7.488314e-02 1.178033e-01 3.025317e-01 -3.407788e-02 -8.664398e-02 -1.037811e-02 -4.993466e-02 4.430853e-02 -8.893060e-02 1.932932e-01
<VARIANCE> 39
 6.022404e+00 2.550569e+01 1.742570e+01 1.665082e+01 1.697314e+01 4.350010e+01 2.671844e+01 2.717001e+01 1.758024e+01 2.315592e+01 1.514332e+01 2.553792e+01 1.675924e+01 2.081269e-01 1.699962e+00 1.464652e+00 7.967675e-01 1.279417e+00 2.323973e+00 1.287230e+00 1.547562e+00 1.314289e+00 1.263228e+00 1.147231e+00 1.060163e+00 6.299531e-01 4.767233e-02 3.133876e-01 2.940879e-01 1.355965e-01 2.260629e-01 3.463612e-01 2.183448e-01 2.765033e-01 2.353401e-01 2.652229e-01 1.980799e-01 1.764944e-01 1.299057e-01
<GCONST> 9.054598e+01
<STATE> 4
<MEAN> 39
 3.195321e+00 -3.318426e+00 -2.052272e+00 -2.605880e+00 -2.458667e+00 -4.499486e+00 -2.635086e+00 -4.373902e+00 -2.365951e+00 -2.291513e+00 -1.098475e+00 -5.003960e-01 6.089322e+00 1.905977e-02 2.178771e-01 7.201353e-02 1.493902e-01 1.754390e-01 6.810291e-02 -2.299866e-01 -5.112169e-02 -6.691061e-03 1.149278e-01 6.685774e-02 7.368423e-02 -2.859540e-01 -6.195439e-03 1.402609e-02 5.513126e-03 5.122741e-02 2.431699e-02 6.662912e-02 3.130253e-02 3.044222e-02 -5.387097e-03 -2.119694e-02 -5.533033e-03 -3.055006e-02 -4.182385e-02
<VARIANCE> 39
 8.253078e+00 2.464874e+01 1.462712e+01 1.801877e+01 2.016150e+01 3.394556e+01 3.534573e+01 2.092239e+01 1.643843e+01 1.926150e+01 1.504076e+01 2.145446e+01 1.823809e+01 2.081269e-01 4.643514e-01 6.135288e-01 7.967675e-01 9.050559e-01 1.231494e+00 1.287230e+00 1.303863e+00 1.314289e+00 1.150529e+00 1.147231e+00 1.000949e+00 2.137199e-01 3.385720e-02 8.955628e-02 1.048864e-01 1.355965e-01 1.701223e-01 2.220068e-01 2.183448e-01 2.381989e-01 2.353401e-01 2.031258e-01 1.980799e-01 1.764944e-01 3.600920e-02
<GCONST> 8.071960e+01
<TRANSP> 5
 0.000000e+00 1.000000e+00 0.000000e+00 0.000000e+00 0.000000e+00
 0.000000e+00 8.328139e-01 1.671861e-01 0.000000e+00 0.000000e+00
 0.000000e+00 0.000000e+00 6.033549e-01 3.966451e-01 0.000000e+00
 0.000000e+00 0.000000e+00 0.000000e+00 8.352480e-01 1.647520e-01
 0.000000e+00 0.000000e+00 0.000000e+00 0.000000e+00 0.000000e+00
<ENDHMM>
~h "eo"
<BEGINHMM>
<NUMSTATES> 5
<STATE> 2
<MEAN> 39
 7.017875e-01 -4.354414e+00 -2.813661e+00 -5.036934e+00 -5.292173e+00 2.296848e+00 1.295358e+00 -2.916734e+00 -7.792849e-01 -2.503057e+00 -3.995182e+00 -1.248555e-01 1.007642e+01 7.812666e-01 -4.699848e-01 -4.160336e-01 -6.446248e-01 -1.005713e+00 -1.202716e+00 1.073942e-01 -4.308700e-01 -1.068575e+00 3.206179e-01 -6.024067e-01 -3.892916e-01 5.917913e-01 -4.458387e-02 3.319144e-01 2.192663e-01 4.303508e-01 3.203793e-01 -2.437092e-01 2.445712e-02 3.597170e-01 -2.086208e-02 2.866085e-01 3.200725e-01 1.764856e-02 -9.399105e-01
<VARIANCE> 39
 7.292498e+00 1.949779e+01 1.314821e+01 2.721143e+01 2.504897e+01 2.948147e+01 2.146979e+01 4.432870e+01 3.613173e+01 2.884203e+01 3.553468e+01 1.834422e+01 5.314358e+01 8.317364e-01 2.180765e+00 1.787633e+00 4.907021e+00 3.528142e+00 3.096486e+00 2.795464e+00 5.054934e+00 3.285264e+00 4.232391e+00 4.748521e+00 1.945175e+00 8.479502e+00 1.877139e-01 2.175866e-01 3.328075e-01 9.329457e-01 7.246295e-01 5.233634e-01 5.131289e-01 7.382703e-01 7.238830e-01 8.022664e-01 9.773928e-01 4.794759e-01 9.846375e-01
<GCONST> 1.205537e+02
<STATE> 3
<MEAN> 39
 3.053040e+00 -7.060158e-01 -8.975877e-01 -4.030973e+00 -6.489869e+00 -5.456959e+00 2.951691e+00 -2.739246e-01 -3.011251e+00 4.038117e-01 -3.398741e+00 -1.990055e+00 2.232445e+00 2.717053e-01 4.926831e-01 2.824912e-01 2.151883e-02 7.354123e-02 -9.877349e-01 -4.161568e-01 -6.241249e-02 -1.090364e-01 -2.424136e-03 2.544374e-01 7.438164e-02 -8.503765e-01 -1.867410e-01 -6.797832e-02 -8.489279e-02 3.999986e-02 2.360685e-01 3.926174e-01 -4.949374e-02 -1.322254e-01 8.756276e-02 -8.247801e-02 8.961421e-02 1.917906e-01 2.201201e-01
<VARIANCE> 39
 5.879709e+00 2.554654e+01 1.099682e+01 2.841079e+01 1.954950e+01 5.133691e+01 2.907870e+01 3.562713e+01 2.318512e+01 1.985708e+01 1.759134e+01 3.548308e+01 3.231299e+01 9.048408e-01 1.572736e+00 1.124431e+00 2.844211e+00 2.921031e+00 5.870530e+00 3.079069e+00 3.199358e+00 2.777504e+00 2.591256e+00 2.737070e+00 3.795802e+00 4.582894e+00 1.710049e-01 2.866865e-01 2.127123e-01 5.999572e-01 4.658154e-01 9.407024e-01 5.998681e-01 5.012164e-01 5.900766e-01 4.537127e-01 4.428999e-01 6.892554e-01 4.376353e-01
<GCONST> 1.143820e+02
<STATE> 4
<MEAN> 39
 3.832808e+00 -1.037029e-01 -8.437901e-01 -3.228794e+00 -4.686597e+00 -6.319676e+00 -1.251377e-01 -1.909673e+00 -4.220492e+00 -1.148505e+00 -1.168895e+00 -9.642857e-02 1.871931e+00 -3.961860e-02 5.089511e-02 7.240866e-02 2.052409e-01 1.955656e-01 -1.819434e-01 4.705692e-02 -1.467614e-01 -8.938570e-02 -6.192946e-02 1.283415e-01 1.296906e-01 1.024252e-01 -9.327272e-02 -1.777644e-01 -1.137311e-01 1.455482e-01 -3.808660e-02 2.685141e-01 1.136615e-01 2.893138e-02 1.147176e-01 -3.788791e-02 -8.826618e-03 -3.508574e-02 1.210668e-01
<VARIANCE> 39
 4.892519e+00 2.043979e+01 1.099682e+01 1.924672e+01 2.858473e+01 6.466312e+01 2.642645e+01 2.287518e+01 1.643843e+01 1.490654e+01 2.353687e+01 1.716692e+01 1.062176e+01 4.602965e-01 1.327541e+00 9.879813e-01 1.439206e+00 2.576075e+00 2.392829e+00 1.979374e+00 2.051100e+00 1.402535e+00 1.504844e+00 1.744898e+00 1.692722e+00 1.266761e+00 6.729165e-02 2.206861e-01 2.220195e-01 2.411986e-01 3.902429e-01 3.892429e-01 4.193482e-01 3.298839e-01 2.867232e-01 3.125413e-01 3.213344e-01 2.937237e-01 1.194576e-01
<GCONST> 9.667861e+01
<TRANSP> 5
 0.000000e+00 1.000000e+00 0.000000e+00 0.000000e+00 0.000000e+00
 0.000000e+00 7.348125e-01 2.651875e-01 0.000000e+00 0.000000e+00
 0.000000e+00 0.000000e+00 6.980215e-01 3.019785e-01 0.000000e+00
 0.000000e+00 0.000000e+00 0.000000e+00 8.200513e-01 1.799487e-01
 0.000000e+00 0.000000e+00 0.000000e+00 0.000000e+00 0.000000e+00
<ENDHMM>
~h "er"
<BEGINHMM>
<NUMSTATES> 5
<STATE> 2
<MEAN> 39
 3.745920e+00 -6.793377e+00 -3.545537e+00 -2.911031e-03 -3.912337e+00 -4.629182e-01 -1.699326e+00 -6.377050e+00 -4.226915e+00 -2.717911e+00 -2.572198e+00 -2.007804e+00 8.251972e+00 -4.606694e-02 1.874062e-01 3.235612e-01 3.930866e-01 1.893746e-01 -9.963457e-02 -5.481008e-02 9.327865e-02 -2.641609e-02 8.041089e-02 2.255175e-02 1.237106e-01 -4.662210e-01 -5.203757e-02 3.361812e-02 4.267562e-02 -1.221288e-02 4.489553e-02 3.258574e-02 4.895375e-02 7.415441e-02 8.437958e-02 3.749402e-02 -1.368950e-03 1.948310e-02 -4.904896e-02
<VARIANCE> 39
 4.981404e+00 1.268031e+01 1.489632e+01 2.240171e+01 1.501217e+01 1.968134e+01 5.717955e+01 2.463855e+01 2.217055e+01 1.781138e+01 1.697973e+01 1.855095e+01 1.536401e+01 2.139490e-01 4.643514e-01 6.135288e-01 7.967675e-01 9.050559e-01 1.231494e+00 1.287230e+00 1.303863e+00 1.314289e+00 1.150529e+00 1.147231e+00 1.000949e+00 2.052735e-01 3.385720e-02 7.274863e-02 1.046242e-01 1.355965e-01 1.701223e-01 2.220068e-01 2.183448e-01 2.381989e-01 2.353401e-01 2.031258e-01 1.980799e-01 1.764944e-01 2.273603e-02
<GCONST> 7.893285e+01
<STATE> 3
<MEAN> 39
 -7.083596e-01 -3.406479e+00 3.028574e+00 3.561167e+00 2.330101e+00 1.247876e+00 1.246313e+00 -1.127183e-01 2.825656e-01 2.629172e+00 -6.370183e-01 7.317148e-01 -2.005991e+00 -3.609684e-01 7.987076e-02 -2.065341e-01 -1.740676e-01 4.175386e-01 2.965701e-01 5.163851e-01 4.928268e-01 6.854076e-01 5.026145e-01 3.266708e-01 -5.604292e-02 -5.397980e-01 1.305251e-01 4.273953e-02 -1.068178e-01 -4.667604e-02 -1.139870e-01 -5.507855e-02 -6.644569e-02 -1.120778e-01 -1.137812e-01 -1.051319e-01 -3.905651e-02 -4.720233e-02 7.761207e-02
<VARIANCE> 39
 4.892519e+00 1.002042e+01 1.449245e+01 2.075450e+01 1.501217e+01 1.968134e+01 3.302322e+01 1.821100e+01 1.948854e+01 1.890196e+01 2.804782e+01 1.972958e+01 8.475169e+00 4.268534e-01 9.182955e-01 1.121004e+00 1.139550e+00 1.284486e+00 1.780238e+00 1.959748e+00 1.479898e+00 1.766497e+00 2.391207e+00 2.376642e+00 1.620111e+00 1.878834e-01 5.767448e-02 1.470447e-01 1.937078e-01 1.915109e-01 1.868375e-01 3.702896e-01 3.376234e-01 2.641024e-01 2.901307e-01 4.362680e-01 4.896856e-01 2.968717e-01 2.279891e-02
<GCONST> 8.911438e+01
<STATE> 4
<MEAN> 39
 -6.173161e-01 -4.813831e-02 1.907843e+00 1.105765e+00 1.931010e+00 2.619964e+00 1.823617e+00 7.336357e-01 9.064803e-01 1.452346e+00 1.622212e+00 3.335321e-01 -4.199715e+00 6.388873e-04 1.332444e-01 5.872753e-02 -4.579138e-02 1.679038e-02 7.190132e-02 2.074382e-02 1.145036e-01 -4.119352e-02 -1.114040e-01 6.937779e-02 -1.756130e-02 -9.170056e-02 -7.632967e-03 -1.841387e-03 2.135863e-02 1.078507e-02 -1.814763e-02 -1.861107e-02 8.932965e-03 2.758703e-02 1.020427e-02 5.812448e-03 9.990722e-03 1.144555e-02 7.276629e-03
<VARIANCE> 39
 4.892519e+00 1.002042e+01 1.099682e+01 1.386495e+01 1.501217e+01 1.968134e+01 2.088346e+01 1.821100e+01 1.643843e+01 1.490654e+01 1.504076e+01 1.471322e+01 8.475169e+00 2.081269e-01 4.643514e-01 6.135288e-01 7.967675e-01 9.050559e-01 1.231494e+00 1.682692e+00 1.303863e+00 1.367176e+00 1.159105e+00 1.199824e+00 1.000949e+00 1.712009e-01 3.385720e-02 7.274863e-02 1.046242e-01 1.355965e-01 1.701223e-01 2.583119e-01 3.519585e-01 2.394846e-01 2.950098e-01 2.278355e-01 2.389335e-01 1.897096e-01 2.273603e-02
<GCONST> 7.654678e+01
<TRANSP> 5
 0.000000e+00 1.000000e+00 0.000000e+00 0.000000e+00 0.000000e+00
 0.000000e+00 9.587211e-01 4.127892e-02 0.000000e+00 0.000000e+00
 0.000000e+00 0.000000e+00 8.814622e-01 1.185378e-01 0.000000e+00
 0.000000e+00 0.000000e+00 0.000000e+00 9.309619e-01 6.903803e-02
 0.000000e+00 0.000000e+00 0.000000e+00 0.000000e+00 0.000000e+00
<ENDHMM>
~h "eu"
<BEGINHMM>
<NUMSTATES> 5
<STATE> 2
<MEAN> 39
 2.434015e+00 3.061529e+00 3.335512e+00 -1.270114e+00 -3.515175e+00 -1.325191e+00 -2.631324e+00 -1.352846e+00 5.550281e-01 1.511310e+00 -1.024804e+00 -2.615566e-01 -1.080728e+00 -5.623642e-01 -2.637812e-01 9.352078e-02 5.953217e-01 7.576436e-01 6.629875e-01 8.128779e-01 6.851552e-01 5.299053e-01 6.206782e-02 3.101127e-01 9.934608e-02 -6.070279e-01 -1.694380e-02 -4.841927e-02 -6.064388e-02 -5.911750e-02 5.854066e-03 -4.036501e-04 1.634103e-02 3.555246e-02 -2.367162e-02 7.523014e-03 6.802265e-03 -1.066866e-02 4.101344e-02
<VARIANCE> 39
 8.012102e+00 1.080762e+01 1.655184e+01 2.220174e+01 1.890983e+01 2.133677e+01 2.389811e+01 2.283707e+01 2.673392e+01 2.807339e+01 3.162539e+01 3.123809e+01 8.475169e+00 4.850128e-01 7.678680e-01 8.691225e-01 1.285015e+00 1.192972e+00 2.150609e+00 2.028653e+00 1.848475e+00 1.867448e+00 2.462491e+00 1.565311e+00 1.767640e+00 1.712009e-01 6.566677e-02 1.300214e-01 1.189166e-01 2.446567e-01 2.171488e-01 3.421724e-01 3.348972e-01 3.576737e-01 3.659004e-01 3.801192e-01 2.443592e-01 3.084417e-01 2.545807e-02
<GCONST> 9.091529e+01
<STATE> 3
<MEAN> 39
 -1.621655e+00 4.727855e-01 2.563791e+00 1.731547e+00 1.189456e+00 2.333705e+00 1.749011e+00 2.973878e+00 3.200093e+00 2.188794e+00 1.064611e+00 6.979796e-01 -5.156535e+00 -1.342044e-01 -1.100893e-01 -1.887586e-01 9.858341e-02 2.448701e-01 1.893458e-01 8.142132e-02 2.171796e-01 8.234108e-02 7.859795e-02 2.001068e-01 2.748874e-02 -2.612851e-01 7.499514e-02 7.448955e-02 4.132454e-03 -5.846798e-02 -1.006118e-01 -7.273167e-02 -1.026424e-01 -1.234983e-01 -8.167122e-02 -6.223880e-02 -4.327077e-02 -2.689552e-03 4.611344e-02
<VARIANCE> 39
 4.892519e+00 1.002042e+01 1.099682e+01 1.386495e+01 1.501217e+01 1.968134e+01 1.866935e+01 1.821100e+01 1.643843e+01 1.490654e+01 1.664364e+01 1.471322e+01 8.475169e+00 2.149400e-01 5.150627e-01 6.253268e-01 8.514780e-01 1.424849e+00 1.407425e+00 1.439250e+00 1.303863e+00 2.073420e+00 1.587766e+00 1.918436e+00 1.214511e+00 1.712009e-01 4.924453e-02 9.249114e-02 1.209842e-01 1.778905e-01 2.850643e-01 3.418279e-01 3.309813e-01 2.381989e-01 4.442115e-01 3.411738e-01 3.473518e-01 2.114483e-01 2.273603e-02
<GCONST> 8.163896e+01
<STATE> 4
<MEAN> 39
 -2.117609e+00 6.964697e-01 1.761431e+00 2.460014e+00 2.421797e+00 3.789942e+00 2.354466e+00 2.911875e+00 2.983984e+00 1.108226e+00 2.589532e+00 1.279827e+00 -6.506493e+00 -1.171916e-02 4.532979e-02 6.428384e-03 4.728724e-02 8.406185e-02 3.238942e-02 3.486596e-02 -4.827064e-03 -6.016825e-02 -9.852655e-02 -7.699873e-03 1.567948e-02 -4.060302e-02 5.237977e-03 5.981029e-03 1.239947e-02 -3.756583e-04 -1.786975e-02 -1.091099e-02 9.768801e-03 -5.442158e-03 -1.007613e-02 1.543310e-02 -1.163243e-02 -8.934507e-03 7.185100e-03
<VARIANCE> 39
 4.892519e+00 1.002042e+01 1.099682e+01 1.386495e+01 1.501217e+01 1.968134e+01 1.866935e+01 1.821100e+01 1.643843e+01 1.490654e+01 1.504076e+01 1.471322e+01 8.475169e+00 2.081269e-01 4.643514e-01 6.135288e-01 7.967675e-01 9.050559e-01 1.231494e+00 1.287230e+00 1.303863e+00 1.590958e+00 1.190136e+00 1.483615e+00 1.130816e+00 1.712009e-01 3.385720e-02 7.274863e-02 1.046242e-01 1.355965e-01 1.701223e-01 2.220068e-01 2.183448e-01 2.711329e-01 3.391404e-01 2.377258e-01 3.246325e-01 2.383551e-01 2.273603e-02
<GCONST> 7.689101e+01
<TRANSP> 5
 0.000000e+00 1.000000e+00 0.000000e+00 0.000000e+00 0.000000e+00
 0.000000e+00 8.943245e-01 1.056755e-01 0.000000e+00 0.000000e+00
 0.000000e+00 0.000000e+00 8.347947e-01 1.652053e-01 0.000000e+00
 0.000000e+00 0.000000e+00 0.000000e+00 9.253946e-01 7.460540e-02
 0.000000e+00 0.000000e+00 0.000000e+00 0.000000e+00 0.000000e+00
<ENDHMM>
~h "ey"
<BEGINHMM>
<NUMSTATES> 5
<STATE> 2
<MEAN> 39
 2.041919e+00 5.247869e+00 -3.665675e+00 -7.530663e+00 -3.575872e+00 -5.362071e+00 -3.604933e+00 -2.318179e+00 6.849181e-01 -3.209655e+00 -1.115906e+00 -1.718109e+00 5.213195e+00 8.633833e-02 5.615741e-01 2.689351e-01 5.083025e-01 1.289280e-02 -3.837530e-01 -5.220963e-02 -6.078309e-02 1.510845e-02 1.464200e-01 2.189141e-01 2.857948e-02 -6.419852e-01 -2.440332e-02 -1.333684e-01 5.293603e-02 1.147007e-01 6.760022e-02 1.312522e-01 5.635774e-02 -3.427279e-02 -5.763545e-02 1.719510e-02 -2.313014e-02 2.060693e-02 -1.315179e-02
<VARIANCE> 39
