~o
<STREAMINFO> 1 39
<VECSIZE> 39<NULLD><MFCC_D_A_Z_0><DIAGC>
~h "b"
<BEGINHMM>
<NUMSTATES> 5
<STATE> 2
<MEAN> 39
 -1.778335e+00 2.188622e+00 4.431827e+00 5.737955e+00 4.386029e+00 5.541500e+00 4.203021e+00 3.138164e+00 1.527790e+00 4.221984e+00 2.750948e+00 3.007445e+00 -9.575380e+00 8.559483e-01 -3.940558e-01 -5.380502e-01 -8.126232e-01 -9.103953e-01 -1.382945e+00 -9.472860e-01 -1.089051e+00 -8.894455e-01 -1.051057e+00 -4.475392e-01 -2.784151e-01 2.108345e+00 5.481167e-01 -7.289947e-01 -7.638892e-01 -5.107615e-01 -5.112360e-01 -7.372037e-01 -3.973326e-01 -4.027826e-01 -3.618140e-01 -5.541040e-01 -2.936877e-01 -2.865025e-01 1.328559e+00
<VARIANCE> 39
 3.100126e+01 5.842472e+01 5.758285e+01 7.450658e+01 8.979959e+01 1.623062e+02 1.513595e+02 1.384906e+02 1.181858e+02 1.083146e+02 8.949159e+01 8.224134e+01 4.254889e+01 5.027027e+00 6.788489e+00 7.776282e+00 7.456686e+00 1.012557e+01 1.938845e+01 1.675416e+01 1.559355e+01 1.441381e+01 1.272363e+01 9.450200e+00 1.001368e+01 1.347369e+01 6.080997e-01 1.421521e+00 1.505694e+00 1.359942e+00 1.786733e+00 2.632594e+00 2.814713e+00 3.178495e+00 2.689098e+00 2.379568e+00 1.969628e+00 1.959317e+00 1.394469e+00
<GCONST> 1.678399e+02
<STATE> 3
<MEAN> 39
 7.708130e+00 -4.906224e+00 -6.391891e+00 -1.871676e+00 -4.766791e+00 -8.621715e+00 -3.241830e+00 -3.602982e+00 -7.432715e+00 -5.670335e+00 -2.625659e+00 -7.666413e-01 1.023169e+01 7.978954e-01 -4.292075e+00 -3.723384e+00 -1.423006e+00 -8.018021e-01 -4.353348e-01 6.603227e-01 -8.720303e-01 -6.422954e-01 -1.246589e+00 -5.892236e-01 -9.063463e-01 5.544711e+00 -5.999370e-01 1.183119e-01 4.786451e-01 2.230165e-01 4.226126e-01 7.070332e-01 1.533631e-01 -1.177259e-01 4.487782e-01 4.055811e-01 1.646851e-01 7.718194e-02 -5.907891e-01
<VARIANCE> 39
 5.461670e+01 1.858487e+02 2.296005e+02 1.183531e+02 1.127360e+02 1.930507e+02 2.245903e+02 1.947473e+02 1.882338e+02 1.351763e+02 1.167068e+02 1.133217e+02 2.187787e+02 7.547226e+00 1.593221e+01 2.283211e+01 1.515937e+01 1.409313e+01 2.556558e+01 2.789214e+01 2.942506e+01 2.690976e+01 1.850107e+01 1.476541e+01 1.322449e+01 1.837434e+01 9.909548e-01 3.769721e+00 4.695105e+00 2.229178e+00 2.307261e+00 4.111990e+00 5.221979e+00 5.242760e+00 4.634479e+00 3.102015e+00 2.633155e+00 2.614843e+00 3.725415e+00
<GCONST> 1.895737e+02
<STATE> 4
<MEAN> 39
 2.779655e+00 -1.820744e+01 -9.221457e+00 -4.290337e+00 -4.062552e+00 -1.206769e+00 -1.850584e+00 -1.206868e+01 -6.592470e+00 -5.185575e+00 -2.570930e+00 -2.220931e+00 2.318614e+01 -6.447275e-01 7.499090e-01 1.101439e+00 -1.601119e+00 3.644235e-01 9.424900e-01 -1.440348e+00 -8.708149e-01 1.232956e+00 -5.185888e-01 -3.373994e-01 -1.999351e-01 7.089148e-02 1.451334e-01 1.208341e+00 3.870683e-01 4.606292e-02 1.672374e-01 -3.550718e-01 -1.302595e-01 7.767090e-01 1.748663e-01 -2.712575e-02 2.736419e-02 1.133702e-01 -1.081191e+00
<VARIANCE> 39
 5.123558e+01 1.393769e+02 1.290987e+02 1.695727e+02 1.115912e+02 1.625669e+02 1.969950e+02 1.781577e+02 2.287662e+02 1.564957e+02 1.103939e+02 8.291299e+01 2.290387e+02 2.926592e+00 8.310481e+00 8.453500e+00 1.092092e+01 8.598556e+00 1.279867e+01 1.377970e+01 1.600743e+01 1.445853e+01 1.470182e+01 9.567053e+00 8.206369e+00 5.078509e+00 7.143183e-01 1.815854e+00 1.928319e+00 1.854629e+00 1.671292e+00 2.839921e+00 2.695689e+00 2.744575e+00 3.268723e+00 2.789936e+00 2.147250e+00 1.678789e+00 1.882910e+00
<GCONST> 1.742379e+02
<TRANSP> 5
 0.000000e+00 1.000000e+00 0.000000e+00 0.000000e+00 0.000000e+00
 0.000000e+00 6.585603e-01 3.414397e-01 0.000000e+00 0.000000e+00
 0.000000e+00 0.000000e+00 6.456974e-01 3.543026e-01 0.000000e+00
 0.000000e+00 0.000000e+00 0.000000e+00 5.470628e-01 4.529373e-01
 0.000000e+00 0.000000e+00 0.000000e+00 0.000000e+00 0.000000e+00
<ENDHMM>
~h "c"
<BEGINHMM>
<NUMSTATES> 5
<STATE> 2
<MEAN> 39
 -1.041078e+01 6.124071e+00 -3.673448e+00 1.016624e+00 1.874704e-01 2.097374e+00 3.339834e+00 3.629430e+00 3.400385e+00 -6.937712e-02 2.592952e+00 8.972170e-01 3.770773e+00 9.282472e-01 1.669107e-01 -1.482963e+00 -3.608147e+00 -1.424392e+00 -1.179814e+00 -1.692412e+00 -1.204611e+00 -7.174965e-01 -1.792346e+00 -1.101287e+00 -6.156673e-01 3.610587e+00 7.577689e-01 -4.778923e-01 -4.154383e-02 -7.032371e-01 -2.198630e-01 -1.419477e-01 -4.168633e-01 -4.162914e-01 -3.762587e-01 -2.680947e-01 -3.651264e-01 -1.778923e-01 3.341501e-01
<VARIANCE> 39
 1.184153e+02 7.246430e+01 9.284068e+01 2.047707e+02 1.087596e+02 1.295060e+02 1.375011e+02 1.239603e+02 1.147084e+02 1.317425e+02 1.110851e+02 9.497613e+01 1.360821e+02 2.534575e+01 1.162622e+01 1.317606e+01 2.902142e+01 1.530117e+01 1.414587e+01 1.630798e+01 1.457695e+01 1.331397e+01 1.412490e+01 1.401789e+01 1.147506e+01 9.074606e+00 3.997468e+00 2.410180e+00 2.171804e+00 4.935903e+00 2.842547e+00 2.772502e+00 3.154423e+00 2.694357e+00 2.460268e+00 2.803738e+00 2.302328e+00 2.309156e+00 1.456800e+00
<GCONST> 1.815078e+02
<STATE> 3
<MEAN> 39
 2.259769e+00 -4.546017e+00 -1.248636e+01 -2.427279e+01 -8.364123e+00 -1.273481e+00 -7.994629e+00 -7.087996e+00 -4.856454e+00 -1.128483e+01 -8.073480e+00 -4.592393e+00 2.642424e+01 3.281867e-01 -3.873237e+00 -6.395575e-01 6.503187e-01 1.217273e+00 5.805853e-01 -1.353372e+00 -1.850585e+00 -1.298011e+00 -2.310563e-01 -5.400248e-01 -9.084063e-01 2.376348e+00 -1.146853e+00 5.408120e-01 8.809655e-01 2.487240e+00 9.500276e-01 1.282449e-01 4.717162e-01 4.917251e-01 4.852108e-01 8.413937e-01 8.583413e-01 3.504426e-01 -1.386614e+00
<VARIANCE> 39
 3.561541e+01 8.482383e+01 1.167838e+02 1.327152e+02 1.655337e+02 1.371053e+02 1.205161e+02 1.224933e+02 1.336235e+02 1.151207e+02 1.404438e+02 1.062517e+02 9.772897e+01 4.126089e+00 5.942248e+00 9.150720e+00 1.919196e+01 1.096925e+01 1.419266e+01 1.624477e+01 1.144604e+01 1.198388e+01 1.274252e+01 1.275803e+01 1.458197e+01 7.231346e+00 1.046541e+00 1.350063e+00 1.977609e+00 3.411491e+00 2.894512e+00 2.447914e+00 2.477266e+00 2.104668e+00 2.310352e+00 2.152577e+00 2.298759e+00 2.170511e+00 5.527420e-01
<GCONST> 1.721591e+02
<STATE> 4
<MEAN> 39
 7.241517e-01 -1.064521e+01 -1.062173e+01 -1.509306e+01 -4.385237e-01 -2.052796e+00 -1.570049e+01 -9.439808e+00 -6.592296e+00 -1.117892e+01 -4.140213e+00 -6.397581e+00 2.511119e+01 1.328149e-01 2.514233e-01 3.849705e-01 4.635878e-01 1.498959e-01 -2.983077e-01 -2.569490e-01 -5.434100e-02 1.044407e-01 5.404432e-02 9.099474e-02 1.838034e-01 -5.373752e-01 7.077999e-02 5.223521e-01 -2.663181e-02 -2.474865e-01 -2.223533e-01 -1.455508e-01 1.997117e-01 1.969783e-01 1.765778e-01 2.654181e-02 -6.614758e-02 5.339231e-02 -2.564636e-01
<VARIANCE> 39
 3.117623e+01 8.628465e+01 7.022198e+01 9.073485e+01 1.025062e+02 2.116774e+02 1.784265e+02 1.225960e+02 9.779048e+01 9.556277e+01 1.386418e+02 1.436900e+02 7.376173e+01 9.836006e-01 3.654400e+00 3.321252e+00 5.144513e+00 4.997038e+00 6.468989e+00 7.640800e+00 7.387886e+00 7.679026e+00 7.211906e+00 7.199073e+00 6.093411e+00 7.829516e-01 1.680434e-01 3.940818e-01 5.841593e-01 7.815184e-01 8.905675e-01 1.277123e+00 1.298432e+00 1.456362e+00 1.449366e+00 1.377131e+00 1.370237e+00 1.213570e+00 1.349642e-01
<GCONST> 1.472967e+02
<TRANSP> 5
 0.000000e+00 1.000000e+00 0.000000e+00 0.000000e+00 0.000000e+00
 0.000000e+00 8.553439e-01 1.446561e-01 0.000000e+00 0.000000e+00
 0.000000e+00 0.000000e+00 6.369907e-01 3.630092e-01 0.000000e+00
 0.000000e+00 0.000000e+00 0.000000e+00 8.314023e-01 1.685977e-01
 0.000000e+00 0.000000e+00 0.000000e+00 0.000000e+00 0.000000e+00
<ENDHMM>
~h "d"
<BEGINHMM>
<NUMSTATES> 5
<STATE> 2
<MEAN> 39
 6.040224e+00 8.789929e+00 7.813893e+00 -1.448792e+00 -1.241685e+01 -9.083192e+00 -5.954637e+00 -1.067341e+01 -8.196444e+00 -2.845383e+00 -8.335534e-01 9.848501e-01 -4.738701e+00 1.931336e-01 -1.685935e+00 -1.635057e+00 -1.119628e+00 -1.652566e+00 -1.074987e-01 1.028701e-01 -1.197778e+00 -2.383755e-01 -1.697432e+00 -4.577766e-01 -1.101214e+00 3.962365e+00 -4.604489e-01 -1.856054e+00 -1.498268e+00 -3.605923e-01 6.740620e-01 1.151373e+00 9.078393e-01 4.836413e-01 7.086244e-01 -1.283715e-01 8.350368e-02 -2.440554e-01 1.881199e+00
<VARIANCE> 39
 4.123083e+01 5.568530e+01 6.664446e+01 1.071603e+02 1.151192e+02 1.664985e+02 1.325745e+02 1.449364e+02 1.596971e+02 1.423937e+02 1.180935e+02 1.046436e+02 5.264133e+01 6.193021e+00 1.610407e+01 1.607288e+01 1.306654e+01 1.526919e+01 2.158077e+01 2.451074e+01 1.843102e+01 2.050294e+01 1.664762e+01 1.283172e+01 1.048292e+01 2.167748e+01 1.024250e+00 1.541495e+00 1.954945e+00 2.441014e+00 2.902128e+00 2.922509e+00 3.725234e+00 3.346410e+00 3.683130e+00 3.164819e+00 2.700608e+00 2.286892e+00 1.858438e+00
<GCONST> 1.786795e+02
<STATE> 3
<MEAN> 39
 2.736257e+00 -1.272856e+01 -1.143805e+01 -9.336194e+00 -1.203639e+01 1.776495e+00 2.660274e+00 -1.122908e+01 -3.683338e+00 -9.157185e+00 -1.821511e+00 -3.885419e+00 2.442927e+01 -3.439231e-01 -6.498661e+00 -4.119972e+00 7.732934e-01 2.295887e+00 1.136198e+00 -2.927567e-01 -1.275043e+00 -6.811997e-01 -7.882876e-01 -1.409547e-01 -8.316224e-01 6.299080e+00 3.079217e-01 9.199054e-01 1.295949e+00 1.388856e+00 7.969903e-01 -1.320275e+00 -1.142048e+00 1.659157e-01 -5.592932e-01 6.753392e-01 -6.370028e-03 3.963643e-01 -1.981418e+00
<VARIANCE> 39
 3.923275e+01 9.573923e+01 7.406088e+01 1.240875e+02 1.396102e+02 1.683438e+02 2.407690e+02 1.574074e+02 1.699487e+02 1.237769e+02 1.102374e+02 8.224134e+01 8.242164e+01 7.665270e+00 8.391435e+00 1.617546e+01 1.622693e+01 1.550466e+01 2.262020e+01 2.848206e+01 2.161779e+01 2.386790e+01 1.715807e+01 1.441282e+01 1.220315e+01 1.451892e+01 8.737991e-01 2.067222e+00 1.810757e+00 2.104010e+00 2.775437e+00 3.139666e+00 4.623173e+00 3.414435e+00 3.969471e+00 2.777243e+00 2.606832e+00 1.989925e+00 1.637134e+00
<GCONST> 1.803892e+02
<STATE> 4
<MEAN> 39
 3.784532e+00 -2.383846e+01 -1.401790e+01 3.522854e+00 -4.490980e+00 -6.491601e+00 -6.739355e+00 -1.327993e+01 -8.795087e+00 -7.666010e+00 -2.999537e+00 -3.808114e+00 2.838981e+01 5.724008e-01 -3.604649e-01 3.067132e-02 1.214451e+00 8.826813e-01 -1.591364e+00 -1.214099e+00 1.133680e+00 -3.292291e-01 6.543810e-02 -4.201185e-01 3.207295e-01 -5.731611e-01 1.712770e-01 1.169427e+00 4.552477e-01 -5.724949e-01 -4.069065e-01 7.692103e-02 2.474188e-01 4.299089e-01 2.639727e-01 -2.231424e-02 -9.593923e-02 1.364651e-01 -9.480161e-01
<VARIANCE> 39
 4.354771e+01 5.388029e+01 1.277131e+02 1.178454e+02 1.205699e+02 1.293201e+02 2.128456e+02 1.543386e+02 1.704441e+02 1.064439e+02 8.949159e+01 9.649792e+01 6.739508e+01 1.800227e+00 3.952433e+00 5.567153e+00 7.429026e+00 8.405799e+00 9.343867e+00 1.076202e+01 8.609579e+00 8.499898e+00 7.847085e+00 7.199073e+00 6.439265e+00 1.528006e+00 4.315855e-01 1.228614e+00 1.261022e+00 9.507499e-01 1.366574e+00 1.690782e+00 2.045113e+00 1.789920e+00 2.146147e+00 1.644597e+00 1.370237e+00 1.323277e+00 1.288993e+00
<GCONST> 1.590213e+02
<TRANSP> 5
 0.000000e+00 1.000000e+00 0.000000e+00 0.000000e+00 0.000000e+00
 0.000000e+00 7.220040e-01 2.779960e-01 0.000000e+00 0.000000e+00
 0.000000e+00 0.000000e+00 6.423373e-01 3.576626e-01 0.000000e+00
 0.000000e+00 0.000000e+00 0.000000e+00 7.450545e-01 2.549455e-01
 0.000000e+00 0.000000e+00 0.000000e+00 0.000000e+00 0.000000e+00
<ENDHMM>
~h "h"
<BEGINHMM>
<NUMSTATES> 5
<STATE> 2
<MEAN> 39
 6.222031e+00 2.494819e+00 3.079931e+00 -1.000888e+01 -5.991947e+00 -1.327145e+01 -1.294430e+01 -1.368786e+01 -6.143819e+00 -5.573684e+00 -8.260772e+00 -2.150779e+00 1.170027e+01 6.534129e-01 -5.893823e-01 1.889901e-01 1.926500e-01 -1.051170e+00 -6.935930e-01 4.089247e-01 4.483933e-02 -7.400948e-01 -3.620842e-02 3.826858e-01 -4.271004e-01 -5.424975e-02 7.288015e-03 -2.108982e-01 -3.553212e-01 2.580534e-02 -3.322189e-03 1.040178e-01 2.466651e-01 2.726627e-01 -6.103664e-02 -1.818251e-01 7.894276e-02 -1.338325e-03 1.821306e-01
<VARIANCE> 39
 5.511229e+01 1.001952e+02 9.295428e+01 1.114221e+02 1.293090e+02 2.817757e+02 1.661652e+02 1.786385e+02 1.086626e+02 1.519811e+02 1.098116e+02 1.524011e+02 8.117039e+01 2.933850e+00 1.167386e+01 6.634660e+00 8.521077e+00 6.341651e+00 1.852273e+01 1.341754e+01 1.299666e+01 8.599233e+00 9.739503e+00 9.221076e+00 9.641438e+00 8.137681e+00 5.062762e-01 1.497689e+00 1.032357e+00 1.268782e+00 1.196198e+00 2.982563e+00 2.336584e+00 2.273030e+00 1.732074e+00 1.803085e+00 1.714265e+00 1.678264e+00 9.969175e-01
<GCONST> 1.678098e+02
<STATE> 3
<MEAN> 39
 1.180201e+01 -1.126630e+01 -9.220862e+00 5.659844e-01 -9.636417e+00 -1.780935e+01 -1.939312e+00 -4.347895e+00 -1.625734e+01 -8.523117e+00 -3.293269e+00 -5.070848e+00 1.744640e+01 1.369102e+00 -1.944920e+00 -3.911684e+00 1.750130e+00 1.753882e+00 -1.081602e+00 -1.530335e+00 5.195398e+00 4.620460e-01 -1.908950e+00 -1.041250e+00 9.227062e-01 2.628003e-01 1.794346e-01 1.140574e+00 1.963105e-01 -7.090140e-01 5.992899e-01 -1.797353e-01 -1.171178e+00 -2.734002e-01 1.249205e+00 4.252551e-01 -9.951257e-01 1.416424e-01 -7.778975e-01
<VARIANCE> 39
 2.644837e+01 7.289786e+01 7.488177e+01 7.450658e+01 7.429863e+01 9.501779e+01 1.036478e+02 2.353806e+02 1.231451e+02 1.111445e+02 8.949159e+01 9.281464e+01 3.766868e+01 1.562733e+00 6.808284e+00 6.869611e+00 7.783887e+00 6.337237e+00 1.400150e+01 1.217566e+01 1.177709e+01 1.869495e+01 8.200084e+00 1.102496e+01 6.093411e+00 4.257211e+00 3.612622e-01 4.720228e-01 8.849959e-01 9.663264e-01 8.905675e-01 2.811388e+00 1.720663e+00 4.856257e+00 2.189468e+00 2.568606e+00 1.370237e+00 1.566727e+00 3.698452e-01
<GCONST> 1.581055e+02
<STATE> 4
<MEAN> 39
 1.804243e+01 -8.012158e+00 -2.125964e+01 -7.121531e-01 9.611790e-01 -1.954497e+01 -1.561952e+01 3.752342e+00 -3.027516e+00 -7.303919e+00 -1.458216e+01 -4.692391e+00 1.186275e+01 7.489696e-01 1.352168e+00 -1.325112e+00 -1.899212e+00 1.152818e+00 2.236820e+00 -2.055978e+00 -2.059732e+00 2.101044e+00 2.223257e+00 -3.903846e-01 -6.750073e-01 -1.583914e+00 -4.653395e-01 3.494749e-01 8.190448e-01 -4.055780e-01 -7.006974e-01 7.641138e-01 9.116136e-01 -1.065076e+00 -8.155534e-01 3.094026e-01 1.388000e+00 1.669015e-01 -2.512165e-01
<VARIANCE> 39
 4.053652e+01 5.525718e+01 8.925857e+01 8.001168e+01 7.429863e+01 1.028683e+02 1.036478e+02 1.279913e+02 9.779048e+01 1.180848e+02 8.949159e+01 8.393812e+01 3.493625e+01 1.358701e+00 2.768787e+00 4.989252e+00 4.278692e+00 4.997038e+00 9.594455e+00 9.169990e+00 1.264641e+01 1.137339e+01 7.911777e+00 1.649705e+01 6.855439e+00 2.352949e+00 1.851681e-01 3.986392e-01 7.691143e-01 7.815184e-01 8.905675e-01 1.757563e+00 1.298432e+00 2.860524e+00 1.659585e+00 1.948632e+00 1.894666e+00 1.606275e+00 1.349642e-01
<GCONST> 1.505532e+02
<TRANSP> 5
 0.000000e+00 1.000000e+00 0.000000e+00 0.000000e+00 0.000000e+00
 0.000000e+00 9.182383e-01 8.176167e-02 0.000000e+00 0.000000e+00
 0.000000e+00 0.000000e+00 6.915095e-01 3.084905e-01 0.000000e+00
 0.000000e+00 0.000000e+00 0.000000e+00 6.737627e-01 3.262374e-01
 0.000000e+00 0.000000e+00 0.000000e+00 0.000000e+00 0.000000e+00
<ENDHMM>
~h "k"
<BEGINHMM>
<NUMSTATES> 5
<STATE> 2
<MEAN> 39
 -4.243141e+00 3.537383e+00 4.960557e+00 4.016765e+00 4.470801e+00 1.000933e+01 9.417893e+00 7.074480e+00 4.948012e+00 5.900100e+00 3.910375e+00 2.439793e+00 -1.295198e+01 -3.840041e-01 -2.430974e+00 -5.699724e-02 6.037562e-01 -5.845144e-01 -4.865482e-01 3.050435e-01 -5.899411e-03 -4.258738e-01 -4.276609e-01 1.082442e-01 -9.713288e-02 2.244069e+00 2.684490e-01 -7.386490e-01 -5.439861e-01 -5.984278e-01 -6.663213e-01 -8.849732e-01 -5.522256e-01 -5.362843e-01 -5.512239e-01 -6.672341e-01 -3.394618e-01 -1.857860e-01 1.726437e+00
<VARIANCE> 39
 2.284501e+01 5.044260e+01 5.418470e+01 8.685865e+01 8.119466e+01 9.964207e+01 1.036478e+02 1.035257e+02 9.779048e+01 9.556277e+01 8.949159e+01 8.224134e+01 3.579262e+01 4.434962e+00 1.408913e+01 8.424567e+00 1.310025e+01 1.252371e+01 1.571057e+01 1.319016e+01 1.358481e+01 1.263309e+01 1.154064e+01 9.859970e+00 9.231766e+00 1.757928e+01 7.230339e-01 1.726980e+00 1.518345e+00 2.310668e+00 1.870365e+00 2.389530e+00 2.375027e+00 2.461433e+00 2.309555e+00 2.233022e+00 2.024112e+00 1.900621e+00 1.443678e+00
<GCONST> 1.668511e+02
<STATE> 3
<MEAN> 39
 -5.707818e+00 -1.235809e+01 2.645851e+00 5.164460e+00 -2.703613e+00 2.122770e+00 8.434975e+00 3.701653e+00 -2.526838e-01 6.052093e-01 3.068546e+00 1.091210e+00 7.156969e+00 2.103968e+00 -1.645799e+00 -2.872946e+00 -2.257869e+00 -1.979671e+00 -3.015158e+00 -1.877554e+00 -1.999501e+00 -2.290855e+00 -2.390919e+00 -1.271542e+00 -5.669370e-01 5.129141e+00 8.738540e-01 1.338158e+00 -7.995863e-01 -1.014570e+00 2.829515e-01 -1.552301e-01 -8.624702e-01 -4.352846e-01 -4.233498e-02 -2.605506e-01 -4.481878e-01 -2.257967e-01 -5.868362e-01
<VARIANCE> 39
 7.073638e+01 1.688730e+02 1.382411e+02 1.917711e+02 1.556088e+02 1.953317e+02 1.476796e+02 1.605720e+02 1.582390e+02 1.196541e+02 1.156317e+02 1.018197e+02 1.045515e+02 9.020284e+00 1.988407e+01 1.625187e+01 2.201436e+01 1.539644e+01 1.956806e+01 1.732961e+01 1.954283e+01 1.789263e+01 1.402328e+01 1.504548e+01 1.300935e+01 1.656253e+01 1.390745e+00 3.118623e+00 3.052248e+00 3.192665e+00 2.971433e+00 4.070157e+00 3.231803e+00 3.425755e+00 3.382758e+00 2.849176e+00 2.781440e+00 2.594206e+00 1.904741e+00
<GCONST> 1.852571e+02
<STATE> 4
<MEAN> 39
 4.432870e+00 -8.784211e+00 -8.269421e+00 -9.788811e+00 -5.746804e+00 -4.685310e+00 -2.981265e+00 -5.414386e+00 -5.555745e+00 -7.387213e+00 -3.006702e+00 -2.394594e+00 1.712556e+01 1.501289e+00 -5.468934e-02 -2.099305e+00 -1.842871e+00 -2.868746e-01 -1.452182e+00 -2.124835e+00 -1.282186e+00 -7.434403e-01 -1.205468e+00 -1.120591e+00 -1.003620e+00 2.308295e+00 -6.805620e-01 3.181197e-01 1.002712e+00 1.043657e+00 5.306475e-01 5.075297e-01 5.137579e-01 6.024666e-01 5.941119e-01 7.152897e-01 4.511326e-01 2.041849e-01 -1.218144e+00
<VARIANCE> 39
 6.981232e+01 1.662236e+02 1.390340e+02 2.087279e+02 1.453535e+02 1.905773e+02 1.710086e+02 2.045618e+02 1.627878e+02 1.324391e+02 1.179285e+02 1.048929e+02 1.837612e+02 8.414683e+00 1.313303e+01 1.843608e+01 1.917335e+01 1.237992e+01 1.979409e+01 1.716982e+01 1.560832e+01 1.359716e+01 1.520349e+01 1.355889e+01 1.262349e+01 1.150755e+01 1.074350e+00 2.389315e+00 2.847328e+00 3.088556e+00 2.195354e+00 3.085929e+00 2.581804e+00 3.045917e+00 2.787708e+00 2.669656e+00 2.450315e+00 2.314378e+00 1.825928e+00
<GCONST> 1.826384e+02
<TRANSP> 5
 0.000000e+00 1.000000e+00 0.000000e+00 0.000000e+00 0.000000e+00
 0.000000e+00 6.758492e-01 3.241508e-01 0.000000e+00 0.000000e+00
 0.000000e+00 0.000000e+00 5.448953e-01 4.551047e-01 0.000000e+00
 0.000000e+00 0.000000e+00 0.000000e+00 5.559777e-01 4.440223e-01
 0.000000e+00 0.000000e+00 0.000000e+00 0.000000e+00 0.000000e+00
<ENDHMM>
~h "l"
<BEGINHMM>
<NUMSTATES> 5
<STATE> 2
<MEAN> 39
 7.161176e+00 6.926191e-01 -8.179728e-01 -9.351437e+00 -1.614174e+01 -1.289062e+01 -2.470646e+00 -6.766713e+00 -4.213797e+00 -4.070224e+00 -4.989095e+00 -3.423727e+00 1.182975e+01 -2.048011e-01 -1.847293e+00 -1.829244e+00 -7.141302e-01 1.119873e-01 1.192458e+00 2.523696e-01 -1.227437e-01 -2.434628e-01 -8.065343e-01 -5.683602e-01 -2.135262e-01 2.361209e+00 -3.002476e-01 -4.231008e-01 -1.415450e-01 1.667397e-01 6.796644e-01 4.884751e-01 -1.482303e-02 1.390379e-01 9.207321e-02 -1.770160e-01 1.765434e-01 9.564824e-02 1.327760e-01
<VARIANCE> 39
 3.677976e+01 1.289340e+02 1.449592e+02 1.813888e+02 1.557991e+02 2.174330e+02 1.860452e+02 2.058658e+02 1.880816e+02 2.054244e+02 1.491614e+02 1.223549e+02 9.026110e+01 4.295524e+00 1.021812e+01 1.265254e+01 1.690388e+01 1.890188e+01 2.276399e+01 1.853474e+01 2.130726e+01 1.698297e+01 1.804962e+01 1.733965e+01 1.207551e+01 7.316422e+00 6.575462e-01 1.519873e+00 2.011862e+00 2.568586e+00 2.655138e+00 3.291769e+00 2.993206e+00 3.742363e+00 2.959899e+00 3.066823e+00 2.968399e+00 2.105449e+00 8.415527e-01
<GCONST> 1.805204e+02
<STATE> 3
<MEAN> 39
 3.913073e+00 -9.068109e+00 -6.386820e+00 -4.682725e+00 -7.081381e+00 -4.185076e+00 -5.529831e+00 -7.717180e+00 -5.009174e+00 -6.519574e+00 -2.453890e+00 -1.489005e+00 1.661216e+01 -1.230258e+00 -1.275684e+00 6.777999e-02 -1.072145e-02 2.186929e+00 1.278631e+00 -6.609566e-01 4.983619e-01 7.707763e-01 -3.186330e-01 2.393681e-01 4.778293e-02 6.105251e-01 1.617000e-01 6.772707e-01 2.835005e-01 -1.449869e-01 -1.642426e-01 -6.101140e-01 5.133218e-02 1.749821e-01 2.895562e-01 2.117964e-01 -1.468464e-01 -3.312996e-02 -5.840159e-01
<VARIANCE> 39
 4.081152e+01 1.561893e+02 1.327805e+02 3.026929e+02 1.396612e+02 1.317487e+02 2.455099e+02 1.773722e+02 1.784185e+02 2.154718e+02 1.742580e+02 1.649164e+02 1.623361e+02 3.250166e+00 9.851077e+00 1.463101e+01 1.575872e+01 9.932158e+00 1.439228e+01 1.992007e+01 2.074422e+01 1.585864e+01 1.628851e+01 1.382290e+01 1.250569e+01 7.249524e+00 4.756616e-01 1.567345e+00 1.843258e+00 2.273215e+00 1.782430e+00 2.548044e+00 2.890674e+00 2.872952e+00 2.836723e+00 2.697991e+00 2.889769e+00 2.078607e+00 9.414264e-01
<GCONST> 1.785708e+02
<STATE> 4
<MEAN> 39
 4.571429e+00 -1.026387e+01 -6.713337e+00 -6.684540e+00 -5.712735e+00 -3.304579e+00 -6.357224e+00 -1.116379e+01 -4.475037e+00 -9.480151e+00 -3.926178e+00 -1.537822e+00 1.802487e+01 1.116230e-01 9.478999e-01 4.896768e-01 -3.306087e-03 4.531459e-01 -1.118216e+00 -2.873724e-01 3.671756e-01 4.427669e-02 3.250444e-01 1.337821e-02 1.320847e-01 -9.363478e-01 1.614543e-01 4.736919e-01 1.455316e-01 -1.006246e-01 -2.621508e-01 -3.352808e-01 -8.901535e-04 1.537109e-01 -3.304255e-02 1.529545e-01 -4.862740e-02 -1.609045e-02 -3.369788e-01
<VARIANCE> 39
 4.099887e+01 1.735501e+02 1.124779e+02 1.929827e+02 1.178942e+02 1.936557e+02 2.305287e+02 1.736996e+02 1.268357e+02 1.626964e+02 1.177654e+02 1.006092e+02 1.342964e+02 2.747968e+00 9.807728e+00 7.472190e+00 8.927018e+00 7.654078e+00 1.407967e+01 1.092539e+01 1.116536e+01 9.693182e+00 8.547836e+00 8.020567e+00 7.512043e+00 4.728092e+00 3.393942e-01 1.450457e+00 1.037770e+00 1.352843e+00 1.220864e+00 1.987950e+00 1.816977e+00 1.881825e+00 1.855386e+00 1.789898e+00 1.481030e+00 1.300923e+00 8.410889e-01
<GCONST> 1.658579e+02
<TRANSP> 5
 0.000000e+00 1.000000e+00 0.000000e+00 0.000000e+00 0.000000e+00
 0.000000e+00 6.870472e-01 3.129528e-01 0.000000e+00 0.000000e+00
 0.000000e+00 0.000000e+00 4.446352e-01 5.553647e-01 0.000000e+00
 0.000000e+00 0.000000e+00 0.000000e+00 6.332935e-01 3.667065e-01
 0.000000e+00 0.000000e+00 0.000000e+00 0.000000e+00 0.000000e+00
<ENDHMM>
~h "m"
<BEGINHMM>
<NUMSTATES> 5
<STATE> 2
<MEAN> 39
 1.004881e+01 5.663736e+00 7.096334e+00 -2.361465e+00 -9.891000e+00 -2.324062e+01 -1.361047e+01 -7.899714e+00 -8.518267e+00 -2.797462e+00 -2.504914e+00 2.559687e+00 2.266887e+00 -7.959543e-02 7.389327e-01 7.748629e-01 2.267354e-02 -7.234650e-02 -3.115002e-01 -4.796820e-01 -3.857896e-01 -1.604150e-01 4.646915e-02 1.018568e-01 2.487808e-01 -4.363648e-01 -2.134078e-01 -4.927036e-01 -5.693830e-01 -1.605636e-01 3.091722e-01 1.050666e+00 4.093893e-01 1.804019e-01 1.298959e-01 -1.114435e-01 -7.096609e-02 -2.081715e-01 3.004573e-01
<VARIANCE> 39
 2.513981e+01 5.107819e+01 5.741434e+01 1.246447e+02 1.284561e+02 1.885012e+02 1.230345e+02 1.913253e+02 1.443314e+02 1.592852e+02 1.742950e+02 1.660182e+02 4.168496e+01 2.160434e+00 3.648041e+00 5.372280e+00 5.754488e+00 6.628529e+00 1.739433e+01 9.779441e+00 1.072093e+01 9.653241e+00 9.662334e+00 9.498622e+00 7.948659e+00 4.217300e+00 2.831191e-01 6.400389e-01 9.657513e-01 1.035987e+00 1.228547e+00 1.971318e+00 1.743307e+00 2.189084e+00 1.876399e+00 1.824622e+00 1.959350e+00 1.533717e+00 4.156306e-01
<GCONST> 1.590815e+02
<STATE> 3
<MEAN> 39
 8.613063e+00 7.497078e-01 4.302441e+00 -3.225096e+00 -8.479074e+00 -1.937440e+01 -1.155481e+01 -8.261673e+00 -8.843290e+00 -4.382066e+00 -4.588128e+00 -4.026505e-01 7.161362e+00 -8.267529e-01 -1.281198e+00 -1.776144e+00 -9.606594e-01 7.595736e-01 2.847977e+00 6.999873e-01 1.867870e-01 5.346538e-01 -5.344928e-01 -5.065964e-01 -8.771644e-01 1.784844e+00 -5.488447e-01 -1.134171e-02 -5.282407e-01 1.511834e-01 7.132634e-01 1.153862e+00 6.415411e-01 5.399257e-01 4.975401e-01 2.853821e-01 2.735985e-01 5.181078e-02 -2.682711e-01
<VARIANCE> 39
 3.711752e+01 1.203266e+02 1.162591e+02 1.354379e+02 1.296545e+02 3.028585e+02 1.720486e+02 1.876349e+02 1.513564e+02 1.645202e+02 1.471635e+02 1.520069e+02 1.146099e+02 5.886286e+00 1.139560e+01 1.575461e+01 1.440374e+01 1.359584e+01 2.991494e+01 1.946699e+01 1.829290e+01 1.698106e+01 1.552420e+01 1.420580e+01 1.201987e+01 1.436635e+01 7.893441e-01 2.413660e+00 2.698295e+00 2.208127e+00 2.040212e+00 5.566953e+00 3.933780e+00 3.306051e+00 2.980540e+00 2.986099e+00 2.668072e+00 2.467099e+00 1.591360e+00
<GCONST> 1.824390e+02
<STATE> 4
<MEAN> 39
 2.581451e+00 3.759655e+00 1.749724e+00 -3.114019e+00 -5.233120e-01 -5.556401e+00 -6.090480e+00 -4.808303e+00 -4.784531e+00 -4.197007e+00 -3.649609e+00 -1.137305e+00 2.945943e+00 -1.934031e+00 -7.333584e-01 -2.506703e+00 1.996368e-01 2.368809e+00 3.410958e+00 2.484897e+00 2.324681e+00 1.614069e+00 6.776403e-01 5.361164e-01 4.295997e-02 -1.498438e-01 2.204299e-01 -1.530231e-01 -1.540236e-03 2.354769e-01 -3.689828e-01 -5.911576e-01 -1.338432e-01 1.298370e-01 1.689115e-01 4.043663e-01 2.985266e-01 2.038392e-01 -1.010576e-01
<VARIANCE> 39
 5.309959e+01 9.315067e+01 1.750479e+02 2.303949e+02 1.073761e+02 1.910853e+02 1.422139e+02 1.362863e+02 1.241392e+02 1.344237e+02 1.144020e+02 1.279769e+02 1.998236e+02 6.079543e+00 1.292429e+01 1.550587e+01 1.364519e+01 1.179980e+01 2.375133e+01 2.006157e+01 1.698822e+01 1.569178e+01 1.639867e+01 1.569417e+01 1.297730e+01 8.928248e+00 6.057711e-01 1.039118e+00 1.800690e+00 2.200830e+00 1.900070e+00 2.602728e+00 2.384848e+00 2.257036e+00 2.177650e+00 2.176227e+00 2.104199e+00 1.689220e+00 9.149684e-01
<GCONST> 1.763737e+02
<TRANSP> 5
 0.000000e+00 1.000000e+00 0.000000e+00 0.000000e+00 0.000000e+00
 0.000000e+00 7.726794e-01 2.273206e-01 0.000000e+00 0.000000e+00
 0.000000e+00 0.000000e+00 5.598958e-01 4.401043e-01 0.000000e+00
 0.000000e+00 0.000000e+00 0.000000e+00 4.433875e-01 5.566125e-01
 0.000000e+00 0.000000e+00 0.000000e+00 0.000000e+00 0.000000e+00
<ENDHMM>
~h "n"
<BEGINHMM>
<NUMSTATES> 5
<STATE> 2
<MEAN> 39
 1.146768e+01 7.377743e+00 4.647077e+00 -1.149742e+01 -1.137990e+01 -1.937596e+01 -8.120334e+00 -1.026142e+01 -9.284648e+00 -4.926936e+00 -6.133883e+00 -8.847519e-01 4.590089e+00 -3.631788e-01 5.923627e-02 2.245856e-01 8.591476e-01 2.653340e-01 5.634444e-01 -1.566036e-01 -2.138317e-01 5.464975e-02 6.455955e-02 1.101888e-01 -3.214569e-02 -5.010226e-01 -4.572906e-01 -5.495914e-01 -3.565928e-01 5.094079e-01 3.051448e-01 9.132123e-01 1.437184e-01 2.036292e-01 2.527193e-01 -4.314455e-03 2.246477e-01 -5.035629e-02 1.823709e-01
<VARIANCE> 39
 2.284501e+01 4.760371e+01 7.380260e+01 1.187466e+02 8.956931e+01 2.163980e+02 1.631029e+02 1.662467e+02 1.254471e+02 1.265879e+02 1.216505e+02 1.287927e+02 4.425417e+01 2.183146e+00 4.702847e+00 4.691988e+00 6.710584e+00 6.474237e+00 1.180975e+01 9.209732e+00 8.924606e+00 7.679026e+00 9.159717e+00 8.564075e+00 7.544236e+00 4.406282e+00 3.851767e-01 9.101865e-01 9.054168e-01 1.123003e+00 1.313893e+00 2.267072e+00 2.102481e+00 1.958402e+00 1.725202e+00 1.794075e+00 1.676352e+00 1.445763e+00 4.843385e-01
<GCONST> 1.581437e+02
<STATE> 3
<MEAN> 39
 4.617392e+00 3.310683e+00 4.500853e+00 -1.529175e+00 -5.813367e+00 -7.668374e+00 -6.218468e+00 -8.456240e+00 -6.837800e+00 -3.464997e+00 -3.346246e+00 -1.199113e+00 2.204878e+00 -2.505241e+00 -2.403612e+00 -1.437844e+00 2.212106e+00 2.116435e+00 4.439447e+00 1.853732e+00 2.153231e+00 1.565545e+00 4.705430e-01 1.323978e+00 4.785554e-02 -2.516626e-01 4.188905e-02 -6.663181e-02 -3.489045e-01 -3.715129e-01 1.040159e-01 -1.546476e-01 3.083227e-01 5.155283e-01 2.974582e-01 2.124682e-01 1.323395e-01 1.670540e-01 6.099474e-02
<VARIANCE> 39
 4.014237e+01 1.214988e+02 1.171169e+02 1.370144e+02 1.272701e+02 1.832498e+02 1.756631e+02 1.475063e+02 1.186748e+02 1.471547e+02 1.330204e+02 1.427236e+02 1.852921e+02 3.498507e+00 7.596873e+00 1.050112e+01 1.148879e+01 1.099556e+01 1.768969e+01 2.261050e+01 1.973595e+01 1.557076e+01 1.548022e+01 1.421080e+01 1.353888e+01 1.019653e+01 5.893483e-01 1.192819e+00 1.009617e+00 1.304730e+00 1.784888e+00 2.559870e+00 2.881253e+00 2.376814e+00 2.219560e+00 2.317098e+00 2.101911e+00 1.851861e+00 7.669739e-01
<GCONST> 1.735223e+02
<STATE> 4
<MEAN> 39
 2.901905e+00 -2.503940e+00 -2.855586e+00 -1.791579e+00 -5.879487e+00 -4.230987e+00 -3.468575e+00 -3.613465e+00 -3.145948e+00 -2.842776e+00 -8.763688e-01 -1.508387e+00 6.210437e+00 -8.093535e-01 -6.272842e-01 -8.549466e-01 9.652785e-01 1.091257e+00 1.171719e+00 9.386221e-01 1.555827e+00 7.233063e-01 4.982383e-01 7.879922e-01 2.897426e-01 -4.188968e-01 2.854706e-01 4.406420e-01 2.217608e-01 -3.509064e-01 -2.051377e-01 -6.049739e-01 -2.266831e-01 -2.846920e-01 -1.767799e-01 -7.319657e-02 -2.597879e-01 -6.097881e-03 1.213241e-02
<VARIANCE> 39
 5.593902e+01 1.661340e+02 1.568839e+02 1.622915e+02 1.442032e+02 2.091927e+02 2.156154e+02 1.950294e+02 1.468042e+02 1.561873e+02 1.254043e+02 1.715014e+02 2.821803e+02 3.874617e+00 4.371386e+00 6.393955e+00 6.192886e+00 7.297295e+00 1.177674e+01 1.243369e+01 1.180897e+01 1.093271e+01 9.877924e+00 9.017686e+00 8.845036e+00 3.045734e+00 4.622656e-01 1.034020e+00 1.038332e+00 1.298017e+00 1.389500e+00 1.888380e+00 2.431081e+00 2.312517e+00 2.164203e+00 2.097484e+00 1.699151e+00 1.714576e+00 1.342367e+00
<GCONST> 1.688333e+02
<TRANSP> 5
 0.000000e+00 1.000000e+00 0.000000e+00 0.000000e+00 0.000000e+00
 0.000000e+00 7.796670e-01 2.203330e-01 0.000000e+00 0.000000e+00
 0.000000e+00 0.000000e+00 5.161602e-01 4.838398e-01 0.000000e+00
 0.000000e+00 0.000000e+00 0.000000e+00 4.463595e-01 5.536405e-01
 0.000000e+00 0.000000e+00 0.000000e+00 0.000000e+00 0.000000e+00
<ENDHMM>
~h "p"
<BEGINHMM>
<NUMSTATES> 5
<STATE> 2
<MEAN> 39
 -4.824699e+00 2.308271e+00 5.041280e+00 3.998860e+00 4.624395e+00 8.515577e+00 8.451810e+00 6.449883e+00 4.581357e+00 3.572762e+00 3.700906e+00 2.035891e+00 -8.210595e+00 1.374677e+00 -1.505424e+00 -2.301145e+00 -1.168207e+00 -1.149298e+00 -1.385818e+00 -3.774853e-01 -4.045286e-01 -3.368299e-01 -1.248785e+00 -4.877624e-01 -6.889573e-01 4.095834e+00 1.035414e+00 -5.288240e-01 -1.315753e+00 -5.142840e-01 -5.937227e-01 -1.200839e+00 -9.443743e-01 -7.131311e-01 -6.468863e-01 -6.037661e-01 -5.996937e-01 -2.408596e-01 1.351947e+00
<VARIANCE> 39
 2.758128e+01 5.159334e+01 5.337886e+01 7.450658e+01 7.429863e+01 9.501779e+01 1.036478e+02 1.035257e+02 9.779048e+01 9.556277e+01 8.949159e+01 8.224134e+01 9.934223e+01 9.571982e+00 8.694231e+00 1.786417e+01 9.708443e+00 1.034154e+01 1.645136e+01 1.386495e+01 1.376438e+01 1.323006e+01 1.209608e+01 1.207629e+01 1.068211e+01 1.797632e+01 1.030881e+00 1.701374e+00 2.819609e+00 1.819799e+00 1.827513e+00 2.502038e+00 2.433732e+00 2.599502e+00 2.282032e+00 2.295285e+00 2.254213e+00 2.123536e+00 1.860953e+00
<GCONST> 1.702084e+02
<STATE> 3
<MEAN> 39
 1.161785e+01 -1.091119e+01 -2.149785e+01 -6.593749e+00 -4.806495e+00 -8.067851e+00 -3.075302e+00 -1.996671e+00 -3.425493e+00 -6.288270e+00 -5.632516e+00 -3.705378e+00 2.029022e+01 1.929574e+00 -1.988689e+00 -4.509253e+00 -2.123815e+00 -1.103802e+00 -2.722405e+00 -2.331422e+00 -1.832646e+00 -1.352462e+00 -1.153886e+00 -2.149257e+00 -1.213575e+00 3.798678e+00 -1.204320e+00 9.980463e-01 1.908769e+00 4.855774e-01 6.136256e-01 9.160964e-01 4.217326e-01 1.894311e-01 3.771379e-01 6.003739e-01 4.826042e-01 2.914211e-01 -1.763384e+00
<VARIANCE> 39
 7.155163e+01 1.279066e+02 2.734468e+02 1.918003e+02 1.344250e+02 1.486755e+02 1.568954e+02 1.500118e+02 1.449032e+02 1.356398e+02 1.349257e+02 1.208215e+02 8.726363e+01 1.214986e+01 1.732610e+01 3.656721e+01 1.843563e+01 1.546260e+01 1.921629e+01 1.717965e+01 1.686693e+01 1.723339e+01 1.955006e+01 1.456515e+01 1.330138e+01 1.573690e+01 1.176429e+00 1.915953e+00 4.371572e+00 2.293367e+00 2.340496e+00 2.956569e+00 2.801689e+00 2.779730e+00 3.102577e+00 2.935639e+00 2.823168e+00 2.624586e+00 1.236883e+00
<GCONST> 1.842875e+02
<STATE> 4
<MEAN> 39
 1.119459e+01 -1.081124e+01 -2.049206e+01 -6.149035e+00 -6.690769e+00 -1.143137e+01 -7.488614e+00 -7.552565e+00 -6.205255e+00 -6.781493e+00 -7.444735e+00 -4.237248e+00 2.027492e+01 -3.363902e-01 7.258745e-01 1.329297e+00 -4.055189e-01 -2.418419e-01 -2.202848e-01 -3.509734e-01 -4.276585e-01 -1.957564e-01 1.112205e-01 1.139811e-01 3.079146e-01 -4.008261e-01 -1.706018e-02 1.863413e-01 2.567801e-01 5.696300e-02 1.641012e-02 1.069908e-01 1.242309e-01 1.750786e-01 8.762315e-02 1.434630e-02 1.613474e-01 9.831686e-02 -2.394515e-01
<VARIANCE> 39
 4.972695e+01 1.477167e+02 2.521701e+02 2.275062e+02 1.894245e+02 1.482175e+02 1.441794e+02 1.447520e+02 1.532936e+02 1.761021e+02 1.094119e+02 1.055658e+02 8.508843e+01 1.016427e+00 3.404761e+00 5.085498e+00 4.811073e+00 4.997038e+00 6.624995e+00 7.640800e+00 7.387886e+00 7.740129e+00 7.211906e+00 7.199073e+00 6.093411e+00 1.023155e+00 2.346635e-01 5.196390e-01 1.119148e+00 9.003680e-01 9.542474e-01 1.277123e+00 1.298432e+00 1.456362e+00 1.449366e+00 1.377131e+00 1.370237e+00 1.213570e+00 2.576135e-01
<GCONST> 1.541064e+02
<TRANSP> 5
 0.000000e+00 1.000000e+00 0.000000e+00 0.000000e+00 0.000000e+00
 0.000000e+00 7.879148e-01 2.120852e-01 0.000000e+00 0.000000e+00
 0.000000e+00 0.000000e+00 7.268572e-01 2.731428e-01 0.000000e+00
 0.000000e+00 0.000000e+00 0.000000e+00 7.849642e-01 2.150358e-01
 0.000000e+00 0.000000e+00 0.000000e+00 0.000000e+00 0.000000e+00
<ENDHMM>
~h "r"
<BEGINHMM>
<NUMSTATES> 5
<STATE> 2
<MEAN> 39
 1.607353e+00 -3.205268e+00 2.058606e+00 -7.298218e+00 -7.940428e+00 -2.033275e+00 -9.313821e-01 -6.801573e+00 -6.513520e-01 -5.854884e+00 -2.121938e+00 -1.705003e+00 1.188237e+01 6.299533e-01 -1.155043e+00 -8.512977e-01 -1.776313e+00 -7.367662e-01 -7.285920e-01 -2.493579e-01 -3.728361e-01 -1.279976e-01 -1.144043e+00 -4.995009e-02 -5.077581e-01 2.026070e+00 1.718126e-01 -5.706074e-01 -6.411899e-01 -1.881830e-01 1.798265e-01 -2.417444e-01 -1.114071e-01 9.926400e-02 -2.661129e-01 -1.369352e-01 -1.026276e-02 -2.182801e-01 4.617873e-01
<VARIANCE> 39
 7.269169e+01 1.360983e+02 1.100911e+02 2.151021e+02 1.557747e+02 1.760712e+02 1.922710e+02 1.544527e+02 1.406028e+02 1.386026e+02 1.253526e+02 1.124808e+02 1.422669e+02 9.265065e+00 1.332623e+01 1.238699e+01 2.166587e+01 1.424924e+01 1.691283e+01 1.714355e+01 1.767647e+01 1.546901e+01 1.487698e+01 1.347120e+01 1.166369e+01 1.427683e+01 1.828335e+00 2.524889e+00 2.467694e+00 4.228822e+00 2.791903e+00 3.311234e+00 3.256254e+00 3.504807e+00 3.168080e+00 2.880790e+00 2.871920e+00 2.442932e+00 2.590051e+00
<GCONST> 1.842625e+02
<STATE> 3
<MEAN> 39
 4.742792e+00 -1.560102e+01 -6.408524e+00 -1.256742e+01 -8.894767e+00 -6.621278e+00 -1.042513e+00 -1.009198e+01 -4.803007e+00 -1.248800e+01 -8.974109e-01 -6.523003e+00 2.436985e+01 1.167809e-01 -1.127737e+00 -1.677587e+00 4.869308e-01 8.820004e-01 -1.306004e+00 -1.132716e+00 2.190752e-01 -1.057509e+00 -5.186279e-01 -3.718647e-02 -5.165196e-01 1.152951e+00 -2.307558e-01 9.223256e-01 3.347335e-01 8.027346e-01 2.710700e-01 -4.622926e-02 -2.286163e-01 3.600743e-01 9.991214e-02 6.450050e-01 -1.883290e-01 4.520147e-01 -9.017473e-01
<VARIANCE> 39
 4.807204e+01 1.521472e+02 9.043295e+01 2.028589e+02 1.244166e+02 1.830616e+02 2.211811e+02 1.888442e+02 1.342625e+02 1.425737e+02 1.266783e+02 1.139661e+02 9.506754e+01 3.718848e+00 9.439210e+00 9.366700e+00 1.306571e+01 9.822729e+00 1.440431e+01 1.612405e+01 1.659394e+01 1.230375e+01 1.348615e+01 1.383430e+01 1.178432e+01 6.291551e+00 6.741313e-01 1.052666e+00 1.368329e+00 2.161536e+00 1.574023e+00 2.398712e+00 2.439313e+00 2.670888e+00 2.207462e+00 2.301322e+00 2.142189e+00 2.018079e+00 7.422961e-01
<GCONST> 1.727441e+02
<STATE> 4
<MEAN> 39
 4.849529e+00 -1.691308e+01 -9.913855e+00 -5.676340e+00 -5.751721e+00 -8.668507e+00 -6.339309e+00 -9.954033e+00 -8.346871e+00 -9.716892e+00 -2.597358e+00 -4.420212e+00 2.442949e+01 2.560220e-01 8.934978e-01 -2.331699e-01 5.784205e-01 3.661782e-01 -7.421136e-01 -8.732921e-01 7.309533e-01 -1.217248e-01 4.727800e-01 -3.915283e-01 3.529921e-01 -7.462695e-01 4.187433e-02 4.849268e-01 2.921084e-01 -1.108986e-01 -1.526381e-01 8.618798e-03 1.018029e-01 2.144323e-02 2.576576e-01 1.313966e-01 -7.625995e-02 -1.302451e-02 -4.062287e-01
<VARIANCE> 39
 4.442517e+01 1.123854e+02 1.207111e+02 1.942495e+02 1.135399e+02 1.577335e+02 2.046033e+02 1.762232e+02 1.368819e+02 1.208941e+02 1.129815e+02 9.436771e+01 9.507257e+01 1.344678e+00 4.555756e+00 5.679348e+00 7.397161e+00 5.561343e+00 7.930982e+00 8.471436e+00 8.315652e+00 7.715951e+00 7.211906e+00 7.579986e+00 6.311709e+00 2.123951e+00 2.478080e-01 5.370165e-01 7.249380e-01 1.124935e+00 8.905675e-01 1.277123e+00 1.298432e+00 1.495324e+00 1.449366e+00 1.377131e+00 1.370237e+00 1.213570e+00 3.377833e-01
<GCONST> 1.550024e+02
<TRANSP> 5
 0.000000e+00 1.000000e+00 0.000000e+00 0.000000e+00 0.000000e+00
 0.000000e+00 6.591642e-01 3.408357e-01 0.000000e+00 0.000000e+00
 0.000000e+00 0.000000e+00 5.537601e-01 4.462399e-01 0.000000e+00
 0.000000e+00 0.000000e+00 0.000000e+00 7.283289e-01 2.716711e-01
 0.000000e+00 0.000000e+00 0.000000e+00 0.000000e+00 0.000000e+00
<ENDHMM>
~h "s"
<BEGINHMM>
<NUMSTATES> 5
<STATE> 2
<MEAN> 39
 -1.638752e+01 3.671879e+00 1.968324e+00 7.972873e+00 5.338810e+00 8.879025e+00 7.078806e+00 6.347863e+00 6.069714e+00 3.118428e+00 3.632989e+00 2.318018e+00 -2.086625e+00 7.943223e-01 -7.119369e-01 -3.442284e-01 -8.503663e-01 -7.281207e-01 -3.015496e-01 -2.040925e-01 -5.616423e-01 -3.116246e-01 -2.390456e-01 -1.073051e-01 5.168697e-02 7.395513e-01 9.999306e-01 -3.526888e-01 -2.585451e-01 -6.114504e-01 -6.413308e-01 -5.549214e-01 -5.400147e-01 -6.668233e-01 -4.614694e-01 -3.426754e-01 -3.003245e-01 -1.789527e-01 5.690660e-01
<VARIANCE> 39
 4.068291e+01 4.632663e+01 6.333467e+01 7.450658e+01 8.572091e+01 9.636201e+01 1.036478e+02 1.035257e+02 9.779048e+01 9.556277e+01 8.949159e+01 8.224134e+01 3.518335e+01 1.166600e+01 5.299305e+00 5.661715e+00 1.040732e+01 1.144473e+01 1.109190e+01 1.225962e+01 1.357531e+01 1.208273e+01 1.042234e+01 1.054881e+01 8.538689e+00 5.591513e+00 1.000662e+00 1.126154e+00 1.179613e+00 1.547825e+00 1.850935e+00 1.989055e+00 2.256526e+00 2.323574e+00 2.152892e+00 2.159549e+00 2.029036e+00 1.663522e+00 1.030237e+00
<GCONST> 1.632663e+02
<STATE> 3
<MEAN> 39
 5.085977e+00 -8.978238e+00 -7.018560e+00 -7.680895e+00 -1.133953e+01 -2.794087e+00 -2.703666e+00 -9.115152e+00 -5.210118e+00 -5.160936e+00 -2.546356e+00 -3.869436e-01 1.556510e+01 2.906610e+00 -3.848539e+00 -2.559806e+00 -2.231445e+00 -2.091791e+00 -1.883985e+00 -2.382879e+00 -2.619014e+00 -1.986790e+00 -1.964956e+00 -1.280402e+00 -9.223034e-01 5.098712e+00 -1.563261e+00 5.584940e-01 5.918225e-01 1.202203e+00 1.453219e+00 5.884445e-01 2.047708e-01 1.012604e+00 6.863886e-01 4.397641e-01 4.205824e-01 1.023865e-02 -7.910454e-01
<VARIANCE> 39
 7.324374e+01 1.609333e+02 1.010546e+02 1.456479e+02 1.168942e+02 1.624716e+02 1.902695e+02 1.669098e+02 1.530135e+02 1.504616e+02 1.876669e+02 1.095807e+02 1.622641e+02 1.590033e+01 1.361215e+01 1.174786e+01 1.787555e+01 1.903505e+01 1.881428e+01 2.083994e+01 2.254052e+01 1.752492e+01 1.914367e+01 1.818208e+01 1.315017e+01 1.353990e+01 1.401944e+00 2.192146e+00 1.929144e+00 2.125874e+00 2.165263e+00 2.639856e+00 3.053801e+00 3.133624e+00 2.787015e+00 3.034155e+00 3.512738e+00 2.335777e+00 2.358931e+00
<GCONST> 1.842206e+02
<STATE> 4
<MEAN> 39
 2.490095e+00 -1.751867e+01 -6.851094e+00 -3.879304e+00 -7.842498e+00 -3.377884e+00 -1.261612e+01 -1.186894e+01 -7.365949e+00 -7.519816e+00 -2.375497e+00 -2.762241e+00 2.399924e+01 -3.806923e-02 4.481337e-01 -6.499936e-02 3.950768e-01 8.723460e-01 -6.869332e-01 -6.038718e-01 6.022220e-01 -1.199164e-01 -4.794456e-02 6.797986e-02 -5.464571e-02 -2.611159e-01 4.269536e-02 6.371973e-01 1.025968e-01 -7.886769e-03 1.390164e-01 3.408338e-02 3.279007e-01 2.809919e-01 1.796454e-01 1.538027e-01 -3.864120e-02 1.502726e-01 -6.596769e-01
<VARIANCE> 39
 5.387415e+01 1.276857e+02 9.016338e+01 1.832128e+02 1.043004e+02 1.338261e+02 2.356473e+02 1.562600e+02 1.512578e+02 1.507894e+02 1.343107e+02 1.041889e+02 1.359249e+02 1.945142e+00 3.570841e+00 5.005456e+00 6.132475e+00 5.211590e+00 6.936001e+00 8.957834e+00 7.387886e+00 7.679026e+00 7.851927e+00 8.188057e+00 6.093411e+00 1.710400e+00 4.816096e-01 8.808520e-01 8.559780e-01 1.144165e+00 1.117178e+00 1.288102e+00 1.563165e+00 1.549487e+00 1.449366e+00 1.638388e+00 1.374836e+00 1.253799e+00 8.552375e-01
<GCONST> 1.580881e+02
<TRANSP> 5
 0.000000e+00 1.000000e+00 0.000000e+00 0.000000e+00 0.000000e+00
 0.000000e+00 8.606505e-01 1.393495e-01 0.000000e+00 0.000000e+00
 0.000000e+00 0.000000e+00 6.525642e-01 3.474359e-01 0.000000e+00
 0.000000e+00 0.000000e+00 0.000000e+00 6.880326e-01 3.119673e-01
 0.000000e+00 0.000000e+00 0.000000e+00 0.000000e+00 0.000000e+00
<ENDHMM>
~h "t"
<BEGINHMM>
<NUMSTATES> 5
<STATE> 2
<MEAN> 39
 -4.535316e+00 1.421967e+00 4.103061e+00 3.626246e+00 4.891659e+00 9.193894e+00 6.743006e+00 5.522480e+00 4.310524e+00 4.432481e+00 3.629397e+00 2.657924e+00 -8.764714e+00 -8.128054e-01 -1.077955e+00 -5.407903e-01 -4.429597e-02 1.739332e-01 6.751919e-01 4.603847e-01 5.199784e-01 5.981889e-01 -2.662247e-01 2.454102e-01 -1.419775e-01 1.694143e+00 5.916600e-01 -3.792283e-01 -5.920901e-01 -9.486622e-01 -8.839272e-01 -7.783850e-01 -7.668147e-01 -8.414969e-01 -4.206851e-01 -6.946550e-01 -4.210015e-01 -2.527660e-01 1.540694e+00
<VARIANCE> 39
 3.571658e+01 5.570549e+01 7.628970e+01 9.320937e+01 9.776723e+01 1.205136e+02 1.131804e+02 1.250097e+02 1.062817e+02 1.000223e+02 9.008841e+01 8.224134e+01 7.769062e+01 4.536959e+00 5.597998e+00 7.546105e+00 1.163723e+01 1.325487e+01 1.448013e+01 1.605043e+01 1.614441e+01 1.213228e+01 1.359880e+01 1.195191e+01 9.097967e+00 2.189244e+01 7.536312e-01 1.267890e+00 1.445059e+00 1.792257e+00 2.021294e+00 2.411115e+00 2.684734e+00 2.862986e+00 2.473594e+00 2.198937e+00 2.332758e+00 1.802810e+00 1.914684e+00
<GCONST> 1.693230e+02
<STATE> 3
<MEAN> 39
 1.322705e+00 -7.678275e+00 -5.717271e+00 -6.819169e+00 -7.073616e+00 3.732796e-01 -1.314043e+00 -5.427669e+00 -2.341492e-01 -5.373836e+00 -1.266603e+00 -1.214356e+00 1.602741e+01 1.306839e+00 -5.446599e-01 -1.028398e+00 -1.729486e+00 -1.936122e+00 -1.538995e+00 -6.501337e-01 -1.764433e+00 -1.191358e+00 -1.072726e+00 -1.092698e+00 -7.544585e-01 2.221335e+00 5.259117e-02 5.434915e-01 3.330504e-01 5.288591e-01 4.725598e-01 -2.444663e-01 1.273353e-01 4.124765e-01 -1.087058e-01 4.021768e-01 1.590702e-02 1.025881e-01 -1.287188e+00
<VARIANCE> 39
 8.889258e+01 1.325060e+02 1.332471e+02 1.596365e+02 1.592991e+02 2.253503e+02 2.314194e+02 2.036601e+02 1.615603e+02 1.507556e+02 1.566635e+02 1.121519e+02 2.029333e+02 8.178872e+00 1.638114e+01 1.756030e+01 2.135069e+01 1.775606e+01 2.121693e+01 2.341194e+01 2.432565e+01 1.823147e+01 1.689587e+01 1.696065e+01 1.250972e+01 3.178368e+01 1.542419e+00 1.971332e+00 2.078269e+00 2.882444e+00 3.059924e+00 3.541902e+00 3.917917e+00 4.287483e+00 3.468538e+00 2.994107e+00 3.184213e+00 2.364997e+00 2.892401e+00
<GCONST> 1.886281e+02
<STATE> 4
<MEAN> 39
 -6.005667e-01 -7.936440e-01 -4.448530e-02 -1.101317e+00 -9.078367e-01 4.054939e+00 2.950281e+00 -1.117714e+00 1.709971e+00 -2.411934e-01 -2.914926e-02 1.111649e+00 -1.003116e+00 1.301373e-01 3.967364e-01 4.686696e-02 4.526992e-01 5.145693e-01 -5.112385e-01 1.248612e-01 7.029570e-01 -1.748538e-01 3.828801e-01 3.135651e-02 1.189251e-01 -9.263664e-01 2.321436e-02 -6.578593e-02 6.975795e-02 6.743114e-03 7.734157e-03 -1.670834e-01 -1.219895e-01 3.546391e-02 -7.754482e-03 -9.756073e-03 1.130820e-01 1.619836e-02 1.916688e-01
<VARIANCE> 39
 4.921209e+01 8.921952e+01 9.245172e+01 1.372035e+02 1.460596e+02 2.009850e+02 1.543613e+02 1.594415e+02 1.458951e+02 1.251861e+02 1.061939e+02 9.691288e+01 2.133351e+02 4.850480e+00 5.989750e+00 7.292864e+00 8.545070e+00 1.012009e+01 1.643132e+01 1.376697e+01 1.501738e+01 1.352501e+01 1.353849e+01 1.017892e+01 9.328180e+00 9.353998e+00 7.132306e-01 1.684593e+00 1.581786e+00 1.902638e+00 2.222377e+00 2.716546e+00 2.917042e+00 3.006747e+00 2.752327e+00 2.636643e+00 2.079172e+00 2.038135e+00 2.392066e+00
<GCONST> 1.738241e+02
<TRANSP> 5
 0.000000e+00 1.000000e+00 0.000000e+00 0.000000e+00 0.000000e+00
 0.000000e+00 6.893474e-01 3.106526e-01 0.000000e+00 0.000000e+00
 0.000000e+00 0.000000e+00 6.246138e-01 3.753862e-01 0.000000e+00
 0.000000e+00 0.000000e+00 0.000000e+00 4.668253e-01 5.331747e-01
 0.000000e+00 0.000000e+00 0.000000e+00 0.000000e+00 0.000000e+00
<ENDHMM>
~h "v"
<BEGINHMM>
<NUMSTATES> 5
<STATE> 2
<MEAN> 39
 9.854335e+00 -2.088950e+01 -1.718600e+01 2.115495e+00 -3.800765e-01 -1.141074e+01 -7.552566e+00 -1.668680e+00 -1.418088e+01 -1.064760e+01 -3.327631e+00 -1.559353e+00 2.367485e+01 -1.480506e+00 -1.598068e+00 2.466631e+00 1.344787e+00 -4.808290e-01 4.236589e-01 5.681429e-02 -2.145806e+00 -6.462498e-01 6.997916e-01 1.601908e+00 1.015403e-01 1.134748e+00 2.947478e-02 6.155911e-01 4.898275e-01 -3.304124e-01 -4.623910e-01 -3.435019e-02 -2.193694e-01 -3.458318e-01 4.492927e-01 3.742075e-01 -2.080957e-01 -2.859435e-01 -4.038081e-01
<VARIANCE> 39
 5.914899e+01 1.000935e+02 1.445930e+02 8.214268e+01 8.112276e+01 1.122855e+02 1.296145e+02 2.278450e+02 1.826151e+02 1.305422e+02 8.949159e+01 8.224134e+01 1.771766e+02 1.485380e+00 4.162146e+00 8.502528e+00 6.129719e+00 7.377207e+00 6.468989e+00 1.013122e+01 1.107299e+01 1.595897e+01 9.556472e+00 9.965845e+00 8.908736e+00 2.082032e+00 3.170630e-01 3.940818e-01 1.351380e+00 1.161210e+00 1.000048e+00 1.277123e+00 1.298432e+00 1.456362e+00 1.938961e+00 1.790460e+00 1.861094e+00 1.620590e+00 1.968216e-01
<GCONST> 1.578992e+02
<STATE> 3
<MEAN> 39
 4.285499e+00 -2.216638e+01 -3.690289e+00 -5.047921e-01 -7.048906e+00 -5.098794e+00 -1.177937e+01 -2.211649e+01 -5.315688e+00 -6.756560e+00 -3.581344e+00 -2.231753e+00 2.645166e+01 -9.211535e-04 7.730063e-01 4.661377e-01 -1.293641e+00 -3.427032e-01 1.060511e+00 -3.903821e-01 -1.260013e-01 7.705270e-01 -4.066121e-01 -3.061049e-01 1.329024e-01 -3.871563e-01 1.035250e-01 2.307587e-01 -2.000055e-01 -2.126828e-01 6.636272e-02 5.685312e-03 7.307611e-02 3.885822e-01 -1.470193e-01 -2.171482e-01 -7.188373e-02 6.385777e-03 -8.598401e-02
<VARIANCE> 39
 2.593907e+01 4.598072e+01 5.263672e+01 7.450658e+01 7.429863e+01 9.501779e+01 1.227638e+02 1.104818e+02 1.346039e+02 1.149348e+02 8.949159e+01 8.685220e+01 9.140016e+01 9.836006e-01 2.350767e+00 3.169396e+00 4.278692e+00 4.997038e+00 6.468989e+00 7.640800e+00 7.387886e+00 7.679026e+00 7.211906e+00 7.199073e+00 6.093411e+00 7.829516e-01 1.680434e-01 3.940818e-01 5.841593e-01 7.815184e-01 8.905675e-01 1.277123e+00 1.298432e+00 1.456362e+00 1.449366e+00 1.377131e+00 1.370237e+00 1.213570e+00 1.349642e-01
<GCONST> 1.435023e+02
<STATE> 4
<MEAN> 39
 1.017830e+01 -6.883795e-01 -5.490147e+00 -1.562173e+01 -1.589666e+01 -9.825954e+00 -6.740607e+00 -8.212092e+00 -8.443372e-02 -3.391682e+00 -1.270455e+00 1.716964e+00 5.778802e+00 -2.215578e-01 1.186802e+00 6.374682e-01 2.765586e-01 6.458067e-01 3.453356e-02 3.236655e-01 1.324873e+00 -1.488428e-02 1.087260e+00 3.962981e-01 1.346418e-01 -1.328044e+00 -1.158314e-01 -8.164196e-02 3.714808e-02 2.639849e-01 4.048356e-01 2.026134e-01 1.792623e-01 -1.103544e-02 -5.778171e-02 -1.067678e-01 -3.332458e-02 -7.106089e-02 -1.759405e-02
<VARIANCE> 39
 2.670595e+01 7.718997e+01 6.961673e+01 8.345422e+01 1.008260e+02 9.650322e+01 1.181374e+02 1.110846e+02 1.515544e+02 3.621682e+02 2.375869e+02 1.934825e+02 1.236642e+02 1.546905e+00 2.570628e+00 4.249486e+00 7.957963e+00 7.971979e+00 7.193268e+00 1.096021e+01 8.302279e+00 9.314314e+00 1.198658e+01 1.473158e+01 1.002201e+01 7.829516e-01 1.833433e-01 3.940818e-01 6.999621e-01 9.445749e-01 1.217702e+00 1.277123e+00 1.866277e+00 1.456362e+00 1.449366e+00 1.805793e+00 2.566579e+00 1.469185e+00 1.349642e-01
<GCONST> 1.547206e+02
<TRANSP> 5
 0.000000e+00 1.000000e+00 0.000000e+00 0.000000e+00 0.000000e+00
 0.000000e+00 6.273806e-01 3.726195e-01 0.000000e+00 0.000000e+00
 0.000000e+00 0.000000e+00 8.780243e-01 1.219757e-01 0.000000e+00
 0.000000e+00 0.000000e+00 0.000000e+00 8.270937e-01 1.729063e-01
 0.000000e+00 0.000000e+00 0.000000e+00 0.000000e+00 0.000000e+00
<ENDHMM>
~h "w"
<BEGINHMM>
<NUMSTATES> 5
<STATE> 2
<MEAN> 39
 9.375783e+00 -1.435207e+00 -1.269846e+01 -1.235055e+01 -8.488202e+00 -1.428770e+01 -4.389318e+00 -2.767666e+00 -4.378592e+00 -9.776201e+00 -6.211650e+00 -3.920623e+00 1.561745e+01 5.611777e-01 1.390394e+00 -6.543592e-01 -4.800865e-01 -1.122625e+00 -1.318349e+00 9.835581e-01 9.535549e-01 2.772368e-01 2.167647e-01 -6.256001e-02 -4.470828e-01 -4.729705e-01 -2.060777e-01 -6.513208e-02 6.189932e-01 3.203874e-01 -1.342938e-02 5.491515e-01 -3.764444e-01 -4.948314e-01 2.771606e-02 3.478798e-01 1.415825e-01 2.817478e-02 -2.093041e-01
<VARIANCE> 39
 6.352726e+01 1.438585e+02 1.616299e+02 2.599929e+02 1.584966e+02 1.459893e+02 1.446817e+02 2.015470e+02 1.216136e+02 1.289611e+02 1.125937e+02 1.137190e+02 8.444346e+01 3.384739e+00 1.100060e+01 1.104919e+01 1.426265e+01 1.271668e+01 1.400995e+01 1.478795e+01 1.565894e+01 1.439452e+01 1.227546e+01 1.265271e+01 1.230978e+01 9.796068e+00 5.529743e-01 1.117020e+00 1.411542e+00 3.292380e+00 2.267589e+00 2.178665e+00 2.626863e+00 2.675920e+00 2.437175e+00 2.509906e+00 2.457077e+00 1.993690e+00 1.025843e+00
<GCONST> 1.751643e+02
<STATE> 3
<MEAN> 39
 9.948057e+00 1.072455e+01 -8.453682e+00 -1.323673e+01 -1.382379e+01 -1.614424e+01 -5.554369e+00 -4.839237e+00 4.297886e-01 -2.066034e+00 -1.650946e+00 -9.973314e-01 6.374611e+00 -3.873196e-01 7.850504e-01 2.009779e+00 1.707821e+00 2.859632e-01 7.730848e-01 -6.166365e-02 -7.553126e-01 2.650885e-02 8.011937e-01 2.394920e-01 -1.829236e-01 -1.708106e+00 -3.369067e-01 -3.437727e-01 1.586154e-01 3.361829e-01 6.991027e-01 5.925996e-01 8.194621e-02 1.507918e-02 -1.475628e-01 -2.092235e-01 -1.543254e-01 9.019294e-02 -2.636465e-03
<VARIANCE> 39
 2.741212e+01 1.493426e+02 1.414319e+02 1.234995e+02 1.128749e+02 1.014177e+02 1.091655e+02 1.258835e+02 1.568899e+02 2.067945e+02 2.535984e+02 2.776328e+02 6.725475e+01 2.391850e+00 3.997546e+00 5.789573e+00 1.250858e+01 9.114895e+00 9.874014e+00 9.025820e+00 1.060531e+01 1.113687e+01 1.387855e+01 1.462628e+01 9.754122e+00 4.538280e+00 2.555046e-01 6.914555e-01 7.520140e-01 1.076919e+00 1.129918e+00 1.486175e+00 1.753418e+00 2.011528e+00 1.967338e+00 2.323411e+00 2.162253e+00 1.895449e+00 2.021545e-01
<GCONST> 1.626752e+02
<STATE> 4
<MEAN> 39
 4.257263e+00 7.394522e+00 2.913132e+00 -1.764706e+00 -5.069139e+00 -5.915774e+00 -3.688955e+00 -6.952044e+00 -2.582199e+00 -4.245028e+00 -6.351511e+00 -4.928298e+00 1.468847e+00 -1.636832e+00 -7.407171e-01 2.892083e-01 1.013328e+00 1.878108e+00 2.334548e+00 8.508005e-01 7.108902e-01 9.913718e-01 4.861012e-01 3.039690e-01 1.004486e+00 -8.516595e-01 5.228174e-02 -9.769509e-02 -7.203292e-01 -6.990519e-01 -6.287913e-02 -3.980148e-01 8.416593e-03 5.049156e-01 4.397705e-01 8.307219e-02 3.447346e-01 2.416654e-01 3.896759e-01
<VARIANCE> 39
 3.280054e+01 1.527992e+02 9.084443e+01 1.662334e+02 1.734903e+02 1.305983e+02 1.612127e+02 1.545004e+02 1.429794e+02 1.277426e+02 1.222776e+02 1.153661e+02 1.481059e+02 3.020982e+00 7.556564e+00 7.884437e+00 2.000463e+01 1.277046e+01 1.341449e+01 1.607233e+01 1.520558e+01 1.227448e+01 1.354271e+01 1.182305e+01 1.055071e+01 6.736504e+00 4.935793e-01 9.253785e-01 1.155620e+00 2.437478e+00 2.232730e+00 2.247042e+00 2.597870e+00 2.400420e+00 2.453824e+00 2.561142e+00 1.859822e+00 1.897673e+00 9.994894e-01
<GCONST> 1.718076e+02
<TRANSP> 5
 0.000000e+00 1.000000e+00 0.000000e+00 0.000000e+00 0.000000e+00
 0.000000e+00 7.034017e-01 2.965982e-01 0.000000e+00 0.000000e+00
 0.000000e+00 0.000000e+00 7.165568e-01 2.834431e-01 0.000000e+00
 0.000000e+00 0.000000e+00 0.000000e+00 6.282156e-01 3.717844e-01
 0.000000e+00 0.000000e+00 0.000000e+00 0.000000e+00 0.000000e+00
<ENDHMM>
~h "y"
<BEGINHMM>
<NUMSTATES> 5
<STATE> 2
<MEAN> 39
 2.894182e+00 1.496820e+01 4.961313e+00 -3.859461e+00 -3.051702e+00 -1.316726e+01 -7.192078e+00 -8.624820e+00 -4.018508e+00 -5.055415e+00 -2.661612e+00 -2.281791e+00 -1.789593e+00 -1.299676e+00 -1.940410e+00 1.792994e+00 4.594397e+00 2.856626e+00 3.173139e+00 2.442519e+00 6.502942e-01 -5.905025e-01 7.166840e-01 1.582581e-01 6.727893e-01 -3.140002e+00 -3.286887e-01 -7.116435e-01 -7.235984e-01 -5.300856e-01 4.230184e-02 9.030520e-01 4.131378e-01 1.017063e+00 1.008740e+00 4.286680e-01 2.702612e-01 1.737021e-01 3.302270e-01
<VARIANCE> 39
 3.118922e+01 6.422997e+01 8.248186e+01 1.170116e+02 1.485283e+02 1.175946e+02 1.036478e+02 1.156656e+02 1.425116e+02 1.632146e+02 1.906278e+02 2.267505e+02 3.776284e+01 4.552601e+00 5.267173e+00 7.948573e+00 1.081660e+01 1.159306e+01 1.434107e+01 1.162370e+01 1.555153e+01 1.429348e+01 1.500483e+01 1.484453e+01 1.336129e+01 4.219333e+00 3.944562e-01 8.219115e-01 9.069337e-01 1.953297e+00 1.903038e+00 1.937258e+00 1.897706e+00 2.439864e+00 2.363951e+00 2.595327e+00 2.360976e+00 2.181581e+00 4.925263e-01
<GCONST> 1.670419e+02
<STATE> 3
<MEAN> 39
 -1.653789e+00 7.495870e+00 6.499568e+00 3.913963e+00 3.612588e+00 -1.586644e-01 1.370891e+00 -5.059575e-01 1.004407e+00 -1.810144e+00 -2.230247e+00 -1.032692e+00 -7.909870e+00 -1.421810e+00 -2.728845e+00 -3.966556e-01 1.182955e+00 1.390125e+00 3.396864e+00 2.581989e+00 3.179857e+00 2.185218e+00 2.271856e+00 7.057355e-01 6.632312e-01 -1.662645e+00 2.534632e-01 2.700047e-01 -5.104399e-01 -1.039559e+00 -6.413774e-01 -6.151400e-01 -4.049348e-01 -8.403869e-02 1.817272e-01 1.526309e-01 2.058706e-01 1.052717e-01 6.028798e-01
<VARIANCE> 39
 4.956760e+01 4.598072e+01 5.728065e+01 7.450658e+01 1.075981e+02 1.477396e+02 1.199996e+02 1.035257e+02 1.380214e+02 1.269596e+02 1.011436e+02 1.440814e+02 3.493625e+01 2.480739e+00 3.681914e+00 5.437916e+00 7.676407e+00 1.260405e+01 1.063021e+01 9.558811e+00 1.180479e+01 1.190821e+01 1.164896e+01 1.434585e+01 1.350425e+01 1.318679e+00 4.784036e-01 5.601475e-01 9.848749e-01 1.605651e+00 1.433113e+00 1.688941e+00 1.781298e+00 2.091738e+00 2.256443e+00 2.285775e+00 1.979342e+00 1.978488e+00 4.606819e-01
<GCONST> 1.593945e+02
<STATE> 4
<MEAN> 39
 -2.725044e+00 2.468413e+00 3.213694e+00 1.970959e+00 2.525077e+00 2.406818e+00 4.619872e+00 5.296690e+00 5.411261e+00 5.219847e+00 2.186171e+00 1.675497e+00 -9.214046e+00 -2.151317e-01 -9.727588e-01 -6.131963e-02 1.503722e-01 1.545805e-01 1.018822e+00 7.804687e-01 1.109998e+00 7.488926e-01 1.363044e+00 1.011184e+00 6.726492e-01 -6.086189e-01 2.358739e-01 6.114782e-01 1.376327e-01 -5.535290e-01 -2.691804e-01 -6.403285e-01 -6.566933e-01 -7.812021e-01 -6.914032e-01 -6.983805e-01 -3.781672e-01 -3.829930e-01 6.277944e-01
<VARIANCE> 39
 6.406462e+01 5.645116e+01 5.263672e+01 7.450658e+01 1.196277e+02 1.714743e+02 1.538632e+02 1.092459e+02 1.297518e+02 1.037097e+02 1.050893e+02 1.199551e+02 4.354529e+01 1.155282e+00 2.350767e+00 3.511882e+00 4.319607e+00 6.327342e+00 6.468989e+00 7.640800e+00 9.782928e+00 9.787325e+00 9.067372e+00 9.060914e+00 9.813295e+00 7.829516e-01 4.698384e-01 7.510694e-01 1.110389e+00 1.878196e+00 2.190259e+00 1.930542e+00 1.971987e+00 1.896196e+00 1.939108e+00 1.973397e+00 2.140884e+00 2.319285e+00 5.731850e-01
<GCONST> 1.558415e+02
<TRANSP> 5
 0.000000e+00 1.000000e+00 0.000000e+00 0.000000e+00 0.000000e+00
 0.000000e+00 5.079650e-01 4.920350e-01 0.000000e+00 0.000000e+00
 0.000000e+00 0.000000e+00 4.788195e-01 5.211805e-01 0.000000e+00
 0.000000e+00 0.000000e+00 0.000000e+00 3.574473e-01 6.425527e-01
 0.000000e+00 0.000000e+00 0.000000e+00 0.000000e+00 0.000000e+00
<ENDHMM>
~h "aa"
<BEGINHMM>
<NUMSTATES> 5
<STATE> 2
<MEAN> 39
 6.771677e+00 -1.863532e+01 -1.511520e+01 -2.435398e-01 -3.981289e+00 -7.477938e+00 -6.633274e+00 -8.286675e+00 -8.182175e+00 -8.302267e+00 -2.201769e+00 -2.116991e+00 2.321286e+01 7.328002e-01 2.917079e+00 1.604425e+00 -7.590254e-01 -1.781839e-01 -5.635403e-01 -2.728060e-03 6.403911e-01 4.365367e-01 6.030368e-01 -4.375298e-01 2.060542e-02 -2.687353e+00 -3.384477e-01 1.244412e+00 1.164737e+00 1.058400e-01 -3.435173e-02 1.123008e-01 4.365896e-01 2.428399e-01 3.683653e-01 4.607403e-01 9.887708e-02 1.825840e-01 -1.399231e+00
<VARIANCE> 39
 5.938268e+01 1.039502e+02 1.551211e+02 1.810061e+02 1.562560e+02 1.384968e+02 1.710597e+02 1.743110e+02 1.749281e+02 1.183108e+02 1.130590e+02 1.059213e+02 7.428038e+01 4.318219e+00 1.440839e+01 1.199957e+01 1.289854e+01 1.184343e+01 1.556526e+01 1.543699e+01 1.617592e+01 1.619688e+01 1.368911e+01 1.154383e+01 1.096393e+01 1.575496e+01 1.038941e+00 1.556958e+00 1.897144e+00 2.493560e+00 2.346777e+00 3.387677e+00 2.790797e+00 3.026003e+00 3.022039e+00 2.708044e+00 2.499784e+00 2.149453e+00 1.293864e+00
<GCONST> 1.777612e+02
<STATE> 3
<MEAN> 39
 7.341323e+00 -2.233534e+00 -3.179204e+00 -1.323444e+00 -4.788311e+00 -7.617745e+00 -4.128619e+00 -4.553700e+00 -4.896689e+00 -3.776719e+00 -3.382128e+00 -6.378530e-01 6.673068e+00 -8.463281e-01 3.357419e+00 3.604263e+00 9.343171e-01 5.477821e-01 -3.208689e-02 8.782047e-01 8.757583e-01 5.866948e-01 1.587079e+00 5.633639e-01 9.556539e-01 -4.707120e+00 -3.549200e-01 -1.016716e+00 -4.451255e-01 8.001200e-02 2.320952e-01 3.911302e-01 9.487122e-02 -9.843883e-02 -7.271017e-02 -7.046832e-02 2.585742e-01 -2.624901e-02 7.641658e-01
<VARIANCE> 39
 5.349180e+01 1.287585e+02 1.499892e+02 1.881434e+02 1.493397e+02 2.156890e+02 1.896312e+02 1.696528e+02 1.437932e+02 1.367751e+02 1.238598e+02 1.041589e+02 1.242710e+02 7.389944e+00 1.316631e+01 1.138154e+01 1.563737e+01 1.389564e+01 2.715859e+01 1.888647e+01 1.821041e+01 1.447808e+01 1.505911e+01 1.355879e+01 1.065133e+01 1.243761e+01 7.719541e-01 1.518161e+00 1.891679e+00 2.351271e+00 1.865033e+00 2.699034e+00 2.553999e+00 2.693135e+00 2.539826e+00 2.459849e+00 2.293435e+00 1.998520e+00 1.384573e+00
<GCONST> 1.789825e+02
<STATE> 4
<MEAN> 39
 8.282379e+00 -9.627248e+00 -1.247650e+01 4.135188e+00 -1.247185e+00 -9.048664e+00 -7.190578e+00 -4.218012e+00 -5.799891e+00 -6.482877e+00 -3.391629e+00 -8.004531e-01 1.154121e+01 -2.563267e-01 7.185535e-01 7.958102e-01 -2.652157e-02 3.396728e-01 2.128483e-01 -2.038394e-01 9.963936e-02 2.284188e-01 4.889072e-01 9.914909e-02 3.373507e-02 -9.818344e-01 -4.275067e-02 -2.054762e-01 -2.006698e-01 -5.454112e-02 -2.453114e-02 1.247706e-01 -9.790906e-03 -5.307776e-02 -1.131156e-02 -6.155736e-02 2.378570e-03 -9.092061e-02 2.723336e-01
<VARIANCE> 39
 5.383016e+01 1.392758e+02 2.536269e+02 1.442727e+02 1.388477e+02 1.796615e+02 1.733793e+02 1.399704e+02 1.254791e+02 1.194860e+02 1.068493e+02 1.082504e+02 1.662760e+02 1.910463e+00 3.721059e+00 5.110191e+00 5.134571e+00 4.997038e+00 7.364985e+00 7.640800e+00 7.387886e+00 7.679026e+00 7.211906e+00 7.199073e+00 6.093411e+00 2.896569e+00 3.038988e-01 1.000167e+00 1.041777e+00 9.293554e-01 8.905675e-01 1.423993e+00 1.316503e+00 1.456362e+00 1.449366e+00 1.377131e+00 1.370237e+00 1.213570e+00 7.315041e-01
<GCONST> 1.576920e+02
<TRANSP> 5
 0.000000e+00 1.000000e+00 0.000000e+00 0.000000e+00 0.000000e+00
 0.000000e+00 5.780213e-01 4.219787e-01 0.000000e+00 0.000000e+00
 0.000000e+00 0.000000e+00 5.002873e-01 4.997127e-01 0.000000e+00
 0.000000e+00 0.000000e+00 0.000000e+00 7.168039e-01 2.831961e-01
 0.000000e+00 0.000000e+00 0.000000e+00 0.000000e+00 0.000000e+00
<ENDHMM>
~h "ae"
<BEGINHMM>
<NUMSTATES> 5
<STATE> 2
<MEAN> 39
 -6.470969e-01 -1.216092e+01 -6.658568e+00 -1.334928e+01 7.489526e-01 -5.232959e+00 -1.835052e+01 -1.241250e+01 -5.797518e+00 -9.616671e+00 -2.647420e+00 -3.500125e+00 2.739411e+01 8.998350e-02 9.102538e-01 -7.720855e-01 -1.140151e+00 4.455083e-01 1.742024e-01 4.700469e-01 2.376556e-01 -1.341976e-01 -1.974306e-01 -2.900201e-01 3.304645e-01 -1.360101e-01 1.373333e-01 3.055697e-01 1.033417e-01 -1.869583e-02 -1.696422e-01 2.221607e-03 2.912274e-01 1.405199e-01 7.831001e-02 -6.733908e-03 -5.733444e-02 2.443845e-02 -4.077706e-01
<VARIANCE> 39
 3.602556e+01 7.781030e+01 7.284158e+01 9.247422e+01 1.001337e+02 2.230385e+02 1.042916e+02 1.097542e+02 9.779048e+01 9.736410e+01 1.029843e+02 1.285391e+02 6.656505e+01 9.836006e-01 2.350767e+00 3.169396e+00 4.278692e+00 4.997038e+00 6.468989e+00 7.640800e+00 7.387886e+00 7.679026e+00 7.211906e+00 7.199073e+00 6.093411e+00 7.829516e-01 1.814492e-01 3.940818e-01 5.841593e-01 7.815184e-01 8.905675e-01 1.277123e+00 1.298432e+00 1.456362e+00 1.449366e+00 1.377131e+00 1.370237e+00 1.213570e+00 2.773859e-01
<GCONST> 1.464068e+02
<STATE> 3
<MEAN> 39
 2.591533e+00 -5.434388e+00 -1.014966e+01 -2.365670e+01 -1.156886e+00 -3.061956e+00 -1.060181e+01 -8.635092e+00 -4.623095e+00 -9.629012e+00 -4.691993e+00 -1.936001e-01 2.368526e+01 1.561630e+00 2.855851e+00 1.862967e+00 3.629135e-01 -2.673640e+00 -1.511608e-01 1.904028e+00 1.445581e+00 1.122888e+00 8.269933e-01 -3.965641e-01 -4.138197e-01 -4.048120e+00 -2.139783e-01 3.735327e-01 1.002276e+00 1.767188e+00 -2.013753e-02 -2.304107e-01 2.929340e-02 2.488332e-02 9.861827e-02 7.035897e-01 4.969570e-01 1.080233e-01 -1.384440e+00
<VARIANCE> 39
 4.198322e+01 1.088761e+02 1.012877e+02 1.276006e+02 1.635677e+02 1.758282e+02 1.036478e+02 1.457325e+02 9.779048e+01 9.556277e+01 1.699501e+02 1.165183e+02 6.879242e+01 2.409650e+00 6.280045e+00 7.312632e+00 1.270440e+01 9.651532e+00 1.838323e+01 9.554591e+00 1.080642e+01 9.525692e+00 9.517525e+00 9.976806e+00 9.631631e+00 7.758141e+00 6.727917e-01 1.087833e+00 1.375213e+00 1.557593e+00 2.485694e+00 2.321784e+00 1.950639e+00 2.396727e+00 1.976445e+00 1.862124e+00 2.156713e+00 1.840366e+00 8.877469e-01
<GCONST> 1.672209e+02
<STATE> 4
<MEAN> 39
 4.855858e+00 5.751471e+00 1.326594e+00 -1.038417e+01 -6.096961e+00 -4.402477e+00 -7.573492e+00 -7.254534e+00 -2.304368e+00 -3.478686e+00 -2.160404e+00 2.947324e-01 2.711216e+00 -1.442474e+00 1.339301e+00 2.608740e+00 5.289349e+00 1.513855e+00 1.695158e+00 2.249961e+00 1.149148e+00 8.050439e-01 2.120268e+00 1.715468e+00 9.423947e-01 -5.770422e+00 -7.916387e-01 -1.144949e+00 -7.633750e-01 -5.580389e-02 1.091126e+00 6.741431e-01 4.028927e-01 4.331900e-01 1.164348e-01 -2.990109e-02 1.637238e-01 1.517825e-01 9.674086e-01
<VARIANCE> 39
 3.531493e+01 7.818826e+01 8.530382e+01 1.356458e+02 1.473183e+02 1.709084e+02 1.174751e+02 1.317251e+02 1.363046e+02 1.215566e+02 1.490623e+02 1.150678e+02 8.466309e+01 6.144432e+00 9.938945e+00 1.064244e+01 1.121212e+01 1.799517e+01 2.279462e+01 1.605833e+01 1.752532e+01 1.486884e+01 1.378704e+01 1.539488e+01 1.221691e+01 1.004724e+01 6.972347e-01 1.137864e+00 1.308549e+00 2.518202e+00 2.587004e+00 3.022165e+00 2.476130e+00 2.799989e+00 2.587137e+00 2.278327e+00 2.438194e+00 2.106214e+00 1.392080e+00
<GCONST> 1.747536e+02
<TRANSP> 5
 0.000000e+00 1.000000e+00 0.000000e+00 0.000000e+00 0.000000e+00
 0.000000e+00 8.815154e-01 1.184846e-01 0.000000e+00 0.000000e+00
 0.000000e+00 0.000000e+00 6.671116e-01 3.328883e-01 0.000000e+00
 0.000000e+00 0.000000e+00 0.000000e+00 5.868978e-01 4.131022e-01
 0.000000e+00 0.000000e+00 0.000000e+00 0.000000e+00 0.000000e+00
<ENDHMM>
~h "ah"
<BEGINHMM>
<NUMSTATES> 5
<STATE> 2
<MEAN> 39
 3.618081e+00 -1.017577e+01 -4.538545e+00 -8.012734e+00 -3.697948e+00 -6.145220e+00 -1.876837e+01 -1.078288e+01 -6.343548e+00 -8.989072e+00 -3.291933e+00 -4.888220e+00 2.151844e+01 2.118805e-01 5.057710e-01 2.112882e-01 6.537633e-04 -2.736117e-02 -8.392171e-02 -2.194442e-01 3.114512e-02 3.386373e-02 8.807564e-02 5.791102e-02 1.265943e-01 -5.575349e-01 6.008758e-02 1.430594e-01 -2.347273e-02 -1.900817e-03 -2.423515e-02 8.666501e-03 1.782966e-01 -3.461270e-03 -2.702511e-03 3.198813e-02 1.694554e-02 6.033323e-02 -1.614962e-01
<VARIANCE> 39
 3.233016e+01 8.901370e+01 5.673421e+01 7.450658e+01 7.429863e+01 1.756727e+02 1.323819e+02 1.325386e+02 1.085304e+02 1.144408e+02 8.949159e+01 1.221454e+02 7.848083e+01 9.836006e-01 2.350767e+00 3.169396e+00 4.278692e+00 4.997038e+00 6.468989e+00 7.640800e+00 7.387886e+00 7.679026e+00 7.211906e+00 7.199073e+00 6.093411e+00 7.829516e-01 1.680434e-01 3.940818e-01 5.841593e-01 7.815184e-01 8.905675e-01 1.277123e+00 1.298432e+00 1.456362e+00 1.449366e+00 1.377131e+00 1.370237e+00 1.213570e+00 1.352651e-01
<GCONST> 1.453013e+02
<STATE> 3
<MEAN> 39
 6.566083e+00 -5.942171e+00 -1.202399e+00 -6.372848e+00 -5.963481e+00 -6.445720e+00 -1.709987e+01 -1.314503e+01 -6.260995e+00 -3.956724e+00 2.071896e-01 -4.575997e-01 1.375736e+01 -1.051469e-01 3.020308e+00 1.566514e+00 9.377419e-01 3.304308e-01 5.575970e-02 1.858471e+00 7.581196e-01 7.450600e-01 8.300108e-01 -3.643194e-01 6.041678e-01 -3.534844e+00 -5.901258e-01 1.608083e-01 2.473730e-01 3.613280e-01 3.497251e-01 2.945080e-01 7.133184e-01 5.981047e-01 3.486908e-01 1.959230e-01 -1.018811e-01 -8.423005e-02 -4.003591e-01
<VARIANCE> 39
 3.744001e+01 1.337400e+02 1.002967e+02 1.263358e+02 1.009823e+02 1.756900e+02 2.469271e+02 1.542289e+02 1.462284e+02 1.959811e+02 2.038085e+02 1.488232e+02 1.335815e+02 4.486801e+00 7.362426e+00 6.123178e+00 1.004185e+01 8.578521e+00 1.285865e+01 1.284941e+01 1.187952e+01 1.224996e+01 1.180181e+01 1.100556e+01 1.198408e+01 5.978312e+00 6.166398e-01 1.663015e+00 1.006384e+00 1.467721e+00 1.589598e+00 2.238614e+00 2.409680e+00 2.141783e+00 2.200031e+00 2.038135e+00 2.061160e+00 2.079144e+00 8.822923e-01
<GCONST> 1.705999e+02
<STATE> 4
<MEAN> 39
 5.813204e-01 9.497226e-01 7.167708e+00 4.173361e+00 2.254031e+00 1.884150e+00 -5.896717e+00 -7.833610e+00 -3.109687e-01 -5.961354e-01 -4.164445e+00 -1.057111e+00 -5.466321e-01 -1.922856e+00 2.949211e-01 3.344733e-02 1.211401e+00 1.108070e+00 1.594782e+00 3.302518e+00 2.908625e+00 1.917050e+00 1.505002e+00 4.821474e-01 4.100909e-01 -2.536766e+00 1.401363e-01 -4.766688e-01 -5.773871e-01 -4.669273e-01 -3.243836e-01 -1.316025e-01 -2.927289e-01 3.110043e-02 1.441009e-03 5.534073e-02 3.927518e-01 1.442014e-01 4.904426e-01
<VARIANCE> 39
 5.137146e+01 6.808968e+01 1.094965e+02 1.597067e+02 1.089837e+02 1.553436e+02 1.278700e+02 1.768736e+02 1.306671e+02 1.672016e+02 1.517852e+02 1.031256e+02 1.074769e+02 4.887289e+00 9.312542e+00 8.153604e+00 9.851697e+00 1.039834e+01 1.648491e+01 1.519624e+01 1.217414e+01 1.273695e+01 1.405960e+01 1.397334e+01 1.255221e+01 3.027605e+00 5.426588e-01 1.182322e+00 1.170119e+00 1.416228e+00 1.522452e+00 2.057537e+00 2.006835e+00 2.260918e+00 2.334140e+00 2.274436e+00 2.071467e+00 2.121705e+00 6.707301e-01
<GCONST> 1.691943e+02
<TRANSP> 5
 0.000000e+00 1.000000e+00 0.000000e+00 0.000000e+00 0.000000e+00
 0.000000e+00 9.070809e-01 9.291907e-02 0.000000e+00 0.000000e+00
 0.000000e+00 0.000000e+00 6.788947e-01 3.211053e-01 0.000000e+00
 0.000000e+00 0.000000e+00 0.000000e+00 5.640653e-01 4.359347e-01
 0.000000e+00 0.000000e+00 0.000000e+00 0.000000e+00 0.000000e+00
<ENDHMM>
~h "am"
<BEGINHMM>
<NUMSTATES> 5
<STATE> 2
<MEAN> 39
 4.633607e+00 -5.986757e+00 7.349092e-01 -9.918721e+00 -7.087233e+00 -1.470835e+01 -1.759166e+01 -8.856374e+00 -6.637934e+00 -9.287022e+00 -5.817369e+00 -5.155375e+00 1.827893e+01 5.176877e-01 1.311219e+00 7.728381e-01 3.280603e-01 -4.784262e-01 -1.398825e+00 3.046508e-01 1.690194e-01 1.039868e-01 3.247774e-01 -3.443440e-01 1.731236e-01 -1.396893e+00 1.309038e-02 -1.499416e-03 -8.601865e-02 6.161411e-02 -2.625903e-02 2.196702e-01 1.134957e-01 -1.633165e-01 -7.632215e-02 2.570042e-02 1.551590e-01 4.966712e-02 -6.363900e-02
<VARIANCE> 39
 4.296767e+01 7.940947e+01 1.194521e+02 9.947227e+01 1.003807e+02 2.866466e+02 1.440286e+02 1.523413e+02 1.184223e+02 1.388506e+02 9.624844e+01 1.137396e+02 9.972800e+01 1.122751e+00 4.632477e+00 5.047449e+00 4.278692e+00 4.997038e+00 1.097856e+01 7.640800e+00 8.077016e+00 7.679026e+00 7.211906e+00 7.199073e+00 6.093411e+00 1.870509e+00 1.859908e-01 5.896007e-01 7.669204e-01 7.815184e-01 8.905675e-01 1.716360e+00 1.298432e+00 1.456362e+00 1.449366e+00 1.377131e+00 1.370237e+00 1.213570e+00 2.348409e-01
<GCONST> 1.524297e+02
<STATE> 3
<MEAN> 39
 9.593915e+00 6.194075e+00 9.762855e+00 -1.106659e+00 -9.502491e+00 -2.286009e+01 -1.516741e+01 -8.140932e+00 -8.791575e+00 -5.084214e+00 -6.320006e+00 -3.008547e-01 2.826609e+00 -1.053690e+00 1.122219e+00 3.240691e-01 1.228232e+00 1.044509e+00 2.145649e+00 8.098589e-01 -5.875905e-01 3.563706e-02 6.979769e-01 6.553183e-01 5.605427e-01 -2.100126e+00 -4.353499e-01 -6.915190e-01 -4.083010e-01 7.258285e-02 4.933001e-01 1.114392e+00 5.766886e-01 2.239898e-01 2.497124e-01 8.135727e-02 3.555828e-01 1.437119e-02 1.577610e-01
<VARIANCE> 39
 2.425727e+01 4.969118e+01 5.933561e+01 1.246212e+02 1.163529e+02 1.982724e+02 1.279110e+02 1.653631e+02 1.356546e+02 1.376016e+02 1.226190e+02 1.437282e+02 3.493625e+01 3.443451e+00 5.409981e+00 6.886925e+00 6.668101e+00 8.654980e+00 2.351073e+01 1.222982e+01 1.219344e+01 1.192577e+01 1.199646e+01 1.116743e+01 9.901323e+00 1.868591e+00 3.786508e-01 7.287683e-01 1.251072e+00 1.058754e+00 1.380363e+00 2.543656e+00 2.080258e+00 2.762322e+00 2.431789e+00 2.203998e+00 2.057115e+00 1.837821e+00 2.865831e-01
<GCONST> 1.619743e+02
<STATE> 4
<MEAN> 39
 2.310398e-01 3.239998e+00 7.006910e+00 4.630499e+00 -3.150793e-01 -2.701856e+00 -1.808081e+00 -1.849259e+00 -2.292700e+00 2.699275e+00 1.375070e+00 2.871731e+00 -6.868136e+00 -8.950443e-01 -3.407403e-01 -4.950337e-01 2.855153e-01 1.050594e+00 2.113023e+00 1.539210e+00 1.134308e+00 1.017297e+00 7.972465e-01 7.727664e-01 4.303263e-01 -8.764324e-01 2.907653e-01 3.873774e-02 -6.082999e-02 -2.356565e-01 -2.552146e-01 -5.323991e-01 -3.322197e-01 -7.041295e-02 -7.491519e-02 -1.325237e-01 -2.312917e-01 -1.425188e-01 3.797190e-01
<VARIANCE> 39
 2.978862e+01 5.602160e+01 5.263672e+01 7.450658e+01 1.005576e+02 2.870996e+02 1.317853e+02 1.459553e+02 1.162808e+02 1.154146e+02 1.037608e+02 1.034664e+02 4.896742e+01 2.395436e+00 2.742571e+00 3.169396e+00 4.421839e+00 7.090796e+00 1.196113e+01 9.716552e+00 1.245313e+01 1.203640e+01 9.978701e+00 8.572294e+00 8.560818e+00 1.071370e+00 2.936358e-01 5.507386e-01 7.420160e-01 8.704826e-01 1.218484e+00 2.240117e+00 1.562040e+00 2.105950e+00 2.082004e+00 1.890515e+00 1.492906e+00 1.597308e+00 2.335913e-01
<GCONST> 1.538163e+02
<TRANSP> 5
 0.000000e+00 1.000000e+00 0.000000e+00 0.000000e+00 0.000000e+00
 0.000000e+00 8.753462e-01 1.246538e-01 0.000000e+00 0.000000e+00
 0.000000e+00 0.000000e+00 8.011406e-01 1.988594e-01 0.000000e+00
 0.000000e+00 0.000000e+00 0.000000e+00 7.593344e-01 2.406656e-01
 0.000000e+00 0.000000e+00 0.000000e+00 0.000000e+00 0.000000e+00
<ENDHMM>
~h "aw"
<BEGINHMM>
<NUMSTATES> 5
<STATE> 2
<MEAN> 39
 1.297981e+01 -1.338394e+01 -1.761002e+01 -1.905173e+00 7.501286e-01 -6.698524e+00 -1.069907e+01 -4.548845e+00 -1.099569e+01 -6.451265e+00 -4.302938e+00 -4.692077e-01 1.699456e+01 2.665606e-01 3.412313e+00 5.710755e-01 -3.419256e+00 -5.525354e-01 7.518787e-02 8.575812e-01 -2.880532e-01 1.299589e+00 7.466509e-01 -8.260402e-01 -3.663225e-01 -1.643927e+00 -2.634901e-01 3.450628e-01 7.726099e-01 2.951870e-01 -4.646018e-01 -6.162323e-01 9.941086e-03 -7.101992e-02 1.686442e-01 1.359162e-01 2.588219e-01 -1.597280e-01 -2.094622e-01
<VARIANCE> 39
 4.614851e+01 1.063176e+02 9.096612e+01 2.301885e+02 1.375747e+02 1.266268e+02 1.441527e+02 1.612298e+02 1.389013e+02 1.056250e+02 1.041832e+02 8.224134e+01 5.872237e+01 1.857855e+00 4.506751e+00 1.069271e+01 8.504745e+00 1.249507e+01 1.388233e+01 1.338056e+01 1.202795e+01 1.218347e+01 1.078282e+01 1.065004e+01 7.571758e+00 1.353269e+00 1.962229e-01 5.937265e-01 1.084707e+00 2.933127e+00 1.902971e+00 2.380673e+00 2.481337e+00 2.163387e+00 2.146840e+00 1.990008e+00 1.945745e+00 1.324662e+00 1.818002e-01
<GCONST> 1.620019e+02
<STATE> 3
<MEAN> 39
 9.897675e+00 7.644816e+00 -4.984435e+00 -9.927714e+00 -9.917182e+00 -2.115814e+01 -1.069027e+01 -8.015263e+00 8.171695e-02 1.494976e-01 2.198649e+00 5.570343e+00 4.779436e+00 -7.067814e-01 1.620314e+00 2.656034e+00 1.960722e+00 -9.040880e-01 -1.785182e+00 -9.880459e-01 -4.399236e-01 1.311336e+00 1.121316e+00 2.014965e+00 3.349445e-01 -1.629727e+00 -1.900148e-02 -6.308033e-01 -1.142006e-01 5.641621e-01 5.568461e-01 8.397954e-01 4.942220e-02 -2.001835e-01 -6.358818e-01 -9.951546e-02 -7.270144e-02 -6.866251e-02 5.465693e-02
<VARIANCE> 39
 2.722330e+01 7.841106e+01 1.267205e+02 1.183699e+02 1.028358e+02 1.405906e+02 1.412510e+02 1.615218e+02 1.269294e+02 1.700575e+02 3.009675e+02 2.859971e+02 3.493625e+01 1.602745e+00 3.452883e+00 8.078400e+00 8.866617e+00 6.186024e+00 1.244938e+01 1.105832e+01 1.207932e+01 1.066307e+01 1.297312e+01 1.473240e+01 1.134278e+01 2.007738e+00 2.210499e-01 7.270640e-01 1.143837e+00 1.991889e+00 1.225043e+00 1.784664e+00 2.684877e+00 2.432843e+00 2.267261e+00 2.545297e+00 3.353946e+00 1.808240e+00 2.331358e-01
<GCONST> 1.631893e+02
<STATE> 4
<MEAN> 39
 7.584618e+00 1.194387e+01 9.023771e+00 2.246239e+00 -3.134443e+00 -1.304898e+01 -1.123469e+01 -1.174868e+01 -4.370326e+00 -2.508678e+00 1.861531e-01 -4.850978e+00 -1.957894e+00 -7.966284e-01 2.211461e-01 1.823364e+00 2.086360e+00 1.313274e+00 1.767984e+00 7.791243e-01 -1.095008e-01 -1.103508e+00 -1.023601e+00 -1.087400e+00 -4.133801e-01 -1.742765e+00 -6.288308e-02 -4.820313e-01 -4.740433e-01 -1.194147e-01 3.405785e-01 8.086882e-01 4.480512e-01 3.238022e-01 -2.775836e-02 -3.060427e-02 -2.335219e-01 3.233369e-01 -4.313692e-03
<VARIANCE> 39
 2.284501e+01 4.598072e+01 7.272837e+01 1.188401e+02 1.219831e+02 1.277458e+02 1.036478e+02 1.169908e+02 1.331343e+02 1.642697e+02 1.791642e+02 1.638738e+02 3.493625e+01 9.836006e-01 2.350767e+00 4.685270e+00 6.964994e+00 5.528911e+00 1.038810e+01 9.327309e+00 8.895374e+00 1.160228e+01 1.014778e+01 1.186500e+01 7.481130e+00 2.579840e+00 2.652437e-01 3.940818e-01 7.391972e-01 1.229970e+00 1.411910e+00 2.071824e+00 1.722181e+00 1.569899e+00 2.377002e+00 2.566298e+00 2.293855e+00 1.782776e+00 1.904452e-01
<GCONST> 1.548571e+02
<TRANSP> 5
 0.000000e+00 1.000000e+00 0.000000e+00 0.000000e+00 0.000000e+00
 0.000000e+00 8.584758e-01 1.415242e-01 0.000000e+00 0.000000e+00
 0.000000e+00 0.000000e+00 7.644471e-01 2.355529e-01 0.000000e+00
 0.000000e+00 0.000000e+00 0.000000e+00 6.639043e-01 3.360957e-01
 0.000000e+00 0.000000e+00 0.000000e+00 0.000000e+00 0.000000e+00
<ENDHMM>
~h "ay"
<BEGINHMM>
<NUMSTATES> 5
<STATE> 2
<MEAN> 39
 8.164734e-02 -1.259608e+00 -1.369458e+01 -1.963999e+01 9.263613e-01 -6.510883e+00 -1.338627e+01 -1.018375e+01 -4.920439e+00 -1.339690e+01 -4.318906e+00 -3.623022e+00 2.541617e+01 7.883752e-01 3.893078e+00 -1.529237e+00 -1.582763e+00 -1.131164e+00 -1.580475e+00 2.074848e+00 1.412474e+00 7.041013e-01 -4.248133e-02 -5.028993e-01 -6.308655e-01 -1.617445e+00 1.701561e-01 2.649027e-02 5.568600e-01 4.589671e-01 -6.219712e-01 -3.217711e-01 -4.554819e-02 5.145231e-02 1.483365e-01 4.371951e-01 6.362633e-02 -2.284965e-01 -3.797129e-01
<VARIANCE> 39
 3.662292e+01 1.187596e+02 1.452695e+02 1.108705e+02 1.211689e+02 2.247630e+02 1.160695e+02 1.161471e+02 9.779048e+01 9.556277e+01 1.002772e+02 1.104981e+02 7.151942e+01 9.836006e-01 3.739593e+00 6.120405e+00 5.683207e+00 9.386436e+00 1.000390e+01 7.665103e+00 8.703752e+00 9.870348e+00 8.803499e+00 9.620667e+00 1.100013e+01 9.123418e-01 1.680434e-01 7.574980e-01 1.286578e+00 1.017787e+00 1.125302e+00 1.461655e+00 1.636055e+00 1.561543e+00 1.519055e+00 1.377131e+00 1.672131e+00 1.877373e+00 1.688239e-01
<GCONST> 1.545649e+02
<STATE> 3
<MEAN> 39
 6.159973e+00 1.632389e+01 -7.182738e+00 -1.872732e+01 -1.157193e+01 -1.568055e+01 -8.987214e+00 -5.387793e+00 1.405393e+00 -9.033581e+00 -4.538741e+00 -7.988404e+00 1.043294e+01 1.188902e-01 2.825819e-01 2.932546e+00 2.304358e+00 -1.816280e-01 2.184959e-01 -1.320766e-01 -3.004548e-01 4.434980e-02 1.144886e+00 4.623245e-01 4.585016e-01 -2.762673e+00 -4.301356e-01 -8.292086e-01 6.608598e-02 6.746362e-01 8.234159e-01 7.669420e-01 1.713743e-01 -1.597508e-01 -2.798453e-01 1.135115e-01 1.175554e-01 4.888694e-01 4.730314e-03
<VARIANCE> 39
 2.612385e+01 5.597637e+01 1.517473e+02 1.143791e+02 1.197498e+02 1.169696e+02 1.361639e+02 1.035257e+02 1.165596e+02 1.047704e+02 1.440598e+02 1.254683e+02 7.723385e+01 3.517889e+00 5.798463e+00 7.968613e+00 1.167699e+01 1.041078e+01 1.139414e+01 9.427429e+00 9.965386e+00 1.086176e+01 8.956345e+00 1.111952e+01 9.281425e+00 4.573850e+00 5.207733e-01 7.691301e-01 1.600654e+00 1.703443e+00 1.678181e+00 1.567432e+00 2.030439e+00 1.822818e+00 1.948269e+00 1.519482e+00 2.259102e+00 1.811147e+00 4.483592e-01
<GCONST> 1.630450e+02
<STATE> 4
<MEAN> 39
 -6.519159e-01 8.502095e+00 2.258642e+00 -1.510973e+00 -1.427696e+00 -2.327646e+00 -2.001452e+00 -3.307376e+00 3.163229e+00 1.555932e+00 2.137237e+00 9.848508e-01 -3.849091e+00 -1.427540e+00 -1.546670e+00 3.545566e-01 1.728749e+00 1.359073e+00 2.145263e+00 1.870852e+00 1.608167e+00 8.876363e-01 1.436463e+00 1.087008e+00 8.750470e-01 -1.195288e+00 1.153055e-01 2.701440e-02 -4.927979e-01 -6.218774e-01 -3.584089e-01 -2.694968e-01 1.638197e-02 1.571800e-01 1.403164e-02 -3.125317e-01 -1.540895e-01 -2.356690e-01 6.284990e-01
<VARIANCE> 39
 4.715190e+01 5.102640e+01 8.870721e+01 1.067669e+02 1.405650e+02 1.560476e+02 1.336584e+02 1.260909e+02 1.462916e+02 1.466657e+02 1.470260e+02 1.350317e+02 6.921049e+01 4.865070e+00 3.867847e+00 5.815580e+00 8.822289e+00 1.079836e+01 1.217478e+01 1.127439e+01 1.260061e+01 1.242182e+01 1.159205e+01 1.154565e+01 1.203753e+01 2.858696e+00 4.359606e-01 7.079904e-01 1.155428e+00 1.535145e+00 1.421859e+00 1.690481e+00 1.878905e+00 2.396536e+00 2.416592e+00 2.176855e+00 2.077869e+00 1.889179e+00 5.431576e-01
<GCONST> 1.643128e+02
<TRANSP> 5
 0.000000e+00 1.000000e+00 0.000000e+00 0.000000e+00 0.000000e+00
 0.000000e+00 8.204347e-01 1.795653e-01 0.000000e+00 0.000000e+00
 0.000000e+00 0.000000e+00 8.035662e-01 1.964338e-01 0.000000e+00
 0.000000e+00 0.000000e+00 0.000000e+00 7.261956e-01 2.738044e-01
 0.000000e+00 0.000000e+00 0.000000e+00 0.000000e+00 0.000000e+00
<ENDHMM>
~h "ch"
<BEGINHMM>
<NUMSTATES> 5
<STATE> 2
<MEAN> 39
 -1.639075e+01 5.261292e+00 -2.099653e+00 3.174266e+00 5.054482e+00 6.077547e+00 5.626984e+00 4.447118e+00 5.286198e+00 1.428863e-01 2.936962e+00 1.459130e+00 6.512279e+00 1.276793e-01 3.074378e-02 1.114072e-01 -7.682863e-01 -3.236284e-02 -5.102487e-01 -7.009008e-01 -6.235375e-01 -5.674827e-02 -4.775026e-01 -3.542113e-01 -5.820202e-02 1.053761e+00 9.074053e-01 9.675054e-04 6.970610e-02 -5.069759e-01 -4.797058e-01 -5.882531e-01 -5.290582e-01 -4.268327e-01 -3.796552e-01 -1.984161e-01 -2.175612e-01 -1.132619e-01 -2.154678e-02
<VARIANCE> 39
 9.124136e+01 8.498447e+01 1.095159e+02 1.165339e+02 1.118752e+02 1.279513e+02 1.226183e+02 1.255410e+02 1.298761e+02 1.203160e+02 1.081785e+02 9.039530e+01 9.913931e+01 1.867100e+01 1.081404e+01 1.345472e+01 1.598907e+01 1.436317e+01 1.849270e+01 1.739757e+01 1.675777e+01 1.686347e+01 1.335551e+01 1.346256e+01 1.094294e+01 1.130128e+01 1.795420e+00 2.082158e+00 2.701440e+00 3.317287e+00 2.725987e+00 3.281632e+00 2.972909e+00 2.852190e+00 3.287734e+00 2.891613e+00 2.509136e+00 2.190962e+00 2.382022e+00
<GCONST> 1.801749e+02
<STATE> 3
<MEAN> 39
 5.204577e+00 3.924018e+00 -3.455808e+00 -1.161797e+01 -7.878973e+00 -1.389314e+01 -1.135232e+01 -1.067536e+01 -6.357727e+00 -7.266482e+00 -3.772040e+00 -1.057389e+00 1.397829e+01 3.619071e+00 -1.591432e+00 -2.452565e+00 -3.221520e+00 -2.274653e+00 -2.863709e+00 -2.015416e+00 -1.257983e+00 -2.153335e+00 -1.273677e+00 -1.018978e+00 -5.345878e-01 2.458708e+00 -1.133260e+00 -4.966437e-01 -1.902294e-01 8.310954e-01 9.348783e-01 1.313364e+00 1.098955e+00 1.038693e+00 7.617025e-01 4.372144e-01 2.861800e-01 1.156984e-01 -2.494752e-01
<VARIANCE> 39
 8.095782e+01 1.806732e+02 1.792652e+02 2.049320e+02 1.271523e+02 2.594523e+02 1.696488e+02 1.971119e+02 1.514566e+02 1.377938e+02 1.815190e+02 1.290602e+02 1.191228e+02 1.006475e+01 1.303507e+01 1.679904e+01 2.492736e+01 1.682436e+01 3.369299e+01 2.304931e+01 2.340147e+01 1.871317e+01 1.827678e+01 1.681829e+01 1.505884e+01 8.970264e+00 1.268552e+00 1.769737e+00 2.348219e+00 4.435235e+00 2.512681e+00 4.771365e+00 3.239426e+00 3.354159e+00 3.309671e+00 2.968579e+00 3.566087e+00 2.749181e+00 1.600002e+00
<GCONST> 1.875556e+02
<STATE> 4
<MEAN> 39
 1.325029e+01 -9.209968e+00 -2.041292e+01 -9.165874e+00 -5.655503e+00 -1.213310e+01 -1.449581e+01 -8.983953e+00 -7.894408e+00 -6.902865e+00 -6.793006e+00 -2.370369e+00 1.909249e+01 3.011130e-01 -4.220179e-01 -4.699941e-01 8.189759e-01 2.313963e-01 3.660140e-01 -2.104708e-01 3.777855e-01 3.439159e-01 2.311191e-01 -1.344036e-01 3.767662e-03 -4.610946e-01 -2.688763e-01 2.861670e-01 4.989125e-01 2.558814e-01 4.912083e-02 1.086081e-01 9.855009e-02 -3.200428e-02 7.054181e-02 1.326426e-01 1.099258e-01 8.780158e-02 -3.525544e-01
<VARIANCE> 39
 8.470161e+01 1.965675e+02 2.202554e+02 2.333291e+02 1.170825e+02 1.522460e+02 1.210489e+02 1.513007e+02 1.175222e+02 1.638920e+02 1.645772e+02 1.387032e+02 1.032896e+02 1.834326e+00 4.239558e+00 9.979760e+00 1.074348e+01 7.093077e+00 8.498648e+00 7.640800e+00 9.012367e+00 8.234987e+00 8.856133e+00 9.779520e+00 6.823308e+00 3.393862e+00 3.795454e-01 7.172616e-01 1.090464e+00 1.571247e+00 1.092921e+00 1.527679e+00 1.596583e+00 1.694981e+00 1.558140e+00 1.534672e+00 1.721099e+00 1.253103e+00 4.244814e-01
<GCONST> 1.626858e+02
<TRANSP> 5
 0.000000e+00 1.000000e+00 0.000000e+00 0.000000e+00 0.000000e+00
 0.000000e+00 8.829222e-01 1.170778e-01 0.000000e+00 0.000000e+00
 0.000000e+00 0.000000e+00 6.765509e-01 3.234491e-01 0.000000e+00
 0.000000e+00 0.000000e+00 0.000000e+00 7.954091e-01 2.045909e-01
 0.000000e+00 0.000000e+00 0.000000e+00 0.000000e+00 0.000000e+00
<ENDHMM>
~h "ea"
<BEGINHMM>
<NUMSTATES> 5
<STATE> 2
<MEAN> 39
 1.953076e+00 1.413377e+01 -1.411673e+01 -2.424186e+01 -8.078122e+00 -1.777566e+01 -5.995850e+00 -3.612255e+00 -1.433685e+00 -9.317867e+00 -4.917137e+00 -5.943870e+00 1.817280e+01 2.810681e-02 -6.950227e-01 -1.107424e-01 -1.768698e-01 2.670743e-01 8.432835e-01 9.945492e-02 5.707195e-02 -4.414062e-02 -2.010699e-01 -9.720923e-02 2.006828e-01 9.153849e-02 1.266863e-01 -4.230704e-01 3.577031e-01 2.263151e-01 -5.335957e-02 3.999867e-01 -6.112242e-02 -8.618611e-02 -5.314811e-02 6.064643e-02 2.442340e-02 1.153677e-01 -1.587634e-01
<VARIANCE> 39
 2.504810e+01 7.837510e+01 1.511152e+02 1.397438e+02 1.088774e+02 1.122916e+02 2.056724e+02 1.108729e+02 9.779048e+01 9.556277e+01 1.195275e+02 9.509768e+01 6.066987e+01 9.836006e-01 4.555937e+00 3.169396e+00 4.278692e+00 5.056879e+00 6.848212e+00 7.640800e+00 7.387886e+00 7.679026e+00 7.211906e+00 7.325230e+00 6.093411e+00 1.276246e+00 1.680434e-01 3.940818e-01 5.841593e-01 9.371231e-01 8.905675e-01 1.277123e+00 1.298432e+00 1.456362e+00 1.449366e+00 1.377131e+00 1.370237e+00 1.213570e+00 2.687244e-01
<GCONST> 1.483259e+02
<STATE> 3
<MEAN> 39
 4.557438e+00 -3.192206e+00 -8.371884e+00 -2.263126e+01 -6.328784e+00 -1.195011e+00 -9.145009e+00 -5.131450e+00 -2.136223e+00 -8.245014e+00 -4.367157e+00 -3.049955e-02 1.795937e+01 9.758841e-01 -1.241876e+00 2.100141e+00 3.481429e+00 -8.196433e-01 7.988322e-01 2.205889e-01 -9.436008e-01 -4.825667e-02 1.330442e+00 2.829146e-01 7.278782e-01 -2.529567e+00 -5.152717e-02 8.304302e-01 4.214738e-01 7.797931e-01 6.173259e-02 -9.573365e-01 3.495930e-01 1.795388e-01 -4.462441e-02 4.051333e-01 5.002483e-02 -7.393306e-02 -7.798359e-01
<VARIANCE> 39
 3.728661e+01 1.105196e+02 1.174212e+02 1.682301e+02 1.391828e+02 1.640108e+02 2.706847e+02 1.565975e+02 1.493636e+02 1.609782e+02 2.619948e+02 1.652363e+02 6.096655e+01 2.325480e+00 8.183246e+00 7.528382e+00 1.074201e+01 1.143694e+01 1.829354e+01 2.095496e+01 1.375644e+01 1.424433e+01 1.169686e+01 1.603216e+01 1.291918e+01 6.124353e+00 4.558141e-01 1.056649e+00 1.028287e+00 1.913328e+00 2.344677e+00 2.724581e+00 3.287585e+00 2.187862e+00 2.717688e+00 2.516063e+00 3.353223e+00 2.447721e+00 5.705350e-01
<GCONST> 1.733036e+02
<STATE> 4
<MEAN> 39
 4.958660e+00 2.598118e-01 5.180301e+00 -1.572316e+00 -4.652019e+00 -1.850066e+00 -4.571795e+00 -6.079442e+00 -7.669141e-01 -9.328257e-01 -5.696052e+00 1.213239e-01 9.171345e-01 -7.496216e-01 6.068887e-01 2.015000e+00 3.405308e+00 1.324915e+00 -4.464787e-01 1.867563e+00 1.595116e+00 2.972371e-01 1.500116e+00 5.095338e-01 -2.084019e-01 -3.307731e+00 -2.416911e-01 -1.593588e-01 -6.062877e-01 -7.593102e-01 1.615594e-01 1.870373e-01 -2.829023e-03 3.502159e-01 1.840647e-01 -2.382914e-01 2.228912e-01 7.662764e-02 5.437006e-01
<VARIANCE> 39
 4.919719e+01 7.879780e+01 8.178942e+01 1.883072e+02 1.194601e+02 2.290784e+02 2.430493e+02 2.690956e+02 2.112307e+02 1.632910e+02 1.708068e+02 1.373598e+02 6.930601e+01 4.020546e+00 6.772022e+00 9.382354e+00 1.280687e+01 1.238908e+01 2.135927e+01 1.606182e+01 1.613934e+01 1.568779e+01 1.590613e+01 1.725011e+01 1.456634e+01 4.615813e+00 4.877257e-01 9.394578e-01 1.123769e+00 1.558529e+00 1.876488e+00 2.261586e+00 2.571854e+00 2.728558e+00 2.429871e+00 2.510950e+00 2.434805e+00 2.338759e+00 5.181606e-01
<GCONST> 1.735067e+02
<TRANSP> 5
 0.000000e+00 1.000000e+00 0.000000e+00 0.000000e+00 0.000000e+00
 0.000000e+00 8.851547e-01 1.148454e-01 0.000000e+00 0.000000e+00
 0.000000e+00 0.000000e+00 7.540510e-01 2.459490e-01 0.000000e+00
 0.000000e+00 0.000000e+00 0.000000e+00 6.136914e-01 3.863085e-01
 0.000000e+00 0.000000e+00 0.000000e+00 0.000000e+00 0.000000e+00
<ENDHMM>
~h "eh"
<BEGINHMM>
<NUMSTATES> 5
<STATE> 2
<MEAN> 39
 3.850360e+00 -2.086428e+01 -1.364813e+01 -2.767076e+00 -9.021841e+00 -4.454373e+00 -3.539783e+00 -1.461134e+01 -1.067102e+01 -7.031368e+00 -3.495351e+00 -2.664854e+00 2.871866e+01 6.433507e-01 8.702063e-01 4.394474e-01 -3.022133e-01 -1.585203e-01 -6.361668e-01 3.187498e-01 3.054115e-01 -2.038235e-01 1.430244e-01 1.050634e-01 -1.106026e-01 -1.024686e+00 1.522281e-01 5.241481e-01 2.190840e-01 -1.876030e-01 -1.246610e-01 -3.810859e-01 1.018153e-01 2.760682e-01 1.452857e-01 5.465608e-02 -1.055001e-01 -3.633042e-02 -4.215209e-01
<VARIANCE> 39
 3.174122e+01 4.810443e+01 5.263672e+01 7.967659e+01 9.684223e+01 1.270484e+02 1.933948e+02 1.513876e+02 1.855909e+02 9.556277e+01 8.949159e+01 8.224134e+01 5.767289e+01 1.061721e+00 2.785632e+00 3.169396e+00 4.278692e+00 4.997038e+00 6.468989e+00 7.640800e+00 7.387886e+00 7.679026e+00 7.211906e+00 7.199073e+00 6.093411e+00 1.544065e+00 1.680434e-01 5.042279e-01 5.841593e-01 7.815184e-01 8.905675e-01 1.277123e+00 1.298432e+00 1.456362e+00 1.449366e+00 1.377131e+00 1.370237e+00 1.213570e+00 2.622059e-01
<GCONST> 1.465988e+02
<STATE> 3
<MEAN> 39
 9.977127e+00 -3.244770e+00 -1.680306e+00 -8.236778e+00 -1.317780e+01 -1.633015e+01 -3.083543e+00 -4.637375e+00 -9.200676e+00 -4.492886e+00 -5.784534e+00 -7.550778e-01 1.226666e+01 2.728421e-01 3.339620e+00 2.538908e+00 -1.787288e-01 -4.845629e-01 -3.080468e+00 -2.993275e-01 1.199923e+00 6.500633e-01 2.510867e-01 -3.631545e-01 6.505843e-01 -2.938598e+00 -3.367658e-01 -7.785487e-01 -4.659851e-01 2.852282e-01 3.752491e-01 6.288539e-01 -2.186252e-01 -4.826673e-01 1.469493e-01 -1.482858e-01 8.677401e-02 -1.802284e-02 5.951604e-01
<VARIANCE> 39
 2.490428e+01 1.225962e+02 1.088124e+02 1.145023e+02 1.031025e+02 2.612593e+02 1.332367e+02 1.621358e+02 1.240024e+02 1.378576e+02 1.167029e+02 1.359343e+02 9.220491e+01 2.208491e+00 1.051662e+01 7.102503e+00 8.925200e+00 9.071388e+00 1.589828e+01 1.175884e+01 1.501331e+01 9.406574e+00 1.220207e+01 9.529122e+00 8.770353e+00 7.065669e+00 3.067963e-01 1.723967e+00 1.726394e+00 1.226978e+00 1.357206e+00 2.465357e+00 1.679570e+00 1.782189e+00 1.483276e+00 2.037288e+00 1.595964e+00 1.565938e+00 9.399619e-01
<GCONST> 1.661967e+02
<STATE> 4
<MEAN> 39
 9.114958e+00 -7.236813e+00 -6.351764e+00 -8.963339e+00 -9.515246e+00 -1.380764e+01 -2.639128e+00 -1.100488e+01 -5.902949e+00 -7.145500e+00 -4.527012e+00 -1.798290e+00 1.502757e+01 6.534578e-02 5.909510e-01 2.103679e-01 5.072443e-01 3.944026e-01 6.776237e-02 -7.232889e-01 -1.703732e-01 1.755581e-01 2.990876e-01 3.072850e-01 2.709446e-01 -8.323049e-01 -4.504690e-02 -2.821029e-02 4.464798e-03 2.001086e-01 1.357356e-01 2.942812e-01 -9.643611e-02 1.848024e-02 -6.776317e-02 5.763055e-02 5.114019e-02 -4.592238e-02 -5.098799e-02
<VARIANCE> 39
 2.839811e+01 1.143567e+02 8.327389e+01 1.033210e+02 1.045963e+02 1.824897e+02 2.545815e+02 1.481676e+02 9.779048e+01 1.210639e+02 9.235328e+01 1.147394e+02 8.462995e+01 9.836006e-01 2.350767e+00 3.169396e+00 4.278692e+00 4.997038e+00 6.468989e+00 7.640800e+00 7.387886e+00 7.679026e+00 7.211906e+00 7.199073e+00 6.093411e+00 1.040686e+00 1.680434e-01 4.273063e-01 6.558996e-01 7.815184e-01 8.905675e-01 1.277123e+00 1.298432e+00 1.456362e+00 1.449366e+00 1.377131e+00 1.370237e+00 1.213570e+00 1.960298e-01
<GCONST> 1.481271e+02
<TRANSP> 5
 0.000000e+00 1.000000e+00 0.000000e+00 0.000000e+00 0.000000e+00
 0.000000e+00 8.311949e-01 1.688051e-01 0.000000e+00 0.000000e+00
 0.000000e+00 0.000000e+00 6.659006e-01 3.340993e-01 0.000000e+00
 0.000000e+00 0.000000e+00 0.000000e+00 8.141460e-01 1.858540e-01
 0.000000e+00 0.000000e+00 0.000000e+00 0.000000e+00 0.000000e+00
<ENDHMM>
~h "eo"
<BEGINHMM>
<NUMSTATES> 5
<STATE> 2
<MEAN> 39
 3.316368e+00 -1.831661e+01 -1.009517e+01 -1.524439e+01 -1.696166e+01 3.263602e+00 -9.540975e-01 -1.679409e+01 -6.381102e+00 -6.269588e+00 -1.304973e+01 -1.942175e+00 3.293991e+01 1.633448e+00 -5.211049e-01 -8.170462e-01 4.086046e-02 -1.845775e+00 -2.716110e+00 1.241062e+00 1.011770e+00 -3.191424e+00 2.206097e+00 -3.020416e-01 -1.398539e+00 -1.387607e+00 -3.699340e-01 1.368781e+00 9.563804e-01 1.746380e+00 1.332334e+00 -1.660166e-01 2.333131e-01 1.652480e+00 5.289915e-01 7.191956e-01 1.391446e+00 2.941429e-01 -2.916996e+00
<VARIANCE> 39
 2.839970e+01 1.156340e+02 5.263672e+01 1.204052e+02 7.429863e+01 9.501779e+01 1.616834e+02 1.419288e+02 1.829968e+02 1.757589e+02 1.934967e+02 1.259426e+02 1.172889e+02 2.548314e+00 8.169813e+00 6.872503e+00 1.604697e+01 9.717115e+00 1.171884e+01 8.005626e+00 1.671641e+01 1.582982e+01 1.932961e+01 2.253301e+01 8.240393e+00 2.008694e+01 6.978817e-01 1.066108e+00 1.485001e+00 2.962165e+00 2.489652e+00 1.963530e+00 2.204528e+00 2.157183e+00 2.823170e+00 4.409740e+00 4.447292e+00 2.774140e+00 2.464655e+00
<GCONST> 1.742621e+02
<STATE> 3
<MEAN> 39
 6.622915e+00 -1.060768e+01 -5.701175e+00 -4.711329e+00 -1.814787e+01 -7.271754e+00 4.403793e+00 -6.779365e-01 -8.460186e+00 2.584722e+00 -4.729559e+00 -3.919051e+00 1.146032e+01 -4.397642e-01 3.939084e+00 2.591560e+00 2.523436e+00 2.267043e+00 -1.116250e-01 4.138149e-01 2.594390e+00 1.852973e+00 1.118367e+00 2.100059e+00 1.198875e+00 -7.639254e+00 -7.773958e-01 4.043406e-01 3.217319e-01 -3.165147e-01 1.338927e+00 1.667309e+00 -3.512422e-01 -8.050466e-01 7.342803e-01 -3.913334e-01 -4.013339e-01 6.371847e-01 1.004838e-01
<VARIANCE> 39
 2.284501e+01 1.096993e+02 5.771369e+01 1.479468e+02 7.429863e+01 1.725336e+02 1.303351e+02 1.990915e+02 2.526629e+02 9.556277e+01 1.313435e+02 1.580720e+02 1.215281e+02 3.736595e+00 6.781581e+00 6.479488e+00 1.785158e+01 1.080557e+01 2.291536e+01 1.564766e+01 1.887110e+01 2.051676e+01 1.607748e+01 1.810643e+01 1.940034e+01 7.714324e+00 5.811493e-01 1.855870e+00 1.291770e+00 3.449388e+00 1.952919e+00 2.921280e+00 2.289295e+00 3.214689e+00 7.090527e+00 3.248714e+00 2.846470e+00 3.124738e+00 2.603703e+00
<GCONST> 1.774842e+02
<STATE> 4
<MEAN> 39
 3.760605e+00 -1.285035e+00 -2.084918e+00 -4.947575e+00 -8.175532e+00 -1.146040e-01 3.629920e+00 -2.189515e+00 -4.611166e+00 3.625426e+00 -4.754526e+00 -5.307618e-01 -1.154669e+00 -7.523193e-01 1.269479e+00 9.892544e-01 5.213709e-01 2.148734e+00 5.887617e-01 1.301185e-01 6.176408e-02 2.108849e-01 4.727281e-01 4.251857e-01 7.424413e-01 -2.006667e+00 -1.312406e-01 -5.691893e-01 -2.860026e-01 -5.027746e-02 -2.636036e-02 2.609960e-01 3.436307e-01 -5.281918e-02 -5.638396e-02 -3.027247e-01 -1.009955e-01 5.188113e-02 8.273299e-01
<VARIANCE> 39
 2.284501e+01 4.598072e+01 5.263672e+01 1.071333e+02 1.065148e+02 2.455855e+02 1.600270e+02 1.390760e+02 1.317344e+02 1.172359e+02 1.572619e+02 9.132716e+01 3.997491e+01 2.733711e+00 4.691813e+00 4.348584e+00 9.914380e+00 1.186245e+01 1.854244e+01 1.433783e+01 1.537060e+01 1.434151e+01 1.181693e+01 8.492382e+00 1.272966e+01 1.042536e+01 4.062225e-01 7.463513e-01 8.133707e-01 1.500346e+00 2.061903e+00 2.084499e+00 2.361647e+00 2.458227e+00 2.447275e+00 2.250615e+00 2.207647e+00 2.102092e+00 1.105702e+00
<GCONST> 1.651879e+02
<TRANSP> 5
 0.000000e+00 1.000000e+00 0.000000e+00 0.000000e+00 0.000000e+00
 0.000000e+00 6.741723e-01 3.258277e-01 0.000000e+00 0.000000e+00
 0.000000e+00 0.000000e+00 5.137498e-01 4.862503e-01 0.000000e+00
 0.000000e+00 0.000000e+00 0.000000e+00 6.337979e-01 3.662021e-01
 0.000000e+00 0.000000e+00 0.000000e+00 0.000000e+00 0.000000e+00
<ENDHMM>
~h "er"
<BEGINHMM>
<NUMSTATES> 5
<STATE> 2
<MEAN> 39
 8.732258e+00 -1.821154e+01 -1.077709e+01 -1.198461e+00 -1.053450e+01 -1.441469e+00 -4.105617e+00 -1.702889e+01 -1.066499e+01 -7.465706e+00 -6.280467e+00 -5.157041e+00 2.173345e+01 1.645688e-01 3.886392e-01 4.363530e-01 7.358320e-01 1.527936e-01 -4.353090e-01 -3.111383e-01 5.359468e-04 -1.924205e-01 1.322797e-01 1.346384e-01 2.465082e-01 -8.949567e-01 -4.768363e-02 2.065774e-01 1.685099e-01 -6.696176e-03 6.779584e-02 1.759940e-02 1.808452e-02 1.215613e-01 1.365362e-01 4.100866e-02 3.199623e-03 1.090144e-01 -1.634241e-01
<VARIANCE> 39
 2.701468e+01 5.723537e+01 5.263672e+01 1.011665e+02 7.429863e+01 9.501779e+01 3.053252e+02 1.480130e+02 1.494710e+02 1.094907e+02 9.300630e+01 9.972613e+01 4.936571e+01 9.836006e-01 2.350767e+00 3.169396e+00 4.278692e+00 4.997038e+00 6.468989e+00 7.640800e+00 7.387886e+00 7.679026e+00 7.211906e+00 7.199073e+00 6.093411e+00 7.829516e-01 1.680434e-01 3.940818e-01 5.841593e-01 7.815184e-01 8.905675e-01 1.277123e+00 1.298432e+00 1.456362e+00 1.449366e+00 1.377131e+00 1.370237e+00 1.213570e+00 1.349642e-01
<GCONST> 1.448883e+02
<STATE> 3
<MEAN> 39
 3.889868e+00 -6.751250e+00 6.016041e+00 9.858303e+00 -1.495610e-01 -1.221542e+00 -4.610744e+00 -6.597029e+00 -5.500076e+00 5.255429e-01 -1.538818e+00 2.851336e+00 5.444838e-01 -1.740721e+00 9.401788e-02 1.237414e+00 7.240809e-01 2.161357e+00 1.469134e+00 1.654515e+00 2.252556e+00 1.695172e+00 1.463181e+00 6.055444e-01 3.347270e-01 -2.024890e+00 -1.092717e-03 -2.980728e-01 -4.864735e-01 -2.434048e-01 -1.106001e-01 1.070431e-01 1.967801e-01 3.051616e-02 2.150707e-01 1.306826e-01 -3.271194e-02 -3.566761e-01 2.198748e-01
<VARIANCE> 39
 3.960789e+01 4.598072e+01 9.058730e+01 1.514375e+02 1.221549e+02 1.350761e+02 2.503106e+02 1.440710e+02 2.151466e+02 1.827402e+02 1.996668e+02 1.685740e+02 3.652277e+01 2.412338e+00 5.447232e+00 8.356471e+00 8.450524e+00 6.927502e+00 9.926697e+00 1.121213e+01 1.084632e+01 1.264199e+01 1.582214e+01 1.334608e+01 1.066475e+01 1.350431e+00 6.558216e-01 9.213216e-01 1.046970e+00 1.247787e+00 1.244888e+00 2.038768e+00 2.011254e+00 2.483996e+00 2.384588e+00 2.807725e+00 2.321246e+00 2.157284e+00 1.349642e-01
<GCONST> 1.637511e+02
<STATE> 4
<MEAN> 39
 -1.790748e+00 -2.764417e+00 5.548112e+00 3.305373e+00 5.913226e+00 5.017272e+00 5.616071e+00 1.794417e+00 1.324987e+00 5.094293e+00 1.092691e+00 -1.616938e-01 -7.435559e+00 -1.750568e-02 5.693079e-01 -9.330329e-02 -2.031158e-01 9.202141e-03 1.220673e-01 2.898788e-01 8.864707e-02 2.438201e-01 -1.370381e-01 3.019637e-01 -1.414944e-01 -4.307492e-01 3.012116e-02 5.257733e-02 6.405102e-02 -1.008562e-02 -9.236820e-02 -4.536857e-02 2.870757e-03 -1.334723e-02 -1.054009e-01 -9.150271e-02 -1.138066e-02 8.405917e-02 4.817940e-02
<VARIANCE> 39
 2.284501e+01 4.598072e+01 5.875151e+01 7.450658e+01 7.429863e+01 9.501779e+01 1.639303e+02 1.035257e+02 9.779048e+01 9.556277e+01 1.153973e+02 8.224134e+01 3.493625e+01 9.836006e-01 2.350767e+00 3.169396e+00 4.278692e+00 4.997038e+00 6.468989e+00 1.106551e+01 7.387886e+00 7.679026e+00 7.349875e+00 8.995677e+00 6.093411e+00 7.829516e-01 1.680434e-01 3.940818e-01 5.841593e-01 7.815184e-01 8.905675e-01 1.330461e+00 2.149403e+00 1.456362e+00 1.449366e+00 1.577446e+00 1.764216e+00 1.213570e+00 1.349642e-01
<GCONST> 1.439887e+02
<TRANSP> 5
 0.000000e+00 1.000000e+00 0.000000e+00 0.000000e+00 0.000000e+00
 0.000000e+00 9.514080e-01 4.859202e-02 0.000000e+00 0.000000e+00
 0.000000e+00 0.000000e+00 8.623797e-01 1.376203e-01 0.000000e+00
 0.000000e+00 0.000000e+00 0.000000e+00 9.295426e-01 7.045743e-02
 0.000000e+00 0.000000e+00 0.000000e+00 0.000000e+00 0.000000e+00
<ENDHMM>
~h "eu"
<BEGINHMM>
<NUMSTATES> 5
<STATE> 2
<MEAN> 39
 9.173915e+00 8.355643e+00 5.184093e+00 -9.874912e+00 -1.507914e+01 -8.907386e+00 -1.225505e+01 -6.735390e+00 -3.045419e+00 2.996282e+00 -3.673350e+00 -1.245415e+00 2.411130e+00 -7.710274e-01 3.748888e-01 9.953334e-01 2.142197e+00 1.972287e+00 1.185405e+00 7.986088e-01 4.629668e-01 6.798906e-01 3.310442e-04 3.461027e-01 -7.343347e-02 -1.711229e+00 -2.753342e-01 -3.068593e-01 -6.682405e-02 1.157847e-01 1.935099e-01 3.708971e-01 4.680473e-01 3.767208e-01 2.105727e-01 -1.767329e-02 9.625895e-02 -4.847120e-02 4.191745e-03
<VARIANCE> 39
 2.539506e+01 4.772249e+01 9.991811e+01 1.211417e+02 1.079492e+02 1.269690e+02 1.370624e+02 1.524686e+02 2.248159e+02 2.035650e+02 2.870533e+02 2.548754e+02 4.435654e+01 2.531388e+00 3.607254e+00 3.682436e+00 6.258136e+00 6.349445e+00 1.021650e+01 1.287895e+01 1.240125e+01 1.119193e+01 1.451515e+01 1.054772e+01 1.018219e+01 1.123686e+00 2.599057e-01 6.459395e-01 5.841593e-01 1.229939e+00 1.059764e+00 1.438708e+00 1.961406e+00 2.190985e+00 1.765726e+00 1.841456e+00 1.831818e+00 1.867906e+00 1.349642e-01
<GCONST> 1.580251e+02
<STATE> 3
<MEAN> 39
 -1.921997e+00 2.354149e+00 9.399596e+00 4.698610e+00 1.023751e+00 6.562688e+00 3.845321e+00 3.919703e+00 6.633840e+00 2.590628e+00 -1.839412e+00 -6.453212e-01 -9.456833e+00 -1.330235e+00 -1.547123e+00 -8.852292e-01 2.411877e-01 1.105899e+00 1.474190e+00 1.867929e+00 2.525145e+00 1.931151e+00 1.207274e+00 1.716905e+00 9.615473e-01 -1.028458e+00 4.599572e-01 3.762690e-01 -2.231182e-01 -4.117159e-01 -4.454478e-01 -8.581992e-01 -7.375618e-01 -4.618522e-01 -4.035418e-01 1.154917e-02 -1.041781e-01 -9.507626e-03 1.916671e-01
<VARIANCE> 39
 2.284501e+01 4.598072e+01 5.263672e+01 7.450658e+01 1.014847e+02 9.501779e+01 1.036478e+02 1.187778e+02 1.064302e+02 1.124299e+02 1.035817e+02 9.182119e+01 3.493625e+01 1.760534e+00 3.425311e+00 4.524121e+00 6.061233e+00 7.425282e+00 1.082954e+01 9.659422e+00 1.011501e+01 1.357335e+01 1.279895e+01 1.368556e+01 1.147169e+01 7.829516e-01 2.258836e-01 6.476548e-01 7.680311e-01 1.338383e+00 1.380348e+00 1.700784e+00 1.979347e+00 2.126321e+00 2.948293e+00 2.814978e+00 1.889009e+00 1.813115e+00 1.349642e-01
<GCONST> 1.533910e+02
<STATE> 4
<MEAN> 39
 -4.157835e+00 1.621220e+00 4.236720e+00 5.983127e+00 4.921256e+00 8.654953e+00 5.166669e+00 5.923347e+00 7.910470e+00 2.078456e+00 7.911078e+00 3.603077e+00 -1.501995e+01 -5.790931e-02 1.357668e-01 2.549355e-02 1.071345e-01 2.610893e-01 9.390667e-02 -1.036606e-01 -9.423268e-02 -2.289745e-01 -2.664647e-01 2.551415e-02 8.780678e-02 -1.356289e-01 1.598165e-02 1.486686e-02 4.560842e-02 1.359187e-02 -2.531407e-02 2.126471e-02 3.232347e-02 -6.806551e-02 -7.029334e-02 -1.351163e-03 -7.704604e-02 -6.115912e-02 4.407593e-02
<VARIANCE> 39
 2.284501e+01 4.598072e+01 5.263672e+01 7.450658e+01 7.429863e+01 9.501779e+01 1.036478e+02 1.035257e+02 9.779048e+01 9.556277e+01 8.949159e+01 8.224134e+01 3.493625e+01 9.836006e-01 2.350767e+00 3.169396e+00 4.278692e+00 4.997038e+00 6.468989e+00 7.640800e+00 7.387886e+00 1.018788e+01 7.211906e+00 7.199073e+00 6.472516e+00 7.829516e-01 1.680434e-01 3.940818e-01 5.841593e-01 7.815184e-01 8.905675e-01 1.277123e+00 1.298432e+00 1.553860e+00 2.233724e+00 1.500042e+00 1.617117e+00 1.415480e+00 1.349642e-01
<GCONST> 1.428661e+02
<TRANSP> 5
 0.000000e+00 1.000000e+00 0.000000e+00 0.000000e+00 0.000000e+00
 0.000000e+00 9.003617e-01 9.963837e-02 0.000000e+00 0.000000e+00
 0.000000e+00 0.000000e+00 7.886052e-01 2.113948e-01 0.000000e+00
 0.000000e+00 0.000000e+00 0.000000e+00 9.248971e-01 7.510290e-02
 0.000000e+00 0.000000e+00 0.000000e+00 0.000000e+00 0.000000e+00
<ENDHMM>
~h "ey"
<BEGINHMM>
<NUMSTATES> 5
<STATE> 2
<MEAN> 39
 4.341324e+00 1.349727e+01 -1.049561e+01 -2.179359e+01 -9.017705e+00 -1.418097e+01 -7.531013e+00 -3.803080e+00 1.902414e+00 -8.703055e+00 -4.938218e+00 -5.279138e+00 1.361192e+01 3.792587e-01 1.856106e+00 4.645039e-01 1.089101e+00 -4.747821e-01 -1.551805e+00 -2.036584e-01 -5.387440e-02 2.208146e-01 4.885280e-01 6.016352e-01 -6.846137e-03 -1.641563e+00 4.499833e-03 -4.127296e-01 2.273874e-01 4.207008e-01 9.596548e-02 3.376987e-01 1.450970e-02 -2.959058e-01 -1.986444e-01 7.308254e-02 4.863358e-02 1.210085e-01 -5.414364e-02
<VARIANCE> 39
