~o
<STREAMINFO> 1 39
<VECSIZE> 39<NULLD><MFCC_D_A_Z_0><DIAGC>
~h "b"
<BEGINHMM>
<NUMSTATES> 5
<STATE> 2
<MEAN> 39
 -1.700599e+00 2.520043e+00 4.334720e+00 5.757720e+00 4.194926e+00 5.276113e+00 4.027673e+00 2.941881e+00 1.088996e+00 4.073356e+00 2.610782e+00 2.494934e+00 -9.553087e+00 8.824443e-01 -3.789630e-01 -5.489010e-01 -7.970760e-01 -9.204827e-01 -1.314487e+00 -8.380969e-01 -1.005953e+00 -8.332800e-01 -9.419621e-01 -4.462319e-01 -3.206103e-01 1.993550e+00 5.245768e-01 -7.458259e-01 -7.644398e-01 -4.931425e-01 -4.895053e-01 -6.833392e-01 -3.580165e-01 -3.552125e-01 -2.933858e-01 -4.723867e-01 -2.603736e-01 -2.356182e-01 1.303769e+00
<VARIANCE> 39
 3.122371e+01 5.459001e+01 5.299436e+01 7.745184e+01 8.753033e+01 1.622146e+02 1.561937e+02 1.377138e+02 1.156553e+02 1.079954e+02 8.186992e+01 7.835542e+01 3.788509e+01 4.885682e+00 6.261509e+00 7.508348e+00 7.167804e+00 9.967508e+00 1.868258e+01 1.629290e+01 1.491732e+01 1.367952e+01 1.225515e+01 9.020509e+00 9.886848e+00 1.191162e+01 5.988105e-01 1.377903e+00 1.482916e+00 1.297994e+00 1.707317e+00 2.546882e+00 2.867069e+00 3.180674e+00 2.604254e+00 2.327196e+00 1.898452e+00 1.974369e+00 1.315471e+00
<GCONST> 1.665655e+02
<STATE> 3
<MEAN> 39
 7.590178e+00 -5.075272e+00 -6.365408e+00 -1.556882e+00 -4.506747e+00 -8.384149e+00 -2.551258e+00 -3.065414e+00 -7.233065e+00 -4.643083e+00 -1.803113e+00 -1.974261e-01 1.004587e+01 7.625402e-01 -4.510667e+00 -3.610124e+00 -1.415424e+00 -7.690876e-01 -1.778840e-01 8.537232e-01 -8.220713e-01 -5.091823e-01 -1.110435e+00 -4.718927e-01 -7.262875e-01 5.652171e+00 -6.166098e-01 1.058001e-01 5.313678e-01 1.910127e-01 4.384962e-01 7.421118e-01 9.153914e-02 -2.126063e-01 4.363158e-01 3.420142e-01 1.286941e-01 6.425500e-02 -5.335384e-01
<VARIANCE> 39
 5.401830e+01 1.835479e+02 2.158519e+02 1.165025e+02 1.133901e+02 1.900995e+02 2.290391e+02 1.927050e+02 1.783758e+02 1.289514e+02 1.037059e+02 1.096118e+02 2.096127e+02 7.523876e+00 1.558070e+01 2.255301e+01 1.495429e+01 1.373445e+01 2.569464e+01 2.887422e+01 2.985076e+01 2.553973e+01 1.725534e+01 1.368000e+01 1.267821e+01 1.759427e+01 9.710639e-01 3.817379e+00 4.491223e+00 2.119188e+00 2.305213e+00 4.099341e+00 5.465494e+00 5.044129e+00 4.348185e+00 3.038080e+00 2.512148e+00 2.552353e+00 3.465911e+00
<GCONST> 1.885423e+02
<STATE> 4
<MEAN> 39
 2.621568e+00 -1.829893e+01 -8.450221e+00 -4.663562e+00 -3.855856e+00 -1.314809e-01 -1.489914e+00 -1.200413e+01 -5.434992e+00 -5.083784e+00 -2.093248e+00 -1.774040e+00 2.298079e+01 -6.387727e-01 7.071493e-01 1.068894e+00 -1.740278e+00 4.287754e-01 9.577641e-01 -1.628011e+00 -8.377813e-01 1.261982e+00 -6.418251e-01 -3.764209e-01 -1.705073e-01 2.152706e-01 1.711008e-01 1.224727e+00 3.352294e-01 6.910446e-02 1.708393e-01 -4.538057e-01 -1.491646e-01 7.908919e-01 9.367263e-02 -1.965808e-02 4.323398e-02 9.242728e-02 -1.099100e+00
<VARIANCE> 39
 5.192443e+01 1.394026e+02 1.219262e+02 1.771541e+02 1.070337e+02 1.554145e+02 1.946319e+02 1.805755e+02 2.135698e+02 1.508505e+02 1.043899e+02 8.134619e+01 2.227970e+02 2.799467e+00 8.426977e+00 8.377815e+00 1.113043e+01 8.770766e+00 1.239720e+01 1.425078e+01 1.609025e+01 1.450743e+01 1.446251e+01 9.815084e+00 8.226287e+00 4.900711e+00 7.103045e-01 1.863669e+00 1.867418e+00 1.887549e+00 1.647176e+00 2.784308e+00 2.757559e+00 2.767936e+00 3.214821e+00 2.659466e+00 2.209528e+00 1.659592e+00 1.901629e+00
<GCONST> 1.738954e+02
<TRANSP> 5
 0.000000e+00 1.000000e+00 0.000000e+00 0.000000e+00 0.000000e+00
 0.000000e+00 6.627426e-01 3.372574e-01 0.000000e+00 0.000000e+00
 0.000000e+00 0.000000e+00 6.341019e-01 3.658982e-01 0.000000e+00
 0.000000e+00 0.000000e+00 0.000000e+00 5.486728e-01 4.513272e-01
 0.000000e+00 0.000000e+00 0.000000e+00 0.000000e+00 0.000000e+00
<ENDHMM>
~h "c"
<BEGINHMM>
<NUMSTATES> 5
<STATE> 2
<MEAN> 39
 -1.003350e+01 5.780657e+00 -3.611297e+00 1.424302e-01 1.600507e-01 1.529908e+00 3.155194e+00 3.413520e+00 3.254274e+00 -1.352623e-01 2.443097e+00 7.742624e-01 3.947973e+00 1.024352e+00 6.755546e-02 -1.348032e+00 -3.680809e+00 -1.331541e+00 -1.078646e+00 -1.614558e+00 -1.028535e+00 -6.419076e-01 -1.613526e+00 -1.014237e+00 -7.557743e-01 3.537997e+00 6.981508e-01 -4.622852e-01 -2.183265e-02 -6.308727e-01 -1.729611e-01 -6.359959e-02 -4.096269e-01 -3.750355e-01 -3.630700e-01 -2.473189e-01 -3.352886e-01 -1.639848e-01 3.265078e-01
<VARIANCE> 39
 1.200508e+02 6.545644e+01 9.381563e+01 2.114153e+02 1.091235e+02 1.239084e+02 1.371130e+02 1.209387e+02 1.128880e+02 1.249162e+02 1.080311e+02 9.553452e+01 1.362773e+02 2.515908e+01 1.091826e+01 1.294741e+01 2.835270e+01 1.494947e+01 1.332562e+01 1.673925e+01 1.385117e+01 1.332642e+01 1.391272e+01 1.370330e+01 1.126899e+01 8.638188e+00 4.094866e+00 2.119814e+00 2.176771e+00 4.917950e+00 2.924529e+00 2.655044e+00 3.225816e+00 2.638917e+00 2.476967e+00 2.823095e+00 2.360216e+00 2.260714e+00 1.449341e+00
<GCONST> 1.808739e+02
<STATE> 3
<MEAN> 39
 2.674661e+00 -4.910194e+00 -1.124655e+01 -2.530304e+01 -7.119244e+00 -2.006634e-01 -7.781670e+00 -6.051610e+00 -4.564347e+00 -1.043903e+01 -7.319538e+00 -5.297599e+00 2.624102e+01 1.626764e-01 -3.739739e+00 -4.167223e-01 8.767068e-01 1.247609e+00 7.849361e-01 -1.324085e+00 -1.682980e+00 -1.166980e+00 -3.192096e-01 -4.403852e-01 -8.099949e-01 2.299755e+00 -1.146629e+00 5.702574e-01 8.080043e-01 2.481952e+00 8.348140e-01 -1.741090e-02 4.633445e-01 4.077117e-01 5.053105e-01 7.537698e-01 7.990822e-01 3.856270e-01 -1.374618e+00
<VARIANCE> 39
 3.449292e+01 8.840910e+01 1.043070e+02 1.252666e+02 1.541122e+02 1.314887e+02 1.295875e+02 1.047969e+02 1.273345e+02 1.106532e+02 1.314753e+02 1.047671e+02 9.576968e+01 3.853972e+00 5.856645e+00 8.014421e+00 1.754607e+01 9.869942e+00 1.244466e+01 1.641660e+01 9.984332e+00 1.132518e+01 1.182038e+01 1.227935e+01 1.436740e+01 6.822327e+00 1.075973e+00 1.280822e+00 1.776623e+00 3.500480e+00 2.857010e+00 2.269275e+00 2.472727e+00 1.850656e+00 2.232588e+00 2.194037e+00 2.120456e+00 2.086408e+00 5.583003e-01
<GCONST> 1.702507e+02
<STATE> 4
<MEAN> 39
 5.875711e-01 -1.059686e+01 -9.685662e+00 -1.585506e+01 -6.079597e-02 -1.443444e+00 -1.571627e+01 -7.948367e+00 -6.690991e+00 -1.140109e+01 -3.126476e+00 -6.145504e+00 2.528382e+01 1.443858e-01 2.533846e-01 3.342781e-01 4.929028e-01 1.539368e-01 -3.343298e-01 -1.759756e-01 -1.666076e-01 3.194287e-02 3.945273e-02 1.159074e-01 2.424473e-01 -5.211727e-01 8.074141e-02 5.061660e-01 -3.226873e-02 -2.410665e-01 -1.958465e-01 -1.491494e-01 2.003786e-01 1.622214e-01 1.580624e-01 6.877065e-02 -7.634839e-02 3.371698e-02 -2.633652e-01
<VARIANCE> 39
 3.299467e+01 8.572391e+01 6.508948e+01 8.874171e+01 8.635466e+01 1.887854e+02 1.885754e+02 1.129746e+02 9.306896e+01 9.172495e+01 1.301472e+02 1.418582e+02 6.903629e+01 9.295488e-01 3.372244e+00 3.204578e+00 4.714875e+00 4.800234e+00 6.732611e+00 7.384914e+00 7.215433e+00 7.816270e+00 7.117570e+00 6.958999e+00 6.043427e+00 8.070496e-01 1.552890e-01 4.013840e-01 5.704774e-01 7.841400e-01 8.683005e-01 1.204860e+00 1.230873e+00 1.356652e+00 1.398742e+00 1.285082e+00 1.258521e+00 1.174364e+00 1.517461e-01
<GCONST> 1.459843e+02
<TRANSP> 5
 0.000000e+00 1.000000e+00 0.000000e+00 0.000000e+00 0.000000e+00
 0.000000e+00 8.591759e-01 1.408241e-01 0.000000e+00 0.000000e+00
 0.000000e+00 0.000000e+00 6.228918e-01 3.771082e-01 0.000000e+00
 0.000000e+00 0.000000e+00 0.000000e+00 8.310203e-01 1.689797e-01
 0.000000e+00 0.000000e+00 0.000000e+00 0.000000e+00 0.000000e+00
<ENDHMM>
~h "d"
<BEGINHMM>
<NUMSTATES> 5
<STATE> 2
<MEAN> 39
 6.422801e+00 8.952039e+00 7.575718e+00 -1.354386e+00 -1.292498e+01 -9.930947e+00 -6.234767e+00 -1.064771e+01 -8.870968e+00 -1.906372e+00 -1.542421e-01 1.425805e+00 -4.796741e+00 1.620041e-01 -1.714700e+00 -1.637748e+00 -1.082126e+00 -1.612026e+00 -7.952285e-02 1.801196e-01 -1.067918e+00 -2.340012e-01 -1.509633e+00 -3.125675e-01 -8.553858e-01 3.826638e+00 -4.936797e-01 -1.905206e+00 -1.496804e+00 -3.742964e-01 7.560699e-01 1.239974e+00 9.847295e-01 4.985541e-01 7.609429e-01 -1.943394e-01 1.697930e-02 -2.744840e-01 1.929053e+00
<VARIANCE> 39
 3.978648e+01 5.404072e+01 6.161985e+01 1.002361e+02 1.144165e+02 1.678451e+02 1.333177e+02 1.345431e+02 1.519425e+02 1.256087e+02 1.024194e+02 9.491286e+01 4.635659e+01 6.159621e+00 1.608811e+01 1.549413e+01 1.300011e+01 1.449113e+01 2.213446e+01 2.529609e+01 1.786845e+01 1.950061e+01 1.506591e+01 1.170334e+01 9.327497e+00 2.157646e+01 1.013259e+00 1.491773e+00 1.779858e+00 2.280262e+00 2.705078e+00 2.902037e+00 3.765988e+00 3.193406e+00 3.438839e+00 2.758408e+00 2.540041e+00 2.105274e+00 1.742813e+00
<GCONST> 1.766883e+02
<STATE> 3
<MEAN> 39
 2.687814e+00 -1.282083e+01 -1.137630e+01 -9.463968e+00 -1.173907e+01 1.563550e+00 3.372428e+00 -1.039004e+01 -3.397861e+00 -8.424578e+00 -1.756183e+00 -2.959486e+00 2.406314e+01 -3.335928e-01 -6.600680e+00 -4.080851e+00 6.726312e-01 2.486247e+00 1.429179e+00 4.684018e-02 -1.225103e+00 -2.833080e-01 -1.003631e+00 -1.814552e-01 -8.293158e-01 6.367470e+00 3.405695e-01 9.592383e-01 1.265670e+00 1.402502e+00 7.401181e-01 -1.306505e+00 -1.215379e+00 1.018090e-01 -5.485347e-01 6.365384e-01 8.022741e-02 3.431108e-01 -1.973092e+00
<VARIANCE> 39
 4.144928e+01 9.654376e+01 7.424457e+01 1.282943e+02 1.217789e+02 1.787398e+02 2.511751e+02 1.595567e+02 1.664521e+02 1.205431e+02 1.141578e+02 7.801404e+01 8.225465e+01 8.288788e+00 8.103937e+00 1.582545e+01 1.619187e+01 1.386401e+01 2.221149e+01 2.928968e+01 2.186435e+01 2.219203e+01 1.514349e+01 1.471654e+01 1.210369e+01 1.459174e+01 9.054301e-01 2.051736e+00 1.779015e+00 2.112400e+00 2.494569e+00 3.211153e+00 4.693618e+00 3.555212e+00 3.620651e+00 2.616076e+00 2.677324e+00 1.968026e+00 1.675370e+00
<GCONST> 1.800215e+02
<STATE> 4
<MEAN> 39
 3.824747e+00 -2.403406e+01 -1.353928e+01 3.675795e+00 -4.567807e+00 -5.459008e+00 -5.808602e+00 -1.331865e+01 -7.712383e+00 -7.495791e+00 -2.250927e+00 -3.609934e+00 2.796551e+01 6.137741e-01 -3.856377e-01 4.714957e-02 1.286076e+00 9.194763e-01 -1.542831e+00 -1.272281e+00 1.108647e+00 -3.882118e-01 7.944955e-02 -3.469277e-01 2.270821e-01 -5.928724e-01 1.719834e-01 1.216149e+00 4.662428e-01 -5.651403e-01 -3.743239e-01 1.018468e-02 2.088932e-01 4.613225e-01 2.017185e-01 1.537007e-02 -9.951244e-02 1.776123e-01 -1.003776e+00
<VARIANCE> 39
 4.845738e+01 5.499673e+01 1.310377e+02 1.246616e+02 1.181158e+02 1.234037e+02 2.105706e+02 1.576859e+02 1.529032e+02 1.026157e+02 8.186992e+01 9.694769e+01 6.823877e+01 1.857414e+00 3.824010e+00 5.218965e+00 7.691132e+00 7.644151e+00 8.876913e+00 1.091647e+01 8.711387e+00 8.671530e+00 7.755245e+00 6.958999e+00 6.475680e+00 1.615505e+00 4.883130e-01 1.264559e+00 1.269351e+00 9.457739e-01 1.341671e+00 1.702399e+00 2.076139e+00 1.891586e+00 2.089386e+00 1.575457e+00 1.438199e+00 1.319818e+00 1.384892e+00
<GCONST> 1.591007e+02
<TRANSP> 5
 0.000000e+00 1.000000e+00 0.000000e+00 0.000000e+00 0.000000e+00
 0.000000e+00 7.224666e-01 2.775333e-01 0.000000e+00 0.000000e+00
 0.000000e+00 0.000000e+00 6.375301e-01 3.624699e-01 0.000000e+00
 0.000000e+00 0.000000e+00 0.000000e+00 7.354525e-01 2.645475e-01
 0.000000e+00 0.000000e+00 0.000000e+00 0.000000e+00 0.000000e+00
<ENDHMM>
~h "k"
<BEGINHMM>
<NUMSTATES> 5
<STATE> 2
<MEAN> 39
 -4.448566e+00 3.806325e+00 4.871005e+00 4.008883e+00 4.429574e+00 9.464417e+00 9.055071e+00 7.050613e+00 4.487999e+00 5.672150e+00 3.571400e+00 1.870894e+00 -1.263415e+01 -3.789302e-01 -2.474159e+00 -8.274193e-02 7.122216e-01 -5.392250e-01 -4.237150e-01 3.626601e-01 8.453973e-02 -3.335211e-01 -4.033306e-01 1.726762e-01 -1.142038e-01 2.115307e+00 2.907745e-01 -7.657727e-01 -5.499140e-01 -6.151047e-01 -6.641303e-01 -8.833423e-01 -5.763838e-01 -5.379346e-01 -5.291666e-01 -6.647031e-01 -3.260927e-01 -1.430483e-01 1.712069e+00
<VARIANCE> 39
 2.371881e+01 4.683232e+01 5.425499e+01 8.712206e+01 8.376447e+01 9.653999e+01 1.021374e+02 9.713129e+01 9.306896e+01 8.801827e+01 8.186992e+01 7.801404e+01 3.342683e+01 4.450668e+00 1.427177e+01 8.730031e+00 1.349736e+01 1.274830e+01 1.582254e+01 1.359162e+01 1.364570e+01 1.275723e+01 1.152353e+01 9.632117e+00 8.874550e+00 1.723110e+01 7.284836e-01 1.743754e+00 1.524127e+00 2.460504e+00 1.866620e+00 2.353817e+00 2.416685e+00 2.505332e+00 2.334273e+00 2.175694e+00 1.967605e+00 1.832387e+00 1.415170e+00
<GCONST> 1.664662e+02
<STATE> 3
<MEAN> 39
 -5.474304e+00 -1.240469e+01 1.853000e+00 5.400136e+00 -2.609262e+00 1.447928e+00 7.980335e+00 3.929629e+00 -1.312654e-01 3.532920e-01 3.021984e+00 9.008119e-01 6.887109e+00 2.239266e+00 -1.686859e+00 -2.881379e+00 -2.279513e+00 -1.904003e+00 -2.909224e+00 -1.821656e+00 -1.912225e+00 -2.147465e+00 -2.314611e+00 -1.219709e+00 -4.787671e-01 4.917428e+00 8.287696e-01 1.331511e+00 -6.754686e-01 -1.052950e+00 2.898194e-01 -1.013746e-01 -8.120123e-01 -4.591800e-01 -4.011885e-02 -2.063311e-01 -4.205214e-01 -2.143670e-01 -5.272461e-01
<VARIANCE> 39
 7.228861e+01 1.693460e+02 1.454990e+02 1.975846e+02 1.590689e+02 1.925009e+02 1.468061e+02 1.671631e+02 1.657740e+02 1.254227e+02 1.193994e+02 1.037560e+02 1.037783e+02 8.967371e+00 1.940539e+01 1.642846e+01 2.263115e+01 1.599995e+01 1.962106e+01 1.707304e+01 1.922061e+01 1.798800e+01 1.398721e+01 1.427486e+01 1.334404e+01 1.608499e+01 1.406330e+00 3.059372e+00 3.200569e+00 3.250013e+00 3.011696e+00 4.110517e+00 3.114388e+00 3.444358e+00 3.586379e+00 2.901073e+00 2.816939e+00 2.685285e+00 1.900256e+00
<GCONST> 1.856759e+02
<STATE> 4
<MEAN> 39
 4.700106e+00 -9.445690e+00 -8.366195e+00 -9.592106e+00 -5.438841e+00 -4.729558e+00 -2.682046e+00 -5.039603e+00 -5.166996e+00 -7.245177e+00 -2.693915e+00 -2.270557e+00 1.724456e+01 1.432096e+00 -9.165034e-03 -1.946243e+00 -1.836925e+00 -1.629929e-01 -1.274217e+00 -2.160114e+00 -1.269551e+00 -6.198899e-01 -1.110263e+00 -1.015513e+00 -8.524240e-01 2.365390e+00 -7.283649e-01 3.897007e-01 1.032016e+00 1.043612e+00 4.805093e-01 4.791996e-01 4.708630e-01 5.615650e-01 5.599594e-01 6.945407e-01 4.335550e-01 2.019113e-01 -1.203916e+00
<VARIANCE> 39
 7.178581e+01 1.678798e+02 1.330019e+02 2.119927e+02 1.433320e+02 1.716255e+02 1.655249e+02 1.914038e+02 1.568123e+02 1.261132e+02 1.011452e+02 1.033184e+02 1.780650e+02 8.360758e+00 1.254770e+01 1.647572e+01 1.960623e+01 1.203815e+01 1.808258e+01 1.600404e+01 1.484216e+01 1.314053e+01 1.484737e+01 1.263590e+01 1.232868e+01 1.111936e+01 1.036935e+00 2.191234e+00 2.723972e+00 3.038062e+00 2.090314e+00 2.828857e+00 2.437036e+00 2.764970e+00 2.735612e+00 2.540480e+00 2.211140e+00 2.260839e+00 1.718690e+00
<GCONST> 1.808472e+02
<TRANSP> 5
 0.000000e+00 1.000000e+00 0.000000e+00 0.000000e+00 0.000000e+00
 0.000000e+00 6.780158e-01 3.219842e-01 0.000000e+00 0.000000e+00
 0.000000e+00 0.000000e+00 5.583518e-01 4.416482e-01 0.000000e+00
 0.000000e+00 0.000000e+00 0.000000e+00 5.568905e-01 4.431095e-01
 0.000000e+00 0.000000e+00 0.000000e+00 0.000000e+00 0.000000e+00
<ENDHMM>
~h "l"
<BEGINHMM>
<NUMSTATES> 5
<STATE> 2
<MEAN> 39
 7.299573e+00 6.163813e-01 -7.426459e-01 -8.034003e+00 -1.609205e+01 -1.312795e+01 -2.077734e+00 -6.541240e+00 -4.124401e+00 -2.238518e+00 -3.918632e+00 -2.676405e+00 1.161319e+01 -2.166053e-01 -1.849602e+00 -1.702780e+00 -7.548743e-01 1.277174e-01 1.320806e+00 2.848212e-01 -5.845252e-02 -1.934791e-01 -9.138741e-01 -5.554606e-01 -1.923021e-01 2.309978e+00 -3.206624e-01 -4.601180e-01 -1.210021e-01 6.876401e-02 7.073120e-01 5.571526e-01 1.841531e-02 1.855355e-01 1.571779e-01 -2.960130e-01 1.223379e-01 9.210063e-02 1.769196e-01
<VARIANCE> 39
 3.855392e+01 1.272720e+02 1.498943e+02 1.808457e+02 1.688185e+02 2.159666e+02 1.840529e+02 2.015315e+02 2.028380e+02 1.990512e+02 1.470967e+02 1.133748e+02 8.901562e+01 4.601913e+00 9.771213e+00 1.321097e+01 1.658739e+01 1.935776e+01 2.244793e+01 1.770089e+01 1.994150e+01 1.778327e+01 1.819647e+01 1.709362e+01 1.181055e+01 7.364912e+00 7.068952e-01 1.437856e+00 2.108727e+00 2.551477e+00 2.762430e+00 3.096604e+00 3.033439e+00 3.661852e+00 3.131169e+00 3.131058e+00 3.031308e+00 2.108154e+00 8.024742e-01
<GCONST> 1.806157e+02
<STATE> 3
<MEAN> 39
 3.728310e+00 -8.696682e+00 -5.535337e+00 -5.918209e+00 -7.240837e+00 -3.430449e+00 -4.623181e+00 -6.838709e+00 -3.979193e+00 -7.121321e+00 -2.986593e+00 -1.276062e+00 1.649345e+01 -1.217497e+00 -1.469642e+00 -1.490737e-01 -2.234361e-01 2.344042e+00 1.316708e+00 -5.153714e-01 6.933070e-01 7.387841e-01 -5.963706e-01 3.727869e-01 1.026138e-01 7.747619e-01 1.704729e-01 6.402779e-01 1.472618e-01 -8.013375e-03 -1.459257e-01 -6.649057e-01 -2.079336e-02 6.798865e-02 1.941667e-01 3.511079e-01 -5.444376e-02 3.947658e-02 -5.640350e-01
<VARIANCE> 39
 4.183905e+01 1.514191e+02 1.405882e+02 3.319505e+02 1.416857e+02 1.247037e+02 2.241804e+02 1.776212e+02 1.734495e+02 2.141320e+02 1.650007e+02 1.520070e+02 1.584772e+02 3.285255e+00 9.337636e+00 1.461253e+01 1.603135e+01 1.007112e+01 1.413059e+01 2.055773e+01 2.182317e+01 1.731436e+01 1.670453e+01 1.451403e+01 1.292113e+01 7.613915e+00 4.811892e-01 1.465018e+00 1.923347e+00 2.446481e+00 1.763624e+00 2.381157e+00 2.801698e+00 2.946517e+00 2.961034e+00 2.763095e+00 2.959833e+00 2.091194e+00 9.340454e-01
<GCONST> 1.787483e+02
<STATE> 4
<MEAN> 39
 4.840256e+00 -1.094045e+01 -6.395041e+00 -6.502397e+00 -5.288141e+00 -2.528098e+00 -5.368716e+00 -1.071366e+01 -3.924395e+00 -9.533997e+00 -3.088261e+00 -1.132967e+00 1.822363e+01 1.091237e-01 8.729148e-01 4.825521e-01 2.538162e-02 3.727697e-01 -1.081778e+00 -4.166226e-01 1.717200e-01 1.461972e-01 3.314840e-01 -2.793167e-02 1.650202e-01 -9.081955e-01 1.738996e-01 5.472054e-01 1.517596e-01 -9.633850e-02 -3.235980e-01 -3.687307e-01 -2.255432e-02 1.389612e-01 -3.329751e-02 1.809017e-01 -6.178370e-02 -9.567316e-03 -3.818756e-01
<VARIANCE> 39
 4.322243e+01 1.770535e+02 1.131604e+02 2.033546e+02 1.165202e+02 1.902716e+02 2.116151e+02 1.687163e+02 1.315259e+02 1.590772e+02 1.135223e+02 1.020822e+02 1.365988e+02 2.870693e+00 1.017202e+01 7.889365e+00 8.563451e+00 7.587880e+00 1.386504e+01 9.989996e+00 1.145707e+01 9.594578e+00 8.390350e+00 8.138667e+00 7.802665e+00 5.065587e+00 3.611279e-01 1.444108e+00 1.093285e+00 1.311842e+00 1.179344e+00 1.964230e+00 1.757459e+00 1.980344e+00 1.941159e+00 1.770859e+00 1.464126e+00 1.412390e+00 8.522471e-01
<GCONST> 1.661201e+02
<TRANSP> 5
 0.000000e+00 1.000000e+00 0.000000e+00 0.000000e+00 0.000000e+00
 0.000000e+00 6.706530e-01 3.293470e-01 0.000000e+00 0.000000e+00
 0.000000e+00 0.000000e+00 4.689385e-01 5.310615e-01 0.000000e+00
 0.000000e+00 0.000000e+00 0.000000e+00 6.232207e-01 3.767793e-01
 0.000000e+00 0.000000e+00 0.000000e+00 0.000000e+00 0.000000e+00
<ENDHMM>
~h "m"
<BEGINHMM>
<NUMSTATES> 5
<STATE> 2
<MEAN> 39
 1.039386e+01 5.251427e+00 7.073728e+00 -1.313682e+00 -9.806029e+00 -2.263749e+01 -1.397359e+01 -8.844686e+00 -8.576896e+00 -3.233944e+00 -2.671699e+00 2.480000e+00 2.337570e+00 -6.552161e-02 7.511010e-01 7.631608e-01 1.786981e-02 -7.958194e-02 -3.387992e-01 -5.833492e-01 -4.940443e-01 -2.275909e-01 4.714487e-02 1.511021e-01 2.926316e-01 -4.510322e-01 -2.230497e-01 -4.897433e-01 -5.857168e-01 -2.045208e-01 3.113551e-01 1.059928e+00 4.736856e-01 2.191136e-01 1.360953e-01 -1.280044e-01 -9.770518e-02 -2.113649e-01 3.103143e-01
<VARIANCE> 39
 2.362156e+01 5.264331e+01 5.792213e+01 1.160403e+02 1.231608e+02 1.840449e+02 1.233384e+02 1.894254e+02 1.402529e+02 1.444802e+02 1.395244e+02 1.357770e+02 3.894438e+01 2.156513e+00 3.780745e+00 5.496838e+00 5.652235e+00 6.499719e+00 1.706974e+01 9.688753e+00 1.049639e+01 9.518497e+00 9.338501e+00 8.830901e+00 7.470757e+00 4.252151e+00 2.920483e-01 6.464757e-01 9.730434e-01 1.036353e+00 1.190599e+00 2.020876e+00 1.749268e+00 2.167627e+00 1.892580e+00 1.801044e+00 1.936894e+00 1.480419e+00 4.284129e-01
<GCONST> 1.581055e+02
<STATE> 3
<MEAN> 39
 8.632755e+00 3.696394e-02 4.047443e+00 -2.696392e+00 -8.407584e+00 -1.831603e+01 -1.231546e+01 -9.436216e+00 -8.632335e+00 -4.139734e+00 -3.087922e+00 9.779157e-01 7.371778e+00 -9.034534e-01 -1.055263e+00 -1.837886e+00 -1.203357e+00 8.318381e-01 2.914607e+00 9.221560e-01 3.676758e-01 5.203356e-01 -6.374159e-01 -5.972386e-01 -8.767734e-01 1.712222e+00 -5.165384e-01 4.957003e-02 -5.310477e-01 8.873350e-02 6.807641e-01 1.026994e+00 7.263890e-01 6.534598e-01 4.681030e-01 2.349336e-01 1.495989e-01 -8.026741e-03 -2.753970e-01
<VARIANCE> 39
 3.595039e+01 1.176896e+02 1.121040e+02 1.418211e+02 1.212721e+02 2.922777e+02 1.708589e+02 1.806078e+02 1.512072e+02 1.580618e+02 1.303227e+02 1.327126e+02 1.177229e+02 6.092297e+00 1.194115e+01 1.611313e+01 1.427691e+01 1.296710e+01 2.841162e+01 1.921340e+01 1.803167e+01 1.693136e+01 1.553398e+01 1.334786e+01 1.165395e+01 1.423240e+01 8.015541e-01 2.313517e+00 2.646605e+00 2.147845e+00 1.836579e+00 5.499261e+00 3.970796e+00 3.118907e+00 2.992953e+00 2.909387e+00 2.604481e+00 2.441898e+00 1.593403e+00
<GCONST> 1.815438e+02
<STATE> 4
<MEAN> 39
 2.514017e+00 4.274248e+00 2.361172e+00 -1.902526e+00 -3.522682e-01 -5.027696e+00 -5.741230e+00 -5.016348e+00 -4.986939e+00 -4.478212e+00 -3.651241e+00 -6.130171e-01 1.238062e+00 -1.976961e+00 -9.476933e-01 -2.533298e+00 1.285680e-01 2.189471e+00 3.368793e+00 2.877965e+00 2.818562e+00 1.700969e+00 8.397074e-01 4.675500e-01 3.933902e-02 -2.468943e-01 2.197851e-01 -2.056717e-01 -5.820356e-03 2.093505e-01 -3.640959e-01 -5.509903e-01 -1.578475e-01 1.112529e-01 2.415932e-01 4.473474e-01 3.406133e-01 2.104868e-01 -5.414926e-02
<VARIANCE> 39
 5.200924e+01 8.761544e+01 1.698278e+02 2.217500e+02 9.768999e+01 1.841945e+02 1.366590e+02 1.274569e+02 1.177495e+02 1.293226e+02 1.066953e+02 1.255800e+02 1.759757e+02 5.778783e+00 1.201289e+01 1.446508e+01 1.240180e+01 1.039157e+01 2.220893e+01 1.846552e+01 1.599002e+01 1.523760e+01 1.588714e+01 1.523698e+01 1.235503e+01 8.301323e+00 5.949518e-01 9.956779e-01 1.795045e+00 2.069852e+00 1.744960e+00 2.478591e+00 2.362112e+00 2.244977e+00 2.214956e+00 2.106818e+00 2.090436e+00 1.730205e+00 8.228112e-01
<GCONST> 1.744603e+02
<TRANSP> 5
 0.000000e+00 1.000000e+00 0.000000e+00 0.000000e+00 0.000000e+00
 0.000000e+00 7.758549e-01 2.241451e-01 0.000000e+00 0.000000e+00
 0.000000e+00 0.000000e+00 5.541319e-01 4.458681e-01 0.000000e+00
 0.000000e+00 0.000000e+00 0.000000e+00 4.441551e-01 5.558449e-01
 0.000000e+00 0.000000e+00 0.000000e+00 0.000000e+00 0.000000e+00
<ENDHMM>
~h "n"
<BEGINHMM>
<NUMSTATES> 5
<STATE> 2
<MEAN> 39
 1.171599e+01 7.291556e+00 5.423490e+00 -1.102086e+01 -1.203712e+01 -1.875894e+01 -8.907056e+00 -1.134834e+01 -9.450658e+00 -4.735366e+00 -5.565410e+00 -4.198658e-01 4.624261e+00 -3.981149e-01 -3.409223e-02 1.206098e-01 8.839113e-01 3.031637e-01 5.856820e-01 -1.002447e-01 -2.502972e-01 -3.448125e-02 4.933270e-02 1.575317e-01 -7.795592e-02 -3.552753e-01 -4.663612e-01 -5.705057e-01 -4.042232e-01 4.874245e-01 3.299783e-01 8.893215e-01 2.191462e-01 2.783214e-01 2.527187e-01 -8.521654e-02 1.729415e-01 -7.729951e-02 2.033664e-01
<VARIANCE> 39
 2.137395e+01 4.725827e+01 6.711761e+01 1.140443e+02 8.657618e+01 2.025313e+02 1.502380e+02 1.497722e+02 1.281121e+02 1.238723e+02 1.050777e+02 1.236570e+02 4.145980e+01 2.120205e+00 5.237036e+00 4.813783e+00 6.749799e+00 6.210235e+00 1.158798e+01 9.007759e+00 8.543880e+00 7.918790e+00 9.012915e+00 8.397243e+00 7.342076e+00 4.678929e+00 3.711367e-01 9.299178e-01 9.309348e-01 1.083653e+00 1.201777e+00 2.148673e+00 2.003447e+00 1.815683e+00 1.743543e+00 1.759839e+00 1.594897e+00 1.417306e+00 4.770474e-01
<GCONST> 1.570221e+02
<STATE> 3
<MEAN> 39
 4.393318e+00 2.152689e+00 4.312189e+00 -1.188408e+00 -6.269075e+00 -6.652443e+00 -5.865117e+00 -9.484825e+00 -7.294792e+00 -4.801581e+00 -3.504286e+00 -1.629620e+00 4.125739e+00 -2.290099e+00 -2.533864e+00 -1.914146e+00 1.923649e+00 2.137674e+00 3.991721e+00 1.938317e+00 2.389196e+00 1.406648e+00 2.188241e-02 9.222939e-01 -7.520509e-02 4.318824e-02 1.542807e-01 8.121860e-02 -2.921796e-01 -4.095987e-01 1.028816e-01 -3.253726e-01 1.557471e-01 5.634228e-01 3.238869e-01 3.048697e-01 1.031552e-01 2.411726e-01 -1.163687e-01
<VARIANCE> 39
 3.966267e+01 1.360976e+02 1.142853e+02 1.343570e+02 1.145193e+02 1.796460e+02 1.803869e+02 1.458625e+02 1.155844e+02 1.299272e+02 1.090551e+02 1.201196e+02 2.057835e+02 3.920321e+00 7.373761e+00 9.732597e+00 1.053336e+01 9.737162e+00 1.701681e+01 2.042813e+01 1.777722e+01 1.568180e+01 1.412873e+01 1.229923e+01 1.261361e+01 9.451685e+00 5.670859e-01 1.296599e+00 1.025517e+00 1.210888e+00 1.682948e+00 2.593179e+00 3.053931e+00 2.349468e+00 2.168237e+00 2.066082e+00 1.994513e+00 1.734187e+00 8.191549e-01
<GCONST> 1.720283e+02
<STATE> 4
<MEAN> 39
 4.116992e+00 -4.756669e+00 -4.714939e+00 -2.132347e+00 -6.561260e+00 -5.218709e+00 -5.580929e+00 -4.807220e+00 -5.712465e+00 -5.378187e+00 -9.345831e-01 -1.502336e+00 9.671161e+00 -4.324993e-01 -3.871073e-01 -9.114694e-01 7.726357e-01 1.179627e+00 5.141585e-01 6.921771e-01 1.667824e+00 6.364396e-01 3.972495e-01 5.586771e-01 4.600007e-01 -6.088000e-01 2.523475e-01 4.458354e-01 2.854657e-01 -3.164437e-01 -2.160282e-01 -4.316159e-01 -2.090798e-01 -3.071359e-01 -3.331112e-02 9.319526e-02 -2.270820e-01 3.749932e-02 -1.317926e-01
<VARIANCE> 39
 6.181544e+01 1.789829e+02 1.417888e+02 1.668121e+02 1.266147e+02 2.105086e+02 2.014960e+02 1.853072e+02 1.354451e+02 1.341980e+02 1.089341e+02 1.419607e+02 2.658320e+02 3.499879e+00 3.678887e+00 5.293419e+00 5.147748e+00 6.003620e+00 1.059057e+01 1.091028e+01 1.079346e+01 9.425364e+00 8.090311e+00 8.093437e+00 6.712339e+00 2.076527e+00 4.060764e-01 8.760225e-01 8.661729e-01 1.101857e+00 1.126034e+00 1.656651e+00 2.004758e+00 2.019519e+00 1.916522e+00 1.843167e+00 1.457904e+00 1.463333e+00 1.037112e+00
<GCONST> 1.636542e+02
<TRANSP> 5
 0.000000e+00 1.000000e+00 0.000000e+00 0.000000e+00 0.000000e+00
 0.000000e+00 7.866610e-01 2.133390e-01 0.000000e+00 0.000000e+00
 0.000000e+00 0.000000e+00 5.504856e-01 4.495143e-01 0.000000e+00
 0.000000e+00 0.000000e+00 0.000000e+00 5.114500e-01 4.885500e-01
 0.000000e+00 0.000000e+00 0.000000e+00 0.000000e+00 0.000000e+00
<ENDHMM>
~h "p"
<BEGINHMM>
<NUMSTATES> 5
<STATE> 2
<MEAN> 39
 -4.891243e+00 1.669959e+00 4.871266e+00 3.508476e+00 4.219569e+00 7.247575e+00 7.714035e+00 6.028652e+00 4.009634e+00 2.560214e+00 3.283926e+00 1.108218e+00 -5.573678e+00 2.273526e+00 -1.945482e+00 -3.270415e+00 -1.685464e+00 -1.573832e+00 -2.210544e+00 -1.014050e+00 -8.217532e-01 -6.749083e-01 -1.735952e+00 -8.595830e-01 -8.335420e-01 5.545546e+00 1.226444e+00 -7.233219e-01 -1.756790e+00 -6.713464e-01 -5.953784e-01 -1.070521e+00 -9.070037e-01 -6.302115e-01 -5.642302e-01 -5.243029e-01 -6.219490e-01 -1.912727e-01 1.349611e+00
<VARIANCE> 39
 3.281657e+01 5.886063e+01 5.610852e+01 8.199969e+01 8.142554e+01 9.436576e+01 1.021374e+02 1.003540e+02 9.306896e+01 9.315322e+01 8.186992e+01 7.801404e+01 1.140750e+02 1.064615e+01 1.013616e+01 2.135342e+01 1.142839e+01 1.133629e+01 1.535715e+01 1.382730e+01 1.335735e+01 1.258424e+01 1.118983e+01 1.276968e+01 1.176717e+01 1.358833e+01 1.132043e+00 1.829598e+00 2.406823e+00 2.078418e+00 2.064755e+00 2.459411e+00 2.494073e+00 2.616113e+00 2.383075e+00 2.449175e+00 2.254037e+00 2.230336e+00 2.245838e+00
<GCONST> 1.715783e+02
<STATE> 3
<MEAN> 39
 1.224046e+01 -1.093773e+01 -2.199235e+01 -7.563015e+00 -4.362215e+00 -7.489332e+00 -3.274853e+00 -1.442665e+00 -2.627902e+00 -5.608211e+00 -5.348450e+00 -3.377633e+00 2.020444e+01 1.899071e+00 -1.910678e+00 -4.182131e+00 -2.225183e+00 -9.535515e-01 -2.301608e+00 -2.261468e+00 -1.818675e+00 -1.322097e+00 -1.006935e+00 -1.857207e+00 -9.506630e-01 3.633760e+00 -1.288688e+00 1.019224e+00 2.027091e+00 5.459906e-01 5.873588e-01 8.638240e-01 4.507744e-01 1.261132e-01 2.634056e-01 5.410609e-01 5.146812e-01 3.040951e-01 -1.752309e+00
<VARIANCE> 39
 6.780609e+01 1.232831e+02 2.660809e+02 1.922537e+02 1.370406e+02 1.376291e+02 1.598570e+02 1.485041e+02 1.456574e+02 1.416339e+02 1.234298e+02 1.215975e+02 8.372968e+01 1.215049e+01 1.660205e+01 3.586255e+01 1.867387e+01 1.548791e+01 1.814507e+01 1.691704e+01 1.701027e+01 1.691150e+01 1.996473e+01 1.391761e+01 1.382944e+01 1.509614e+01 1.047013e+00 1.757909e+00 4.006739e+00 2.248666e+00 2.338942e+00 2.946552e+00 2.792998e+00 2.776774e+00 3.158876e+00 2.995091e+00 2.677579e+00 2.733202e+00 1.170985e+00
<GCONST> 1.835424e+02
<STATE> 4
<MEAN> 39
 1.138496e+01 -1.072349e+01 -1.950722e+01 -6.490087e+00 -6.118136e+00 -1.096138e+01 -6.897598e+00 -6.837232e+00 -6.030977e+00 -5.785328e+00 -6.458397e+00 -3.267804e+00 1.969527e+01 -3.727120e-01 7.121902e-01 1.374826e+00 -3.608166e-01 -3.126945e-01 -2.495858e-01 -2.796220e-01 -4.591331e-01 -2.109162e-01 1.180414e-01 1.282663e-01 2.959127e-01 -3.649731e-01 -1.841076e-02 1.718149e-01 2.280022e-01 7.558818e-02 1.553901e-02 1.021062e-01 1.103402e-01 1.645996e-01 1.144639e-01 2.209181e-02 1.300725e-01 6.267459e-02 -2.392709e-01
<VARIANCE> 39
 4.958813e+01 1.461648e+02 2.374857e+02 2.270993e+02 1.929693e+02 1.461656e+02 1.458102e+02 1.386610e+02 1.554486e+02 1.662875e+02 1.024819e+02 1.067844e+02 8.175961e+01 9.522921e-01 3.291895e+00 4.881805e+00 4.678552e+00 4.800234e+00 6.732611e+00 7.384914e+00 7.215433e+00 7.967749e+00 7.117570e+00 6.958999e+00 6.043427e+00 9.762066e-01 2.527155e-01 5.060011e-01 1.119526e+00 9.057760e-01 9.668570e-01 1.246564e+00 1.230873e+00 1.356652e+00 1.398742e+00 1.285082e+00 1.258521e+00 1.174364e+00 2.666863e-01
<GCONST> 1.532744e+02
<TRANSP> 5
 0.000000e+00 1.000000e+00 0.000000e+00 0.000000e+00 0.000000e+00
 0.000000e+00 7.232343e-01 2.767657e-01 0.000000e+00 0.000000e+00
 0.000000e+00 0.000000e+00 7.170867e-01 2.829133e-01 0.000000e+00
 0.000000e+00 0.000000e+00 0.000000e+00 7.869257e-01 2.130743e-01
 0.000000e+00 0.000000e+00 0.000000e+00 0.000000e+00 0.000000e+00
<ENDHMM>
~h "r"
<BEGINHMM>
<NUMSTATES> 5
<STATE> 2
<MEAN> 39
 1.873109e+00 -3.497721e+00 1.808276e+00 -7.495329e+00 -8.067384e+00 -1.701389e+00 -8.068008e-01 -6.188709e+00 -4.897253e-01 -4.937608e+00 -1.792915e+00 -1.307118e+00 1.204967e+01 7.323611e-01 -1.236776e+00 -7.834971e-01 -1.865366e+00 -6.991179e-01 -8.059415e-01 -2.013797e-01 -2.450268e-01 -1.029985e-01 -1.060988e+00 -6.119845e-02 -4.334888e-01 2.038975e+00 1.452621e-01 -5.793734e-01 -5.880386e-01 -1.138651e-01 2.383219e-01 -2.209751e-01 -1.071289e-01 8.102549e-02 -2.386108e-01 -1.664740e-01 2.213623e-02 -1.811583e-01 4.076562e-01
<VARIANCE> 39
 7.645521e+01 1.327541e+02 1.090771e+02 2.268756e+02 1.554941e+02 1.726376e+02 1.845219e+02 1.501929e+02 1.472159e+02 1.338758e+02 1.260119e+02 1.159769e+02 1.449258e+02 9.871162e+00 1.331940e+01 1.191464e+01 2.216514e+01 1.440668e+01 1.688198e+01 1.671251e+01 1.727019e+01 1.586234e+01 1.492670e+01 1.299411e+01 1.177248e+01 1.417587e+01 1.930968e+00 2.498246e+00 2.382700e+00 4.215751e+00 2.795102e+00 3.333387e+00 3.189078e+00 3.484577e+00 3.177425e+00 2.876120e+00 2.871899e+00 2.522811e+00 2.574980e+00
<GCONST> 1.843236e+02
<STATE> 3
<MEAN> 39
 5.057869e+00 -1.616796e+01 -6.058063e+00 -1.265032e+01 -8.256504e+00 -6.489941e+00 -1.117670e+00 -9.538871e+00 -4.040018e+00 -1.161111e+01 -6.006700e-01 -5.448454e+00 2.414500e+01 1.044210e-01 -1.070732e+00 -1.565813e+00 5.339965e-01 9.119565e-01 -1.374982e+00 -9.543828e-01 4.108912e-02 -8.761770e-01 -7.054455e-01 -1.274764e-02 -5.356652e-01 1.048625e+00 -2.483418e-01 9.858357e-01 3.251753e-01 8.183384e-01 2.238861e-01 -2.587258e-02 -2.232917e-01 3.215268e-01 7.282041e-02 6.120748e-01 -1.489864e-01 4.059329e-01 -9.355116e-01
<VARIANCE> 39
 5.261954e+01 1.547923e+02 8.976463e+01 2.156545e+02 1.158086e+02 1.822253e+02 2.261990e+02 1.921156e+02 1.305602e+02 1.446162e+02 1.223248e+02 1.121481e+02 9.256626e+01 3.940911e+00 9.570930e+00 9.270334e+00 1.302429e+01 9.752661e+00 1.431455e+01 1.610315e+01 1.586739e+01 1.141609e+01 1.325860e+01 1.373149e+01 1.198696e+01 6.317038e+00 7.381181e-01 1.021222e+00 1.381706e+00 2.166055e+00 1.589026e+00 2.519704e+00 2.497355e+00 2.740076e+00 2.193032e+00 2.372010e+00 2.089726e+00 2.097610e+00 6.954027e-01
<GCONST> 1.728502e+02
<STATE> 4
<MEAN> 39
 4.986093e+00 -1.726023e+01 -9.194529e+00 -5.922292e+00 -5.916072e+00 -8.102842e+00 -5.564758e+00 -1.021477e+01 -7.409324e+00 -9.572375e+00 -1.904170e+00 -3.575286e+00 2.430902e+01 2.509414e-01 8.944977e-01 -2.450038e-01 5.905687e-01 3.045955e-01 -6.376232e-01 -9.022818e-01 7.185289e-01 -1.553016e-01 3.685677e-01 -3.614768e-01 3.181351e-01 -7.555875e-01 3.989181e-02 4.791407e-01 2.732320e-01 -1.155150e-01 -1.411094e-01 4.445849e-03 6.512384e-02 4.866026e-02 2.312628e-01 1.553106e-01 -9.514132e-02 8.580852e-04 -4.025817e-01
<VARIANCE> 39
 4.292224e+01 1.086033e+02 1.093384e+02 1.914492e+02 1.078875e+02 1.473848e+02 1.996973e+02 1.776455e+02 1.263403e+02 1.258786e+02 1.010964e+02 8.776305e+01 9.085531e+01 1.369367e+00 4.495998e+00 5.506429e+00 7.388306e+00 5.271181e+00 7.834050e+00 8.221309e+00 8.014462e+00 7.816270e+00 7.117570e+00 7.148212e+00 6.136422e+00 2.175917e+00 2.503091e-01 5.140491e-01 6.759974e-01 1.047261e+00 8.683005e-01 1.226122e+00 1.230873e+00 1.415490e+00 1.398742e+00 1.297635e+00 1.258521e+00 1.174364e+00 3.088082e-01
<GCONST> 1.535415e+02
<TRANSP> 5
 0.000000e+00 1.000000e+00 0.000000e+00 0.000000e+00 0.000000e+00
 0.000000e+00 6.577077e-01 3.422923e-01 0.000000e+00 0.000000e+00
 0.000000e+00 0.000000e+00 5.471537e-01 4.528463e-01 0.000000e+00
 0.000000e+00 0.000000e+00 0.000000e+00 7.297852e-01 2.702148e-01
 0.000000e+00 0.000000e+00 0.000000e+00 0.000000e+00 0.000000e+00
<ENDHMM>
~h "s"
<BEGINHMM>
<NUMSTATES> 5
<STATE> 2
<MEAN> 39
 -1.647706e+01 3.732907e+00 1.819435e+00 8.003112e+00 4.983515e+00 8.681814e+00 6.671964e+00 6.305708e+00 5.895641e+00 3.179059e+00 3.220801e+00 2.196635e+00 -1.945410e+00 7.732861e-01 -6.970149e-01 -2.972257e-01 -7.823762e-01 -6.656422e-01 -2.218844e-01 -1.471014e-01 -5.566489e-01 -2.776041e-01 -1.947917e-01 -1.228081e-01 7.846767e-02 6.914058e-01 9.872671e-01 -3.435478e-01 -2.387912e-01 -5.887097e-01 -5.957219e-01 -5.207350e-01 -5.042145e-01 -6.276820e-01 -4.460206e-01 -3.125906e-01 -2.656003e-01 -1.591947e-01 5.321674e-01
<VARIANCE> 39
 4.177286e+01 4.626966e+01 6.256421e+01 7.745184e+01 8.630766e+01 9.267268e+01 1.021374e+02 9.713129e+01 9.306896e+01 8.801827e+01 8.186992e+01 7.801404e+01 3.528271e+01 1.141541e+01 5.150610e+00 5.486843e+00 1.010563e+01 1.075081e+01 1.042944e+01 1.116452e+01 1.276370e+01 1.169592e+01 9.995746e+00 1.012890e+01 8.485914e+00 5.182968e+00 1.001931e+00 1.102153e+00 1.156349e+00 1.523344e+00 1.760997e+00 1.929971e+00 2.118186e+00 2.200609e+00 2.073636e+00 2.073512e+00 1.943190e+00 1.663956e+00 1.021417e+00
<GCONST> 1.619659e+02
<STATE> 3
<MEAN> 39
 5.053206e+00 -9.023506e+00 -6.850386e+00 -7.396184e+00 -1.073386e+01 -1.827219e+00 -2.488777e+00 -8.766713e+00 -5.062075e+00 -4.380356e+00 -2.433040e+00 2.376365e-02 1.522701e+01 3.019991e+00 -3.813436e+00 -2.437162e+00 -2.294681e+00 -1.950772e+00 -1.917876e+00 -2.313212e+00 -2.417736e+00 -1.811163e+00 -1.909202e+00 -1.079521e+00 -7.865789e-01 5.015689e+00 -1.577087e+00 5.881299e-01 5.901833e-01 1.168719e+00 1.396745e+00 4.903637e-01 2.106643e-01 9.818446e-01 7.155900e-01 3.824594e-01 3.889546e-01 -1.572176e-02 -7.657240e-01
<VARIANCE> 39
 7.761987e+01 1.633169e+02 1.009657e+02 1.528127e+02 1.114639e+02 1.614477e+02 1.701391e+02 1.559837e+02 1.473124e+02 1.444442e+02 1.726602e+02 1.156581e+02 1.655541e+02 1.670254e+01 1.424249e+01 1.185347e+01 1.826943e+01 1.820595e+01 1.814391e+01 1.882914e+01 2.130354e+01 1.641430e+01 1.827431e+01 1.611048e+01 1.344316e+01 1.370550e+01 1.459049e+00 2.199910e+00 1.943640e+00 2.188097e+00 2.078727e+00 2.591454e+00 2.716516e+00 2.903209e+00 2.614248e+00 2.933459e+00 3.179849e+00 2.326380e+00 2.350295e+00
<GCONST> 1.833289e+02
<STATE> 4
<MEAN> 39
 2.836024e+00 -1.765652e+01 -6.688409e+00 -3.626284e+00 -7.026466e+00 -3.480858e+00 -1.105782e+01 -1.090454e+01 -6.732176e+00 -7.263484e+00 -1.397263e+00 -2.074036e+00 2.333200e+01 -5.861606e-03 4.238302e-01 -9.839647e-02 4.173539e-01 8.982224e-01 -8.394190e-01 -5.588790e-01 6.242427e-01 -9.131919e-02 -4.692424e-02 6.607772e-02 -5.904832e-02 -2.614635e-01 2.498103e-02 6.472776e-01 1.109992e-01 -7.530827e-03 1.386508e-01 7.992716e-02 2.850862e-01 2.513315e-01 1.861659e-01 1.467597e-01 -5.328982e-02 1.256440e-01 -6.782470e-01
<VARIANCE> 39
 5.619122e+01 1.298441e+02 8.782337e+01 1.849658e+02 1.017597e+02 1.378380e+02 2.214902e+02 1.585386e+02 1.385668e+02 1.441707e+02 1.215979e+02 1.082799e+02 1.404128e+02 1.958079e+00 3.209830e+00 5.040704e+00 5.727416e+00 4.800234e+00 6.889104e+00 8.479147e+00 7.215433e+00 7.816270e+00 7.181856e+00 7.904556e+00 6.043427e+00 1.632443e+00 5.253314e-01 8.683599e-01 7.801055e-01 1.143692e+00 1.121164e+00 1.305473e+00 1.430289e+00 1.509810e+00 1.398742e+00 1.549805e+00 1.360081e+00 1.262023e+00 8.930297e-01
<GCONST> 1.572656e+02
<TRANSP> 5
 0.000000e+00 1.000000e+00 0.000000e+00 0.000000e+00 0.000000e+00
 0.000000e+00 8.644493e-01 1.355507e-01 0.000000e+00 0.000000e+00
 0.000000e+00 0.000000e+00 6.500642e-01 3.499358e-01 0.000000e+00
 0.000000e+00 0.000000e+00 0.000000e+00 6.588825e-01 3.411176e-01
 0.000000e+00 0.000000e+00 0.000000e+00 0.000000e+00 0.000000e+00
<ENDHMM>
~h "t"
<BEGINHMM>
<NUMSTATES> 5
<STATE> 2
<MEAN> 39
 -4.283883e+00 1.844861e+00 4.231637e+00 3.806671e+00 5.232615e+00 8.604092e+00 6.590777e+00 5.200755e+00 3.770742e+00 4.545772e+00 3.457801e+00 2.351366e+00 -9.642668e+00 -8.466017e-01 -9.972876e-01 -4.555289e-01 3.950553e-02 3.008621e-01 8.599339e-01 5.373263e-01 6.508681e-01 6.251413e-01 -1.861372e-01 1.395572e-01 -1.907493e-01 1.454538e+00 5.403039e-01 -3.778039e-01 -5.449306e-01 -9.322175e-01 -9.154861e-01 -7.038264e-01 -7.229782e-01 -7.607774e-01 -3.523825e-01 -6.542572e-01 -3.738959e-01 -2.143805e-01 1.559463e+00
<VARIANCE> 39
 2.793740e+01 4.899565e+01 6.332326e+01 8.890612e+01 9.165104e+01 1.034560e+02 1.054478e+02 1.160739e+02 9.347089e+01 9.152799e+01 8.186992e+01 7.801404e+01 5.351827e+01 4.063185e+00 5.361273e+00 7.112562e+00 1.096771e+01 1.251801e+01 1.332858e+01 1.502241e+01 1.497145e+01 1.108440e+01 1.258499e+01 1.098861e+01 8.819678e+00 2.003333e+01 6.691224e-01 1.233577e+00 1.355868e+00 1.730508e+00 1.918103e+00 2.303328e+00 2.561765e+00 2.622058e+00 2.249707e+00 2.046216e+00 2.181378e+00 1.785103e+00 1.659809e+00
<GCONST> 1.658250e+02
<STATE> 3
<MEAN> 39
 4.011879e-01 -7.153125e+00 -5.117990e+00 -6.767378e+00 -6.434844e+00 2.136452e+00 -1.019297e+00 -4.618526e+00 9.572433e-01 -4.781656e+00 -9.937127e-01 -9.304039e-01 1.518813e+01 1.489030e+00 -7.549304e-01 -1.286947e+00 -1.874274e+00 -2.065836e+00 -1.731207e+00 -7.394238e-01 -1.775404e+00 -1.160550e+00 -1.116851e+00 -1.059035e+00 -7.431191e-01 2.620524e+00 1.240422e-01 5.136234e-01 3.262897e-01 5.132264e-01 4.369344e-01 -3.920027e-01 1.349804e-01 3.228596e-01 -2.355412e-01 3.934220e-01 3.332726e-02 8.860260e-02 -1.254751e+00
<VARIANCE> 39
 9.620519e+01 1.285977e+02 1.321233e+02 1.741775e+02 1.541518e+02 2.043510e+02 2.199193e+02 2.009350e+02 1.504366e+02 1.465220e+02 1.504696e+02 1.101957e+02 2.035916e+02 8.036131e+00 1.588178e+01 1.552210e+01 2.182540e+01 1.686150e+01 1.956457e+01 2.080419e+01 2.259985e+01 1.628706e+01 1.622083e+01 1.577057e+01 1.292099e+01 2.965649e+01 1.695910e+00 2.044642e+00 2.042101e+00 2.937359e+00 2.982811e+00 3.463863e+00 3.375603e+00 4.021710e+00 3.164096e+00 2.933480e+00 3.044568e+00 2.451403e+00 2.870715e+00
<GCONST> 1.874118e+02
<STATE> 4
<MEAN> 39
 -5.347063e-01 -6.447021e-01 -2.980588e-01 -1.787853e+00 -1.395877e+00 3.030866e+00 2.589508e+00 -7.354538e-01 8.809151e-01 -5.052646e-01 -9.738514e-02 5.936518e-01 1.499956e-01 2.665097e-01 4.260311e-01 -1.794505e-02 3.319331e-01 3.839503e-01 -7.378602e-01 1.143430e-01 6.410286e-01 -3.032975e-01 4.147129e-01 4.642724e-02 9.992903e-02 -7.777236e-01 3.040887e-02 -3.027850e-02 1.072216e-01 6.893963e-02 4.684962e-02 -1.406273e-01 -1.356485e-01 4.356365e-02 3.142168e-02 2.958865e-02 1.327970e-01 3.827835e-02 8.482246e-02
<VARIANCE> 39
 5.376490e+01 9.167694e+01 9.415898e+01 1.391273e+02 1.471394e+02 1.856697e+02 1.541776e+02 1.656025e+02 1.315060e+02 1.192159e+02 1.035490e+02 9.339435e+01 2.150983e+02 5.338627e+00 6.646727e+00 7.669256e+00 8.577521e+00 1.017206e+01 1.664623e+01 1.321118e+01 1.465624e+01 1.326123e+01 1.303473e+01 9.807871e+00 9.342431e+00 9.030598e+00 7.720739e-01 1.814200e+00 1.676103e+00 1.931720e+00 2.225533e+00 2.656633e+00 2.769350e+00 2.985686e+00 2.560944e+00 2.545039e+00 2.123283e+00 2.062347e+00 2.464986e+00
<GCONST> 1.739104e+02
<TRANSP> 5
 0.000000e+00 1.000000e+00 0.000000e+00 0.000000e+00 0.000000e+00
 0.000000e+00 7.065730e-01 2.934270e-01 0.000000e+00 0.000000e+00
 0.000000e+00 0.000000e+00 6.198728e-01 3.801271e-01 0.000000e+00
 0.000000e+00 0.000000e+00 0.000000e+00 4.136743e-01 5.863258e-01
 0.000000e+00 0.000000e+00 0.000000e+00 0.000000e+00 0.000000e+00
<ENDHMM>
~h "w"
<BEGINHMM>
<NUMSTATES> 5
<STATE> 2
<MEAN> 39
 1.186098e+01 -6.405693e+00 -9.085569e+00 -1.435632e+00 -1.126744e+01 -1.389510e+01 -4.060879e+00 -7.229456e-01 -6.897886e+00 -4.766636e+00 -3.504137e+00 -5.210427e+00 1.252740e+01 -4.788654e-01 -4.654414e-01 -4.014126e-02 -3.620713e-01 -1.407173e-01 3.797698e-01 5.375139e-01 -4.412575e-01 -2.829549e-01 -6.741015e-02 1.501831e-01 5.568726e-02 9.861417e-01 -3.683211e-01 1.994412e-01 1.974833e-01 -5.603561e-01 3.670271e-01 5.499461e-01 -2.228247e-01 -3.494916e-01 3.616583e-01 1.364001e-02 -1.279741e-01 1.907483e-01 1.091058e-01
<VARIANCE> 39
 5.279420e+01 1.880595e+02 1.398569e+02 1.376173e+02 1.626782e+02 1.393996e+02 1.776517e+02 2.116997e+02 1.522165e+02 1.385497e+02 1.391059e+02 1.053277e+02 1.395294e+02 4.654190e+00 9.254399e+00 1.120195e+01 1.606647e+01 1.207566e+01 1.611813e+01 1.652279e+01 1.817256e+01 1.516752e+01 1.323049e+01 1.331948e+01 8.984420e+00 9.718780e+00 5.996976e-01 1.248549e+00 1.380138e+00 1.908280e+00 2.404180e+00 2.265888e+00 3.279174e+00 3.034810e+00 2.762282e+00 2.416646e+00 2.559010e+00 1.826300e+00 1.018379e+00
<GCONST> 1.762192e+02
<STATE> 3
<MEAN> 39
 2.535828e+00 -1.076583e+01 -2.097868e+00 -1.023880e+01 -1.023211e+01 -2.500154e+00 -7.395748e+00 -1.123625e+01 -3.546645e+00 -2.759168e+00 -6.305604e+00 -1.989797e+00 2.125482e+01 -1.207576e+00 1.704264e+00 1.404078e-01 -2.741054e+00 2.425797e+00 8.982112e-01 -1.908441e+00 3.761324e-01 1.487279e+00 -1.525654e+00 -1.374573e-01 1.190928e+00 3.628860e-01 2.778485e-01 3.752975e-01 -5.466174e-01 4.545014e-01 3.868632e-01 -7.786081e-01 3.131007e-01 7.354876e-01 -3.475060e-01 -1.732426e-01 4.245355e-01 -1.491979e-01 -4.593059e-01
<VARIANCE> 39
 3.702608e+01 2.256273e+02 7.354244e+01 2.095168e+02 8.879258e+01 1.532823e+02 1.940486e+02 1.787531e+02 1.238957e+02 1.587854e+02 9.614931e+01 9.250568e+01 1.679429e+02 1.533310e+00 5.479040e+00 4.644059e+00 7.657739e+00 8.814500e+00 1.098935e+01 9.915167e+00 1.134312e+01 7.823329e+00 8.014123e+00 1.084911e+01 8.858455e+00 1.761844e+00 2.654901e-01 4.649511e-01 7.403195e-01 1.595870e+00 1.077485e+00 1.478997e+00 1.790997e+00 1.416054e+00 1.437514e+00 2.010750e+00 1.258521e+00 1.305053e+00 4.198706e-01
<GCONST> 1.588538e+02
<STATE> 4
<MEAN> 39
 4.237013e+00 -1.561331e+00 -9.256946e+00 -1.589436e+01 -1.493110e+00 -1.001230e+01 -1.006528e+01 -6.265877e+00 -3.903364e+00 -9.964446e+00 -8.113070e+00 -2.551383e+00 1.662261e+01 -1.467113e-02 1.555626e+00 -4.450096e-01 3.856708e-02 3.029662e-01 -6.151360e-01 3.993549e-01 5.823110e-01 1.770749e-01 4.682364e-02 3.605154e-02 -1.399955e-01 -8.561527e-01 6.900772e-02 -1.151643e-01 1.067720e-01 3.087732e-01 -2.776995e-01 5.259905e-02 1.022295e-01 -7.615193e-02 3.408794e-02 1.678376e-01 2.589810e-02 -4.911769e-02 -1.062153e-01
<VARIANCE> 39
 4.385706e+01 1.206303e+02 1.250378e+02 1.721160e+02 1.215197e+02 1.806031e+02 1.891349e+02 1.271585e+02 9.306896e+01 9.570274e+01 8.186992e+01 1.065461e+02 1.174842e+02 1.050278e+00 2.934018e+00 4.600523e+00 4.890617e+00 6.528367e+00 6.732611e+00 7.451247e+00 7.215433e+00 7.816270e+00 7.117570e+00 6.958999e+00 6.145957e+00 8.070496e-01 1.552890e-01 4.013840e-01 5.704774e-01 7.841400e-01 9.588096e-01 1.204860e+00 1.230873e+00 1.356652e+00 1.398742e+00 1.285082e+00 1.258521e+00 1.174364e+00 1.613136e-01
<GCONST> 1.490434e+02
<TRANSP> 5
 0.000000e+00 1.000000e+00 0.000000e+00 0.000000e+00 0.000000e+00
 0.000000e+00 7.827071e-01 2.172929e-01 0.000000e+00 0.000000e+00
 0.000000e+00 0.000000e+00 5.706084e-01 4.293916e-01 0.000000e+00
 0.000000e+00 0.000000e+00 0.000000e+00 7.683096e-01 2.316904e-01
 0.000000e+00 0.000000e+00 0.000000e+00 0.000000e+00 0.000000e+00
<ENDHMM>
~h "y"
<BEGINHMM>
<NUMSTATES> 5
<STATE> 2
<MEAN> 39
 6.795604e+00 1.585510e+01 -8.138166e+00 -1.706651e+01 -1.035108e+01 -1.798978e+01 -6.740012e+00 -5.727108e+00 1.606990e+00 -3.558279e+00 -1.807823e+00 -1.599416e+00 6.546906e+00 1.819717e-01 6.383840e-01 2.123859e+00 3.188000e+00 1.944566e-01 -1.492582e-01 3.543150e-01 -6.289104e-01 -4.182701e-01 7.385315e-01 2.464526e-01 -6.813464e-02 -2.868138e+00 -3.427556e-01 -6.526181e-01 2.942750e-01 6.763203e-01 6.095861e-01 8.334985e-01 1.969320e-01 -1.121563e-01 -3.260649e-01 -1.549729e-01 1.258851e-02 2.378006e-01 -6.097898e-02
<VARIANCE> 39
 2.289699e+01 7.348777e+01 2.068730e+02 1.258489e+02 1.067389e+02 9.846246e+01 1.173321e+02 1.313944e+02 1.239007e+02 1.683305e+02 1.949757e+02 2.542728e+02 5.650885e+01 2.495691e+00 5.355186e+00 7.412173e+00 1.162137e+01 1.011713e+01 1.177076e+01 9.792872e+00 1.046659e+01 1.370371e+01 1.238371e+01 1.619406e+01 1.270299e+01 3.503692e+00 3.447866e-01 7.689790e-01 1.141087e+00 1.764665e+00 1.423607e+00 1.772324e+00 2.039158e+00 2.406250e+00 2.176432e+00 2.376458e+00 2.577721e+00 2.085088e+00 2.813334e-01
<GCONST> 1.650849e+02
<STATE> 3
<MEAN> 39
 2.547016e+00 1.270822e+01 6.929686e+00 1.325544e+00 8.239672e-01 -7.666834e+00 -4.274017e+00 -7.925059e+00 -4.771252e+00 -6.506367e+00 -4.486020e+00 -4.203166e+00 -5.464581e+00 -1.828982e+00 -2.342936e+00 6.217307e-01 3.185380e+00 2.433762e+00 3.589684e+00 2.378174e+00 1.818580e+00 7.067258e-01 1.012456e+00 6.640764e-01 8.561567e-01 -2.435400e+00 -1.388658e-01 -3.328247e-01 -8.483312e-01 -1.176112e+00 -3.384326e-01 1.223600e-01 8.441155e-02 8.958067e-01 1.062851e+00 6.554406e-01 3.932493e-01 1.862456e-01 6.092881e-01
<VARIANCE> 39
 3.314171e+01 5.431034e+01 5.299436e+01 7.745184e+01 1.093870e+02 1.185957e+02 1.056494e+02 1.141950e+02 1.374631e+02 1.274054e+02 1.274451e+02 1.742384e+02 3.342683e+01 3.232219e+00 4.626494e+00 7.327579e+00 1.073353e+01 1.109485e+01 1.169464e+01 1.119062e+01 1.615814e+01 1.451550e+01 1.398024e+01 1.345479e+01 1.301549e+01 2.387068e+00 3.963274e-01 5.584339e-01 8.407772e-01 1.568524e+00 1.618482e+00 1.690540e+00 1.786296e+00 2.126915e+00 2.364039e+00 2.362880e+00 2.141053e+00 2.120130e+00 6.521844e-01
<GCONST> 1.620464e+02
<STATE> 4
<MEAN> 39
 -3.020039e+00 4.260714e+00 2.677514e+00 2.896974e+00 3.272720e+00 1.619725e+00 4.338622e+00 2.721033e+00 4.796010e+00 2.818408e+00 1.241177e+00 1.401824e+00 -8.947038e+00 -8.717310e-01 -1.509192e+00 -4.397457e-01 4.367560e-01 6.776860e-01 1.800006e+00 1.281495e+00 2.184598e+00 1.755101e+00 2.117060e+00 1.428871e+00 1.050482e+00 -8.366140e-01 5.216116e-01 5.323548e-01 -5.163831e-02 -9.665580e-01 -6.415337e-01 -8.906708e-01 -7.061695e-01 -5.730019e-01 -5.632933e-01 -5.614985e-01 -4.528793e-01 -3.480156e-01 7.980165e-01
<VARIANCE> 39
 4.881834e+01 4.457491e+01 5.299436e+01 7.745184e+01 1.052016e+02 1.377356e+02 1.407121e+02 1.135093e+02 1.146589e+02 1.174014e+02 9.168102e+01 1.022629e+02 3.528035e+01 1.754684e+00 3.080121e+00 3.881490e+00 5.530629e+00 8.377603e+00 9.066917e+00 9.046864e+00 1.187713e+01 1.029138e+01 1.117754e+01 1.099043e+01 1.032490e+01 9.664959e-01 5.655850e-01 7.331091e-01 1.427233e+00 2.944807e+00 1.880498e+00 2.155598e+00 2.435533e+00 2.347973e+00 2.040557e+00 2.212647e+00 2.051845e+00 2.123234e+00 8.041052e-01
<GCONST> 1.588225e+02
<TRANSP> 5
 0.000000e+00 1.000000e+00 0.000000e+00 0.000000e+00 0.000000e+00
 0.000000e+00 7.515776e-01 2.484224e-01 0.000000e+00 0.000000e+00
 0.000000e+00 0.000000e+00 5.984660e-01 4.015340e-01 0.000000e+00
 0.000000e+00 0.000000e+00 0.000000e+00 4.514443e-01 5.485557e-01
 0.000000e+00 0.000000e+00 0.000000e+00 0.000000e+00 0.000000e+00
<ENDHMM>
~h "aa"
<BEGINHMM>
<NUMSTATES> 5
<STATE> 2
<MEAN> 39
 6.812963e+00 -1.856345e+01 -1.526171e+01 -4.565775e-01 -3.884128e+00 -6.786561e+00 -6.545256e+00 -8.132100e+00 -7.047410e+00 -8.438309e+00 -1.728146e+00 -2.015925e+00 2.335614e+01 7.343844e-01 2.907224e+00 1.577933e+00 -7.334930e-01 -2.239917e-01 -5.465274e-01 -2.548416e-01 5.832508e-01 3.092097e-01 5.618758e-01 -3.902022e-01 4.528999e-02 -2.680816e+00 -3.375643e-01 1.220144e+00 1.172370e+00 1.470879e-01 -6.011321e-02 4.476891e-02 4.032194e-01 2.011222e-01 2.739562e-01 4.980148e-01 6.653666e-02 2.033697e-01 -1.405954e+00
<VARIANCE> 39
 6.300363e+01 1.057550e+02 1.560959e+02 1.920178e+02 1.590879e+02 1.407096e+02 1.603689e+02 1.648190e+02 1.637127e+02 1.193927e+02 1.064475e+02 1.078999e+02 7.302917e+01 4.526989e+00 1.467526e+01 1.199158e+01 1.280647e+01 1.171221e+01 1.569320e+01 1.482487e+01 1.530315e+01 1.525199e+01 1.376121e+01 1.098851e+01 1.095028e+01 1.619149e+01 1.107046e+00 1.569554e+00 1.836882e+00 2.567989e+00 2.326331e+00 3.392405e+00 2.691024e+00 2.760010e+00 2.967268e+00 2.664759e+00 2.274094e+00 2.115763e+00 1.274291e+00
<GCONST> 1.773540e+02
<STATE> 3
<MEAN> 39
 7.507503e+00 -2.372317e+00 -2.991838e+00 -1.060575e+00 -5.027272e+00 -7.555678e+00 -4.798609e+00 -5.185751e+00 -4.959955e+00 -3.627323e+00 -3.020421e+00 -5.836777e-02 6.578496e+00 -8.527650e-01 3.374914e+00 3.638531e+00 1.024356e+00 5.044631e-01 -6.663179e-02 7.233558e-01 8.069672e-01 3.982494e-01 1.603876e+00 4.996412e-01 9.821173e-01 -4.717960e+00 -3.540142e-01 -1.002266e+00 -4.490952e-01 4.520734e-02 2.464751e-01 4.015458e-01 1.582112e-01 -3.909019e-02 2.303481e-02 -9.855229e-02 2.364212e-01 -5.906423e-02 7.788419e-01
<VARIANCE> 39
 5.412907e+01 1.211963e+02 1.529878e+02 1.785669e+02 1.482719e+02 2.086257e+02 1.847331e+02 1.610733e+02 1.449084e+02 1.331234e+02 1.151142e+02 9.932259e+01 1.184452e+02 7.789884e+00 1.310133e+01 1.145588e+01 1.544930e+01 1.359091e+01 2.672561e+01 1.912406e+01 1.662219e+01 1.436518e+01 1.397748e+01 1.241840e+01 1.062144e+01 1.194889e+01 7.640321e-01 1.485780e+00 1.844406e+00 2.175357e+00 1.816293e+00 2.547139e+00 2.509437e+00 2.386993e+00 2.492385e+00 2.356840e+00 2.146243e+00 1.962054e+00 1.342691e+00
<GCONST> 1.777720e+02
<STATE> 4
<MEAN> 39
 8.535254e+00 -9.660912e+00 -1.277795e+01 4.504099e+00 -7.311041e-01 -8.347301e+00 -7.552589e+00 -4.060066e+00 -5.241002e+00 -6.103473e+00 -3.042348e+00 -4.578072e-01 1.152924e+01 -2.521473e-01 7.613912e-01 8.671016e-01 -6.083994e-02 2.578609e-01 2.149621e-01 -2.426254e-01 8.358522e-02 2.021803e-01 4.517752e-01 8.631967e-02 -1.293625e-02 -1.006642e+00 -4.090169e-02 -2.022275e-01 -2.060239e-01 -7.598901e-02 -4.224662e-02 1.208452e-01 9.052027e-03 -5.154876e-02 -7.721402e-03 -5.707225e-02 -9.232634e-04 -1.005454e-01 2.841949e-01
<VARIANCE> 39
 5.736874e+01 1.374591e+02 2.594185e+02 1.491883e+02 1.422417e+02 1.763321e+02 1.711557e+02 1.303039e+02 1.259314e+02 1.069957e+02 9.370171e+01 9.812003e+01 1.679138e+02 1.992793e+00 3.744007e+00 5.086057e+00 5.154250e+00 4.800234e+00 7.325909e+00 7.384914e+00 7.222991e+00 7.816270e+00 7.117570e+00 6.958999e+00 6.043427e+00 2.860538e+00 3.308954e-01 9.921508e-01 1.064321e+00 9.235365e-01 8.683005e-01 1.398157e+00 1.382843e+00 1.356652e+00 1.398742e+00 1.285082e+00 1.258521e+00 1.174364e+00 7.537720e-01
<GCONST> 1.571223e+02
<TRANSP> 5
 0.000000e+00 1.000000e+00 0.000000e+00 0.000000e+00 0.000000e+00
 0.000000e+00 5.821304e-01 4.178695e-01 0.000000e+00 0.000000e+00
 0.000000e+00 0.000000e+00 4.913698e-01 5.086302e-01 0.000000e+00
 0.000000e+00 0.000000e+00 0.000000e+00 7.059931e-01 2.940069e-01
 0.000000e+00 0.000000e+00 0.000000e+00 0.000000e+00 0.000000e+00
<ENDHMM>
~h "ae"
<BEGINHMM>
<NUMSTATES> 5
<STATE> 2
<MEAN> 39
 -5.590293e-01 -1.245641e+01 -6.155973e+00 -1.376843e+01 1.940665e+00 -5.133166e+00 -1.793379e+01 -1.124538e+01 -5.575843e+00 -9.206044e+00 -1.051645e+00 -2.989555e+00 2.725760e+01 1.178237e-01 8.537223e-01 -7.666980e-01 -1.201003e+00 4.385492e-01 1.736360e-01 5.003837e-01 2.889245e-01 -1.753319e-01 -2.088846e-01 -3.480847e-01 2.599615e-01 -1.225848e-01 1.271142e-01 3.331040e-01 9.931627e-02 -1.300554e-02 -1.853553e-01 1.591741e-02 2.836128e-01 1.184235e-01 8.583330e-02 -5.040319e-03 -8.514754e-02 3.185291e-02 -4.337521e-01
<VARIANCE> 39
 3.840592e+01 7.547118e+01 7.244428e+01 8.351851e+01 9.078369e+01 2.193874e+02 1.021374e+02 9.713129e+01 9.306896e+01 9.730394e+01 9.586191e+01 1.335058e+02 6.491258e+01 9.295488e-01 2.517987e+00 3.204578e+00 4.095375e+00 4.800234e+00 6.732611e+00 7.384914e+00 7.215433e+00 7.816270e+00 7.117570e+00 6.958999e+00 6.043427e+00 8.216980e-01 2.004137e-01 4.013840e-01 5.704774e-01 7.841400e-01 8.683005e-01 1.204860e+00 1.230873e+00 1.356652e+00 1.398742e+00 1.285082e+00 1.258521e+00 1.174364e+00 2.935958e-01
<GCONST> 1.456223e+02
<STATE> 3
<MEAN> 39
 2.961395e+00 -5.813146e+00 -9.394442e+00 -2.449728e+01 -1.008392e+00 -2.326380e+00 -1.014907e+01 -7.084370e+00 -4.315150e+00 -8.882356e+00 -4.438161e+00 -1.369377e-01 2.349797e+01 1.478217e+00 2.897588e+00 1.835715e+00 6.153218e-01 -2.755065e+00 -3.516060e-01 1.749811e+00 1.163942e+00 9.193579e-01 8.338649e-01 -4.814853e-01 -3.476038e-01 -4.172236e+00 -2.292869e-01 3.614704e-01 9.256288e-01 1.830455e+00 5.849993e-03 -2.915403e-01 1.375276e-02 -6.578385e-02 5.150900e-02 6.879035e-01 5.160673e-01 1.305998e-01 -1.378488e+00
<VARIANCE> 39
 4.480257e+01 1.058842e+02 9.781635e+01 1.206005e+02 1.534422e+02 1.751651e+02 1.021374e+02 1.221924e+02 9.306896e+01 8.900846e+01 1.745508e+02 1.208761e+02 7.074177e+01 2.548284e+00 6.165319e+00 6.809605e+00 1.234680e+01 8.941455e+00 1.780391e+01 9.391640e+00 1.016727e+01 9.445412e+00 9.436832e+00 1.037226e+01 9.973840e+00 8.025460e+00 6.911800e-01 1.046798e+00 1.199047e+00 1.411797e+00 2.372882e+00 2.394424e+00 1.857785e+00 2.289060e+00 1.963455e+00 1.914912e+00 2.250777e+00 1.938191e+00 8.730146e-01
<GCONST> 1.664627e+02
<STATE> 4
<MEAN> 39
 4.877375e+00 5.799586e+00 1.413393e+00 -1.031804e+01 -6.156296e+00 -4.836797e+00 -7.885414e+00 -7.129130e+00 -2.809300e+00 -3.165359e+00 -1.962312e+00 7.130100e-01 2.156668e+00 -1.497846e+00 1.341975e+00 2.413813e+00 5.470764e+00 1.474909e+00 1.453051e+00 2.173861e+00 9.263985e-01 7.045733e-01 1.963815e+00 1.679780e+00 9.268306e-01 -5.688097e+00 -7.642118e-01 -1.128129e+00 -7.336928e-01 -1.007379e-01 1.149194e+00 7.297057e-01 4.688253e-01 5.482475e-01 1.852719e-01 -3.560948e-02 1.612388e-01 8.240006e-02 9.968924e-01
<VARIANCE> 39
 3.496665e+01 7.656760e+01 8.262257e+01 1.354189e+02 1.437516e+02 1.656289e+02 1.208528e+02 1.291533e+02 1.379171e+02 1.222357e+02 1.504429e+02 1.107848e+02 8.196594e+01 6.256086e+00 9.639547e+00 9.886830e+00 1.054521e+01 1.747515e+01 2.291411e+01 1.521703e+01 1.738021e+01 1.508320e+01 1.414904e+01 1.580247e+01 1.271410e+01 9.905767e+00 6.656887e-01 1.070116e+00 1.255246e+00 2.343032e+00 2.389411e+00 2.923290e+00 2.403095e+00 2.697339e+00 2.569146e+00 2.310701e+00 2.432713e+00 2.058663e+00 1.309058e+00
<GCONST> 1.739756e+02
<TRANSP> 5
 0.000000e+00 1.000000e+00 0.000000e+00 0.000000e+00 0.000000e+00
 0.000000e+00 8.751463e-01 1.248537e-01 0.000000e+00 0.000000e+00
 0.000000e+00 0.000000e+00 6.674545e-01 3.325455e-01 0.000000e+00
 0.000000e+00 0.000000e+00 0.000000e+00 5.859373e-01 4.140627e-01
 0.000000e+00 0.000000e+00 0.000000e+00 0.000000e+00 0.000000e+00
<ENDHMM>
~h "ah"
<BEGINHMM>
<NUMSTATES> 5
<STATE> 2
<MEAN> 39
 4.207007e+00 -1.098346e+01 -3.772515e+00 -8.241233e+00 -3.354474e+00 -4.945699e+00 -1.744810e+01 -1.137872e+01 -6.160182e+00 -9.558902e+00 -2.279366e+00 -3.665774e+00 2.172274e+01 2.244503e-01 5.433740e-01 1.993898e-01 2.766786e-03 -9.005968e-02 -1.141954e-01 -2.410803e-01 2.259859e-02 6.978902e-02 3.773481e-02 -2.335631e-02 4.809254e-02 -5.773872e-01 5.566663e-02 1.659139e-01 -2.630994e-02 7.778977e-04 -3.766810e-02 6.022742e-04 1.755583e-01 1.617703e-02 -1.295644e-03 3.366585e-02 -1.550479e-02 5.077361e-02 -1.755528e-01
<VARIANCE> 39
 3.411470e+01 8.942086e+01 5.545224e+01 7.745184e+01 7.736720e+01 1.657299e+02 1.285638e+02 1.269874e+02 1.106818e+02 1.085190e+02 8.186992e+01 1.050484e+02 7.340680e+01 9.295488e-01 2.517987e+00 3.204578e+00 4.095375e+00 4.800234e+00 6.732611e+00 7.384914e+00 7.215433e+00 7.816270e+00 7.117570e+00 6.958999e+00 6.043427e+00 8.070496e-01 1.552890e-01 4.013840e-01 5.704774e-01 7.841400e-01 8.683005e-01 1.204860e+00 1.230873e+00 1.356652e+00 1.398742e+00 1.285082e+00 1.258521e+00 1.174364e+00 1.517461e-01
<GCONST> 1.444632e+02
<STATE> 3
<MEAN> 39
 7.105406e+00 -5.199736e+00 -4.009484e-01 -5.965305e+00 -6.013336e+00 -5.776509e+00 -1.555215e+01 -1.400660e+01 -6.351268e+00 -5.913135e+00 -2.165558e+00 -9.455439e-01 1.307312e+01 -2.930385e-01 3.051224e+00 1.495903e+00 1.201943e+00 3.493741e-01 -7.368416e-02 1.798999e+00 7.334884e-01 5.475428e-01 8.343720e-01 -5.447086e-01 6.392585e-01 -3.623111e+00 -6.131907e-01 2.762623e-02 1.833590e-01 3.371602e-01 3.416490e-01 2.712086e-01 6.220307e-01 6.248911e-01 3.900501e-01 2.971024e-01 6.421965e-02 -4.229491e-02 -3.335853e-01
<VARIANCE> 39
 3.510061e+01 1.348714e+02 1.073321e+02 1.480163e+02 1.006449e+02 1.757510e+02 2.303443e+02 1.438439e+02 1.329671e+02 1.471350e+02 1.661217e+02 1.466718e+02 1.298492e+02 4.963852e+00 7.964661e+00 6.193743e+00 9.945509e+00 8.686402e+00 1.231550e+01 1.267215e+01 1.162053e+01 1.132507e+01 1.116371e+01 1.070991e+01 1.277679e+01 5.476395e+00 5.911320e-01 1.758535e+00 1.081231e+00 1.477419e+00 1.552274e+00 2.203348e+00 2.409368e+00 2.070262e+00 2.070596e+00 1.872858e+00 2.085296e+00 2.139776e+00 8.799661e-01
<GCONST> 1.698392e+02
<STATE> 4
<MEAN> 39
 -3.066840e-01 8.093362e-01 5.104843e+00 3.770554e+00 8.725709e-01 8.552290e-01 -5.309345e+00 -6.551257e+00 1.142072e+00 -4.586684e-01 -3.855128e+00 3.432162e-01 -4.610219e-01 -1.877563e+00 2.342702e-01 -8.752415e-02 1.063533e+00 9.651920e-01 1.528341e+00 3.151757e+00 3.058626e+00 2.180959e+00 1.907828e+00 7.643360e-01 3.902085e-01 -2.498308e+00 2.222010e-01 -3.951215e-01 -4.570056e-01 -4.377791e-01 -2.651482e-01 -8.942410e-02 -3.603455e-01 -6.875888e-02 -1.479341e-01 -7.049403e-02 3.598467e-01 2.793402e-02 4.799212e-01
<VARIANCE> 39
 5.111600e+01 6.904732e+01 1.238458e+02 1.814848e+02 1.054026e+02 1.559543e+02 1.223814e+02 1.646397e+02 1.367677e+02 1.772865e+02 1.597386e+02 1.262469e+02 1.036555e+02 4.959355e+00 9.212878e+00 8.061702e+00 9.520137e+00 1.050463e+01 1.639211e+01 1.491045e+01 1.199358e+01 1.219009e+01 1.291924e+01 1.379300e+01 1.299601e+01 2.730061e+00 5.450076e-01 1.252123e+00 1.431306e+00 1.728960e+00 1.525869e+00 1.962365e+00 2.030495e+00 2.085511e+00 2.293853e+00 2.406148e+00 2.220815e+00 2.375946e+00 7.787210e-01
<GCONST> 1.700688e+02
<TRANSP> 5
 0.000000e+00 1.000000e+00 0.000000e+00 0.000000e+00 0.000000e+00
 0.000000e+00 9.044288e-01 9.557122e-02 0.000000e+00 0.000000e+00
 0.000000e+00 0.000000e+00 6.886290e-01 3.113711e-01 0.000000e+00
 0.000000e+00 0.000000e+00 0.000000e+00 5.447837e-01 4.552163e-01
 0.000000e+00 0.000000e+00 0.000000e+00 0.000000e+00 0.000000e+00
<ENDHMM>
~h "am"
<BEGINHMM>
<NUMSTATES> 5
<STATE> 2
<MEAN> 39
 5.963944e+00 -5.911597e+00 2.858388e+00 -9.455709e+00 -7.627556e+00 -1.588059e+01 -1.702715e+01 -8.543809e+00 -6.181890e+00 -8.686148e+00 -5.458565e+00 -3.758267e+00 1.691811e+01 5.274710e-01 1.628368e+00 9.318785e-01 4.742916e-01 -6.728469e-01 -1.739743e+00 1.778721e-01 -3.334923e-02 1.672290e-01 3.979567e-01 -3.932754e-01 2.749636e-01 -1.655967e+00 -4.751412e-02 -4.166434e-02 -1.534371e-01 8.969723e-02 3.889515e-02 3.485821e-01 1.108104e-01 -2.588105e-01 -8.500810e-02 -6.467944e-03 2.344953e-01 2.337139e-02 -6.178529e-03
<VARIANCE> 39
 4.321164e+01 7.918575e+01 1.074666e+02 1.219781e+02 1.018037e+02 2.930293e+02 1.424397e+02 1.456257e+02 1.208138e+02 1.308554e+02 8.774068e+01 1.074780e+02 8.644533e+01 1.203495e+00 5.347886e+00 5.972032e+00 4.095375e+00 4.800234e+00 1.240234e+01 7.605188e+00 9.109912e+00 7.845827e+00 7.300138e+00 6.958999e+00 6.410896e+00 2.060238e+00 2.100600e-01 6.941459e-01 9.572166e-01 7.841400e-01 8.683005e-01 1.963751e+00 1.230873e+00 1.356652e+00 1.398742e+00 1.285082e+00 1.258521e+00 1.174364e+00 2.797247e-01
<GCONST> 1.533084e+02
<STATE> 3
<MEAN> 39
 9.326519e+00 6.883460e+00 9.922363e+00 1.148743e-01 -9.120881e+00 -2.112664e+01 -1.602220e+01 -1.024751e+01 -9.412003e+00 -5.330197e+00 -5.312931e+00 7.713815e-01 1.805343e+00 -1.354715e+00 9.716699e-01 1.596445e-01 1.147131e+00 1.424299e+00 2.528328e+00 1.036084e+00 -3.159713e-01 6.308027e-02 6.301057e-01 7.043672e-01 4.982556e-01 -2.055450e+00 -4.185623e-01 -7.110003e-01 -4.109339e-01 -2.411269e-02 4.641358e-01 9.858318e-01 6.433404e-01 4.327442e-01 3.904781e-01 1.067253e-01 2.747368e-01 -1.611527e-02 1.550352e-01
<VARIANCE> 39
 2.579682e+01 4.872349e+01 5.486686e+01 1.129628e+02 1.259144e+02 1.973459e+02 1.273711e+02 1.511833e+02 1.413463e+02 1.311652e+02 1.106324e+02 1.308312e+02 3.342683e+01 3.537443e+00 5.341331e+00 7.066885e+00 6.283676e+00 8.827439e+00 2.123727e+01 1.365696e+01 1.280974e+01 1.262917e+01 1.203543e+01 1.100217e+01 1.010320e+01 1.790905e+00 4.223745e-01 7.081065e-01 1.253269e+00 9.680581e-01 1.476212e+00 2.620270e+00 2.167408e+00 2.656913e+00 2.483840e+00 2.277788e+00 2.070537e+00 1.831250e+00 2.636290e-01
<GCONST> 1.617191e+02
<STATE> 4
<MEAN> 39
 2.279991e-01 3.138312e+00 6.666719e+00 3.945781e+00 -1.402524e+00 -4.589223e+00 -2.475338e+00 -9.352239e-01 -1.740264e+00 2.356710e+00 1.729573e+00 3.733785e+00 -6.425453e+00 -7.897004e-01 -3.015077e-01 -5.035844e-01 1.850623e-01 9.566811e-01 1.897119e+00 1.528012e+00 1.180519e+00 1.003211e+00 7.871690e-01 7.801360e-01 4.157946e-01 -8.202931e-01 3.008550e-01 5.370189e-02 -4.349965e-02 -1.682793e-01 -2.339819e-01 -4.806914e-01 -3.621309e-01 -1.755902e-01 -1.651516e-01 -1.782583e-01 -2.172155e-01 -1.383674e-01 3.770672e-01
<VARIANCE> 39
 3.064979e+01 5.165244e+01 5.299436e+01 7.745184e+01 1.064652e+02 2.860978e+02 1.273388e+02 1.398366e+02 1.179896e+02 1.151725e+02 1.060815e+02 1.017740e+02 4.853371e+01 2.139800e+00 2.520577e+00 3.204578e+00 4.095375e+00 6.760066e+00 1.035482e+01 9.706339e+00 1.256950e+01 1.193677e+01 9.681013e+00 7.942402e+00 8.114490e+00 9.601092e-01 2.968064e-01 5.298176e-01 7.393557e-01 7.841400e-01 1.233757e+00 2.202203e+00 1.627272e+00 2.098665e+00 2.116652e+00 1.810839e+00 1.433309e+00 1.582743e+00 2.407238e-01
<GCONST> 1.529204e+02
<TRANSP> 5
 0.000000e+00 1.000000e+00 0.000000e+00 0.000000e+00 0.000000e+00
 0.000000e+00 8.676137e-01 1.323863e-01 0.000000e+00 0.000000e+00
 0.000000e+00 0.000000e+00 7.879498e-01 2.120502e-01 0.000000e+00
 0.000000e+00 0.000000e+00 0.000000e+00 7.618546e-01 2.381454e-01
 0.000000e+00 0.000000e+00 0.000000e+00 0.000000e+00 0.000000e+00
<ENDHMM>
~h "aw"
<BEGINHMM>
<NUMSTATES> 5
<STATE> 2
<MEAN> 39
 1.485421e+01 -1.518162e+01 -1.916545e+01 6.331897e-01 2.221570e+00 -6.593393e+00 -1.054967e+01 -2.611419e+00 -1.077717e+01 -7.118052e+00 -4.292984e+00 -1.088890e+00 1.652227e+01 2.528705e-01 2.925246e+00 7.983649e-01 -3.325028e+00 -7.628917e-01 5.646534e-01 8.287655e-01 -7.922886e-01 9.238539e-01 6.871409e-01 -8.005098e-01 -3.069004e-01 -1.473124e+00 -3.545989e-01 4.247433e-01 9.304540e-01 -2.464230e-02 -5.397074e-01 -4.994143e-01 2.917055e-02 -2.222686e-01 2.810779e-01 1.649606e-01 1.750407e-01 -1.879028e-01 -1.234579e-01
<VARIANCE> 39
 3.389911e+01 9.542841e+01 7.374837e+01 1.465605e+02 1.196375e+02 1.054007e+02 1.055489e+02 1.156862e+02 1.242121e+02 8.801827e+01 8.593043e+01 7.801404e+01 5.217061e+01 1.734169e+00 3.322882e+00 1.095235e+01 8.154976e+00 1.186014e+01 1.259199e+01 9.482041e+00 8.272463e+00 1.070295e+01 7.458704e+00 8.223896e+00 6.132352e+00 1.092521e+00 1.552890e-01 4.596412e-01 8.245142e-01 2.284922e+00 1.516375e+00 2.128147e+00 2.295627e+00 1.685579e+00 1.882919e+00 1.285082e+00 1.285463e+00 1.174364e+00 1.517461e-01
<GCONST> 1.538932e+02
<STATE> 3
<MEAN> 39
 1.000303e+01 3.835385e+00 3.361957e-01 -4.361691e+00 -7.675426e+00 -1.845286e+01 -1.213658e+01 -1.243863e+01 -4.614341e+00 -2.913495e+00 5.299686e-01 1.524347e+00 4.465618e+00 -1.066575e+00 1.795969e+00 2.681098e+00 7.164779e-01 -7.038163e-01 -9.785230e-01 -8.571864e-01 -6.972544e-01 9.707033e-01 1.790513e-01 1.220797e+00 5.596011e-01 -1.076670e+00 7.124015e-02 -3.211184e-01 -4.924242e-01 1.984718e-01 4.827326e-01 5.447453e-01 5.135374e-02 2.077965e-01 -3.336736e-01 -4.355611e-02 -2.216137e-01 -9.589462e-02 4.015514e-02
<VARIANCE> 39
 2.137395e+01 6.718579e+01 5.807690e+01 9.175860e+01 9.309073e+01 1.529151e+02 1.154827e+02 1.676042e+02 1.255393e+02 1.154879e+02 2.028969e+02 1.639490e+02 5.241712e+01 9.895974e-01 4.381758e+00 7.159991e+00 1.434509e+01 5.596481e+00 1.325580e+01 1.218157e+01 1.188403e+01 1.188746e+01 9.122581e+00 1.250828e+01 8.613354e+00 8.070496e-01 1.552890e-01 5.822021e-01 8.878334e-01 1.477027e+00 1.155566e+00 2.536993e+00 2.343226e+00 2.407275e+00 1.912509e+00 2.021430e+00 2.548401e+00 1.507620e+00 2.725903e-01
<GCONST> 1.575191e+02
<STATE> 4
<MEAN> 39
 6.385795e+00 7.842526e+00 7.574734e+00 -4.716139e+00 -5.264555e+00 -8.809801e+00 -1.055770e+01 -1.196833e+01 -3.685444e+00 -5.741194e+00 -3.448857e+00 -3.724856e+00 2.716287e+00 -7.469426e-01 2.020618e+00 8.408852e-01 -3.563306e-02 6.178709e-01 2.351916e-02 3.545663e-01 1.199012e+00 2.582903e-01 -5.426455e-01 -1.535004e+00 -1.012243e+00 -1.662867e+00 6.087464e-02 -4.165391e-01 -4.166132e-01 8.525590e-01 1.872643e-01 -4.238999e-02 4.628399e-01 3.488157e-01 -3.986254e-01 2.738355e-01 2.374943e-01 2.083903e-01 -2.853863e-01
<VARIANCE> 39
 2.137395e+01 6.671619e+01 9.896287e+01 3.240981e+02 1.079352e+02 1.473844e+02 1.021374e+02 1.022775e+02 1.323477e+02 1.298061e+02 1.833069e+02 1.203596e+02 1.184221e+02 1.026772e+00 8.426577e+00 4.681648e+00 8.345664e+00 5.507218e+00 1.616031e+01 1.458204e+01 8.268182e+00 1.282766e+01 1.231952e+01 1.133382e+01 8.604511e+00 1.108892e+00 2.500632e-01 4.013840e-01 8.374366e-01 3.425175e+00 2.026145e+00 2.689574e+00 1.644796e+00 1.356652e+00 2.955102e+00 2.857013e+00 2.863904e+00 1.408024e+00 3.120714e-01
<GCONST> 1.612380e+02
<TRANSP> 5
 0.000000e+00 1.000000e+00 0.000000e+00 0.000000e+00 0.000000e+00
 0.000000e+00 8.407376e-01 1.592624e-01 0.000000e+00 0.000000e+00
 0.000000e+00 0.000000e+00 7.552933e-01 2.447068e-01 0.000000e+00
 0.000000e+00 0.000000e+00 0.000000e+00 5.202433e-01 4.797567e-01
 0.000000e+00 0.000000e+00 0.000000e+00 0.000000e+00 0.000000e+00
<ENDHMM>
~h "ay"
<BEGINHMM>
<NUMSTATES> 5
<STATE> 2
<MEAN> 39
 -2.486816e-01 -3.332782e+00 -1.199426e+01 -1.998617e+01 3.229482e+00 -6.655712e+00 -1.395144e+01 -9.334219e+00 -5.800505e+00 -1.279782e+01 -3.077767e+00 -3.501154e+00 2.605157e+01 7.400250e-01 3.669894e+00 -1.799561e+00 -1.507968e+00 -6.948479e-01 -1.454089e+00 2.169875e+00 1.306426e+00 4.005715e-01 1.146581e-01 -6.728577e-01 -4.358046e-01 -1.479225e+00 1.972685e-01 1.487896e-01 3.848185e-01 4.291034e-01 -6.974910e-01 -2.988052e-01 5.724913e-02 -5.894490e-04 2.001609e-01 3.960502e-01 -1.787233e-02 -1.421000e-01 -3.976235e-01
<VARIANCE> 39
 3.744435e+01 1.083791e+02 1.410282e+02 8.977667e+01 9.886807e+01 2.227578e+02 1.091046e+02 9.713129e+01 9.306896e+01 8.801827e+01 1.050910e+02 1.131756e+02 6.501284e+01 9.295488e-01 4.075024e+00 5.374832e+00 5.408006e+00 9.181297e+00 8.040420e+00 7.384914e+00 7.536894e+00 9.043943e+00 7.435127e+00 8.623261e+00 9.758436e+00 1.011241e+00 1.552890e-01 6.962826e-01 1.258504e+00 8.578435e-01 9.969209e-01 1.204860e+00 1.435161e+00 1.356652e+00 1.398742e+00 1.285082e+00 1.525419e+00 1.630872e+00 1.672583e-01
<GCONST> 1.513551e+02
<STATE> 3
<MEAN> 39
 6.453081e+00 1.536247e+01 -8.355917e+00 -1.949284e+01 -1.019312e+01 -1.554455e+01 -7.781698e+00 -5.169682e+00 1.034036e+00 -7.800982e+00 -5.449566e+00 -6.296023e+00 1.128946e+01 1.968169e-01 7.432621e-01 2.716114e+00 2.220709e+00 -6.394817e-01 -2.180668e-01 -2.376826e-01 -3.776075e-01 3.508918e-01 1.090007e+00 4.015622e-01 2.374968e-01 -2.753375e+00 -4.169862e-01 -8.304170e-01 2.316433e-01 7.440518e-01 7.943851e-01 7.014552e-01 4.775134e-02 -2.041489e-01 -3.050756e-01 5.361431e-02 2.176440e-01 3.992645e-01 -5.261132e-02
<VARIANCE> 39
 2.519976e+01 5.729669e+01 1.647106e+02 1.171031e+02 1.206009e+02 1.249931e+02 1.237428e+02 9.713129e+01 1.137325e+02 8.801827e+01 1.305467e+02 1.100605e+02 7.710486e+01 3.154270e+00 5.695107e+00 7.419713e+00 1.117642e+01 9.807268e+00 1.075696e+01 8.658524e+00 8.049713e+00 1.063544e+01 8.402558e+00 1.071335e+01 9.440488e+00 4.624533e+00 5.235599e-01 7.163732e-01 1.510672e+00 1.716737e+00 1.611290e+00 1.506659e+00 1.993073e+00 1.639445e+00 1.836726e+00 1.448039e+00 2.148235e+00 1.823758e+00 4.390940e-01
<GCONST> 1.613776e+02
<STATE> 4
<MEAN> 39
 -3.906271e-02 8.745264e+00 1.790104e+00 -2.019836e+00 -1.563588e+00 -4.284201e+00 -1.925405e+00 -3.635346e+00 2.304714e+00 4.836773e-01 9.464709e-01 4.932891e-01 -3.236316e+00 -1.515419e+00 -1.550048e+00 3.969868e-01 1.869062e+00 1.368869e+00 2.161177e+00 1.840542e+00 1.504529e+00 8.782242e-01 1.371089e+00 1.184235e+00 6.891632e-01 -1.306581e+00 7.343508e-02 -7.285281e-02 -5.686551e-01 -6.658571e-01 -3.080859e-01 -1.587500e-01 7.578190e-02 2.716009e-01 3.537345e-02 -2.369713e-01 -1.336931e-01 -1.810895e-01 6.632675e-01
<VARIANCE> 39
 4.057726e+01 5.642160e+01 8.242107e+01 1.031883e+02 1.313314e+02 1.427912e+02 1.198841e+02 1.266065e+02 1.344709e+02 1.463536e+02 1.265879e+02 1.239163e+02 7.179812e+01 5.304088e+00 3.817651e+00 5.937393e+00 1.000107e+01 1.059388e+01 1.244936e+01 1.150983e+01 1.299055e+01 1.196701e+01 1.071056e+01 1.094195e+01 1.100223e+01 3.366531e+00 4.480516e-01 7.180696e-01 1.147622e+00 1.576390e+00 1.417359e+00 1.711391e+00 1.914730e+00 2.311016e+00 2.418002e+00 2.061165e+00 2.069996e+00 1.868234e+00 5.838566e-01
<GCONST> 1.638424e+02
<TRANSP> 5
 0.000000e+00 1.000000e+00 0.000000e+00 0.000000e+00 0.000000e+00
 0.000000e+00 8.209143e-01 1.790857e-01 0.000000e+00 0.000000e+00
 0.000000e+00 0.000000e+00 8.061399e-01 1.938601e-01 0.000000e+00
 0.000000e+00 0.000000e+00 0.000000e+00 7.284740e-01 2.715260e-01
 0.000000e+00 0.000000e+00 0.000000e+00 0.000000e+00 0.000000e+00
<ENDHMM>
~h "ch"
<BEGINHMM>
<NUMSTATES> 5
<STATE> 2
<MEAN> 39
 -1.593546e+01 5.080449e+00 -2.196442e+00 2.310070e+00 4.736073e+00 5.125747e+00 4.620481e+00 4.134789e+00 4.762046e+00 -1.415298e-01 2.720877e+00 1.221706e+00 6.467846e+00 1.551749e-01 9.446890e-03 1.325042e-01 -8.049505e-01 5.178592e-02 -4.429345e-01 -6.335251e-01 -5.984436e-01 -6.159714e-02 -4.371010e-01 -3.424197e-01 -1.084740e-01 1.031367e+00 8.896554e-01 -5.261956e-03 6.955568e-02 -4.845991e-01 -4.640972e-01 -5.295283e-01 -4.910380e-01 -4.040066e-01 -3.371741e-01 -1.784619e-01 -1.995367e-01 -9.762681e-02 5.573731e-03
<VARIANCE> 39
 9.522137e+01 8.753638e+01 1.133154e+02 1.225174e+02 1.201597e+02 1.287926e+02 1.188018e+02 1.334651e+02 1.283783e+02 1.190589e+02 1.085032e+02 9.506954e+01 1.008158e+02 1.857789e+01 1.084714e+01 1.357796e+01 1.654309e+01 1.433122e+01 1.724323e+01 1.768716e+01 1.661811e+01 1.590284e+01 1.316668e+01 1.371416e+01 1.151533e+01 1.161603e+01 1.774483e+00 2.094451e+00 2.697753e+00 3.452511e+00 2.730339e+00 3.097969e+00 3.014113e+00 2.840163e+00 3.108073e+00 2.871582e+00 2.563236e+00 2.280362e+00 2.467060e+00
<GCONST> 1.805078e+02
<STATE> 3
<MEAN> 39
 5.629472e+00 4.378333e+00 -2.640093e+00 -1.162480e+01 -7.333747e+00 -1.345251e+01 -1.137700e+01 -1.006409e+01 -5.925467e+00 -6.869459e+00 -3.619612e+00 -1.081561e+00 1.341905e+01 3.608901e+00 -1.559409e+00 -2.354315e+00 -3.295459e+00 -2.370822e+00 -2.730150e+00 -1.881180e+00 -1.155531e+00 -1.878562e+00 -1.145561e+00 -9.275383e-01 -3.550323e-01 2.485805e+00 -1.110434e+00 -5.816162e-01 -2.213956e-01 7.996939e-01 8.704486e-01 1.270976e+00 1.103497e+00 9.802551e-01 6.651555e-01 4.110564e-01 2.532553e-01 8.627500e-02 -2.447091e-01
<VARIANCE> 39
 8.264781e+01 1.687426e+02 1.754783e+02 2.033071e+02 1.303995e+02 2.576414e+02 1.707358e+02 1.922982e+02 1.357455e+02 1.414212e+02 1.861561e+02 1.262229e+02 1.138700e+02 9.818302e+00 1.286908e+01 1.603839e+01 2.294622e+01 1.674770e+01 3.141866e+01 2.145938e+01 2.289568e+01 1.673906e+01 1.797949e+01 1.762353e+01 1.461557e+01 8.357800e+00 1.233594e+00 1.694947e+00 2.215573e+00 4.534640e+00 2.448552e+00 4.379825e+00 2.908112e+00 3.379097e+00 2.986560e+00 2.945478e+00 3.779829e+00 2.780973e+00 1.503140e+00
<GCONST> 1.864143e+02
<STATE> 4
<MEAN> 39
 1.330040e+01 -9.397030e+00 -1.938649e+01 -9.459813e+00 -5.690970e+00 -1.165747e+01 -1.335914e+01 -8.528001e+00 -6.927105e+00 -7.614121e+00 -6.319908e+00 -2.468693e+00 1.840148e+01 2.929630e-01 -5.436403e-01 -6.219243e-01 8.319840e-01 1.998617e-01 4.263258e-01 -1.633601e-01 2.264588e-01 2.673707e-01 1.308206e-01 -2.452084e-01 -9.031519e-02 -3.684368e-01 -2.793043e-01 3.056447e-01 4.920570e-01 2.709344e-01 8.266716e-02 1.262987e-01 8.327465e-02 -1.766361e-02 4.738393e-02 1.407142e-01 1.132166e-01 7.474923e-02 -3.694001e-01
<VARIANCE> 39
 8.737013e+01 2.041017e+02 2.040627e+02 2.411620e+02 1.249553e+02 1.659536e+02 1.172094e+02 1.541046e+02 1.181997e+02 1.667578e+02 1.529708e+02 1.391552e+02 8.941979e+01 1.909385e+00 4.315076e+00 9.909913e+00 1.209267e+01 6.982242e+00 8.307010e+00 7.628060e+00 9.559312e+00 8.302794e+00 9.574532e+00 1.014538e+01 7.190960e+00 3.346354e+00 3.932343e-01 7.334980e-01 1.121848e+00 1.568712e+00 1.087524e+00 1.519840e+00 1.580501e+00 1.846639e+00 1.554490e+00 1.675769e+00 1.874230e+00 1.323644e+00 4.350980e-01
<GCONST> 1.634069e+02
<TRANSP> 5
 0.000000e+00 1.000000e+00 0.000000e+00 0.000000e+00 0.000000e+00
 0.000000e+00 8.830528e-01 1.169472e-01 0.000000e+00 0.000000e+00
 0.000000e+00 0.000000e+00 6.705534e-01 3.294467e-01 0.000000e+00
 0.000000e+00 0.000000e+00 0.000000e+00 7.881279e-01 2.118721e-01
 0.000000e+00 0.000000e+00 0.000000e+00 0.000000e+00 0.000000e+00
<ENDHMM>
~h "ea"
<BEGINHMM>
<NUMSTATES> 5
<STATE> 2
<MEAN> 39
 2.035673e+00 1.399670e+01 -1.326664e+01 -2.490488e+01 -7.133519e+00 -1.798155e+01 -5.093055e+00 -3.102111e+00 -8.630214e-01 -8.428393e+00 -4.727211e+00 -5.162426e+00 1.813683e+01 3.516889e-02 -7.207674e-01 -9.633401e-02 -2.023703e-01 2.259747e-01 8.769605e-01 1.072880e-01 5.508377e-02 4.032306e-03 -2.717334e-01 -1.317099e-01 1.646373e-01 1.009299e-01 1.159828e-01 -4.343762e-01 3.528783e-01 2.299096e-01 -6.916031e-02 4.389059e-01 -9.173494e-02 -8.884573e-02 -5.087815e-02 3.063328e-02 3.860405e-02 9.205662e-02 -1.529796e-01
<VARIANCE> 39
 2.446818e+01 7.699379e+01 1.505911e+02 1.369079e+02 9.966954e+01 1.141395e+02 1.988865e+02 1.046742e+02 9.306896e+01 8.801827e+01 1.189939e+02 8.117039e+01 6.207752e+01 9.295488e-01 4.422394e+00 3.204578e+00 4.095375e+00 4.876493e+00 6.881349e+00 7.384914e+00 7.215433e+00 7.816270e+00 7.117570e+00 7.156375e+00 6.043427e+00 1.267535e+00 1.552890e-01 4.013840e-01 5.704774e-01 9.206982e-01 8.683005e-01 1.204860e+00 1.230873e+00 1.356652e+00 1.398742e+00 1.285082e+00 1.258521e+00 1.174364e+00 2.617019e-01
<GCONST> 1.470249e+02
<STATE> 3
<MEAN> 39
 4.490562e+00 -3.301872e+00 -7.879212e+00 -2.346179e+01 -6.125466e+00 -1.790622e-01 -8.117883e+00 -5.006470e+00 -1.669523e+00 -9.293036e+00 -5.403548e+00 -4.526516e-01 1.850471e+01 9.979315e-01 -1.340039e+00 2.007810e+00 3.608501e+00 -9.875938e-01 9.069349e-01 1.594466e-01 -1.166314e+00 -1.357546e-01 1.098759e+00 2.271890e-01 5.941455e-01 -2.446153e+00 -2.082082e-02 8.466905e-01 3.938841e-01 8.584383e-01 4.565362e-02 -1.071089e+00 3.110851e-01 1.434997e-01 -7.388135e-02 4.873384e-01 8.967051e-02 -4.859189e-02 -8.201727e-01
<VARIANCE> 39
 3.910914e+01 1.067778e+02 1.179223e+02 1.632207e+02 1.431968e+02 1.546767e+02 2.426376e+02 1.485103e+02 1.384762e+02 1.557273e+02 2.394721e+02 1.521898e+02 5.881971e+01 2.221401e+00 7.949116e+00 7.282634e+00 1.031384e+01 1.087688e+01 1.795401e+01 1.971971e+01 1.309619e+01 1.367410e+01 1.144371e+01 1.537167e+01 1.140656e+01 6.116477e+00 4.279703e-01 1.004604e+00 9.677023e-01 1.855196e+00 2.271088e+00 2.581716e+00 3.037414e+00 2.145427e+00 2.721725e+00 2.493946e+00 3.300293e+00 2.156345e+00 5.483381e-01
<GCONST> 1.716441e+02
<STATE> 4
<MEAN> 39
 5.498626e+00 -2.685481e-01 4.752370e+00 -1.601047e+00 -5.704097e+00 -2.278748e+00 -5.583356e+00 -8.060898e+00 -1.011773e+00 -2.344340e+00 -6.766958e+00 -2.713827e-01 1.997378e+00 -7.795667e-01 5.649497e-01 1.931182e+00 3.608378e+00 1.266073e+00 -5.951523e-01 1.609160e+00 1.542888e+00 3.042449e-01 1.604954e+00 6.507268e-01 -1.056353e-01 -3.425504e+00 -2.985649e-01 -1.591673e-01 -5.783495e-01 -7.750072e-01 2.626379e-01 2.312467e-01 9.156192e-02 4.689316e-01 2.224914e-01 -2.097907e-01 2.176013e-01 1.046257e-01 5.279700e-01
<VARIANCE> 39
 4.677363e+01 8.048927e+01 8.054644e+01 2.055728e+02 1.180379e+02 2.131946e+02 2.431124e+02 2.550859e+02 1.951279e+02 1.607640e+02 1.595901e+02 1.407573e+02 6.445673e+01 4.062827e+00 6.507336e+00 9.601670e+00 1.322883e+01 1.121555e+01 2.097491e+01 1.659961e+01 1.616040e+01 1.665532e+01 1.658102e+01 1.703166e+01 1.453458e+01 4.618660e+00 4.667034e-01 8.555409e-01 1.160773e+00 1.658752e+00 1.788074e+00 2.187310e+00 2.666130e+00 2.638990e+00 2.506801e+00 2.559969e+00 2.536277e+00 2.296485e+00 5.098759e-01
<GCONST> 1.731667e+02
<TRANSP> 5
 0.000000e+00 1.000000e+00 0.000000e+00 0.000000e+00 0.000000e+00
 0.000000e+00 8.814798e-01 1.185202e-01 0.000000e+00 0.000000e+00
 0.000000e+00 0.000000e+00 7.451448e-01 2.548551e-01 0.000000e+00
 0.000000e+00 0.000000e+00 0.000000e+00 6.066928e-01 3.933072e-01
 0.000000e+00 0.000000e+00 0.000000e+00 0.000000e+00 0.000000e+00
<ENDHMM>
~h "eh"
<BEGINHMM>
<NUMSTATES> 5
<STATE> 2
<MEAN> 39
 3.590687e+00 -2.181725e+01 -1.264600e+01 -3.500603e+00 -9.584989e+00 -1.378966e+00 -6.630650e+00 -1.483295e+01 -6.217031e+00 -9.176979e+00 -2.364268e+00 -2.927809e+00 2.738254e+01 7.385522e-01 9.281113e-01 2.472234e-01 -2.914053e-01 -2.972573e-01 -5.645041e-01 2.298471e-01 4.571541e-01 -3.768557e-01 2.288865e-01 1.429883e-01 -1.545261e-02 -1.078156e+00 1.634284e-01 5.463202e-01 2.069691e-01 -1.868642e-01 -1.376165e-01 -4.057684e-01 1.206022e-01 2.653892e-01 3.148467e-02 1.543563e-01 -1.186164e-01 4.086785e-02 -4.460494e-01
<VARIANCE> 39
 3.456124e+01 4.910951e+01 5.299436e+01 8.570954e+01 1.037972e+02 1.162748e+02 1.856599e+02 1.580080e+02 1.783637e+02 8.801827e+01 8.186992e+01 8.865380e+01 6.147942e+01 1.173548e+00 3.175868e+00 3.204578e+00 4.095375e+00 4.800234e+00 6.732611e+00 7.384914e+00 7.215433e+00 7.816270e+00 7.117570e+00 6.958999e+00 6.043427e+00 1.788067e+00 1.640560e-01 5.715312e-01 5.877608e-01 7.841400e-01 8.683005e-01 1.204860e+00 1.230873e+00 1.356652e+00 1.398742e+00 1.285082e+00 1.258521e+00 1.174364e+00 3.469888e-01
<GCONST> 1.469052e+02
<STATE> 3
<MEAN> 39
 1.051949e+01 -3.706177e+00 -1.675737e+00 -7.979214e+00 -1.332300e+01 -1.601227e+01 -3.438982e+00 -4.724049e+00 -9.442403e+00 -2.406311e+00 -4.459511e+00 9.516949e-01 1.214670e+01 2.672810e-01 3.362418e+00 2.560983e+00 -1.313325e-01 -3.955623e-01 -3.346827e+00 -3.772326e-01 7.389979e-01 4.902948e-01 6.026469e-01 -3.838297e-01 9.718525e-01 -2.894597e+00 -3.845022e-01 -7.963001e-01 -4.597623e-01 2.673101e-01 4.633783e-01 6.604600e-01 -1.422939e-01 -4.622453e-01 2.456300e-01 -2.998515e-01 1.000451e-01 -1.166352e-01 6.192428e-01
<VARIANCE> 39
 2.137395e+01 1.152890e+02 1.202646e+02 9.826996e+01 9.544576e+01 2.669264e+02 1.334370e+02 1.522463e+02 1.261607e+02 1.340710e+02 9.572096e+01 1.360270e+02 9.042222e+01 2.148358e+00 1.053609e+01 7.310567e+00 6.958695e+00 8.862840e+00 1.644783e+01 1.119029e+01 1.462599e+01 9.682793e+00 1.277416e+01 8.841658e+00 8.958004e+00 7.491506e+00 3.160806e-01 1.737147e+00 1.861984e+00 1.009295e+00 1.281717e+00 2.531368e+00 1.527136e+00 1.752169e+00 1.446141e+00 1.975103e+00 1.553524e+00 1.648741e+00 9.290639e-01
<GCONST> 1.650849e+02
<STATE> 4
<MEAN> 39
 1.002924e+01 -5.912857e+00 -5.915732e+00 -7.890950e+00 -8.408310e+00 -1.516138e+01 1.935500e+00 -9.771519e+00 -8.438369e+00 -3.088594e+00 -5.296567e+00 -1.341931e+00 1.552044e+01 4.712784e-02 7.224984e-01 4.220066e-01 8.059764e-01 4.375082e-01 -9.391599e-02 -6.778007e-01 -2.094879e-01 3.183190e-01 -5.664453e-02 1.723091e-01 2.593076e-02 -1.051170e+00 -6.577221e-02 -2.254170e-02 3.300879e-02 2.505110e-01 1.252155e-01 3.729740e-01 -1.461281e-01 4.607136e-02 -6.597953e-02 -2.663133e-02 6.933361e-02 -7.441720e-02 -7.488301e-02
<VARIANCE> 39
 2.412400e+01 7.925802e+01 8.143048e+01 9.743076e+01 9.421837e+01 1.477853e+02 2.263337e+02 1.500905e+02 9.396717e+01 8.801827e+01 8.186992e+01 8.734522e+01 1.060839e+02 9.295488e-01 2.517987e+00 3.281501e+00 4.095375e+00 4.800234e+00 6.732611e+00 7.384914e+00 7.215433e+00 7.816270e+00 7.117570e+00 6.958999e+00 6.043427e+00 1.973290e+00 1.772590e-01 4.146556e-01 6.881538e-01 7.841400e-01 8.683005e-01 1.204860e+00 1.230873e+00 1.356652e+00 1.398742e+00 1.285082e+00 1.258521e+00 1.174364e+00 2.038181e-01
<GCONST> 1.468007e+02
<TRANSP> 5
 0.000000e+00 1.000000e+00 0.000000e+00 0.000000e+00 0.000000e+00
 0.000000e+00 8.308375e-01 1.691624e-01 0.000000e+00 0.000000e+00
 0.000000e+00 0.000000e+00 6.538909e-01 3.461091e-01 0.000000e+00
 0.000000e+00 0.000000e+00 0.000000e+00 8.092778e-01 1.907222e-01
 0.000000e+00 0.000000e+00 0.000000e+00 0.000000e+00 0.000000e+00
<ENDHMM>
~h "eo"
<BEGINHMM>
<NUMSTATES> 5
<STATE> 2
<MEAN> 39
 4.023192e+00 -1.733690e+01 -9.179731e+00 -1.661397e+01 -1.690124e+01 2.648517e+00 1.602808e+00 -1.540478e+01 -6.390374e+00 -3.673410e+00 -1.350451e+01 -3.891980e+00 3.172766e+01 1.693383e+00 -3.475603e-01 -5.965574e-01 2.169324e-01 -1.921897e+00 -2.919217e+00 1.306903e+00 1.213476e+00 -3.255635e+00 2.073735e+00 1.584581e-01 -1.608805e+00 -1.745988e+00 -4.278781e-01 1.429616e+00 8.510783e-01 1.865965e+00 1.292582e+00 -1.124154e-01 -2.451886e-02 1.448485e+00 6.129539e-01 4.869209e-01 1.375657e+00 4.574511e-01 -2.905022e+00
<VARIANCE> 39
 3.146919e+01 1.178870e+02 5.299436e+01 1.247715e+02 7.736720e+01 9.267268e+01 1.414587e+02 1.394322e+02 1.480115e+02 1.412214e+02 1.780663e+02 1.160460e+02 1.440282e+02 2.721084e+00 8.741151e+00 5.603715e+00 1.732463e+01 9.221993e+00 1.076598e+01 8.615222e+00 1.412258e+01 1.488151e+01 1.910188e+01 2.150761e+01 8.350223e+00 2.032368e+01 7.023883e-01 1.050422e+00 1.412142e+00 2.859654e+00 2.359887e+00 2.023732e+00 2.019462e+00 2.207836e+00 2.567401e+00 3.659856e+00 3.964721e+00 2.950485e+00 2.538920e+00
<GCONST> 1.730915e+02
<STATE> 3
<MEAN> 39
 5.897916e+00 -6.929053e+00 -3.210738e+00 -4.777159e+00 -1.742319e+01 -5.909991e+00 5.058769e+00 -4.265929e+00 -8.317973e+00 3.822792e+00 -4.116203e+00 -6.505973e+00 7.910184e+00 -6.934443e-01 3.769656e+00 2.278570e+00 2.378719e+00 2.421186e+00 7.636549e-01 -2.971128e-01 2.130616e+00 1.561627e+00 8.593034e-01 1.734812e+00 1.952872e+00 -7.074367e+00 -7.367043e-01 -5.590598e-02 -4.537012e-02 -2.330051e-01 1.264149e+00 1.508408e+00 -3.301842e-01 -2.852207e-01 8.227572e-01 -4.285297e-01 -3.478236e-01 8.372478e-01 4.990509e-01
<VARIANCE> 39
 2.494983e+01 1.088223e+02 6.386730e+01 1.355583e+02 7.736720e+01 1.535002e+02 1.525678e+02 1.342147e+02 1.658026e+02 9.491328e+01 1.220784e+02 1.142620e+02 1.213208e+02 4.261555e+00 6.436888e+00 5.895480e+00 1.106741e+01 1.019242e+01 2.238607e+01 1.874075e+01 1.495346e+01 1.409986e+01 1.481082e+01 1.457119e+01 1.478772e+01 8.884956e+00 5.825851e-01 1.747225e+00 1.054963e+00 2.261270e+00 1.431730e+00 2.394165e+00 2.462413e+00 2.212168e+00 4.159389e+00 3.493183e+00 2.671547e+00 2.733434e+00 2.409368e+00
<GCONST> 1.727769e+02
<STATE> 4
<MEAN> 39
 3.137640e+00 -1.487731e+00 -2.273631e+00 -6.118993e+00 -6.777069e+00 7.194514e-01 4.471147e+00 -1.139443e-01 -3.349509e+00 2.439080e+00 -2.601918e+00 2.508574e+00 -6.882091e-01 -3.112923e-01 7.537477e-01 4.897831e-01 4.501030e-01 1.175137e+00 4.397744e-02 8.712372e-02 2.305284e-01 4.366880e-02 -3.690551e-01 4.584291e-01 4.975762e-01 -9.393804e-01 7.299814e-02 -3.962745e-01 -2.355906e-01 -1.251851e-01 -3.091964e-01 8.562908e-03 1.945630e-01 -2.977074e-01 -1.862684e-01 -2.492759e-01 -1.875054e-01 -2.679399e-01 7.485179e-01
<VARIANCE> 39
 2.137395e+01 4.468468e+01 5.299436e+01 8.275275e+01 1.027386e+02 2.847471e+02 1.910705e+02 9.713129e+01 1.134744e+02 1.007670e+02 1.200480e+02 7.801404e+01 4.639621e+01 2.431210e+00 2.666857e+00 3.326762e+00 7.539480e+00 9.626177e+00 1.554778e+01 8.580689e+00 9.793204e+00 1.151206e+01 1.054920e+01 1.041976e+01 8.448111e+00 6.112811e+00 3.063754e-01 7.506004e-01 7.872404e-01 8.897235e-01 1.775920e+00 2.238449e+00 2.037506e+00 1.747512e+00 1.879245e+00 1.876508e+00 2.036474e+00 1.310747e+00 1.021365e+00
<GCONST> 1.580698e+02
<TRANSP> 5
 0.000000e+00 1.000000e+00 0.000000e+00 0.000000e+00 0.000000e+00
 0.000000e+00 6.602090e-01 3.397910e-01 0.000000e+00 0.000000e+00
 0.000000e+00 0.000000e+00 5.862917e-01 4.137083e-01 0.000000e+00
 0.000000e+00 0.000000e+00 0.000000e+00 6.973416e-01 3.026584e-01
 0.000000e+00 0.000000e+00 0.000000e+00 0.000000e+00 0.000000e+00
<ENDHMM>
~h "er"
<BEGINHMM>
<NUMSTATES> 5
<STATE> 2
<MEAN> 39
 9.100705e+00 -1.672234e+01 -9.220816e+00 -1.645704e+00 -1.121248e+01 3.834847e-02 -4.589589e+00 -1.679536e+01 -1.134723e+01 -7.243742e+00 -5.701535e+00 -4.177230e+00 2.111291e+01 1.353795e-01 4.382262e-01 6.701956e-01 1.010766e+00 3.146812e-01 -5.046717e-01 -4.766646e-01 6.062220e-02 -2.021062e-01 9.795919e-03 1.306535e-01 1.645190e-01 -1.018671e+00 -7.924750e-02 1.819304e-01 1.927734e-01 3.431187e-02 1.041170e-01 5.178421e-02 6.745055e-02 1.546263e-01 1.428995e-01 4.401683e-02 -4.332075e-02 6.501484e-02 -1.679901e-01
<VARIANCE> 39
 2.701396e+01 6.506799e+01 5.299436e+01 1.128393e+02 7.736720e+01 9.267268e+01 3.088129e+02 1.307583e+02 1.470560e+02 1.086424e+02 9.912709e+01 9.309120e+01 6.252335e+01 9.295488e-01 2.517987e+00 3.204578e+00 4.095375e+00 4.800234e+00 6.732611e+00 7.384914e+00 7.215433e+00 7.816270e+00 7.117570e+00 6.958999e+00 6.043427e+00 9.470274e-01 1.552890e-01 4.013840e-01 5.704774e-01 7.841400e-01 8.683005e-01 1.204860e+00 1.230873e+00 1.356652e+00 1.398742e+00 1.285082e+00 1.258521e+00 1.174364e+00 1.517461e-01
<GCONST> 1.449224e+02
<STATE> 3
<MEAN> 39
 2.808690e+00 -7.372146e+00 8.099027e+00 1.212771e+01 1.957078e+00 9.149010e-01 -3.710721e+00 -4.822078e+00 -4.518168e+00 7.951903e-01 -3.352123e+00 1.127412e+00 -1.213957e+00 -1.791789e+00 -4.217455e-01 4.992941e-01 4.315871e-01 1.833134e+00 1.556727e+00 1.949194e+00 2.202507e+00 2.070532e+00 1.851926e+00 8.354831e-01 2.358830e-01 -1.805425e+00 8.783751e-02 -1.748666e-01 -5.832100e-01 -3.796134e-01 -2.540038e-01 -6.962845e-02 4.590552e-02 -1.097505e-01 2.096974e-01 1.630344e-01 1.451098e-01 -1.703101e-01 2.588074e-01
<VARIANCE> 39
 3.169630e+01 4.457491e+01 6.639245e+01 1.217945e+02 1.079421e+02 1.047906e+02 2.372534e+02 1.311766e+02 2.198165e+02 1.610410e+02 1.439446e+02 1.482537e+02 3.342683e+01 1.964571e+00 4.444660e+00 7.831709e+00 7.781369e+00 7.898895e+00 7.410700e+00 1.194660e+01 1.084110e+01 1.298906e+01 1.561991e+01 1.043822e+01 8.892982e+00 1.357074e+00 4.763196e-01 1.008459e+00 9.992130e-01 1.117910e+00 1.141352e+00 1.462511e+00 2.102160e+00 2.454367e+00 2.604099e+00 2.948729e+00 2.066256e+00 1.898316e+00 1.517461e-01
<GCONST> 1.599692e+02
<STATE> 4
<MEAN> 39
 -2.069088e+00 -3.439577e+00 5.193589e+00 6.410079e+00 9.555758e+00 6.475596e+00 6.190780e+00 4.282900e+00 2.716870e+00 8.469422e+00 1.310515e-02 -1.980055e+00 -1.007230e+01 -1.967246e-03 9.074420e-01 -2.871956e-01 -5.098196e-01 -4.345696e-02 1.973099e-01 5.374602e-01 3.248050e-01 1.723496e-01 -2.017295e-01 3.237414e-01 -4.177611e-02 -5.348216e-01 2.111531e-02 9.435365e-02 1.246500e-01 -2.823051e-02 -1.308004e-01 -2.134512e-02 2.552114e-02 3.003016e-02 -1.136192e-01 -1.930660e-01 -8.287901e-02 1.180164e-01 4.618826e-02
<VARIANCE> 39
 2.137395e+01 4.912925e+01 5.926249e+01 7.745184e+01 7.736720e+01 9.267268e+01 1.186843e+02 9.713129e+01 9.306896e+01 8.801827e+01 1.438639e+02 7.801404e+01 3.342683e+01 9.295488e-01 2.517987e+00 3.204578e+00 4.095375e+00 4.918037e+00 6.732611e+00 1.035845e+01 7.215433e+00 8.076992e+00 7.117570e+00 1.240416e+01 6.974381e+00 8.070496e-01 1.552890e-01 4.013840e-01 5.704774e-01 7.841400e-01 8.683005e-01 1.301741e+00 2.122918e+00 1.356652e+00 1.669491e+00 1.570307e+00 2.635595e+00 1.377912e+00 1.517461e-01
<GCONST> 1.446463e+02
<TRANSP> 5
 0.000000e+00 1.000000e+00 0.000000e+00 0.000000e+00 0.000000e+00
 0.000000e+00 9.524686e-01 4.753136e-02 0.000000e+00 0.000000e+00
 0.000000e+00 0.000000e+00 8.633314e-01 1.366686e-01 0.000000e+00
 0.000000e+00 0.000000e+00 0.000000e+00 9.056249e-01 9.437513e-02
 0.000000e+00 0.000000e+00 0.000000e+00 0.000000e+00 0.000000e+00
<ENDHMM>
~h "eu"
<BEGINHMM>
<NUMSTATES> 5
<STATE> 2
<MEAN> 39
 1.015866e+01 8.197571e+00 5.890478e+00 -8.554604e+00 -1.457879e+01 -1.067801e+01 -1.021109e+01 -9.927113e+00 -3.448867e+00 8.570152e-01 -9.467522e+00 -3.561835e+00 1.986101e+00 -8.210852e-01 2.473762e-01 8.179260e-01 2.417561e+00 1.831840e+00 1.202055e+00 4.284201e-01 1.281230e-01 3.220137e-01 -3.162223e-01 3.752180e-01 1.486083e-01 -1.764051e+00 -3.093621e-01 -3.631435e-01 -9.975092e-02 3.431794e-02 1.249581e-01 3.603325e-01 5.556432e-01 5.661358e-01 3.210843e-01 1.911071e-01 2.503596e-01 3.159700e-02 5.966078e-03
<VARIANCE> 39
 2.137395e+01 4.457491e+01 8.840340e+01 1.261856e+02 1.142767e+02 1.133128e+02 1.190933e+02 1.045089e+02 1.257121e+02 2.221935e+02 1.693114e+02 1.649765e+02 4.094517e+01 2.262082e+00 3.934812e+00 3.891107e+00 5.755601e+00 6.078430e+00 9.375498e+00 1.379626e+01 1.197065e+01 1.040497e+01 1.415108e+01 8.682704e+00 1.021158e+01 1.139614e+00 2.175606e-01 6.794520e-01 6.541014e-01 1.370342e+00 1.164773e+00 1.363947e+00 1.969299e+00 2.102159e+00 1.801670e+00 2.387625e+00 1.701926e+00 1.808489e+00 1.517461e-01
<GCONST> 1.555539e+02
<STATE> 3
<MEAN> 39
 -1.815388e+00 1.086132e+00 6.985511e+00 3.218731e+00 -1.086148e+00 4.464697e+00 5.160828e+00 3.253953e+00 7.358968e+00 3.715230e+00 -1.708651e+00 4.475256e-01 -8.962357e+00 -1.587527e+00 -1.305285e+00 -6.911249e-01 2.897485e-01 1.631546e+00 1.671982e+00 2.276732e+00 3.084050e+00 2.317599e+00 1.564542e+00 2.025087e+00 8.552082e-01 -1.112202e+00 5.000011e-01 4.262466e-01 -5.403391e-02 -1.648369e-01 -2.237443e-01 -7.439327e-01 -1.056987e+00 -7.187917e-01 -6.575245e-01 -3.773474e-01 -3.229729e-01 -2.048023e-01 2.042442e-01
<VARIANCE> 39
 2.137395e+01 4.457491e+01 5.299436e+01 7.745184e+01 1.063252e+02 9.267268e+01 1.021374e+02 1.311519e+02 9.306896e+01 1.280154e+02 9.009941e+01 9.262714e+01 3.342683e+01 1.752432e+00 4.594861e+00 5.404855e+00 5.632775e+00 6.993292e+00 1.038457e+01 1.103977e+01 1.144216e+01 1.347091e+01 1.281040e+01 1.175594e+01 1.241082e+01 8.070496e-01 2.285345e-01 7.324622e-01 7.360611e-01 1.219008e+00 1.186342e+00 1.683369e+00 1.735348e+00 2.046246e+00 2.723013e+00 2.416656e+00 1.258521e+00 1.888143e+00 1.517461e-01
<GCONST> 1.529514e+02
<STATE> 4
<MEAN> 39
 -4.636125e+00 2.113863e+00 4.120794e+00 6.401779e+00 5.469000e+00 8.053570e+00 4.793379e+00 4.944526e+00 6.277874e+00 1.189398e+00 6.948810e+00 2.697876e+00 -1.430205e+01 -5.573206e-02 1.517404e-01 5.057045e-02 8.133765e-02 2.566535e-01 2.030933e-01 -1.140611e-01 -7.347033e-02 -2.955665e-01 -3.122877e-01 1.960275e-02 4.389703e-02 -1.283761e-01 2.687830e-02 1.909470e-02 3.041920e-02 -3.075887e-02 -6.208654e-02 4.714164e-03 3.289066e-02 -6.226440e-02 -3.461029e-02 3.914548e-02 -4.796159e-02 -2.329862e-02 4.342902e-02
<VARIANCE> 39
 2.137395e+01 4.457491e+01 5.299436e+01 7.745184e+01 7.736720e+01 9.267268e+01 1.021374e+02 9.713129e+01 9.306896e+01 8.801827e+01 8.186992e+01 7.801404e+01 3.342683e+01 9.295488e-01 2.517987e+00 3.204578e+00 4.095375e+00 4.800234e+00 6.732611e+00 7.384914e+00 7.789352e+00 1.009129e+01 7.345061e+00 7.622578e+00 6.148110e+00 8.070496e-01 1.552890e-01 4.013840e-01 5.704774e-01 7.841400e-01 8.683005e-01 1.296604e+00 1.230873e+00 1.827450e+00 2.255708e+00 1.550347e+00 1.753867e+00 1.295074e+00 1.517461e-01
<GCONST> 1.426461e+02
<TRANSP> 5
 0.000000e+00 1.000000e+00 0.000000e+00 0.000000e+00 0.000000e+00
 0.000000e+00 8.926137e-01 1.073863e-01 0.000000e+00 0.000000e+00
 0.000000e+00 0.000000e+00 7.642922e-01 2.357078e-01 0.000000e+00
 0.000000e+00 0.000000e+00 0.000000e+00 9.250730e-01 7.492701e-02
 0.000000e+00 0.000000e+00 0.000000e+00 0.000000e+00 0.000000e+00
<ENDHMM>
~h "ey"
<BEGINHMM>
<NUMSTATES> 5
<STATE> 2
<MEAN> 39
 4.595455e+00 1.350359e+01 -9.325140e+00 -2.232735e+01 -8.155642e+00 -1.450637e+01 -7.772363e+00 -3.318283e+00 2.227350e+00 -7.334191e+00 -4.187962e+00 -4.511312e+00 1.342984e+01 3.601466e-01 1.805187e+00 4.745597e-01 1.172166e+00 -4.286013e-01 -1.636783e+00 -2.188485e-01 -1.390984e-01 2.038013e-01 5.230203e-01 4.672581e-01 6.647468e-03 -1.649614e+00 -7.704660e-03 -4.077260e-01 2.279716e-01 4.236828e-01 1.110600e-01 3.717296e-01 9.585690e-03 -2.777188e-01 -2.007616e-01 1.340502e-02 3.810132e-02 8.734388e-02 -5.480834e-02
<VARIANCE> 39
 2.258801e+01 9.567966e+01 1.403492e+02 1.293877e+02 1.037416e+02 1.309523e+02 1.195016e+02 9.713129e+01 1.144699e+02 8.801827e+01 1.700026e+02 1.238833e+02 7.589412e+01 9.295488e-01 5.476769e+00 3.633962e+00 5.335919e+00 6.391054e+00 7.937083e+00 9.449654e+00 7.215433e+00 8.530304e+00 7.280822e+00 1.321652e+01 8.518199e+00 8.070496e-01 1.552890e-01 4.013840e-01 5.704774e-01 8.660054e-01 9.548824e-01 1.204860e+00 1.324676e+00 1.356652e+00 1.398742e+00 1.285082e+00 1.748689e+00 1.266487e+00 1.517461e-01
<GCONST> 1.496620e+02
<STATE> 3
<MEAN> 39
 4.779339e+00 1.526970e+01 3.110165e+00 -2.262078e+00 -1.835766e+00 -1.121253e+01 -5.799135e+00 -9.615900e+00 -2.482882e+00 -6.219580e+00 -3.981833e+00 -3.916804e+00 -2.193671e+00 -1.442024e+00 -1.933409e+00 1.100021e+00 2.801043e+00 2.158474e+00 3.089735e+00 1.866155e+00 8.983487e-01 2.166579e-01 6.355956e-01 -1.468423e-02 5.795002e-01 -1.893025e+00 -2.812223e-01 -3.826033e-01 -5.441429e-01 -3.777258e-01 4.721260e-02 2.957893e-01 3.416279e-01 7.915872e-01 5.489096e-01 3.340142e-01 2.519241e-01 1.695464e-01 1.537009e-01
<VARIANCE> 39
 2.772499e+01 4.577562e+01 9.160625e+01 1.097137e+02 1.518829e+02 1.392648e+02 1.152904e+02 1.198003e+02 1.186941e+02 1.413414e+02 1.608632e+02 2.153009e+02 3.342683e+01 2.541331e+00 3.483195e+00 7.490377e+00 7.898127e+00 9.827659e+00 1.034355e+01 1.250293e+01 1.530574e+01 1.335290e+01 1.534026e+01 1.550085e+01 1.044350e+01 1.648840e+00 3.779804e-01 5.219013e-01 8.313017e-01 1.255614e+00 1.809276e+00 1.893654e+00 1.983393e+00 2.122390e+00 2.315178e+00 2.628175e+00 2.575963e+00 1.792129e+00 1.846689e-01
<GCONST> 1.610016e+02
<STATE> 4
<MEAN> 39
 -3.864007e+00 2.471185e+00 -3.036925e-01 1.536600e+00 3.303504e+00 2.204415e+00 4.458224e+00 3.230403e+00 6.146327e+00 4.283226e+00 3.316892e+00 3.830330e+00 -8.405510e+00 -5.898929e-01 -1.277873e+00 -4.337370e-02 3.808180e-01 1.852670e-01 1.448509e+00 8.903928e-01 1.724433e+00 9.747978e-01 1.425671e+00 9.262330e-01 6.666069e-01 -8.394223e-01 3.634647e-01 4.516547e-01 2.119681e-01 -1.303543e-01 -2.481159e-01 -4.496689e-01 -4.122558e-01 -5.165454e-01 -5.241154e-01 -4.242938e-01 -3.654462e-01 -3.577000e-01 2.214243e-01
<VARIANCE> 39
 3.052226e+01 4.457491e+01 5.299436e+01 7.745184e+01 1.052223e+02 9.267268e+01 1.041445e+02 9.713129e+01 9.553391e+01 1.177159e+02 1.185073e+02 1.111492e+02 3.422519e+01 1.664636e+00 2.959568e+00 4.809660e+00 5.266707e+00 7.461232e+00 7.836896e+00 9.414435e+00 1.058510e+01 1.128766e+01 1.220497e+01 1.214027e+01 1.075446e+01 8.070496e-01 3.145928e-01 5.349270e-01 7.669126e-01 1.090790e+00 1.576402e+00 1.633115e+00 1.958298e+00 2.013682e+00 2.150626e+00 2.286198e+00 2.273637e+00 1.720500e+00 1.763047e-01
<GCONST> 1.526244e+02
<TRANSP> 5
 0.000000e+00 1.000000e+00 0.000000e+00 0.000000e+00 0.000000e+00
 0.000000e+00 9.175315e-01 8.246846e-02 0.000000e+00 0.000000e+00
 0.000000e+00 0.000000e+00 7.970012e-01 2.029987e-01 0.000000e+00
 0.000000e+00 0.000000e+00 0.000000e+00 7.369384e-01 2.630616e-01
 0.000000e+00 0.000000e+00 0.000000e+00 0.000000e+00 0.000000e+00
<ENDHMM>
~h "gn"
<BEGINHMM>
<NUMSTATES> 5
<STATE> 2
<MEAN> 39
 1.213969e+01 9.455562e+00 6.588782e+00 -5.410004e+00 -1.084853e+01 -1.529854e+01 -1.470869e+01 -1.123186e+01 -1.103457e+01 -4.961633e+00 -3.825818e+00 -7.891935e-01 1.115735e+00 -1.262450e+00 2.526674e-01 3.984261e-01 1.305745e+00 1.243665e+00 1.577268e+00 7.055498e-01 1.828881e-01 8.888575e-02 5.240114e-01 1.637291e-01 1.662356e-01 -1.262484e+00 -4.417465e-01 -3.076326e-01 -4.039265e-01 9.125695e-03 3.773149e-01 5.524918e-01 6.183400e-01 4.493351e-01 3.388758e-01 2.287495e-02 1.110519e-01 1.236409e-01 2.719306e-03
<VARIANCE> 39
 2.303216e+01 4.457491e+01 6.297075e+01 7.842957e+01 8.058070e+01 1.060869e+02 1.021374e+02 1.220524e+02 1.435161e+02 1.030931e+02 9.636539e+01 1.220026e+02 3.342683e+01 2.682477e+00 2.995952e+00 4.662848e+00 4.674644e+00 5.676080e+00 9.246516e+00 1.043461e+01 9.089520e+00 8.339484e+00 7.949881e+00 8.262823e+00 6.821728e+00 2.039096e+00 3.135048e-01 6.103981e-01 7.869375e-01 8.110017e-01 9.396258e-01 1.327715e+00 1.918881e+00 1.826598e+00 1.489537e+00 1.591396e+00 1.610568e+00 1.303696e+00 1.793702e-01
<GCONST> 1.499604e+02
<STATE> 3
<MEAN> 39
 -1.103969e-01 4.620734e+00 5.556319e+00 3.088650e+00 1.392506e+00 2.680817e+00 -3.474039e-01 -1.948192e+00 -2.758893e+00 2.114526e-01 -7.164842e-01 2.749850e+00 -8.046392e+00 -2.736473e+00 -2.250989e+00 -1.664431e+00 4.466885e-01 2.033461e+00 4.462869e+00 4.547360e+00 3.670557e+00 2.954605e+00 1.993426e+00 1.909252e+00 7.413847e-01 -1.243078e+00 3.920054e-01 2.342180e-01 -1.380207e-01 -3.938668e-01 -5.317408e-01 -8.846077e-01 -7.203380e-01 -2.299685e-01 -1.914734e-02 -1.038229e-01 -1.040453e-02 -2.669500e-01 6.538416e-01
<VARIANCE> 39
 2.341969e+01 4.457491e+01 5.891839e+01 7.745184e+01 7.736720e+01 1.171540e+02 1.021374e+02 1.106155e+02 1.222556e+02 9.832583e+01 1.005448e+02 1.115642e+02 4.491467e+01 2.684340e+00 2.861619e+00 5.257928e+00 7.453355e+00 7.435950e+00 1.042474e+01 1.089866e+01 9.522208e+00 1.023731e+01 1.087683e+01 9.271150e+00 1.041763e+01 2.513289e+00 5.075178e-01 7.050382e-01 9.108860e-01 1.025481e+00 1.225047e+00 2.110771e+00 2.253785e+00 2.148401e+00 2.123307e+00 2.144337e+00 1.814944e+00 1.776398e+00 5.213525e-01
<GCONST> 1.563939e+02
<STATE> 4
<MEAN> 39
 -4.637910e+00 -2.905435e-01 1.992325e-01 4.305640e+00 3.861978e+00 7.420090e+00 5.676721e+00 4.991767e+00 2.640068e+00 4.555764e+00 3.605957e+00 1.923387e+00 -6.280905e+00 -1.890596e+00 3.532152e-02 -9.893364e-01 5.320163e-01 2.068349e-01 2.292550e-02 2.636772e-01 4.394689e-01 6.396093e-01 5.285133e-02 3.902697e-01 -2.069090e-01 1.458559e+00 1.340114e-01 4.800431e-01 6.421751e-02 -1.558178e-01 -3.668794e-01 -8.492696e-01 -7.500013e-01 -4.944813e-01 -4.452044e-01 -3.699944e-01 -3.032129e-01 2.296720e-02 4.776801e-01
<VARIANCE> 39
 4.580540e+01 7.044931e+01 8.430270e+01 7.745184e+01 7.736720e+01 9.570749e+01 1.021374e+02 9.713129e+01 9.306896e+01 8.801827e+01 9.250643e+01 7.801404e+01 8.014409e+01 4.393560e+00 3.948179e+00 5.285807e+00 5.120050e+00 5.483093e+00 7.869694e+00 7.384914e+00 8.065119e+00 9.942849e+00 7.920658e+00 7.014891e+00 8.107376e+00 5.624012e+00 1.007754e+00 8.783492e-01 1.170741e+00 1.117854e+00 1.294280e+00 2.173512e+00 1.658540e+00 1.767525e+00 1.958939e+00 1.438941e+00 1.418434e+00 1.545076e+00 9.581884e-01
<GCONST> 1.571042e+02
<TRANSP> 5
 0.000000e+00 1.000000e+00 0.000000e+00 0.000000e+00 0.000000e+00
 0.000000e+00 8.606216e-01 1.393784e-01 0.000000e+00 0.000000e+00
 0.000000e+00 0.000000e+00 5.897213e-01 4.102787e-01 0.000000e+00
 0.000000e+00 0.000000e+00 0.000000e+00 6.422151e-01 3.577848e-01
 0.000000e+00 0.000000e+00 0.000000e+00 0.000000e+00 0.000000e+00
<ENDHMM>
~h "hh"
<BEGINHMM>
<NUMSTATES> 5
<STATE> 2
<MEAN> 39
 1.625616e+00 -3.977884e+00 -2.861306e+00 -2.677042e+00 5.414557e-01 -5.619342e+00 -1.869342e+01 -1.100020e+01 -2.916168e+00 -7.062863e+00 -1.671954e+00 -1.162764e+00 1.472453e+01 1.178712e+00 -2.117909e+00 -1.228699e+00 -1.483083e+00 -1.266540e+00 -2.844687e-01 -1.094324e+00 -6.764063e-02 -8.387879e-01 -5.737736e-01 2.707824e-01 -9.303360e-02 2.064113e+00 -3.151861e-01 -1.785012e-01 5.543505e-02 8.767018e-02 -2.391114e-02 3.551007e-01 5.854828e-01 2.517945e-01 6.667949e-02 8.929569e-02 -9.187245e-02 -8.918603e-02 3.136890e-03
<VARIANCE> 39
 9.373400e+01 1.033505e+02 1.717338e+02 1.749499e+02 1.195290e+02 2.076781e+02 2.002182e+02 1.257662e+02 1.463035e+02 9.902975e+01 1.630675e+02 1.411519e+02 7.211950e+01 6.484487e+00 5.154421e+00 8.009846e+00 6.962553e+00 8.452056e+00 1.055860e+01 1.162787e+01 1.046437e+01 8.709407e+00 8.110572e+00 1.365250e+01 1.161177e+01 2.975302e+00 1.121005e+00 9.531288e-01 1.162883e+00 1.075156e+00 1.639738e+00 1.646579e+00 1.724092e+00 1.661822e+00 1.491428e+00 1.494600e+00 2.447319e+00 1.956260e+00 4.748598e-01
