~o
<STREAMINFO> 1 39
<VECSIZE> 39<NULLD><MFCC_D_A_Z_0><DIAGC>
~h "proto"
<BEGINHMM>
<NUMSTATES> 5
<STATE> 2
<MEAN> 39
 -8.854821e-09 1.375863e-08 1.908504e-08 1.663852e-08 -8.364593e-09 -1.053296e-08 1.843499e-08 6.423664e-09 -7.310375e-09 1.295106e-08 2.830715e-09 -2.360466e-09 -6.919116e-08 4.560699e-03 5.445418e-04 -1.432444e-03 -3.967487e-04 2.695440e-03 -3.528277e-03 2.028210e-03 -1.623572e-05 -1.817384e-03 -9.144093e-04 -8.575643e-04 2.528087e-03 -2.898498e-03 -1.625645e-04 -1.125358e-04 3.296487e-04 9.611988e-05 -4.885779e-04 4.833649e-04 -2.661848e-04 -7.427974e-04 -4.887826e-04 -1.545290e-04 1.891904e-04 -2.863780e-05 -1.871305e-04
<VARIANCE> 39
 7.831119e+01 1.286322e+02 1.496728e+02 1.787028e+02 1.242273e+02 2.255457e+02 2.010338e+02 1.731888e+02 1.294851e+02 1.432957e+02 1.157536e+02 1.038100e+02 2.860928e+02 3.832785e+00 6.266489e+00 7.341691e+00 8.381603e+00 8.151890e+00 1.189936e+01 1.127917e+01 1.115495e+01 1.041300e+01 1.005131e+01 9.271129e+00 8.096393e+00 7.293097e+00 6.201421e-01 9.916725e-01 1.216711e+00 1.406210e+00 1.484623e+00 2.023501e+00 2.000856e+00 2.037594e+00 1.976374e+00 1.887851e+00 1.742019e+00 1.519778e+00 9.629313e-01
<GCONST> 1.691391e+02
<STATE> 3
<MEAN> 39
 -8.854821e-09 1.375863e-08 1.908504e-08 1.663852e-08 -8.364593e-09 -1.053296e-08 1.843499e-08 6.423664e-09 -7.310375e-09 1.295106e-08 2.830715e-09 -2.360466e-09 -6.919116e-08 4.560699e-03 5.445418e-04 -1.432444e-03 -3.967487e-04 2.695440e-03 -3.528277e-03 2.028210e-03 -1.623572e-05 -1.817384e-03 -9.144093e-04 -8.575643e-04 2.528087e-03 -2.898498e-03 -1.625645e-04 -1.125358e-04 3.296487e-04 9.611988e-05 -4.885779e-04 4.833649e-04 -2.661848e-04 -7.427974e-04 -4.887826e-04 -1.545290e-04 1.891904e-04 -2.863780e-05 -1.871305e-04
<VARIANCE> 39
 7.831119e+01 1.286322e+02 1.496728e+02 1.787028e+02 1.242273e+02 2.255457e+02 2.010338e+02 1.731888e+02 1.294851e+02 1.432957e+02 1.157536e+02 1.038100e+02 2.860928e+02 3.832785e+00 6.266489e+00 7.341691e+00 8.381603e+00 8.151890e+00 1.189936e+01 1.127917e+01 1.115495e+01 1.041300e+01 1.005131e+01 9.271129e+00 8.096393e+00 7.293097e+00 6.201421e-01 9.916725e-01 1.216711e+00 1.406210e+00 1.484623e+00 2.023501e+00 2.000856e+00 2.037594e+00 1.976374e+00 1.887851e+00 1.742019e+00 1.519778e+00 9.629313e-01
<GCONST> 1.691391e+02
<STATE> 4
<MEAN> 39
 -8.854821e-09 1.375863e-08 1.908504e-08 1.663852e-08 -8.364593e-09 -1.053296e-08 1.843499e-08 6.423664e-09 -7.310375e-09 1.295106e-08 2.830715e-09 -2.360466e-09 -6.919116e-08 4.560699e-03 5.445418e-04 -1.432444e-03 -3.967487e-04 2.695440e-03 -3.528277e-03 2.028210e-03 -1.623572e-05 -1.817384e-03 -9.144093e-04 -8.575643e-04 2.528087e-03 -2.898498e-03 -1.625645e-04 -1.125358e-04 3.296487e-04 9.611988e-05 -4.885779e-04 4.833649e-04 -2.661848e-04 -7.427974e-04 -4.887826e-04 -1.545290e-04 1.891904e-04 -2.863780e-05 -1.871305e-04
<VARIANCE> 39
 7.831119e+01 1.286322e+02 1.496728e+02 1.787028e+02 1.242273e+02 2.255457e+02 2.010338e+02 1.731888e+02 1.294851e+02 1.432957e+02 1.157536e+02 1.038100e+02 2.860928e+02 3.832785e+00 6.266489e+00 7.341691e+00 8.381603e+00 8.151890e+00 1.189936e+01 1.127917e+01 1.115495e+01 1.041300e+01 1.005131e+01 9.271129e+00 8.096393e+00 7.293097e+00 6.201421e-01 9.916725e-01 1.216711e+00 1.406210e+00 1.484623e+00 2.023501e+00 2.000856e+00 2.037594e+00 1.976374e+00 1.887851e+00 1.742019e+00 1.519778e+00 9.629313e-01
<GCONST> 1.691391e+02
<TRANSP> 5
 0.000000e+00 1.000000e+00 0.000000e+00 0.000000e+00 0.000000e+00
 0.000000e+00 6.000000e-01 4.000000e-01 0.000000e+00 0.000000e+00
 0.000000e+00 0.000000e+00 6.000000e-01 4.000000e-01 0.000000e+00
 0.000000e+00 0.000000e+00 0.000000e+00 7.000000e-01 3.000000e-01
 0.000000e+00 0.000000e+00 0.000000e+00 0.000000e+00 0.000000e+00
<ENDHMM>
