~o
<STREAMINFO> 1 39
<VECSIZE> 39<NULLD><MFCC_D_A_Z_0><DIAGC>
~h "proto"
<BEGINHMM>
<NUMSTATES> 5
<STATE> 2
<MEAN> 39
 -8.568231e-09 1.510659e-08 1.092089e-08 7.702223e-10 -1.016510e-08 -1.369605e-08 1.103767e-08 4.141093e-09 -8.257255e-09 1.307344e-08 5.104199e-09 -6.718123e-10 -8.326274e-08 4.564171e-03 -6.317587e-04 -2.034569e-03 -1.843264e-03 2.451340e-03 -2.464315e-03 3.257854e-03 2.511502e-04 -5.613323e-04 4.043558e-04 2.499782e-04 1.391735e-03 -2.528518e-03 -1.793160e-04 -1.337802e-04 2.724569e-04 8.603451e-05 -1.753845e-04 4.816772e-04 -4.280690e-04 -1.058074e-03 -5.696719e-04 -4.981348e-05 4.845579e-04 -1.274602e-04 -1.788096e-04
<VARIANCE> 39
 7.584747e+01 1.308535e+02 1.532704e+02 1.788661e+02 1.309644e+02 2.303089e+02 2.081351e+02 1.811529e+02 1.363352e+02 1.502582e+02 1.208752e+02 1.050393e+02 2.931459e+02 3.714103e+00 6.271479e+00 7.369563e+00 8.361952e+00 8.243986e+00 1.192100e+01 1.135288e+01 1.133537e+01 1.057895e+01 1.017013e+01 9.460935e+00 8.208751e+00 7.303415e+00 6.028538e-01 9.856516e-01 1.213778e+00 1.404609e+00 1.488597e+00 2.019526e+00 1.996290e+00 2.059535e+00 1.994025e+00 1.899940e+00 1.773353e+00 1.544164e+00 9.509592e-01
<GCONST> 1.695578e+02
<STATE> 3
<MEAN> 39
 -8.568231e-09 1.510659e-08 1.092089e-08 7.702223e-10 -1.016510e-08 -1.369605e-08 1.103767e-08 4.141093e-09 -8.257255e-09 1.307344e-08 5.104199e-09 -6.718123e-10 -8.326274e-08 4.564171e-03 -6.317587e-04 -2.034569e-03 -1.843264e-03 2.451340e-03 -2.464315e-03 3.257854e-03 2.511502e-04 -5.613323e-04 4.043558e-04 2.499782e-04 1.391735e-03 -2.528518e-03 -1.793160e-04 -1.337802e-04 2.724569e-04 8.603451e-05 -1.753845e-04 4.816772e-04 -4.280690e-04 -1.058074e-03 -5.696719e-04 -4.981348e-05 4.845579e-04 -1.274602e-04 -1.788096e-04
<VARIANCE> 39
 7.584747e+01 1.308535e+02 1.532704e+02 1.788661e+02 1.309644e+02 2.303089e+02 2.081351e+02 1.811529e+02 1.363352e+02 1.502582e+02 1.208752e+02 1.050393e+02 2.931459e+02 3.714103e+00 6.271479e+00 7.369563e+00 8.361952e+00 8.243986e+00 1.192100e+01 1.135288e+01 1.133537e+01 1.057895e+01 1.017013e+01 9.460935e+00 8.208751e+00 7.303415e+00 6.028538e-01 9.856516e-01 1.213778e+00 1.404609e+00 1.488597e+00 2.019526e+00 1.996290e+00 2.059535e+00 1.994025e+00 1.899940e+00 1.773353e+00 1.544164e+00 9.509592e-01
<GCONST> 1.695578e+02
<STATE> 4
<MEAN> 39
 -8.568231e-09 1.510659e-08 1.092089e-08 7.702223e-10 -1.016510e-08 -1.369605e-08 1.103767e-08 4.141093e-09 -8.257255e-09 1.307344e-08 5.104199e-09 -6.718123e-10 -8.326274e-08 4.564171e-03 -6.317587e-04 -2.034569e-03 -1.843264e-03 2.451340e-03 -2.464315e-03 3.257854e-03 2.511502e-04 -5.613323e-04 4.043558e-04 2.499782e-04 1.391735e-03 -2.528518e-03 -1.793160e-04 -1.337802e-04 2.724569e-04 8.603451e-05 -1.753845e-04 4.816772e-04 -4.280690e-04 -1.058074e-03 -5.696719e-04 -4.981348e-05 4.845579e-04 -1.274602e-04 -1.788096e-04
<VARIANCE> 39
 7.584747e+01 1.308535e+02 1.532704e+02 1.788661e+02 1.309644e+02 2.303089e+02 2.081351e+02 1.811529e+02 1.363352e+02 1.502582e+02 1.208752e+02 1.050393e+02 2.931459e+02 3.714103e+00 6.271479e+00 7.369563e+00 8.361952e+00 8.243986e+00 1.192100e+01 1.135288e+01 1.133537e+01 1.057895e+01 1.017013e+01 9.460935e+00 8.208751e+00 7.303415e+00 6.028538e-01 9.856516e-01 1.213778e+00 1.404609e+00 1.488597e+00 2.019526e+00 1.996290e+00 2.059535e+00 1.994025e+00 1.899940e+00 1.773353e+00 1.544164e+00 9.509592e-01
<GCONST> 1.695578e+02
<TRANSP> 5
 0.000000e+00 1.000000e+00 0.000000e+00 0.000000e+00 0.000000e+00
 0.000000e+00 6.000000e-01 4.000000e-01 0.000000e+00 0.000000e+00
 0.000000e+00 0.000000e+00 6.000000e-01 4.000000e-01 0.000000e+00
 0.000000e+00 0.000000e+00 0.000000e+00 7.000000e-01 3.000000e-01
 0.000000e+00 0.000000e+00 0.000000e+00 0.000000e+00 0.000000e+00
<ENDHMM>
