~o
<STREAMINFO> 1 39
<VECSIZE> 39<NULLD><MFCC_D_A_Z_0><DIAGC>
~h "proto"
<BEGINHMM>
<NUMSTATES> 5
<STATE> 2
<MEAN> 39
 8.822785e-09 3.323962e-09 5.558197e-09 8.896264e-09 -2.556692e-09 1.097108e-09 3.538168e-09 4.269682e-09 1.625077e-09 1.945238e-09 -5.666448e-09 1.495176e-09 -1.463291e-08 2.014857e-03 -2.243623e-04 -7.859459e-04 -7.580278e-04 1.022460e-03 -1.074730e-03 1.424085e-03 -3.888286e-05 -2.043740e-04 1.557108e-05 1.382299e-04 4.986082e-04 -1.127588e-03 -8.894499e-05 -6.273076e-05 1.195218e-04 3.926614e-05 -2.490437e-05 2.484690e-04 -1.724301e-04 -4.316176e-04 -2.208484e-04 -9.901273e-05 1.784632e-04 -8.909358e-05 -7.260581e-05
<VARIANCE> 39
 1.442870e+01 2.383296e+01 2.790845e+01 3.173664e+01 2.341442e+01 3.934140e+01 3.600067e+01 3.049362e+01 2.283829e+01 2.407604e+01 1.954317e+01 1.787401e+01 5.458203e+01 7.095147e-01 1.170831e+00 1.387843e+00 1.544052e+00 1.513613e+00 2.125418e+00 2.016318e+00 1.973601e+00 1.811752e+00 1.687202e+00 1.537634e+00 1.329492e+00 1.383166e+00 1.156270e-01 1.856947e-01 2.303707e-01 2.622331e-01 2.747346e-01 3.640454e-01 3.567365e-01 3.603420e-01 3.429129e-01 3.177304e-01 2.893965e-01 2.480377e-01 1.825978e-01
<GCONST> 1.020260e+02
<STATE> 3
<MEAN> 39
 8.822785e-09 3.323962e-09 5.558197e-09 8.896264e-09 -2.556692e-09 1.097108e-09 3.538168e-09 4.269682e-09 1.625077e-09 1.945238e-09 -5.666448e-09 1.495176e-09 -1.463291e-08 2.014857e-03 -2.243623e-04 -7.859459e-04 -7.580278e-04 1.022460e-03 -1.074730e-03 1.424085e-03 -3.888286e-05 -2.043740e-04 1.557108e-05 1.382299e-04 4.986082e-04 -1.127588e-03 -8.894499e-05 -6.273076e-05 1.195218e-04 3.926614e-05 -2.490437e-05 2.484690e-04 -1.724301e-04 -4.316176e-04 -2.208484e-04 -9.901273e-05 1.784632e-04 -8.909358e-05 -7.260581e-05
<VARIANCE> 39
 1.442870e+01 2.383296e+01 2.790845e+01 3.173664e+01 2.341442e+01 3.934140e+01 3.600067e+01 3.049362e+01 2.283829e+01 2.407604e+01 1.954317e+01 1.787401e+01 5.458203e+01 7.095147e-01 1.170831e+00 1.387843e+00 1.544052e+00 1.513613e+00 2.125418e+00 2.016318e+00 1.973601e+00 1.811752e+00 1.687202e+00 1.537634e+00 1.329492e+00 1.383166e+00 1.156270e-01 1.856947e-01 2.303707e-01 2.622331e-01 2.747346e-01 3.640454e-01 3.567365e-01 3.603420e-01 3.429129e-01 3.177304e-01 2.893965e-01 2.480377e-01 1.825978e-01
<GCONST> 1.020260e+02
<STATE> 4
<MEAN> 39
 8.822785e-09 3.323962e-09 5.558197e-09 8.896264e-09 -2.556692e-09 1.097108e-09 3.538168e-09 4.269682e-09 1.625077e-09 1.945238e-09 -5.666448e-09 1.495176e-09 -1.463291e-08 2.014857e-03 -2.243623e-04 -7.859459e-04 -7.580278e-04 1.022460e-03 -1.074730e-03 1.424085e-03 -3.888286e-05 -2.043740e-04 1.557108e-05 1.382299e-04 4.986082e-04 -1.127588e-03 -8.894499e-05 -6.273076e-05 1.195218e-04 3.926614e-05 -2.490437e-05 2.484690e-04 -1.724301e-04 -4.316176e-04 -2.208484e-04 -9.901273e-05 1.784632e-04 -8.909358e-05 -7.260581e-05
<VARIANCE> 39
 1.442870e+01 2.383296e+01 2.790845e+01 3.173664e+01 2.341442e+01 3.934140e+01 3.600067e+01 3.049362e+01 2.283829e+01 2.407604e+01 1.954317e+01 1.787401e+01 5.458203e+01 7.095147e-01 1.170831e+00 1.387843e+00 1.544052e+00 1.513613e+00 2.125418e+00 2.016318e+00 1.973601e+00 1.811752e+00 1.687202e+00 1.537634e+00 1.329492e+00 1.383166e+00 1.156270e-01 1.856947e-01 2.303707e-01 2.622331e-01 2.747346e-01 3.640454e-01 3.567365e-01 3.603420e-01 3.429129e-01 3.177304e-01 2.893965e-01 2.480377e-01 1.825978e-01
<GCONST> 1.020260e+02
<TRANSP> 5
 0.000000e+00 1.000000e+00 0.000000e+00 0.000000e+00 0.000000e+00
 0.000000e+00 6.000000e-01 4.000000e-01 0.000000e+00 0.000000e+00
 0.000000e+00 0.000000e+00 6.000000e-01 4.000000e-01 0.000000e+00
 0.000000e+00 0.000000e+00 0.000000e+00 7.000000e-01 3.000000e-01
 0.000000e+00 0.000000e+00 0.000000e+00 0.000000e+00 0.000000e+00
<ENDHMM>
