~o
<STREAMINFO> 1 39
<VECSIZE> 39<NULLD><MFCC_D_A_Z_0><DIAGC>
~h "proto"
<BEGINHMM>
<NUMSTATES> 5
<STATE> 2
<MEAN> 39
 -3.730787e-09 1.646972e-08 1.197255e-08 1.816498e-08 -7.950530e-09 -1.521438e-08 8.185046e-09 7.976587e-09 -1.592405e-08 1.115174e-08 5.570123e-09 -2.746742e-09 -6.351841e-08 4.312776e-03 -1.030663e-03 -1.399250e-03 -7.067433e-04 1.804867e-03 -2.635918e-03 2.560849e-03 5.923478e-04 9.129434e-04 -5.462083e-04 -1.294173e-03 3.643349e-04 -2.142349e-03 -8.368954e-05 -1.434898e-05 2.017236e-04 -8.005950e-05 -6.531493e-04 3.787665e-04 3.840167e-05 -7.781407e-04 -4.590417e-04 -3.132750e-04 3.997511e-04 -1.587428e-04 -1.889866e-04
<VARIANCE> 39
 7.679184e+01 1.298262e+02 1.444143e+02 1.805791e+02 1.256844e+02 2.174229e+02 1.982898e+02 1.739198e+02 1.307190e+02 1.431905e+02 1.105412e+02 9.783048e+01 2.829462e+02 3.744784e+00 6.221689e+00 7.206662e+00 8.308832e+00 8.056220e+00 1.161200e+01 1.115636e+01 1.106742e+01 1.036065e+01 9.904199e+00 9.138219e+00 8.066788e+00 7.128776e+00 6.046267e-01 9.759592e-01 1.196177e+00 1.389767e+00 1.459578e+00 1.980132e+00 1.971972e+00 2.016401e+00 1.959577e+00 1.861350e+00 1.732997e+00 1.530163e+00 9.298220e-01
<GCONST> 1.685979e+02
<STATE> 3
<MEAN> 39
 -3.730787e-09 1.646972e-08 1.197255e-08 1.816498e-08 -7.950530e-09 -1.521438e-08 8.185046e-09 7.976587e-09 -1.592405e-08 1.115174e-08 5.570123e-09 -2.746742e-09 -6.351841e-08 4.312776e-03 -1.030663e-03 -1.399250e-03 -7.067433e-04 1.804867e-03 -2.635918e-03 2.560849e-03 5.923478e-04 9.129434e-04 -5.462083e-04 -1.294173e-03 3.643349e-04 -2.142349e-03 -8.368954e-05 -1.434898e-05 2.017236e-04 -8.005950e-05 -6.531493e-04 3.787665e-04 3.840167e-05 -7.781407e-04 -4.590417e-04 -3.132750e-04 3.997511e-04 -1.587428e-04 -1.889866e-04
<VARIANCE> 39
 7.679184e+01 1.298262e+02 1.444143e+02 1.805791e+02 1.256844e+02 2.174229e+02 1.982898e+02 1.739198e+02 1.307190e+02 1.431905e+02 1.105412e+02 9.783048e+01 2.829462e+02 3.744784e+00 6.221689e+00 7.206662e+00 8.308832e+00 8.056220e+00 1.161200e+01 1.115636e+01 1.106742e+01 1.036065e+01 9.904199e+00 9.138219e+00 8.066788e+00 7.128776e+00 6.046267e-01 9.759592e-01 1.196177e+00 1.389767e+00 1.459578e+00 1.980132e+00 1.971972e+00 2.016401e+00 1.959577e+00 1.861350e+00 1.732997e+00 1.530163e+00 9.298220e-01
<GCONST> 1.685979e+02
<STATE> 4
<MEAN> 39
 -3.730787e-09 1.646972e-08 1.197255e-08 1.816498e-08 -7.950530e-09 -1.521438e-08 8.185046e-09 7.976587e-09 -1.592405e-08 1.115174e-08 5.570123e-09 -2.746742e-09 -6.351841e-08 4.312776e-03 -1.030663e-03 -1.399250e-03 -7.067433e-04 1.804867e-03 -2.635918e-03 2.560849e-03 5.923478e-04 9.129434e-04 -5.462083e-04 -1.294173e-03 3.643349e-04 -2.142349e-03 -8.368954e-05 -1.434898e-05 2.017236e-04 -8.005950e-05 -6.531493e-04 3.787665e-04 3.840167e-05 -7.781407e-04 -4.590417e-04 -3.132750e-04 3.997511e-04 -1.587428e-04 -1.889866e-04
<VARIANCE> 39
 7.679184e+01 1.298262e+02 1.444143e+02 1.805791e+02 1.256844e+02 2.174229e+02 1.982898e+02 1.739198e+02 1.307190e+02 1.431905e+02 1.105412e+02 9.783048e+01 2.829462e+02 3.744784e+00 6.221689e+00 7.206662e+00 8.308832e+00 8.056220e+00 1.161200e+01 1.115636e+01 1.106742e+01 1.036065e+01 9.904199e+00 9.138219e+00 8.066788e+00 7.128776e+00 6.046267e-01 9.759592e-01 1.196177e+00 1.389767e+00 1.459578e+00 1.980132e+00 1.971972e+00 2.016401e+00 1.959577e+00 1.861350e+00 1.732997e+00 1.530163e+00 9.298220e-01
<GCONST> 1.685979e+02
<TRANSP> 5
 0.000000e+00 1.000000e+00 0.000000e+00 0.000000e+00 0.000000e+00
 0.000000e+00 6.000000e-01 4.000000e-01 0.000000e+00 0.000000e+00
 0.000000e+00 0.000000e+00 6.000000e-01 4.000000e-01 0.000000e+00
 0.000000e+00 0.000000e+00 0.000000e+00 7.000000e-01 3.000000e-01
 0.000000e+00 0.000000e+00 0.000000e+00 0.000000e+00 0.000000e+00
<ENDHMM>
