~o
<STREAMINFO> 1 39
<VECSIZE> 39<NULLD><MFCC_D_A_Z_0><DIAGC>
~h "proto"
<BEGINHMM>
<NUMSTATES> 5
<STATE> 2
<MEAN> 39
 -8.746682e-09 1.452663e-08 1.117413e-08 1.194041e-09 -1.065846e-08 -1.381086e-08 1.075293e-08 3.920654e-09 -7.927910e-09 1.284972e-08 4.857518e-09 -5.957086e-10 -8.290584e-08 4.564110e-03 -6.317790e-04 -2.034566e-03 -1.843263e-03 2.451358e-03 -2.464364e-03 3.257916e-03 2.511642e-04 -5.613213e-04 4.043421e-04 2.499816e-04 1.391723e-03 -2.528562e-03 -1.793142e-04 -1.337815e-04 2.724637e-04 8.603520e-05 -1.753851e-04 4.816876e-04 -4.280705e-04 -1.058059e-03 -5.696836e-04 -4.981086e-05 4.845590e-04 -1.274571e-04 -1.788097e-04
<VARIANCE> 39
 7.584953e+01 1.308559e+02 1.532661e+02 1.788646e+02 1.309665e+02 2.303170e+02 2.081349e+02 1.811475e+02 1.363371e+02 1.502578e+02 1.208757e+02 1.050392e+02 2.931418e+02 3.714251e+00 6.271407e+00 7.369614e+00 8.361897e+00 8.244020e+00 1.192098e+01 1.135280e+01 1.133531e+01 1.057894e+01 1.016994e+01 9.461129e+00 8.208779e+00 7.303314e+00 6.028655e-01 9.856782e-01 1.213774e+00 1.404606e+00 1.488605e+00 2.019566e+00 1.996313e+00 2.059541e+00 1.994053e+00 1.899979e+00 1.773379e+00 1.544167e+00 9.509634e-01
<GCONST> 1.695581e+02
<STATE> 3
<MEAN> 39
 -8.746682e-09 1.452663e-08 1.117413e-08 1.194041e-09 -1.065846e-08 -1.381086e-08 1.075293e-08 3.920654e-09 -7.927910e-09 1.284972e-08 4.857518e-09 -5.957086e-10 -8.290584e-08 4.564110e-03 -6.317790e-04 -2.034566e-03 -1.843263e-03 2.451358e-03 -2.464364e-03 3.257916e-03 2.511642e-04 -5.613213e-04 4.043421e-04 2.499816e-04 1.391723e-03 -2.528562e-03 -1.793142e-04 -1.337815e-04 2.724637e-04 8.603520e-05 -1.753851e-04 4.816876e-04 -4.280705e-04 -1.058059e-03 -5.696836e-04 -4.981086e-05 4.845590e-04 -1.274571e-04 -1.788097e-04
<VARIANCE> 39
 7.584953e+01 1.308559e+02 1.532661e+02 1.788646e+02 1.309665e+02 2.303170e+02 2.081349e+02 1.811475e+02 1.363371e+02 1.502578e+02 1.208757e+02 1.050392e+02 2.931418e+02 3.714251e+00 6.271407e+00 7.369614e+00 8.361897e+00 8.244020e+00 1.192098e+01 1.135280e+01 1.133531e+01 1.057894e+01 1.016994e+01 9.461129e+00 8.208779e+00 7.303314e+00 6.028655e-01 9.856782e-01 1.213774e+00 1.404606e+00 1.488605e+00 2.019566e+00 1.996313e+00 2.059541e+00 1.994053e+00 1.899979e+00 1.773379e+00 1.544167e+00 9.509634e-01
<GCONST> 1.695581e+02
<STATE> 4
<MEAN> 39
 -8.746682e-09 1.452663e-08 1.117413e-08 1.194041e-09 -1.065846e-08 -1.381086e-08 1.075293e-08 3.920654e-09 -7.927910e-09 1.284972e-08 4.857518e-09 -5.957086e-10 -8.290584e-08 4.564110e-03 -6.317790e-04 -2.034566e-03 -1.843263e-03 2.451358e-03 -2.464364e-03 3.257916e-03 2.511642e-04 -5.613213e-04 4.043421e-04 2.499816e-04 1.391723e-03 -2.528562e-03 -1.793142e-04 -1.337815e-04 2.724637e-04 8.603520e-05 -1.753851e-04 4.816876e-04 -4.280705e-04 -1.058059e-03 -5.696836e-04 -4.981086e-05 4.845590e-04 -1.274571e-04 -1.788097e-04
<VARIANCE> 39
 7.584953e+01 1.308559e+02 1.532661e+02 1.788646e+02 1.309665e+02 2.303170e+02 2.081349e+02 1.811475e+02 1.363371e+02 1.502578e+02 1.208757e+02 1.050392e+02 2.931418e+02 3.714251e+00 6.271407e+00 7.369614e+00 8.361897e+00 8.244020e+00 1.192098e+01 1.135280e+01 1.133531e+01 1.057894e+01 1.016994e+01 9.461129e+00 8.208779e+00 7.303314e+00 6.028655e-01 9.856782e-01 1.213774e+00 1.404606e+00 1.488605e+00 2.019566e+00 1.996313e+00 2.059541e+00 1.994053e+00 1.899979e+00 1.773379e+00 1.544167e+00 9.509634e-01
<GCONST> 1.695581e+02
<TRANSP> 5
 0.000000e+00 1.000000e+00 0.000000e+00 0.000000e+00 0.000000e+00
 0.000000e+00 6.000000e-01 4.000000e-01 0.000000e+00 0.000000e+00
 0.000000e+00 0.000000e+00 6.000000e-01 4.000000e-01 0.000000e+00
 0.000000e+00 0.000000e+00 0.000000e+00 7.000000e-01 3.000000e-01
 0.000000e+00 0.000000e+00 0.000000e+00 0.000000e+00 0.000000e+00
<ENDHMM>
