\data\
ngram 1=196
ngram 2=388

\1-grams:
-99.999	!ENTER	-1.1453
-2.5880	\341\236\200\341\236\211\341\237\222\341\236\232\341\236\267\341\237\222\341\236\207\341\236\233	-1.1461
-2.5880	\341\236\200\341\236\216\341\237\222\341\236\212\341\236\266\341\236\233	-1.1461
-2.6202	\341\236\200\341\236\266\341\236\232\341\236\270\341\236\221\341\236\274\341\236\232\341\236\237\341\237\220\341\236\226\341\237\222\341\236\221	-1.1139
-2.5880	\341\236\200\341\236\273\341\237\206\341\236\226\341\237\222\341\236\231\341\236\274\341\236\221\341\237\220\341\236\232	-1.1461
-2.6202	\341\236\200\341\236\273\341\237\206\341\236\240\341\237\205	-1.1139
-2.5880	\341\236\200\341\237\202\341\236\224	-1.1461
-2.5880	\341\236\200\341\237\204\341\237\207\341\236\200\341\236\273\341\236\204	-1.1461
-2.5880	\341\236\200\341\237\205\341\236\237\341\237\212\341\236\274	-1.1461
-2.5880	\341\236\200\341\237\206\341\236\226\341\236\204\341\237\213\341\236\205\341\236\266\341\236\230	-1.1461
-2.5880	\341\236\200\341\237\206\341\236\226\341\236\204\341\237\213\341\236\206\341\237\222\341\236\223\341\236\266\341\237\206\341\236\204	-1.1461
-2.5880	\341\236\200\341\237\206\341\236\226\341\236\204\341\237\213\341\236\222\341\237\206	-1.1461
-2.5880	\341\236\200\341\237\206\341\236\226\341\236\204\341\237\213\341\236\237\341\237\204\341\236\230	-1.1461
-2.5880	\341\236\200\341\237\206\341\236\226\341\236\204\341\237\213\341\236\237\341\237\222\341\236\226\341\236\272	-1.1461
-2.5880	\341\236\200\341\237\206\341\236\226\341\236\217	-1.1461
-2.5880	\341\236\200\341\237\222\341\236\232\341\236\205\341\237\201\341\237\207	-1.1461
-2.6202	\341\236\200\341\237\222\341\236\232\341\236\205\341\237\205	-1.1139
-2.5880	\341\236\200\341\237\222\341\236\232\341\236\267\341\236\223\341\236\220\341\237\222\341\236\233\341\236\276\341\236\230	-1.1461
-2.5880	\341\236\200\341\237\222\341\236\232\341\236\273\341\236\204\341\236\200\341\237\202\341\236\224	-1.1461
-2.5880	\341\236\200\341\237\222\341\236\232\341\236\273\341\236\204\341\236\200\341\237\206\341\236\226\341\236\204\341\237\213\341\236\237\341\237\204\341\236\230	-1.1461
-2.5880	\341\236\200\341\237\222\341\236\232\341\236\273\341\236\204\341\236\224\341\237\211\341\237\203\341\236\233\341\236\267\341\236\223	-1.1461
-2.5880	\341\236\200\341\237\222\341\236\232\341\236\273\341\236\204\341\236\226\341\237\222\341\236\232\341\237\207\341\236\237\341\236\270\341\236\240\341\236\223\341\236\273	-1.1461
-2.5880	\341\236\200\341\237\222\341\236\232\341\236\273\341\236\204\341\236\227\341\237\222\341\236\223\341\237\206\341\236\226\341\237\201\341\236\211	-1.1461
-2.8891	\341\236\201\341\236\266\341\236\223\342\200\213\341\236\237\341\237\222\341\236\243\341\237\202\341\236\200	-0.8451
-2.5880	\341\236\201\341\237\201\341\236\217\341\237\222\341\236\217\341\236\200\341\236\216\341\237\222\341\236\212\341\236\266\341\236\233	-1.1461
-2.5880	\341\236\201\341\237\201\341\236\217\341\237\222\341\236\217\341\236\200\341\237\202\341\236\224	-1.1461
-2.5880	\341\236\201\341\237\201\341\236\217\341\237\222\341\236\217\341\236\200\341\237\204\341\237\207\341\236\200\341\236\273\341\236\204	-1.1461
-2.5880	\341\236\201\341\237\201\341\236\217\341\237\222\341\236\217\341\236\200\341\237\206\341\236\226\341\236\204\341\237\213\341\236\205\341\236\266\341\236\230	-1.1461
-2.5880	\341\236\201\341\237\201\341\236\217\341\237\222\341\236\217\341\236\200\341\237\206\341\236\226\341\236\204\341\237\213\341\236\206\341\237\222\341\236\223\341\236\266\341\237\206\341\236\204	-1.1461
-2.5880	\341\236\201\341\237\201\341\236\217\341\237\222\341\236\217\341\236\200\341\237\206\341\236\226\341\236\204\341\237\213\341\236\222\341\237\206	-1.1461
-2.5880	\341\236\201\341\237\201\341\236\217\341\237\222\341\236\217\341\236\200\341\237\206\341\236\226\341\236\204\341\237\213\341\236\237\341\237\204\341\236\230	-1.1461
-2.5880	\341\236\201\341\237\201\341\236\217\341\237\222\341\236\217\341\236\200\341\237\206\341\236\226\341\236\204\341\237\213\341\236\237\341\237\222\341\236\226\341\236\272	-1.1461
-2.5880	\341\236\201\341\237\201\341\236\217\341\237\222\341\236\217\341\236\200\341\237\206\341\236\226\341\236\217	-1.1461
-2.5880	\341\236\201\341\237\201\341\236\217\341\237\222\341\236\217\341\236\200\341\237\222\341\236\232\341\236\205\341\237\201\341\237\207	-1.1461
-2.5880	\341\236\201\341\237\201\341\236\217\341\237\222\341\236\217\341\236\217\341\236\266\341\236\200\341\237\202\341\236\234	-1.1461
-2.5880	\341\236\201\341\237\201\341\236\217\341\237\222\341\236\217\341\236\224\341\236\223\341\237\222\341\236\221\341\236\266\341\236\231\341\236\230\341\236\266\341\236\223\341\236\207\341\237\220\341\236\231	-1.1461
-2.5880	\341\236\201\341\237\201\341\236\217\341\237\222\341\236\217\341\236\224\341\236\266\341\236\217\341\237\213\341\236\212\341\237\206\341\236\224\341\236\204	-1.1461
-2.5880	\341\236\201\341\237\201\341\236\217\341\237\222\341\236\217\341\236\224\341\237\211\341\237\203\341\236\233\341\236\267\341\236\223	-1.1461
-2.5880	\341\236\201\341\237\201\341\236\217\341\237\222\341\236\217\341\236\226\341\237\204\341\236\222\341\236\267\341\237\215\341\236\237\341\236\266\341\236\217\341\237\213	-1.1461
-2.6202	\341\236\201\341\237\201\341\236\217\341\237\222\341\236\217\341\236\226\341\237\222\341\236\232\341\237\203\341\236\234\341\237\202\341\236\204	-1.1139
-2.5880	\341\236\201\341\237\201\341\236\217\341\237\222\341\236\217\341\236\226\341\237\222\341\236\232\341\237\207\341\236\234\341\236\267\341\236\240\341\236\266\341\236\232	-1.1461
-2.5880	\341\236\201\341\237\201\341\236\217\341\237\222\341\236\217\341\236\226\341\237\222\341\236\232\341\237\207\341\236\237\341\236\270\341\236\240\341\236\223\341\236\273	-1.1461
-2.5880	\341\236\201\341\237\201\341\236\217\341\237\222\341\236\217\341\236\230\341\236\216\341\237\222\341\236\214\341\236\233\341\236\202\341\236\267\341\236\232\341\236\270	-1.1461
-2.5880	\341\236\201\341\237\201\341\236\217\341\237\222\341\236\217\341\236\232\341\236\217\341\236\223\341\236\202\341\236\267\341\236\232\341\236\270	-1.1461
-2.5880	\341\236\201\341\237\201\341\236\217\341\237\222\341\236\217\341\236\237\341\237\200\341\236\230\341\236\232\341\236\266\341\236\224	-1.1461
-2.5880	\341\236\201\341\237\201\341\236\217\341\237\222\341\236\217\341\236\237\341\237\222\341\236\221\341\236\271\341\236\204\341\236\217\341\237\222\341\236\232\341\237\202\341\236\204	-1.1461
-2.5880	\341\236\201\341\237\201\341\236\217\341\237\222\341\236\217\341\236\237\341\237\222\341\236\234\341\236\266\341\236\231\341\236\232\341\237\200\341\236\204	-1.1461
-2.5880	\341\236\201\341\237\201\341\236\217\341\237\222\341\236\217\341\236\247\341\236\217\341\237\222\341\236\212\341\236\232\341\236\230\341\236\266\341\236\223\341\236\207\341\237\220\341\236\231	-1.1461
-2.5880	\341\236\201\341\237\202	-1.1461
-2.5880	\341\236\201\341\237\202\341\236\200\341\236\200\341\237\222\341\236\200\341\236\212\341\236\266	-1.1461
-2.5880	\341\236\201\341\237\202\341\236\200\341\236\211\341\237\222\341\236\211\341\236\266	-1.1461
-2.5880	\341\236\201\341\237\202\341\236\200\341\236\273\341\236\230\341\237\222\341\236\227\341\237\210	-1.1461
-2.5880	\341\236\201\341\237\202\341\236\217\341\236\273\341\236\233\341\236\266	-1.1461
-2.5880	\341\236\201\341\237\202\341\236\222\341\237\222\341\236\223\341\236\274	-1.1461
-2.5880	\341\236\201\341\237\202\341\236\230\341\236\200\341\236\232\341\236\266	-1.1461
-2.5880	\341\236\201\341\237\202\341\236\230\341\236\267\341\236\220\341\236\273\341\236\223\341\236\266	-1.1461
-2.5880	\341\236\201\341\237\202\341\236\230\341\236\270\341\236\223\341\236\266	-1.1461
-2.5880	\341\236\201\341\237\202\341\236\230\341\237\201\341\236\237\341\236\266	-1.1461
-2.5880	\341\236\201\341\237\202\341\236\234\341\236\267\341\236\205\341\237\222\341\236\206\341\236\267\341\236\200\341\236\266	-1.1461
-2.5880	\341\236\201\341\237\202\341\236\237\341\236\270\341\236\240\341\236\266	-1.1461
-2.5880	\341\236\201\341\237\202\341\236\247\341\236\237\341\236\227\341\236\266	-1.1461
-2.5880	\341\236\201\341\237\222\341\236\237\341\237\204\341\236\231\341\236\224\341\237\201\341\237\207\341\236\212\341\236\274\341\236\204	-1.1461
-2.5880	\341\236\202\341\237\222\341\236\232\341\236\273\341\236\223\341\236\200\341\237\222\341\236\212\341\237\205	-1.1461
-2.5880	\341\236\202\341\237\222\341\236\232\341\236\273\341\236\223\341\236\205\341\236\266\341\236\211\341\237\213	-1.1461
-2.5880	\341\236\202\341\237\222\341\236\232\341\236\273\341\236\223\341\236\210\341\236\266\341\236\230	-1.1461
-2.5880	\341\236\202\341\237\222\341\236\232\341\236\273\341\236\223\341\236\226\341\237\204\341\237\207\341\236\234\341\237\200\341\236\223	-1.1461
-2.5880	\341\236\202\341\237\222\341\236\232\341\236\275\341\236\237\341\236\217\341\237\206\341\236\232\341\236\204\341\236\223\341\237\204\341\236\230	-1.1461
-2.5880	\341\236\205\341\236\266	-1.1461
-2.5880	\341\236\205\341\236\273\341\237\207\341\236\210\341\237\222\341\236\230\341\237\204\341\237\207	-1.1461
-2.5880	\341\236\206\341\237\222\341\236\200\341\237\202\341\236\206\341\237\222\341\236\200\341\236\275\341\236\217	-1.1461
-2.5880	\341\236\206\341\237\222\341\236\223\341\236\266\341\237\206	-1.1461
-2.5880	\341\236\207\341\237\222\341\236\232\341\236\274\341\236\200	-1.1461
-2.5880	\341\236\210\341\236\224\341\237\213	-1.1461
-2.5880	\341\236\212\341\237\206\341\236\241\341\236\274\341\236\204\341\236\225\341\237\222\341\236\242\341\237\202\341\236\230	-1.1461
-2.5880	\341\236\212\341\237\206\341\236\241\341\236\274\341\236\204\341\236\230\341\236\270	-1.1461
-2.5880	\341\236\217\341\236\266\341\236\200\341\237\202\341\236\234	-1.1461
-2.6202	\341\236\217\341\237\201\341\236\217\341\236\217\341\236\266\341\236\216\341\236\273\341\236\237	-1.1139
-2.5880	\341\236\217\341\237\222\341\236\232\341\236\270	-1.1461
-2.5880	\341\236\220\341\236\231\341\236\200\341\237\222\341\236\232\341\237\204\341\236\231	-1.1461
-2.5880	\341\236\220\341\237\222\341\236\204\341\237\203	-1.1461
-2.5880	\341\236\220\341\237\222\341\236\204\341\237\203\341\236\205\341\237\220\341\236\223\341\237\222\341\236\221	-1.1461
-2.5880	\341\236\220\341\237\222\341\236\204\341\237\203\341\236\223\341\237\201\341\237\207	-1.1461
-2.5880	\341\236\220\341\237\222\341\236\204\341\237\203\341\236\226\341\236\273\341\236\222	-1.1461
-2.5880	\341\236\220\341\237\222\341\236\204\341\237\203\341\236\226\341\237\222\341\236\232\341\236\240\341\236\237\341\237\222\341\236\224\341\236\223\341\236\267\341\237\215	-1.1461
-2.5880	\341\236\220\341\237\222\341\236\204\341\237\203\341\236\237\341\236\273\341\236\200\341\237\222\341\236\232	-1.1461
-2.5880	\341\236\220\341\237\222\341\236\204\341\237\203\341\236\237\341\237\205\341\236\232\341\237\215	-1.1461
-2.5880	\341\236\220\341\237\222\341\236\204\341\237\203\341\236\237\341\237\222\341\236\242\341\237\202\341\236\200	-1.1461
-2.5880	\341\236\220\341\237\222\341\236\204\341\237\203\341\236\242\341\236\204\341\237\222\341\236\202\341\236\266\341\236\232	-1.1461
-2.5880	\341\236\220\341\237\222\341\236\204\341\237\203\341\236\242\341\236\266\341\236\221\341\236\267\341\236\217\341\237\222\341\236\231	-1.1461
-2.6202	\341\236\220\341\237\222\341\236\223\341\236\266\341\237\206\341\236\207\341\236\200\341\237\213	-1.1139
-2.5880	\341\236\221\341\236\266	-1.1461
-2.5880	\341\236\221\341\236\266\341\236\205\341\236\221\341\236\271\341\236\200	-1.1461
-2.5880	\341\236\221\341\236\271\341\236\200\341\236\223\341\237\204\341\236\230\341\236\224\341\237\222\341\236\232\341\237\203	-1.1461
-2.5880	\341\236\221\341\236\271\341\236\200\341\236\223\341\237\204\341\236\230\341\236\225\341\237\222\341\236\242\341\237\202\341\236\230	-1.1461
-2.5880	\341\236\221\341\237\201	-1.1461
-2.5880	\341\236\221\341\237\205\341\236\230\341\236\273\341\236\201	-1.1461
-2.5880	\341\236\221\341\237\206\341\236\226\341\237\220\341\236\232\341\236\212\341\236\276\341\236\230	-1.1461
-2.5880	\341\236\221\341\237\206\341\236\226\341\237\220\341\236\232\341\236\224\341\236\223\341\237\222\341\236\221\341\236\266\341\236\224\341\237\213	-1.1461
-2.6550	\341\236\221\341\237\206\341\236\226\341\237\220\341\236\232\341\236\230\341\236\273\341\236\223	-1.0792
-2.5880	\341\236\223\341\236\266\341\236\232\341\236\270	-1.1461
-2.5880	\341\236\224\341\236\211\341\237\222\341\236\205\341\236\224\341\237\213	-1.1461
-2.5880	\341\236\224\341\236\211\341\237\222\341\236\207\341\236\270	-1.1461
-2.5880	\341\236\224\341\236\211\341\237\222\341\236\210\341\236\224\341\237\213	-1.1461
-2.6202	\341\236\224\341\236\223\341\237\222\341\236\217	-1.1139
-2.5880	\341\236\224\341\236\223\341\237\222\341\236\221\341\236\266\341\236\231\341\236\230\341\236\266\341\236\223\341\236\207\341\237\220\341\236\231	-1.1461
-2.5880	\341\236\224\341\236\223\341\237\222\341\236\233\341\237\202	-1.1461
-2.5880	\341\236\224\341\236\232\341\236\266\341\236\237\341\236\267\341\236\217	-1.1461
-2.5880	\341\236\224\341\236\266\341\236\217\341\237\213\341\236\212\341\237\206\341\236\224\341\236\204	-1.1461
-2.5880	\341\236\224\341\236\266\341\236\221	-1.1461
-2.5880	\341\236\224\341\236\273\341\236\232\341\236\237	-1.1461
-2.5880	\341\236\224\341\237\211\341\237\203\341\236\233\341\236\267\341\236\223	-1.1461
-2.5880	\341\236\224\341\237\222\341\236\232\341\236\200\341\236\266\341\237\206\341\236\204	-1.1461
-2.5880	\341\236\224\341\237\222\341\236\232\341\236\230\341\237\201\341\237\207	-1.1461
-2.5880	\341\236\224\341\237\222\341\236\232\341\236\271\341\236\200\341\237\222\341\236\237\341\236\266	-1.1461
-2.5880	\341\236\224\341\237\222\341\236\232\341\236\273\341\236\237	-1.1461
-2.2870	\341\236\225\341\237\222\341\236\212\341\236\266\341\236\237\341\236\237\341\236\266\341\236\231	-1.4472
-2.5880	\341\236\225\341\237\222\341\236\212\341\236\266\341\236\237\341\236\237\341\236\266\341\236\231\341\236\224\341\236\200\341\237\222\341\236\237\341\236\270	-1.1461
-2.6202	\341\236\225\341\237\222\341\236\217\341\236\266\341\237\206\341\236\237\341\236\266\341\236\232	-1.1139
-2.5880	\341\236\225\341\237\222\341\236\233\341\237\202\341\236\210\341\236\276	-1.1461
-2.5880	\341\236\226\341\237\204\341\236\217	-1.1461
-2.5880	\341\236\226\341\237\204\341\236\222\341\236\267\341\237\215\341\236\237\341\236\266\341\236\217\341\237\213	-1.1461
-2.5880	\341\236\226\341\237\220\341\236\217\341\237\214\341\236\230\341\236\266\341\236\223	-1.1461
-2.5880	\341\236\226\341\237\222\341\236\232\341\236\230	-1.1461
-2.5880	\341\236\226\341\237\222\341\236\232\341\237\203\341\236\234\341\237\202\341\236\204	-1.1461
-2.5880	\341\236\226\341\237\222\341\236\232\341\237\207\341\236\234\341\236\267\341\236\240\341\236\266\341\236\232	-1.1461
-2.5880	\341\236\226\341\237\222\341\236\232\341\237\207\341\236\237\341\236\270\341\236\240\341\236\223\341\236\273	-1.1461
-2.5880	\341\236\227\341\237\222\341\236\223\341\237\202\341\236\200\341\236\200\341\237\222\341\236\232\341\236\240\341\236\230	-1.1461
-2.5880	\341\236\227\341\237\222\341\236\223\341\237\206\341\236\226\341\237\201\341\236\211	-1.1461
-2.5880	\341\236\230\341\236\216\341\237\222\341\236\214\341\236\233\341\236\202\341\236\267\341\236\232\341\236\270	-1.1461
-2.5880	\341\236\230\341\236\240\341\236\266\341\236\232\341\236\270\341\236\200	-1.1461
-2.5880	\341\236\230\341\236\240\341\236\266\341\236\232\341\236\270\341\236\200\341\236\212\341\237\204\341\237\207	-1.1461
-2.6202	\341\236\230\341\236\240\341\236\266\341\236\232\341\236\270\341\236\200\341\236\217\341\237\206\341\236\232\341\236\204\341\236\223\341\237\204\341\236\230	-1.1139
-2.5880	\341\236\230\341\236\240\341\236\266\341\236\232\341\236\270\341\236\200\341\236\237\341\236\275\341\236\217	-1.1461
-2.5880	\341\236\230\341\236\240\341\236\266\341\236\232\341\236\270\341\236\200\341\236\237\341\237\222\341\236\224\341\236\274\341\236\223	-1.1461
-2.5880	\341\236\230\341\236\266\341\236\223\341\237\213	-1.1461
-2.5880	\341\236\230\341\237\222\341\236\217\341\236\204\341\236\221\341\237\200\341\236\217	-1.1461
-2.5880	\341\236\230\341\237\222\341\236\237\341\236\267\341\236\233\341\236\230\341\237\211\341\236\267\341\236\211	-1.1461
-2.5880	\341\236\230\341\237\222\341\236\237\341\236\267\341\236\233\341\236\230\341\237\222\341\236\204\341\237\203	-1.1461
-2.5880	\341\236\230\341\237\222\341\236\237\341\236\267\341\236\233\341\236\230\341\237\222\341\236\204\341\237\203\341\236\230\341\236\275\341\236\231	-1.1461
-2.5880	\341\236\232\341\236\217\341\236\223\341\236\202\341\236\267\341\236\232\341\236\270	-1.1461
-2.5880	\341\236\232\341\236\224\341\237\201\341\236\204	-1.1461
-2.5880	\341\236\232\341\236\233\341\236\266\341\236\200\341\236\220\341\237\222\341\236\233\341\236\276\341\236\230\341\236\224\341\237\201	-1.1461
-2.5880	\341\236\232\341\236\233\341\236\266\341\236\200\341\236\220\341\237\222\341\236\233\341\236\276\341\236\230\341\236\237\341\237\201	-1.1461
-2.5880	\341\236\232\341\236\233\341\236\266\341\236\200\341\236\220\341\237\222\341\236\233\341\236\276\341\236\230\341\236\242\341\236\266	-1.1461
-2.5880	\341\236\232\341\236\233\341\236\266\341\236\200\341\236\221\341\236\204\341\236\237\341\236\275\341\236\217	-1.1461
-2.5880	\341\236\232\341\236\233\341\236\266\341\236\200\341\236\237\341\237\222\341\236\232\341\237\204\341\236\230\341\236\201\341\236\275\341\236\232	-1.1461
-2.5880	\341\236\232\341\236\266\341\236\202	-1.1461
-2.5880	\341\236\232\341\236\266\341\236\202\341\236\232\341\236\274\341\236\237	-1.1461
-2.5880	\341\236\233\341\236\273\341\236\224\341\236\210\341\237\222\341\236\230\341\237\204\341\237\207	-1.1461
-2.5880	\341\236\233\341\236\276\341\236\237\341\236\210\341\236\266\341\236\230	-1.1461
-2.5880	\341\236\233\341\237\222\341\236\204	-1.1461
-2.5880	\341\236\237\341\236\216\341\237\222\341\236\217\341\237\202\341\236\200\341\236\212\341\236\270	-1.1461
-2.5880	\341\236\237\341\236\216\341\237\222\341\236\217\341\237\202\341\236\200\341\236\237\341\237\200\341\236\204	-1.1461
-2.5880	\341\236\237\341\236\224\341\237\222\341\236\212\341\236\266\341\236\240\341\237\215	-1.1461
-2.5880	\341\236\237\341\237\200\341\236\230\341\236\232\341\236\266\341\236\224	-1.1461
-2.5880	\341\236\237\341\237\201\341\237\207	-1.1461
-2.5880	\341\236\237\341\237\212\341\236\270\341\236\212\341\236\266	-1.1461
-2.5880	\341\236\237\341\237\222\341\236\217\341\237\222\341\236\232\341\236\270	-1.1461
-2.5880	\341\236\237\341\237\222\341\236\221\341\236\271\341\236\204\341\236\217\341\237\222\341\236\232\341\237\202\341\236\204	-1.1461
-2.5880	\341\236\237\341\237\222\341\236\232\341\236\274\341\236\234	-1.1461
-2.5880	\341\236\237\341\237\222\341\236\234\341\236\266\341\236\231	-1.1461
-2.5880	\341\236\237\341\237\222\341\236\234\341\236\266\341\236\231\341\236\232\341\237\200\341\236\204	-1.1461
-2.5880	\341\236\237\341\237\222\341\236\242\341\236\274\341\236\205	-1.1461
-2.5880	\341\236\240\341\237\205	-1.1461
-2.5880	\341\236\242\341\236\204\341\237\222\341\236\200\341\236\232	-1.1461
-2.5880	\341\236\242\341\236\217\341\237\213\341\236\226\341\237\222\341\236\232\341\236\230	-1.1461
-2.5880	\341\236\242\341\236\266\341\236\221\341\236\267\341\236\217\341\237\222\341\236\231	-1.1461
-2.5880	\341\236\242\341\236\266\341\236\237\341\236\223\341\237\222\341\236\223\341\236\232\341\237\204\341\236\202	-1.1461
-2.5880	\341\236\242\341\237\201\341\236\212\341\237\215	-1.1461
-2.6202	\341\236\242\341\237\206\341\236\226\341\237\205	-1.1139
-2.5880	\341\236\247\341\236\217\341\237\222\341\236\212\341\236\232\341\236\230\341\236\266\341\236\223\341\236\207\341\237\220\341\236\231	-1.1461
-2.5880	\341\237\240_\341\236\237\341\236\274\341\236\223\341\237\222\341\236\231	-1.1461
-2.5880	\341\237\240_\341\236\240\341\237\222\341\236\237\341\237\201\341\236\232\341\237\211\341\236\274	-1.1461
-2.5880	\341\237\241	-1.1461
-2.5880	\341\237\241\341\237\240	-1.1461
-2.5880	\341\237\241\341\237\241	-1.1461
-2.5880	\341\237\241\341\237\242	-1.1461
-2.5880	\341\237\241\341\237\243	-1.1461
-2.5880	\341\237\241\341\237\244	-1.1461
-2.5880	\341\237\241\341\237\245	-1.1461
-2.5880	\341\237\241\341\237\246	-1.1461
-2.5880	\341\237\241\341\237\247_\341\236\212\341\236\224\341\237\213\341\236\224\341\237\222\341\236\232\341\236\266\341\237\206\341\236\226\341\236\267\341\236\233	-1.1461
-2.5880	\341\237\241\341\237\247_\341\236\212\341\236\224\341\237\213\341\236\224\341\237\222\341\236\232\341\236\266\341\237\206\341\236\226\341\236\270\341\236\232	-1.1461
-2.5880	\341\237\241\341\237\250	-1.1461
-2.5880	\341\237\241\341\237\251	-1.1461
-2.5880	\341\237\242	-1.1461
-2.5880	\341\237\242\341\237\240	-1.1461
-2.5880	\341\237\243	-1.1461
-2.5880	\341\237\244	-1.1461
-2.5880	\341\237\245	-1.1461
-2.5880	\341\237\246	-1.1461
-2.5880	\341\237\247_\341\236\224\341\237\222\341\236\232\341\236\266\341\237\206\341\236\226\341\236\267\341\236\233	-1.1461
-2.5880	\341\237\247_\341\236\224\341\237\222\341\236\232\341\236\266\341\237\206\341\236\226\341\236\270\341\236\232	-1.1461
-2.5880	\341\237\250	-1.1461
-2.5880	\341\237\251	-1.1461
-0.3010	!EXIT

\2-grams:
-2.3028	!ENTER \341\236\200\341\236\211\341\237\222\341\236\232\341\236\267\341\237\222\341\236\207\341\236\233
-2.3028	!ENTER \341\236\200\341\236\216\341\237\222\341\236\212\341\236\266\341\236\233
-2.3362	!ENTER \341\236\200\341\236\266\341\236\232\341\236\270\341\236\221\341\236\274\341\236\232\341\236\237\341\237\220\341\236\226\341\237\222\341\236\221
-2.3028	!ENTER \341\236\200\341\236\273\341\237\206\341\236\226\341\237\222\341\236\231\341\236\274\341\236\221\341\237\220\341\236\232
-2.3362	!ENTER \341\236\200\341\236\273\341\237\206\341\236\240\341\237\205
-2.3028	!ENTER \341\236\200\341\237\202\341\236\224
-2.3028	!ENTER \341\236\200\341\237\204\341\237\207\341\236\200\341\236\273\341\236\204
-2.3028	!ENTER \341\236\200\341\237\205\341\236\237\341\237\212\341\236\274
-2.3028	!ENTER \341\236\200\341\237\206\341\236\226\341\236\204\341\237\213\341\236\205\341\236\266\341\236\230
-2.3028	!ENTER \341\236\200\341\237\206\341\236\226\341\236\204\341\237\213\341\236\206\341\237\222\341\236\223\341\236\266\341\237\206\341\236\204
-2.3028	!ENTER \341\236\200\341\237\206\341\236\226\341\236\204\341\237\213\341\236\222\341\237\206
-2.3028	!ENTER \341\236\200\341\237\206\341\236\226\341\236\204\341\237\213\341\236\237\341\237\204\341\236\230
-2.3028	!ENTER \341\236\200\341\237\206\341\236\226\341\236\204\341\237\213\341\236\237\341\237\222\341\236\226\341\236\272
-2.3028	!ENTER \341\236\200\341\237\206\341\236\226\341\236\217
-2.3028	!ENTER \341\236\200\341\237\222\341\236\232\341\236\205\341\237\201\341\237\207
-2.3362	!ENTER \341\236\200\341\237\222\341\236\232\341\236\205\341\237\205
-2.3028	!ENTER \341\236\200\341\237\222\341\236\232\341\236\267\341\236\223\341\236\220\341\237\222\341\236\233\341\236\276\341\236\230
-2.3028	!ENTER \341\236\200\341\237\222\341\236\232\341\236\273\341\236\204\341\236\200\341\237\202\341\236\224
-2.3028	!ENTER \341\236\200\341\237\222\341\236\232\341\236\273\341\236\204\341\236\200\341\237\206\341\236\226\341\236\204\341\237\213\341\236\237\341\237\204\341\236\230
-2.3028	!ENTER \341\236\200\341\237\222\341\236\232\341\236\273\341\236\204\341\236\224\341\237\211\341\237\203\341\236\233\341\236\267\341\236\223
-2.3028	!ENTER \341\236\200\341\237\222\341\236\232\341\236\273\341\236\204\341\236\226\341\237\222\341\236\232\341\237\207\341\236\237\341\236\270\341\236\240\341\236\223\341\236\273
-2.3028	!ENTER \341\236\200\341\237\222\341\236\232\341\236\273\341\236\204\341\236\227\341\237\222\341\236\223\341\237\206\341\236\226\341\237\201\341\236\211
-2.6202	!ENTER \341\236\201\341\236\266\341\236\223\342\200\213\341\236\237\341\237\222\341\236\243\341\237\202\341\236\200
-2.3028	!ENTER \341\236\201\341\237\201\341\236\217\341\237\222\341\236\217\341\236\200\341\236\216\341\237\222\341\236\212\341\236\266\341\236\233
-2.3028	!ENTER \341\236\201\341\237\201\341\236\217\341\237\222\341\236\217\341\236\200\341\237\202\341\236\224
-2.3028	!ENTER \341\236\201\341\237\201\341\236\217\341\237\222\341\236\217\341\236\200\341\237\204\341\237\207\341\236\200\341\236\273\341\236\204
-2.3028	!ENTER \341\236\201\341\237\201\341\236\217\341\237\222\341\236\217\341\236\200\341\237\206\341\236\226\341\236\204\341\237\213\341\236\205\341\236\266\341\236\230
-2.3028	!ENTER \341\236\201\341\237\201\341\236\217\341\237\222\341\236\217\341\236\200\341\237\206\341\236\226\341\236\204\341\237\213\341\236\206\341\237\222\341\236\223\341\236\266\341\237\206\341\236\204
-2.3028	!ENTER \341\236\201\341\237\201\341\236\217\341\237\222\341\236\217\341\236\200\341\237\206\341\236\226\341\236\204\341\237\213\341\236\222\341\237\206
-2.3028	!ENTER \341\236\201\341\237\201\341\236\217\341\237\222\341\236\217\341\236\200\341\237\206\341\236\226\341\236\204\341\237\213\341\236\237\341\237\204\341\236\230
-2.3028	!ENTER \341\236\201\341\237\201\341\236\217\341\237\222\341\236\217\341\236\200\341\237\206\341\236\226\341\236\204\341\237\213\341\236\237\341\237\222\341\236\226\341\236\272
-2.3028	!ENTER \341\236\201\341\237\201\341\236\217\341\237\222\341\236\217\341\236\200\341\237\206\341\236\226\341\236\217
-2.3028	!ENTER \341\236\201\341\237\201\341\236\217\341\237\222\341\236\217\341\236\200\341\237\222\341\236\232\341\236\205\341\237\201\341\237\207
-2.3028	!ENTER \341\236\201\341\237\201\341\236\217\341\237\222\341\236\217\341\236\217\341\236\266\341\236\200\341\237\202\341\236\234
-2.3028	!ENTER \341\236\201\341\237\201\341\236\217\341\237\222\341\236\217\341\236\224\341\236\223\341\237\222\341\236\221\341\236\266\341\236\231\341\236\230\341\236\266\341\236\223\341\236\207\341\237\220\341\236\231
-2.3028	!ENTER \341\236\201\341\237\201\341\236\217\341\237\222\341\236\217\341\236\224\341\236\266\341\236\217\341\237\213\341\236\212\341\237\206\341\236\224\341\236\204
-2.3028	!ENTER \341\236\201\341\237\201\341\236\217\341\237\222\341\236\217\341\236\224\341\237\211\341\237\203\341\236\233\341\236\267\341\236\223
-2.3028	!ENTER \341\236\201\341\237\201\341\236\217\341\237\222\341\236\217\341\236\226\341\237\204\341\236\222\341\236\267\341\237\215\341\236\237\341\236\266\341\236\217\341\237\213
-2.3362	!ENTER \341\236\201\341\237\201\341\236\217\341\237\222\341\236\217\341\236\226\341\237\222\341\236\232\341\237\203\341\236\234\341\237\202\341\236\204
-2.3028	!ENTER \341\236\201\341\237\201\341\236\217\341\237\222\341\236\217\341\236\226\341\237\222\341\236\232\341\237\207\341\236\234\341\236\267\341\236\240\341\236\266\341\236\232
-2.3028	!ENTER \341\236\201\341\237\201\341\236\217\341\237\222\341\236\217\341\236\226\341\237\222\341\236\232\341\237\207\341\236\237\341\236\270\341\236\240\341\236\223\341\236\273
-2.3028	!ENTER \341\236\201\341\237\201\341\236\217\341\237\222\341\236\217\341\236\230\341\236\216\341\237\222\341\236\214\341\236\233\341\236\202\341\236\267\341\236\232\341\236\270
-2.3028	!ENTER \341\236\201\341\237\201\341\236\217\341\237\222\341\236\217\341\236\232\341\236\217\341\236\223\341\236\202\341\236\267\341\236\232\341\236\270
-2.3028	!ENTER \341\236\201\341\237\201\341\236\217\341\237\222\341\236\217\341\236\237\341\237\200\341\236\230\341\236\232\341\236\266\341\236\224
-2.3028	!ENTER \341\236\201\341\237\201\341\236\217\341\237\222\341\236\217\341\236\237\341\237\222\341\236\221\341\236\271\341\236\204\341\236\217\341\237\222\341\236\232\341\237\202\341\236\204
-2.3028	!ENTER \341\236\201\341\237\201\341\236\217\341\237\222\341\236\217\341\236\237\341\237\222\341\236\234\341\236\266\341\236\231\341\236\232\341\237\200\341\236\204
-2.3028	!ENTER \341\236\201\341\237\201\341\236\217\341\237\222\341\236\217\341\236\247\341\236\217\341\237\222\341\236\212\341\236\232\341\236\230\341\236\266\341\236\223\341\236\207\341\237\220\341\236\231
-2.3028	!ENTER \341\236\201\341\237\202
-2.3028	!ENTER \341\236\201\341\237\202\341\236\200\341\236\200\341\237\222\341\236\200\341\236\212\341\236\266
-2.3028	!ENTER \341\236\201\341\237\202\341\236\200\341\236\211\341\237\222\341\236\211\341\236\266
-2.3028	!ENTER \341\236\201\341\237\202\341\236\200\341\236\273\341\236\230\341\237\222\341\236\227\341\237\210
-2.3028	!ENTER \341\236\201\341\237\202\341\236\217\341\236\273\341\236\233\341\236\266
-2.3028	!ENTER \341\236\201\341\237\202\341\236\222\341\237\222\341\236\223\341\236\274
-2.3028	!ENTER \341\236\201\341\237\202\341\236\230\341\236\200\341\236\232\341\236\266
-2.3028	!ENTER \341\236\201\341\237\202\341\236\230\341\236\267\341\236\220\341\236\273\341\236\223\341\236\266
-2.3028	!ENTER \341\236\201\341\237\202\341\236\230\341\236\270\341\236\223\341\236\266
-2.3028	!ENTER \341\236\201\341\237\202\341\236\230\341\237\201\341\236\237\341\236\266
-2.3028	!ENTER \341\236\201\341\237\202\341\236\234\341\236\267\341\236\205\341\237\222\341\236\206\341\236\267\341\236\200\341\236\266
-2.3028	!ENTER \341\236\201\341\237\202\341\236\237\341\236\270\341\236\240\341\236\266
-2.3028	!ENTER \341\236\201\341\237\202\341\236\247\341\236\237\341\236\227\341\236\266
-2.3028	!ENTER \341\236\201\341\237\222\341\236\237\341\237\204\341\236\231\341\236\224\341\237\201\341\237\207\341\236\212\341\236\274\341\236\204
-2.3028	!ENTER \341\236\202\341\237\222\341\236\232\341\236\273\341\236\223\341\236\200\341\237\222\341\236\212\341\237\205
-2.3028	!ENTER \341\236\202\341\237\222\341\236\232\341\236\273\341\236\223\341\236\205\341\236\266\341\236\211\341\237\213
-2.3028	!ENTER \341\236\202\341\237\222\341\236\232\341\236\273\341\236\223\341\236\210\341\236\266\341\236\230
-2.3028	!ENTER \341\236\202\341\237\222\341\236\232\341\236\273\341\236\223\341\236\226\341\237\204\341\237\207\341\236\234\341\237\200\341\236\223
-2.3028	!ENTER \341\236\202\341\237\222\341\236\232\341\236\275\341\236\237\341\236\217\341\237\206\341\236\232\341\236\204\341\236\223\341\237\204\341\236\230
-2.3028	!ENTER \341\236\205\341\236\266
-2.3028	!ENTER \341\236\205\341\236\273\341\237\207\341\236\210\341\237\222\341\236\230\341\237\204\341\237\207
-2.3028	!ENTER \341\236\206\341\237\222\341\236\200\341\237\202\341\236\206\341\237\222\341\236\200\341\236\275\341\236\217
-2.3028	!ENTER \341\236\206\341\237\222\341\236\223\341\236\266\341\237\206
-2.3028	!ENTER \341\236\207\341\237\222\341\236\232\341\236\274\341\236\200
-2.3028	!ENTER \341\236\210\341\236\224\341\237\213
-2.3028	!ENTER \341\236\212\341\237\206\341\236\241\341\236\274\341\236\204\341\236\225\341\237\222\341\236\242\341\237\202\341\236\230
-2.3028	!ENTER \341\236\212\341\237\206\341\236\241\341\236\274\341\236\204\341\236\230\341\236\270
-2.3028	!ENTER \341\236\217\341\236\266\341\236\200\341\237\202\341\236\234
-2.3362	!ENTER \341\236\217\341\237\201\341\236\217\341\236\217\341\236\266\341\236\216\341\236\273\341\236\237
-2.3028	!ENTER \341\236\217\341\237\222\341\236\232\341\236\270
-2.3028	!ENTER \341\236\220\341\236\231\341\236\200\341\237\222\341\236\232\341\237\204\341\236\231
-2.3028	!ENTER \341\236\220\341\237\222\341\236\204\341\237\203
-2.3028	!ENTER \341\236\220\341\237\222\341\236\204\341\237\203\341\236\205\341\237\220\341\236\223\341\237\222\341\236\221
-2.3028	!ENTER \341\236\220\341\237\222\341\236\204\341\237\203\341\236\223\341\237\201\341\237\207
-2.3028	!ENTER \341\236\220\341\237\222\341\236\204\341\237\203\341\236\226\341\236\273\341\236\222
-2.3028	!ENTER \341\236\220\341\237\222\341\236\204\341\237\203\341\236\226\341\237\222\341\236\232\341\236\240\341\236\237\341\237\222\341\236\224\341\236\223\341\236\267\341\237\215
-2.3028	!ENTER \341\236\220\341\237\222\341\236\204\341\237\203\341\236\237\341\236\273\341\236\200\341\237\222\341\236\232
-2.3028	!ENTER \341\236\220\341\237\222\341\236\204\341\237\203\341\236\237\341\237\205\341\236\232\341\237\215
-2.3028	!ENTER \341\236\220\341\237\222\341\236\204\341\237\203\341\236\237\341\237\222\341\236\242\341\237\202\341\236\200
-2.3028	!ENTER \341\236\220\341\237\222\341\236\204\341\237\203\341\236\242\341\236\204\341\237\222\341\236\202\341\236\266\341\236\232
-2.3028	!ENTER \341\236\220\341\237\222\341\236\204\341\237\203\341\236\242\341\236\266\341\236\221\341\236\267\341\236\217\341\237\222\341\236\231
-2.3362	!ENTER \341\236\220\341\237\222\341\236\223\341\236\266\341\237\206\341\236\207\341\236\200\341\237\213
-2.3028	!ENTER \341\236\221\341\236\266
-2.3028	!ENTER \341\236\221\341\236\266\341\236\205\341\236\221\341\236\271\341\236\200
-2.3028	!ENTER \341\236\221\341\236\271\341\236\200\341\236\223\341\237\204\341\236\230\341\236\224\341\237\222\341\236\232\341\237\203
-2.3028	!ENTER \341\236\221\341\236\271\341\236\200\341\236\223\341\237\204\341\236\230\341\236\225\341\237\222\341\236\242\341\237\202\341\236\230
-2.3028	!ENTER \341\236\221\341\237\201
-2.3028	!ENTER \341\236\221\341\237\205\341\236\230\341\236\273\341\236\201
-2.3028	!ENTER \341\236\221\341\237\206\341\236\226\341\237\220\341\236\232\341\236\212\341\236\276\341\236\230
-2.3028	!ENTER \341\236\221\341\237\206\341\236\226\341\237\220\341\236\232\341\236\224\341\236\223\341\237\222\341\236\221\341\236\266\341\236\224\341\237\213
-2.3724	!ENTER \341\236\221\341\237\206\341\236\226\341\237\220\341\236\232\341\236\230\341\236\273\341\236\223
-2.3028	!ENTER \341\236\223\341\236\266\341\236\232\341\236\270
-2.3028	!ENTER \341\236\224\341\236\211\341\237\222\341\236\205\341\236\224\341\237\213
-2.3028	!ENTER \341\236\224\341\236\211\341\237\222\341\236\207\341\236\270
-2.3028	!ENTER \341\236\224\341\236\211\341\237\222\341\236\210\341\236\224\341\237\213
-2.3362	!ENTER \341\236\224\341\236\223\341\237\222\341\236\217
-2.3028	!ENTER \341\236\224\341\236\223\341\237\222\341\236\221\341\236\266\341\236\231\341\236\230\341\236\266\341\236\223\341\236\207\341\237\220\341\236\231
-2.3028	!ENTER \341\236\224\341\236\223\341\237\222\341\236\233\341\237\202
-2.3028	!ENTER \341\236\224\341\236\232\341\236\266\341\236\237\341\236\267\341\236\217
-2.3028	!ENTER \341\236\224\341\236\266\341\236\217\341\237\213\341\236\212\341\237\206\341\236\224\341\236\204
-2.3028	!ENTER \341\236\224\341\236\266\341\236\221
-2.3028	!ENTER \341\236\224\341\236\273\341\236\232\341\236\237
-2.3028	!ENTER \341\236\224\341\237\211\341\237\203\341\236\233\341\236\267\341\236\223
-2.3028	!ENTER \341\236\224\341\237\222\341\236\232\341\236\200\341\236\266\341\237\206\341\236\204
-2.3028	!ENTER \341\236\224\341\237\222\341\236\232\341\236\230\341\237\201\341\237\207
-2.3028	!ENTER \341\236\224\341\237\222\341\236\232\341\236\271\341\236\200\341\237\222\341\236\237\341\236\266
-2.3028	!ENTER \341\236\224\341\237\222\341\236\232\341\236\273\341\236\237
-1.9938	!ENTER \341\236\225\341\237\222\341\236\212\341\236\266\341\236\237\341\236\237\341\236\266\341\236\231
-2.3028	!ENTER \341\236\225\341\237\222\341\236\212\341\236\266\341\236\237\341\236\237\341\236\266\341\236\231\341\236\224\341\236\200\341\237\222\341\236\237\341\236\270
-2.3362	!ENTER \341\236\225\341\237\222\341\236\217\341\236\266\341\237\206\341\236\237\341\236\266\341\236\232
-2.3028	!ENTER \341\236\225\341\237\222\341\236\233\341\237\202\341\236\210\341\236\276
-2.3028	!ENTER \341\236\226\341\237\204\341\236\217
-2.3028	!ENTER \341\236\226\341\237\204\341\236\222\341\236\267\341\237\215\341\236\237\341\236\266\341\236\217\341\237\213
-2.3028	!ENTER \341\236\226\341\237\220\341\236\217\341\237\214\341\236\230\341\236\266\341\236\223
-2.3028	!ENTER \341\236\226\341\237\222\341\236\232\341\236\230
-2.3028	!ENTER \341\236\226\341\237\222\341\236\232\341\237\203\341\236\234\341\237\202\341\236\204
-2.3028	!ENTER \341\236\226\341\237\222\341\236\232\341\237\207\341\236\234\341\236\267\341\236\240\341\236\266\341\236\232
-2.3028	!ENTER \341\236\226\341\237\222\341\236\232\341\237\207\341\236\237\341\236\270\341\236\240\341\236\223\341\236\273
-2.3028	!ENTER \341\236\227\341\237\222\341\236\223\341\237\202\341\236\200\341\236\200\341\237\222\341\236\232\341\236\240\341\236\230
-2.3028	!ENTER \341\236\227\341\237\222\341\236\223\341\237\206\341\236\226\341\237\201\341\236\211
-2.3028	!ENTER \341\236\230\341\236\216\341\237\222\341\236\214\341\236\233\341\236\202\341\236\267\341\236\232\341\236\270
-2.3028	!ENTER \341\236\230\341\236\240\341\236\266\341\236\232\341\236\270\341\236\200
-2.3028	!ENTER \341\236\230\341\236\240\341\236\266\341\236\232\341\236\270\341\236\200\341\236\212\341\237\204\341\237\207
-2.3362	!ENTER \341\236\230\341\236\240\341\236\266\341\236\232\341\236\270\341\236\200\341\236\217\341\237\206\341\236\232\341\236\204\341\236\223\341\237\204\341\236\230
-2.3028	!ENTER \341\236\230\341\236\240\341\236\266\341\236\232\341\236\270\341\236\200\341\236\237\341\236\275\341\236\217
-2.3028	!ENTER \341\236\230\341\236\240\341\236\266\341\236\232\341\236\270\341\236\200\341\236\237\341\237\222\341\236\224\341\236\274\341\236\223
-2.3028	!ENTER \341\236\230\341\236\266\341\236\223\341\237\213
-2.3028	!ENTER \341\236\230\341\237\222\341\236\217\341\236\204\341\236\221\341\237\200\341\236\217
-2.3028	!ENTER \341\236\230\341\237\222\341\236\237\341\236\267\341\236\233\341\236\230\341\237\211\341\236\267\341\236\211
-2.3028	!ENTER \341\236\230\341\237\222\341\236\237\341\236\267\341\236\233\341\236\230\341\237\222\341\236\204\341\237\203
-2.3028	!ENTER \341\236\230\341\237\222\341\236\237\341\236\267\341\236\233\341\236\230\341\237\222\341\236\204\341\237\203\341\236\230\341\236\275\341\236\231
-2.3028	!ENTER \341\236\232\341\236\217\341\236\223\341\236\202\341\236\267\341\236\232\341\236\270
-2.3028	!ENTER \341\236\232\341\236\224\341\237\201\341\236\204
-2.3028	!ENTER \341\236\232\341\236\233\341\236\266\341\236\200\341\236\220\341\237\222\341\236\233\341\236\276\341\236\230\341\236\224\341\237\201
-2.3028	!ENTER \341\236\232\341\236\233\341\236\266\341\236\200\341\236\220\341\237\222\341\236\233\341\236\276\341\236\230\341\236\237\341\237\201
-2.3028	!ENTER \341\236\232\341\236\233\341\236\266\341\236\200\341\236\220\341\237\222\341\236\233\341\236\276\341\236\230\341\236\242\341\236\266
-2.3028	!ENTER \341\236\232\341\236\233\341\236\266\341\236\200\341\236\221\341\236\204\341\236\237\341\236\275\341\236\217
-2.3028	!ENTER \341\236\232\341\236\233\341\236\266\341\236\200\341\236\237\341\237\222\341\236\232\341\237\204\341\236\230\341\236\201\341\236\275\341\236\232
-2.3028	!ENTER \341\236\232\341\236\266\341\236\202
-2.3028	!ENTER \341\236\232\341\236\266\341\236\202\341\236\232\341\236\274\341\236\237
-2.3028	!ENTER \341\236\233\341\236\273\341\236\224\341\236\210\341\237\222\341\236\230\341\237\204\341\237\207
-2.3028	!ENTER \341\236\233\341\236\276\341\236\237\341\236\210\341\236\266\341\236\230
-2.3028	!ENTER \341\236\233\341\237\222\341\236\204
-2.3028	!ENTER \341\236\237\341\236\216\341\237\222\341\236\217\341\237\202\341\236\200\341\236\212\341\236\270
-2.3028	!ENTER \341\236\237\341\236\216\341\237\222\341\236\217\341\237\202\341\236\200\341\236\237\341\237\200\341\236\204
-2.3028	!ENTER \341\236\237\341\236\224\341\237\222\341\236\212\341\236\266\341\236\240\341\237\215
-2.3028	!ENTER \341\236\237\341\237\200\341\236\230\341\236\232\341\236\266\341\236\224
-2.3028	!ENTER \341\236\237\341\237\201\341\237\207
-2.3028	!ENTER \341\236\237\341\237\212\341\236\270\341\236\212\341\236\266
-2.3028	!ENTER \341\236\237\341\237\222\341\236\217\341\237\222\341\236\232\341\236\270
-2.3028	!ENTER \341\236\237\341\237\222\341\236\221\341\236\271\341\236\204\341\236\217\341\237\222\341\236\232\341\237\202\341\236\204
-2.3028	!ENTER \341\236\237\341\237\222\341\236\232\341\236\274\341\236\234
-2.3028	!ENTER \341\236\237\341\237\222\341\236\234\341\236\266\341\236\231
-2.3028	!ENTER \341\236\237\341\237\222\341\236\234\341\236\266\341\236\231\341\236\232\341\237\200\341\236\204
-2.3028	!ENTER \341\236\237\341\237\222\341\236\242\341\236\274\341\236\205
-2.3028	!ENTER \341\236\240\341\237\205
-2.3028	!ENTER \341\236\242\341\236\204\341\237\222\341\236\200\341\236\232
-2.3028	!ENTER \341\236\242\341\236\217\341\237\213\341\236\226\341\237\222\341\236\232\341\236\230
-2.3028	!ENTER \341\236\242\341\236\266\341\236\221\341\236\267\341\236\217\341\237\222\341\236\231
-2.3028	!ENTER \341\236\242\341\236\266\341\236\237\341\236\223\341\237\222\341\236\223\341\236\232\341\237\204\341\236\202
-2.3028	!ENTER \341\236\242\341\237\201\341\236\212\341\237\215
-2.3362	!ENTER \341\236\242\341\237\206\341\236\226\341\237\205
-2.3028	!ENTER \341\236\247\341\236\217\341\237\222\341\236\212\341\236\232\341\236\230\341\236\266\341\236\223\341\236\207\341\237\220\341\236\231
-2.3028	!ENTER \341\237\240_\341\236\237\341\236\274\341\236\223\341\237\222\341\236\231
-2.3028	!ENTER \341\237\240_\341\236\240\341\237\222\341\236\237\341\237\201\341\236\232\341\237\211\341\236\274
-2.3028	!ENTER \341\237\241
-2.3028	!ENTER \341\237\241\341\237\240
-2.3028	!ENTER \341\237\241\341\237\241
-2.3028	!ENTER \341\237\241\341\237\242
-2.3028	!ENTER \341\237\241\341\237\243
-2.3028	!ENTER \341\237\241\341\237\244
-2.3028	!ENTER \341\237\241\341\237\245
-2.3028	!ENTER \341\237\241\341\237\246
-2.3028	!ENTER \341\237\241\341\237\247_\341\236\212\341\236\224\341\237\213\341\236\224\341\237\222\341\236\232\341\236\266\341\237\206\341\236\226\341\236\267\341\236\233
-2.3028	!ENTER \341\237\241\341\237\247_\341\236\212\341\236\224\341\237\213\341\236\224\341\237\222\341\236\232\341\236\266\341\237\206\341\236\226\341\236\270\341\236\232
-2.3028	!ENTER \341\237\241\341\237\250
-2.3028	!ENTER \341\237\241\341\237\251
-2.3028	!ENTER \341\237\242
-2.3028	!ENTER \341\237\242\341\237\240
-2.3028	!ENTER \341\237\243
-2.3028	!ENTER \341\237\244
-2.3028	!ENTER \341\237\245
-2.3028	!ENTER \341\237\246
-2.3028	!ENTER \341\237\247_\341\236\224\341\237\222\341\236\232\341\236\266\341\237\206\341\236\226\341\236\267\341\236\233
-2.3028	!ENTER \341\237\247_\341\236\224\341\237\222\341\236\232\341\236\266\341\237\206\341\236\226\341\236\270\341\236\232
-2.3028	!ENTER \341\237\250
-2.3028	!ENTER \341\237\251
-0.0158	\341\236\200\341\236\211\341\237\222\341\236\232\341\236\267\341\237\222\341\236\207\341\236\233 !EXIT
-0.0158	\341\236\200\341\236\216\341\237\222\341\236\212\341\236\266\341\236\233 !EXIT
-0.0170	\341\236\200\341\236\266\341\236\232\341\236\270\341\236\221\341\236\274\341\236\232\341\236\237\341\237\220\341\236\226\341\237\222\341\236\221 !EXIT
-0.0158	\341\236\200\341\236\273\341\237\206\341\236\226\341\237\222\341\236\231\341\236\274\341\236\221\341\237\220\341\236\232 !EXIT
-0.0170	\341\236\200\341\236\273\341\237\206\341\236\240\341\237\205 !EXIT
-0.0158	\341\236\200\341\237\202\341\236\224 !EXIT
-0.0158	\341\236\200\341\237\204\341\237\207\341\236\200\341\236\273\341\236\204 !EXIT
-0.0158	\341\236\200\341\237\205\341\236\237\341\237\212\341\236\274 !EXIT
-0.0158	\341\236\200\341\237\206\341\236\226\341\236\204\341\237\213\341\236\205\341\236\266\341\236\230 !EXIT
-0.0158	\341\236\200\341\237\206\341\236\226\341\236\204\341\237\213\341\236\206\341\237\222\341\236\223\341\236\266\341\237\206\341\236\204 !EXIT
-0.0158	\341\236\200\341\237\206\341\236\226\341\236\204\341\237\213\341\236\222\341\237\206 !EXIT
-0.0158	\341\236\200\341\237\206\341\236\226\341\236\204\341\237\213\341\236\237\341\237\204\341\236\230 !EXIT
-0.0158	\341\236\200\341\237\206\341\236\226\341\236\204\341\237\213\341\236\237\341\237\222\341\236\226\341\236\272 !EXIT
-0.0158	\341\236\200\341\237\206\341\236\226\341\236\217 !EXIT
-0.0158	\341\236\200\341\237\222\341\236\232\341\236\205\341\237\201\341\237\207 !EXIT
-0.0170	\341\236\200\341\237\222\341\236\232\341\236\205\341\237\205 !EXIT
-0.0158	\341\236\200\341\237\222\341\236\232\341\236\267\341\236\223\341\236\220\341\237\222\341\236\233\341\236\276\341\236\230 !EXIT
-0.0158	\341\236\200\341\237\222\341\236\232\341\236\273\341\236\204\341\236\200\341\237\202\341\236\224 !EXIT
-0.0158	\341\236\200\341\237\222\341\236\232\341\236\273\341\236\204\341\236\200\341\237\206\341\236\226\341\236\204\341\237\213\341\236\237\341\237\204\341\236\230 !EXIT
-0.0158	\341\236\200\341\237\222\341\236\232\341\236\273\341\236\204\341\236\224\341\237\211\341\237\203\341\236\233\341\236\267\341\236\223 !EXIT
-0.0158	\341\236\200\341\237\222\341\236\232\341\236\273\341\236\204\341\236\226\341\237\222\341\236\232\341\237\207\341\236\237\341\236\270\341\236\240\341\236\223\341\236\273 !EXIT
-0.0158	\341\236\200\341\237\222\341\236\232\341\236\273\341\236\204\341\236\227\341\237\222\341\236\223\341\237\206\341\236\226\341\237\201\341\236\211 !EXIT
-0.0322	\341\236\201\341\236\266\341\236\223\342\200\213\341\236\237\341\237\222\341\236\243\341\237\202\341\236\200 !EXIT
-0.0158	\341\236\201\341\237\201\341\236\217\341\237\222\341\236\217\341\236\200\341\236\216\341\237\222\341\236\212\341\236\266\341\236\233 !EXIT
-0.0158	\341\236\201\341\237\201\341\236\217\341\237\222\341\236\217\341\236\200\341\237\202\341\236\224 !EXIT
-0.0158	\341\236\201\341\237\201\341\236\217\341\237\222\341\236\217\341\236\200\341\237\204\341\237\207\341\236\200\341\236\273\341\236\204 !EXIT
-0.0158	\341\236\201\341\237\201\341\236\217\341\237\222\341\236\217\341\236\200\341\237\206\341\236\226\341\236\204\341\237\213\341\236\205\341\236\266\341\236\230 !EXIT
-0.0158	\341\236\201\341\237\201\341\236\217\341\237\222\341\236\217\341\236\200\341\237\206\341\236\226\341\236\204\341\237\213\341\236\206\341\237\222\341\236\223\341\236\266\341\237\206\341\236\204 !EXIT
-0.0158	\341\236\201\341\237\201\341\236\217\341\237\222\341\236\217\341\236\200\341\237\206\341\236\226\341\236\204\341\237\213\341\236\222\341\237\206 !EXIT
-0.0158	\341\236\201\341\237\201\341\236\217\341\237\222\341\236\217\341\236\200\341\237\206\341\236\226\341\236\204\341\237\213\341\236\237\341\237\204\341\236\230 !EXIT
-0.0158	\341\236\201\341\237\201\341\236\217\341\237\222\341\236\217\341\236\200\341\237\206\341\236\226\341\236\204\341\237\213\341\236\237\341\237\222\341\236\226\341\236\272 !EXIT
-0.0158	\341\236\201\341\237\201\341\236\217\341\237\222\341\236\217\341\236\200\341\237\206\341\236\226\341\236\217 !EXIT
-0.0158	\341\236\201\341\237\201\341\236\217\341\237\222\341\236\217\341\236\200\341\237\222\341\236\232\341\236\205\341\237\201\341\237\207 !EXIT
-0.0158	\341\236\201\341\237\201\341\236\217\341\237\222\341\236\217\341\236\217\341\236\266\341\236\200\341\237\202\341\236\234 !EXIT
-0.0158	\341\236\201\341\237\201\341\236\217\341\237\222\341\236\217\341\236\224\341\236\223\341\237\222\341\236\221\341\236\266\341\236\231\341\236\230\341\236\266\341\236\223\341\236\207\341\237\220\341\236\231 !EXIT
-0.0158	\341\236\201\341\237\201\341\236\217\341\237\222\341\236\217\341\236\224\341\236\266\341\236\217\341\237\213\341\236\212\341\237\206\341\236\224\341\236\204 !EXIT
-0.0158	\341\236\201\341\237\201\341\236\217\341\237\222\341\236\217\341\236\224\341\237\211\341\237\203\341\236\233\341\236\267\341\236\223 !EXIT
-0.0158	\341\236\201\341\237\201\341\236\217\341\237\222\341\236\217\341\236\226\341\237\204\341\236\222\341\236\267\341\237\215\341\236\237\341\236\266\341\236\217\341\237\213 !EXIT
-0.0170	\341\236\201\341\237\201\341\236\217\341\237\222\341\236\217\341\236\226\341\237\222\341\236\232\341\237\203\341\236\234\341\237\202\341\236\204 !EXIT
-0.0158	\341\236\201\341\237\201\341\236\217\341\237\222\341\236\217\341\236\226\341\237\222\341\236\232\341\237\207\341\236\234\341\236\267\341\236\240\341\236\266\341\236\232 !EXIT
-0.0158	\341\236\201\341\237\201\341\236\217\341\237\222\341\236\217\341\236\226\341\237\222\341\236\232\341\237\207\341\236\237\341\236\270\341\236\240\341\236\223\341\236\273 !EXIT
-0.0158	\341\236\201\341\237\201\341\236\217\341\237\222\341\236\217\341\236\230\341\236\216\341\237\222\341\236\214\341\236\233\341\236\202\341\236\267\341\236\232\341\236\270 !EXIT
-0.0158	\341\236\201\341\237\201\341\236\217\341\237\222\341\236\217\341\236\232\341\236\217\341\236\223\341\236\202\341\236\267\341\236\232\341\236\270 !EXIT
-0.0158	\341\236\201\341\237\201\341\236\217\341\237\222\341\236\217\341\236\237\341\237\200\341\236\230\341\236\232\341\236\266\341\236\224 !EXIT
-0.0158	\341\236\201\341\237\201\341\236\217\341\237\222\341\236\217\341\236\237\341\237\222\341\236\221\341\236\271\341\236\204\341\236\217\341\237\222\341\236\232\341\237\202\341\236\204 !EXIT
-0.0158	\341\236\201\341\237\201\341\236\217\341\237\222\341\236\217\341\236\237\341\237\222\341\236\234\341\236\266\341\236\231\341\236\232\341\237\200\341\236\204 !EXIT
-0.0158	\341\236\201\341\237\201\341\236\217\341\237\222\341\236\217\341\236\247\341\236\217\341\237\222\341\236\212\341\236\232\341\236\230\341\236\266\341\236\223\341\236\207\341\237\220\341\236\231 !EXIT
-0.0158	\341\236\201\341\237\202 !EXIT
-0.0158	\341\236\201\341\237\202\341\236\200\341\236\200\341\237\222\341\236\200\341\236\212\341\236\266 !EXIT
-0.0158	\341\236\201\341\237\202\341\236\200\341\236\211\341\237\222\341\236\211\341\236\266 !EXIT
-0.0158	\341\236\201\341\237\202\341\236\200\341\236\273\341\236\230\341\237\222\341\236\227\341\237\210 !EXIT
-0.0158	\341\236\201\341\237\202\341\236\217\341\236\273\341\236\233\341\236\266 !EXIT
-0.0158	\341\236\201\341\237\202\341\236\222\341\237\222\341\236\223\341\236\274 !EXIT
-0.0158	\341\236\201\341\237\202\341\236\230\341\236\200\341\236\232\341\236\266 !EXIT
-0.0158	\341\236\201\341\237\202\341\236\230\341\236\267\341\236\220\341\236\273\341\236\223\341\236\266 !EXIT
-0.0158	\341\236\201\341\237\202\341\236\230\341\236\270\341\236\223\341\236\266 !EXIT
-0.0158	\341\236\201\341\237\202\341\236\230\341\237\201\341\236\237\341\236\266 !EXIT
-0.0158	\341\236\201\341\237\202\341\236\234\341\236\267\341\236\205\341\237\222\341\236\206\341\236\267\341\236\200\341\236\266 !EXIT
-0.0158	\341\236\201\341\237\202\341\236\237\341\236\270\341\236\240\341\236\266 !EXIT
-0.0158	\341\236\201\341\237\202\341\236\247\341\236\237\341\236\227\341\236\266 !EXIT
-0.0158	\341\236\201\341\237\222\341\236\237\341\237\204\341\236\231\341\236\224\341\237\201\341\237\207\341\236\212\341\236\274\341\236\204 !EXIT
-0.0158	\341\236\202\341\237\222\341\236\232\341\236\273\341\236\223\341\236\200\341\237\222\341\236\212\341\237\205 !EXIT
-0.0158	\341\236\202\341\237\222\341\236\232\341\236\273\341\236\223\341\236\205\341\236\266\341\236\211\341\237\213 !EXIT
-0.0158	\341\236\202\341\237\222\341\236\232\341\236\273\341\236\223\341\236\210\341\236\266\341\236\230 !EXIT
-0.0158	\341\236\202\341\237\222\341\236\232\341\236\273\341\236\223\341\236\226\341\237\204\341\237\207\341\236\234\341\237\200\341\236\223 !EXIT
-0.0158	\341\236\202\341\237\222\341\236\232\341\236\275\341\236\237\341\236\217\341\237\206\341\236\232\341\236\204\341\236\223\341\237\204\341\236\230 !EXIT
-0.0158	\341\236\205\341\236\266 !EXIT
-0.0158	\341\236\205\341\236\273\341\237\207\341\236\210\341\237\222\341\236\230\341\237\204\341\237\207 !EXIT
-0.0158	\341\236\206\341\237\222\341\236\200\341\237\202\341\236\206\341\237\222\341\236\200\341\236\275\341\236\217 !EXIT
-0.0158	\341\236\206\341\237\222\341\236\223\341\236\266\341\237\206 !EXIT
-0.0158	\341\236\207\341\237\222\341\236\232\341\236\274\341\236\200 !EXIT
-0.0158	\341\236\210\341\236\224\341\237\213 !EXIT
-0.0158	\341\236\212\341\237\206\341\236\241\341\236\274\341\236\204\341\236\225\341\237\222\341\236\242\341\237\202\341\236\230 !EXIT
-0.0158	\341\236\212\341\237\206\341\236\241\341\236\274\341\236\204\341\236\230\341\236\270 !EXIT
-0.0158	\341\236\217\341\236\266\341\236\200\341\237\202\341\236\234 !EXIT
-0.0170	\341\236\217\341\237\201\341\236\217\341\236\217\341\236\266\341\236\216\341\236\273\341\236\237 !EXIT
-0.0158	\341\236\217\341\237\222\341\236\232\341\236\270 !EXIT
-0.0158	\341\236\220\341\236\231\341\236\200\341\237\222\341\236\232\341\237\204\341\236\231 !EXIT
-0.0158	\341\236\220\341\237\222\341\236\204\341\237\203 !EXIT
-0.0158	\341\236\220\341\237\222\341\236\204\341\237\203\341\236\205\341\237\220\341\236\223\341\237\222\341\236\221 !EXIT
-0.0158	\341\236\220\341\237\222\341\236\204\341\237\203\341\236\223\341\237\201\341\237\207 !EXIT
-0.0158	\341\236\220\341\237\222\341\236\204\341\237\203\341\236\226\341\236\273\341\236\222 !EXIT
-0.0158	\341\236\220\341\237\222\341\236\204\341\237\203\341\236\226\341\237\222\341\236\232\341\236\240\341\236\237\341\237\222\341\236\224\341\236\223\341\236\267\341\237\215 !EXIT
-0.0158	\341\236\220\341\237\222\341\236\204\341\237\203\341\236\237\341\236\273\341\236\200\341\237\222\341\236\232 !EXIT
-0.0158	\341\236\220\341\237\222\341\236\204\341\237\203\341\236\237\341\237\205\341\236\232\341\237\215 !EXIT
-0.0158	\341\236\220\341\237\222\341\236\204\341\237\203\341\236\237\341\237\222\341\236\242\341\237\202\341\236\200 !EXIT
-0.0158	\341\236\220\341\237\222\341\236\204\341\237\203\341\236\242\341\236\204\341\237\222\341\236\202\341\236\266\341\236\232 !EXIT
-0.0158	\341\236\220\341\237\222\341\236\204\341\237\203\341\236\242\341\236\266\341\236\221\341\236\267\341\236\217\341\237\222\341\236\231 !EXIT
-0.0170	\341\236\220\341\237\222\341\236\223\341\236\266\341\237\206\341\236\207\341\236\200\341\237\213 !EXIT
-0.0158	\341\236\221\341\236\266 !EXIT
-0.0158	\341\236\221\341\236\266\341\236\205\341\236\221\341\236\271\341\236\200 !EXIT
-0.0158	\341\236\221\341\236\271\341\236\200\341\236\223\341\237\204\341\236\230\341\236\224\341\237\222\341\236\232\341\237\203 !EXIT
-0.0158	\341\236\221\341\236\271\341\236\200\341\236\223\341\237\204\341\236\230\341\236\225\341\237\222\341\236\242\341\237\202\341\236\230 !EXIT
-0.0158	\341\236\221\341\237\201 !EXIT
-0.0158	\341\236\221\341\237\205\341\236\230\341\236\273\341\236\201 !EXIT
-0.0158	\341\236\221\341\237\206\341\236\226\341\237\220\341\236\232\341\236\212\341\236\276\341\236\230 !EXIT
-0.0158	\341\236\221\341\237\206\341\236\226\341\237\220\341\236\232\341\236\224\341\236\223\341\237\222\341\236\221\341\236\266\341\236\224\341\237\213 !EXIT
-0.0185	\341\236\221\341\237\206\341\236\226\341\237\220\341\236\232\341\236\230\341\236\273\341\236\223 !EXIT
-0.0158	\341\236\223\341\236\266\341\236\232\341\236\270 !EXIT
-0.0158	\341\236\224\341\236\211\341\237\222\341\236\205\341\236\224\341\237\213 !EXIT
-0.0158	\341\236\224\341\236\211\341\237\222\341\236\207\341\236\270 !EXIT
-0.0158	\341\236\224\341\236\211\341\237\222\341\236\210\341\236\224\341\237\213 !EXIT
-0.0170	\341\236\224\341\236\223\341\237\222\341\236\217 !EXIT
-0.0158	\341\236\224\341\236\223\341\237\222\341\236\221\341\236\266\341\236\231\341\236\230\341\236\266\341\236\223\341\236\207\341\237\220\341\236\231 !EXIT
-0.0158	\341\236\224\341\236\223\341\237\222\341\236\233\341\237\202 !EXIT
-0.0158	\341\236\224\341\236\232\341\236\266\341\236\237\341\236\267\341\236\217 !EXIT
-0.0158	\341\236\224\341\236\266\341\236\217\341\237\213\341\236\212\341\237\206\341\236\224\341\236\204 !EXIT
-0.0158	\341\236\224\341\236\266\341\236\221 !EXIT
-0.0158	\341\236\224\341\236\273\341\236\232\341\236\237 !EXIT
-0.0158	\341\236\224\341\237\211\341\237\203\341\236\233\341\236\267\341\236\223 !EXIT
-0.0158	\341\236\224\341\237\222\341\236\232\341\236\200\341\236\266\341\237\206\341\236\204 !EXIT
-0.0158	\341\236\224\341\237\222\341\236\232\341\236\230\341\237\201\341\237\207 !EXIT
-0.0158	\341\236\224\341\237\222\341\236\232\341\236\271\341\236\200\341\237\222\341\236\237\341\236\266 !EXIT
-0.0158	\341\236\224\341\237\222\341\236\232\341\236\273\341\236\237 !EXIT
-0.0078	\341\236\225\341\237\222\341\236\212\341\236\266\341\236\237\341\236\237\341\236\266\341\236\231 !EXIT
-0.0158	\341\236\225\341\237\222\341\236\212\341\236\266\341\236\237\341\236\237\341\236\266\341\236\231\341\236\224\341\236\200\341\237\222\341\236\237\341\236\270 !EXIT
-0.0170	\341\236\225\341\237\222\341\236\217\341\236\266\341\237\206\341\236\237\341\236\266\341\236\232 !EXIT
-0.0158	\341\236\225\341\237\222\341\236\233\341\237\202\341\236\210\341\236\276 !EXIT
-0.0158	\341\236\226\341\237\204\341\236\217 !EXIT
-0.0158	\341\236\226\341\237\204\341\236\222\341\236\267\341\237\215\341\236\237\341\236\266\341\236\217\341\237\213 !EXIT
-0.0158	\341\236\226\341\237\220\341\236\217\341\237\214\341\236\230\341\236\266\341\236\223 !EXIT
-0.0158	\341\236\226\341\237\222\341\236\232\341\236\230 !EXIT
-0.0158	\341\236\226\341\237\222\341\236\232\341\237\203\341\236\234\341\237\202\341\236\204 !EXIT
-0.0158	\341\236\226\341\237\222\341\236\232\341\237\207\341\236\234\341\236\267\341\236\240\341\236\266\341\236\232 !EXIT
-0.0158	\341\236\226\341\237\222\341\236\232\341\237\207\341\236\237\341\236\270\341\236\240\341\236\223\341\236\273 !EXIT
-0.0158	\341\236\227\341\237\222\341\236\223\341\237\202\341\236\200\341\236\200\341\237\222\341\236\232\341\236\240\341\236\230 !EXIT
-0.0158	\341\236\227\341\237\222\341\236\223\341\237\206\341\236\226\341\237\201\341\236\211 !EXIT
-0.0158	\341\236\230\341\236\216\341\237\222\341\236\214\341\236\233\341\236\202\341\236\267\341\236\232\341\236\270 !EXIT
-0.0158	\341\236\230\341\236\240\341\236\266\341\236\232\341\236\270\341\236\200 !EXIT
-0.0158	\341\236\230\341\236\240\341\236\266\341\236\232\341\236\270\341\236\200\341\236\212\341\237\204\341\237\207 !EXIT
-0.0170	\341\236\230\341\236\240\341\236\266\341\236\232\341\236\270\341\236\200\341\236\217\341\237\206\341\236\232\341\236\204\341\236\223\341\237\204\341\236\230 !EXIT
-0.0158	\341\236\230\341\236\240\341\236\266\341\236\232\341\236\270\341\236\200\341\236\237\341\236\275\341\236\217 !EXIT
-0.0158	\341\236\230\341\236\240\341\236\266\341\236\232\341\236\270\341\236\200\341\236\237\341\237\222\341\236\224\341\236\274\341\236\223 !EXIT
-0.0158	\341\236\230\341\236\266\341\236\223\341\237\213 !EXIT
-0.0158	\341\236\230\341\237\222\341\236\217\341\236\204\341\236\221\341\237\200\341\236\217 !EXIT
-0.0158	\341\236\230\341\237\222\341\236\237\341\236\267\341\236\233\341\236\230\341\237\211\341\236\267\341\236\211 !EXIT
-0.0158	\341\236\230\341\237\222\341\236\237\341\236\267\341\236\233\341\236\230\341\237\222\341\236\204\341\237\203 !EXIT
-0.0158	\341\236\230\341\237\222\341\236\237\341\236\267\341\236\233\341\236\230\341\237\222\341\236\204\341\237\203\341\236\230\341\236\275\341\236\231 !EXIT
-0.0158	\341\236\232\341\236\217\341\236\223\341\236\202\341\236\267\341\236\232\341\236\270 !EXIT
-0.0158	\341\236\232\341\236\224\341\237\201\341\236\204 !EXIT
-0.0158	\341\236\232\341\236\233\341\236\266\341\236\200\341\236\220\341\237\222\341\236\233\341\236\276\341\236\230\341\236\224\341\237\201 !EXIT
-0.0158	\341\236\232\341\236\233\341\236\266\341\236\200\341\236\220\341\237\222\341\236\233\341\236\276\341\236\230\341\236\237\341\237\201 !EXIT
-0.0158	\341\236\232\341\236\233\341\236\266\341\236\200\341\236\220\341\237\222\341\236\233\341\236\276\341\236\230\341\236\242\341\236\266 !EXIT
-0.0158	\341\236\232\341\236\233\341\236\266\341\236\200\341\236\221\341\236\204\341\236\237\341\236\275\341\236\217 !EXIT
-0.0158	\341\236\232\341\236\233\341\236\266\341\236\200\341\236\237\341\237\222\341\236\232\341\237\204\341\236\230\341\236\201\341\236\275\341\236\232 !EXIT
-0.0158	\341\236\232\341\236\266\341\236\202 !EXIT
-0.0158	\341\236\232\341\236\266\341\236\202\341\236\232\341\236\274\341\236\237 !EXIT
-0.0158	\341\236\233\341\236\273\341\236\224\341\236\210\341\237\222\341\236\230\341\237\204\341\237\207 !EXIT
-0.0158	\341\236\233\341\236\276\341\236\237\341\236\210\341\236\266\341\236\230 !EXIT
-0.0158	\341\236\233\341\237\222\341\236\204 !EXIT
-0.0158	\341\236\237\341\236\216\341\237\222\341\236\217\341\237\202\341\236\200\341\236\212\341\236\270 !EXIT
-0.0158	\341\236\237\341\236\216\341\237\222\341\236\217\341\237\202\341\236\200\341\236\237\341\237\200\341\236\204 !EXIT
-0.0158	\341\236\237\341\236\224\341\237\222\341\236\212\341\236\266\341\236\240\341\237\215 !EXIT
-0.0158	\341\236\237\341\237\200\341\236\230\341\236\232\341\236\266\341\236\224 !EXIT
-0.0158	\341\236\237\341\237\201\341\237\207 !EXIT
-0.0158	\341\236\237\341\237\212\341\236\270\341\236\212\341\236\266 !EXIT
-0.0158	\341\236\237\341\237\222\341\236\217\341\237\222\341\236\232\341\236\270 !EXIT
-0.0158	\341\236\237\341\237\222\341\236\221\341\236\271\341\236\204\341\236\217\341\237\222\341\236\232\341\237\202\341\236\204 !EXIT
-0.0158	\341\236\237\341\237\222\341\236\232\341\236\274\341\236\234 !EXIT
-0.0158	\341\236\237\341\237\222\341\236\234\341\236\266\341\236\231 !EXIT
-0.0158	\341\236\237\341\237\222\341\236\234\341\236\266\341\236\231\341\236\232\341\237\200\341\236\204 !EXIT
-0.0158	\341\236\237\341\237\222\341\236\242\341\236\274\341\236\205 !EXIT
-0.0158	\341\236\240\341\237\205 !EXIT
-0.0158	\341\236\242\341\236\204\341\237\222\341\236\200\341\236\232 !EXIT
-0.0158	\341\236\242\341\236\217\341\237\213\341\236\226\341\237\222\341\236\232\341\236\230 !EXIT
-0.0158	\341\236\242\341\236\266\341\236\221\341\236\267\341\236\217\341\237\222\341\236\231 !EXIT
-0.0158	\341\236\242\341\236\266\341\236\237\341\236\223\341\237\222\341\236\223\341\236\232\341\237\204\341\236\202 !EXIT
-0.0158	\341\236\242\341\237\201\341\236\212\341\237\215 !EXIT
-0.0170	\341\236\242\341\237\206\341\236\226\341\237\205 !EXIT
-0.0158	\341\236\247\341\236\217\341\237\222\341\236\212\341\236\232\341\236\230\341\236\266\341\236\223\341\236\207\341\237\220\341\236\231 !EXIT
-0.0158	\341\237\240_\341\236\237\341\236\274\341\236\223\341\237\222\341\236\231 !EXIT
-0.0158	\341\237\240_\341\236\240\341\237\222\341\236\237\341\237\201\341\236\232\341\237\211\341\236\274 !EXIT
-0.0158	\341\237\241 !EXIT
-0.0158	\341\237\241\341\237\240 !EXIT
-0.0158	\341\237\241\341\237\241 !EXIT
-0.0158	\341\237\241\341\237\242 !EXIT
-0.0158	\341\237\241\341\237\243 !EXIT
-0.0158	\341\237\241\341\237\244 !EXIT
-0.0158	\341\237\241\341\237\245 !EXIT
-0.0158	\341\237\241\341\237\246 !EXIT
-0.0158	\341\237\241\341\237\247_\341\236\212\341\236\224\341\237\213\341\236\224\341\237\222\341\236\232\341\236\266\341\237\206\341\236\226\341\236\267\341\236\233 !EXIT
-0.0158	\341\237\241\341\237\247_\341\236\212\341\236\224\341\237\213\341\236\224\341\237\222\341\236\232\341\236\266\341\237\206\341\236\226\341\236\270\341\236\232 !EXIT
-0.0158	\341\237\241\341\237\250 !EXIT
-0.0158	\341\237\241\341\237\251 !EXIT
-0.0158	\341\237\242 !EXIT
-0.0158	\341\237\242\341\237\240 !EXIT
-0.0158	\341\237\243 !EXIT
-0.0158	\341\237\244 !EXIT
-0.0158	\341\237\245 !EXIT
-0.0158	\341\237\246 !EXIT
-0.0158	\341\237\247_\341\236\224\341\237\222\341\236\232\341\236\266\341\237\206\341\236\226\341\236\267\341\236\233 !EXIT
-0.0158	\341\237\247_\341\236\224\341\237\222\341\236\232\341\236\266\341\237\206\341\236\226\341\236\270\341\236\232 !EXIT
-0.0158	\341\237\250 !EXIT
-0.0158	\341\237\251 !EXIT

\end\
