~o
<STREAMINFO> 1 39
<VECSIZE> 39<NULLD><MFCC_D_A_Z_0><DIAGC>
~h "b"
<BEGINHMM>
<NUMSTATES> 5
<STATE> 2
<NUMMIXES> 16
<MIXTURE> 1 5.286339e-02
<MEAN> 39
 -3.829022e+00 1.239730e+00 6.678667e+00 7.383379e+00 3.407050e+00 1.154141e+01 9.359498e+00 9.396052e+00 3.546480e+00 8.879328e+00 5.287883e+00 2.227409e+00 -1.187824e+01 -1.020959e-01 -5.020025e-02 4.558788e-02 8.346992e-02 3.256711e-01 7.846316e-01 8.231328e-01 1.942618e-01 2.497617e-01 -1.497338e-01 -4.882181e-02 3.369582e-01 -3.910331e-02 1.556634e-01 -5.496662e-02 -2.854548e-01 1.454120e-02 3.941952e-01 -2.972756e-01 -4.684391e-01 -4.534481e-01 -9.363237e-02 -4.394458e-01 -4.687704e-01 -9.886304e-02 4.296667e-01
<VARIANCE> 39
 1.470769e+01 2.001415e+01 4.027594e+01 4.101358e+01 6.756196e+01 5.306840e+01 6.471661e+01 7.230834e+01 6.506056e+01 6.506596e+01 5.556512e+01 7.614223e+01 9.879944e+00 4.937689e-01 9.447584e-01 2.400944e+00 2.793197e+00 6.525637e+00 3.968301e+00 4.505904e+00 5.295405e+00 8.179548e+00 5.560569e+00 5.825764e+00 6.751073e+00 2.541688e-01 1.482857e-01 2.281252e-01 2.993506e-01 5.654690e-01 1.023695e+00 1.098213e+00 1.341442e+00 1.390775e+00 1.638942e+00 1.300155e+00 1.017727e+00 1.797651e+00 2.231642e-01
<GCONST> 1.295238e+02
<MIXTURE> 2 3.936955e-02
<MEAN> 39
 5.355207e+00 3.948385e+00 3.816282e+00 8.295336e-02 -5.926426e+00 -1.361036e+01 -1.370844e+01 -7.979715e+00 -7.526261e+00 -1.147209e+00 -1.193422e+00 2.916157e+00 -5.905006e+00 -2.519501e+00 -1.647686e+00 -8.012528e-01 3.595351e-01 2.605825e+00 5.495623e+00 4.483002e+00 3.015416e+00 3.604117e+00 2.650402e+00 2.229507e+00 8.838574e-01 -1.831223e+00 -1.784444e-01 -8.766158e-01 -6.650426e-01 -1.995993e-01 6.050424e-01 1.825650e+00 1.655161e+00 1.175261e+00 5.603850e-01 -8.461172e-02 -1.913370e-01 -3.704602e-01 3.853089e-01
<VARIANCE> 39
 2.178076e+01 3.496254e+01 4.489381e+01 5.066214e+01 9.104672e+01 1.321041e+02 1.117641e+02 1.212057e+02 7.071844e+01 1.186939e+02 1.220590e+02 1.403736e+02 2.338932e+01 1.805719e+00 2.624224e+00 3.508286e+00 3.726699e+00 6.477894e+00 1.314914e+01 1.185059e+01 1.000057e+01 1.085050e+01 1.580088e+01 9.405723e+00 9.603316e+00 8.625582e-01 4.104422e-01 6.832588e-01 9.760349e-01 8.877986e-01 1.690629e+00 2.414147e+00 2.083741e+00 2.041395e+00 1.987429e+00 2.445205e+00 2.525653e+00 2.722298e+00 4.982759e-01
<GCONST> 1.539852e+02
<MIXTURE> 3 8.667519e-02
<MEAN> 39
 -2.123545e+00 -1.500417e+00 1.759508e+00 5.506362e+00 5.168979e+00 7.563079e+00 6.585748e+00 3.153473e+00 1.714866e+00 2.967197e+00 3.199473e+00 4.389111e+00 -8.966981e+00 -2.250361e+00 -7.773207e-02 1.057001e+00 1.024895e+00 2.083057e+00 3.414819e+00 2.682897e+00 1.827742e+00 1.550986e+00 1.083509e+00 7.334197e-01 1.256321e-01 -2.167334e+00 1.090057e+00 -1.053484e+00 -1.700852e+00 -7.175668e-01 -6.682950e-01 -1.261366e+00 -9.813006e-01 -5.337534e-01 -3.731157e-01 -6.957492e-01 -6.989835e-01 -5.640432e-01 2.104877e+00
<VARIANCE> 39
 1.358973e+01 4.039843e+01 6.655393e+01 5.601742e+01 7.187147e+01 1.050951e+02 8.664318e+01 1.062612e+02 8.418703e+01 8.553030e+01 7.684515e+01 5.794855e+01 1.306911e+01 1.852474e+00 2.999571e+00 4.791532e+00 5.616020e+00 5.756867e+00 6.459849e+00 8.776517e+00 9.819522e+00 1.036129e+01 9.597772e+00 8.791707e+00 7.629032e+00 1.786290e+00 3.064623e-01 7.956612e-01 1.178415e+00 1.390075e+00 1.840910e+00 2.095217e+00 1.939095e+00 2.817448e+00 2.380920e+00 2.774554e+00 2.237282e+00 1.815646e+00 4.610650e-01
<GCONST> 1.512311e+02
<MIXTURE> 4 4.922585e-02
<MEAN> 39
 -1.395573e+00 3.722515e+00 6.172060e+00 6.045491e+00 7.864756e+00 1.124444e+01 1.135255e+01 8.880794e+00 4.164347e+00 6.315951e+00 2.706412e-01 -2.735984e-01 -5.803293e+00 2.442077e+00 -5.333868e+00 -3.675824e+00 -3.915210e+00 -3.116482e+00 -2.547318e+00 -3.103298e+00 -5.887131e+00 4.461472e-01 -1.976568e+00 7.844245e-01 1.877503e+00 8.871019e+00 8.980008e-03 -1.877197e+00 -8.617066e-01 -1.181734e+00 -7.874626e-01 -8.717755e-01 -1.321608e+00 -2.084523e+00 -1.688152e-01 -1.213689e+00 -2.938564e-01 -1.408877e-01 1.718714e+00
<VARIANCE> 39
 2.299558e+01 3.599036e+01 3.951716e+01 6.523403e+01 5.105720e+01 8.670240e+01 8.242548e+01 6.720087e+01 5.720254e+01 5.727519e+01 6.671561e+01 7.719846e+01 6.396689e+01 1.847828e+00 8.803679e+00 5.169249e+00 1.230697e+01 6.593435e+00 1.071251e+01 1.286374e+01 1.125536e+01 9.399547e+00 1.348480e+01 6.811702e+00 8.972689e+00 8.171811e+00 5.348544e-01 1.338832e+00 8.929154e-01 1.201668e+00 1.517212e+00 1.409703e+00 2.342381e+00 2.140662e+00 1.811721e+00 1.622034e+00 1.455593e+00 1.615829e+00 1.647337e+00
<GCONST> 1.558371e+02
<MIXTURE> 5 7.940718e-02
<MEAN> 39
 -4.266092e+00 2.423967e+00 5.369428e+00 3.125662e+00 3.818009e+00 7.799640e+00 7.236802e+00 6.272116e+00 4.166386e+00 6.458355e+00 5.092618e+00 4.789987e+00 -1.213166e+01 2.166679e+00 1.585516e+00 4.837127e-01 -5.994634e-01 -2.419287e+00 -5.537742e+00 -5.114744e+00 -4.372906e+00 -3.848211e+00 -2.207839e+00 -8.276979e-01 6.101220e-01 1.374368e+00 9.390170e-01 3.683691e-01 -3.227084e-03 -2.052715e-01 -6.958033e-01 -1.884669e+00 -1.721511e+00 -1.425261e+00 -1.322645e+00 -1.007048e+00 -6.167021e-01 -5.124634e-01 7.945876e-01
<VARIANCE> 39
 1.432744e+01 4.596479e+01 3.841032e+01 5.334100e+01 6.913647e+01 8.611140e+01 6.639928e+01 8.845375e+01 8.158692e+01 8.488443e+01 8.213012e+01 7.331418e+01 2.110419e+01 1.144822e+00 1.968171e+00 3.728631e+00 4.400749e+00 7.822851e+00 1.392280e+01 9.824182e+00 1.040356e+01 9.306822e+00 8.254133e+00 9.754906e+00 8.043935e+00 7.829139e-01 2.441925e-01 4.125809e-01 6.253322e-01 8.032436e-01 1.665097e+00 2.333615e+00 2.337233e+00 2.003431e+00 1.821478e+00 2.034011e+00 1.686579e+00 1.548162e+00 1.755905e-01
<GCONST> 1.455921e+02
<MIXTURE> 6 4.369040e-02
<MEAN> 39
 -2.220297e+00 -9.148954e+00 -9.266474e+00 3.885478e+00 9.695436e+00 1.693766e+01 1.170406e+01 1.118910e+01 1.492996e+00 -5.212443e-01 3.604261e+00 7.033121e+00 -1.039863e+01 -4.608739e-01 9.748726e-02 4.243707e-01 3.813351e-02 4.396257e-01 1.285894e+00 5.380877e-01 6.083724e-01 8.479077e-01 1.470307e+00 1.315725e+00 2.026574e-01 -4.709848e-01 1.981830e-01 6.137074e-01 8.263975e-01 3.085187e-01 -5.048273e-01 -1.341208e+00 -1.006358e+00 -9.726151e-01 -2.926403e-01 2.421877e-02 -6.292506e-01 -6.202568e-01 2.306865e-01
<VARIANCE> 39
 1.371035e+01 3.388118e+01 5.943821e+01 5.005535e+01 4.317409e+01 6.106749e+01 5.933304e+01 8.589076e+01 8.356388e+01 9.620328e+01 6.496020e+01 6.883340e+01 8.628661e+00 6.148496e-01 1.920336e+00 4.014179e+00 3.868194e+00 5.274579e+00 1.035677e+01 1.014499e+01 8.942453e+00 1.034177e+01 6.162042e+00 6.761599e+00 8.376721e+00 2.541688e-01 2.059112e-01 2.656452e-01 5.963818e-01 6.172765e-01 9.794498e-01 2.190129e+00 1.563012e+00 1.474169e+00 1.751016e+00 1.727420e+00 1.323273e+00 1.688623e+00 1.065851e-01
<GCONST> 1.373858e+02
<MIXTURE> 7 5.105691e-02
<MEAN> 39
 1.730049e+00 8.200426e+00 7.271762e+00 1.852622e+00 -1.841811e+00 -8.167254e+00 -4.080431e+00 -2.236954e+00 -2.806756e+00 1.979887e+00 2.576609e+00 8.664895e+00 -9.367913e+00 3.494434e+00 1.112735e+00 -4.440094e-01 -2.004586e+00 -4.445777e+00 -8.586631e+00 -5.520805e+00 -4.219018e+00 -4.642448e+00 -3.495518e+00 -1.656163e+00 4.486354e-01 2.885730e+00 1.989876e-01 -1.030988e+00 -8.065270e-01 -2.860598e-01 -7.140988e-02 5.782929e-01 7.776293e-01 2.340743e-01 -1.152167e-01 -4.169378e-01 -2.534231e-01 -1.102918e+00 1.073280e+00
<VARIANCE> 39
 1.674650e+01 3.864309e+01 3.360840e+01 7.678750e+01 9.211832e+01 2.111752e+02 6.860899e+01 1.031976e+02 9.283491e+01 1.169660e+02 1.120287e+02 8.166387e+01 2.848874e+01 2.331933e+00 3.587591e+00 4.334775e+00 6.591401e+00 1.114559e+01 1.859871e+01 1.590136e+01 1.275592e+01 9.095889e+00 9.319334e+00 9.536659e+00 9.554444e+00 1.967333e+00 3.823576e-01 9.192987e-01 1.042203e+00 1.030891e+00 1.896376e+00 4.253455e+00 1.768548e+00 2.333097e+00 2.159720e+00 2.613060e+00 2.574213e+00 1.778916e+00 7.200297e-01
<GCONST> 1.577167e+02
<MIXTURE> 8 6.906123e-02
<MEAN> 39
 3.114712e+00 7.568696e+00 8.709672e+00 2.859526e+00 -1.867579e+00 -3.522267e+00 -6.504852e+00 -1.023235e+01 -9.130805e+00 -7.055153e-02 1.567378e+00 2.751213e+00 -6.268617e+00 1.064108e+00 -1.914489e+00 -3.184755e+00 -1.935822e+00 -8.683118e-01 7.546865e-01 5.462788e-01 4.381554e-01 6.967195e-01 -1.012223e+00 -5.207701e-01 -1.230726e+00 2.624513e+00 7.349322e-01 -1.484668e+00 -2.360149e+00 -6.949974e-01 1.153523e-02 -8.400019e-01 8.388177e-02 1.312366e+00 1.307465e+00 -8.064784e-01 -7.791268e-01 -7.127058e-01 1.915404e+00
<VARIANCE> 39
 2.187803e+01 4.066169e+01 5.163764e+01 4.188241e+01 6.497019e+01 9.176636e+01 8.658205e+01 7.550085e+01 8.622480e+01 6.706811e+01 6.436681e+01 4.577152e+01 2.231486e+01 5.352966e+00 6.543445e+00 1.099401e+01 8.939739e+00 6.334803e+00 2.208020e+01 1.692069e+01 1.416029e+01 1.392356e+01 1.152863e+01 8.620700e+00 1.047279e+01 8.635391e+00 6.761577e-01 1.049812e+00 1.929487e+00 1.616208e+00 2.463757e+00 2.460373e+00 2.656517e+00 2.802417e+00 2.038680e+00 3.050324e+00 2.087966e+00 1.893482e+00 7.994742e-01
<GCONST> 1.612651e+02
<MIXTURE> 9 6.101210e-02
<MEAN> 39
 -1.630316e+00 -4.035938e+00 -1.892894e-01 8.848386e+00 9.252041e+00 1.195261e+01 3.066775e+00 -5.451648e-01 1.558765e+00 9.920207e+00 4.512163e+00 2.405262e+00 -1.071865e+01 6.142788e-02 5.874354e-01 5.883758e-01 1.895060e-02 -4.931023e-01 -3.232829e-01 -3.531763e-01 1.849680e-01 2.153704e-01 1.945198e-02 -1.946341e-01 -9.769510e-03 -2.494339e-01 -4.417913e-02 -8.603408e-03 1.147484e-01 -3.059424e-03 -1.010625e-01 -7.212275e-02 5.606591e-01 6.327689e-01 8.589336e-02 -5.237694e-01 -1.324983e-01 5.635569e-02 5.990214e-02
<VARIANCE> 39
 7.303937e+00 4.011345e+01 5.047564e+01 8.247173e+01 5.632132e+01 4.813603e+01 7.178059e+01 7.215773e+01 7.880116e+01 8.835862e+01 6.305912e+01 8.465969e+01 8.628661e+00 4.241750e-01 9.665515e-01 2.411483e+00 3.857049e+00 5.242132e+00 4.133455e+00 6.808655e+00 6.350000e+00 7.674359e+00 6.479042e+00 4.585308e+00 8.863674e+00 2.541688e-01 7.889911e-02 1.783493e-01 4.667067e-01 7.146768e-01 1.233600e+00 8.137748e-01 1.119239e+00 1.040998e+00 1.674968e+00 1.361318e+00 9.968368e-01 2.027764e+00 4.494329e-02
<GCONST> 1.293783e+02
<MIXTURE> 10 8.135857e-02
<MEAN> 39
 -3.192921e+00 5.261925e+00 5.855239e+00 6.128489e+00 5.796137e+00 1.091239e+01 1.020173e+01 1.018095e+01 3.038771e+00 6.355280e+00 1.617825e+00 -3.376363e-01 -1.434599e+01 5.344446e-01 -3.921558e-01 -7.280726e-01 -1.204799e+00 -5.182596e-01 -1.472890e-01 5.529528e-02 -1.968840e-01 4.859821e-01 -7.794508e-01 -1.973328e-02 5.270853e-01 2.320376e+00 7.343268e-01 -1.449833e+00 -1.027096e+00 -6.952927e-01 -6.583731e-01 -9.869441e-01 -6.980962e-01 -1.532062e+00 -3.173943e-01 -6.965756e-01 -1.152812e-02 2.082543e-01 2.545658e+00
<VARIANCE> 39
 1.368724e+01 3.248905e+01 4.268538e+01 5.831105e+01 5.352043e+01 7.559922e+01 7.557564e+01 8.695750e+01 6.418033e+01 6.826417e+01 6.031414e+01 7.664478e+01 1.602912e+01 1.631473e+00 2.150282e+00 2.089232e+00 3.339728e+00 5.679126e+00 6.023098e+00 6.622005e+00 8.265136e+00 5.510530e+00 6.859291e+00 5.969026e+00 4.544253e+00 4.745987e+00 2.678691e-01 6.871144e-01 8.381732e-01 1.395106e+00 1.353841e+00 1.632425e+00 1.732392e+00 1.854383e+00 1.802753e+00 1.752317e+00 1.148750e+00 1.903163e+00 6.449636e-01
<GCONST> 1.434290e+02
<MIXTURE> 11 7.190052e-02
<MEAN> 39
 -3.120281e+00 1.304837e+00 -6.678368e-02 1.267226e+00 -9.362921e-01 4.309618e+00 7.784252e+00 5.323749e+00 3.963464e+00 -1.886594e+00 1.054907e+00 -1.056973e+00 -2.222512e-01 3.354532e+00 -5.302305e+00 -3.984909e+00 -2.167933e+00 -2.259939e+00 -4.070713e+00 -1.710375e+00 -2.381117e+00 -3.628389e+00 -3.186080e+00 -1.575711e+00 -1.586939e+00 9.543287e+00 5.831755e-01 -1.275176e+00 -4.839973e-01 -2.388143e-01 3.455281e-02 -5.047185e-01 -6.853817e-01 -6.963952e-01 -1.032574e+00 4.958280e-02 -9.083083e-02 -2.188790e-02 9.208024e-01
<VARIANCE> 39
 4.345598e+01 6.117203e+01 4.557490e+01 7.184142e+01 7.402349e+01 8.868222e+01 7.745767e+01 1.064018e+02 9.366205e+01 9.848306e+01 5.920429e+01 6.448735e+01 7.125307e+01 4.632463e+00 9.110991e+00 1.140059e+01 1.087856e+01 1.315804e+01 1.315028e+01 1.330476e+01 1.671547e+01 1.512316e+01 9.711350e+00 6.849543e+00 1.111063e+01 1.090438e+01 1.405526e+00 1.351069e+00 1.431339e+00 1.362429e+00 1.691818e+00 3.013338e+00 2.071471e+00 2.368842e+00 2.159886e+00 2.802042e+00 1.803481e+00 1.604504e+00 1.424019e+00
<GCONST> 1.656830e+02
<MIXTURE> 12 5.069313e-02
<MEAN> 39
 -3.708638e+00 -6.414494e+00 -2.498055e+00 9.376286e+00 8.208870e+00 8.260771e+00 1.093886e+01 6.676035e+00 1.635000e+00 3.914097e+00 4.440417e+00 4.650184e+00 -1.063142e+01 -2.728600e-01 2.950473e-01 2.490986e-01 -1.578237e-01 -1.931316e-01 1.757453e+00 6.584518e-01 3.814911e-01 3.757263e-01 -2.965670e-02 -4.115798e-01 -4.503185e-01 -6.550953e-01 1.074900e+00 3.423395e-01 -4.837703e-01 -8.263068e-01 -7.399342e-01 -1.438125e+00 -1.786571e+00 -1.028646e+00 -7.144347e-01 -5.547046e-01 -7.789803e-01 -4.454078e-01 1.392390e+00
<VARIANCE> 39
 1.275907e+01 5.274676e+01 6.479418e+01 6.164766e+01 6.092287e+01 1.110525e+02 1.316858e+02 1.556214e+02 1.438900e+02 8.058390e+01 9.669347e+01 8.027115e+01 2.040275e+01 5.220768e-01 1.281566e+00 2.596848e+00 3.585004e+00 5.586448e+00 5.869899e+00 8.647373e+00 1.043045e+01 1.032479e+01 9.087088e+00 7.679693e+00 8.229041e+00 2.916651e-01 1.701679e-01 4.919232e-01 1.256057e+00 1.651339e+00 1.426198e+00 2.043823e+00 2.440358e+00 2.983232e+00 2.972062e+00 2.019596e+00 2.034159e+00 1.585104e+00 5.056207e-01
<GCONST> 1.474220e+02
<MIXTURE> 13 7.268650e-02
<MEAN> 39
 -5.057464e+00 3.903749e+00 3.499956e+00 5.782243e+00 3.874713e+00 9.112068e+00 5.544282e+00 7.980487e+00 4.863735e+00 4.991796e+00 5.286861e+00 2.452706e+00 -1.561084e+01 1.429205e+00 -1.373598e+00 -1.876240e+00 -1.318079e+00 -1.375812e+00 -2.274242e+00 -3.945048e-02 -7.366191e-01 -2.067697e+00 -2.941677e+00 -1.752629e+00 -1.568020e+00 5.862167e+00 1.174687e+00 -1.636169e+00 -1.365228e+00 -4.305616e-01 -5.124070e-01 -1.505597e+00 -5.283906e-01 -8.112827e-01 -1.552686e+00 -9.028924e-01 -5.937545e-01 -5.715487e-01 3.063467e+00
<VARIANCE> 39
 9.672832e+00 4.799418e+01 4.961856e+01 4.884005e+01 6.139068e+01 6.520872e+01 8.665978e+01 7.209595e+01 8.881674e+01 5.696404e+01 5.628881e+01 5.015766e+01 2.050236e+01 4.574497e+00 3.842013e+00 6.532946e+00 7.578249e+00 9.012928e+00 1.187208e+01 1.074593e+01 9.154101e+00 9.864962e+00 7.776450e+00 5.864156e+00 7.339773e+00 1.100548e+01 3.576507e-01 1.010809e+00 1.193842e+00 1.092898e+00 1.774833e+00 1.721439e+00 1.810127e+00 1.792150e+00 2.196399e+00 1.177391e+00 1.537223e+00 1.368662e+00 7.569295e-01
<GCONST> 1.516291e+02
<MIXTURE> 14 7.422070e-02
<MEAN> 39
 7.402317e+00 7.558710e+00 6.556118e+00 1.493472e+00 -7.356231e+00 -1.713797e+01 -1.336182e+01 -1.083874e+01 -1.345884e+01 -9.026863e+00 -7.648279e+00 5.095342e-01 -4.134300e+00 -8.044176e-01 6.553969e-01 1.052166e+00 4.631436e-01 4.957089e-01 7.651934e-01 -5.840956e-01 -7.144049e-01 3.920175e-01 6.958440e-01 4.333892e-01 -4.023053e-01 -1.069651e+00 -9.481314e-02 -1.330707e+00 -1.420643e+00 -4.864163e-01 5.501448e-01 1.146019e+00 1.071576e+00 9.454560e-01 1.280987e+00 1.046857e+00 6.942435e-01 -2.003453e-02 1.090542e+00
<VARIANCE> 39
 2.448129e+01 3.797625e+01 3.798599e+01 4.726538e+01 6.838787e+01 1.497513e+02 1.116093e+02 1.135526e+02 8.890656e+01 1.094032e+02 1.193808e+02 8.984173e+01 3.554976e+01 3.334932e+00 4.733205e+00 4.376055e+00 5.549618e+00 7.102230e+00 1.737442e+01 1.272919e+01 1.294654e+01 1.046687e+01 1.176170e+01 1.257701e+01 8.540886e+00 4.156877e+00 6.261657e-01 8.526372e-01 1.608545e+00 1.474281e+00 1.655346e+00 3.798271e+00 2.854557e+00 2.564164e+00 1.948655e+00 2.225694e+00 2.784102e+00 1.946719e+00 1.109572e+00
<GCONST> 1.608304e+02
<MIXTURE> 15 4.661713e-02
<MEAN> 39
 -1.419635e+00 -4.026516e+00 -3.209376e+00 5.794413e+00 7.312233e+00 6.663927e+00 5.675909e+00 2.913723e+00 4.840764e-01 5.037076e-01 -1.223514e+00 1.636343e+00 -7.035546e+00 1.041336e-01 2.676834e-01 2.980290e-01 9.192872e-02 1.632097e-01 6.269386e-03 -8.608121e-01 -8.607321e-01 -1.440526e+00 -8.104098e-01 -1.887022e-01 -6.377364e-02 -4.985961e-02 3.516379e-02 8.760048e-02 1.882389e-01 -1.070513e-01 -2.091563e-01 -9.887554e-02 -2.461282e-01 -4.040460e-02 7.233781e-02 4.396590e-01 3.817393e-01 2.635032e-02 6.207977e-02
<VARIANCE> 39
 1.363461e+01 6.455313e+01 7.424576e+01 4.923429e+01 5.673910e+01 5.008696e+01 4.497614e+01 1.001747e+02 8.648177e+01 5.453168e+01 6.268221e+01 5.233206e+01 1.875784e+01 5.239508e-01 1.177235e+00 1.582159e+00 2.582806e+00 6.948861e+00 9.049004e+00 8.533504e+00 1.265470e+01 8.136093e+00 1.024774e+01 8.368932e+00 8.478621e+00 3.406226e-01 8.397873e-02 2.058456e-01 2.918442e-01 6.235948e-01 1.085629e+00 1.129092e+00 1.177684e+00 1.976386e+00 2.008593e+00 1.330881e+00 1.415143e+00 1.199398e+00 4.494329e-02
<GCONST> 1.335655e+02
<MIXTURE> 16 7.015716e-02
<MEAN> 39
 -4.223528e+00 -1.169803e+00 5.433784e+00 1.064896e+01 1.158611e+01 1.370204e+01 8.655153e+00 5.804372e+00 1.699973e+00 4.754574e+00 6.759120e-01 -1.762242e+00 -1.195836e+01 2.280429e-03 3.496760e-01 3.503039e-01 -2.123459e-01 -4.240698e-01 -1.251096e+00 -8.705854e-01 9.770311e-02 1.314026e-01 1.873927e-01 -4.176888e-01 9.498235e-02 -4.300601e-02 3.202156e-01 5.137169e-02 -2.299658e-01 -5.427179e-01 -7.200565e-01 -7.014268e-01 -3.611639e-01 -1.172311e-01 1.384992e-01 3.289159e-02 3.304082e-01 6.093420e-01 5.166569e-01
<VARIANCE> 39
 9.801930e+00 3.319172e+01 4.376580e+01 3.844333e+01 7.242139e+01 8.218743e+01 6.611806e+01 6.173511e+01 1.067324e+02 7.362086e+01 5.136808e+01 7.112862e+01 8.628661e+00 6.266178e-01 1.890288e+00 1.994211e+00 3.222992e+00 4.519797e+00 6.623249e+00 7.267432e+00 7.081244e+00 7.866251e+00 7.144629e+00 5.441373e+00 5.770719e+00 3.629023e-01 1.659086e-01 3.920186e-01 5.369965e-01 6.035075e-01 9.563873e-01 1.420450e+00 1.110267e+00 1.468805e+00 1.794110e+00 1.189553e+00 1.110053e+00 1.122492e+00 2.339488e-01
<GCONST> 1.335170e+02
<STATE> 3
<NUMMIXES> 16
<MIXTURE> 1 6.309810e-02
<MEAN> 39
 6.456316e-01 1.082969e+00 2.621974e+00 1.445656e+00 -1.472689e+00 2.941802e-01 -3.145627e-01 3.502527e-01 8.933925e-01 3.680700e+00 1.911881e+00 1.788799e+00 -8.653375e+00 -2.181150e+00 -1.586784e+00 -6.671427e-01 5.793774e-02 2.389289e+00 4.923483e+00 4.445542e+00 3.797863e+00 3.373475e+00 2.072785e+00 4.738996e-01 -5.446671e-01 -1.264492e+00 2.378881e-01 6.855450e-03 4.742249e-02 1.720621e-01 1.666131e-01 -3.222981e-01 -6.494019e-02 -2.527167e-01 -5.031886e-01 -5.455830e-01 -4.481537e-01 -2.242326e-01 3.843699e-01
<VARIANCE> 39
 1.807373e+01 2.620588e+01 3.970218e+01 4.172238e+01 5.734986e+01 1.185222e+02 8.785513e+01 1.210985e+02 9.533784e+01 8.370605e+01 9.599613e+01 6.581871e+01 2.196115e+01 1.620408e+00 2.558061e+00 3.139344e+00 4.565139e+00 7.291889e+00 1.162000e+01 9.236876e+00 9.657888e+00 1.098738e+01 1.191057e+01 1.009413e+01 1.060190e+01 7.357171e-01 3.698248e-01 4.647644e-01 7.669643e-01 6.695121e-01 1.203162e+00 1.797022e+00 1.895973e+00 1.628092e+00 2.038890e+00 2.260841e+00 2.239703e+00 1.455168e+00 3.210305e-01
<GCONST> 1.474712e+02
<MIXTURE> 2 5.355632e-02
<MEAN> 39
 1.345945e+01 -1.309335e+01 -3.407424e+01 -1.090979e+00 4.801574e+00 -1.589288e+01 -1.330391e+00 7.495834e+00 7.031966e-01 -1.074454e+01 -1.538590e+01 1.967999e+00 2.394599e+01 -5.890839e-01 -6.562511e+00 -5.749610e+00 3.067311e+00 1.859893e+00 -1.389107e+00 5.120786e+00 2.426478e+00 -3.508159e+00 -3.420169e+00 1.628850e-01 3.395825e+00 6.843928e+00 -9.180905e-01 1.052814e+00 3.957755e+00 8.605461e-01 -7.843926e-01 7.343518e-01 -1.863850e-01 -2.545983e+00 -1.987158e+00 1.079884e+00 1.874461e+00 -3.104033e-02 -1.756204e+00
<VARIANCE> 39
 2.397687e+01 5.376561e+01 7.166058e+01 9.925026e+01 6.772615e+01 8.933829e+01 1.078261e+02 1.143053e+02 1.313994e+02 1.364916e+02 5.670825e+01 7.983527e+01 4.341039e+01 4.240306e+00 6.988630e+00 2.391589e+01 8.791065e+00 7.256082e+00 1.230428e+01 1.770087e+01 1.907671e+01 1.716741e+01 1.210550e+01 1.705737e+01 8.622763e+00 1.108124e+01 4.713278e-01 9.456565e-01 1.356114e+00 1.976568e+00 1.375566e+00 3.530978e+00 2.289363e+00 2.930715e+00 3.382571e+00 2.871927e+00 1.744252e+00 2.069149e+00 7.850900e-01
<GCONST> 1.665799e+02
<MIXTURE> 3 4.925332e-02
<MEAN> 39
 -7.672216e-01 -2.834066e+00 -7.813041e-01 2.641116e+00 -1.043200e+00 5.312841e+00 8.069103e+00 1.344891e+00 -2.518070e+00 -5.046483e+00 -1.841384e+00 -4.713264e+00 1.069123e+01 3.537289e+00 -5.216353e+00 -2.790530e+00 -2.430467e+00 -2.818385e+00 -3.044593e+00 -1.384738e+00 -3.554686e+00 -3.808310e+00 -2.966302e+00 -1.267757e+00 -1.992371e+00 9.672253e+00 -1.155667e-02 -8.737820e-02 4.136560e-01 -3.962669e-01 1.264302e-01 -1.238535e-01 -4.611085e-01 -3.112139e-01 4.218797e-01 8.538767e-01 3.351995e-01 6.385797e-01 -1.221052e+00
<VARIANCE> 39
 4.525031e+01 5.076564e+01 5.307019e+01 5.288263e+01 1.058176e+02 1.045393e+02 1.089036e+02 1.091572e+02 1.068625e+02 7.175816e+01 5.955679e+01 7.707356e+01 1.067593e+02 5.949502e+00 9.078652e+00 1.038492e+01 1.222202e+01 2.118865e+01 1.727126e+01 1.561156e+01 1.597153e+01 1.276304e+01 9.508759e+00 9.449184e+00 6.261032e+00 1.148992e+01 1.218873e+00 1.226586e+00 1.364753e+00 1.702128e+00 2.407006e+00 2.909497e+00 2.214622e+00 3.033659e+00 2.179831e+00 1.508224e+00 1.451549e+00 1.651849e+00 2.109135e+00
<GCONST> 1.675799e+02
<MIXTURE> 4 7.015784e-02
<MEAN> 39
 9.446974e+00 1.036202e+01 8.708509e+00 4.453670e+00 -3.335907e+00 -1.644855e+01 -2.156773e+01 -1.193517e+01 -8.186450e+00 -3.132305e+00 -4.022316e+00 -1.353019e+00 -4.342837e+00 1.711230e+00 -2.956118e+00 -5.026525e+00 -1.845732e+00 -2.302457e-01 2.441762e-01 1.797748e+00 3.259743e+00 1.474887e+00 -4.871595e-02 -4.265369e-01 -9.086194e-01 3.911937e+00 -2.749672e-01 -2.369612e+00 -2.772991e+00 -4.383290e-01 1.444010e-02 1.010806e+00 3.001855e+00 1.721382e+00 1.360067e-01 -2.704115e-01 2.603760e-01 1.676908e-01 1.950028e+00
<VARIANCE> 39
 1.824972e+01 2.797410e+01 5.024099e+01 5.826602e+01 5.464764e+01 1.021954e+02 1.074696e+02 1.063466e+02 8.291131e+01 1.112569e+02 1.159364e+02 9.407713e+01 1.824416e+01 1.618622e+00 3.967647e+00 8.614905e+00 6.223028e+00 7.681890e+00 1.825953e+01 1.226101e+01 1.482290e+01 1.045703e+01 9.235791e+00 8.724155e+00 5.724538e+00 2.745774e+00 6.571512e-01 8.483518e-01 1.257619e+00 1.560614e+00 1.855226e+00 3.129382e+00 3.368027e+00 3.487117e+00 3.361269e+00 2.771185e+00 3.234842e+00 2.967966e+00 5.646775e-01
<GCONST> 1.589099e+02
<MIXTURE> 5 5.820924e-02
<MEAN> 39
 6.136756e+00 -2.321324e+01 -2.045535e+01 1.380186e+00 -4.654952e+00 -1.175311e+01 6.111979e+00 5.275296e+00 -2.738945e+01 -2.466365e+00 -1.012127e+00 -8.328431e-01 3.142369e+01 -1.995651e+00 -5.339737e+00 -3.286002e-01 -4.277123e-01 -3.974412e-01 2.468235e+00 2.347696e+00 -5.193275e+00 -3.218491e+00 2.992119e+00 -4.399848e-01 -6.916121e-01 6.439556e+00 -5.610502e-01 2.569545e+00 2.858407e+00 -3.698607e-01 1.830006e-01 8.848413e-01 -1.721928e+00 -1.809752e+00 2.950591e+00 3.292790e-01 -1.008134e-01 1.140770e-01 -3.148357e+00
<VARIANCE> 39
 2.212320e+01 4.409262e+01 3.725597e+01 8.284248e+01 7.447504e+01 6.079271e+01 1.292299e+02 1.298776e+02 5.945828e+01 7.283076e+01 7.536002e+01 7.611961e+01 5.012289e+01 3.714344e+00 1.100364e+01 1.280825e+01 1.417522e+01 7.548316e+00 1.977517e+01 1.907574e+01 1.449258e+01 2.119574e+01 8.135568e+00 9.492224e+00 6.870229e+00 1.172156e+01 6.543333e-01 7.837667e-01 9.536579e-01 1.443063e+00 1.520947e+00 2.695800e+00 4.636763e+00 3.449651e+00 1.981184e+00 1.999518e+00 1.771459e+00 1.640076e+00 9.250730e-01
<GCONST> 1.632126e+02
<MIXTURE> 6 6.521606e-02
<MEAN> 39
 7.376834e+00 1.056989e+01 8.497618e+00 3.011605e+00 -5.152968e+00 -1.570726e+01 -2.074348e+01 -1.715162e+01 -1.564174e+01 -8.615408e+00 -3.755831e+00 2.288903e-01 -5.523817e+00 2.742448e+00 9.681139e-01 -1.316332e-01 -4.898924e-01 -8.544763e-01 -4.346454e+00 -4.947789e+00 -1.998142e+00 -1.622501e+00 -9.438500e-01 -1.480040e+00 -1.550416e+00 2.245754e+00 -5.962779e-01 -1.623824e+00 -1.508258e+00 -2.589158e-01 6.624481e-01 1.656051e+00 2.602292e+00 2.707429e+00 2.004416e+00 1.106415e+00 6.129453e-01 -1.085001e-02 7.351466e-01
<VARIANCE> 39
 1.621937e+01 3.109611e+01 6.756730e+01 7.200835e+01 6.490874e+01 1.141376e+02 1.046923e+02 1.023194e+02 8.665548e+01 8.746387e+01 9.323219e+01 6.314734e+01 2.129307e+01 3.328249e+00 2.455617e+00 5.310311e+00 6.031911e+00 7.832885e+00 1.862101e+01 1.496122e+01 1.605901e+01 1.484519e+01 1.335939e+01 9.786667e+00 8.655548e+00 2.079837e+00 4.024837e-01 8.021334e-01 1.667501e+00 1.027291e+00 1.760145e+00 2.272592e+00 2.472203e+00 2.230827e+00 2.097317e+00 2.221387e+00 1.638334e+00 1.914175e+00 7.755155e-01
<GCONST> 1.566743e+02
<MIXTURE> 7 8.878016e-02
<MEAN> 39
 6.801526e+00 6.180436e+00 5.548044e+00 5.912629e+00 8.979982e-02 -9.303441e+00 -1.532432e+01 -1.269330e+01 -1.046764e+01 -3.644763e+00 -2.614947e+00 -4.376455e-01 -4.901433e+00 1.029271e+00 4.718530e-01 -1.419161e-01 3.342734e-02 -5.929840e-02 -4.399429e-01 -6.529741e-01 1.457642e-01 9.969636e-01 6.281220e-01 4.692559e-01 2.799026e-01 5.696566e-01 -1.529543e-02 -5.192975e-01 -5.570242e-01 -2.278122e-01 -2.252034e-01 1.775042e-01 7.905297e-01 7.739004e-01 4.598565e-01 1.563859e-01 1.134048e-01 1.322532e-01 4.241180e-01
<VARIANCE> 39
 2.475283e+01 4.676654e+01 4.658413e+01 4.556673e+01 4.572470e+01 9.103879e+01 9.325318e+01 1.450316e+02 1.203363e+02 9.228355e+01 9.876041e+01 9.674294e+01 1.902298e+01 9.755243e-01 1.487056e+00 3.161303e+00 4.085394e+00 4.431038e+00 7.573063e+00 6.814504e+00 8.724690e+00 8.341286e+00 8.371282e+00 7.275431e+00 1.029537e+01 5.448523e-01 3.089329e-01 4.709633e-01 8.008627e-01 9.198906e-01 9.251856e-01 2.030931e+00 2.006938e+00 1.840583e+00 2.045421e+00 1.644403e+00 1.630973e+00 1.654469e+00 3.751806e-01
<GCONST> 1.450769e+02
<MIXTURE> 8 6.112118e-02
<MEAN> 39
 5.656166e+00 -2.461855e+01 -9.793791e+00 -3.925209e+00 -7.849806e+00 -9.728910e-01 3.504791e+00 -1.893708e+01 -8.134274e-01 8.831050e-01 4.976651e-01 6.755089e-01 2.524850e+01 -1.394269e+00 -7.408447e+00 -2.850355e+00 -3.028220e+00 -1.697155e-01 3.747028e-01 -4.428600e+00 -6.938468e+00 2.492143e+00 -3.596321e+00 -8.209908e-01 -6.010774e-01 7.864688e+00 -7.458470e-01 2.686777e+00 1.573688e+00 1.285320e-01 1.223619e+00 -9.885911e-02 -1.013412e+00 1.900229e+00 1.070083e-01 -8.249585e-01 -1.278550e-02 -1.645325e-01 -2.751827e+00
<VARIANCE> 39
 3.104003e+01 6.623335e+01 4.566893e+01 1.325264e+02 8.382915e+01 6.968993e+01 1.303426e+02 9.591438e+01 1.266540e+02 1.062797e+02 6.199859e+01 1.181314e+02 5.667652e+01 5.789648e+00 6.988320e+00 7.842165e+00 1.334916e+01 1.276476e+01 3.291521e+01 2.003920e+01 9.785593e+00 2.156341e+01 1.272361e+01 9.482487e+00 7.646907e+00 7.739661e+00 5.764787e-01 1.473214e+00 1.265458e+00 1.658560e+00 1.766102e+00 2.790418e+00 4.855419e+00 1.991384e+00 2.548167e+00 1.669211e+00 1.728983e+00 2.643814e+00 1.338695e+00
<GCONST> 1.678803e+02
<MIXTURE> 9 6.585467e-02
<MEAN> 39
 9.644855e+00 6.928801e+00 5.273114e+00 -4.107498e+00 -1.478234e+01 -2.213866e+01 -4.003351e+00 -4.743033e+00 -1.418738e+01 -4.605947e+00 -4.612308e-01 4.401410e+00 -1.927466e+00 1.276806e+00 -4.980670e+00 -3.704131e+00 -1.431576e+00 -1.916540e+00 7.201550e-01 1.677634e+00 -2.524834e+00 -1.868204e+00 -2.109586e+00 -7.029726e-01 -2.388908e+00 5.818520e+00 -1.245880e+00 -2.238991e+00 -1.051992e+00 3.889602e-01 1.702825e+00 3.197407e+00 5.240353e-01 -5.219492e-01 1.906721e+00 4.912181e-01 1.423578e-01 -4.368352e-01 1.432201e+00
<VARIANCE> 39
 1.598262e+01 4.743932e+01 3.318918e+01 6.748761e+01 6.002399e+01 1.493848e+02 1.105870e+02 8.620914e+01 1.257281e+02 1.124529e+02 1.074150e+02 1.298430e+02 2.150213e+01 4.535617e+00 1.232662e+01 1.018982e+01 8.819856e+00 1.263085e+01 3.284468e+01 2.034064e+01 1.609382e+01 2.075130e+01 1.632153e+01 1.213369e+01 1.236330e+01 9.156021e+00 4.825836e-01 1.224741e+00 9.363753e-01 2.170846e+00 1.376352e+00 3.729891e+00 3.774314e+00 3.207088e+00 3.558940e+00 3.473877e+00 2.417577e+00 2.491933e+00 5.556602e-01
<GCONST> 1.678812e+02
<MIXTURE> 10 4.759924e-02
<MEAN> 39
 1.286929e+01 7.673873e+00 2.435282e+00 4.091220e-01 -4.671401e+00 -1.915619e+01 -1.894790e+01 -4.619079e+00 -5.992080e+00 -3.644665e+00 -5.737451e+00 -2.432376e+00 -6.994544e-01 6.824287e-01 -7.399477e+00 -9.109487e+00 -8.158069e-01 7.268696e-02 1.087078e+00 6.741107e+00 5.985599e+00 1.028523e-01 -1.815494e+00 9.841859e-02 -4.027327e-01 8.224607e+00 -1.086487e+00 -1.963113e+00 -8.843989e-01 6.690481e-01 9.252843e-02 1.425950e+00 2.477463e+00 -5.538542e-01 -1.233143e+00 -1.388810e-01 7.825382e-01 4.042327e-01 1.569557e+00
<VARIANCE> 39
 1.715168e+01 3.781984e+01 8.722643e+01 6.952336e+01 4.570489e+01 1.113485e+02 1.410181e+02 1.075369e+02 5.697434e+01 9.857267e+01 6.729082e+01 6.602563e+01 3.451711e+01 2.589088e+00 4.918558e+00 9.594872e+00 7.539427e+00 1.009884e+01 1.686516e+01 1.386834e+01 1.894870e+01 1.793711e+01 1.086196e+01 1.436910e+01 1.122798e+01 3.897376e+00 5.141763e-01 9.681062e-01 1.670171e+00 1.504059e+00 1.627743e+00 4.021057e+00 3.321379e+00 2.595216e+00 2.026700e+00 2.664965e+00 2.497513e+00 1.708488e+00 6.480001e-01
<GCONST> 1.618084e+02
<MIXTURE> 11 5.991451e-02
<MEAN> 39
 2.414475e+00 5.035701e+00 6.100695e+00 3.383768e+00 -2.768332e+00 -7.526428e+00 -9.785205e+00 -6.949371e+00 -1.085024e+01 -4.302360e+00 1.170558e+00 5.017000e+00 -7.321457e+00 2.676195e+00 2.106226e+00 6.545402e-01 -5.538784e-01 -2.007930e+00 -5.508596e+00 -5.245655e+00 -3.453188e+00 -3.245323e+00 -2.372662e+00 -1.152975e+00 -7.762733e-01 1.563197e+00 9.158432e-02 -3.096879e-01 -3.215812e-01 -5.572449e-02 3.441722e-01 3.991345e-01 3.357483e-01 4.529966e-01 7.990236e-01 6.625744e-01 -2.641766e-01 -6.557136e-01 2.949902e-01
<VARIANCE> 39
 2.269676e+01 4.231957e+01 5.059355e+01 5.406994e+01 5.126844e+01 1.393959e+02 7.267347e+01 9.463917e+01 1.264324e+02 8.302439e+01 7.470550e+01 8.543275e+01 2.086142e+01 1.372918e+00 2.738106e+00 3.217429e+00 5.510218e+00 6.222114e+00 9.139954e+00 1.392579e+01 1.757686e+01 1.468204e+01 1.160920e+01 1.036432e+01 9.868756e+00 6.448224e-01 2.654585e-01 4.539351e-01 6.508771e-01 7.550457e-01 6.854343e-01 2.620694e+00 1.941716e+00 1.656970e+00 1.971582e+00 1.686577e+00 1.871127e+00 1.644461e+00 1.611856e-01
<GCONST> 1.477232e+02
<MIXTURE> 12 7.426160e-02
<MEAN> 39
 8.854093e+00 -4.705388e+00 -6.712963e+00 -7.891311e+00 -6.964811e+00 -3.573073e+00 -4.321383e+00 -7.462599e+00 -2.658792e+00 -1.967942e+00 9.395726e-01 -8.191895e-01 1.077142e+01 1.767082e+00 -5.496212e+00 -8.254926e+00 -3.517708e+00 4.561132e-01 2.837360e-01 -2.359909e-01 6.615965e-02 3.593940e+00 -1.178432e+00 -1.665146e+00 -2.001162e+00 6.953613e+00 -2.921484e-01 4.207413e-01 -8.351908e-02 6.358778e-01 1.027698e+00 -5.742008e-01 -4.899006e-01 2.996051e-01 1.770408e-01 -2.764284e-01 -6.002624e-01 3.462164e-02 -4.819502e-01
<VARIANCE> 39
 4.094412e+01 5.236807e+01 9.120251e+01 9.084950e+01 7.273969e+01 9.229468e+01 1.036429e+02 8.773987e+01 1.189743e+02 1.084221e+02 5.859871e+01 9.985532e+01 4.304830e+01 6.705066e+00 1.207064e+01 2.080307e+01 1.561141e+01 1.545097e+01 2.196865e+01 2.180187e+01 3.851809e+01 1.881074e+01 2.464796e+01 1.418735e+01 1.285031e+01 8.910524e+00 1.385377e+00 1.104346e+00 2.240021e+00 2.045522e+00 1.589558e+00 3.121375e+00 2.577038e+00 2.551687e+00 2.858465e+00 3.000733e+00 1.661838e+00 2.312478e+00 7.111629e-01
<GCONST> 1.730552e+02
<MIXTURE> 13 1.004738e-01
<MEAN> 39
 -4.197615e+00 -1.305385e+00 2.375971e+00 6.700618e+00 8.048602e+00 1.142868e+01 8.935852e+00 4.972173e+00 3.969662e+00 4.438548e+00 3.986403e+00 4.369627e+00 -1.027708e+01 -3.981028e-01 2.215067e-01 2.444726e-01 2.600339e-02 1.177924e-01 -5.080530e-02 2.600113e-01 5.610539e-01 3.432453e-01 2.131978e-01 -4.199569e-01 -6.199750e-01 3.285679e-01 7.421919e-01 -1.856833e-01 -4.741507e-01 -5.461521e-01 -9.353018e-01 -1.228339e+00 -7.237529e-01 -5.310659e-01 -4.986697e-01 -5.781496e-01 -3.319403e-01 -4.351878e-01 1.271502e+00
<VARIANCE> 39
 1.907857e+01 4.208778e+01 5.509591e+01 5.871299e+01 6.366740e+01 9.574377e+01 9.109468e+01 8.831764e+01 7.197852e+01 8.604613e+01 8.413236e+01 6.814566e+01 1.403741e+01 1.637731e+00 2.276346e+00 3.605270e+00 4.274739e+00 6.094228e+00 8.928860e+00 7.988894e+00 8.547810e+00 1.068317e+01 9.119962e+00 8.812866e+00 7.414519e+00 1.851637e+00 4.911160e-01 7.561098e-01 1.030816e+00 1.182758e+00 1.395016e+00 2.083568e+00 2.118500e+00 2.359924e+00 1.608902e+00 2.283445e+00 2.015462e+00 1.594224e+00 7.952847e-01
<GCONST> 1.499520e+02
<MIXTURE> 14 5.597262e-02
<MEAN> 39
 1.289347e+01 -1.433812e+01 -1.906053e+01 1.950739e+00 -9.329000e+00 -1.516828e+01 4.415020e+00 9.616719e+00 -9.410775e+00 -1.099040e+01 2.666950e+00 -3.254307e+00 1.742527e+01 -8.099425e-01 -7.881004e+00 -5.983721e+00 3.403614e-01 -1.995895e+00 3.314507e+00 7.014497e+00 -3.782773e-01 -3.220191e+00 -6.002532e-02 1.183973e+00 -2.689190e+00 8.278855e+00 -1.008128e+00 1.163867e+00 2.330811e+00 -4.788508e-02 4.125659e-01 1.250879e+00 -1.487266e+00 -2.952482e+00 -3.615499e-02 1.180163e+00 -5.054444e-01 2.024988e-01 -1.046734e+00
<VARIANCE> 39
 1.967200e+01 5.285461e+01 7.428451e+01 9.519002e+01 8.464105e+01 9.435078e+01 2.132456e+02 1.388281e+02 1.054142e+02 8.594958e+01 7.889218e+01 7.793473e+01 6.448930e+01 2.883398e+00 8.048051e+00 1.053367e+01 1.604000e+01 8.651935e+00 1.744987e+01 2.821920e+01 3.210040e+01 1.926737e+01 1.092889e+01 1.442586e+01 9.600214e+00 8.332164e+00 3.929760e-01 1.197775e+00 1.546477e+00 1.930042e+00 1.432441e+00 2.975492e+00 4.428716e+00 2.516248e+00 3.507801e+00 1.419007e+00 1.504293e+00 1.787629e+00 1.037598e+00
<GCONST> 1.681035e+02
<MIXTURE> 15 4.615710e-02
<MEAN> 39
 1.030046e+01 -4.990910e+00 -1.368401e+01 -3.402434e+00 -2.876644e+00 -1.022331e+01 -2.281815e+00 3.230916e+00 -4.588663e+00 -9.977246e+00 -6.750247e+00 -5.291717e+00 1.226935e+01 3.579069e+00 -7.197801e+00 -7.128101e+00 -1.137571e+00 -3.458838e-01 -3.778428e+00 3.021527e-01 6.958176e-01 -3.814532e+00 -3.534382e+00 -1.271996e+00 1.117729e-02 9.384012e+00 -9.596865e-01 -2.416658e-01 1.234783e+00 6.924100e-01 2.716425e-01 9.769756e-01 5.184516e-01 -6.200333e-01 -3.781963e-01 1.102170e+00 1.060157e+00 8.227983e-01 -8.984374e-01
<VARIANCE> 39
 3.908078e+01 7.441846e+01 5.291324e+01 1.101490e+02 8.822179e+01 5.775175e+01 7.325667e+01 7.962572e+01 1.334670e+02 4.785167e+01 5.833286e+01 5.335508e+01 5.150186e+01 4.596929e+00 9.928118e+00 1.576970e+01 8.882097e+00 1.320020e+01 1.740038e+01 2.499494e+01 1.822943e+01 2.646982e+01 1.754784e+01 1.380393e+01 1.196523e+01 1.223168e+01 7.317121e-01 1.245034e+00 1.292292e+00 2.419014e+00 1.532548e+00 2.390544e+00 2.072982e+00 2.046845e+00 3.208997e+00 1.736890e+00 1.240074e+00 1.563585e+00 1.220171e+00
<GCONST> 1.667198e+02
<MIXTURE> 16 4.036850e-02
<MEAN> 39
 1.064724e+01 7.044864e+00 2.688962e+00 -3.473770e-02 -4.566069e+00 -8.236487e+00 -1.583406e+01 -1.471170e+01 -1.678045e+01 -4.125209e+00 2.575538e+00 3.661334e+00 -1.762166e+00 1.060497e+00 -5.158368e+00 -6.626232e+00 -3.008813e+00 -1.515069e+00 -2.705874e-01 2.341090e+00 2.654461e+00 2.981679e+00 -1.500094e-01 -1.566369e+00 -2.351054e+00 7.241899e+00 -4.802814e-01 -1.387035e+00 -1.811878e+00 -1.906879e-01 5.632757e-01 3.382178e-02 1.511518e+00 1.384058e+00 1.828585e+00 2.071153e-01 -1.012713e+00 -6.969659e-01 1.417323e+00
<VARIANCE> 39
 2.081303e+01 5.233281e+01 7.294280e+01 9.733457e+01 6.122080e+01 1.349869e+02 1.041827e+02 1.789444e+02 7.840042e+01 8.007943e+01 5.456169e+01 5.431195e+01 3.655902e+01 4.874691e+00 6.424515e+00 1.961103e+01 1.166811e+01 1.681622e+01 1.836020e+01 2.383687e+01 2.066198e+01 1.938793e+01 1.849924e+01 1.309782e+01 1.018332e+01 5.873280e+00 7.125244e-01 1.059340e+00 2.590290e+00 2.736825e+00 2.273230e+00 4.518780e+00 4.280727e+00 3.849476e+00 3.256377e+00 2.024410e+00 2.208975e+00 1.641523e+00 9.167786e-01
<GCONST> 1.699801e+02
<STATE> 4
<NUMMIXES> 16
<MIXTURE> 1 4.609895e-02
<MEAN> 39
 -4.009946e+00 1.347903e+00 -6.151409e-02 -7.915540e-01 -1.682941e+00 9.126349e+00 8.119349e+00 9.790884e+00 8.710183e+00 5.627247e+00 4.326195e+00 3.320091e+00 -1.081633e+01 1.067309e-01 2.115805e-01 -1.841782e-02 1.471925e-01 1.455681e-01 -1.492110e-01 9.172533e-01 1.310702e-01 -4.076831e-01 2.094122e-01 5.033849e-01 4.249103e-01 3.278934e-01 8.563213e-02 -3.672428e-02 3.786600e-01 7.344952e-01 6.488994e-01 -5.242932e-01 -4.299608e-01 -1.098420e+00 -1.041751e+00 -6.322165e-01 -3.063241e-01 -1.301879e-02 7.598777e-01
<VARIANCE> 39
 2.376865e+01 3.728545e+01 3.026102e+01 3.772733e+01 4.152919e+01 8.425012e+01 5.557541e+01 6.429105e+01 4.156591e+01 8.191968e+01 6.872711e+01 6.681298e+01 1.318319e+01 1.466890e+00 2.417260e+00 3.919966e+00 3.965971e+00 5.081266e+00 7.048476e+00 6.085119e+00 6.883219e+00 6.731642e+00 7.812739e+00 9.387295e+00 5.603285e+00 2.372153e+00 4.626608e-01 7.524111e-01 7.035626e-01 5.402649e-01 1.013874e+00 2.886721e+00 1.453849e+00 8.728079e-01 7.524209e-01 1.928587e+00 1.957205e+00 1.599313e+00 8.421425e-01
<GCONST> 1.417330e+02
<MIXTURE> 2 6.664614e-02
<MEAN> 39
 9.041167e-01 -2.553305e+01 -1.035523e+01 1.112070e+00 -4.622940e+00 -3.447468e+00 3.487075e+00 -1.189438e+01 -2.079109e+01 7.321125e+00 -5.044665e+00 -2.661090e+00 3.519759e+01 -1.407091e+00 7.044563e-01 3.916019e+00 -3.271144e+00 -9.450394e-01 3.934287e+00 -1.466839e+00 -5.564129e+00 4.276513e+00 1.022471e+00 -1.948861e+00 -9.052612e-02 4.167989e-01 5.617578e-01 2.352153e+00 3.791727e-01 -8.707458e-01 4.014150e-01 -4.116791e-01 -1.102948e+00 1.162010e+00 2.155253e+00 -1.900651e+00 -2.247538e-02 4.985703e-01 -2.271379e+00
<VARIANCE> 39
 2.566928e+01 4.659305e+01 3.772104e+01 8.948440e+01 4.304345e+01 8.599580e+01 1.141563e+02 7.765696e+01 1.036432e+02 3.670913e+01 5.728954e+01 3.775746e+01 2.654072e+01 1.748546e+00 3.214541e+00 4.781137e+00 8.549483e+00 6.168419e+00 1.199560e+01 8.406880e+00 7.755653e+00 6.123630e+00 8.423855e+00 6.726980e+00 6.891832e+00 2.233511e+00 4.558680e-01 1.188572e+00 1.489331e+00 1.438125e+00 9.779572e-01 2.760973e+00 2.954833e+00 1.741656e+00 2.656431e+00 1.459443e+00 1.236948e+00 8.730340e-01 1.664173e+00
<GCONST> 1.506200e+02
<MIXTURE> 3 7.577411e-02
<MEAN> 39
 -2.606579e+00 -2.696059e+01 -6.939434e+00 -6.485393e+00 -3.887529e+00 -2.570318e+00 -1.198147e+01 -2.303648e+01 6.251234e+00 -1.221446e+01 -2.512683e+00 -2.128696e+00 3.031947e+01 -1.571016e+00 1.322810e+00 7.540078e-01 -2.182665e+00 2.600686e+00 2.615666e-02 -4.598792e+00 6.442839e-01 1.759644e+00 -4.260623e+00 8.989832e-01 -5.783449e-01 3.097634e-01 8.885611e-01 3.029829e+00 4.433434e-01 1.656643e-01 1.801770e-01 -3.879345e-01 1.077386e+00 2.266371e+00 -1.442904e+00 7.376487e-01 5.212283e-01 2.190812e-02 -2.675744e+00
<VARIANCE> 39
 3.390937e+01 4.398619e+01 4.652143e+01 1.018778e+02 6.011175e+01 1.121486e+02 1.104456e+02 9.967639e+01 8.342844e+01 1.156164e+02 7.067716e+01 7.572768e+01 5.324092e+01 2.743682e+00 7.914668e+00 6.121280e+00 6.811172e+00 7.687576e+00 9.003188e+00 1.594022e+01 1.187720e+01 1.316226e+01 7.768024e+00 6.920946e+00 7.569249e+00 4.882568e+00 8.168207e-01 1.528518e+00 1.574957e+00 1.303324e+00 1.817779e+00 3.516758e+00 2.363616e+00 2.399437e+00 2.024737e+00 2.802342e+00 2.087962e+00 1.564780e+00 1.524378e+00
<GCONST> 1.616391e+02
<MIXTURE> 4 4.857472e-02
<MEAN> 39
 5.026358e+00 -8.953016e+00 -8.807766e-01 -1.290905e+01 -1.298321e+01 -4.252563e-01 9.426957e+00 4.270003e+00 -2.566038e+00 1.826014e+00 -9.889040e+00 -1.001984e+01 1.608187e+01 -1.062754e+00 8.343125e-01 1.392684e+00 -3.199651e+00 5.854019e-01 3.471956e+00 -2.685553e-01 -1.715036e+00 1.455601e+00 -4.989184e-01 -2.083487e+00 1.309695e+00 1.690601e+00 1.672609e-01 1.520899e+00 3.528441e-01 1.357955e+00 1.483360e+00 -7.246023e-01 -2.207894e+00 -1.146820e+00 5.996029e-02 -7.521154e-01 1.261648e+00 1.837135e+00 -1.725444e+00
<VARIANCE> 39
 3.665161e+01 6.625071e+01 8.813714e+01 2.012719e+02 2.186267e+02 1.796797e+02 1.601568e+02 2.013751e+02 3.014408e+02 1.538522e+02 1.643024e+02 1.507143e+02 1.867209e+02 4.556564e+00 1.802340e+01 1.496518e+01 2.557611e+01 1.849231e+01 3.032885e+01 2.039756e+01 2.432190e+01 1.348058e+01 1.775577e+01 2.452207e+01 1.729854e+01 3.054850e+01 6.523089e-01 1.536312e+00 1.120954e+00 3.026257e+00 4.217206e+00 4.509669e+00 4.129282e+00 3.454683e+00 5.825213e+00 2.942420e+00 3.369791e+00 4.192313e+00 2.134729e+00
<GCONST> 1.872209e+02
<MIXTURE> 5 6.230921e-02
<MEAN> 39
 8.823527e+00 -2.243401e+01 -2.614347e+01 8.824134e+00 3.829922e+00 -1.597409e+01 7.840610e+00 8.606329e-01 -1.725687e+01 -1.149043e+01 -1.213854e+00 7.770714e+00 3.051544e+01 -1.776472e+00 -2.088652e+00 3.651261e+00 1.343120e+00 -1.614125e+00 1.095043e+00 2.876393e+00 -3.603205e+00 -4.047782e+00 1.966349e+00 3.463118e+00 3.740124e-02 1.671452e+00 3.720091e-02 1.972311e+00 2.202831e+00 -1.389974e+00 -1.048607e+00 8.781925e-01 -1.303882e+00 -1.248012e+00 1.290142e+00 1.586797e+00 -5.575955e-01 -1.529900e+00 -1.838765e+00
<VARIANCE> 39
 3.306684e+01 6.209361e+01 8.283164e+01 6.284604e+01 4.245074e+01 5.353824e+01 8.215473e+01 9.311357e+01 9.882804e+01 8.046001e+01 1.040256e+02 7.819677e+01 4.977357e+01 1.339971e+00 2.404109e+00 7.520831e+00 7.660396e+00 5.049077e+00 7.593510e+00 5.759812e+00 8.898755e+00 1.203649e+01 8.772106e+00 5.695465e+00 7.023430e+00 1.579538e+00 5.652746e-01 1.189662e+00 2.003397e+00 1.314222e+00 1.174444e+00 2.044948e+00 1.967534e+00 1.810440e+00 1.690753e+00 1.904898e+00 2.050927e+00 1.247993e+00 9.672849e-01
<GCONST> 1.528320e+02
<MIXTURE> 6 6.866672e-02
<MEAN> 39
 2.839465e+00 -2.748831e+01 -1.116084e+01 7.678749e+00 -7.878743e+00 -8.588744e+00 -5.657335e+00 -2.108437e+01 -8.869977e+00 -5.239387e-01 -4.847898e+00 -9.171125e+00 2.884195e+01 -5.400566e-01 2.889462e-01 1.315764e+00 -9.420655e-01 9.024617e-02 1.054959e+00 -1.656658e+00 -1.035222e+00 2.201842e+00 -3.460115e-01 -1.419196e+00 7.104620e-01 1.372591e-02 2.979877e-01 3.224391e-01 -3.179686e-01 -5.362310e-01 2.724095e-01 1.272782e-01 5.424993e-02 6.234362e-01 1.859030e-02 -7.516512e-01 3.544930e-01 4.676051e-01 -2.234486e-01
<VARIANCE> 39
 4.079389e+01 2.876924e+01 5.046511e+01 6.043865e+01 7.382759e+01 1.279877e+02 6.963817e+01 4.454980e+01 6.465437e+01 5.315997e+01 5.216937e+01 4.024614e+01 1.196850e+02 5.633680e-01 9.447584e-01 1.442462e+00 3.170654e+00 2.387390e+00 2.891146e+00 3.165853e+00 3.421448e+00 3.433428e+00 3.718836e+00 3.494434e+00 3.079515e+00 4.333259e-01 1.880905e-01 2.155451e-01 3.814753e-01 3.571870e-01 4.469764e-01 5.246035e-01 9.218373e-01 1.010366e+00 7.078132e-01 6.110429e-01 6.822023e-01 5.255598e-01 1.015552e-01
<GCONST> 1.229578e+02
<MIXTURE> 7 7.110891e-02
<MEAN> 39
 1.237999e+01 -1.901457e+01 -1.213598e+01 -3.900774e+00 -9.421370e+00 -6.004266e+00 4.294845e-01 2.056148e+00 -1.397842e+01 -1.427505e+01 1.275057e-01 -4.544680e+00 2.362713e+01 1.605237e+00 -3.809157e+00 3.699595e-01 -1.979308e+00 -2.171102e+00 -8.095976e-01 3.595973e-02 -1.236569e+00 -2.840344e+00 -5.488079e-01 9.284950e-01 4.448291e-02 3.899065e+00 -1.616270e+00 1.871431e+00 1.701460e+00 4.202722e-01 1.110173e+00 8.321838e-01 4.327235e-01 -3.872983e-01 1.711556e+00 1.799445e+00 1.355154e-01 4.707892e-01 -2.669462e+00
<VARIANCE> 39
 2.677836e+01 7.232513e+01 7.737241e+01 6.112246e+01 1.533305e+02 1.133431e+02 1.106776e+02 8.062363e+01 1.051915e+02 1.274026e+02 6.231936e+01 6.735170e+01 4.980890e+01 6.535566e+00 1.177125e+01 8.960960e+00 1.116107e+01 9.593276e+00 2.437424e+01 9.679012e+00 1.792880e+01 1.267000e+01 1.403046e+01 9.146363e+00 8.781866e+00 1.166136e+01 7.179673e-01 1.731053e+00 1.249459e+00 8.544353e-01 2.933625e+00 2.403433e+00 2.385028e+00 1.655175e+00 2.309750e+00 2.129490e+00 1.660885e+00 1.887429e+00 9.235232e-01
<GCONST> 1.661675e+02
<MIXTURE> 8 4.654033e-02
<MEAN> 39
 2.592332e+00 2.100444e+00 7.486473e+00 5.008615e+00 4.571444e-01 -9.741176e+00 -5.642119e+00 -3.251291e+00 -1.742089e+00 -3.559001e-01 2.791787e+00 4.340023e+00 -6.200119e-01 -2.296491e-01 -4.607637e-01 1.775407e+00 1.031834e-01 8.352904e-01 -7.122566e-01 -1.165889e+00 -1.151714e+00 -3.733711e-01 -8.032330e-01 1.825432e-01 1.109459e-01 1.762297e+00 -2.430616e-01 -6.302078e-01 -5.002437e-01 -3.747601e-01 1.138528e-01 8.396647e-01 5.962189e-01 4.001610e-01 4.226363e-01 1.360679e-01 -4.451892e-01 -4.666142e-01 -5.972473e-02
<VARIANCE> 39
 3.828835e+01 4.811168e+01 7.603370e+01 4.724384e+01 1.134273e+02 3.247359e+02 2.364644e+02 1.775307e+02 1.237823e+02 1.127823e+02 7.731671e+01 8.127737e+01 6.107071e+01 3.979866e+00 5.969247e+00 8.342560e+00 6.596873e+00 1.207163e+01 2.252118e+01 1.246170e+01 1.198540e+01 1.470263e+01 1.441098e+01 1.022448e+01 1.192412e+01 6.625237e+00 5.711397e-01 8.023474e-01 1.249171e+00 1.193352e+00 1.905703e+00 3.248236e+00 2.330683e+00 2.398572e+00 2.510207e+00 2.331638e+00 2.282089e+00 1.953956e+00 7.017474e-01
<GCONST> 1.668516e+02
<MIXTURE> 9 6.715389e-02
<MEAN> 39
 6.535399e+00 -2.498053e+01 -1.749199e+01 2.313880e+00 -2.558977e+00 -7.718764e+00 9.359295e+00 -5.241749e+00 -2.829687e+01 -7.770269e-01 1.105267e+00 5.003670e-01 3.344383e+01 -8.967533e-01 -9.718632e-02 2.816514e+00 -2.337853e+00 -1.175056e+00 2.913665e+00 3.019886e-01 -3.197017e+00 -3.043513e-01 3.113448e+00 -4.234067e-01 -2.072495e+00 3.882650e-01 1.788782e-01 5.572392e-01 -9.171195e-02 -9.008969e-01 -6.044805e-02 4.729627e-01 -7.098760e-01 2.879376e-01 1.468441e+00 -5.027880e-01 -1.228898e+00 1.579989e-01 -3.482965e-01
<VARIANCE> 39
 4.618670e+01 3.304244e+01 4.315091e+01 7.458892e+01 4.156604e+01 5.514742e+01 7.791829e+01 1.231936e+02 8.282352e+01 1.097732e+02 6.471746e+01 7.351913e+01 7.477972e+01 4.227319e-01 9.447584e-01 1.851213e+00 3.422642e+00 3.159052e+00 3.300808e+00 3.165853e+00 3.421448e+00 5.798995e+00 5.106292e+00 5.663521e+00 3.079515e+00 2.652839e-01 8.934067e-02 2.246588e-01 2.576659e-01 4.994864e-01 4.361086e-01 5.246035e-01 5.679073e-01 8.912662e-01 8.497749e-01 1.327600e+00 6.918039e-01 9.920439e-01 7.821716e-02
<GCONST> 1.255450e+02
<MIXTURE> 10 7.537701e-02
<MEAN> 39
 1.784471e+01 -6.017035e+00 -3.246169e+01 -1.020639e+01 3.924660e+00 -9.650836e+00 -1.226595e+01 -6.577789e-01 6.833381e+00 -1.824059e+00 -9.627163e+00 -9.628412e+00 1.763325e+01 2.409510e+00 -1.626522e+00 -7.283188e+00 -4.998868e-01 2.471709e+00 -1.671637e+00 -7.932225e-01 1.232480e+00 2.690348e+00 4.766645e-01 -2.561968e+00 -1.426773e+00 2.367590e+00 -9.905078e-01 1.295130e+00 2.910308e+00 9.149223e-01 -4.122883e-01 1.963574e-01 1.402971e-01 -1.022889e+00 -1.552702e+00 -1.996422e-01 6.787391e-01 1.001021e+00 -1.645731e+00
<VARIANCE> 39
 1.591103e+01 5.557074e+01 8.571846e+01 7.385052e+01 6.631163e+01 8.520204e+01 9.837521e+01 8.735760e+01 7.625213e+01 1.773396e+02 9.362376e+01 8.163491e+01 3.095370e+01 3.915602e+00 9.385806e+00 1.633807e+01 1.254768e+01 9.490118e+00 1.014447e+01 1.003779e+01 1.337423e+01 1.418860e+01 1.957461e+01 1.073251e+01 8.543217e+00 6.564711e+00 4.339605e-01 7.752526e-01 1.218960e+00 1.001424e+00 1.355628e+00 1.866401e+00 2.267384e+00 1.534150e+00 1.830636e+00 2.576981e+00 1.618401e+00 1.362154e+00 5.100402e-01
<GCONST> 1.601736e+02
<MIXTURE> 11 6.295319e-02
<MEAN> 39
 2.853196e+00 -1.913859e+01 -8.976729e+00 -1.436901e+01 -3.231601e+00 -4.529814e-01 -5.780386e+00 -1.861777e+01 1.463167e+00 -1.369108e+01 3.442097e-01 -1.790193e+00 2.533269e+01 -6.038324e-01 -2.161901e+00 -1.404329e+00 -2.882368e+00 3.282460e-01 -2.116308e+00 -3.100208e+00 -1.608400e+00 6.903137e-02 -3.516718e+00 -1.128830e+00 -1.510829e+00 3.426455e+00 -4.386052e-01 2.470919e+00 1.478193e+00 1.440474e+00 4.861032e-01 -8.961388e-02 7.806437e-01 2.185542e+00 -2.035128e-01 1.336582e+00 -4.190736e-01 1.190335e-01 -2.942385e+00
<VARIANCE> 39
 2.616506e+01 8.963589e+01 7.272150e+01 1.504814e+02 1.203636e+02 1.739804e+02 1.513425e+02 7.262524e+01 8.665797e+01 9.742500e+01 6.712122e+01 6.968711e+01 4.137366e+01 4.708258e+00 1.510403e+01 1.482652e+01 1.645321e+01 1.442743e+01 1.436585e+01 1.370431e+01 1.426594e+01 1.591204e+01 1.670256e+01 1.376727e+01 9.949908e+00 1.114380e+01 9.883097e-01 1.681232e+00 1.903625e+00 2.369770e+00 2.338095e+00 6.276385e+00 3.697840e+00 2.382607e+00 2.412655e+00 2.854904e+00 1.745256e+00 1.984506e+00 1.270615e+00
<GCONST> 1.727785e+02
<MIXTURE> 12 5.752526e-02
<MEAN> 39
 -4.155848e+00 -1.532304e+00 1.553791e+00 3.861197e+00 6.919404e+00 1.313405e+01 8.536259e+00 6.709590e+00 7.468151e+00 4.527862e+00 1.500383e+00 5.996619e-01 -1.127349e+01 -1.014811e+00 -6.566266e-01 1.717785e-01 6.849627e-01 1.579411e+00 2.573614e+00 2.282440e+00 1.909611e+00 1.360605e+00 1.147503e+00 3.066365e-01 -8.261323e-01 -7.519100e-01 7.816559e-01 6.882100e-01 2.976958e-01 -1.803373e-01 -1.098606e+00 -2.020631e+00 -1.453919e+00 -1.246148e+00 -1.192573e+00 -4.779296e-01 -1.442543e-01 1.671695e-01 4.277893e-01
<VARIANCE> 39
 1.672288e+01 1.980241e+01 4.974998e+01 5.558886e+01 5.380324e+01 6.433778e+01 5.922565e+01 8.937685e+01 7.655110e+01 6.800121e+01 5.639151e+01 5.867517e+01 2.123847e+01 1.034486e+00 2.095610e+00 2.208673e+00 3.450440e+00 6.493879e+00 7.350113e+00 9.193609e+00 6.882198e+00 6.727705e+00 6.542655e+00 6.441580e+00 6.791956e+00 2.541688e-01 1.445892e-01 3.172379e-01 5.511525e-01 8.484534e-01 9.870209e-01 1.623112e+00 1.471099e+00 1.711242e+00 1.325882e+00 1.622658e+00 9.015859e-01 1.437968e+00 6.695504e-02
<GCONST> 1.347316e+02
<MIXTURE> 13 6.374037e-02
<MEAN> 39
 6.888523e+00 -2.412494e+01 -1.750054e+01 6.673291e+00 -1.299633e+01 -2.626867e+00 5.448123e+00 -1.779980e+01 -1.196821e+01 -7.694064e+00 5.059576e+00 -9.953023e+00 2.541488e+01 -1.338046e+00 -9.462763e-01 8.865097e-01 4.250899e-01 -1.041871e+00 2.472577e+00 -2.714450e+00 -4.791581e+00 1.291834e+00 8.772396e-01 -1.623027e+00 -1.168473e+00 1.254365e+00 1.234545e-01 2.709237e+00 2.148450e+00 -1.067549e+00 5.238366e-01 -7.862044e-01 -1.468978e+00 1.389236e+00 8.535841e-01 -1.203084e-01 -9.377897e-01 1.126851e+00 -2.310246e+00
<VARIANCE> 39
 3.180085e+01 4.779469e+01 4.374054e+01 1.204413e+02 6.891782e+01 1.109324e+02 1.058661e+02 1.256805e+02 1.014916e+02 7.112588e+01 8.553077e+01 4.967773e+01 5.346966e+01 2.307070e+00 9.674146e+00 8.468885e+00 9.708638e+00 5.077906e+00 1.171747e+01 1.629805e+01 1.168791e+01 1.467859e+01 1.141370e+01 6.137609e+00 8.450248e+00 7.270392e+00 5.719337e-01 1.749128e+00 1.500380e+00 1.372668e+00 7.946617e-01 2.888699e+00 2.457020e+00 2.757059e+00 2.473368e+00 1.289890e+00 1.912620e+00 9.437354e-01 1.500440e+00
<GCONST> 1.607562e+02
<MIXTURE> 14 5.477430e-02
<MEAN> 39
 1.591706e+00 -2.455267e+01 -8.306127e+00 4.942305e+00 -7.145546e+00 -4.616819e+00 -1.418523e+01 -2.388628e+01 4.855104e+00 -1.381846e+01 -6.117537e+00 -5.849961e+00 2.489761e+01 -3.276528e-01 9.457724e-01 3.185974e-01 -2.475414e+00 1.041454e+00 1.116980e+00 -2.021201e+00 8.186359e-01 4.070966e-01 -1.893490e+00 8.374987e-01 9.880307e-01 -6.174479e-02 3.269750e-02 2.425919e-01 -3.037036e-01 -5.386574e-01 4.166719e-01 1.183017e-01 -2.995682e-02 4.386914e-01 -5.968823e-01 4.470450e-02 5.961900e-01 -1.409037e-01 -1.937113e-02
<VARIANCE> 39
 2.244486e+01 2.877895e+01 1.859058e+01 4.854587e+01 6.636990e+01 1.071556e+02 6.198720e+01 4.022977e+01 5.155939e+01 8.091925e+01 4.290817e+01 3.245745e+01 8.398177e+01 4.227319e-01 9.680213e-01 1.442462e+00 3.350794e+00 3.439970e+00 3.128779e+00 4.489714e+00 3.952816e+00 6.288273e+00 5.677345e+00 3.607295e+00 3.079515e+00 2.541688e-01 8.040808e-02 1.994275e-01 2.576659e-01 3.571870e-01 4.426980e-01 5.667397e-01 8.000374e-01 6.042547e-01 8.545677e-01 8.383507e-01 9.282809e-01 5.430781e-01 4.494329e-02
<GCONST> 1.194485e+02
<MIXTURE> 15 5.532186e-02
<MEAN> 39
 -3.489557e+00 -1.762300e+00 1.581497e+00 2.060834e+00 4.970449e+00 6.816636e+00 5.287992e+00 4.045964e+00 2.361612e+00 4.435277e+00 -3.581323e-01 2.451789e+00 -8.393512e+00 -5.538042e-01 -9.374925e-02 5.000250e-01 4.957699e-01 3.098620e-01 4.966512e-01 3.789864e-01 6.108319e-02 2.714468e-02 -9.139629e-02 -5.380059e-01 -5.469882e-01 -4.244150e-01 6.217896e-01 3.719960e-01 5.346976e-02 -1.088555e-01 -8.798632e-01 -1.033182e+00 -1.014245e+00 -7.551324e-01 -3.940511e-01 -5.480788e-01 2.482130e-02 -1.462693e-01 3.815791e-01
<VARIANCE> 39
 1.888778e+01 2.898400e+01 4.357932e+01 5.474070e+01 4.043216e+01 6.527744e+01 6.134539e+01 7.121661e+01 6.948938e+01 7.198053e+01 7.650924e+01 4.717793e+01 1.772468e+01 6.067825e-01 1.052341e+00 2.954740e+00 4.883859e+00 6.040296e+00 9.883256e+00 7.378453e+00 6.882169e+00 8.321234e+00 6.864825e+00 1.120129e+01 5.196364e+00 2.541688e-01 1.678728e-01 3.601761e-01 6.647534e-01 6.447877e-01 8.734915e-01 1.392633e+00 1.328322e+00 1.628626e+00 1.671501e+00 1.658410e+00 1.327995e+00 9.747477e-01 9.400673e-02
<GCONST> 1.348091e+02
<MIXTURE> 16 7.743216e-02
<MEAN> 39
 -6.007915e+00 -2.396669e+00 3.300775e+00 8.584063e+00 8.498574e+00 1.193134e+01 8.491726e+00 7.035426e+00 2.005778e+00 3.525325e+00 2.671684e+00 3.282098e+00 -8.386050e+00 9.351975e-01 1.372318e-01 4.806707e-01 -1.296321e+00 -2.113890e+00 -3.146311e+00 -1.404769e+00 -1.804018e+00 -1.039234e+00 -2.483144e+00 -1.491974e+00 -2.049602e+00 4.522777e+00 9.851879e-01 -5.475940e-01 -4.762158e-01 -1.083486e+00 -1.257118e+00 -1.241802e+00 -7.656274e-01 -7.800578e-01 -3.936709e-01 -8.510852e-01 -2.765125e-01 -4.532466e-01 1.639200e+00
<VARIANCE> 39
 2.089536e+01 4.570336e+01 6.407606e+01 6.385850e+01 8.467822e+01 1.018714e+02 7.510468e+01 6.221894e+01 8.575360e+01 8.642013e+01 5.282895e+01 7.011069e+01 3.716777e+01 5.934258e+00 6.373995e+00 7.088722e+00 1.046404e+01 1.025739e+01 1.462419e+01 1.291018e+01 1.358273e+01 1.028796e+01 9.215459e+00 1.006607e+01 1.352782e+01 5.490371e+00 8.442178e-01 1.097272e+00 1.222338e+00 1.624438e+00 2.239737e+00 3.272877e+00 2.268370e+00 2.836199e+00 2.117135e+00 2.015611e+00 2.028063e+00 1.869392e+00 1.494379e+00
<GCONST> 1.620451e+02
<TRANSP> 5
 0.000000e+00 1.000000e+00 0.000000e+00 0.000000e+00 0.000000e+00
 0.000000e+00 6.562173e-01 3.437827e-01 0.000000e+00 0.000000e+00
 0.000000e+00 0.000000e+00 6.402457e-01 3.597542e-01 0.000000e+00
 0.000000e+00 0.000000e+00 0.000000e+00 5.426969e-01 4.573031e-01
 0.000000e+00 0.000000e+00 0.000000e+00 0.000000e+00 0.000000e+00
<ENDHMM>
~h "c"
<BEGINHMM>
<NUMSTATES> 5
<STATE> 2
<NUMMIXES> 16
<MIXTURE> 1 6.742054e-02
<MEAN> 39
 -1.583899e+00 3.527305e+00 2.821515e+00 4.548572e+00 1.051412e+00 2.065532e+00 3.590211e+00 5.036831e+00 6.126814e+00 4.391931e+00 4.544595e+00 2.217573e+00 -9.872296e+00 -1.500789e+00 -2.656131e+00 -6.354696e-01 1.363370e+00 2.615790e+00 4.446975e+00 4.809609e+00 3.113748e+00 1.998601e+00 1.582513e+00 1.105194e+00 5.131399e-01 -2.211200e+00 4.829911e-01 4.568640e-01 -5.264033e-01 -1.315036e+00 -1.038956e+00 -1.027329e+00 -7.949336e-01 -9.140872e-01 -9.396988e-01 -7.876156e-01 -7.752200e-01 -6.424443e-01 1.617543e+00
<VARIANCE> 39
 1.601146e+01 2.859126e+01 5.442340e+01 6.878497e+01 5.857941e+01 8.039008e+01 1.180896e+02 9.395978e+01 9.744372e+01 9.118863e+01 8.840795e+01 7.960688e+01 1.185358e+01 2.820585e+00 4.007545e+00 6.868248e+00 8.380765e+00 6.713553e+00 9.039817e+00 1.019886e+01 9.537525e+00 1.116125e+01 1.150620e+01 7.196605e+00 9.694394e+00 1.887678e+00 4.087745e-01 7.890221e-01 1.278283e+00 1.295001e+00 1.073210e+00 2.509061e+00 2.437274e+00 1.506314e+00 2.435445e+00 2.663416e+00 2.407184e+00 2.162951e+00 3.743482e-01
<GCONST> 1.533247e+02
<MIXTURE> 2 6.624812e-02
<MEAN> 39
 -2.669020e+01 9.899325e+00 -9.891410e+00 4.525899e+00 2.755714e+00 1.114000e+00 7.723113e+00 3.700424e-01 8.528486e+00 2.723265e-01 3.313475e+00 5.659155e+00 9.241189e+00 -6.524308e-01 2.277845e+00 2.010340e+00 -2.602072e+00 -4.816442e-02 -1.068887e+00 3.404961e-01 -1.598238e+00 1.205666e+00 -9.681801e-01 -2.154587e+00 1.088884e+00 1.725416e+00 3.758613e+00 -8.541144e-01 1.441877e+00 -1.871626e+00 -1.088291e+00 -2.211562e-01 -1.289479e+00 -2.305102e-01 -8.390697e-01 -6.242470e-01 -8.568373e-01 -8.274433e-01 -5.630854e-01
<VARIANCE> 39
 2.575175e+01 4.457444e+01 5.611969e+01 9.072895e+01 7.639941e+01 8.895063e+01 1.215937e+02 8.546702e+01 7.769666e+01 6.864263e+01 7.491614e+01 6.710668e+01 3.502885e+01 9.902699e+00 5.736305e+00 8.156794e+00 7.711145e+00 1.235457e+01 7.986983e+00 1.228183e+01 1.250449e+01 7.413683e+00 1.381599e+01 9.568757e+00 1.026619e+01 6.939470e+00 6.664107e-01 1.096432e+00 1.759518e+00 2.917359e+00 1.940438e+00 1.961905e+00 2.732354e+00 1.934043e+00 2.183803e+00 1.754549e+00 1.810399e+00 1.704625e+00 7.191157e-01
<GCONST> 1.614165e+02
<MIXTURE> 3 4.494978e-02
<MEAN> 39
 -9.454948e+00 8.349305e-01 6.569144e+00 6.456985e+00 5.144219e-01 1.033446e+01 9.146489e+00 9.612066e+00 5.731948e+00 6.474537e+00 1.152775e+00 -8.118352e-01 -2.114470e+00 -3.557215e+00 1.388988e+00 -1.385222e+00 1.752620e+00 8.551383e-01 3.467153e-01 8.712174e-01 1.597840e+00 7.701402e-01 2.996943e-01 4.806497e-01 -5.199044e-01 2.866060e+00 5.187631e-01 7.671233e-01 -4.854928e-01 -2.684473e-01 3.031990e-01 -3.575776e-01 -1.975176e-01 -4.343982e-01 -4.918926e-01 -5.113537e-01 1.411635e-01 1.350784e-01 -1.930833e-01
<VARIANCE> 39
 2.042899e+01 6.528738e+01 4.183726e+01 5.770967e+01 5.061942e+01 6.203005e+01 7.096863e+01 4.273232e+01 4.619483e+01 5.659565e+01 5.117852e+01 3.886963e+01 2.796533e+01 2.834651e+00 4.318944e+00 4.307395e+00 4.437318e+00 5.626853e+00 8.828013e+00 8.562527e+00 1.240610e+01 9.610305e+00 6.695100e+00 5.202741e+00 8.458630e+00 4.859016e+00 6.308982e-01 1.156136e+00 7.557284e-01 1.619295e+00 8.519110e-01 1.681078e+00 1.482563e+00 1.253526e+00 1.733124e+00 1.221115e+00 1.114259e+00 1.149878e+00 5.090553e-01
<GCONST> 1.462700e+02
<MIXTURE> 4 5.942403e-02
<MEAN> 39
 -1.193390e+01 7.144581e+00 -7.161152e-01 5.426110e+00 4.883181e+00 7.065088e+00 6.375756e+00 1.091231e+01 -3.917264e+00 5.153336e+00 5.830524e-01 -1.257685e-01 2.292239e+00 6.398517e+00 -1.133748e+00 -5.163065e+00 -9.264668e+00 -4.223739e+00 -4.305347e+00 -4.984661e+00 -3.315815e+00 -2.923080e+00 -4.521242e+00 8.215201e-01 -6.130639e-01 3.610183e+00 9.578298e-01 -1.572466e+00 -1.029189e+00 -1.449443e+00 -4.013119e-01 -7.068194e-01 -1.130669e+00 -1.783772e+00 2.086992e-01 -1.550629e+00 -4.558436e-01 -8.208686e-01 1.256903e+00
<VARIANCE> 39
 2.863807e+01 3.324207e+01 4.487399e+01 9.316932e+01 1.215710e+02 9.315663e+01 1.037983e+02 1.078844e+02 2.031921e+02 8.476392e+01 1.409319e+02 7.295962e+01 2.605568e+01 2.814660e+00 6.955382e+00 8.245813e+00 7.033875e+00 1.092185e+01 9.489897e+00 1.103181e+01 1.317045e+01 1.041465e+01 1.525388e+01 9.280794e+00 1.850356e+01 3.166044e+00 9.467912e-01 9.322293e-01 1.052149e+00 2.473625e+00 2.690850e+00 1.835810e+00 1.877228e+00 1.970132e+00 3.880285e+00 1.925428e+00 2.274592e+00 1.547374e+00 4.811584e-01
<GCONST> 1.620806e+02
<MIXTURE> 5 6.109624e-02
<MEAN> 39
 -2.110610e+00 4.263952e+00 5.913271e+00 5.836965e+00 3.731670e+00 8.648209e+00 7.558362e+00 -6.739906e-01 5.010641e+00 5.616625e+00 1.499026e+00 2.436910e+00 -1.149914e+01 -5.089558e-01 -1.750880e-01 -2.074513e-01 3.683314e-01 -7.336960e-01 -2.192975e-01 -2.916483e-01 1.572963e-01 -7.083492e-01 -1.581380e-01 -1.701106e-01 7.643301e-03 4.259117e-01 -4.307185e-01 1.912986e-01 -4.004384e-01 6.234454e-02 -2.595065e-01 -4.109677e-01 -1.359003e-01 6.138736e-01 -2.598103e-01 -2.925808e-01 -1.520136e-01 -1.732620e-01 8.673653e-01
<VARIANCE> 39
 9.996594e+00 1.472916e+01 2.854611e+01 3.129141e+01 5.117143e+01 8.215991e+01 8.847753e+01 6.780798e+01 6.799508e+01 7.880395e+01 7.344497e+01 6.178513e+01 8.628661e+00 1.184026e+00 1.528685e+00 1.847786e+00 3.784796e+00 4.250347e+00 6.971262e+00 5.532686e+00 8.031312e+00 1.013719e+01 5.935222e+00 8.056131e+00 8.027339e+00 1.841277e+00 3.234223e-01 3.741836e-01 4.449974e-01 6.519417e-01 1.011955e+00 1.691751e+00 1.464097e+00 8.589979e-01 2.003410e+00 1.825570e+00 1.772160e+00 1.722731e+00 2.751645e-01
<GCONST> 1.368072e+02
<MIXTURE> 6 6.498734e-02
<MEAN> 39
 -1.387702e+01 5.164208e-01 -1.071607e+01 6.851772e+00 -1.457447e+00 2.161069e+00 4.546123e+00 2.763378e+00 4.973350e+00 -2.389566e+00 6.888898e+00 -1.441134e+00 3.815820e+00 -5.233461e+00 2.009104e+00 -2.218254e+00 -5.424014e-02 1.331388e-01 -1.045770e+00 1.421447e-01 -5.862695e-01 1.391520e+00 -6.942599e-01 3.242611e-01 3.235415e-01 4.586622e+00 7.879897e-01 7.891041e-01 1.443852e+00 -9.374726e-01 3.687900e-01 -5.768637e-02 -2.345016e-02 -1.629447e-01 -1.103067e-01 1.578340e-01 -7.130923e-01 4.758360e-01 -6.700411e-01
<VARIANCE> 39
 3.784927e+01 9.251378e+01 3.826622e+01 4.649394e+01 5.763703e+01 6.723405e+01 5.570807e+01 8.469360e+01 6.467893e+01 8.040971e+01 4.820874e+01 8.352463e+01 4.618292e+01 3.361421e+00 3.678159e+00 8.693480e+00 5.746327e+00 6.280020e+00 7.478118e+00 1.094372e+01 8.485045e+00 7.506532e+00 1.109038e+01 6.128807e+00 5.682874e+00 4.072739e+00 1.229678e+00 1.430689e+00 8.402853e-01 1.634412e+00 1.327157e+00 1.449466e+00 1.956718e+00 2.167077e+00 1.175169e+00 1.917207e+00 7.649288e-01 1.824303e+00 9.238532e-01
<GCONST> 1.529638e+02
<MIXTURE> 7 7.326909e-02
<MEAN> 39
 -2.267652e+00 3.664511e+00 5.513991e+00 6.776258e+00 2.051917e+00 9.107089e+00 9.629792e+00 8.435787e+00 3.197284e+00 3.958853e+00 -1.131616e-01 -9.638765e-01 -1.406789e+01 -2.549886e+00 -1.308535e+00 -2.395904e+00 6.687940e-01 -1.850020e-01 -8.019430e-01 -1.203360e+00 -1.174325e+00 2.690255e-01 -7.319735e-01 5.958225e-01 1.934298e-01 4.349654e+00 -1.132376e+00 5.081065e-01 -7.917882e-01 1.217202e-01 -3.564875e-02 -8.233024e-01 -5.765675e-01 -5.228397e-01 -1.003002e-01 5.857378e-02 2.794625e-02 1.178004e-01 1.547531e+00
<VARIANCE> 39
 1.200715e+01 1.760800e+01 5.462349e+01 4.460239e+01 4.853926e+01 9.145765e+01 6.632244e+01 7.331403e+01 7.808072e+01 8.268080e+01 4.254374e+01 6.694910e+01 1.254641e+01 1.960633e+00 4.385895e+00 4.099229e+00 5.368917e+00 6.571886e+00 6.783686e+00 1.005819e+01 7.984015e+00 7.015203e+00 7.838502e+00 4.491375e+00 6.050457e+00 2.241807e+00 3.792689e-01 7.278449e-01 9.339541e-01 6.467270e-01 1.348063e+00 1.732113e+00 1.663089e+00 1.818146e+00 2.029573e+00 1.796088e+00 7.345166e-01 1.171604e+00 5.205269e-01
<GCONST> 1.431699e+02
<MIXTURE> 8 6.163540e-02
<MEAN> 39
 -1.884068e+01 5.844246e+00 -7.651875e+00 5.790899e+00 1.931323e+00 7.892665e-02 7.695204e+00 3.722188e+00 9.444558e+00 -6.784794e+00 6.977912e+00 -2.715356e+00 5.942695e+00 5.189818e+00 2.511574e+00 1.473419e+00 -6.971672e+00 -1.928397e+00 -2.148634e+00 -3.160584e+00 -2.649431e+00 -4.164130e-01 -3.857385e+00 -2.799550e+00 -2.032793e+00 3.688856e+00 2.117504e+00 -6.356044e-01 8.824609e-02 -2.738511e+00 -8.091389e-01 3.791782e-01 -1.312098e+00 -3.405857e-01 -9.106827e-01 4.621417e-01 -1.129880e+00 2.679033e-01 9.733053e-01
<VARIANCE> 39
 3.352979e+01 3.678685e+01 6.295123e+01 6.963516e+01 4.290281e+01 8.704533e+01 9.614504e+01 9.794292e+01 1.026118e+02 1.016149e+02 7.791252e+01 7.667029e+01 4.062774e+01 7.129420e+00 5.239511e+00 5.625370e+00 1.188681e+01 5.954439e+00 7.132645e+00 6.666931e+00 6.602059e+00 7.268284e+00 8.394157e+00 1.186535e+01 7.818043e+00 5.299519e+00 1.177422e+00 1.217209e+00 1.463905e+00 1.505262e+00 1.431685e+00 1.817186e+00 2.046582e+00 1.932242e+00 2.585167e+00 2.468098e+00 2.001848e+00 1.447399e+00 7.924260e-01
<GCONST> 1.580383e+02
<MIXTURE> 9 8.519194e-02
<MEAN> 39
 -1.743073e+01 6.910401e+00 -3.959252e-01 1.241499e+01 5.115825e+00 6.932686e+00 5.113471e+00 6.509844e+00 2.428466e+00 4.990505e+00 1.469300e+00 1.182319e+00 1.289756e+00 -2.955785e+00 1.720408e+00 -2.154748e+00 2.082905e-01 1.513533e+00 7.762822e-01 1.160769e+00 1.929397e+00 -3.606297e-01 4.273644e-01 7.379442e-02 -5.186126e-01 2.135183e+00 2.383197e+00 -1.459150e-01 -1.431859e-01 -2.243746e+00 -9.615246e-01 -9.755294e-01 -7.234654e-01 -8.186532e-01 -5.752957e-01 -8.512883e-01 7.781400e-02 2.921732e-03 -2.667735e-01
<VARIANCE> 39
 2.267557e+01 5.154078e+01 6.013096e+01 6.059969e+01 7.649617e+01 1.143437e+02 1.021983e+02 1.249393e+02 1.130727e+02 9.328962e+01 1.048979e+02 7.635328e+01 3.035786e+01 3.399299e+00 6.840075e+00 4.297195e+00 6.578128e+00 8.991337e+00 7.908554e+00 8.682791e+00 1.142190e+01 1.653152e+01 1.069866e+01 9.523017e+00 9.621478e+00 6.836560e+00 6.599584e-01 1.019297e+00 1.198781e+00 1.720688e+00 1.660770e+00 2.196880e+00 2.102291e+00 2.779773e+00 2.422090e+00 1.895583e+00 2.130655e+00 1.949818e+00 6.187798e-01
<GCONST> 1.599581e+02
<MIXTURE> 10 7.403745e-02
<MEAN> 39
 -1.947712e+00 1.103632e+00 2.089205e+00 5.377478e+00 2.092206e+00 1.007931e+01 1.532494e+01 1.212235e+01 4.275201e+00 2.778708e+00 1.307817e+00 -2.203084e+00 -1.272663e+01 -6.556940e-01 -4.271555e-01 -3.363741e-01 3.820530e-01 9.319602e-01 1.583322e+00 1.579549e+00 5.814717e-01 5.895876e-01 2.950230e-01 7.065345e-01 1.616015e-01 -3.768173e-01 1.263037e-01 5.517894e-01 -1.575343e-01 -3.401686e-01 -9.849582e-01 -1.647945e+00 -2.188841e+00 -1.812216e+00 -6.510326e-01 -2.453393e-01 6.829755e-02 2.490268e-01 1.336957e+00
<VARIANCE> 39
 1.816842e+01 3.605398e+01 4.420335e+01 4.087271e+01 6.079864e+01 7.742902e+01 9.528178e+01 6.029527e+01 7.550250e+01 6.137623e+01 5.560926e+01 6.442246e+01 1.113742e+01 1.490908e+00 2.672044e+00 2.898492e+00 4.207116e+00 5.459355e+00 7.969978e+00 1.109841e+01 1.054889e+01 1.015260e+01 9.693229e+00 4.565439e+00 6.495459e+00 1.448544e+00 4.842490e-01 7.892007e-01 7.417997e-01 1.431941e+00 1.245483e+00 1.492091e+00 1.855742e+00 1.482871e+00 1.826266e+00 1.561862e+00 1.085965e+00 1.093161e+00 4.365826e-01
<GCONST> 1.436992e+02
<MIXTURE> 11 6.510419e-02
<MEAN> 39
 -2.376901e+00 1.437523e+00 1.736295e+00 5.369238e+00 6.064227e-01 4.039732e+00 5.023804e+00 6.702923e+00 2.490114e+00 5.677135e+00 7.858308e+00 7.097041e+00 -1.363122e+01 -6.804526e-01 -3.018752e-01 -7.209050e-01 5.537828e-01 -1.641382e-01 -4.694943e-02 1.481481e-01 -1.229260e-02 -6.455684e-01 -7.211501e-01 2.308053e-01 -2.722228e-01 7.077016e-01 -7.468922e-01 6.572418e-01 -4.178460e-01 1.384599e-01 -2.521293e-01 -5.782511e-01 -6.036460e-01 -5.217311e-01 -3.038472e-01 -8.956975e-01 -8.518216e-01 -1.127699e+00 1.709466e+00
<VARIANCE> 39
 1.536879e+01 2.457243e+01 5.552899e+01 4.457245e+01 5.779980e+01 6.924403e+01 6.603717e+01 7.452395e+01 6.426567e+01 7.253444e+01 6.661279e+01 5.582858e+01 1.163717e+01 3.190448e+00 3.877332e+00 4.699520e+00 2.882333e+00 4.384823e+00 5.039254e+00 6.721436e+00 6.230255e+00 5.691013e+00 7.015225e+00 6.525398e+00 6.347784e+00 3.432967e+00 6.803827e-01 7.210857e-01 1.225461e+00 9.255458e-01 1.263378e+00 1.455196e+00 1.454525e+00 1.544243e+00 1.896944e+00 2.280425e+00 1.318154e+00 1.160923e+00 6.736867e-01
<GCONST> 1.442664e+02
<MIXTURE> 12 5.223456e-02
<MEAN> 39
 -1.687128e+01 5.045592e-01 -1.310444e+01 4.194863e+00 1.933546e+00 3.610260e+00 5.156062e+00 8.114298e+00 4.745868e+00 7.793033e-01 7.259364e+00 2.988595e+00 7.039635e+00 -3.025396e+00 1.687309e+00 -9.254130e-01 -1.525386e+00 -4.762540e-01 -6.127357e-01 -3.344471e-01 -6.159220e-01 1.736436e+00 -1.897096e+00 -1.286212e+00 -2.764122e-01 4.800192e+00 2.068600e+00 9.078608e-01 1.941612e+00 -1.434359e+00 -8.444453e-01 -4.834055e-01 -9.329283e-01 -1.444344e+00 -5.054778e-01 -5.748168e-01 -1.153122e+00 -3.706612e-01 -7.451251e-01
<VARIANCE> 39
 3.267980e+01 5.680248e+01 4.658180e+01 6.608472e+01 7.255538e+01 8.194283e+01 1.368059e+02 6.351920e+01 1.070546e+02 6.309278e+01 1.013784e+02 6.562441e+01 5.540671e+01 6.612344e+00 7.173997e+00 7.710405e+00 7.056990e+00 7.274449e+00 9.850764e+00 9.167830e+00 1.415320e+01 1.190542e+01 1.133226e+01 1.052303e+01 1.106992e+01 8.426523e+00 1.255498e+00 1.190529e+00 9.467196e-01 1.863832e+00 1.930554e+00 1.680254e+00 2.450904e+00 9.412380e-01 2.352217e+00 2.141540e+00 2.369729e+00 1.743094e+00 1.057089e+00
<GCONST> 1.614921e+02
<MIXTURE> 13 6.755808e-02
<MEAN> 39
 -5.282425e+00 2.844548e+00 3.828331e-01 8.064448e+00 4.075425e+00 4.773866e+00 3.985963e+00 2.223488e+00 9.282357e-01 3.891118e+00 6.693375e+00 1.419408e+00 -1.179680e+01 -3.673297e+00 1.596395e-01 -3.398659e+00 1.737289e-01 -9.811459e-02 -7.104438e-01 -4.981332e-01 -1.643046e-01 7.012195e-01 -1.301200e+00 4.766088e-01 -1.248191e+00 5.150355e+00 -8.717514e-01 6.286057e-01 -3.009564e-01 -6.979913e-01 -4.674770e-01 -4.685219e-01 -2.907814e-02 8.038139e-02 4.413540e-01 -5.993614e-01 -4.635340e-01 4.919420e-02 1.472147e+00
<VARIANCE> 39
 1.841505e+01 2.958351e+01 5.027116e+01 5.220524e+01 3.815806e+01 4.495430e+01 5.476424e+01 7.117630e+01 4.342284e+01 5.406659e+01 3.705886e+01 5.674957e+01 1.968486e+01 3.261984e+00 5.797774e+00 6.155990e+00 7.322186e+00 6.266931e+00 8.677896e+00 1.243605e+01 9.668868e+00 1.135710e+01 1.122139e+01 8.238608e+00 7.222544e+00 4.787827e+00 6.536705e-01 1.037621e+00 1.159135e+00 1.075458e+00 1.102795e+00 1.202049e+00 1.958618e+00 1.786946e+00 1.310660e+00 1.863991e+00 1.078792e+00 1.225834e+00 4.967861e-01
<GCONST> 1.478314e+02
<MIXTURE> 14 5.746989e-02
<MEAN> 39
 -1.933554e+01 6.063621e+00 -2.327447e+00 1.107544e+01 8.580418e+00 1.191198e+01 1.195262e+01 1.163743e+01 1.263165e-01 6.320780e+00 -4.810588e-01 -7.964067e-01 4.471100e+00 2.520567e+00 1.764549e+00 -1.678292e+00 -4.454106e+00 -1.583510e+00 -2.739434e+00 -2.171869e+00 -6.391955e-01 -2.213114e+00 -1.207357e+00 3.649863e-01 2.703109e-01 1.402873e+00 2.933407e+00 -9.566452e-01 -8.055999e-01 -3.220726e+00 -1.680377e+00 -1.846193e+00 -2.031403e+00 -2.013579e+00 -5.526440e-01 -1.708306e+00 -1.159217e-01 -1.154355e-01 5.444577e-01
<VARIANCE> 39
 2.008856e+01 8.368182e+01 5.132327e+01 6.731712e+01 8.225773e+01 8.168050e+01 7.716779e+01 9.420177e+01 1.278510e+02 7.364349e+01 9.252136e+01 1.116828e+02 2.398824e+01 6.236348e+00 6.613115e+00 8.313443e+00 1.195312e+01 8.362219e+00 9.525681e+00 7.819649e+00 1.032590e+01 8.956847e+00 7.530764e+00 1.112975e+01 1.142817e+01 3.579926e+00 4.302588e-01 1.971159e+00 1.324432e+00 1.233313e+00 2.653044e+00 2.228135e+00 2.028430e+00 2.350900e+00 2.759412e+00 2.117048e+00 1.703812e+00 2.422856e+00 5.844046e-01
<GCONST> 1.602572e+02
<MIXTURE> 15 4.961371e-02
<MEAN> 39
 -2.246020e+01 1.219070e+01 -1.714451e+00 -2.149481e+00 3.303366e+00 9.934672e-01 2.608679e+00 -2.110543e+00 8.906887e+00 -1.846124e-01 -2.375962e+00 8.568638e+00 1.137809e+01 7.168585e+00 -8.884152e-01 3.282352e+00 -7.849198e+00 -5.290079e+00 -2.398739e+00 -4.217509e+00 -2.903725e+00 -2.064006e+00 -1.901388e+00 -4.266869e+00 -1.862050e+00 3.191865e+00 2.873813e+00 -2.143389e+00 -4.160799e-01 -1.014354e+00 -1.587109e+00 1.054897e-01 -4.519144e-01 4.990858e-02 -1.380195e+00 -3.078635e-01 -1.206570e-01 -1.430456e+00 4.041243e-01
<VARIANCE> 39
 4.438626e+01 6.321577e+01 1.003006e+02 9.673429e+01 1.113789e+02 1.124276e+02 1.320309e+02 1.278300e+02 9.051640e+01 9.345638e+01 1.149053e+02 1.168111e+02 4.706231e+01 6.114068e+00 7.351497e+00 9.011573e+00 1.971652e+01 1.120685e+01 1.575557e+01 1.655955e+01 9.002884e+00 1.295171e+01 1.095563e+01 1.742818e+01 1.163914e+01 5.260398e+00 2.281413e+00 2.230108e+00 2.274421e+00 3.245599e+00 3.535019e+00 3.848334e+00 4.022081e+00 3.226155e+00 1.918078e+00 2.437705e+00 3.113393e+00 3.435227e+00 1.214181e+00
<GCONST> 1.743620e+02
<MIXTURE> 16 4.975476e-02
<MEAN> 39
 -1.036145e+01 -2.775120e+00 -1.822328e+00 9.766612e+00 2.760120e+00 1.659627e+00 3.208436e+00 -3.800105e-01 1.535906e+00 2.569665e+00 3.958063e+00 5.917145e+00 7.503325e-01 -3.923388e+00 1.101055e+00 -2.922796e+00 6.436149e-01 1.404782e-01 -1.006017e+00 -8.649041e-01 -2.325091e-01 -5.599633e-01 3.053522e-01 -6.818773e-01 4.384509e-01 4.252054e+00 8.634298e-02 9.988893e-01 -6.601449e-03 -6.594079e-01 2.637359e-01 2.686052e-01 6.502568e-01 9.189528e-01 -2.679016e-01 1.349098e-01 -4.868194e-01 -4.877565e-01 -3.904583e-01
<VARIANCE> 39
 1.395610e+01 3.411749e+01 4.463830e+01 2.764544e+01 3.899480e+01 6.152253e+01 3.846600e+01 3.921781e+01 7.875484e+01 5.760922e+01 7.207027e+01 4.289656e+01 2.181862e+01 1.983618e+00 4.901243e+00 4.693102e+00 4.414528e+00 7.007687e+00 7.441476e+00 8.601868e+00 9.999140e+00 1.165392e+01 9.394778e+00 5.774333e+00 5.601886e+00 2.701613e+00 5.511737e-01 9.956004e-01 5.429851e-01 8.092206e-01 1.444817e+00 1.290172e+00 1.682345e+00 2.022004e+00 2.273525e+00 1.674266e+00 1.449780e+00 1.015666e+00 4.463145e-01
<GCONST> 1.438236e+02
<STATE> 3
<NUMMIXES> 16
<MIXTURE> 1 4.820389e-02
<MEAN> 39
 -3.493248e-01 4.590183e+00 -4.031468e-02 -1.528357e+00 -1.472524e+00 -1.593069e+00 7.589124e+00 8.080723e+00 6.714354e+00 2.061860e+00 2.715176e+00 -1.424380e+00 -7.030716e+00 -3.388184e-01 -8.944011e-01 2.965246e-01 6.031678e-01 1.336842e+00 1.769978e+00 1.498859e+00 9.822962e-01 -7.305702e-01 4.908243e-01 4.828493e-01 1.432062e-01 -7.655915e-01 2.353672e-01 7.515259e-01 6.478928e-02 -5.075486e-01 -2.764985e-01 -5.549749e-01 -1.117879e+00 -1.239798e+00 -9.875261e-01 -4.665078e-01 -6.100653e-01 -5.178175e-02 4.279221e-01
<VARIANCE> 39
 8.138562e+00 3.167786e+01 3.737860e+01 5.076582e+01 5.608536e+01 8.652759e+01 1.246978e+02 6.633772e+01 6.807879e+01 1.025307e+02 5.750309e+01 4.321725e+01 8.628661e+00 9.519254e-01 2.991815e+00 4.281489e+00 4.116975e+00 4.071765e+00 6.554663e+00 7.557755e+00 1.242683e+01 1.015582e+01 1.640956e+01 1.178846e+01 6.605932e+00 3.864531e-01 2.196175e-01 2.030779e-01 1.012678e+00 1.131127e+00 1.556328e+00 1.660846e+00 1.730984e+00 1.031479e+00 1.837715e+00 1.856723e+00 1.233973e+00 1.230519e+00 1.949254e-01
<GCONST> 1.399377e+02
<MIXTURE> 2 6.044400e-02
<MEAN> 39
 4.672591e+00 9.133060e+00 -1.056428e+01 -2.758211e+01 -9.302129e-01 3.182935e+00 -7.670250e+00 -1.052506e+00 7.869692e-01 -1.825163e+01 -2.340559e+00 -7.962847e+00 2.518451e+01 3.691580e+00 -3.487934e+00 -1.235388e+00 -4.303146e+00 1.483404e+00 3.103765e+00 -2.600106e+00 -1.893406e+00 -7.688660e-01 -3.681558e-01 -5.116292e-01 2.013871e+00 5.498572e+00 -2.382644e+00 -1.389778e+00 4.153565e-01 3.125984e+00 6.707105e-01 3.445760e-01 8.149967e-01 1.889887e-01 3.690684e-01 1.814790e+00 6.388539e-01 1.350803e+00 -7.877734e-01
<VARIANCE> 39
 2.316766e+01 4.543525e+01 2.599646e+01 3.253262e+01 6.648399e+01 1.065702e+02 3.846600e+01 4.588592e+01 6.628860e+01 4.570078e+01 3.467893e+01 4.493217e+01 3.155098e+01 8.594963e+00 6.406788e+00 2.927092e+00 1.100609e+01 1.065879e+01 5.911547e+00 1.658674e+01 7.323539e+00 1.446494e+01 1.019706e+01 7.176774e+00 5.051035e+00 2.395996e+00 2.396680e-01 7.562586e-01 4.829269e-01 1.154007e+00 1.394102e+00 1.241051e+00 1.059126e+00 1.202770e+00 1.331270e+00 1.105287e+00 1.013578e+00 5.980254e-01 5.088885e-01
<GCONST> 1.441270e+02
<MIXTURE> 3 5.035029e-02
<MEAN> 39
 2.659140e+00 -7.232852e+00 -2.031262e+01 -2.735819e+01 -3.700806e+00 -1.664681e+00 -1.037196e+01 -3.099618e+00 -1.238522e+01 -2.076787e+01 6.648868e-01 -1.509702e+01 2.452138e+01 -1.589627e+00 -3.393960e+00 -2.312881e-01 7.823426e-01 2.708111e+00 2.474073e+00 -2.391141e+00 -2.849952e+00 8.401206e-01 -1.214818e+00 1.536718e+00 -9.193042e-01 2.734636e+00 -1.133079e+00 7.208395e-01 1.789522e+00 2.905174e+00 8.461747e-01 2.944211e-01 5.288711e-01 5.064625e-01 1.072463e+00 2.255844e+00 1.799569e-01 1.300891e+00 -1.531422e+00
<VARIANCE> 39
 1.968158e+01 2.793753e+01 1.892131e+01 4.697905e+01 5.091220e+01 1.214264e+02 3.984701e+01 4.783973e+01 5.767323e+01 1.160637e+02 3.467893e+01 7.242575e+01 2.209684e+01 1.705887e+00 2.964320e+00 2.573360e+00 3.454219e+00 8.391355e+00 4.454251e+00 4.453393e+00 3.623228e+00 5.791028e+00 4.986723e+00 8.398061e+00 6.866172e+00 2.001133e+00 4.924562e-01 8.066531e-01 4.483000e-01 1.834973e+00 1.116116e+00 1.746237e+00 1.026011e+00 1.448241e+00 2.114747e+00 2.215154e+00 1.235211e+00 1.274074e+00 3.485672e-01
<GCONST> 1.400000e+02
<MIXTURE> 4 7.793643e-02
<MEAN> 39
 -1.215172e+00 5.111878e-01 -6.823121e+00 -3.221683e+01 -9.060699e+00 4.443566e+00 -6.089154e+00 -9.818950e-01 5.289898e+00 -8.545856e+00 -1.367697e+01 1.285802e+00 3.034113e+01 -7.594681e-01 -3.587188e+00 -1.059393e+00 3.088755e-01 1.047282e+00 3.168826e+00 6.673597e-01 -1.429825e+00 -1.427850e+00 5.975680e-01 -1.627376e+00 2.667444e+00 2.948323e+00 -7.188447e-01 -7.579838e-02 4.686657e-01 3.187812e+00 1.212380e+00 -1.288515e-01 7.477286e-01 -4.436974e-01 -3.108646e-01 9.615186e-02 1.382180e+00 4.981580e-03 -2.003725e+00
<VARIANCE> 39
 2.240354e+01 2.909289e+01 2.516820e+01 5.194039e+01 2.822445e+01 4.464133e+01 4.121109e+01 3.894641e+01 3.846083e+01 5.230767e+01 6.178421e+01 3.245745e+01 3.009037e+01 5.812487e-01 9.447584e-01 1.442462e+00 5.482402e+00 3.067910e+00 2.891146e+00 6.952413e+00 4.532814e+00 3.433428e+00 3.426822e+00 4.354161e+00 3.982765e+00 3.298023e+00 4.561355e-01 3.788563e-01 5.590930e-01 1.524678e+00 5.290998e-01 8.660454e-01 1.227218e+00 6.042547e-01 8.439612e-01 8.234005e-01 6.218691e-01 6.519457e-01 3.267357e-01
<GCONST> 1.267001e+02
<MIXTURE> 5 5.098921e-02
<MEAN> 39
 2.502526e+00 3.468965e-01 8.216723e+00 -2.288225e+01 -2.497728e+01 -3.909786e+00 -1.208543e+01 -7.624482e+00 -8.791337e+00 -1.059939e+00 -1.285654e+01 -1.095975e+01 2.752654e+01 5.684962e+00 -4.086390e+00 -1.828773e+00 -4.021700e-01 -5.069389e+00 -4.340271e+00 2.059157e-01 1.910692e+00 -5.337468e+00 3.290676e-01 8.383146e-01 -5.750908e+00 3.230645e+00 -1.334598e+00 1.421516e-02 -2.071167e+00 2.892859e+00 3.563020e+00 -7.949542e-01 1.803447e+00 1.378619e+00 9.393482e-01 -5.671207e-01 1.990206e+00 1.546839e+00 -1.404451e+00
<VARIANCE> 39
 6.692117e+01 8.165232e+01 6.418120e+01 1.775618e+02 6.311113e+01 1.210406e+02 1.010549e+02 6.997025e+01 4.335956e+01 7.309225e+01 1.534307e+02 6.867956e+01 1.050670e+02 2.108843e+01 8.978311e+00 1.056154e+01 1.620245e+01 2.187589e+01 2.704330e+01 1.671876e+01 1.031582e+01 9.529439e+00 1.856174e+01 1.281447e+01 8.923759e+00 7.585238e+00 2.376301e+00 1.904601e+00 3.381449e+00 4.536644e+00 1.481076e+00 3.058013e+00 3.876616e+00 1.340399e+00 1.684602e+00 1.803036e+00 3.741968e+00 2.298491e+00 1.191236e+00
<GCONST> 1.741041e+02
<MIXTURE> 6 5.029376e-02
<MEAN> 39
 8.144313e+00 4.279579e+00 -1.581477e+01 -2.312165e+01 -9.445165e+00 -6.178234e+00 -9.481564e+00 7.240116e-01 -1.076841e+01 -8.918408e+00 5.694596e+00 -2.318029e+00 1.081657e+01 4.919596e+00 -2.965016e+00 -5.414969e+00 -9.228996e+00 -3.329596e+00 -2.403750e+00 -5.727040e+00 -4.753227e+00 -1.283789e+00 -7.940153e+00 -2.034944e-01 -3.428625e+00 5.494370e+00 -2.191306e+00 -9.947111e-01 9.060037e-01 2.492141e+00 1.942252e+00 1.330037e+00 8.759633e-01 -3.463559e-01 1.123212e+00 6.822991e-01 -5.300289e-01 -1.238293e-01 3.994132e-01
<VARIANCE> 39
 1.009856e+01 3.319122e+01 5.545811e+01 4.484758e+01 4.174077e+01 5.364334e+01 3.846600e+01 4.448069e+01 9.245411e+01 8.620984e+01 9.494335e+01 5.196534e+01 2.655279e+01 3.031685e+00 3.908435e+00 2.636385e+00 9.895224e+00 1.415544e+01 1.017919e+01 7.916029e+00 9.671895e+00 8.904669e+00 1.154426e+01 1.064168e+01 1.252345e+01 2.215736e+00 4.457170e-01 5.181609e-01 8.079146e-01 1.010526e+00 1.465864e+00 1.181135e+00 1.173501e+00 8.658077e-01 1.134028e+00 2.078072e+00 2.081396e+00 1.455091e+00 3.022039e-01
<GCONST> 1.462640e+02
<MIXTURE> 7 6.157352e-02
<MEAN> 39
 5.836815e+00 -1.701563e+01 -4.097923e+00 -2.350775e+01 -1.292148e+01 1.513964e+01 -7.113436e+00 -1.632772e+01 -7.585666e+00 -4.879420e+00 -1.434912e+01 1.386064e+00 3.350588e+01 6.829166e-02 -4.417665e+00 4.043892e-01 3.811091e+00 1.023216e+00 1.798152e+00 -2.674913e+00 -1.766371e+00 -3.218327e+00 1.635146e+00 3.235723e+00 -1.556433e+00 8.089949e-01 -7.630263e-01 1.712329e+00 3.929541e-01 1.608053e+00 7.094635e-01 -1.523222e+00 -1.806542e-01 6.557410e-01 9.044443e-01 1.417546e-01 9.452522e-01 -3.945262e-01 -1.559262e+00
<VARIANCE> 39
 2.071593e+01 4.207183e+01 2.285297e+01 4.173670e+01 4.634825e+01 5.806261e+01 1.272460e+02 5.279005e+01 6.222813e+01 4.862672e+01 9.971191e+01 7.962856e+01 4.397254e+01 6.798060e-01 2.871116e+00 1.588480e+00 4.761451e+00 4.262645e+00 4.567408e+00 5.581685e+00 3.601093e+00 6.983053e+00 8.486367e+00 9.414356e+00 8.735969e+00 1.560098e+00 6.467861e-01 3.924113e-01 4.708514e-01 1.457054e+00 7.486049e-01 6.315230e-01 1.816548e+00 9.121867e-01 1.109186e+00 1.179970e+00 2.182425e+00 1.171507e+00 3.362697e-01
<GCONST> 1.385202e+02
<MIXTURE> 8 6.038884e-02
<MEAN> 39
 -5.155427e-01 1.039482e+01 -5.063404e+00 -2.552309e+01 -9.437563e+00 -1.024785e+01 -1.365444e+01 -7.997777e+00 8.056269e-01 -1.227163e+01 3.824170e+00 -1.594060e+00 2.028671e+01 6.642458e+00 -4.660205e+00 -7.996364e-01 -6.621550e+00 -6.011858e+00 -2.056270e+00 -3.251958e+00 -5.201094e+00 1.903486e-01 -4.336417e+00 -1.456862e+00 -4.464101e-01 3.933653e+00 -9.821692e-01 -1.333988e+00 -3.787332e-01 3.439236e+00 5.554560e-01 1.382747e+00 1.927590e+00 2.089695e-01 -3.049610e-01 9.013419e-01 -6.812505e-01 -3.134201e-01 -8.902896e-01
<VARIANCE> 39
 6.221842e+01 2.103729e+02 8.737000e+01 1.565293e+02 6.220446e+01 1.950471e+02 8.806369e+01 1.119345e+02 8.128719e+01 1.344608e+02 1.117298e+02 1.215776e+02 4.164404e+01 1.028747e+01 3.556353e+01 7.828711e+00 3.951873e+01 2.540693e+01 1.671796e+01 2.261486e+01 2.302429e+01 2.837302e+01 1.463906e+01 1.776804e+01 2.304395e+01 2.401168e+00 2.750104e+00 3.853758e+00 2.596768e+00 4.786143e+00 2.158690e+00 5.418310e+00 2.283503e+00 3.831372e+00 2.647944e+00 3.150229e+00 2.482720e+00 3.347452e+00 5.514381e-01
<GCONST> 1.818407e+02
<MIXTURE> 9 1.103045e-01
<MEAN> 39
 -3.070001e+00 1.539100e+01 -2.317487e+00 -7.898488e+00 -4.781362e+00 -6.955861e+00 -2.977479e+00 -5.593524e+00 5.129012e+00 -1.334156e+01 -1.014092e+00 -5.075487e+00 9.583576e+00 6.995357e+00 1.826112e-01 8.702848e-01 -1.063484e+01 -3.128796e+00 -5.794535e-01 -4.481938e+00 -2.019531e+00 -1.321664e+00 -2.105100e+00 -3.878714e+00 -1.106387e+00 6.023657e+00 -6.279012e-01 -2.036105e+00 -8.336862e-01 -2.395898e-01 3.662044e-01 1.406596e+00 9.169881e-02 5.411325e-01 -3.899990e-01 1.233575e+00 -9.729584e-02 7.670206e-01 9.478277e-01
<VARIANCE> 39
 4.890906e+01 3.959624e+01 5.364436e+01 9.218996e+01 6.808970e+01 6.351958e+01 8.697922e+01 7.124277e+01 8.811008e+01 6.262292e+01 8.635673e+01 1.227092e+02 6.889798e+01 6.160952e+00 9.858346e+00 5.603086e+00 1.061500e+01 8.669259e+00 1.604888e+01 7.458810e+00 8.604620e+00 1.281097e+01 1.047010e+01 1.078650e+01 7.933395e+00 3.603136e+00 1.287706e+00 1.188387e+00 1.013474e+00 1.414183e+00 1.511834e+00 1.019492e+00 2.166677e+00 1.258097e+00 1.960461e+00 1.442789e+00 1.188790e+00 2.140484e+00 9.361910e-01
<GCONST> 1.590206e+02
<MIXTURE> 10 4.498388e-02
<MEAN> 39
 3.777822e+00 -1.711360e+00 -2.220437e+01 -2.869599e+01 -9.701031e+00 -6.549160e+00 -1.743656e+00 -2.755654e+00 -1.273279e+01 -1.808533e+01 -7.811621e+00 -1.306239e+01 2.451927e+01 1.336599e+00 -4.008678e+00 -4.751494e+00 -5.094272e+00 -2.045790e-01 -8.657801e-01 -2.487788e+00 -4.194983e+00 -8.559431e-01 -3.911412e+00 -8.937734e-01 -3.569637e+00 5.705644e+00 -1.956591e+00 -3.116494e-01 1.988822e+00 3.938382e+00 2.435878e+00 1.616845e+00 4.323538e-01 4.399389e-01 1.195559e+00 2.100035e+00 1.021680e+00 9.604526e-01 -1.212321e+00
<VARIANCE> 39
 2.525428e+01 2.402172e+01 5.468642e+01 5.825875e+01 6.345606e+01 4.938635e+01 8.287278e+01 9.425777e+01 4.195964e+01 5.551837e+01 8.989019e+01 7.963040e+01 2.871359e+01 3.142209e+00 2.676162e+00 4.412408e+00 9.458874e+00 9.858520e+00 7.987365e+00 7.293399e+00 7.279933e+00 1.487467e+01 4.947145e+00 8.534128e+00 9.287271e+00 3.946923e+00 4.276902e-01 4.706765e-01 6.576007e-01 8.930084e-01 9.650592e-01 1.118768e+00 1.642541e+00 1.961570e+00 1.176170e+00 1.296827e+00 1.670395e+00 1.889964e+00 4.724595e-01
<GCONST> 1.473283e+02
<MIXTURE> 11 7.054693e-02
<MEAN> 39
 4.466723e+00 6.848309e+00 1.186925e+00 -2.421022e+01 -1.348782e+01 -2.949552e+00 -8.802468e+00 -9.208887e+00 3.486957e+00 -4.736424e+00 -1.463876e+01 9.217193e-01 2.062875e+01 7.009053e+00 -5.863840e+00 6.172452e-01 -9.484399e+00 -5.801760e+00 1.453954e+00 -2.949183e+00 -2.189387e+00 -3.469268e+00 -4.723172e-01 -5.541450e+00 -3.041528e+00 6.182265e+00 -1.577777e+00 -1.579003e+00 -1.345875e+00 2.310534e+00 7.624974e-01 8.677360e-01 1.361365e+00 6.677886e-01 -8.237835e-01 6.543896e-01 1.536801e+00 -2.482176e-01 -1.568662e-01
<VARIANCE> 39
 2.756260e+01 3.993819e+01 4.770829e+01 5.664182e+01 6.017215e+01 6.803515e+01 8.659846e+01 5.273447e+01 7.148730e+01 1.032518e+02 6.183404e+01 4.601755e+01 7.092690e+01 7.588872e+00 8.915345e+00 9.108279e+00 8.272194e+00 1.191182e+01 1.225311e+01 1.974047e+01 8.603637e+00 1.239817e+01 7.426867e+00 7.151747e+00 1.645974e+01 2.409035e+00 8.516073e-01 7.380238e-01 4.836181e-01 1.381875e+00 1.250661e+00 1.306395e+00 2.512088e+00 1.134222e+00 1.498216e+00 2.121401e+00 2.735523e+00 2.022492e+00 6.657628e-01
<GCONST> 1.564041e+02
<MIXTURE> 12 7.067145e-02
<MEAN> 39
 2.754124e-01 7.999338e+00 -3.753008e+00 -3.151209e+01 -1.035745e+01 -6.156956e+00 -9.375416e+00 -1.591172e+00 8.249063e+00 -1.026338e+01 -6.997406e+00 -4.697362e+00 2.493719e+01 2.086743e+00 -2.293854e+00 -1.172080e+00 -9.232029e+00 -2.204057e+00 1.197016e+00 -2.218034e+00 -4.574394e-01 -4.592885e-01 6.450659e-01 -4.448737e+00 9.355559e-01 7.204163e+00 -1.706709e+00 -1.402962e+00 -7.735571e-01 3.239089e+00 1.426334e+00 1.583412e+00 1.573802e+00 -5.396846e-03 -4.737853e-01 8.783161e-01 7.404180e-01 1.039320e+00 -1.023081e+00
<VARIANCE> 39
 1.397259e+01 2.177265e+01 2.438842e+01 7.431024e+01 2.822445e+01 5.045775e+01 3.994088e+01 3.894641e+01 5.427489e+01 3.947017e+01 6.522384e+01 4.156234e+01 3.365305e+01 3.235993e+00 6.145667e+00 5.333075e+00 9.295874e+00 7.010329e+00 8.156254e+00 1.479229e+01 6.133506e+00 4.739590e+00 5.644293e+00 6.756511e+00 5.779622e+00 5.622161e+00 2.854044e-01 2.391591e-01 6.007574e-01 1.447900e+00 4.361086e-01 7.779904e-01 1.124939e+00 6.042547e-01 1.538308e+00 8.220652e-01 1.181196e+00 6.481709e-01 5.077733e-01
<GCONST> 1.377239e+02
<MIXTURE> 13 7.498060e-02
<MEAN> 39
 6.761516e+00 -6.949508e+00 -2.861679e+00 -3.363912e+01 -1.789948e+01 6.086344e+00 1.735536e-01 -7.831831e+00 3.890158e+00 -3.399021e+00 -2.204867e+01 7.939622e-01 2.927165e+01 1.638418e+00 -6.828663e+00 -9.565771e-01 -1.494154e+00 -9.662104e-01 4.494757e+00 1.109218e+00 -1.329873e+00 -4.113029e+00 3.471756e-01 -1.640105e+00 -6.716307e-01 3.352551e+00 -1.910170e+00 5.255273e-01 -1.376047e-01 3.539898e+00 1.560028e+00 -3.184632e-02 1.057431e-02 -2.873556e-02 -3.221668e-01 3.281079e-01 2.287516e+00 4.338769e-01 -1.423805e+00
<VARIANCE> 39
 2.330417e+01 3.725412e+01 1.896606e+01 7.355939e+01 5.409439e+01 7.058055e+01 5.935198e+01 4.894005e+01 9.222898e+01 3.765383e+01 4.309059e+01 5.292722e+01 3.459938e+01 4.590855e+00 4.479158e+00 3.203681e+00 1.190298e+01 4.963290e+00 3.683676e+00 1.568173e+01 4.589884e+00 5.710190e+00 9.190517e+00 1.180635e+01 6.757720e+00 6.002740e+00 7.728032e-01 6.151261e-01 4.056204e-01 1.412250e+00 1.498322e+00 1.527534e+00 1.936542e+00 1.209026e+00 1.747697e+00 1.181377e+00 1.408025e+00 1.372327e+00 1.844453e-01
<GCONST> 1.453848e+02
<MIXTURE> 14 5.904505e-02
<MEAN> 39
 4.711881e+00 7.015212e+00 -1.724393e+01 -1.318987e+01 -1.044769e+01 -4.700170e+00 -2.015037e+00 -3.658203e+00 -1.017423e+01 1.720256e+00 3.108250e+00 8.399096e+00 1.347097e+01 4.959386e+00 -3.375651e+00 -7.593304e+00 -8.364891e+00 -1.306136e+00 -6.287465e+00 -4.570850e+00 -6.521124e+00 -4.376013e+00 -4.913729e+00 -2.353998e+00 -1.408588e+00 5.532228e+00 -1.524610e+00 -1.270029e+00 1.006067e+00 1.885864e+00 1.828150e+00 4.826490e-01 -4.901375e-01 3.645345e-02 8.076342e-01 -4.880224e-01 -5.220594e-01 -1.984732e+00 -3.426865e-02
<VARIANCE> 39
 2.130105e+01 3.339301e+01 9.756290e+01 8.677578e+01 5.880394e+01 5.245010e+01 5.919017e+01 5.402063e+01 5.718478e+01 6.764017e+01 6.792969e+01 9.389814e+01 6.352230e+01 3.565543e+00 8.427915e+00 4.900708e+00 4.378881e+00 9.044960e+00 1.107888e+01 1.176789e+01 1.378235e+01 7.028593e+00 6.201098e+00 6.401423e+00 6.427315e+00 2.797994e+00 5.435488e-01 7.889177e-01 1.876386e+00 1.831944e+00 8.043124e-01 1.686468e+00 1.647299e+00 1.539617e+00 1.428168e+00 1.638788e+00 1.294299e+00 2.111262e+00 5.432516e-01
<GCONST> 1.521196e+02
<MIXTURE> 15 5.966975e-02
<MEAN> 39
 5.570939e-01 -7.892159e+00 -2.467492e+01 -1.631886e+01 3.314870e+00 -8.511896e+00 -1.334330e+01 -1.442891e+01 -1.061386e+01 -1.213933e+01 -4.865986e+00 -9.772627e+00 2.370764e+01 -1.629656e+00 -3.560951e+00 2.208540e+00 3.437341e+00 3.841914e+00 -2.552854e+00 -4.855727e+00 -1.698072e+00 1.155765e+00 -7.878976e-01 -2.575129e-01 -4.416261e+00 1.711331e+00 -9.965777e-01 1.028918e+00 2.572976e+00 2.492561e+00 -1.532909e-01 8.022821e-01 6.782613e-01 1.906705e+00 7.865260e-01 1.226824e+00 7.438336e-01 5.935242e-01 -1.568077e+00
<VARIANCE> 39
 2.084529e+01 2.028510e+01 5.631423e+01 7.289978e+01 6.450694e+01 3.703620e+01 1.212136e+02 9.653539e+01 6.608369e+01 6.542169e+01 5.484221e+01 5.787355e+01 3.944477e+01 1.497362e+00 2.407849e+00 3.485067e+00 3.713463e+00 4.122339e+00 9.690857e+00 6.510092e+00 6.628950e+00 5.412505e+00 8.395808e+00 1.097026e+01 8.463829e+00 1.655881e+00 3.675064e-01 3.126937e-01 1.127351e+00 1.064225e+00 1.377805e+00 1.502180e+00 2.212016e+00 1.543249e+00 1.401179e+00 1.014753e+00 1.179199e+00 1.398412e+00 2.198303e-01
<GCONST> 1.427579e+02
<MIXTURE> 16 4.961607e-02
<MEAN> 39
 2.998214e+00 -3.943776e+00 -2.572821e+01 -2.382057e+01 -2.936515e-01 -5.699868e+00 -1.055325e+01 -8.299117e+00 -1.220770e+01 -1.356006e+01 -1.029460e+00 -2.098115e+00 2.061443e+01 6.273881e-01 -5.051569e+00 -3.201235e+00 -2.800629e+00 3.593375e+00 -2.979465e+00 -5.862275e+00 -3.858254e+00 -1.168381e+00 -5.033885e+00 -1.846922e+00 -4.867148e+00 4.699634e+00 -1.976138e+00 2.732936e-01 2.789697e+00 3.677933e+00 8.829198e-01 9.902642e-01 3.740928e-01 1.290981e+00 1.278014e+00 9.744968e-01 -3.354381e-02 -8.617976e-01 -1.172865e+00
<VARIANCE> 39
 1.251528e+01 2.739030e+01 6.398234e+01 7.010882e+01 5.339318e+01 6.581583e+01 8.382014e+01 6.105502e+01 1.055498e+02 6.100094e+01 1.116176e+02 5.832497e+01 3.227674e+01 2.486924e+00 3.038872e+00 3.706153e+00 1.002272e+01 7.735960e+00 9.913029e+00 1.013838e+01 1.338516e+01 7.400446e+00 7.254733e+00 7.605323e+00 7.270694e+00 1.526751e+00 2.750239e-01 5.383582e-01 1.126536e+00 6.694165e-01 7.873862e-01 1.812078e+00 1.428864e+00 1.289478e+00 1.007190e+00 1.424575e+00 2.243806e+00 1.172783e+00 2.543916e-01
<GCONST> 1.456941e+02
<STATE> 4
<NUMMIXES> 16
<MIXTURE> 1 4.882008e-02
<MEAN> 39
 2.331369e+00 5.812340e+00 -7.857122e+00 -2.789800e+01 -8.907714e+00 -4.650843e+00 -9.485375e+00 -4.271679e+00 1.356365e+00 -1.688662e+01 -9.667370e-01 -5.912441e+00 2.220933e+01 -5.885710e-01 2.290681e-01 1.719254e+00 1.250726e+00 -5.002944e-01 2.755988e+00 1.031788e+00 -3.666711e-01 1.148801e+00 2.580144e-01 -9.553226e-01 1.100159e+00 -7.302164e-01 -1.232320e+00 6.326409e-01 7.243670e-01 2.695174e+00 7.172513e-01 3.324752e-01 6.916528e-01 2.069284e-01 1.547052e-01 1.355331e+00 3.287537e-01 5.597858e-01 -1.181332e+00
<VARIANCE> 39
 2.520022e+01 8.143813e+01 9.304303e+01 1.907742e+02 1.083343e+02 1.407519e+02 1.484284e+02 6.638129e+01 1.048715e+02 1.736979e+02 9.091422e+01 1.417353e+02 1.280512e+02 7.955832e+00 7.464843e+00 1.315434e+01 1.939268e+01 9.324583e+00 9.247151e+00 1.195660e+01 7.585561e+00 1.442358e+01 9.992794e+00 1.374008e+01 7.088312e+00 6.292373e+00 1.135422e+00 1.814552e+00 2.680245e+00 4.817876e+00 2.810694e+00 2.946548e+00 2.987535e+00 1.729348e+00 3.098425e+00 3.210152e+00 2.052271e+00 3.082633e+00 7.207230e-01
<GCONST> 1.728730e+02
<MIXTURE> 2 4.755742e-02
<MEAN> 39
 -1.269235e+00 -3.720903e+00 -1.196827e+01 -2.489824e+01 8.421111e+00 2.905463e+00 -1.342774e+01 -8.993105e+00 -3.929636e+00 -1.482659e+01 9.010926e-01 2.711614e-01 3.163607e+01 -8.997122e-01 -3.986178e+00 1.702078e+00 3.454483e+00 2.031198e+00 1.238214e+00 -2.827858e+00 -3.275702e+00 -1.243075e-01 1.532199e+00 5.618013e-01 3.019193e+00 1.345309e+00 -4.147448e-01 4.887472e-01 9.538983e-01 1.693824e+00 -9.881580e-01 -6.403683e-01 6.955651e-01 2.425216e-01 7.824604e-01 3.858793e-01 3.440550e-03 -3.784984e-01 -1.485863e+00
<VARIANCE> 39
 1.920594e+01 4.719368e+01 1.859058e+01 4.382121e+01 3.924920e+01 6.643187e+01 6.282016e+01 3.894641e+01 3.846083e+01 3.670913e+01 3.667749e+01 5.006907e+01 4.502480e+01 5.534036e-01 1.728050e+00 1.893489e+00 2.802458e+00 3.431012e+00 2.891146e+00 3.165853e+00 6.814217e+00 5.801744e+00 3.426822e+00 5.580877e+00 3.150221e+00 9.478549e-01 6.284180e-01 2.979853e-01 2.613852e-01 1.060390e+00 7.714091e-01 9.337926e-01 1.027411e+00 6.042547e-01 7.476261e-01 7.205982e-01 6.633768e-01 8.680632e-01 1.334506e-01
<GCONST> 1.252791e+02
<MIXTURE> 3 8.603670e-02
<MEAN> 39
 2.018136e+00 -1.635784e+00 -3.599894e+00 -2.666679e+01 -4.531582e+00 9.420648e+00 -1.225070e+00 -3.355330e+00 6.965113e+00 -9.161479e+00 -1.390960e+01 5.071855e+00 2.579388e+01 1.185335e-01 1.909241e+00 7.952556e-02 -2.855844e-01 1.860314e-01 -1.641237e+00 -9.949887e-01 1.024663e+00 1.148317e+00 -3.403884e-01 1.617677e+00 -1.088157e+00 -9.529698e-01 1.691264e-03 5.471885e-01 1.536665e-02 1.469564e-02 -8.367529e-02 -6.181833e-01 -2.734858e-01 2.855449e-01 6.263310e-02 1.273795e-01 5.694489e-01 -5.566253e-01 -2.362512e-01
<VARIANCE> 39
 4.289973e+01 5.153796e+01 1.859058e+01 2.764544e+01 2.822445e+01 3.591789e+01 4.493457e+01 3.894641e+01 3.846083e+01 3.670913e+01 4.478187e+01 3.427645e+01 1.353155e+01 4.227319e-01 1.297697e+00 1.442462e+00 2.027352e+00 2.387390e+00 2.906235e+00 3.165853e+00 3.421448e+00 3.433428e+00 3.426822e+00 3.494434e+00 3.079515e+00 2.541688e-01 7.489879e-02 1.726817e-01 2.576659e-01 3.571870e-01 4.361086e-01 5.246035e-01 5.679073e-01 6.042547e-01 6.164767e-01 6.110429e-01 6.218691e-01 5.255598e-01 4.494329e-02
<GCONST> 1.109918e+02
<MIXTURE> 4 4.430922e-02
<MEAN> 39
 -2.582615e+00 -7.688179e+00 2.116624e+00 -1.434979e+00 1.777259e+00 5.197343e-01 -2.135711e+00 -9.384149e+00 -1.482196e+00 -2.828132e+00 2.090020e+00 -3.287886e+00 1.410238e+01 1.542421e-01 -1.901078e-01 2.429061e-01 2.657651e-01 2.022833e-01 6.495169e-01 1.011472e+00 -2.889754e-01 -9.605344e-01 5.742495e-01 -1.306058e+00 -2.037403e-02 -4.482380e-01 2.840618e-01 1.812133e-01 -2.032577e-01 -6.587366e-01 -4.424188e-02 2.829798e-01 -4.238854e-01 1.166000e-01 -4.461373e-02 -1.115275e-01 -2.624789e-01 2.696674e-01 4.243014e-02
<VARIANCE> 39
 1.339556e+01 1.812763e+02 2.557034e+01 3.844542e+01 3.036299e+01 6.391140e+01 1.392928e+02 2.562062e+02 6.676134e+01 7.018349e+01 4.458640e+01 1.212300e+02 4.302120e+02 1.014022e+00 9.447584e-01 1.442462e+00 3.089210e+00 5.137173e+00 4.878531e+00 5.179490e+00 4.289696e+00 3.725486e+00 7.573558e+00 3.647368e+00 3.079515e+00 2.541688e-01 1.127115e-01 2.946287e-01 3.716826e-01 4.913655e-01 8.807757e-01 1.036682e+00 7.033089e-01 8.620515e-01 9.977996e-01 1.253151e+00 9.694082e-01 5.255598e-01 4.494329e-02
<GCONST> 1.304404e+02
<MIXTURE> 5 7.662409e-02
<MEAN> 39
 -1.315762e+00 -1.422161e+01 -1.101774e+01 -1.477178e+01 1.928736e-01 1.788668e+00 -2.592845e+01 -5.592794e+00 -9.727512e+00 -1.802720e+01 1.105268e+01 -1.456630e+01 2.699780e+01 2.069505e-01 -1.875976e-01 5.475438e-01 5.427670e-01 -7.909866e-01 9.778372e-01 2.227471e-02 -8.646195e-01 1.114823e+00 -1.071025e+00 6.298842e-01 1.090059e+00 -2.028738e-01 1.295955e-01 2.568851e-01 -1.687171e-01 -2.211673e-01 5.666553e-02 -7.836892e-02 6.217283e-01 5.543400e-04 7.732403e-02 3.562986e-02 -3.427294e-01 9.950687e-02 -1.559746e-01
<VARIANCE> 39
 2.090975e+01 1.647897e+01 1.859058e+01 2.764544e+01 4.679185e+01 4.705397e+01 3.846600e+01 4.744547e+01 5.413729e+01 4.440417e+01 3.467893e+01 4.249470e+01 1.453020e+01 5.904003e-01 1.009301e+00 1.442462e+00 2.027352e+00 2.387390e+00 2.891146e+00 3.165853e+00 3.421448e+00 3.433428e+00 3.426822e+00 3.494434e+00 3.079515e+00 2.541688e-01 1.357769e-01 1.726817e-01 2.576659e-01 3.571870e-01 4.361086e-01 5.246035e-01 5.679073e-01 6.042547e-01 6.164767e-01 6.110429e-01 6.218691e-01 5.255598e-01 5.444263e-02
<GCONST> 1.113773e+02
<MIXTURE> 6 5.838140e-02
<MEAN> 39
 -2.151008e+00 -1.086292e+01 -1.466728e+01 -2.599653e+00 6.993231e+00 -2.267263e+01 -2.700097e+01 -1.170829e+01 -8.225247e+00 -1.116078e+01 -4.513597e+00 -1.473454e+01 2.471609e+01 -5.592253e-01 -4.322444e-01 3.737369e+00 2.100612e+00 -1.201814e+00 -2.253886e+00 -2.389788e+00 1.750499e+00 1.207287e+00 -2.011683e+00 -3.422566e-01 -2.040583e+00 -4.151244e-01 3.021600e-01 7.706259e-01 -4.435113e-01 -1.169833e+00 -1.014859e+00 1.395551e+00 1.582695e+00 2.602424e-01 -3.033413e-01 -1.073847e-01 1.938566e-01 9.954244e-01 -3.517202e-01
<VARIANCE> 39
 1.988326e+01 2.669142e+01 5.762185e+01 7.374580e+01 7.332076e+01 8.446132e+01 1.019841e+02 1.834051e+02 5.481716e+01 9.398776e+01 6.431090e+01 1.377972e+02 3.891824e+01 6.702430e-01 1.945911e+00 5.882853e+00 8.736343e+00 6.589400e+00 1.094634e+01 9.781048e+00 5.940061e+00 5.159710e+00 5.584410e+00 4.697340e+00 1.280954e+01 4.781231e-01 1.239570e-01 4.907452e-01 1.055679e+00 9.346197e-01 1.493457e+00 7.306408e-01 1.701380e+00 2.083963e+00 1.126175e+00 1.277849e+00 1.294638e+00 2.189064e+00 1.690957e-01
<GCONST> 1.436060e+02
<MIXTURE> 7 7.564212e-02
<MEAN> 39
 3.798983e+00 -1.753810e+01 -3.860380e+00 -2.219174e+01 -1.210239e+01 1.511994e+01 5.791141e+00 -1.451921e+01 -6.479629e+00 4.312029e-01 -1.885972e+01 1.581420e+00 3.054631e+01 3.222576e-01 -1.058882e+00 3.611852e-01 1.119376e+00 5.054991e-01 -2.163591e-01 2.050524e-01 -7.794271e-01 -8.734421e-01 -3.763248e-02 1.016788e+00 -9.223887e-02 -2.704707e-01 -1.088176e-01 1.022972e+00 3.075648e-01 -8.369302e-01 -6.238493e-02 -6.479324e-01 -5.637029e-01 6.323326e-01 1.230932e+00 -3.848443e-01 7.437151e-02 8.315125e-02 -2.685449e-01
<VARIANCE> 39
 1.670875e+01 2.516777e+01 2.401256e+01 7.157741e+01 3.153111e+01 3.591789e+01 1.116671e+02 3.894641e+01 6.500925e+01 3.670913e+01 4.775613e+01 3.245745e+01 2.110425e+01 4.227319e-01 2.644505e+00 1.442462e+00 3.554883e+00 2.387390e+00 2.891146e+00 4.954709e+00 3.421448e+00 6.279365e+00 3.426822e+00 3.870353e+00 3.174912e+00 2.541688e-01 7.489879e-02 1.726817e-01 2.576659e-01 4.067599e-01 4.361086e-01 5.246035e-01 7.008186e-01 6.042547e-01 6.164767e-01 6.110429e-01 6.964300e-01 5.255598e-01 4.494329e-02
<GCONST> 1.154457e+02
<MIXTURE> 8 7.292210e-02
<MEAN> 39
 -3.478898e+00 -1.078836e+01 -5.413958e+00 -1.672579e+01 6.333160e+00 3.483856e+00 -1.933156e+01 -1.648300e+01 -3.242689e+00 -8.580655e+00 4.229256e-02 5.743815e+00 3.408931e+01 -1.286185e-01 -1.673488e+00 1.885578e+00 2.831569e+00 -4.542066e-01 -5.297962e-01 -1.181159e+00 -1.814881e+00 5.998527e-01 1.231309e+00 1.632317e-01 5.775227e-01 -1.782405e-01 2.631072e-01 7.177876e-01 -1.857554e-01 -4.998153e-01 -6.342977e-01 -3.022395e-01 6.968868e-01 6.481436e-01 1.614372e-01 -3.281037e-01 -2.417337e-01 -5.922987e-01 -4.024807e-01
<VARIANCE> 39
 1.911069e+01 5.307364e+01 1.974138e+01 4.324626e+01 2.822445e+01 5.013910e+01 4.676723e+01 5.891328e+01 3.846083e+01 3.897530e+01 3.467893e+01 4.174939e+01 4.291670e+01 4.227319e-01 9.756852e-01 1.442462e+00 2.161356e+00 3.226310e+00 2.891146e+00 4.451092e+00 3.421448e+00 3.433428e+00 3.426822e+00 3.494434e+00 3.079515e+00 3.549190e-01 7.489879e-02 1.726817e-01 2.576659e-01 3.571870e-01 4.361086e-01 5.246035e-01 5.679073e-01 6.719053e-01 6.164767e-01 6.110429e-01 6.218691e-01 5.255598e-01 6.368932e-02
<GCONST> 1.138673e+02
<MIXTURE> 9 6.942210e-02
<MEAN> 39
 -9.280671e-02 -1.305236e+01 -1.295910e+01 -1.489302e+01 4.910132e+00 2.887346e+00 -1.993665e+01 -1.371899e+01 -6.843324e+00 -2.590760e+01 1.082105e+01 -6.692712e+00 2.248241e+01 -3.330331e-02 1.309090e+00 -3.559423e-01 -4.370072e-01 4.199526e-01 -9.669405e-01 1.255505e+00 4.477242e-01 -6.321493e-01 -1.612956e-01 1.612561e-01 2.640947e-01 -3.940719e-01 -2.748705e-02 3.837096e-01 -2.438894e-01 -2.370727e-01 7.495184e-02 -5.586053e-01 1.553220e-01 3.814250e-01 -3.114234e-01 5.782855e-01 -6.071736e-01 -2.916365e-01 -1.319453e-01
<VARIANCE> 39
 1.367952e+01 4.692867e+01 1.859058e+01 2.836774e+01 3.231506e+01 5.838305e+01 3.846600e+01 5.458262e+01 4.339570e+01 3.670913e+01 3.467893e+01 3.531419e+01 8.628661e+00 4.227319e-01 1.444665e+00 1.442462e+00 2.027352e+00 2.387390e+00 2.891146e+00 3.165853e+00 3.421448e+00 3.433428e+00 3.426822e+00 3.494434e+00 3.631627e+00 2.541688e-01 7.489879e-02 1.891843e-01 2.576659e-01 3.571870e-01 4.361086e-01 5.246035e-01 5.679073e-01 6.042547e-01 6.164767e-01 6.110429e-01 6.218691e-01 7.397913e-01 4.715025e-02
<GCONST> 1.107772e+02
<MIXTURE> 10 8.304955e-02
<MEAN> 39
 2.691339e-01 -4.265546e+00 -7.065797e+00 -2.684939e+01 -7.520003e+00 9.632240e+00 -5.641275e+00 -6.291186e+00 1.094892e+00 -8.528298e+00 -1.600978e+01 5.924067e+00 3.193078e+01 1.651082e-01 -1.551849e+00 -1.423119e-01 1.046543e+00 1.269697e+00 8.787853e-01 1.166516e-01 -1.151919e+00 -1.281962e+00 -5.339153e-02 -2.539801e-01 1.064963e+00 6.837089e-02 2.150966e-01 7.564183e-01 1.198349e-01 1.331900e-01 1.154235e-01 -9.014298e-01 -1.420639e-01 4.625330e-03 2.738145e-01 8.593135e-03 5.478546e-01 -4.739339e-01 -6.437530e-01
<VARIANCE> 39
