~o
<STREAMINFO> 1 39
<VECSIZE> 39<NULLD><MFCC_D_A_Z_0><DIAGC>
~h "b"
<BEGINHMM>
<NUMSTATES> 5
<STATE> 2
<NUMMIXES> 16
<MIXTURE> 1 4.841216e-02
<MEAN> 39
 -4.092472e+00 2.901256e+00 8.695748e+00 9.003300e+00 9.594822e+00 1.474450e+01 8.292815e+00 6.019766e+00 2.205065e+00 1.314885e+01 5.499549e+00 -9.194113e-01 -1.247013e+01 -5.826680e-02 3.223076e-02 2.612368e-01 3.209350e-01 2.037080e-01 -4.355785e-02 -1.199537e-01 4.242210e-01 3.413010e-01 -5.142432e-01 -9.986163e-01 3.992785e-01 8.631613e-03 3.418498e-01 -2.004683e-01 -4.569847e-01 -2.282238e-01 -3.905531e-01 -7.349278e-01 -1.320800e-01 6.878576e-02 1.391583e-01 -9.477541e-01 -4.277664e-01 3.210371e-01 6.530344e-01
<VARIANCE> 39
 7.721160e+00 2.709792e+01 2.769363e+01 3.300785e+01 6.771505e+01 8.287921e+01 5.109698e+01 7.760877e+01 4.733549e+01 6.242335e+01 5.581048e+01 6.569727e+01 8.584402e+00 4.318376e-01 1.084161e+00 2.219515e+00 3.143984e+00 5.191720e+00 7.475101e+00 5.935725e+00 6.111850e+00 7.180490e+00 8.139602e+00 5.121718e+00 4.748315e+00 3.113032e-01 1.640658e-01 3.500526e-01 5.416942e-01 7.275773e-01 1.014199e+00 1.668985e+00 1.470859e+00 1.881191e+00 1.188465e+00 1.260663e+00 1.297222e+00 1.182434e+00 2.823838e-01
<GCONST> 1.309544e+02
<MIXTURE> 2 7.451642e-02
<MEAN> 39
 4.480707e+00 7.046943e+00 8.021225e+00 3.033379e+00 -5.218293e+00 -6.905015e+00 -7.650804e+00 -8.093539e+00 -1.002559e+01 -2.626318e+00 -8.361679e-01 2.099445e+00 -7.266543e+00 -6.881805e-01 8.504247e-01 7.782890e-01 3.354505e-01 7.114221e-01 1.422230e+00 -2.414828e-01 -8.680862e-01 2.472162e-03 5.663974e-01 6.560865e-01 5.221785e-01 -1.142490e+00 3.521352e-01 -1.272925e+00 -1.529697e+00 -5.591605e-01 2.983927e-02 -2.529573e-01 2.370707e-01 9.618996e-01 1.100173e+00 1.196972e-01 -1.182643e-01 -3.999172e-01 1.388712e+00
<VARIANCE> 39
 1.452243e+01 3.361002e+01 3.355371e+01 3.744109e+01 6.058723e+01 8.780694e+01 1.144986e+02 1.252271e+02 1.038741e+02 1.235358e+02 1.013502e+02 6.843079e+01 1.576092e+01 2.170784e+00 2.972019e+00 3.947862e+00 4.351045e+00 6.117324e+00 1.418581e+01 1.495563e+01 1.448008e+01 1.598400e+01 1.054212e+01 7.687219e+00 7.676949e+00 2.373670e+00 5.858019e-01 7.888615e-01 1.269099e+00 1.170094e+00 1.762839e+00 2.809977e+00 2.342288e+00 2.455833e+00 2.221432e+00 3.065926e+00 2.196352e+00 1.898995e+00 7.359645e-01
<GCONST> 1.548468e+02
<MIXTURE> 3 4.970036e-02
<MEAN> 39
 -2.749033e+00 5.963656e-01 4.493133e+00 8.734812e+00 1.039540e+01 1.130157e+01 1.024258e+01 6.236234e+00 5.862107e+00 9.071496e+00 3.401827e-01 -5.457110e-01 -1.095749e+01 -1.619144e+00 7.270353e-02 9.496182e-01 1.756678e+00 2.760501e+00 2.768919e+00 1.432931e+00 1.557254e+00 6.134865e-01 9.323264e-01 -5.028044e-02 -1.176146e+00 -1.550983e+00 9.108303e-01 -7.067895e-01 -8.735239e-01 -9.694351e-01 -1.703605e+00 -1.584069e+00 -1.004436e+00 -1.082037e+00 -6.756780e-01 -9.191231e-01 2.317128e-01 4.912537e-01 1.599150e+00
<VARIANCE> 39
 1.434119e+01 2.216108e+01 4.236855e+01 5.253119e+01 7.907346e+01 9.274391e+01 7.495694e+01 1.076957e+02 8.036639e+01 9.694260e+01 7.285789e+01 6.189114e+01 1.356804e+01 1.592542e+00 2.822437e+00 3.020657e+00 6.967253e+00 1.031979e+01 1.135648e+01 8.344602e+00 1.269086e+01 8.332948e+00 1.207611e+01 7.773094e+00 8.496796e+00 1.846860e+00 2.576552e-01 1.002259e+00 1.020729e+00 1.430354e+00 1.541705e+00 2.257441e+00 1.646920e+00 1.942788e+00 1.678781e+00 2.353610e+00 1.831188e+00 1.718110e+00 5.110604e-01
<GCONST> 1.497002e+02
<MIXTURE> 4 5.329281e-02
<MEAN> 39
 1.023673e+00 1.998670e+00 2.699622e+00 3.771400e+00 5.912039e+00 1.139325e+01 1.308648e+01 5.839208e+00 4.212506e+00 5.338086e+00 1.235501e+00 7.497663e-01 2.018736e+00 2.322466e+00 -7.178245e+00 -4.268806e+00 -4.189960e+00 -3.527570e+00 -2.952024e+00 -3.447951e+00 -7.430658e+00 3.512888e-01 -2.318036e+00 5.770786e-01 1.719465e+00 1.013469e+01 -3.834120e-01 -1.224079e+00 -1.549771e-01 -8.178551e-01 -3.208030e-01 -7.098113e-01 -1.521596e+00 -1.451516e+00 -9.942554e-02 -9.279696e-01 -3.185509e-01 -2.892419e-01 3.743105e-01
<VARIANCE> 39
 3.508541e+01 5.555077e+01 4.359414e+01 7.906672e+01 5.849073e+01 8.426133e+01 1.134706e+02 8.009352e+01 6.856677e+01 7.454930e+01 6.466958e+01 7.898211e+01 9.729514e+01 2.354971e+00 7.210505e+00 5.372312e+00 1.218854e+01 6.529938e+00 1.005856e+01 1.323069e+01 1.036582e+01 1.011829e+01 1.286049e+01 7.879698e+00 1.233253e+01 7.527524e+00 7.720944e-01 1.640883e+00 1.185444e+00 1.210565e+00 1.359483e+00 1.510731e+00 3.044532e+00 2.339069e+00 1.305087e+00 2.076785e+00 1.473937e+00 1.651861e+00 2.496626e+00
<GCONST> 1.603363e+02
<MIXTURE> 5 8.088262e-02
<MEAN> 39
 -4.306525e+00 2.702237e+00 6.000659e+00 3.100376e+00 3.668279e+00 8.117317e+00 7.648434e+00 7.008197e+00 4.948464e+00 7.957156e+00 5.742813e+00 4.975558e+00 -1.260252e+01 2.158164e+00 1.509420e+00 3.590453e-01 -6.781960e-01 -2.402909e+00 -5.378512e+00 -5.256322e+00 -4.739043e+00 -4.123072e+00 -2.049948e+00 -5.328894e-01 1.062660e+00 1.340508e+00 9.029130e-01 3.718770e-01 -2.184491e-02 -1.387818e-01 -5.497313e-01 -1.719522e+00 -1.665464e+00 -1.438542e+00 -1.380719e+00 -1.191971e+00 -6.689407e-01 -3.784263e-01 7.695026e-01
<VARIANCE> 39
 1.411350e+01 4.803927e+01 4.286890e+01 5.258119e+01 7.171491e+01 7.251656e+01 8.183479e+01 9.995596e+01 9.131812e+01 1.096468e+02 9.219340e+01 7.084737e+01 2.044588e+01 1.211269e+00 2.133618e+00 4.398018e+00 4.436844e+00 7.410752e+00 1.341995e+01 9.890645e+00 1.134201e+01 9.664872e+00 9.344131e+00 1.251657e+01 1.070079e+01 8.301978e-01 2.624439e-01 3.713911e-01 6.895911e-01 8.071520e-01 1.530627e+00 2.069948e+00 2.305914e+00 2.122903e+00 1.774308e+00 2.521272e+00 1.867777e+00 1.543302e+00 1.910233e-01
<GCONST> 1.476803e+02
<MIXTURE> 6 5.618534e-02
<MEAN> 39
 -1.770923e+00 -1.010418e+01 -8.417192e+00 7.732551e+00 1.290755e+01 1.585895e+01 1.018236e+01 2.511926e+00 -3.125490e+00 2.413519e+00 7.782689e+00 9.477135e+00 -1.080508e+01 -2.567255e-01 4.441919e-01 3.949881e-01 2.760660e-01 4.586286e-01 2.887124e-01 -1.636439e-01 3.824845e-01 1.017792e+00 8.244483e-01 6.205765e-01 -8.527979e-02 -4.892742e-01 2.076704e-01 5.401492e-01 6.349100e-01 9.620799e-03 -8.109301e-01 -1.248279e+00 -6.617893e-01 1.699647e-01 5.278953e-01 -6.824245e-02 -8.582930e-01 -6.973692e-01 3.452090e-01
<VARIANCE> 39
 1.085748e+01 4.726331e+01 5.524368e+01 5.546997e+01 3.245232e+01 7.510442e+01 9.361295e+01 1.103080e+02 9.007445e+01 1.299226e+02 9.232562e+01 7.418924e+01 1.366905e+01 6.240097e-01 1.799726e+00 3.966632e+00 4.148668e+00 6.287881e+00 7.891197e+00 9.161375e+00 8.105388e+00 8.235672e+00 1.051026e+01 9.061373e+00 9.001137e+00 2.549851e-01 1.892257e-01 2.660094e-01 6.865406e-01 1.031501e+00 8.627581e-01 1.702528e+00 2.014735e+00 2.083322e+00 1.662615e+00 2.488598e+00 2.282450e+00 1.933263e+00 2.487321e-01
<GCONST> 1.424235e+02
<MIXTURE> 7 4.815107e-02
<MEAN> 39
 8.664229e-01 8.287139e+00 7.755149e+00 2.170190e+00 -1.391010e+00 -5.107276e+00 -3.898668e+00 -3.730019e+00 -4.044070e+00 1.698660e+00 3.689032e+00 7.959120e+00 -1.110933e+01 3.826413e+00 1.708862e+00 -1.859007e-01 -1.558639e+00 -4.027610e+00 -8.384912e+00 -7.038300e+00 -5.522418e+00 -5.734557e+00 -3.966266e+00 -1.821737e+00 5.613582e-01 2.766365e+00 3.092291e-01 -7.770187e-01 -6.491957e-01 -2.427529e-01 -2.670803e-02 1.963684e-01 3.519042e-01 5.270801e-01 1.676953e-01 -4.225956e-01 -5.797076e-01 -1.017362e+00 9.512653e-01
<VARIANCE> 39
 1.698997e+01 4.586337e+01 5.076170e+01 8.519614e+01 1.052987e+02 1.558755e+02 7.820249e+01 1.184786e+02 1.121239e+02 1.561738e+02 1.420508e+02 9.342458e+01 3.319677e+01 1.853090e+00 2.691440e+00 5.830682e+00 6.908102e+00 9.407115e+00 1.548588e+01 1.575990e+01 1.411305e+01 1.121484e+01 1.221211e+01 9.404186e+00 1.026849e+01 1.396065e+00 3.053706e-01 7.798834e-01 1.066239e+00 1.192737e+00 2.038939e+00 3.069682e+00 1.785875e+00 2.368711e+00 2.533938e+00 3.194743e+00 3.258435e+00 2.051340e+00 5.970109e-01
<GCONST> 1.593831e+02
<MIXTURE> 8 9.994575e-02
<MEAN> 39
 -3.881951e+00 5.050602e+00 5.464806e+00 7.061606e+00 5.967827e+00 1.100601e+01 1.049187e+01 1.054227e+01 4.867849e+00 6.330857e+00 2.616701e+00 1.547330e+00 -1.544836e+01 6.897728e-01 -5.562860e-01 -7.773029e-01 -1.393552e+00 -5.195095e-01 -4.361909e-01 3.229817e-01 -6.245710e-01 7.124329e-03 -1.193555e+00 -4.837462e-01 1.462882e-03 3.547663e+00 8.360945e-01 -1.522890e+00 -1.090109e+00 -7.522090e-01 -7.096134e-01 -1.157334e+00 -7.186224e-01 -1.531814e+00 -7.545098e-01 -7.447360e-01 -8.867683e-02 2.807863e-02 2.757753e+00
<VARIANCE> 39
 1.199392e+01 3.211203e+01 4.363920e+01 5.400171e+01 4.781968e+01 7.113995e+01 8.362807e+01 7.510254e+01 6.534476e+01 7.440253e+01 6.275011e+01 6.904745e+01 2.351019e+01 2.053050e+00 2.531970e+00 2.944774e+00 4.733896e+00 5.166836e+00 7.422586e+00 8.263944e+00 8.489180e+00 7.055564e+00 6.954193e+00 6.358449e+00 6.367668e+00 7.890810e+00 3.248711e-01 7.415198e-01 9.048374e-01 1.188396e+00 1.269583e+00 1.673121e+00 1.936721e+00 1.875825e+00 2.007472e+00 1.577259e+00 1.499646e+00 1.819877e+00 7.728915e-01
<GCONST> 1.467257e+02
<MIXTURE> 9 5.989529e-02
<MEAN> 39
 -9.379703e-01 -3.704004e+00 6.978827e-01 8.616162e+00 6.518233e+00 1.044366e+01 5.648837e+00 4.488510e+00 1.915053e+00 8.636222e+00 3.437506e+00 5.013124e+00 -1.068421e+01 -1.414157e-01 1.720859e-01 4.059850e-01 1.377176e-01 -1.114224e-01 5.708393e-03 2.925697e-01 6.216795e-01 4.297105e-01 3.040141e-01 2.109689e-01 -9.909628e-02 -2.619948e-01 -1.159737e-01 -7.816793e-02 9.175472e-03 1.142328e-01 4.675276e-01 2.263069e-01 3.660576e-01 1.566153e-01 1.007276e-01 -1.396205e-01 -7.028310e-02 -3.326474e-01 5.559807e-02
<VARIANCE> 39
 7.899961e+00 3.784611e+01 7.163419e+01 5.688471e+01 6.558586e+01 4.357629e+01 6.885560e+01 8.064503e+01 8.378706e+01 1.054795e+02 5.874360e+01 6.479839e+01 8.584402e+00 4.190793e-01 9.928380e-01 2.653320e+00 4.225788e+00 5.665916e+00 5.809537e+00 6.006769e+00 7.798687e+00 6.567314e+00 5.813857e+00 5.566981e+00 8.794450e+00 2.549851e-01 8.167366e-02 1.775219e-01 4.079591e-01 7.430218e-01 1.150107e+00 8.004597e-01 1.220689e+00 1.310481e+00 1.382566e+00 1.949048e+00 9.325050e-01 1.541030e+00 4.527457e-02
<GCONST> 1.300177e+02
<MIXTURE> 10 5.524645e-02
<MEAN> 39
 -1.648001e+00 -5.058313e+00 -5.501663e+00 -2.119614e-01 3.173790e+00 8.592754e+00 1.015078e+01 1.357036e+01 1.048180e+01 7.605531e+00 1.942544e+00 1.519376e+00 -9.366111e+00 -2.075946e-01 -7.597938e-03 -2.532900e-02 -3.955412e-01 -1.201488e-01 6.641456e-01 5.423707e-01 6.200323e-02 1.626969e-01 9.700832e-01 1.068389e+00 4.820445e-01 -3.999824e-01 4.266410e-01 5.909595e-01 6.597503e-01 6.014441e-01 -3.310372e-02 -1.033220e+00 -1.505204e+00 -2.008957e+00 -1.690886e+00 -9.271870e-01 -1.040260e-01 1.523263e-01 3.498488e-01
<VARIANCE> 39
 1.878240e+01 4.742260e+01 6.359774e+01 5.288078e+01 6.350952e+01 1.129675e+02 9.074261e+01 1.114205e+02 6.907248e+01 9.271136e+01 8.539065e+01 1.121986e+02 2.071183e+01 7.117195e-01 1.717409e+00 2.420714e+00 4.535053e+00 5.651687e+00 9.583737e+00 1.011163e+01 9.103714e+00 9.433640e+00 1.243671e+01 1.318925e+01 9.405521e+00 3.318484e-01 2.706239e-01 4.619581e-01 5.374832e-01 7.756536e-01 1.262289e+00 1.952076e+00 1.869280e+00 1.263468e+00 1.493539e+00 2.303998e+00 1.868907e+00 2.995100e+00 1.853617e-01
<GCONST> 1.453256e+02
<MIXTURE> 11 7.917166e-02
<MEAN> 39
 -3.476917e+00 -4.366833e+00 -5.390452e-01 5.003338e+00 4.243360e+00 7.984584e+00 8.015699e+00 5.040918e+00 1.413627e+00 3.688753e+00 6.618558e+00 6.364769e+00 -1.008331e+01 -1.334723e+00 -7.006910e-01 -3.576275e-01 -2.468871e-01 9.337819e-01 2.682513e+00 2.458676e+00 2.100351e+00 1.939794e+00 9.478992e-01 4.867859e-01 1.813840e-01 -1.100056e+00 1.150092e+00 -2.291242e-01 -1.001646e+00 -4.352802e-01 -1.815386e-01 -1.275048e+00 -1.244974e+00 -5.992352e-01 -5.534807e-01 -7.882159e-01 -1.183550e+00 -8.019134e-01 1.681586e+00
<VARIANCE> 39
 1.325229e+01 5.057215e+01 6.408629e+01 5.792841e+01 6.129805e+01 8.084386e+01 9.591404e+01 1.065578e+02 9.635326e+01 8.488965e+01 8.174171e+01 5.212028e+01 1.784647e+01 1.380424e+00 2.211134e+00 4.021992e+00 3.790467e+00 5.860543e+00 7.049999e+00 8.872733e+00 1.051053e+01 1.105612e+01 1.068978e+01 9.453613e+00 8.267723e+00 7.145479e-01 2.306312e-01 8.690460e-01 1.524996e+00 1.272605e+00 1.308199e+00 2.024047e+00 2.110984e+00 2.710947e+00 2.489546e+00 2.331419e+00 1.868140e+00 1.256223e+00 6.225849e-01
<GCONST> 1.491964e+02
<MIXTURE> 12 6.817767e-02
<MEAN> 39
 -2.938691e+00 5.386137e+00 5.409733e+00 4.453790e+00 2.743289e+00 5.791302e+00 3.446556e+00 5.031669e+00 3.340883e+00 4.817335e+00 3.346047e+00 2.151862e+00 -1.318299e+01 2.821831e+00 -2.931610e+00 -3.620588e+00 -1.917345e+00 -1.954678e+00 -3.530673e+00 -9.491156e-01 -1.461394e+00 -2.678183e+00 -3.036927e+00 -1.314312e+00 -1.006283e+00 7.499454e+00 7.958667e-01 -2.079683e+00 -1.764643e+00 -4.295582e-01 -3.591107e-01 -1.175698e+00 -2.959815e-01 -5.644231e-01 -1.039260e+00 -8.939751e-01 -4.615733e-01 -4.093449e-01 2.841581e+00
<VARIANCE> 39
 1.316336e+01 3.960913e+01 4.856270e+01 6.069257e+01 6.041260e+01 5.572128e+01 8.512972e+01 1.206856e+02 1.097314e+02 7.071362e+01 6.494380e+01 5.609551e+01 3.255211e+01 4.440266e+00 6.375390e+00 1.080798e+01 8.914226e+00 9.043648e+00 1.490739e+01 1.056369e+01 1.312469e+01 1.411140e+01 1.105786e+01 9.391607e+00 8.699925e+00 1.044003e+01 4.956413e-01 8.480076e-01 1.188790e+00 1.519990e+00 2.047756e+00 1.805003e+00 1.923812e+00 3.507209e+00 3.816852e+00 1.865959e+00 1.788727e+00 1.623223e+00 9.198050e-01
<GCONST> 1.593541e+02
<MIXTURE> 13 6.658737e-02
<MEAN> 39
 -2.380735e+00 3.553437e-01 -7.382645e-02 1.552399e+00 -9.834791e-01 2.646750e+00 8.131584e+00 5.506403e+00 1.483174e+00 -5.848917e+00 -9.783323e-01 -1.476454e+00 5.405962e+00 3.636874e+00 -5.209210e+00 -3.697425e+00 -2.234768e+00 -2.618082e+00 -4.719272e+00 -1.121582e+00 -2.064614e+00 -5.515372e+00 -3.663505e+00 -1.781034e+00 -2.327941e+00 1.070222e+01 4.200219e-01 -1.127551e+00 -4.159104e-01 -1.937717e-01 -1.186359e-01 -2.832940e-01 -3.343867e-01 -6.221243e-01 -6.561863e-01 6.254758e-01 2.643250e-01 1.874759e-01 -1.842972e-03
<VARIANCE> 39
 5.798035e+01 5.211366e+01 7.506913e+01 6.949243e+01 9.349413e+01 1.161146e+02 8.010854e+01 1.061198e+02 1.184733e+02 9.132388e+01 6.017162e+01 8.987299e+01 9.124967e+01 3.877133e+00 7.747683e+00 1.034120e+01 1.252458e+01 1.479287e+01 1.538931e+01 1.209064e+01 1.057897e+01 1.458621e+01 1.077479e+01 8.728879e+00 8.909280e+00 1.097269e+01 1.433354e+00 1.260270e+00 1.851892e+00 1.724988e+00 1.872423e+00 3.239034e+00 1.624052e+00 2.782006e+00 3.174420e+00 2.627383e+00 1.734709e+00 2.005652e+00 2.056823e+00
<GCONST> 1.684934e+02
<MIXTURE> 14 3.844379e-02
<MEAN> 39
 8.365888e+00 7.973572e+00 8.643957e+00 4.135571e+00 -7.036204e+00 -1.679009e+01 -1.256301e+01 -1.283215e+01 -1.353590e+01 -4.688846e+00 -2.672860e+00 1.451412e+00 -3.266220e+00 4.982009e-01 -1.652576e+00 -2.128297e+00 -1.912005e+00 -1.208765e+00 3.055126e+00 1.245999e+00 9.220489e-01 5.294068e-01 -4.942123e-01 5.285822e-01 -1.372248e+00 2.025300e+00 1.479859e-01 -1.521152e+00 -2.266248e+00 -1.215254e+00 3.480533e-01 1.646905e-02 6.894965e-01 1.223098e+00 1.454269e+00 5.177317e-02 -5.512671e-01 -3.855126e-01 2.063134e+00
<VARIANCE> 39
 1.576451e+01 4.160399e+01 3.545431e+01 7.430060e+01 8.394772e+01 1.885553e+02 1.143978e+02 1.528796e+02 1.279703e+02 8.635896e+01 1.281044e+02 7.776816e+01 3.109878e+01 2.400203e+00 7.072346e+00 9.832217e+00 1.206273e+01 9.406854e+00 2.499350e+01 1.232155e+01 1.193521e+01 1.177546e+01 1.316451e+01 8.804793e+00 1.193237e+01 6.878712e+00 4.842697e-01 1.176948e+00 1.742070e+00 2.261354e+00 2.221884e+00 3.668577e+00 2.344061e+00 4.285482e+00 2.651385e+00 2.259591e+00 3.160342e+00 1.886171e+00 9.649985e-01
<GCONST> 1.658714e+02
<MIXTURE> 15 5.458532e-02
<MEAN> 39
 -2.619769e+00 -1.946770e+00 1.104346e+00 6.449975e+00 9.375708e+00 1.034313e+01 1.129048e+00 -2.817703e+00 5.372430e+00 7.269882e+00 4.226356e+00 1.654131e+00 -9.801526e+00 1.690710e-01 5.226178e-01 3.576016e-01 1.602562e-01 -1.494073e-01 -9.861627e-02 -5.385465e-01 -6.903619e-01 -1.371416e+00 -1.311527e+00 -5.262563e-01 1.962207e-01 -1.614926e-01 7.900611e-02 1.169372e-01 9.876055e-02 -4.958250e-02 -4.378638e-01 -2.365574e-01 4.553097e-01 7.062751e-01 -3.509551e-01 -2.659605e-01 -2.737259e-01 1.607688e-01 6.531902e-02
<VARIANCE> 39
 1.058819e+01 5.422004e+01 4.788482e+01 7.814684e+01 7.507190e+01 8.586534e+01 7.936777e+01 7.784687e+01 1.158388e+02 9.078504e+01 7.903123e+01 5.261939e+01 1.492427e+01 4.331427e-01 1.211938e+00 2.118148e+00 3.334241e+00 5.729153e+00 7.452522e+00 7.698712e+00 8.691753e+00 8.008831e+00 8.761402e+00 4.984659e+00 7.446113e+00 2.895477e-01 1.064181e-01 2.134225e-01 3.474590e-01 7.862535e-01 1.001632e+00 1.511122e+00 1.136737e+00 1.374044e+00 2.088753e+00 1.591266e+00 1.201238e+00 1.208475e+00 4.557812e-02
<GCONST> 1.342109e+02
<MIXTURE> 16 6.680101e-02
<MEAN> 39
 -3.720894e+00 7.403681e-01 4.031382e+00 8.400920e+00 7.392451e+00 1.189020e+01 1.060066e+01 1.051542e+01 2.025191e+00 3.549690e+00 6.385707e-01 -3.407282e-01 -1.202784e+01 -3.111891e-02 3.139701e-01 3.118044e-01 -2.458190e-01 -5.080857e-01 -6.788138e-01 -6.536536e-01 -3.606029e-01 -4.277323e-01 2.011356e-01 4.151005e-01 3.752882e-01 -1.038082e-01 2.571520e-01 1.417086e-03 -1.302962e-01 -3.451776e-01 -3.535385e-01 -5.816014e-01 -6.807471e-01 -6.336710e-01 9.889065e-02 2.328425e-01 3.312292e-01 3.775760e-01 5.961305e-01
<VARIANCE> 39
 9.774836e+00 2.615253e+01 4.483536e+01 3.173427e+01 4.682335e+01 6.810579e+01 5.035643e+01 4.746643e+01 7.393374e+01 6.289811e+01 5.534678e+01 5.413171e+01 8.584402e+00 5.969632e-01 1.377057e+00 2.185920e+00 2.616242e+00 4.575666e+00 5.754779e+00 6.676690e+00 6.408152e+00 6.658932e+00 6.467381e+00 5.416413e+00 5.107874e+00 2.710124e-01 2.018442e-01 3.283326e-01 4.902115e-01 5.276436e-01 9.744590e-01 1.658908e+00 1.110583e+00 1.156276e+00 1.467355e+00 1.111015e+00 1.153641e+00 9.365622e-01 3.400933e-01
<GCONST> 1.294315e+02
<STATE> 3
<NUMMIXES> 16
<MIXTURE> 1 7.447617e-02
<MEAN> 39
 -4.224144e+00 1.116026e+00 3.007682e+00 7.073331e+00 6.502736e+00 9.161659e+00 3.421388e+00 2.502805e+00 4.339358e+00 7.975933e+00 5.707986e+00 5.443594e+00 -1.181108e+01 -4.998745e-01 -2.536841e-01 5.780018e-01 -1.346766e-01 8.134969e-02 1.951818e-01 9.326816e-01 5.219832e-01 6.927253e-01 -6.683953e-01 -6.415155e-01 -9.855719e-01 1.704288e+00 4.302932e-01 -4.830444e-01 -1.903340e-01 -6.626877e-01 -7.620944e-01 -4.667823e-01 2.264010e-01 7.243266e-02 -3.017073e-01 -9.259893e-01 -5.751929e-01 -6.977236e-01 1.426128e+00
<VARIANCE> 39
 1.783979e+01 3.732357e+01 4.919545e+01 5.667972e+01 7.412525e+01 6.907124e+01 7.158066e+01 7.136375e+01 6.624280e+01 6.479417e+01 5.844870e+01 6.392300e+01 1.190249e+01 2.427011e+00 3.544251e+00 4.039569e+00 4.432770e+00 7.486483e+00 8.696800e+00 8.655801e+00 1.015836e+01 8.882307e+00 8.916549e+00 8.711433e+00 9.231334e+00 5.377480e+00 5.082549e-01 4.827375e-01 1.042300e+00 1.517114e+00 1.815465e+00 1.657678e+00 1.497969e+00 1.933342e+00 1.653994e+00 1.723942e+00 1.316323e+00 1.970687e+00 7.982943e-01
<GCONST> 1.493833e+02
<MIXTURE> 2 4.691579e-02
<MEAN> 39
 1.279064e+01 -1.303430e+01 -3.391467e+01 -2.104158e-01 3.265341e+00 -1.672319e+01 -1.436390e+00 8.547177e+00 -1.355526e+00 -1.041895e+01 -1.631683e+01 2.506079e+00 2.510510e+01 -8.808218e-01 -6.177615e+00 -5.702199e+00 2.880443e+00 1.143949e+00 -1.401447e+00 5.704121e+00 2.552589e+00 -4.143377e+00 -2.931635e+00 1.042423e-01 3.482426e+00 6.854325e+00 -7.533540e-01 1.103203e+00 3.991065e+00 7.520264e-01 -8.163885e-01 7.568466e-01 -3.284026e-01 -2.911930e+00 -2.017354e+00 1.009762e+00 1.745296e+00 -1.859353e-01 -1.911208e+00
<VARIANCE> 39
 2.247309e+01 4.244372e+01 6.881127e+01 8.148571e+01 6.478138e+01 9.088197e+01 9.432215e+01 1.128364e+02 1.364188e+02 8.472433e+01 8.238203e+01 7.154262e+01 4.726867e+01 3.303612e+00 6.884743e+00 2.202655e+01 9.160951e+00 7.001601e+00 1.040390e+01 1.905030e+01 1.756645e+01 1.463336e+01 9.992804e+00 1.386890e+01 8.600316e+00 9.177903e+00 3.257776e-01 7.444608e-01 1.483810e+00 1.842362e+00 1.185081e+00 2.831259e+00 1.918953e+00 2.933588e+00 2.861881e+00 2.151012e+00 1.890479e+00 1.941656e+00 6.971706e-01
<GCONST> 1.628164e+02
<MIXTURE> 3 5.291155e-02
<MEAN> 39
 1.141414e+01 -2.445758e+00 -1.389439e+01 -9.377285e+00 -6.118238e+00 -1.031025e+01 -4.806490e+00 1.599666e+00 1.332783e+00 -5.638419e+00 -7.385681e+00 -5.496994e+00 1.258414e+01 1.418041e+00 -7.534821e+00 -9.988643e+00 -9.427388e-01 6.915099e-01 -2.850675e-01 4.677959e+00 4.124683e+00 7.247984e-01 -3.503487e+00 -1.193860e+00 -3.614229e-01 8.479994e+00 -6.406473e-01 -3.483072e-01 9.618421e-01 1.588772e+00 3.891884e-01 8.540880e-02 2.562985e-01 -1.080071e+00 -1.574987e+00 -7.634714e-02 7.649006e-01 8.690158e-01 -4.182900e-01
<VARIANCE> 39
 3.755708e+01 4.696678e+01 1.076922e+02 8.261906e+01 9.011518e+01 1.012085e+02 1.497809e+02 9.653229e+01 8.238828e+01 9.894304e+01 6.589738e+01 6.668864e+01 5.081807e+01 6.243473e+00 9.972390e+00 1.378693e+01 1.241936e+01 1.162871e+01 2.386211e+01 2.597292e+01 2.610573e+01 2.023420e+01 1.398704e+01 2.002423e+01 1.467665e+01 6.599553e+00 6.267973e-01 8.270620e-01 1.552789e+00 1.751559e+00 2.032814e+00 3.276864e+00 3.074564e+00 2.872237e+00 2.442187e+00 2.262148e+00 1.747747e+00 1.964332e+00 8.207438e-01
<GCONST> 1.700640e+02
<MIXTURE> 4 8.634467e-02
<MEAN> 39
 9.182359e+00 1.034151e+01 6.937790e+00 3.474790e+00 -1.849273e+00 -1.134524e+01 -2.026163e+01 -1.531975e+01 -1.177166e+01 -1.665196e+00 -6.364315e-01 4.356139e-01 -5.140994e+00 1.567818e+00 -3.611307e+00 -5.656136e+00 -2.630923e+00 -7.572936e-01 -8.090775e-01 1.807552e+00 3.963003e+00 2.427829e+00 -4.463245e-01 -9.701331e-01 -1.161254e+00 5.096426e+00 -1.793255e-01 -2.177370e+00 -2.683762e+00 -4.128259e-01 -3.952561e-02 4.413196e-01 2.564427e+00 2.126569e+00 6.845388e-01 -4.015062e-01 -4.160055e-01 -1.567994e-01 1.938171e+00
<VARIANCE> 39
 2.451620e+01 3.203146e+01 5.656251e+01 6.608807e+01 4.244851e+01 9.183885e+01 1.010543e+02 1.140041e+02 1.026959e+02 9.991299e+01 8.133926e+01 9.178718e+01 1.951698e+01 3.066195e+00 4.496893e+00 1.047011e+01 6.923602e+00 8.559960e+00 1.152954e+01 1.598809e+01 1.663451e+01 1.239177e+01 1.117471e+01 8.342838e+00 7.383036e+00 5.356988e+00 7.447091e-01 1.064532e+00 1.629923e+00 1.671557e+00 1.838071e+00 2.731514e+00 4.041539e+00 3.136836e+00 3.869862e+00 2.930834e+00 1.998976e+00 2.741482e+00 6.357639e-01
<GCONST> 1.617278e+02
<MIXTURE> 5 6.260104e-02
<MEAN> 39
 8.904180e+00 -2.333419e+01 -2.221149e+01 4.217904e+00 -4.538477e+00 -1.174539e+01 5.859441e+00 4.263027e+00 -2.429514e+01 -8.445712e+00 2.404578e+00 -2.271085e+00 2.849271e+01 -1.488602e+00 -6.220357e+00 -1.873850e+00 1.075406e+00 -8.279784e-01 2.086993e+00 2.420488e+00 -4.134380e+00 -4.027463e+00 2.439042e+00 1.047166e+00 -1.193867e+00 6.231767e+00 -7.583029e-01 2.481311e+00 3.168477e+00 -2.711328e-01 7.271981e-02 7.681992e-01 -1.725158e+00 -2.053150e+00 2.137167e+00 1.078222e+00 -6.834973e-01 1.229652e-01 -2.830096e+00
<VARIANCE> 39
 2.735864e+01 4.976653e+01 4.569814e+01 8.128752e+01 1.079532e+02 8.130634e+01 1.333541e+02 1.369248e+02 1.298871e+02 8.347013e+01 9.864497e+01 7.735181e+01 6.102030e+01 4.104415e+00 8.980250e+00 1.399422e+01 1.195780e+01 8.706779e+00 1.690466e+01 2.393058e+01 1.305360e+01 2.198992e+01 9.011984e+00 1.115388e+01 8.644261e+00 9.151690e+00 6.092932e-01 7.386720e-01 9.879532e-01 1.699077e+00 1.838340e+00 3.570941e+00 3.867986e+00 3.113000e+00 3.275301e+00 1.855163e+00 1.787314e+00 1.627312e+00 1.127334e+00
<GCONST> 1.669646e+02
<MIXTURE> 6 3.683469e-02
<MEAN> 39
 9.084815e+00 9.262709e+00 8.479346e+00 3.925565e+00 -7.316369e+00 -2.268357e+01 -2.478861e+01 -1.480253e+01 -1.137632e+01 -6.148264e+00 -7.371986e+00 -1.321919e+00 -3.058457e+00 9.756643e-01 -4.772566e-02 -4.598135e-01 -2.977618e-01 4.594271e-01 -1.437968e+00 -1.984608e+00 -2.618584e-01 1.473943e+00 1.696638e+00 6.180142e-01 -9.946226e-02 1.298721e+00 -7.679236e-01 -1.521125e+00 -1.435669e+00 -2.949347e-01 1.018911e+00 2.593907e+00 3.044996e+00 1.782402e+00 1.159297e+00 6.810515e-01 9.286767e-01 3.075616e-01 4.062001e-01
<VARIANCE> 39
 2.087501e+01 2.567712e+01 7.261835e+01 6.554127e+01 6.457324e+01 8.484425e+01 6.738639e+01 6.249113e+01 8.602579e+01 4.895996e+01 8.540572e+01 6.656853e+01 1.998291e+01 4.832622e+00 2.813092e+00 4.089073e+00 5.861395e+00 7.696654e+00 2.030880e+01 1.727076e+01 1.018217e+01 8.220911e+00 8.482482e+00 1.073722e+01 8.709532e+00 4.161128e+00 4.710815e-01 7.571712e-01 1.747674e+00 8.983363e-01 1.666541e+00 2.301111e+00 2.032708e+00 1.580561e+00 2.026667e+00 1.458148e+00 2.043523e+00 1.686405e+00 8.707502e-01
<GCONST> 1.536999e+02
<MIXTURE> 7 8.719659e-02
<MEAN> 39
 6.435125e+00 6.127779e+00 5.433496e+00 5.308393e+00 -4.689687e-01 -7.342287e+00 -1.321141e+01 -1.222588e+01 -1.031711e+01 -4.577971e+00 -4.005555e+00 -1.551394e+00 -4.716714e+00 8.624470e-01 4.626947e-01 1.136543e-02 1.408109e-03 -8.134019e-02 -4.312163e-01 -4.462320e-01 1.890881e-01 6.477480e-01 3.362736e-01 -4.394128e-02 -8.004833e-02 4.609118e-01 1.547359e-02 -5.118295e-01 -5.059770e-01 -2.117823e-01 -1.281642e-01 4.740406e-03 5.499413e-01 6.909468e-01 4.361160e-01 1.811910e-01 2.027111e-01 2.222230e-01 4.206671e-01
<VARIANCE> 39
 2.526600e+01 4.783763e+01 3.777619e+01 4.743454e+01 4.942788e+01 1.037355e+02 9.599268e+01 1.359515e+02 1.138835e+02 9.682454e+01 1.002030e+02 9.353770e+01 2.110342e+01 1.302905e+00 1.559843e+00 2.867757e+00 3.788512e+00 4.193237e+00 7.329585e+00 7.881583e+00 8.445105e+00 7.291006e+00 7.789426e+00 6.460056e+00 9.083302e+00 7.309825e-01 2.921769e-01 5.517693e-01 7.676809e-01 8.942598e-01 9.154301e-01 1.688825e+00 1.958945e+00 1.844070e+00 1.595958e+00 1.542159e+00 1.483235e+00 1.636703e+00 3.250926e-01
<GCONST> 1.444866e+02
<MIXTURE> 8 7.432068e-02
<MEAN> 39
 6.931809e+00 -2.220200e+01 -9.980639e+00 -4.960735e+00 -8.724649e+00 7.622135e-01 5.605319e+00 -1.715117e+01 -6.363594e-01 1.520942e+00 1.972462e+00 2.394500e+00 2.271968e+01 -9.343652e-01 -7.432724e+00 -2.959373e+00 -3.243192e+00 -7.466260e-01 9.042931e-01 -3.859711e+00 -7.126076e+00 2.416867e+00 -3.373581e+00 -5.070062e-01 -7.461488e-01 7.527995e+00 -8.994607e-01 2.433352e+00 1.641714e+00 3.559314e-01 1.205451e+00 -2.453211e-01 -1.323191e+00 1.645314e+00 1.880757e-01 -8.353564e-01 -1.698809e-01 -2.461207e-01 -2.583192e+00
<VARIANCE> 39
 2.386193e+01 7.851513e+01 4.467125e+01 1.225522e+02 8.676814e+01 7.889153e+01 1.359004e+02 9.758285e+01 1.297406e+02 1.290079e+02 7.497582e+01 1.458318e+02 6.366857e+01 5.511738e+00 8.280430e+00 7.086633e+00 1.541598e+01 1.398752e+01 3.403532e+01 2.152065e+01 1.091011e+01 2.154506e+01 1.301524e+01 9.900169e+00 1.134343e+01 8.227200e+00 6.036111e-01 1.382892e+00 1.227261e+00 1.777815e+00 1.663017e+00 2.479782e+00 5.215177e+00 2.333586e+00 2.644916e+00 1.968604e+00 1.992429e+00 3.012988e+00 1.517121e+00
<GCONST> 1.703013e+02
<MIXTURE> 9 5.488583e-02
<MEAN> 39
 7.863544e+00 9.074492e+00 4.732502e+00 -3.151669e+00 -1.084946e+01 -2.031881e+01 -8.193980e+00 -7.458108e+00 -1.113700e+01 -1.962548e+00 1.306897e+00 7.203656e+00 -3.810602e+00 2.368964e+00 -9.841753e-01 -1.053892e+00 -1.386720e+00 -3.110432e+00 -3.585299e+00 -1.753998e+00 -2.355228e+00 -3.802401e+00 -3.981638e+00 -2.217616e+00 -1.706793e+00 2.898673e+00 -7.545075e-01 -2.153127e+00 -9.962198e-01 4.264375e-01 1.292120e+00 2.841501e+00 1.694068e+00 7.397270e-01 1.475820e+00 8.790346e-02 -1.512696e-01 -1.070585e+00 1.079387e+00
<VARIANCE> 39
 1.465648e+01 4.243850e+01 3.037184e+01 5.868086e+01 5.796753e+01 1.931830e+02 1.217096e+02 1.509501e+02 1.267012e+02 1.036110e+02 1.211533e+02 1.114214e+02 2.103335e+01 2.470342e+00 5.420342e+00 5.606620e+00 7.313358e+00 9.643604e+00 2.030848e+01 1.647357e+01 1.359376e+01 1.539503e+01 1.393896e+01 1.173944e+01 1.059612e+01 3.021316e+00 3.280727e-01 1.066138e+00 1.114723e+00 1.600504e+00 1.662911e+00 4.611253e+00 2.629796e+00 3.953979e+00 3.720264e+00 2.853297e+00 2.954147e+00 2.358664e+00 7.644432e-01
<GCONST> 1.630137e+02
<MIXTURE> 10 5.422793e-02
<MEAN> 39
 1.122992e+01 8.976879e+00 5.557129e+00 9.962256e-02 -6.514444e+00 -1.832995e+01 -1.617832e+01 -5.644622e+00 -7.651769e+00 -6.884152e+00 -7.949321e+00 -3.221954e+00 -2.510992e+00 9.109492e-01 -7.024601e+00 -8.739876e+00 -1.147569e+00 -1.878297e-01 1.125996e+00 5.375408e+00 4.634607e+00 2.062482e-01 -1.419997e+00 2.764949e-02 -9.928200e-01 8.176065e+00 -9.056091e-01 -2.178521e+00 -1.420336e+00 6.285659e-01 2.765827e-01 1.331130e+00 2.024460e+00 -3.664439e-01 -7.352467e-01 3.234897e-01 1.062380e+00 5.218377e-01 1.670126e+00
<VARIANCE> 39
 1.812021e+01 4.014854e+01 6.010053e+01 6.576064e+01 6.612435e+01 1.150152e+02 1.255529e+02 9.807789e+01 5.930962e+01 1.152397e+02 1.104429e+02 8.770121e+01 2.654652e+01 3.658069e+00 3.954441e+00 1.017216e+01 8.246795e+00 1.066899e+01 1.838502e+01 1.624211e+01 1.869971e+01 1.770265e+01 1.265606e+01 1.424625e+01 1.208807e+01 5.593935e+00 5.955144e-01 9.693263e-01 1.431368e+00 1.423943e+00 2.152996e+00 3.915914e+00 3.045864e+00 2.747812e+00 2.343103e+00 3.055453e+00 2.793936e+00 2.131611e+00 6.163337e-01
<GCONST> 1.642574e+02
<MIXTURE> 11 6.306286e-02
<MEAN> 39
 3.034006e+00 4.726199e+00 5.192824e+00 2.900787e+00 -2.971521e+00 -7.573390e+00 -9.599923e+00 -7.111161e+00 -9.851807e+00 -1.030205e+00 3.730191e+00 7.923203e+00 -7.571455e+00 2.270366e+00 1.980083e+00 6.310602e-01 -4.247071e-01 -1.857219e+00 -4.844430e+00 -4.499512e+00 -3.443043e+00 -3.494595e+00 -2.612511e+00 -1.170625e+00 -6.317780e-01 1.303501e+00 -5.272734e-02 -3.283731e-01 -1.821733e-01 -1.110620e-02 3.456382e-01 6.339985e-01 7.274009e-01 5.962092e-01 7.362729e-01 2.823838e-01 -5.215430e-01 -1.014303e+00 2.471781e-01
<VARIANCE> 39
 1.701641e+01 4.207112e+01 5.033879e+01 4.472620e+01 4.503632e+01 1.192267e+02 9.156574e+01 9.905661e+01 1.114794e+02 1.011246e+02 9.128048e+01 1.004438e+02 1.544985e+01 1.393835e+00 2.556685e+00 2.935810e+00 5.080540e+00 6.286466e+00 7.954724e+00 1.195336e+01 1.492043e+01 1.360117e+01 1.225395e+01 1.167516e+01 1.196069e+01 5.930655e-01 2.571818e-01 4.151132e-01 6.215983e-01 7.093402e-01 8.930856e-01 2.224130e+00 2.236471e+00 1.898530e+00 1.950591e+00 2.428625e+00 2.227719e+00 2.128669e+00 1.861469e-01
<GCONST> 1.479713e+02
<MIXTURE> 12 7.460704e-02
<MEAN> 39
 -3.557194e+00 -2.703866e+00 1.565971e+00 4.900202e+00 6.744051e+00 1.201375e+01 1.020584e+01 6.990340e+00 4.512622e+00 3.564494e+00 8.457513e-01 2.380424e+00 -9.470496e+00 -1.822236e-01 3.019580e-01 4.351578e-01 7.351419e-01 5.494563e-01 -2.243639e-01 -2.189847e-01 -3.012650e-02 -5.483032e-02 -1.215540e-01 -7.716939e-01 -4.221196e-01 2.658443e-02 7.320482e-01 2.214836e-01 -1.633175e-01 -3.386371e-01 -8.869662e-01 -1.525162e+00 -1.284729e+00 -1.102148e+00 -6.474468e-01 -3.676393e-01 5.603584e-02 -2.976133e-02 9.603933e-01
<VARIANCE> 39
 1.807827e+01 5.465495e+01 6.022676e+01 6.706622e+01 7.075262e+01 1.161220e+02 7.169978e+01 8.270952e+01 8.202916e+01 8.619507e+01 7.503836e+01 6.144577e+01 1.369759e+01 1.458974e+00 2.152429e+00 3.200829e+00 4.214197e+00 6.880343e+00 1.358180e+01 1.033773e+01 1.095536e+01 1.188294e+01 9.365732e+00 7.934793e+00 5.982738e+00 1.144920e+00 4.150579e-01 9.310024e-01 8.721645e-01 1.160300e+00 1.467499e+00 2.190057e+00 1.639184e+00 1.950930e+00 1.809101e+00 2.191107e+00 1.943677e+00 1.363873e+00 7.226945e-01
<GCONST> 1.496348e+02
<MIXTURE> 13 5.949359e-02
<MEAN> 39
 6.318622e+00 -3.858309e+00 -4.593106e+00 -6.801034e+00 -5.930870e+00 -2.839735e+00 -5.396570e+00 -9.007318e+00 -4.953371e+00 -5.867688e+00 -4.582405e-01 -2.118579e+00 1.192903e+01 2.356626e+00 -4.089647e+00 -8.578938e+00 -3.545178e+00 1.903265e-01 -3.274448e-01 -4.123786e-01 1.700496e+00 4.140042e+00 2.082801e-02 -1.262141e+00 -2.203496e+00 6.215400e+00 3.242955e-01 7.451261e-01 -7.896706e-01 3.338494e-01 8.522590e-01 -8.061159e-01 -4.667272e-01 3.973410e-01 3.072765e-01 4.355786e-01 -5.968801e-01 3.061267e-02 -7.945935e-01
<VARIANCE> 39
 5.170825e+01 4.719881e+01 9.012263e+01 9.830854e+01 7.349864e+01 7.506676e+01 1.223393e+02 9.455657e+01 1.174687e+02 9.997357e+01 5.802243e+01 5.590974e+01 7.164686e+01 7.083846e+00 9.361143e+00 1.846720e+01 1.429744e+01 1.667554e+01 1.878822e+01 1.895441e+01 2.100569e+01 2.352271e+01 2.725184e+01 1.520748e+01 1.006648e+01 6.417985e+00 1.215943e+00 1.032199e+00 2.828310e+00 1.793723e+00 2.048022e+00 3.000827e+00 2.476331e+00 2.731847e+00 2.200727e+00 2.739456e+00 2.156748e+00 1.617163e+00 1.461266e+00
<GCONST> 1.721270e+02
<MIXTURE> 14 7.788154e-02
<MEAN> 39
 1.111306e+01 -1.277207e+01 -1.404578e+01 -1.429719e+00 -8.634735e+00 -1.195004e+01 2.927786e+00 7.758404e+00 -1.390632e+01 -9.390841e+00 -8.539720e-01 -3.906037e+00 1.848730e+01 1.201892e+00 -7.376009e+00 -4.447775e+00 -2.006779e+00 -2.483177e+00 -3.485662e-01 2.769386e+00 -1.322412e+00 -4.623726e+00 -7.731454e-01 -2.882311e-01 -1.902451e+00 9.238161e+00 -1.269498e+00 8.334119e-01 1.754311e+00 1.586245e-01 7.883801e-01 1.533443e+00 -4.306752e-01 -1.674287e+00 1.174595e+00 1.149776e+00 1.660777e-01 5.149907e-01 -1.775958e+00
<VARIANCE> 39
 2.194190e+01 4.901619e+01 6.204015e+01 8.823315e+01 1.098296e+02 8.738107e+01 1.539320e+02 1.136401e+02 8.388937e+01 8.639008e+01 8.250809e+01 7.439109e+01 6.320544e+01 8.400303e+00 8.643610e+00 1.285874e+01 1.488123e+01 1.215942e+01 3.325420e+01 2.844436e+01 2.358251e+01 2.477141e+01 1.584131e+01 1.305827e+01 1.255232e+01 1.011256e+01 5.670404e-01 8.296072e-01 1.152625e+00 1.705512e+00 1.624986e+00 1.816525e+00 4.106825e+00 3.534609e+00 3.177002e+00 2.067003e+00 1.693789e+00 1.570320e+00 1.832260e+00
<GCONST> 1.705419e+02
<MIXTURE> 15 4.677899e-02
<MEAN> 39
 1.079442e+01 3.813858e+00 3.490527e+00 -2.621339e+00 -1.407347e+01 -1.840304e+01 -5.054601e+00 -6.752238e+00 -1.913551e+01 -5.939531e+00 7.273788e-01 4.166082e+00 -2.565822e-02 9.773400e-03 -7.366510e+00 -4.852963e+00 -2.338803e+00 -1.512630e+00 3.562449e+00 3.430596e+00 -2.234969e+00 1.562203e+00 -4.349996e-01 -7.499353e-01 -2.681612e+00 7.600580e+00 -1.280393e+00 -1.565413e+00 -7.325007e-01 -4.065286e-02 1.512876e+00 2.374085e+00 -1.707855e-02 -6.436329e-01 2.625216e+00 3.885641e-01 -1.740146e-01 -3.964498e-01 1.187610e+00
<VARIANCE> 39
 1.399405e+01 5.268999e+01 4.669341e+01 8.737818e+01 6.604499e+01 1.644688e+02 1.511667e+02 1.184569e+02 1.037960e+02 1.013684e+02 8.672196e+01 9.887892e+01 2.538400e+01 3.696049e+00 7.696911e+00 7.440077e+00 1.446813e+01 1.334063e+01 2.250238e+01 2.274037e+01 2.293385e+01 2.158479e+01 1.406255e+01 1.383053e+01 1.119565e+01 4.597965e+00 6.125216e-01 1.080943e+00 1.468689e+00 2.252296e+00 1.531537e+00 4.538417e+00 4.220335e+00 2.974532e+00 2.983367e+00 3.186169e+00 1.950220e+00 1.933111e+00 5.161894e-01
<GCONST> 1.676741e+02
<MIXTURE> 16 4.745574e-02
<MEAN> 39
 8.279053e+00 1.106808e+01 8.870339e+00 4.524023e+00 -2.291097e+00 -1.261276e+01 -1.933090e+01 -1.667941e+01 -1.952927e+01 -1.350726e+01 -6.570969e+00 7.182332e-01 -8.057564e+00 2.599241e+00 6.766288e-01 -4.750012e-01 -1.309782e-01 1.178107e-01 -3.399424e+00 -4.150930e+00 -2.408688e+00 -2.465580e+00 -2.465440e+00 -3.067900e+00 -2.877149e+00 2.665176e+00 -6.498705e-01 -1.777209e+00 -1.809936e+00 -8.098538e-01 -9.018502e-02 1.173292e+00 2.426885e+00 2.866493e+00 2.662434e+00 1.892819e+00 9.468814e-01 -3.673323e-02 1.328612e+00
<VARIANCE> 39
 2.042853e+01 3.791893e+01 5.328918e+01 6.847966e+01 6.019749e+01 9.778558e+01 1.045826e+02 1.380275e+02 8.279150e+01 1.211476e+02 1.138488e+02 8.869828e+01 2.062932e+01 3.675306e+00 3.095573e+00 5.852999e+00 7.161094e+00 9.166999e+00 1.904275e+01 1.764775e+01 1.693944e+01 1.426560e+01 1.567159e+01 1.628004e+01 1.275558e+01 3.375622e+00 5.279927e-01 8.620333e-01 1.617719e+00 1.014502e+00 1.519315e+00 1.840924e+00 2.928168e+00 2.880921e+00 2.356804e+00 2.377394e+00 2.229751e+00 2.594609e+00 1.007264e+00
<GCONST> 1.615970e+02
<STATE> 4
<NUMMIXES> 16
<MIXTURE> 1 5.912529e-02
<MEAN> 39
 3.802114e+00 3.689713e+00 5.632420e+00 3.311728e+00 -3.272389e+00 -1.211646e+01 -1.120434e+01 -7.120009e+00 -4.289147e+00 -2.336960e-01 1.726709e+00 3.791080e+00 -5.367160e+00 -1.481928e+00 -1.233412e+00 -3.056210e-01 -9.807020e-02 1.978465e+00 3.105676e+00 2.643540e+00 2.382953e+00 2.925463e+00 1.593650e+00 8.723192e-01 -1.135757e-01 -5.880857e-01 -3.162583e-01 -3.311815e-01 -1.448646e-01 3.129169e-02 5.502185e-01 1.224565e+00 1.220917e+00 7.595693e-01 1.106743e-01 -3.650346e-02 -2.969929e-01 -2.774385e-01 -6.226340e-02
<VARIANCE> 39
 1.940792e+01 2.260438e+01 5.274217e+01 5.317981e+01 7.575394e+01 1.909914e+02 1.558264e+02 1.571201e+02 1.148938e+02 1.256787e+02 1.043102e+02 8.871345e+01 4.415161e+01 2.730197e+00 2.775318e+00 4.367411e+00 4.028882e+00 6.981000e+00 2.023576e+01 1.661025e+01 1.330184e+01 1.277312e+01 1.288733e+01 1.166335e+01 1.071451e+01 2.513382e+00 2.277344e-01 3.318706e-01 7.262024e-01 9.768928e-01 1.205192e+00 1.993703e+00 1.501126e+00 1.982683e+00 2.381177e+00 2.418558e+00 1.922866e+00 1.639241e+00 1.688838e-01
<GCONST> 1.541401e+02
<MIXTURE> 2 4.288489e-02
<MEAN> 39
 3.405228e+00 -1.904179e+01 -7.961945e+00 -7.230716e+00 -1.324559e+01 7.530676e-01 5.782462e+00 -6.350964e+00 -2.084404e+01 3.974565e+00 -8.946094e+00 -9.186477e+00 3.225430e+01 -1.567396e+00 1.237626e+00 3.409981e+00 -5.409775e+00 -1.148290e+00 7.222377e+00 -1.211529e+00 -5.532677e+00 3.299329e+00 1.486074e+00 -4.165520e+00 9.117262e-01 1.550171e+00 4.219285e-01 2.009426e+00 1.887190e-01 7.323593e-03 1.485326e+00 -7.145005e-01 -2.359649e+00 -7.248309e-02 2.221559e+00 -1.755376e+00 2.510636e-01 1.531975e+00 -1.929528e+00
<VARIANCE> 39
 3.123911e+01 1.237211e+02 1.281399e+02 2.022508e+02 1.222238e+02 9.734464e+01 2.389112e+02 1.479725e+02 2.343138e+02 6.803425e+01 1.269476e+02 6.662357e+01 7.322449e+01 1.874666e+00 6.793334e+00 7.837775e+00 7.166068e+00 1.116726e+01 8.963758e+00 1.242713e+01 8.648207e+00 1.056953e+01 1.244493e+01 7.742104e+00 9.882000e+00 7.227101e+00 2.537411e-01 1.473836e+00 2.136728e+00 3.732684e+00 1.892556e+00 3.636163e+00 5.339877e+00 4.008121e+00 4.579621e+00 2.515041e+00 2.508708e+00 1.625869e+00 1.414917e+00
<GCONST> 1.703024e+02
<MIXTURE> 3 4.805964e-02
<MEAN> 39
 -1.492657e+00 -2.653757e+01 -5.313365e+00 -1.699855e+00 -6.204673e+00 -7.699964e+00 -1.819494e+01 -2.204069e+01 7.950538e+00 -1.697342e+01 -6.044555e+00 -4.686913e+00 2.955917e+01 -4.510477e-01 2.168425e+00 1.455056e-01 -2.753043e+00 1.530210e+00 2.162468e-01 -3.440788e+00 2.270165e+00 -5.492536e-01 -2.930474e+00 1.737516e+00 3.012949e-01 -2.323724e-01 5.146921e-01 9.699343e-01 -7.072026e-01 -4.065408e-01 4.262286e-01 2.448789e-01 1.300844e+00 8.637252e-01 -1.265260e+00 9.522606e-01 9.893989e-01 -1.549830e-01 -6.414203e-01
<VARIANCE> 39
 2.615456e+01 3.901973e+01 4.677345e+01 6.153414e+01 8.773783e+01 1.057989e+02 7.080122e+01 9.402810e+01 8.580498e+01 1.139243e+02 7.899926e+01 5.682857e+01 6.952020e+01 7.182159e-01 2.632099e+00 3.219294e+00 4.377801e+00 6.270890e+00 4.684109e+00 6.992184e+00 7.204680e+00 8.280027e+00 6.729592e+00 5.120958e+00 4.079065e+00 4.796010e-01 2.095108e-01 7.873448e-01 6.611209e-01 4.002613e-01 1.217211e+00 1.160647e+00 1.570193e+00 1.897140e+00 1.011743e+00 2.112005e+00 1.718246e+00 1.054291e+00 4.579709e-01
<GCONST> 1.421333e+02
<MIXTURE> 4 5.523590e-02
<MEAN> 39
 1.763319e+01 -3.280150e+00 -3.333369e+01 -1.244443e+01 2.963840e+00 -8.606503e+00 -1.353480e+01 -1.875511e+00 7.349030e+00 2.348847e+00 -9.252807e+00 -1.038264e+01 1.857955e+01 2.554108e+00 -1.203139e+00 -8.541489e+00 -9.244597e-01 2.782419e+00 -1.637348e+00 -7.071590e-01 1.345248e+00 3.391152e+00 1.722510e+00 -3.157430e+00 -1.425603e+00 2.745401e+00 -8.643115e-01 1.095325e+00 2.811133e+00 1.142340e+00 -1.978669e-01 1.107061e-01 1.506068e-01 -1.142374e+00 -1.707210e+00 -7.203798e-01 4.760311e-01 1.085411e+00 -1.691589e+00
<VARIANCE> 39
 1.778341e+01 5.097636e+01 7.719429e+01 6.130249e+01 8.082472e+01 6.275370e+01 1.005965e+02 1.006072e+02 6.359755e+01 1.037400e+02 1.102845e+02 8.569521e+01 3.201003e+01 3.166478e+00 1.158320e+01 1.502800e+01 9.876913e+00 7.485281e+00 1.011920e+01 9.427503e+00 1.289721e+01 1.186638e+01 2.055455e+01 8.929640e+00 8.306630e+00 7.630497e+00 4.998530e-01 6.983105e-01 1.244921e+00 8.427036e-01 1.612575e+00 1.845076e+00 2.214399e+00 1.604270e+00 1.835033e+00 1.612701e+00 1.887560e+00 1.222518e+00 5.785008e-01
<GCONST> 1.584101e+02
<MIXTURE> 5 5.832596e-02
<MEAN> 39
 8.339211e+00 -2.134577e+01 -2.667576e+01 7.703201e+00 1.824781e+00 -1.610606e+01 6.699391e+00 1.450360e+00 -1.906551e+01 -1.173174e+01 -3.799572e+00 7.398592e+00 3.116988e+01 -1.809029e+00 -1.908809e+00 3.714361e+00 9.392767e-01 -1.677129e+00 1.178976e+00 2.925501e+00 -3.732849e+00 -4.232366e+00 2.227649e+00 3.321533e+00 -1.916810e-01 1.590565e+00 5.861002e-02 1.787650e+00 2.193310e+00 -1.391956e+00 -8.236820e-01 1.015290e+00 -1.215043e+00 -1.359878e+00 1.467464e+00 1.517014e+00 -4.455869e-01 -1.609181e+00 -1.764587e+00
<VARIANCE> 39
 3.285100e+01 5.781096e+01 7.516734e+01 7.226453e+01 6.523212e+01 5.585500e+01 9.222595e+01 8.808846e+01 1.042559e+02 7.606522e+01 1.170707e+02 7.847913e+01 4.894569e+01 1.138692e+00 1.784627e+00 7.310414e+00 6.601267e+00 5.144147e+00 7.552726e+00 5.127219e+00 9.000690e+00 1.088511e+01 8.738775e+00 4.821151e+00 7.103121e+00 1.301372e+00 4.800041e-01 1.120807e+00 2.108282e+00 1.303053e+00 1.206930e+00 1.871136e+00 1.784199e+00 1.724224e+00 1.771313e+00 1.773242e+00 1.812788e+00 1.178361e+00 1.009002e+00
<GCONST> 1.516954e+02
<MIXTURE> 6 8.402732e-02
<MEAN> 39
 4.225687e+00 -2.766225e+01 -9.796215e+00 8.768303e+00 -7.849176e+00 -5.399592e+00 -9.278296e+00 -2.320599e+01 -1.461437e+00 -6.956763e+00 -5.062699e+00 -7.716536e+00 2.260802e+01 -3.780686e-01 3.173255e-01 8.806555e-01 -1.187661e+00 5.091128e-01 1.001327e+00 -1.666795e+00 -4.112902e-02 1.421309e+00 -9.474574e-01 -6.166134e-01 8.581901e-01 3.704351e-02 9.530983e-02 1.962564e-01 -1.844347e-01 -5.195774e-01 2.925090e-01 1.254521e-01 -9.323417e-02 3.844028e-01 -1.236131e-01 -4.292884e-01 4.155620e-01 1.957012e-01 -4.853510e-02
<VARIANCE> 39
 2.046519e+01 3.475982e+01 3.299995e+01 3.982858e+01 5.971820e+01 1.188961e+02 7.139255e+01 4.278062e+01 7.112080e+01 6.797656e+01 4.122810e+01 4.113709e+01 4.749115e+01 4.190793e-01 9.928380e-01 1.472208e+00 3.218622e+00 2.361638e+00 3.016772e+00 3.266579e+00 3.663102e+00 3.627109e+00 4.217925e+00 3.456655e+00 3.173481e+00 2.549851e-01 1.275282e-01 1.815294e-01 2.720488e-01 3.604423e-01 4.306071e-01 5.442104e-01 7.063597e-01 6.685901e-01 6.514323e-01 6.245239e-01 6.302079e-01 5.603799e-01 4.441828e-02
<GCONST> 1.176351e+02
<MIXTURE> 7 7.477894e-02
<MEAN> 39
 8.820933e+00 -1.922840e+01 -1.075749e+01 -9.552158e+00 -1.052215e+01 -7.490030e+00 5.482287e+00 -4.623819e+00 -1.182244e+01 -1.182697e+01 -4.324031e-01 -6.812832e+00 2.701879e+01 -1.629438e-02 -8.860359e-01 1.763750e+00 -2.266166e+00 -1.238864e+00 -8.746089e-01 3.900542e-01 -1.828361e+00 4.893072e-01 -5.196854e-01 -2.164074e-01 -3.502389e-01 6.456144e-01 -1.203187e+00 2.273786e+00 1.678580e+00 1.086687e+00 1.299093e+00 9.968307e-01 -5.455029e-02 4.390746e-01 1.701314e+00 1.122124e+00 8.456379e-02 8.469747e-01 -3.050843e+00
<VARIANCE> 39
 3.131944e+01 5.644248e+01 7.033660e+01 1.074819e+02 1.368549e+02 2.129533e+02 1.148447e+02 1.399869e+02 1.088100e+02 1.165811e+02 7.892072e+01 9.671516e+01 5.718031e+01 5.812108e+00 1.463363e+01 1.022846e+01 1.106254e+01 8.618896e+00 1.693929e+01 1.232362e+01 1.402734e+01 1.384675e+01 1.319608e+01 8.328863e+00 9.605031e+00 1.549531e+01 1.097490e+00 1.759358e+00 1.792307e+00 2.007036e+00 2.292295e+00 3.818825e+00 2.793155e+00 2.946736e+00 2.850262e+00 2.683669e+00 2.068547e+00 2.403450e+00 1.544939e+00
<GCONST> 1.724125e+02
<MIXTURE> 8 5.239237e-02
<MEAN> 39
 -2.074904e+00 -1.789781e+00 3.587408e+00 5.000087e+00 2.980543e+00 3.950209e+00 1.214215e+01 1.120842e+01 6.156784e+00 4.902463e+00 4.991314e-01 -2.554019e+00 -5.425510e+00 1.453301e-01 3.717472e-01 1.988931e+00 -6.827906e-01 -1.341688e+00 -1.672733e+00 -3.407426e-01 -1.237217e+00 -8.037752e-01 -1.530817e+00 7.354929e-01 -2.968100e-01 3.491678e+00 1.990587e-01 -2.714862e-01 -1.799001e-01 -5.820141e-01 -5.747286e-02 4.875657e-02 -1.018106e+00 -1.407493e+00 -5.192712e-01 -4.016356e-01 4.311296e-01 6.746863e-01 6.096143e-01
<VARIANCE> 39
 2.237129e+01 6.821712e+01 6.145905e+01 9.867029e+01 1.342192e+02 1.287474e+02 9.619171e+01 1.114156e+02 1.079486e+02 1.312945e+02 7.931928e+01 1.586726e+02 5.484146e+01 5.961636e+00 8.347036e+00 8.614423e+00 9.980300e+00 1.776157e+01 1.675478e+01 1.318953e+01 1.369674e+01 7.815230e+00 1.335439e+01 9.844000e+00 2.185734e+01 8.529634e+00 7.377785e-01 1.424960e+00 1.404745e+00 2.355115e+00 2.997300e+00 2.724300e+00 2.471979e+00 2.186906e+00 2.368725e+00 2.642980e+00 2.607013e+00 4.209105e+00 1.629861e+00
<GCONST> 1.709272e+02
<MIXTURE> 9 7.478807e-02
<MEAN> 39
 5.201215e+00 -2.474883e+01 -1.884996e+01 2.185507e+00 -3.117551e+00 -8.279983e+00 5.333877e+00 -5.896290e+00 -2.839020e+01 -9.557773e-02 -7.759638e-01 -4.337325e-01 3.479625e+01 -8.902426e-01 -7.518447e-02 2.560379e+00 -2.089530e+00 -1.049535e+00 2.593249e+00 1.208178e-01 -2.976973e+00 -3.742874e-04 2.670945e+00 -4.978900e-01 -1.699908e+00 3.492717e-01 1.746893e-01 5.541171e-01 -1.480217e-02 -8.356562e-01 -1.231589e-01 4.329549e-01 -4.749705e-01 3.606581e-01 1.183417e+00 -5.236232e-01 -1.019755e+00 2.376869e-01 -3.210417e-01
<VARIANCE> 39
 4.076117e+01 3.050590e+01 6.171721e+01 6.185555e+01 3.562748e+01 5.084258e+01 1.058597e+02 1.083149e+02 7.331081e+01 1.024452e+02 6.793310e+01 7.162402e+01 7.559715e+01 4.190793e-01 9.928380e-01 1.946500e+00 4.061202e+00 2.895916e+00 3.953154e+00 3.266579e+00 3.663102e+00 5.343615e+00 5.126201e+00 5.352138e+00 3.709350e+00 2.549851e-01 7.890327e-02 2.129240e-01 2.720488e-01 4.552787e-01 4.306071e-01 5.442104e-01 5.643459e-01 8.939159e-01 8.334762e-01 1.349915e+00 6.552016e-01 9.232603e-01 5.687998e-02
<GCONST> 1.251195e+02
<MIXTURE> 10 6.185907e-02
<MEAN> 39
 1.226525e+00 -2.584865e+01 -1.392285e+01 2.121236e+00 -4.180377e+00 -6.962012e+00 2.232216e+00 -8.076442e+00 -2.623148e+01 5.744610e+00 -2.213109e+00 -3.244750e+00 3.521379e+01 -1.729012e+00 -8.464404e-01 2.801739e+00 -1.019782e+00 -3.345957e-01 2.247064e+00 -4.611514e-01 -6.126213e+00 2.224761e+00 2.412577e+00 -5.624194e-01 -7.413456e-01 1.346828e+00 3.956036e-01 2.566888e+00 1.249277e+00 -8.113911e-01 2.238829e-02 -2.695812e-03 -8.731328e-01 4.955434e-01 2.722231e+00 -1.347600e+00 -1.948553e-01 3.087236e-01 -2.793684e+00
<VARIANCE> 39
 2.987053e+01 3.155647e+01 2.964100e+01 8.668587e+01 4.181626e+01 5.519400e+01 9.941579e+01 7.716705e+01 9.542248e+01 4.513129e+01 5.340545e+01 4.601968e+01 4.460876e+01 2.036931e+00 4.781994e+00 6.000629e+00 7.025138e+00 5.207664e+00 8.010644e+00 7.223973e+00 8.660193e+00 8.358557e+00 8.134622e+00 5.313312e+00 6.136067e+00 6.007944e+00 6.426278e-01 1.044082e+00 1.308909e+00 1.545230e+00 1.062647e+00 2.498288e+00 2.333248e+00 1.870958e+00 2.245746e+00 1.540825e+00 1.344141e+00 1.175903e+00 1.300017e+00
<GCONST> 1.511380e+02
<MIXTURE> 11 6.035159e-02
<MEAN> 39
 -4.265392e+00 -6.370910e-01 3.605017e+00 3.351119e+00 5.372063e+00 9.275199e+00 6.135322e+00 5.537279e+00 6.572619e+00 4.507107e+00 3.328020e+00 2.551662e+00 -1.076203e+01 -1.454432e+00 -1.008340e+00 1.124364e-01 2.379612e-01 1.328451e+00 2.827289e+00 3.062487e+00 2.549943e+00 1.988687e+00 1.355679e+00 5.923760e-01 -2.187493e-01 -6.669925e-01 5.758697e-01 4.611666e-01 2.164271e-01 -2.923615e-02 -6.685340e-01 -1.225388e+00 -9.903077e-01 -9.264672e-01 -9.874028e-01 -2.740409e-01 -3.376256e-01 -9.769800e-02 3.104812e-01
<VARIANCE> 39
 2.156692e+01 2.652694e+01 3.595142e+01 3.620327e+01 7.480025e+01 9.217026e+01 6.445277e+01 7.141736e+01 7.883090e+01 8.771262e+01 7.737657e+01 5.970927e+01 2.594256e+01 1.641914e+00 1.893224e+00 3.130902e+00 3.986756e+00 7.255687e+00 1.006556e+01 7.664473e+00 8.336465e+00 8.724855e+00 7.497149e+00 8.107813e+00 6.317773e+00 4.216270e-01 2.072268e-01 4.210539e-01 4.787377e-01 4.669866e-01 1.132465e+00 1.954393e+00 1.481104e+00 1.213640e+00 1.311648e+00 1.673770e+00 1.146841e+00 1.150475e+00 1.484607e-01
<GCONST> 1.389660e+02
<MIXTURE> 12 1.076239e-01
<MEAN> 39
 -1.301084e-01 -2.430862e+01 -7.107994e+00 -1.078709e+01 -3.989688e+00 5.420314e-01 -8.284200e+00 -2.200907e+01 5.674242e+00 -1.125525e+01 -1.472802e+00 2.384750e-01 2.675476e+01 -1.716682e+00 -1.261579e-01 2.618427e-01 -2.462576e+00 2.026018e+00 -7.640095e-01 -5.279206e+00 -5.814205e-01 1.386801e+00 -4.727393e+00 -2.163464e-02 -1.581047e+00 1.489290e+00 3.446352e-01 3.316095e+00 1.014773e+00 8.651514e-01 3.484581e-01 -7.320911e-01 5.703163e-01 2.464909e+00 -1.265580e+00 7.106889e-01 1.601570e-01 -1.093584e-01 -2.970871e+00
<VARIANCE> 39
 3.031895e+01 7.896918e+01 4.902740e+01 1.714066e+02 7.926134e+01 1.317714e+02 1.350380e+02 9.614696e+01 8.827719e+01 1.148693e+02 7.551851e+01 7.414591e+01 4.414231e+01 3.245279e+00 1.240988e+01 8.762023e+00 1.105784e+01 1.202915e+01 1.283455e+01 1.879759e+01 1.440885e+01 1.605721e+01 1.053864e+01 1.208425e+01 8.040722e+00 9.451819e+00 1.138914e+00 1.524224e+00 1.657270e+00 2.833085e+00 2.172992e+00 5.299204e+00 3.903694e+00 2.871082e+00 2.615672e+00 3.058189e+00 2.219028e+00 2.036374e+00 1.321906e+00
<GCONST> 1.705510e+02
<MIXTURE> 13 7.046311e-02
<MEAN> 39
 -5.937479e+00 -2.442446e+00 4.180841e+00 9.134107e+00 1.011182e+01 1.303752e+01 7.196039e+00 5.090550e+00 2.316835e+00 4.442752e+00 4.255080e+00 3.749592e+00 -7.780164e+00 1.505716e+00 -5.228349e-01 -5.045679e-01 -2.802167e+00 -2.919000e+00 -2.708295e+00 -1.548466e+00 -1.829070e+00 -1.057608e+00 -2.799162e+00 -1.492154e+00 -1.667955e+00 5.619499e+00 1.021856e+00 -7.101671e-01 -7.037079e-01 -1.355121e+00 -1.432210e+00 -1.415858e+00 -4.316266e-01 -5.640979e-01 -5.050666e-01 -8.932305e-01 -4.502043e-01 -4.731265e-01 1.720023e+00
<VARIANCE> 39
 2.472842e+01 4.824649e+01 6.849644e+01 5.120042e+01 8.022574e+01 1.039393e+02 7.304827e+01 7.382173e+01 8.240253e+01 8.740563e+01 5.245733e+01 6.307473e+01 4.279974e+01 4.497986e+00 7.499311e+00 7.420026e+00 1.168397e+01 9.455221e+00 1.288750e+01 1.494260e+01 1.463705e+01 1.000250e+01 1.087517e+01 9.486671e+00 1.367888e+01 7.279818e+00 9.589373e-01 1.014674e+00 1.178461e+00 1.374834e+00 2.285840e+00 2.711941e+00 2.122469e+00 2.521621e+00 2.197104e+00 2.093077e+00 1.768254e+00 1.673124e+00 1.724026e+00
<GCONST> 1.621123e+02
<MIXTURE> 14 3.909469e-02
<MEAN> 39
 1.627245e+01 -1.670768e+01 -2.980317e+01 4.236568e-01 -1.953468e+00 -1.479412e+01 -2.679286e+00 4.098029e+00 -4.115986e-01 -2.222638e+01 -8.858028e+00 -2.535240e+00 1.695112e+01 1.562507e+00 -3.789890e+00 -4.156291e+00 2.299982e+00 9.234032e-02 -1.729832e+00 3.016938e-01 2.273010e-01 -1.422054e+00 -3.562150e+00 3.560664e-01 -4.744821e-01 1.534409e+00 -9.854299e-01 2.112822e+00 2.994614e+00 1.652848e-02 -9.826219e-02 6.001495e-01 -6.281595e-01 -1.347193e+00 -9.881085e-01 1.927204e+00 9.098989e-01 1.082456e-01 -1.664471e+00
<VARIANCE> 39
 1.576075e+01 5.116251e+01 9.271033e+01 8.137846e+01 6.721181e+01 9.883792e+01 1.457284e+02 1.167444e+02 9.480939e+01 8.515910e+01 1.037100e+02 1.114001e+02 2.321828e+01 4.473453e+00 1.019964e+01 1.685292e+01 1.570314e+01 8.601310e+00 9.733980e+00 1.013071e+01 1.573965e+01 1.367398e+01 1.308927e+01 1.198001e+01 1.065964e+01 5.120782e+00 4.123427e-01 7.409204e-01 1.298943e+00 1.641865e+00 1.312886e+00 2.158343e+00 3.212305e+00 1.938721e+00 2.240167e+00 1.919763e+00 2.094678e+00 2.084941e+00 3.280612e-01
<GCONST> 1.621665e+02
<MIXTURE> 15 6.912643e-02
<MEAN> 39
 -3.554889e+00 -1.387143e+00 1.429040e+00 5.667673e+00 7.959247e+00 8.305178e+00 6.206857e+00 4.799459e+00 4.086633e+00 4.744284e+00 -1.101865e+00 4.660132e-01 -9.852119e+00 -2.648212e-03 6.042398e-01 3.589950e-01 1.731632e-01 -3.451387e-01 -2.455032e-01 -1.929649e-01 -3.040345e-01 -1.372646e-01 -2.950119e-01 -2.908462e-01 -6.915516e-01 -3.727455e-01 4.629386e-01 3.353330e-01 -1.239533e-02 -4.168557e-01 -8.519667e-01 -6.965910e-01 -6.433163e-01 -5.564244e-01 -4.022093e-01 -2.759349e-01 4.562505e-01 4.044251e-01 2.492581e-01
<VARIANCE> 39
 1.335635e+01 2.530298e+01 3.558823e+01 4.971165e+01 6.039895e+01 7.250011e+01 5.389331e+01 6.051095e+01 6.893111e+01 6.828080e+01 6.607799e+01 5.794114e+01 1.414241e+01 4.943624e-01 1.216756e+00 2.640471e+00 4.208309e+00 5.450114e+00 7.665093e+00 6.840431e+00 8.316311e+00 6.562583e+00 6.830201e+00 8.752861e+00 6.455172e+00 3.169324e-01 1.355595e-01 3.269693e-01 4.852904e-01 7.025426e-01 1.146304e+00 1.452558e+00 1.296057e+00 1.601372e+00 1.791115e+00 1.371418e+00 1.422365e+00 1.144830e+00 6.341267e-02
<GCONST> 1.328459e+02
<MIXTURE> 16 4.185876e-02
<MEAN> 39
 6.177825e+00 -2.627082e+01 -1.742054e+01 7.717549e+00 -1.396094e+01 -2.076227e+00 3.120797e+00 -2.281828e+01 -7.804202e+00 -7.508192e+00 3.951288e+00 -1.053030e+01 2.434584e+01 -1.469887e+00 -1.366637e+00 1.278766e+00 8.294975e-01 -1.405764e-01 2.129968e+00 -4.499449e+00 -4.392219e+00 1.753219e+00 6.600582e-01 -2.009196e+00 -6.656957e-01 1.443203e+00 2.039638e-01 2.231301e+00 1.579127e+00 -1.021971e+00 4.463145e-01 -9.319957e-01 -1.062936e+00 1.876852e+00 3.020020e-01 -1.866567e-01 -6.162879e-01 1.051062e+00 -1.694869e+00
<VARIANCE> 39
 2.220201e+01 4.604902e+01 3.907766e+01 6.902270e+01 3.978492e+01 9.564856e+01 1.040181e+02 1.075738e+02 7.055888e+01 6.701065e+01 7.385004e+01 4.481921e+01 4.266204e+01 1.380485e+00 3.225389e+00 5.360605e+00 7.973934e+00 4.073987e+00 7.061735e+00 1.085146e+01 1.253472e+01 1.305999e+01 1.093367e+01 5.039476e+00 7.660251e+00 2.470177e+00 3.211778e-01 9.155941e-01 1.154132e+00 5.060016e-01 6.541231e-01 1.315294e+00 2.410607e+00 2.264083e+00 1.368843e+00 1.084729e+00 1.842102e+00 8.479705e-01 6.242651e-01
<GCONST> 1.475881e+02
<TRANSP> 5
 0.000000e+00 1.000000e+00 0.000000e+00 0.000000e+00 0.000000e+00
 0.000000e+00 6.562773e-01 3.437227e-01 0.000000e+00 0.000000e+00
 0.000000e+00 0.000000e+00 6.409252e-01 3.590748e-01 0.000000e+00
 0.000000e+00 0.000000e+00 0.000000e+00 5.398535e-01 4.601465e-01
 0.000000e+00 0.000000e+00 0.000000e+00 0.000000e+00 0.000000e+00
<ENDHMM>
~h "c"
<BEGINHMM>
<NUMSTATES> 5
<STATE> 2
<NUMMIXES> 16
<MIXTURE> 1 8.276812e-02
<MEAN> 39
 -1.947490e+00 1.661875e+00 4.700946e+00 7.300675e+00 3.859848e+00 8.753212e+00 9.611998e+00 6.563012e+00 5.564100e+00 7.451849e+00 4.538511e+00 2.159840e+00 -1.224617e+01 -1.360405e-02 2.184987e-01 8.124804e-02 1.622404e-01 -4.593519e-01 -1.677087e-01 -1.908504e-01 2.201370e-01 -1.182080e-01 -2.947559e-01 2.028212e-01 2.629306e-01 -2.597350e-01 -2.075181e-01 1.665125e-01 -2.370180e-01 -7.776787e-02 -2.563987e-01 -4.395809e-01 -3.150124e-01 -3.753939e-01 -5.055295e-01 -4.742216e-01 -4.155040e-01 -1.135580e-02 7.642327e-01
<VARIANCE> 39
 8.370902e+00 2.217491e+01 4.938856e+01 3.671691e+01 5.665428e+01 8.391310e+01 6.722517e+01 1.017630e+02 7.384873e+01 4.431047e+01 6.876779e+01 7.505215e+01 8.584402e+00 6.183240e-01 1.226476e+00 2.001279e+00 3.750089e+00 3.645873e+00 6.404696e+00 5.540686e+00 6.809145e+00 8.690125e+00 5.329420e+00 5.817498e+00 5.848724e+00 2.747590e-01 3.262910e-01 3.804363e-01 5.564275e-01 8.012818e-01 9.280380e-01 1.305921e+00 1.393302e+00 1.609766e+00 1.842428e+00 1.057053e+00 1.412632e+00 1.715729e+00 2.999815e-01
<GCONST> 1.335378e+02
<MIXTURE> 2 5.513786e-02
<MEAN> 39
 -2.595545e+01 9.493189e+00 -1.008566e+01 5.906360e+00 2.872907e+00 2.041678e+00 6.823799e+00 9.955017e-01 7.806668e+00 3.051090e-01 3.572927e+00 4.455287e+00 8.400288e+00 -1.755522e+00 2.422275e+00 1.145487e+00 -1.977587e+00 7.611943e-01 -8.769766e-01 1.108497e+00 -1.025663e+00 1.575641e+00 -3.451275e-01 -1.179747e+00 1.133119e+00 1.982991e+00 3.558267e+00 -5.459909e-01 1.587584e+00 -1.812841e+00 -9.834566e-01 -4.162961e-01 -1.146948e+00 -2.692615e-01 -7.732733e-01 -5.292678e-01 -7.236860e-01 -5.438331e-01 -7.885473e-01
<VARIANCE> 39
 2.774607e+01 5.029835e+01 7.662119e+01 8.939408e+01 7.380441e+01 8.360674e+01 1.423400e+02 9.134209e+01 6.412911e+01 6.281358e+01 7.568920e+01 7.568728e+01 3.809269e+01 8.341260e+00 5.643467e+00 8.782756e+00 6.450678e+00 9.268333e+00 8.349510e+00 1.089044e+01 1.439512e+01 8.299953e+00 1.407627e+01 8.186098e+00 1.130601e+01 7.556910e+00 7.443378e-01 1.185749e+00 2.036854e+00 2.924738e+00 2.035677e+00 1.948538e+00 3.388195e+00 2.180634e+00 1.896217e+00 1.779960e+00 1.761222e+00 2.191872e+00 7.449186e-01
<GCONST> 1.624585e+02
<MIXTURE> 3 8.846927e-02
<MEAN> 39
 -1.030502e+01 -1.224515e+00 3.144719e+00 9.649504e+00 3.155588e+00 6.813987e+00 5.613120e+00 4.325479e+00 2.450478e+00 3.499660e+00 1.849910e+00 2.637277e+00 -5.633689e-01 -4.039203e+00 1.080286e+00 -2.425330e+00 1.252783e+00 3.393860e-01 -3.027967e-01 -1.859019e-01 8.935059e-01 -9.848391e-02 2.165507e-01 -2.558515e-01 -1.040525e-02 3.908978e+00 3.763997e-01 8.465862e-01 -4.164746e-01 -6.379292e-01 9.716029e-02 -8.077238e-02 2.926846e-01 3.656939e-01 -3.016186e-01 8.182491e-02 -3.724191e-02 -8.018272e-02 -2.781439e-01
<VARIANCE> 39
 1.796654e+01 4.796506e+01 4.663640e+01 4.690328e+01 4.765928e+01 7.787315e+01 6.275465e+01 6.746139e+01 5.872603e+01 5.552931e+01 6.396085e+01 5.098591e+01 2.762037e+01 1.932221e+00 4.445501e+00 4.704662e+00 4.638323e+00 6.345050e+00 7.943941e+00 9.024023e+00 1.039096e+01 1.018718e+01 8.790073e+00 6.052917e+00 7.040944e+00 3.649534e+00 5.886298e-01 9.293660e-01 7.205310e-01 1.507921e+00 1.210072e+00 1.810254e+00 1.579771e+00 2.056150e+00 1.985388e+00 1.424882e+00 1.351283e+00 1.261854e+00 5.155066e-01
<GCONST> 1.477838e+02
<MIXTURE> 4 4.901849e-02
<MEAN> 39
 -1.018552e+01 7.456684e+00 -1.068349e+00 5.053251e+00 2.165618e+00 3.788524e+00 3.965326e+00 7.534885e+00 -1.492980e+00 3.342940e+00 2.034903e+00 1.259860e+00 9.071028e-01 6.329339e+00 -1.252180e+00 -4.699658e+00 -1.018926e+01 -4.036973e+00 -3.979624e+00 -4.571155e+00 -3.386782e+00 -3.131891e+00 -4.178299e+00 -8.080019e-01 -1.164001e+00 4.353687e+00 5.871036e-01 -1.517961e+00 -9.115924e-01 -1.318215e+00 -8.257381e-02 -1.817865e-01 -7.456834e-01 -1.068031e+00 2.477635e-03 -1.172377e+00 -6.764231e-01 -8.977983e-01 1.489185e+00
<VARIANCE> 39
 2.658583e+01 2.589656e+01 4.192443e+01 5.939502e+01 9.974399e+01 8.611237e+01 1.046738e+02 1.123420e+02 1.750103e+02 1.108889e+02 1.225080e+02 9.619176e+01 2.377879e+01 3.583722e+00 6.502908e+00 1.458817e+01 6.622812e+00 1.167434e+01 1.108733e+01 1.183318e+01 1.167022e+01 8.940813e+00 1.360222e+01 1.440928e+01 1.363133e+01 3.100165e+00 6.935612e-01 6.915019e-01 7.809602e-01 1.952405e+00 2.154072e+00 1.555807e+00 2.102785e+00 2.137036e+00 3.198155e+00 2.408695e+00 2.021626e+00 2.010739e+00 4.617113e-01
<GCONST> 1.606725e+02
<MIXTURE> 5 3.908157e-02
<MEAN> 39
 -3.259271e+00 1.703288e+00 2.173627e-01 7.840658e+00 6.467906e+00 2.459446e+00 1.728750e+00 7.969113e+00 7.363659e+00 1.212865e+01 1.443013e+01 5.133899e+00 -1.441583e+01 -1.229868e+00 -2.251690e+00 -1.133842e+00 4.355569e-01 4.651090e-01 2.090358e+00 1.381264e+00 8.712289e-01 2.249516e+00 1.385931e+00 1.510939e+00 1.381857e+00 -8.238921e-02 2.560295e-01 7.713567e-01 -1.544436e-01 -7.765789e-01 -1.105105e+00 -7.720308e-01 -2.570255e-01 -8.556152e-01 -9.147714e-01 -1.789546e+00 -1.790937e+00 -9.218720e-01 1.704856e+00
<VARIANCE> 39
 1.432143e+01 2.838255e+01 4.437410e+01 5.074359e+01 8.021579e+01 6.546927e+01 8.447539e+01 9.479921e+01 8.755191e+01 8.231284e+01 7.580005e+01 5.248707e+01 2.667248e+01 5.483408e+00 4.645894e+00 6.447724e+00 5.276764e+00 6.415278e+00 7.367707e+00 9.223241e+00 6.708913e+00 1.191725e+01 1.409246e+01 6.835028e+00 6.173937e+00 9.814703e+00 5.982333e-01 7.943389e-01 1.324214e+00 1.033642e+00 1.533470e+00 1.934834e+00 1.390123e+00 1.696520e+00 2.059548e+00 2.139115e+00 1.520076e+00 1.268414e+00 5.178618e-01
<GCONST> 1.523062e+02
<MIXTURE> 6 7.554397e-02
<MEAN> 39
 -1.285869e+01 -4.147100e-01 -1.094229e+01 6.973441e+00 -3.646720e-01 2.221362e+00 4.368705e+00 3.105898e+00 4.144971e+00 -2.636962e-01 6.424840e+00 -4.495634e-01 3.696223e+00 -4.891684e+00 1.851791e+00 -2.817038e+00 -1.430337e-01 -3.033734e-01 -1.302005e+00 -5.523290e-02 -5.654455e-01 1.480903e+00 -9.297556e-01 6.428412e-02 6.971563e-02 4.752228e+00 6.089616e-01 8.299288e-01 1.406454e+00 -8.817466e-01 2.468420e-01 -9.673736e-02 -8.472381e-02 -1.936811e-01 -2.044777e-02 -1.546438e-01 -5.753169e-01 3.769349e-01 -6.490024e-01
<VARIANCE> 39
 3.452524e+01 8.616843e+01 3.369333e+01 3.925056e+01 5.565848e+01 5.709912e+01 5.386543e+01 6.927999e+01 7.146857e+01 7.268922e+01 5.870485e+01 8.502094e+01 4.761868e+01 3.634044e+00 3.970738e+00 7.676240e+00 5.937698e+00 6.269471e+00 6.942729e+00 1.061557e+01 8.546862e+00 9.534894e+00 9.384636e+00 7.347883e+00 6.397193e+00 4.302113e+00 1.179958e+00 1.404441e+00 8.506270e-01 1.389662e+00 1.478719e+00 1.170645e+00 1.876492e+00 1.874208e+00 1.545733e+00 1.665754e+00 1.002895e+00 1.836489e+00 9.641383e-01
<GCONST> 1.526574e+02
<MIXTURE> 7 9.199688e-02
<MEAN> 39
 -2.913692e+00 3.808319e+00 8.988085e+00 9.237979e+00 4.593259e+00 9.431696e+00 8.366324e+00 4.736643e+00 3.687727e+00 5.421255e+00 8.646892e-01 1.034843e+00 -1.310164e+01 -2.298309e+00 -9.454447e-01 -1.684372e+00 7.642309e-01 -6.938286e-01 -1.074812e+00 -1.090073e+00 -6.396283e-01 -6.218198e-02 -3.381490e-01 -4.688555e-03 -2.157759e-02 3.738316e+00 -9.929460e-01 2.159339e-01 -1.069026e+00 -2.234442e-02 -8.336388e-02 -3.527710e-01 -2.908700e-01 2.143958e-01 -1.018405e-01 7.018727e-02 3.703121e-02 -2.120312e-02 1.308252e+00
<VARIANCE> 39
 1.153218e+01 2.409379e+01 3.560183e+01 3.687239e+01 5.062574e+01 6.864798e+01 7.193953e+01 8.963716e+01 6.194391e+01 7.824947e+01 5.575769e+01 6.496879e+01 1.115735e+01 1.927242e+00 3.554314e+00 5.185900e+00 4.984731e+00 5.155025e+00 7.782845e+00 6.556669e+00 8.283110e+00 9.685926e+00 7.443614e+00 5.298582e+00 6.597011e+00 3.104296e+00 2.861106e-01 6.449844e-01 7.353624e-01 8.604448e-01 1.289449e+00 1.759398e+00 1.234440e+00 1.739018e+00 1.723307e+00 1.499033e+00 1.040343e+00 1.286406e+00 4.141972e-01
<GCONST> 1.421250e+02
<MIXTURE> 8 6.631508e-02
<MEAN> 39
 -1.856148e+01 6.095574e+00 -1.905248e+00 1.196261e+01 5.992538e+00 1.050555e+01 1.010290e+01 1.078561e+01 3.931305e+00 4.681041e+00 3.288902e+00 -1.643791e+00 2.976485e+00 3.866828e+00 1.761294e+00 -2.521830e+00 -6.064799e+00 -2.814630e+00 -3.984264e+00 -2.376357e+00 -1.682261e+00 -2.243382e+00 -1.282700e+00 5.692821e-01 9.219110e-01 2.075388e+00 2.512074e+00 -9.460077e-01 -1.024509e+00 -3.310123e+00 -1.049567e+00 -1.467413e+00 -1.445999e+00 -1.578502e+00 -9.801698e-01 -1.292552e+00 -6.996440e-01 -9.053997e-02 8.597035e-01
<VARIANCE> 39
 1.551395e+01 5.008972e+01 5.546170e+01 5.592499e+01 7.212603e+01 9.092122e+01 7.246846e+01 8.221723e+01 7.474813e+01 9.192889e+01 8.624648e+01 9.034913e+01 1.705997e+01 5.015752e+00 6.190803e+00 1.142832e+01 1.061446e+01 6.317729e+00 8.263739e+00 6.552272e+00 9.527943e+00 7.312448e+00 1.215004e+01 9.243683e+00 1.067709e+01 3.527217e+00 5.346540e-01 1.483648e+00 1.409440e+00 1.178718e+00 2.078240e+00 2.090677e+00 1.989034e+00 2.247010e+00 1.520546e+00 2.376564e+00 1.696372e+00 2.039598e+00 4.839600e-01
<GCONST> 1.561913e+02
<MIXTURE> 9 4.875343e-02
<MEAN> 39
 -7.557079e-01 -6.949850e-01 2.035633e+00 4.307318e+00 3.493547e-03 4.364708e+00 1.493339e+01 7.634066e+00 -3.233015e+00 2.679139e-01 1.494521e+00 1.728768e+00 -9.347095e+00 -9.431729e-01 -1.002805e+00 -4.924939e-01 7.585746e-01 1.159202e+00 2.165704e+00 2.408730e+00 2.595196e+00 2.199645e+00 1.532892e+00 7.062819e-01 -6.156474e-01 -8.607435e-01 1.678116e-01 8.973241e-01 -6.474149e-03 -3.579402e-01 -8.086717e-01 -1.128102e+00 -2.092346e+00 -1.050202e+00 3.161885e-01 8.098848e-02 1.215346e-01 -3.857441e-01 8.305841e-01
<VARIANCE> 39
 8.445993e+00 3.880611e+01 5.246826e+01 5.231227e+01 5.961916e+01 1.064298e+02 1.493957e+02 8.785279e+01 9.796294e+01 8.891080e+01 7.706081e+01 1.064620e+02 1.576915e+01 8.035172e-01 2.582930e+00 4.948168e+00 5.764264e+00 5.914179e+00 9.678083e+00 1.554745e+01 8.509510e+00 8.876587e+00 8.704835e+00 6.165643e+00 8.581698e+00 6.046481e-01 3.945982e-01 5.636202e-01 1.458322e+00 1.816338e+00 9.940668e-01 1.835019e+00 2.356301e+00 2.171048e+00 1.975123e+00 1.915796e+00 1.171615e+00 1.662317e+00 4.172111e-01
<GCONST> 1.481207e+02
<MIXTURE> 10 7.563549e-02
<MEAN> 39
 -1.714227e+01 6.028439e+00 -1.123531e-01 1.299411e+01 5.454639e+00 8.289839e+00 6.362015e+00 7.643951e+00 2.357268e+00 5.541741e+00 -2.252912e-01 1.228064e+00 2.176676e+00 -2.317639e+00 1.760512e+00 -2.144727e+00 9.894349e-03 1.170343e+00 2.577065e-01 6.191534e-01 2.253851e+00 -7.319641e-01 6.502374e-01 1.234139e-01 -5.414650e-01 1.621209e+00 2.600871e+00 -1.858005e-01 -3.868171e-01 -2.565134e+00 -1.105239e+00 -1.195550e+00 -9.053817e-01 -8.986483e-01 -7.421138e-01 -8.839431e-01 3.118986e-01 -1.812142e-02 -3.236565e-01
<VARIANCE> 39
 2.100768e+01 6.260902e+01 6.332391e+01 5.546056e+01 7.480063e+01 1.131855e+02 9.705799e+01 1.108761e+02 1.300164e+02 9.325490e+01 7.891332e+01 8.285336e+01 2.474542e+01 2.855491e+00 5.830519e+00 4.663577e+00 6.928838e+00 8.530940e+00 8.116289e+00 9.138916e+00 1.019016e+01 1.525804e+01 8.408010e+00 1.025227e+01 9.943036e+00 4.080217e+00 4.723021e-01 1.124930e+00 1.387284e+00 1.540946e+00 1.724055e+00 2.184515e+00 2.186277e+00 2.553671e+00 2.167573e+00 2.032120e+00 1.801182e+00 2.243067e+00 4.573887e-01
<GCONST> 1.579616e+02
<MIXTURE> 11 7.431515e-02
<MEAN> 39
 -2.635794e+00 2.252531e+00 1.194294e+00 5.532217e+00 1.580661e+00 5.148592e+00 6.164311e+00 4.846278e+00 -7.722397e-01 3.816668e+00 6.454109e+00 2.909309e+00 -1.353504e+01 -3.072024e+00 1.004746e-01 -2.677560e+00 6.473076e-01 3.132293e-02 -3.612985e-01 -4.320889e-01 -5.389163e-01 2.242600e-01 -1.156654e+00 5.494700e-01 -1.279699e+00 4.185015e+00 -1.364992e+00 6.983864e-01 -4.968673e-01 7.874751e-04 -4.933588e-02 -4.242679e-01 -3.071865e-01 -1.448958e-01 6.209317e-01 -5.905671e-01 -4.336406e-01 -3.795770e-01 1.700076e+00
<VARIANCE> 39
 1.421568e+01 2.247485e+01 4.378278e+01 4.713804e+01 4.869080e+01 7.945951e+01 5.949596e+01 6.459882e+01 4.915684e+01 7.016759e+01 6.023887e+01 6.926550e+01 2.221065e+01 3.963886e+00 5.536272e+00 7.367027e+00 5.661726e+00 6.733067e+00 6.552631e+00 1.250886e+01 8.389001e+00 7.256293e+00 7.872071e+00 6.504176e+00 6.971385e+00 6.589146e+00 4.202686e-01 7.160071e-01 9.867970e-01 8.480914e-01 1.160480e+00 1.155331e+00 1.986358e+00 1.622501e+00 1.365621e+00 2.269173e+00 1.115698e+00 1.518310e+00 5.818218e-01
<GCONST> 1.473793e+02
<MIXTURE> 12 5.401965e-02
<MEAN> 39
 -1.719915e+01 2.588345e-01 -8.240587e+00 6.613482e+00 2.372972e+00 5.372393e+00 3.357538e+00 8.366322e+00 6.140852e+00 -1.226527e+00 1.117291e+01 1.855945e+00 2.943897e+00 -4.142813e+00 1.426509e+00 -1.533828e+00 -4.437355e-01 5.862902e-02 7.201611e-02 -5.248399e-01 -4.830959e-01 7.655246e-01 -2.875639e+00 -5.100966e-01 -5.387501e-01 5.708770e+00 1.764407e+00 1.154669e+00 1.207116e+00 -1.593332e+00 -9.618267e-01 -7.593724e-01 -5.689743e-01 -1.395846e+00 -4.391456e-01 -2.396147e-01 -1.487266e+00 -2.046578e-01 -2.284510e-01
<VARIANCE> 39
 2.433134e+01 7.654081e+01 5.032498e+01 7.641226e+01 6.359208e+01 8.339384e+01 1.473176e+02 8.186791e+01 1.090517e+02 1.193310e+02 7.952876e+01 5.811504e+01 6.916923e+01 5.879093e+00 6.877636e+00 9.053369e+00 7.444619e+00 8.299940e+00 1.169633e+01 8.949323e+00 1.329189e+01 1.092854e+01 1.322799e+01 1.157535e+01 1.045541e+01 7.316022e+00 1.189540e+00 1.891661e+00 1.320369e+00 2.006749e+00 1.602795e+00 2.323524e+00 2.867913e+00 1.734684e+00 2.577375e+00 2.650248e+00 1.631976e+00 1.486244e+00 1.190972e+00
<GCONST> 1.642953e+02
<MIXTURE> 13 2.860562e-02
<MEAN> 39
 -2.278928e+01 1.044311e+01 -4.177306e+00 -3.805192e-01 1.370352e+01 2.980585e+00 8.528131e+00 8.518353e+00 -2.443587e+00 3.737609e+00 -3.252006e+00 5.522056e-01 1.024104e+01 6.283808e+00 -3.205603e-01 1.214451e+00 -8.404975e+00 -4.833657e+00 -3.814934e+00 -5.982755e+00 -1.372885e+00 -2.363433e+00 -2.768055e+00 -4.649518e-02 -1.781359e+00 2.256066e+00 2.895648e+00 -1.692548e+00 -7.001951e-02 -1.196850e+00 -2.918121e+00 -7.374491e-01 -1.699715e+00 -1.647314e+00 1.546282e-02 -1.514679e+00 2.541406e-01 -5.976344e-01 2.032307e-01
<VARIANCE> 39
 4.947284e+01 1.301948e+02 9.614332e+01 1.074445e+02 6.613488e+01 1.359538e+02 1.378244e+02 1.930107e+02 2.622964e+02 9.345718e+01 1.493631e+02 1.532488e+02 2.890360e+01 8.144430e+00 5.660323e+00 1.935274e+01 2.199413e+01 1.327249e+01 2.051266e+01 1.577092e+01 9.896371e+00 1.506860e+01 1.539337e+01 1.875958e+01 1.692425e+01 3.143695e+00 2.246318e+00 3.108178e+00 2.509498e+00 3.377163e+00 2.145284e+00 4.166718e+00 3.832398e+00 4.288644e+00 6.132969e+00 3.001728e+00 3.314384e+00 4.514916e+00 8.524356e-01
<GCONST> 1.799157e+02
<MIXTURE> 14 7.987348e-02
<MEAN> 39
 -2.229333e+01 7.941534e+00 -9.140952e+00 2.753918e+00 1.362541e+00 6.317934e-01 5.431424e+00 3.442345e+00 1.041992e+01 -3.405819e+00 5.192581e+00 3.704742e+00 9.647016e+00 4.155478e+00 2.370538e+00 2.173197e+00 -5.959384e+00 -2.836467e+00 -1.783765e+00 -2.821559e+00 -3.507318e+00 -3.513734e-01 -3.432923e+00 -3.922799e+00 -1.278626e+00 3.028440e+00 2.934158e+00 -1.055719e+00 5.662236e-01 -2.187898e+00 -1.078835e+00 2.376043e-01 -1.010219e+00 -4.868535e-01 -1.019220e+00 3.500981e-02 -1.120364e+00 -5.715196e-01 3.130615e-01
<VARIANCE> 39
 3.286741e+01 4.320844e+01 5.347530e+01 9.070591e+01 5.791210e+01 1.013023e+02 9.712801e+01 1.185050e+02 1.045484e+02 9.893961e+01 8.744157e+01 1.024433e+02 4.140974e+01 1.039292e+01 8.259874e+00 6.292783e+00 1.082509e+01 9.832772e+00 7.248775e+00 7.974989e+00 7.617621e+00 1.036642e+01 1.063834e+01 1.196615e+01 1.008082e+01 6.040162e+00 1.118328e+00 1.656011e+00 1.421776e+00 2.557956e+00 1.808066e+00 2.236471e+00 2.129714e+00 2.188194e+00 2.540204e+00 2.420193e+00 2.507150e+00 2.205123e+00 1.065239e+00
<GCONST> 1.642927e+02
<MIXTURE> 15 4.893206e-02
<MEAN> 39
 -1.577620e+00 2.733320e+00 3.873628e+00 5.221198e+00 2.586728e+00 1.233045e+01 1.450258e+01 8.267093e+00 4.918394e+00 1.974367e+00 -6.296266e-01 1.497255e+00 -1.336744e+01 -9.904920e-01 -9.336794e-01 -2.085229e-01 8.708884e-01 1.786055e+00 1.510053e+00 1.366418e+00 -1.064570e-01 -4.842803e-01 -2.817006e-01 6.092348e-01 7.134943e-01 -4.108646e-01 5.229491e-02 4.116629e-01 -5.738266e-01 -5.832426e-01 -1.052183e+00 -2.241367e+00 -2.116855e+00 -1.303088e+00 -5.856441e-01 -2.577707e-01 1.245736e-02 -3.630128e-01 1.738782e+00
<VARIANCE> 39
 1.524802e+01 2.854041e+01 3.791199e+01 5.208644e+01 6.550577e+01 6.466613e+01 1.052116e+02 7.341026e+01 7.519999e+01 7.212873e+01 4.727787e+01 7.074365e+01 1.237210e+01 1.703501e+00 2.879624e+00 3.011253e+00 3.454489e+00 5.525992e+00 7.905710e+00 1.404469e+01 1.034034e+01 8.872739e+00 9.278006e+00 6.085753e+00 4.019131e+00 2.524291e+00 5.469462e-01 5.386619e-01 6.426498e-01 1.775697e+00 1.073622e+00 1.225717e+00 1.846006e+00 1.780898e+00 2.000084e+00 1.682582e+00 1.586318e+00 1.381468e+00 3.454202e-01
<GCONST> 1.444048e+02
<MIXTURE> 16 4.152858e-02
<MEAN> 39
 -3.626276e+00 2.149783e+00 -2.337871e+00 5.712740e-01 9.390183e-01 1.411543e+00 4.602050e+00 8.041367e+00 1.226203e+01 9.943898e+00 5.128831e+00 9.852838e-01 -1.171084e+01 -1.534822e+00 -8.846802e-01 -1.497639e+00 2.187259e-01 1.231571e-01 1.848567e+00 7.529532e-01 1.477009e+00 7.545198e-01 -1.013238e+00 1.324140e-01 -1.020608e+00 1.482363e+00 -4.314480e-01 6.455218e-01 2.230726e-01 3.425438e-01 -4.143942e-01 -4.308564e-01 -7.210689e-01 -8.246616e-01 -1.656279e+00 -1.601636e+00 -3.587921e-01 -2.142868e-01 1.539219e+00
<VARIANCE> 39
 3.587001e+01 4.186624e+01 3.789417e+01 5.658421e+01 4.270760e+01 5.441145e+01 7.773568e+01 8.873591e+01 5.130893e+01 7.059856e+01 5.248406e+01 7.954246e+01 2.884510e+01 6.138033e+00 5.441858e+00 4.587075e+00 7.840920e+00 6.670038e+00 6.792794e+00 1.364806e+01 9.970148e+00 1.313112e+01 1.551904e+01 8.645671e+00 8.076535e+00 8.300972e+00 9.463165e-01 1.025639e+00 8.374618e-01 1.644542e+00 1.010011e+00 1.733379e+00 2.357043e+00 1.811125e+00 1.050895e+00 1.597430e+00 1.213320e+00 1.686927e+00 7.703725e-01
<GCONST> 1.539181e+02
<STATE> 3
<NUMMIXES> 16
<MIXTURE> 1 4.417909e-02
<MEAN> 39
 -1.261972e+00 4.594112e+00 1.203457e+00 -4.428918e-01 -1.611263e+00 -2.209887e+00 6.267275e+00 1.091028e+01 7.444588e+00 3.788008e+00 3.627258e+00 -8.174585e-01 -7.784213e+00 -5.330998e-01 -9.811036e-01 -3.550889e-01 4.737417e-01 1.465905e+00 2.119164e+00 1.959455e+00 1.816876e+00 1.283609e-01 1.301668e+00 4.364958e-01 -5.227554e-01 -6.829469e-01 3.704279e-01 8.146292e-01 -6.281217e-03 -6.688414e-01 -1.908988e-01 -4.311955e-01 -1.246975e+00 -1.467149e+00 -1.131967e+00 -5.166007e-01 -5.920249e-01 -7.080216e-02 4.983534e-01
<VARIANCE> 39
 8.449343e+00 3.788908e+01 3.829632e+01 5.971790e+01 4.394429e+01 1.006183e+02 1.277795e+02 9.897135e+01 6.764927e+01 7.427064e+01 8.374803e+01 4.614393e+01 8.584402e+00 8.240666e-01 2.626119e+00 4.026656e+00 4.206500e+00 4.081363e+00 5.462020e+00 6.770064e+00 7.448195e+00 1.058643e+01 1.788788e+01 9.102737e+00 6.379073e+00 3.373450e-01 1.823224e-01 1.775219e-01 1.110891e+00 9.302226e-01 1.332177e+00 1.577127e+00 1.510872e+00 1.433205e+00 1.158372e+00 1.725500e+00 1.216558e+00 1.326005e+00 2.082225e-01
<GCONST> 1.385157e+02
<MIXTURE> 2 7.422456e-02
<MEAN> 39
 2.295709e+00 1.267626e+01 -8.020330e+00 -2.529052e+01 -5.475041e+00 -7.128158e+00 -9.358978e+00 -2.105181e+00 2.309310e+00 -1.466724e+01 -7.390036e-02 -9.264119e+00 2.202909e+01 3.648226e+00 -9.453293e-01 -8.255735e-01 -7.705954e+00 -1.865785e-01 1.044853e+00 -3.984297e+00 -5.460761e-01 -7.713675e-01 -5.736658e-01 -1.467057e+00 2.732348e-01 5.911811e+00 -1.977842e+00 -1.626192e+00 -1.647554e-01 2.428866e+00 1.046914e+00 1.393955e+00 1.002425e+00 3.600782e-01 2.984324e-01 1.288252e+00 2.991067e-01 1.481232e+00 -5.742929e-01
<VARIANCE> 39
 2.538278e+01 2.167227e+01 2.743545e+01 5.071795e+01 6.127104e+01 5.913293e+01 5.129409e+01 4.278062e+01 4.636115e+01 5.931358e+01 4.455326e+01 4.977255e+01 3.771653e+01 7.463994e+00 6.737906e+00 4.059526e+00 1.178343e+01 8.762542e+00 1.027242e+01 1.047249e+01 6.917585e+00 1.097927e+01 8.913883e+00 1.023885e+01 7.972136e+00 3.514226e+00 3.549010e-01 5.002868e-01 4.767303e-01 1.196122e+00 8.694154e-01 1.079891e+00 1.090580e+00 8.811018e-01 8.237638e-01 1.117638e+00 9.036419e-01 6.974019e-01 5.747800e-01
<GCONST> 1.436874e+02
<MIXTURE> 3 5.541991e-02
<MEAN> 39
 2.879844e+00 -1.167076e+00 -1.832376e+01 -3.199733e+01 -8.966202e+00 -7.112942e+00 -9.645638e+00 5.498882e-01 -1.015034e+01 -2.322108e+01 -3.123473e+00 -1.241957e+01 2.317775e+01 8.307049e-01 -4.343269e+00 -1.682577e+00 -3.357742e+00 -8.657856e-02 2.792696e+00 -1.794891e+00 -2.853086e+00 1.146333e+00 -4.727683e+00 -7.081325e-01 -1.688116e+00 4.583302e+00 -1.999843e+00 1.008178e-01 1.694993e+00 4.275792e+00 1.801662e+00 1.419459e+00 1.189300e+00 6.438455e-02 1.071036e+00 2.814438e+00 4.271426e-01 1.295306e+00 -1.263815e+00
<VARIANCE> 39
 2.507943e+01 4.265399e+01 3.129576e+01 8.710883e+01 9.756499e+01 1.028486e+02 8.193995e+01 6.885938e+01 6.918359e+01 8.409976e+01 7.017212e+01 1.016086e+02 4.444673e+01 4.354380e+00 5.884090e+00 7.243780e+00 1.306169e+01 1.509505e+01 8.555470e+00 9.982706e+00 9.114978e+00 1.516631e+01 1.212485e+01 1.378936e+01 1.589085e+01 4.003258e+00 7.270935e-01 1.334099e+00 1.112576e+00 2.099596e+00 2.146805e+00 2.178348e+00 1.947845e+00 2.088608e+00 2.540719e+00 1.495767e+00 2.001435e+00 2.033783e+00 7.509420e-01
<GCONST> 1.611222e+02
<MIXTURE> 4 4.347029e-02
<MEAN> 39
 3.376749e+00 2.558626e+00 -7.738132e+00 -2.805170e+01 -3.454234e+00 1.190897e+01 -8.921254e+00 -5.035849e+00 6.316730e+00 -1.788855e+01 -2.750602e+00 -2.424820e+00 2.806142e+01 -1.170064e-01 -3.439165e+00 -2.985883e-01 9.070976e-01 1.541677e+00 2.982041e+00 2.204692e-01 -2.099434e+00 6.034400e-02 1.365903e+00 -7.505471e-01 2.149338e+00 2.346659e+00 -1.383949e+00 -3.887185e-02 6.256073e-01 2.499537e+00 5.498933e-01 -9.636297e-01 4.236575e-01 4.384563e-02 -3.135164e-01 1.111523e+00 4.220307e-01 5.732290e-02 -1.536364e+00
<VARIANCE> 39
 2.380737e+01 4.034904e+01 2.954202e+01 4.172020e+01 5.778145e+01 8.062804e+01 6.883850e+01 4.332781e+01 5.053116e+01 4.782087e+01 4.440004e+01 3.544129e+01 2.757049e+01 1.780989e+00 2.751664e+00 1.744875e+00 7.035573e+00 3.851671e+00 4.452374e+00 5.760700e+00 7.113932e+00 3.627109e+00 7.350131e+00 5.915887e+00 3.173481e+00 3.534468e+00 7.509009e-01 6.223223e-01 6.953619e-01 1.542641e+00 9.956425e-01 1.154721e+00 2.003684e+00 9.419220e-01 1.074997e+00 1.067946e+00 8.430585e-01 5.603799e-01 1.525547e-01
<GCONST> 1.362989e+02
<MIXTURE> 5 5.800426e-02
<MEAN> 39
 1.455845e+00 1.416546e+00 5.730575e+00 -2.288278e+01 -2.178659e+01 -4.017292e+00 -1.002158e+01 -1.143032e+01 -5.558285e+00 -5.520525e+00 -1.195805e+01 -4.374727e+00 2.524515e+01 6.726460e+00 -5.618174e+00 -1.294373e+00 -1.763839e+00 -7.127572e+00 -3.099851e+00 -1.301554e+00 -9.982730e-01 -5.195481e+00 3.919081e-01 -1.087579e+00 -4.850087e+00 3.961227e+00 -1.204144e+00 -3.678604e-01 -2.060021e+00 3.207589e+00 2.692899e+00 -4.079565e-01 1.602369e+00 1.694963e+00 3.296689e-01 2.079001e-01 1.929062e+00 2.990394e-01 -1.114507e+00
<VARIANCE> 39
 8.146776e+01 9.241703e+01 9.166481e+01 1.562423e+02 7.880282e+01 1.055903e+02 1.292523e+02 9.381267e+01 5.911306e+01 9.778424e+01 1.465532e+02 9.941336e+01 7.502111e+01 1.304447e+01 1.351999e+01 9.964216e+00 1.679971e+01 1.578785e+01 2.586715e+01 1.856340e+01 2.435865e+01 1.170000e+01 1.601677e+01 1.477093e+01 1.900094e+01 6.198517e+00 3.115292e+00 2.482694e+00 2.537814e+00 4.308992e+00 2.616962e+00 2.376104e+00 3.784762e+00 1.482131e+00 2.135776e+00 2.110545e+00 3.897790e+00 3.609259e+00 9.169879e-01
<GCONST> 1.783361e+02
<MIXTURE> 6 8.476454e-02
<MEAN> 39
 9.182348e-01 -7.882816e+00 -1.744805e+01 -2.101272e+01 4.217268e+00 -8.048857e-01 -1.403407e+01 -7.798981e+00 -8.856933e+00 -1.681344e+01 1.745458e+00 -1.013840e+01 2.537105e+01 -1.220458e+00 -2.717377e+00 1.456530e+00 2.742554e+00 2.137295e+00 8.874498e-01 -2.828712e+00 -2.460570e+00 8.155994e-01 -1.101518e-02 1.496612e+00 2.096411e-01 1.298191e+00 -3.275128e-01 8.218254e-01 1.207158e+00 1.454443e+00 -5.691928e-01 -1.273241e-01 6.595744e-01 6.364366e-01 6.011090e-01 9.654452e-01 -8.131437e-03 7.558943e-01 -1.346086e+00
<VARIANCE> 39
 2.403091e+01 3.382435e+01 3.066007e+01 4.038003e+01 7.039190e+01 7.374234e+01 7.067636e+01 5.942247e+01 5.307238e+01 7.496317e+01 3.725222e+01 8.107630e+01 4.331712e+01 1.190644e+00 2.488441e+00 1.756295e+00 2.351603e+00 3.376655e+00 4.435027e+00 3.451282e+00 4.853755e+00 5.904627e+00 4.849655e+00 7.380009e+00 7.567839e+00 9.312628e-01 4.428734e-01 2.879356e-01 3.969040e-01 1.104795e+00 1.186390e+00 1.025311e+00 9.766254e-01 8.899207e-01 1.185054e+00 1.389320e+00 9.069937e-01 1.348878e+00 2.200350e-01
<GCONST> 1.341603e+02
<MIXTURE> 7 6.088738e-02
<MEAN> 39
 4.789509e+00 7.430266e+00 -1.478834e+01 -1.650417e+01 -1.157501e+01 -7.879258e+00 -5.693016e+00 1.770584e+00 -7.093009e+00 3.398877e+00 8.436321e+00 5.765987e+00 7.901449e+00 5.258223e+00 -2.126517e+00 -5.925603e+00 -9.327883e+00 -2.578861e+00 -3.877496e+00 -4.432384e+00 -3.702963e+00 -3.974596e+00 -6.327266e+00 -1.052182e+00 -1.657020e+00 5.052377e+00 -1.428530e+00 -1.280599e+00 1.057515e+00 1.879251e+00 2.055013e+00 1.316422e+00 1.254478e-01 -2.876162e-01 5.246863e-01 -9.615107e-01 -1.106527e+00 -1.300612e+00 4.694076e-01
<VARIANCE> 39
 1.954207e+01 2.173334e+01 5.547847e+01 6.831149e+01 4.312236e+01 5.666129e+01 6.906702e+01 7.396908e+01 7.198690e+01 1.310422e+02 7.049483e+01 7.474496e+01 2.040259e+01 2.773849e+00 5.226932e+00 4.794357e+00 1.076543e+01 1.187945e+01 1.143019e+01 1.449620e+01 1.429698e+01 1.136507e+01 1.072731e+01 1.080600e+01 1.206512e+01 1.893489e+00 6.345500e-01 7.747540e-01 1.315748e+00 1.287919e+00 1.288754e+00 1.539316e+00 2.148085e+00 1.693387e+00 1.098930e+00 2.496928e+00 1.907679e+00 1.845110e+00 2.755491e-01
<GCONST> 1.529934e+02
<MIXTURE> 8 1.167724e-01
<MEAN> 39
 -6.635417e+00 1.597216e+01 -1.240340e+00 -5.175142e+00 -4.557259e+00 -4.376504e+00 -2.517804e+00 -6.860301e+00 6.126831e+00 -1.288255e+01 -2.479293e+00 -1.803061e+00 9.747288e+00 7.177138e+00 3.167254e-02 1.018057e+00 -1.018104e+01 -4.241505e+00 -8.602295e-01 -4.290120e+00 -2.547784e+00 -1.257676e+00 -2.847225e+00 -4.685143e+00 -1.660525e+00 5.778756e+00 -4.423861e-02 -2.312757e+00 -8.464839e-01 -4.901564e-01 7.160096e-02 1.205900e+00 1.510276e-01 6.214237e-01 -6.292862e-01 1.106922e+00 -2.629958e-02 3.298317e-01 8.500135e-01
<VARIANCE> 39
 6.855297e+01 4.568853e+01 6.748263e+01 8.559530e+01 7.901398e+01 7.728518e+01 1.221988e+02 8.591293e+01 9.414865e+01 1.013646e+02 9.870602e+01 1.356619e+02 6.400573e+01 5.966299e+00 1.258849e+01 7.217582e+00 1.033848e+01 1.380370e+01 1.557074e+01 1.148512e+01 8.392130e+00 1.205992e+01 1.029940e+01 1.428634e+01 9.154887e+00 4.137769e+00 1.748631e+00 1.439683e+00 1.099256e+00 1.856607e+00 1.526206e+00 1.629162e+00 2.744547e+00 1.633087e+00 1.896349e+00 2.034581e+00 1.619195e+00 2.977902e+00 9.576976e-01
<GCONST> 1.658026e+02
<MIXTURE> 9 6.445801e-02
<MEAN> 39
 1.249519e+00 2.411711e+00 -3.734794e+00 -3.416418e+01 -1.524407e+01 8.158972e-01 -6.586041e+00 -2.340578e+00 1.137817e+01 -8.130431e+00 -1.559670e+01 4.747638e-01 2.901171e+01 1.467237e+00 -5.478563e+00 -1.956706e+00 -5.488270e+00 -1.977130e+00 2.934140e+00 9.651656e-01 -5.012081e-01 -1.204287e+00 1.260437e+00 -4.571257e+00 7.791322e-01 5.774105e+00 -1.766421e+00 -7.652337e-01 -5.269467e-01 3.956921e+00 1.703730e+00 9.804478e-01 1.495766e+00 -3.198813e-01 -1.202817e+00 7.332746e-01 1.600480e+00 5.273739e-01 -1.553046e+00
<VARIANCE> 39
 3.363740e+01 3.348985e+01 3.982914e+01 7.753672e+01 5.351680e+01 7.614424e+01 4.521154e+01 4.278062e+01 5.962162e+01 8.377477e+01 6.569328e+01 4.605109e+01 2.294925e+01 5.150540e+00 4.496687e+00 3.123946e+00 1.486462e+01 6.004958e+00 6.999728e+00 1.899834e+01 5.393374e+00 7.919514e+00 3.980867e+00 5.205424e+00 8.607574e+00 6.414782e+00 5.678756e-01 6.473516e-01 8.232903e-01 9.752735e-01 1.140513e+00 1.142855e+00 1.629236e+00 6.420636e-01 1.567643e+00 1.354653e+00 1.491930e+00 1.014909e+00 2.252641e-01
<GCONST> 1.455114e+02
<MIXTURE> 10 8.470588e-02
<MEAN> 39
 3.316554e+00 -8.601342e+00 -7.252266e+00 -2.919128e+01 -1.761044e+01 7.471309e+00 -2.459777e+00 -1.098291e+01 -6.821257e-02 -8.150023e+00 -2.336230e+01 3.701349e+00 3.233799e+01 4.675072e-01 -5.702631e+00 -5.796070e-01 1.393054e+00 2.894244e-01 3.890310e+00 5.078914e-01 -2.445992e+00 -4.518252e+00 1.453914e+00 -2.595366e-01 -1.890828e-01 2.232298e+00 -1.126199e+00 9.978136e-01 3.791611e-01 2.905650e+00 1.245886e+00 -5.269857e-01 -2.803968e-01 1.411129e-01 -2.305806e-03 5.609999e-01 2.409168e+00 -3.092975e-01 -1.733137e+00
<VARIANCE> 39
 4.470561e+01 4.364049e+01 4.158665e+01 6.761006e+01 6.074938e+01 5.247577e+01 8.032356e+01 6.638508e+01 6.271751e+01 9.875647e+01 4.860603e+01 6.464036e+01 4.199443e+01 1.760895e+00 4.490059e+00 2.386690e+00 6.115499e+00 3.531091e+00 3.549141e+00 1.173938e+01 4.981301e+00 5.717279e+00 9.631264e+00 1.317400e+01 5.843728e+00 4.059231e+00 9.347443e-01 4.918670e-01 4.972693e-01 1.282249e+00 1.107283e+00 9.105411e-01 1.653857e+00 1.188764e+00 1.500721e+00 1.662869e+00 1.381502e+00 1.622460e+00 2.696844e-01
<GCONST> 1.453317e+02
<MIXTURE> 11 6.041453e-02
<MEAN> 39
 -2.225646e-01 -8.148118e+00 -2.395045e+01 -1.452388e+01 5.693647e+00 -8.953925e+00 -1.394587e+01 -8.809740e+00 -1.272099e+01 -7.587440e+00 -6.886188e+00 -1.054515e+01 2.333335e+01 -1.496513e+00 -3.142412e+00 2.851925e+00 3.792351e+00 3.239743e+00 -3.277502e+00 -5.459989e+00 -1.435140e+00 1.324850e+00 -7.039883e-01 -2.859585e-01 -4.720955e+00 1.116757e+00 -7.276253e-01 9.619181e-01 2.070627e+00 1.858137e+00 -8.196418e-01 5.137970e-01 6.046696e-01 1.241073e+00 9.769966e-01 8.168941e-01 1.170776e+00 9.350550e-01 -1.319079e+00
<VARIANCE> 39
 1.268646e+01 2.303256e+01 5.842285e+01 8.621758e+01 5.484492e+01 5.240800e+01 1.941015e+02 1.942940e+02 6.180418e+01 6.520491e+01 7.047298e+01 8.625509e+01 3.777498e+01 1.387635e+00 2.358112e+00 4.119106e+00 4.781882e+00 5.785329e+00 1.236755e+01 6.089435e+00 8.624925e+00 4.891694e+00 7.824178e+00 8.220989e+00 8.160321e+00 1.496085e+00 5.015705e-01 5.088219e-01 1.580114e+00 1.496277e+00 1.845927e+00 2.438514e+00 3.242829e+00 2.836173e+00 1.359757e+00 1.188321e+00 1.457433e+00 1.882675e+00 1.811153e-01
<GCONST> 1.486761e+02
<MIXTURE> 12 4.958354e-02
<MEAN> 39
 6.561041e+00 3.599957e+00 -2.373180e+01 -2.140011e+01 -8.616876e+00 -6.335752e+00 -2.775660e+00 -1.112698e+00 -1.368917e+01 -5.146041e+00 -7.967032e-01 3.152073e+00 1.765382e+01 4.191677e+00 -3.911209e+00 -6.957154e+00 -8.086040e+00 -3.159931e-01 -4.725152e+00 -3.825551e+00 -5.647078e+00 -3.680771e+00 -5.748731e+00 -3.427750e+00 -3.686132e+00 5.610811e+00 -2.073010e+00 -8.640617e-01 1.697605e+00 3.145000e+00 2.005892e+00 1.025860e+00 5.870387e-04 2.116100e-01 1.485171e+00 4.849084e-01 -7.893564e-04 -1.381054e+00 -4.594796e-01
<VARIANCE> 39
 1.508992e+01 2.685660e+01 5.744304e+01 8.595465e+01 6.209169e+01 4.832431e+01 7.179769e+01 6.729668e+01 4.634997e+01 6.441211e+01 9.305044e+01 1.006613e+02 2.998065e+01 2.953089e+00 5.860631e+00 6.323905e+00 8.932084e+00 1.136461e+01 1.127316e+01 1.533564e+01 1.388086e+01 6.738082e+00 5.671478e+00 7.371536e+00 9.294957e+00 3.078858e+00 2.836049e-01 4.820740e-01 1.032308e+00 1.250941e+00 1.098462e+00 1.848988e+00 1.595119e+00 1.534921e+00 8.664300e-01 9.331110e-01 1.302897e+00 2.681713e+00 3.953276e-01
<GCONST> 1.492967e+02
<MIXTURE> 13 6.797124e-02
<MEAN> 39
 2.605318e+00 -4.192006e+00 -2.600516e+01 -2.582298e+01 -1.829089e+00 -3.418879e+00 -4.977466e+00 -6.446594e+00 -1.391796e+01 -1.403532e+01 -3.405264e+00 -5.854897e+00 2.266005e+01 1.122737e-01 -4.623518e+00 -2.867140e+00 -2.060752e+00 3.570352e+00 -1.890776e+00 -4.590772e+00 -3.886882e+00 -1.397948e+00 -3.782340e+00 -2.211154e+00 -4.415705e+00 4.593989e+00 -1.882315e+00 1.599137e-01 2.737292e+00 3.882286e+00 1.299429e+00 6.576308e-01 2.928180e-02 1.049039e+00 1.614929e+00 1.473718e+00 3.003934e-01 -4.604831e-01 -1.351452e+00
<VARIANCE> 39
 1.862357e+01 2.085598e+01 5.544255e+01 5.910972e+01 6.124798e+01 4.111048e+01 1.024367e+02 8.093306e+01 8.129930e+01 4.371022e+01 1.062029e+02 8.150128e+01 3.181404e+01 2.938074e+00 2.154604e+00 5.417285e+00 1.250623e+01 1.048229e+01 7.398728e+00 8.107623e+00 1.041266e+01 8.639055e+00 8.903932e+00 8.684406e+00 8.906561e+00 2.468845e+00 3.463280e-01 5.581300e-01 9.761515e-01 6.651477e-01 1.146615e+00 1.624804e+00 1.779848e+00 1.495745e+00 1.219893e+00 1.135053e+00 2.014858e+00 1.304458e+00 2.813127e-01
<GCONST> 1.472819e+02
<MIXTURE> 14 4.344199e-02
<MEAN> 39
 -3.926409e+00 -3.200195e-01 -1.123168e+01 -3.241231e+01 -5.750901e+00 1.132923e+00 -9.495329e+00 -2.519516e+00 1.088229e-01 -1.111024e+01 -9.681909e+00 6.397030e-01 3.351931e+01 -8.792597e-01 -3.720738e+00 -4.607395e-01 1.370422e+00 2.601514e+00 2.804976e+00 -1.358046e+00 -2.425215e+00 -2.380905e+00 1.058550e+00 -1.682802e-01 3.743112e+00 2.531204e+00 -3.172743e-01 -4.768671e-02 9.408891e-01 3.137252e+00 8.169315e-01 -1.669473e-01 4.917425e-01 -4.662869e-01 3.877987e-02 1.940966e-01 1.202255e+00 3.663217e-02 -2.109428e+00
<VARIANCE> 39
 1.056548e+01 3.400814e+01 2.017905e+01 4.638453e+01 4.563683e+01 3.812199e+01 4.829667e+01 4.278062e+01 4.581689e+01 4.010082e+01 4.722826e+01 3.544129e+01 3.157539e+01 4.846055e-01 1.062952e+00 1.472208e+00 5.360050e+00 2.361638e+00 3.016772e+00 4.860655e+00 5.473712e+00 3.627109e+00 3.474861e+00 4.480759e+00 4.303380e+00 2.789894e+00 3.085681e-01 3.489521e-01 2.800560e-01 1.623598e+00 7.201498e-01 5.442104e-01 7.057768e-01 6.203334e-01 9.395937e-01 8.481435e-01 6.270933e-01 8.486912e-01 3.102343e-01
<GCONST> 1.242479e+02
<MIXTURE> 15 2.956723e-02
<MEAN> 39
 -1.733215e+00 1.459458e+01 -5.054707e+00 -2.745543e+01 -7.491661e+00 -1.614110e+01 -1.445800e+01 -2.717287e+00 -1.750666e+00 -5.367694e+00 9.755737e+00 1.610518e+00 1.588523e+01 7.256078e+00 -4.895286e+00 -3.995621e-01 -1.021669e+01 -6.975382e+00 -2.589157e+00 -5.629939e+00 -5.609224e+00 -9.152507e-01 -5.610329e+00 -1.668440e+00 1.218934e+00 4.135642e+00 -8.764128e-01 -1.704409e+00 -1.872151e-01 3.263410e+00 2.460004e-02 2.203563e+00 1.796272e+00 -5.128205e-01 5.956795e-02 1.382444e-01 -1.624477e+00 -6.132825e-01 -3.118434e-01
<VARIANCE> 39
 3.979622e+01 7.228466e+01 7.574088e+01 1.019548e+02 4.518676e+01 1.502116e+02 7.684287e+01 4.314677e+01 6.352588e+01 9.868846e+01 1.666530e+02 1.218085e+02 3.012767e+01 5.875344e+00 1.671586e+01 1.161120e+01 1.628352e+01 1.334305e+01 1.716130e+01 1.358917e+01 1.269594e+01 2.724394e+01 1.283616e+01 1.736110e+01 2.719525e+01 1.520329e+00 2.077408e+00 2.107220e+00 1.839328e+00 3.076036e+00 2.399821e+00 4.622541e+00 3.169585e+00 2.584504e+00 2.402735e+00 2.122131e+00 3.719285e+00 2.567719e+00 2.704929e-01
<GCONST> 1.707337e+02
<MIXTURE> 16 6.213398e-02
<MEAN> 39
 3.105762e+00 7.250329e+00 -2.335438e+00 -2.599593e+01 -1.669458e+01 -3.958902e+00 -1.054786e+01 -8.722358e+00 4.863635e+00 -1.034182e+01 -1.443442e+01 -7.083111e-01 2.194098e+01 5.873657e+00 -4.841479e+00 -2.385083e-01 -9.815821e+00 -5.446814e+00 7.937186e-01 -1.842649e+00 -2.380835e+00 -2.571165e+00 -9.881818e-01 -6.559155e+00 -1.340698e+00 7.238366e+00 -1.560597e+00 -1.773123e+00 -1.064685e+00 2.560814e+00 1.310128e+00 1.305606e+00 1.508935e+00 7.610297e-01 -7.607226e-01 1.249202e+00 1.393649e+00 2.756159e-01 -2.533157e-01
<VARIANCE> 39
 2.832192e+01 3.562178e+01 5.254440e+01 3.914002e+01 4.261524e+01 6.798783e+01 5.880635e+01 5.599235e+01 6.814331e+01 1.239239e+02 6.088227e+01 3.544129e+01 4.111079e+01 6.736766e+00 8.238229e+00 8.150169e+00 9.722243e+00 7.280384e+00 9.732203e+00 1.375685e+01 1.047516e+01 1.206477e+01 7.846662e+00 6.729562e+00 1.105102e+01 4.051090e+00 5.827779e-01 5.802135e-01 6.266058e-01 1.245476e+00 8.706861e-01 1.029643e+00 1.746389e+00 6.226688e-01 1.460499e+00 2.044310e+00 2.172669e+00 9.025312e-01 5.527952e-01
<GCONST> 1.504232e+02
<STATE> 4
<NUMMIXES> 16
<MIXTURE> 1 6.231678e-02
<MEAN> 39
 7.211818e-01 5.188046e+00 -3.405759e+00 -1.551586e+01 -2.362654e+00 -2.218266e+00 -1.822083e+00 1.523945e+00 1.030095e+00 -8.547122e+00 4.254755e-01 -2.596693e+00 9.125953e+00 -5.372953e-01 -8.912404e-02 1.178206e+00 1.128515e+00 5.120461e-01 1.843351e+00 8.159899e-01 -3.688456e-01 4.715743e-02 2.140546e-01 -8.623332e-01 5.152668e-02 -3.586001e-01 -4.992422e-01 3.016204e-01 1.748975e-01 1.162005e+00 -1.871309e-01 -2.049753e-01 -2.845049e-01 -2.696398e-01 1.515757e-01 6.791872e-01 3.718941e-03 1.817165e-01 -4.499763e-01
<VARIANCE> 39
 2.318419e+01 6.995028e+01 8.396931e+01 2.810783e+02 1.351954e+02 1.422956e+02 1.867288e+02 1.579619e+02 7.512457e+01 1.454060e+02 7.441267e+01 8.516990e+01 2.733864e+02 3.109062e+00 4.282874e+00 8.572378e+00 1.332461e+01 1.135950e+01 8.943830e+00 1.406685e+01 1.007755e+01 1.040919e+01 8.699910e+00 1.323183e+01 7.012415e+00 1.689633e+00 1.239496e+00 1.073927e+00 1.228688e+00 4.114488e+00 2.021008e+00 2.054488e+00 2.709787e+00 1.504509e+00 1.535910e+00 3.300781e+00 1.799614e+00 2.145781e+00 6.379891e-01
<GCONST> 1.666815e+02
<MIXTURE> 2 5.676952e-02
<MEAN> 39
 -2.766830e+00 -5.676721e+00 -6.456598e+00 -1.272064e+01 7.204417e+00 5.498403e-01 -1.578260e+01 -1.195334e+01 -2.153348e+00 -1.211725e+01 2.321881e+00 2.400427e+00 3.100641e+01 -1.797459e-01 -1.190073e+00 1.619551e+00 1.768688e+00 -9.798175e-01 5.319921e-01 -5.257199e-01 -1.577162e+00 1.092019e+00 3.694257e-01 -2.909286e-01 6.146578e-01 -1.801956e-01 2.176762e-01 5.127987e-01 -2.160277e-01 -3.952383e-01 -3.649256e-01 -3.565232e-02 5.117286e-01 1.152100e-01 2.026419e-01 -1.947574e-01 -1.791123e-01 -3.051162e-01 -3.180268e-01
<VARIANCE> 39
 1.484196e+01 2.018053e+01 2.017905e+01 3.363575e+01 3.029366e+01 3.812199e+01 4.100617e+01 4.402035e+01 4.145007e+01 4.010082e+01 3.725222e+01 3.544129e+01 2.393672e+01 4.190793e-01 9.928380e-01 1.472208e+00 2.078455e+00 2.687621e+00 3.016772e+00 3.266579e+00 3.663102e+00 3.627109e+00 3.474861e+00 3.456655e+00 3.173481e+00 4.403150e-01 7.464966e-02 1.775219e-01 2.720488e-01 3.604423e-01 4.306071e-01 5.442104e-01 5.643459e-01 6.203334e-01 6.514323e-01 6.245239e-01 6.270933e-01 5.603799e-01 9.811935e-02
<GCONST> 1.117388e+02
<MIXTURE> 3 4.958169e-02
<MEAN> 39
 4.319134e+00 -7.388941e+00 -3.281319e+00 -2.487173e+01 -6.102255e+00 1.272974e+01 4.915489e+00 -5.936980e+00 2.538193e+00 -4.929123e+00 -1.873482e+01 6.002411e+00 2.696657e+01 1.326770e-01 1.491893e+00 4.158857e-01 -9.279301e-01 2.480144e-01 -9.089550e-01 -1.123699e+00 1.113401e+00 1.349812e+00 -4.527056e-01 7.149174e-01 -4.665726e-01 -7.510558e-01 -4.808840e-02 6.999877e-01 9.372986e-02 -3.330776e-01 -9.854105e-02 -4.179172e-01 -6.174483e-01 5.156978e-01 5.169516e-01 -1.501515e-01 5.407429e-01 -4.361036e-01 -1.950671e-01
<VARIANCE> 39
 4.158751e+01 7.848435e+01 2.017905e+01 2.770768e+01 3.482692e+01 3.812199e+01 4.100617e+01 4.278062e+01 4.145007e+01 4.010082e+01 3.813189e+01 3.544129e+01 1.177584e+01 4.190793e-01 1.135177e+00 1.472208e+00 2.243938e+00 2.361638e+00 3.016772e+00 3.266579e+00 3.663102e+00 4.360835e+00 3.474861e+00 3.456655e+00 3.204605e+00 2.549851e-01 7.464966e-02 1.775219e-01 2.720488e-01 3.604423e-01 4.306071e-01 5.442104e-01 5.975517e-01 6.203334e-01 6.514323e-01 6.245239e-01 6.270933e-01 5.603799e-01 4.441828e-02
<GCONST> 1.123519e+02
<MIXTURE> 4 5.285573e-02
<MEAN> 39
 -4.181889e-01 -1.699921e+01 -9.006336e+00 -1.812870e+01 5.558614e+00 6.218597e+00 -1.466191e+01 -1.857903e+01 2.370091e+00 -1.868641e+01 -1.621987e+00 -1.535352e+00 2.209839e+01 7.424873e-02 3.766946e-01 3.109940e-01 8.643491e-02 6.217156e-01 1.130212e-02 -2.189832e-01 1.935939e-01 -1.044219e-01 1.323162e-02 1.909506e-01 -5.209695e-02 -4.803079e-01 8.973849e-02 9.335618e-01 -4.620093e-01 -4.938889e-01 -2.779572e-02 -3.407608e-01 1.518254e-01 7.106251e-01 -6.569965e-01 2.128328e-01 4.828150e-01 -7.899330e-01 -2.911718e-01
<VARIANCE> 39
 7.559601e+00 2.974854e+01 2.017905e+01 2.995448e+01 4.153376e+01 5.264549e+01 4.100617e+01 4.278062e+01 4.145007e+01 7.426678e+01 6.358416e+01 1.982124e+02 1.704556e+01 4.190793e-01 2.701014e+00 1.601949e+00 2.078455e+00 2.361638e+00 3.016772e+00 3.598502e+00 3.663102e+00 3.968503e+00 3.474861e+00 3.505942e+00 5.602747e+00 2.650844e-01 7.464966e-02 1.799712e-01 2.720488e-01 3.604423e-01 4.306071e-01 5.442104e-01 6.413511e-01 6.203334e-01 6.514323e-01 7.495818e-01 7.471706e-01 8.235755e-01 4.722694e-02
<GCONST> 1.158499e+02
<MIXTURE> 5 9.086420e-02
<MEAN> 39
 -9.946806e-01 -1.537412e+01 -1.296021e+01 -1.483131e+01 2.083730e+00 2.115916e+00 -2.622899e+01 -6.144251e+00 -1.086079e+01 -1.698895e+01 1.174186e+01 -1.503753e+01 2.659293e+01 6.449530e-02 -1.732900e-01 5.399484e-01 3.472969e-01 -4.767970e-01 7.666878e-01 -1.656843e-01 -6.178809e-01 7.146159e-01 -1.081927e+00 8.331398e-01 1.006565e+00 -7.739113e-02 8.252839e-02 3.178057e-01 -2.124747e-01 -2.131728e-01 -2.940436e-02 -1.454212e-01 6.754686e-01 2.651235e-02 1.233871e-02 5.885828e-02 -4.388365e-01 8.559082e-02 -1.512415e-01
<VARIANCE> 39
 2.067452e+01 2.037263e+01 2.271073e+01 2.770768e+01 6.120798e+01 5.669267e+01 4.100617e+01 5.928801e+01 4.580053e+01 5.649799e+01 3.725222e+01 3.850589e+01 1.052736e+01 6.715512e-01 9.936675e-01 1.472208e+00 2.078455e+00 2.361638e+00 3.016772e+00 3.266579e+00 3.663102e+00 3.627109e+00 3.474861e+00 3.456655e+00 3.173481e+00 2.549851e-01 1.344635e-01 1.775219e-01 2.720488e-01 3.604423e-01 4.306071e-01 5.442104e-01 5.643459e-01 6.203334e-01 6.514323e-01 6.245239e-01 6.270933e-01 5.603799e-01 4.441828e-02
<GCONST> 1.126988e+02
<MIXTURE> 6 6.699971e-02
<MEAN> 39
 -1.679400e+00 -1.008519e+01 -1.586392e+01 -4.284821e+00 7.362473e+00 -2.310407e+01 -2.359068e+01 -1.053762e+01 -8.296542e+00 -1.052269e+01 -6.086397e+00 -1.381201e+01 2.403851e+01 -4.162080e-01 -6.216070e-02 3.265163e+00 1.874691e+00 -1.531583e+00 -2.851944e+00 -2.528549e+00 1.764627e+00 1.548096e+00 -1.971597e+00 -6.627046e-01 -1.382617e+00 -4.420619e-01 3.337059e-01 6.341415e-01 -5.678563e-01 -1.289684e+00 -9.284649e-01 1.332378e+00 1.220077e+00 3.799138e-01 -4.290039e-01 -2.313949e-01 1.157366e-01 8.240374e-01 -2.354846e-01
<VARIANCE> 39
 2.173356e+01 3.128286e+01 5.973234e+01 7.040092e+01 6.935708e+01 7.810008e+01 9.599772e+01 1.529679e+02 5.188689e+01 8.769291e+01 6.190020e+01 1.205862e+02 3.253701e+01 6.611407e-01 1.350793e+00 5.585844e+00 7.601685e+00 6.247754e+00 1.106010e+01 7.492627e+00 5.738336e+00 4.868997e+00 4.794729e+00 4.756800e+00 1.125433e+01 3.560850e-01 9.317213e-02 3.719929e-01 7.131058e-01 6.736940e-01 1.528068e+00 1.036211e+00 1.223214e+00 1.564729e+00 1.001757e+00 1.262839e+00 9.791710e-01 1.767516e+00 9.852089e-02
<GCONST> 1.387682e+02
<MIXTURE> 7 5.915701e-02
<MEAN> 39
 2.994757e+00 -1.636399e+01 -6.867676e+00 -2.178498e+01 -1.568351e+01 1.353869e+01 -4.692418e+00 -1.703979e+01 -9.109035e+00 -3.590801e+00 -1.688435e+01 1.253638e+00 3.356107e+01 4.238770e-01 -3.179739e+00 4.857185e-01 3.706996e+00 8.609433e-01 8.254688e-01 -1.129440e+00 -1.861502e+00 -3.128273e+00 1.793002e+00 2.873358e+00 -1.773912e+00 3.900937e-02 -1.108278e-01 1.352551e+00 3.654127e-01 2.458781e-01 2.277293e-01 -1.449222e+00 -4.085642e-01 5.995243e-01 1.119243e+00 -4.036023e-01 6.294129e-01 -3.213991e-01 -8.490669e-01
<VARIANCE> 39
 3.763052e+01 3.502768e+01 5.235775e+01 6.366388e+01 4.508067e+01 6.433338e+01 1.253747e+02 4.630660e+01 7.408437e+01 5.710317e+01 6.814947e+01 3.972982e+01 4.055701e+01 4.190793e-01 1.666963e+00 1.644111e+00 3.606033e+00 3.909763e+00 5.180601e+00 1.410390e+01 3.663102e+00 8.565514e+00 8.035227e+00 6.559906e+00 4.516614e+00 3.043221e-01 1.671684e-01 4.047758e-01 3.314950e-01 9.375093e-01 4.306071e-01 5.442104e-01 1.483635e+00 6.203334e-01 9.750497e-01 1.023364e+00 1.510894e+00 6.992552e-01 2.701991e-01
<GCONST> 1.317219e+02
<MIXTURE> 8 6.920929e-02
<MEAN> 39
 -2.299751e+00 -1.525279e+01 -8.707098e+00 -1.648161e+01 8.759524e-01 7.139853e+00 -1.828331e+01 -2.004392e+01 -5.250843e+00 -8.832380e+00 -2.037502e+00 3.738510e-01 3.562302e+01 -2.366240e-01 -2.171253e+00 2.024717e+00 3.778670e+00 1.183763e+00 -1.115290e+00 -3.082655e+00 -1.854924e+00 4.974189e-01 2.227246e+00 4.306172e-01 -4.323044e-01 -7.420625e-02 1.234107e-01 9.308156e-01 1.086110e-01 -4.629719e-01 -1.022590e+00 -7.812815e-01 5.708472e-01 1.067705e+00 3.198974e-01 -3.279260e-01 -7.063611e-01 -6.658300e-01 -5.269575e-01
<VARIANCE> 39
 2.781187e+01 3.929248e+01 5.549764e+01 5.754275e+01 9.358955e+01 9.236663e+01 8.224244e+01 4.278062e+01 4.145007e+01 5.249646e+01 5.162901e+01 1.252224e+02 4.860068e+01 4.190793e-01 1.749304e+00 1.472208e+00 2.078455e+00 4.706490e+00 4.426615e+00 6.448886e+00 5.196198e+00 5.459671e+00 5.103917e+00 6.544510e+00 6.935211e+00 3.546075e-01 8.903860e-02 1.775219e-01 3.686792e-01 4.297729e-01 4.306071e-01 7.040154e-01 9.212211e-01 6.203334e-01 6.514323e-01 6.245239e-01 8.601553e-01 1.227825e+00 1.116879e-01
<GCONST> 1.269987e+02
<MIXTURE> 9 6.023859e-02
<MEAN> 39
 -1.082152e+00 -1.363220e+01 -1.793781e+01 -1.487280e+01 7.673641e+00 -3.922104e+00 -2.055364e+01 -6.858323e+00 -1.149402e+01 -8.711510e+00 4.537605e+00 -1.796228e+01 2.443095e+01 -3.231548e-01 -1.842536e+00 8.979063e-01 9.222186e-01 3.982234e-01 2.595951e-01 -2.761332e+00 -1.288372e+00 -1.715745e-01 -4.076184e-01 2.458444e+00 6.394804e-01 5.260387e-01 4.405801e-01 5.510793e-01 -1.148260e-01 -4.073217e-01 -7.536343e-01 2.532908e-01 6.303738e-01 5.989985e-01 -1.261692e-01 -5.288547e-01 -1.859483e-01 1.146201e+00 -4.794486e-01
<VARIANCE> 39
 2.131178e+01 3.016341e+01 3.023289e+01 3.276060e+01 7.413789e+01 6.668175e+01 4.100617e+01 1.192815e+02 4.732843e+01 8.059214e+01 3.787077e+01 4.015495e+01 1.663794e+01 9.277451e-01 1.773072e+00 2.712038e+00 3.116355e+00 2.617772e+00 4.545365e+00 3.266579e+00 6.928747e+00 4.060604e+00 4.769327e+00 5.635887e+00 3.443065e+00 3.555692e-01 2.426095e-01 2.058633e-01 3.999176e-01 4.301507e-01 4.587465e-01 6.947789e-01 5.643459e-01 7.863864e-01 6.514323e-01 6.245239e-01 8.462863e-01 1.157973e+00 1.087509e-01
<GCONST> 1.236994e+02
<MIXTURE> 10 5.254372e-02
<MEAN> 39
 -5.209804e+00 -1.631222e+01 -3.862909e+00 -9.456060e+00 2.032943e+00 -1.206984e+01 -2.986192e+01 -9.236732e+00 -4.970592e+00 -1.705642e+01 1.369835e-01 -2.028245e+01 2.767670e+01 4.427741e-01 6.865885e-01 1.312636e-01 -5.207344e-01 7.684921e-02 1.343645e-01 -1.488336e-01 1.005465e+00 -9.788788e-01 -4.339459e-01 -4.997355e-02 -3.255882e-01 -8.034945e-01 1.555035e-01 4.385157e-01 -8.922505e-01 -5.586028e-02 3.446999e-01 -1.011301e-01 6.433092e-01 -6.060461e-02 -3.021746e-01 3.544886e-01 7.073226e-03 2.972457e-01 -3.909565e-02
<VARIANCE> 39
