~o
<STREAMINFO> 1 39
<VECSIZE> 39<NULLD><MFCC_D_A_Z_0><DIAGC>
~h "b"
<BEGINHMM>
<NUMSTATES> 5
<STATE> 2
<NUMMIXES> 16
<MIXTURE> 1 4.484104e-02
<MEAN> 39
 -1.765130e+00 4.410677e-01 2.771426e+00 3.959337e+00 4.266555e+00 6.552651e+00 3.040982e+00 1.567271e+00 1.228998e+00 4.015316e+00 2.333477e+00 9.927366e-01 -5.413510e+00 -2.272308e-02 3.057786e-02 5.276620e-02 1.267638e-01 4.545951e-02 4.822430e-02 5.367244e-02 2.027234e-01 1.898208e-01 -1.611222e-01 -4.359375e-01 1.278087e-01 -8.322323e-02 1.758266e-01 -4.178044e-02 -1.723269e-01 -1.342858e-01 -2.121133e-01 -3.996636e-01 -8.057420e-02 6.979772e-02 -2.549616e-02 -2.709228e-01 -1.657864e-01 9.398356e-03 2.970049e-01
<VARIANCE> 39
 1.411855e+00 4.334832e+00 6.996077e+00 5.857126e+00 9.644624e+00 1.330058e+01 9.506517e+00 1.619870e+01 8.565577e+00 1.502030e+01 1.055281e+01 8.717937e+00 1.661897e+00 9.324332e-02 1.911889e-01 4.503175e-01 6.893737e-01 1.049903e+00 1.228522e+00 1.279882e+00 1.097883e+00 1.306841e+00 1.639145e+00 8.409837e-01 7.781914e-01 4.733916e-02 3.024931e-02 6.157715e-02 1.115948e-01 9.865724e-02 1.293412e-01 3.049086e-01 2.414624e-01 3.119072e-01 2.049219e-01 2.848833e-01 2.052802e-01 1.691793e-01 6.255597e-02
<GCONST> 6.407852e+01
<MIXTURE> 2 8.909965e-02
<MEAN> 39
 3.412524e+00 2.816473e+00 2.421568e+00 1.506557e+00 -1.257329e+00 -5.778635e+00 -5.966877e+00 -4.558012e+00 -5.006904e+00 -2.718497e+00 -2.505516e+00 -2.342635e-01 -1.655151e+00 4.584473e-02 7.630957e-02 4.244740e-02 6.993658e-02 8.900123e-02 1.193093e-01 1.691345e-02 1.984244e-01 5.220915e-01 4.374473e-01 1.863150e-01 6.378426e-02 -1.932360e-02 -1.841206e-01 -3.243181e-01 -2.534122e-01 -9.095071e-02 1.366936e-01 5.757391e-01 5.042629e-01 3.605582e-01 3.676149e-01 2.410750e-01 1.887224e-01 3.664331e-02 6.187409e-02
<VARIANCE> 39
 4.119984e+00 6.528843e+00 9.754870e+00 1.078514e+01 1.364584e+01 2.567060e+01 2.049200e+01 2.367324e+01 1.718180e+01 1.834382e+01 1.715627e+01 2.066066e+01 4.143279e+00 5.778612e-01 4.454889e-01 6.378105e-01 8.245476e-01 1.281285e+00 2.159064e+00 2.096984e+00 1.806425e+00 1.666570e+00 1.883712e+00 1.828572e+00 1.550119e+00 3.143350e-01 7.018021e-02 9.755919e-02 1.604784e-01 1.605929e-01 2.761183e-01 4.776488e-01 4.057155e-01 3.716415e-01 3.374309e-01 3.718370e-01 3.113273e-01 3.510251e-01 6.832303e-02
<GCONST> 8.655872e+01
<MIXTURE> 3 8.038987e-02
<MEAN> 39
 -1.416777e+00 9.710662e-01 2.512280e+00 3.254410e+00 3.773880e+00 4.785043e+00 3.994361e+00 2.556502e+00 1.427565e+00 2.465004e+00 -1.230907e-01 -4.548569e-01 -4.919502e+00 -2.711924e-01 -1.020786e-01 3.677386e-02 6.133908e-02 3.134230e-01 4.751660e-01 3.850217e-01 3.217883e-01 3.437320e-01 1.401649e-01 3.393367e-02 -1.328005e-01 6.760011e-02 3.926159e-01 -4.441249e-01 -4.771383e-01 -4.027346e-01 -5.533945e-01 -5.516080e-01 -3.413028e-01 -4.102674e-01 -1.619830e-01 -2.293223e-01 1.073175e-01 1.730145e-01 8.454524e-01
<VARIANCE> 39
 2.912825e+00 5.885965e+00 8.163281e+00 1.016633e+01 1.174292e+01 1.533356e+01 1.478532e+01 1.527682e+01 1.355787e+01 1.483052e+01 1.131040e+01 1.151617e+01 2.941863e+00 4.116307e-01 6.050459e-01 6.003874e-01 1.242745e+00 1.445294e+00 1.821711e+00 1.403667e+00 1.917913e+00 1.371730e+00 1.789324e+00 1.222132e+00 1.307521e+00 1.071257e+00 6.760975e-02 1.278742e-01 1.756398e-01 3.188211e-01 3.213396e-01 4.376482e-01 3.188333e-01 3.030405e-01 3.163881e-01 3.476709e-01 2.644824e-01 3.162360e-01 9.692690e-02
<GCONST> 8.355995e+01
<MIXTURE> 4 7.106099e-02
<MEAN> 39
 -6.905927e-01 1.291878e+00 9.712163e-01 1.376262e+00 1.692746e+00 3.305250e+00 4.895309e+00 3.648981e+00 1.941554e+00 6.140746e-01 2.083870e-02 -7.825073e-01 3.222009e-01 1.401464e+00 -2.650610e+00 -1.794651e+00 -1.441085e+00 -1.427194e+00 -1.438033e+00 -9.392614e-01 -1.983068e+00 -1.030961e+00 -1.091433e+00 -1.396400e-01 7.653247e-02 4.482233e+00 3.027800e-02 -6.607602e-01 -1.935722e-01 -3.034691e-01 -1.995013e-01 -2.009730e-01 -4.574899e-01 -6.374604e-01 -2.444863e-01 -1.569299e-01 4.843201e-03 8.902821e-02 3.013466e-01
<VARIANCE> 39
 5.086012e+00 8.982872e+00 1.126283e+01 1.447591e+01 1.554248e+01 2.119141e+01 1.901315e+01 1.263774e+01 1.392778e+01 1.752281e+01 1.110273e+01 1.342493e+01 1.717193e+01 5.860089e-01 1.361245e+00 1.257492e+00 2.375945e+00 1.687669e+00 2.072276e+00 2.442865e+00 2.618402e+00 3.404804e+00 1.875433e+00 1.375439e+00 2.557634e+00 1.745103e+00 1.283235e-01 2.872481e-01 2.362347e-01 3.050397e-01 3.582059e-01 3.873619e-01 4.903289e-01 3.621122e-01 3.680998e-01 4.489749e-01 2.662891e-01 3.662153e-01 4.355105e-01
<GCONST> 9.826838e+01
<MIXTURE> 5 7.293735e-02
<MEAN> 39
 -1.654866e+00 9.480464e-01 2.339036e+00 9.239173e-01 1.015282e+00 2.367172e+00 2.366618e+00 2.384737e+00 1.752634e+00 2.774210e+00 2.104705e+00 2.383216e+00 -5.341969e+00 1.014023e+00 7.721336e-01 2.826652e-01 -1.206709e-01 -9.351528e-01 -2.224514e+00 -2.175080e+00 -2.079791e+00 -1.830526e+00 -1.031366e+00 -4.486442e-01 2.334231e-01 6.028669e-01 3.769123e-01 1.730402e-01 2.469014e-02 1.521757e-02 -1.539940e-01 -6.112220e-01 -6.152804e-01 -5.342386e-01 -5.456071e-01 -4.882353e-01 -3.050151e-01 -2.193688e-01 3.149066e-01
<VARIANCE> 39
 3.043234e+00 9.600384e+00 8.749284e+00 1.015998e+01 1.367056e+01 1.655425e+01 1.499648e+01 1.824507e+01 1.783027e+01 2.004193e+01 1.728444e+01 1.253043e+01 4.474132e+00 2.595761e-01 4.101950e-01 8.328905e-01 9.659630e-01 1.308963e+00 2.554097e+00 1.857222e+00 1.831304e+00 1.719150e+00 1.752445e+00 2.002833e+00 1.971059e+00 1.776069e-01 5.348041e-02 8.584485e-02 1.226778e-01 1.500329e-01 2.738478e-01 3.890527e-01 4.026563e-01 3.962300e-01 3.602076e-01 4.473997e-01 3.491420e-01 2.536000e-01 3.526739e-02
<GCONST> 8.300165e+01
<MIXTURE> 6 5.516282e-02
<MEAN> 39
 -5.216234e-01 -4.330601e+00 -4.268867e+00 1.532818e+00 3.738101e+00 6.017619e+00 4.938566e+00 3.601848e+00 2.269922e-01 6.561870e-01 1.719877e+00 2.913467e+00 -4.463417e+00 -1.002192e-01 1.741637e-01 2.219128e-01 1.347483e-01 1.967805e-01 1.727446e-01 -1.007668e-01 1.214571e-01 2.489384e-01 3.595355e-01 2.633328e-01 -1.898476e-02 -2.086360e-01 7.083641e-02 2.345008e-01 3.279873e-01 1.927685e-01 -1.324870e-01 -4.842273e-01 -4.721466e-01 -2.959600e-01 -8.691110e-03 2.553578e-02 -1.925115e-01 -1.705963e-01 1.055470e-01
<VARIANCE> 39
 2.470088e+00 8.121158e+00 1.013844e+01 9.690614e+00 8.175565e+00 1.540393e+01 1.331630e+01 2.057037e+01 1.740937e+01 1.817363e+01 1.367108e+01 1.244782e+01 3.515037e+00 1.047251e-01 3.163614e-01 6.736787e-01 8.161867e-01 1.042238e+00 1.493094e+00 1.578454e+00 1.490192e+00 1.533868e+00 1.653507e+00 1.453794e+00 1.207009e+00 4.733916e-02 3.871059e-02 4.913985e-02 1.039739e-01 1.762189e-01 1.871923e-01 3.510941e-01 2.959865e-01 3.753537e-01 3.029262e-01 3.155703e-01 3.197658e-01 2.925723e-01 2.875044e-02
<GCONST> 7.414768e+01
<MIXTURE> 7 5.091050e-02
<MEAN> 39
 2.317678e+00 4.194820e+00 4.115703e+00 2.547937e+00 -8.452680e-01 -3.319408e+00 -6.292006e+00 -5.599412e+00 -6.510805e+00 -4.500855e+00 -2.925331e+00 -1.074647e+00 -3.673493e+00 1.533279e+00 8.353634e-01 1.744761e-01 4.097454e-02 -2.414621e-01 -2.278529e+00 -2.622962e+00 -1.677955e+00 -1.541505e+00 -8.659549e-01 -1.002424e+00 -7.378942e-01 1.028880e+00 -1.390057e-01 -5.288386e-01 -5.678601e-01 -2.679214e-01 1.280350e-01 3.112944e-01 6.744118e-01 8.779698e-01 7.847410e-01 5.976351e-01 4.056386e-01 1.310343e-01 3.368963e-01
<VARIANCE> 39
 3.908519e+00 8.042497e+00 9.754813e+00 1.077839e+01 1.102275e+01 2.053253e+01 2.039557e+01 1.763162e+01 1.524127e+01 1.015599e+01 1.177043e+01 9.103297e+00 5.248241e+00 3.421425e-01 4.573974e-01 1.085316e+00 1.167632e+00 1.429557e+00 2.068402e+00 2.410312e+00 2.575607e+00 2.444567e+00 2.336440e+00 2.176041e+00 1.612196e+00 2.083154e-01 8.238086e-02 1.926302e-01 3.042453e-01 1.714465e-01 2.323761e-01 4.310324e-01 5.657237e-01 4.353382e-01 3.367273e-01 2.430707e-01 1.975468e-01 2.450075e-01 1.437747e-01
<GCONST> 8.691290e+01
<MIXTURE> 8 4.532357e-02
<MEAN> 39
 -1.325489e+00 5.625521e-01 2.372928e+00 6.267297e-01 -3.973024e-01 3.498899e-01 7.561771e-01 -7.468842e-01 -8.118166e-01 -7.014053e-01 7.071697e-01 8.246654e-01 -4.781975e-01 1.240799e+00 -1.290425e+00 -1.731242e+00 -1.078219e+00 -9.474033e-01 -1.207711e+00 -2.817506e-01 -6.079592e-03 -6.177039e-01 -1.276258e+00 -8.003452e-01 -9.249954e-01 3.073098e+00 4.619507e-01 -4.266149e-01 -6.881499e-01 -1.501874e-01 -2.863732e-02 -3.700152e-01 -1.099572e-01 1.309287e-01 -7.219672e-03 -1.849468e-01 -2.284178e-01 -2.244652e-01 5.033683e-01
<VARIANCE> 39
 1.100732e+01 1.256433e+01 1.334636e+01 1.354782e+01 1.572169e+01 2.393262e+01 1.553406e+01 1.655712e+01 2.309249e+01 1.656162e+01 1.254769e+01 1.282709e+01 1.724738e+01 1.291093e+00 1.624567e+00 2.652659e+00 2.254043e+00 2.521181e+00 4.928995e+00 3.280892e+00 2.344719e+00 3.627353e+00 2.828490e+00 2.004778e+00 1.443225e+00 2.997567e+00 2.532227e-01 2.940372e-01 4.261478e-01 3.883324e-01 4.247461e-01 6.861871e-01 4.302438e-01 5.036374e-01 6.197009e-01 5.745645e-01 3.190938e-01 3.079276e-01 2.748788e-01
<GCONST> 1.069344e+02
<MIXTURE> 9 6.733125e-02
<MEAN> 39
 -6.685178e-01 -1.221871e+00 2.481685e-01 3.312980e+00 3.158003e+00 4.404421e+00 1.945020e+00 8.361199e-01 9.392236e-01 2.965532e+00 1.308375e+00 2.407103e+00 -4.674369e+00 -3.995386e-02 6.957632e-02 1.400172e-01 -2.565279e-02 -1.611147e-01 7.428216e-02 1.440262e-01 1.642590e-01 3.974596e-02 4.788997e-03 9.153637e-02 1.783158e-02 -1.028625e-01 -5.189852e-02 -3.599818e-02 3.182000e-02 2.610761e-02 8.082203e-02 5.516797e-02 1.892561e-01 1.754054e-01 4.151041e-02 -1.226178e-02 -2.240669e-02 -1.836962e-01 2.250958e-02
<VARIANCE> 39
 1.460467e+00 7.034523e+00 1.184402e+01 1.197895e+01 1.451039e+01 8.524965e+00 1.308766e+01 1.425269e+01 1.406494e+01 1.678425e+01 1.009885e+01 8.325097e+00 1.661897e+00 8.114760e-02 2.010921e-01 5.349283e-01 7.455657e-01 1.053745e+00 1.304900e+00 1.250008e+00 1.349131e+00 1.421689e+00 1.130144e+00 9.409406e-01 1.196494e+00 4.733916e-02 1.633718e-02 3.361953e-02 9.118282e-02 1.444011e-01 2.671250e-01 1.823005e-01 2.380844e-01 2.569897e-01 3.060263e-01 3.529964e-01 1.598392e-01 1.711250e-01 9.713081e-03
<GCONST> 6.464912e+01
<MIXTURE> 10 7.277598e-02
<MEAN> 39
 -1.566217e+00 -1.835383e+00 -6.426501e-01 1.669008e+00 1.195398e+00 2.703420e+00 2.694042e+00 2.248193e+00 1.680781e+00 2.889771e+00 3.024903e+00 2.968692e+00 -4.773035e+00 -4.351812e-01 -2.496744e-01 -1.747276e-01 -9.130712e-03 3.208762e-01 6.972489e-01 7.858582e-01 7.135937e-01 5.979397e-01 3.613336e-01 1.389953e-01 1.808228e-01 -3.410044e-01 4.535594e-01 1.892121e-02 -1.818588e-01 -3.249604e-02 -2.008650e-02 -3.878268e-01 -4.011031e-01 -3.632613e-01 -4.180853e-01 -5.170529e-01 -4.965508e-01 -3.626564e-01 6.271197e-01
<VARIANCE> 39
 2.620809e+00 7.479009e+00 9.551742e+00 9.784912e+00 9.743572e+00 1.891754e+01 1.596044e+01 2.128138e+01 1.947420e+01 1.480721e+01 1.239173e+01 1.087339e+01 3.349806e+00 2.108209e-01 3.232634e-01 6.571720e-01 7.535043e-01 1.234213e+00 1.323506e+00 1.473953e+00 1.620860e+00 1.945054e+00 2.081240e+00 1.931160e+00 1.366651e+00 1.208105e-01 5.209390e-02 1.568791e-01 2.966068e-01 1.982283e-01 2.444170e-01 3.619192e-01 4.218850e-01 5.298603e-01 4.362140e-01 3.623779e-01 3.064125e-01 2.855780e-01 1.205198e-01
<GCONST> 8.227866e+01
<MIXTURE> 11 5.376231e-02
<MEAN> 39
 2.860484e+00 4.357239e+00 3.473395e+00 2.252100e+00 -6.904160e-01 -4.110972e+00 -6.007005e+00 -4.955257e+00 -3.258101e+00 -1.227870e+00 -7.065447e-01 9.484522e-01 -2.416554e+00 7.485807e-02 -4.049369e-01 -6.308447e-01 -4.287573e-01 -2.082077e-01 5.808865e-01 4.179990e-01 3.564467e-01 4.913898e-01 2.795260e-01 3.931602e-01 -9.153407e-03 4.475585e-01 1.813758e-01 -7.792574e-01 -1.016825e+00 -4.563216e-01 -9.458885e-02 -3.357942e-02 5.639939e-01 6.811645e-01 3.473260e-01 -6.633351e-02 -1.646438e-01 -2.788246e-01 8.136290e-01
<VARIANCE> 39
 4.597176e+00 5.836483e+00 8.057069e+00 9.743322e+00 1.075514e+01 1.940855e+01 1.698896e+01 1.371281e+01 1.516170e+01 1.282690e+01 1.417190e+01 8.861672e+00 2.873357e+00 6.552964e-01 8.926218e-01 1.225643e+00 1.071892e+00 1.254290e+00 3.240448e+00 2.113072e+00 1.739945e+00 1.675709e+00 1.544483e+00 9.078125e-01 1.091008e+00 9.928980e-01 1.131930e-01 1.218429e-01 2.253637e-01 1.789966e-01 3.128435e-01 3.863780e-01 4.459241e-01 4.258330e-01 4.309534e-01 3.805522e-01 3.104737e-01 2.289190e-01 9.689733e-02
<GCONST> 8.660134e+01
<MIXTURE> 12 8.949507e-02
<MEAN> 39
 -1.768762e+00 2.076129e+00 1.998798e+00 2.476971e+00 1.573953e+00 3.519304e+00 3.171910e+00 4.183842e+00 2.174300e+00 2.576148e+00 1.624869e+00 1.033643e+00 -7.008846e+00 6.033911e-01 -6.094015e-01 -7.369833e-01 -6.869467e-01 -4.629277e-01 -6.236857e-01 -2.223399e-02 -4.739630e-01 -5.356161e-01 -8.925678e-01 -3.888795e-01 -2.562029e-01 2.578178e+00 3.889732e-01 -7.978950e-01 -5.972827e-01 -2.735970e-01 -2.270688e-01 -4.770668e-01 -2.308029e-01 -5.667576e-01 -4.976125e-01 -3.749352e-01 -1.656561e-01 -1.281793e-01 1.379353e+00
<VARIANCE> 39
 2.386385e+00 6.930469e+00 8.242750e+00 1.054726e+01 1.040013e+01 1.193480e+01 1.674823e+01 1.506995e+01 1.321359e+01 1.112487e+01 9.930400e+00 9.484498e+00 4.777268e+00 7.448103e-01 8.163230e-01 1.139502e+00 1.217722e+00 1.484956e+00 2.084650e+00 1.841256e+00 1.885703e+00 1.803347e+00 1.533635e+00 1.266058e+00 1.283263e+00 1.985291e+00 7.465583e-02 1.688491e-01 1.888836e-01 2.233634e-01 3.059531e-01 3.218186e-01 3.498364e-01 4.427186e-01 4.434119e-01 2.447654e-01 2.683332e-01 2.518083e-01 1.302434e-01
<GCONST> 8.611698e+01
<MIXTURE> 13 5.692438e-02
<MEAN> 39
 1.730690e+00 3.329077e+00 2.357091e+00 -1.220832e-01 -2.105590e+00 -6.250453e+00 -4.049978e+00 -2.619191e+00 -2.792196e+00 6.754519e-01 2.361954e+00 4.687549e+00 -3.246885e+00 1.210214e+00 6.422037e-01 1.004674e-01 -4.693724e-01 -1.313104e+00 -2.518973e+00 -1.880543e+00 -1.828401e+00 -2.240895e+00 -1.862238e+00 -9.179308e-01 -2.043179e-01 8.953595e-01 -5.776919e-02 -4.300134e-01 -1.744333e-01 5.038119e-02 2.084148e-01 6.487572e-01 5.839431e-01 2.806205e-01 2.075946e-01 -1.902738e-01 -4.425156e-01 -7.127140e-01 2.948973e-01
<VARIANCE> 39
 2.251771e+00 9.171341e+00 9.400565e+00 1.176349e+01 1.494254e+01 3.310802e+01 2.175140e+01 2.169580e+01 2.352326e+01 2.114568e+01 1.808088e+01 1.752973e+01 4.664962e+00 3.247909e-01 5.410865e-01 8.719592e-01 1.324793e+00 2.074446e+00 3.117315e+00 2.386432e+00 2.554467e+00 2.184661e+00 2.278573e+00 2.525174e+00 2.649543e+00 2.940112e-01 5.942535e-02 1.927599e-01 1.877005e-01 2.092658e-01 3.029327e-01 6.207828e-01 4.509923e-01 4.262329e-01 4.984486e-01 4.784212e-01 4.891797e-01 4.066322e-01 1.160760e-01
<GCONST> 9.341278e+01
<MIXTURE> 14 4.445946e-02
<MEAN> 39
 -1.236432e-01 8.421909e-01 7.363354e-01 1.434063e+00 1.917844e+00 1.864375e+00 -1.012501e+00 -2.131815e+00 -7.806634e-01 1.282858e+00 1.039673e+00 1.004011e+00 -3.894321e+00 2.016203e-01 1.947583e-01 9.407842e-02 1.542024e-01 1.987121e-01 -6.469767e-02 -4.962561e-01 -5.832471e-01 -7.104049e-01 -8.266166e-01 -3.114434e-01 8.668525e-03 3.317041e-02 6.572513e-02 -4.566831e-02 3.375697e-02 3.362929e-02 -1.630123e-01 -2.146996e-01 7.636717e-02 2.558491e-01 1.373004e-01 -5.782561e-02 -6.206246e-02 -1.797021e-02 9.468118e-02
<VARIANCE> 39
 3.224198e+00 9.795995e+00 1.039441e+01 9.114647e+00 1.172900e+01 1.853933e+01 1.636976e+01 1.913489e+01 2.320329e+01 1.490103e+01 1.565654e+01 1.316832e+01 4.300575e+00 1.141134e-01 1.915800e-01 4.836443e-01 5.783087e-01 9.966197e-01 1.677248e+00 1.445789e+00 2.061861e+00 1.232940e+00 1.515372e+00 1.261246e+00 1.579130e+00 8.256452e-02 2.456594e-02 3.334215e-02 8.048622e-02 1.078158e-01 1.600214e-01 3.084180e-01 2.823303e-01 2.766923e-01 4.146909e-01 2.508780e-01 2.714566e-01 2.823327e-01 1.659072e-02
<GCONST> 7.242877e+01
<MIXTURE> 15 5.653113e-02
<MEAN> 39
 -1.663270e+00 -3.852385e-01 2.228734e+00 4.085129e+00 3.591326e+00 4.505054e+00 4.521402e+00 4.045633e+00 1.304240e+00 2.359555e+00 -5.953515e-01 -1.530191e+00 -4.847278e+00 -1.204281e-03 1.894128e-01 2.276347e-01 -1.328867e-02 -1.277041e-01 -4.493412e-01 -3.621351e-01 -2.003284e-01 -1.827566e-01 1.379977e-01 2.408363e-02 -1.526898e-02 -5.238055e-02 1.379848e-01 8.156223e-02 -8.736956e-02 -2.131721e-01 -1.880921e-01 -2.327679e-01 -3.688192e-01 -3.332336e-01 -4.812453e-02 -4.863504e-02 2.220783e-01 3.717640e-01 1.621183e-01
<VARIANCE> 39
 1.802551e+00 6.596747e+00 7.850228e+00 6.150249e+00 1.171008e+01 1.338405e+01 1.123277e+01 1.165603e+01 1.729824e+01 1.197690e+01 1.003444e+01 8.606891e+00 1.661897e+00 1.125401e-01 3.020193e-01 4.215112e-01 5.371156e-01 8.706068e-01 1.154034e+00 1.218214e+00 1.349771e+00 1.357207e+00 1.394159e+00 1.131944e+00 9.260967e-01 5.865310e-02 2.999044e-02 6.365789e-02 9.116434e-02 1.119551e-01 1.738548e-01 2.729558e-01 2.233651e-01 2.400481e-01 3.172393e-01 2.174084e-01 1.887920e-01 1.333598e-01 2.978934e-02
<GCONST> 6.505376e+01
<MIXTURE> 16 4.898909e-02
<MEAN> 39
 2.739536e+00 2.939022e+00 3.063773e+00 2.159605e+00 -1.474766e+00 -2.333199e+00 -3.289488e+00 -6.586307e+00 -6.707285e+00 -1.928684e+00 -8.137779e-01 1.857342e-01 -3.041197e+00 2.107136e-01 2.368632e-01 1.053486e-01 1.113839e-01 -9.449899e-02 5.219221e-03 -6.154785e-01 -4.869925e-01 -4.418388e-01 -4.863361e-01 -1.920306e-01 -2.734093e-01 7.390949e-02 9.967729e-02 -5.771683e-01 -7.290477e-01 -4.684219e-01 -8.574458e-02 -3.615828e-01 1.214431e-01 7.564978e-01 6.893366e-01 1.232659e-01 -4.784549e-02 -2.417082e-03 7.807283e-01
<VARIANCE> 39
 3.409115e+00 7.000902e+00 6.627933e+00 1.276345e+01 1.458982e+01 1.828013e+01 2.296877e+01 2.483115e+01 1.576305e+01 1.833595e+01 1.630444e+01 1.581282e+01 3.639579e+00 2.753631e-01 4.295141e-01 5.915115e-01 1.218873e+00 1.102135e+00 2.247619e+00 1.447803e+00 2.386009e+00 1.960941e+00 1.815042e+00 1.432150e+00 1.633316e+00 4.807832e-01 7.190236e-02 2.002923e-01 2.489238e-01 3.199773e-01 3.176043e-01 4.839408e-01 5.727261e-01 5.743228e-01 3.299074e-01 4.535448e-01 4.038278e-01 3.421442e-01 1.417866e-01
<GCONST> 8.921494e+01
<STATE> 3
<NUMMIXES> 16
<MIXTURE> 1 4.328931e-02
<MEAN> 39
 1.319067e+00 6.965709e-01 1.599493e+00 1.185792e+00 -1.329499e+00 -3.083434e+00 -3.469773e+00 -1.615495e+00 -5.138430e-01 2.397746e+00 2.750405e+00 2.949402e+00 -3.228095e+00 -6.091882e-01 -3.065302e-01 -8.060316e-02 6.262314e-02 7.156332e-01 1.641698e+00 1.514217e+00 1.280489e+00 1.494100e+00 5.506214e-01 9.470814e-02 -4.634669e-01 -4.934569e-01 -5.904418e-02 -1.036263e-01 -1.401166e-02 3.608808e-02 2.306630e-01 3.340839e-01 4.474562e-01 2.888753e-01 -2.900237e-02 -3.110112e-01 -4.318095e-01 -3.341894e-01 3.951425e-02
<VARIANCE> 39
 3.393321e+00 3.637378e+00 1.140466e+01 7.842448e+00 1.515383e+01 2.475856e+01 2.910956e+01 2.395472e+01 1.572383e+01 1.693694e+01 1.236388e+01 7.891783e+00 5.184538e+00 2.704076e-01 3.958153e-01 8.003602e-01 7.412359e-01 1.447902e+00 2.254300e+00 2.011048e+00 1.826338e+00 2.161262e+00 2.272993e+00 1.904375e+00 1.843192e+00 1.799830e-01 4.160289e-02 6.461143e-02 1.459382e-01 1.291289e-01 2.505739e-01 2.906979e-01 3.925342e-01 3.554977e-01 4.268556e-01 4.158407e-01 2.872117e-01 2.512428e-01 3.068510e-02
<GCONST> 8.150824e+01
<MIXTURE> 2 5.275005e-02
<MEAN> 39
 6.174217e+00 -5.301921e+00 -1.473233e+01 -8.919311e-01 1.584377e+00 -6.568021e+00 -9.520168e-01 3.182600e+00 7.699986e-01 -4.309199e+00 -6.470841e+00 2.629509e-01 1.048926e+01 -1.157636e-01 -2.812461e+00 -3.007891e+00 1.169263e+00 6.259004e-01 -7.818954e-01 2.141994e+00 1.355886e+00 -1.228583e+00 -1.546264e+00 -9.716259e-02 1.484627e+00 3.077744e+00 -4.164316e-01 4.421747e-01 1.683708e+00 4.988874e-01 -2.770460e-01 2.988929e-01 -1.704491e-02 -1.047133e+00 -9.788734e-01 2.772589e-01 6.638989e-01 6.099306e-04 -7.939380e-01
<VARIANCE> 39
 4.337792e+00 1.023078e+01 1.258653e+01 1.424605e+01 1.069162e+01 1.724024e+01 1.658061e+01 1.932689e+01 2.210968e+01 1.933730e+01 1.140802e+01 9.441065e+00 8.631053e+00 8.083723e-01 1.303045e+00 3.902778e+00 1.521076e+00 1.259244e+00 2.328390e+00 3.295879e+00 2.646904e+00 2.859003e+00 1.737432e+00 2.395644e+00 1.215946e+00 1.942224e+00 8.716771e-02 1.886100e-01 2.599792e-01 2.990822e-01 2.119992e-01 4.702922e-01 3.661064e-01 4.938038e-01 5.216262e-01 4.427581e-01 2.933379e-01 3.047689e-01 1.507360e-01
<GCONST> 9.649844e+01
<MIXTURE> 3 4.029682e-02
<MEAN> 39
 5.279967e+00 5.152685e+00 3.974435e+00 2.411012e+00 -7.935542e-01 -7.280458e+00 -1.032548e+01 -5.799966e+00 -3.333635e+00 -3.537555e-01 -2.283626e+00 -2.260093e+00 -1.541610e+00 6.989347e-01 -1.918525e+00 -3.004544e+00 -8.801515e-01 2.344047e-01 3.396893e-02 1.363873e+00 1.969947e+00 7.259717e-01 2.796447e-02 -6.222498e-02 1.311480e-01 2.424273e+00 -3.447368e-01 -1.162742e+00 -1.172054e+00 9.454008e-03 8.699206e-02 4.879713e-01 1.510815e+00 7.634490e-01 -1.012904e-01 -3.353680e-01 1.677645e-01 4.025629e-01 8.767866e-01
<VARIANCE> 39
 3.033987e+00 6.805913e+00 9.031349e+00 9.114168e+00 1.076811e+01 1.973722e+01 1.329288e+01 1.573731e+01 1.149485e+01 1.395577e+01 1.009922e+01 1.303065e+01 3.648978e+00 3.477480e-01 1.345768e+00 2.239712e+00 1.004778e+00 1.295461e+00 2.775911e+00 3.113795e+00 2.770765e+00 2.309205e+00 1.837467e+00 1.471609e+00 1.303200e+00 9.683567e-01 1.352735e-01 1.569929e-01 2.249057e-01 2.003505e-01 3.664642e-01 7.972011e-01 5.202927e-01 6.095921e-01 3.650449e-01 3.804428e-01 4.439876e-01 2.874192e-01 7.982618e-02
<GCONST> 9.072929e+01
<MIXTURE> 4 8.541711e-02
<MEAN> 39
 3.140501e+00 -1.737185e+00 -3.585838e+00 -5.378772e+00 -4.233533e+00 -2.308537e+00 -3.492730e-01 2.181833e-01 7.890148e-01 -1.716528e+00 -2.389738e+00 -2.708418e+00 6.471041e+00 6.527188e-01 -2.141410e+00 -3.564976e+00 -1.044005e+00 2.121445e-01 -5.321804e-02 7.741340e-01 1.065964e+00 9.088333e-01 -7.487097e-01 -6.538826e-01 -3.541735e-01 3.076565e+00 -2.920078e-02 1.530487e-01 1.298256e-01 6.640287e-01 5.221584e-01 -1.483192e-01 -2.631511e-01 -3.985926e-01 -4.801961e-01 -3.801435e-02 1.561573e-01 3.406450e-01 -4.536962e-01
<VARIANCE> 39
 1.053161e+01 1.047895e+01 2.048268e+01 1.805660e+01 1.927610e+01 1.923017e+01 3.025688e+01 1.990246e+01 2.040396e+01 2.134059e+01 1.532324e+01 1.259986e+01 1.600838e+01 1.472583e+00 2.745805e+00 5.599506e+00 3.242117e+00 2.759490e+00 5.206754e+00 4.031355e+00 4.293997e+00 4.100282e+00 3.789741e+00 2.921341e+00 2.678706e+00 2.070110e+00 1.648531e-01 2.878919e-01 3.352402e-01 4.024317e-01 4.347828e-01 5.007724e-01 5.661353e-01 3.923338e-01 4.754540e-01 4.686468e-01 4.060731e-01 3.662389e-01 2.687901e-01
<GCONST> 1.112621e+02
<MIXTURE> 5 4.627563e-02
<MEAN> 39
 3.933741e+00 -9.833099e+00 -1.179897e+01 3.805627e+00 2.005292e+00 -7.378903e+00 2.062236e+00 1.397838e+00 -7.528009e+00 -5.073503e+00 -1.689481e+00 2.531553e+00 1.338338e+01 -7.821642e-01 -1.846147e+00 7.767971e-01 1.178974e+00 -3.799492e-01 5.566468e-02 1.673308e+00 -1.288024e+00 -2.287470e+00 3.420174e-01 1.225673e+00 4.112675e-01 1.599922e+00 -2.096486e-01 9.991856e-01 1.598800e+00 -4.399309e-01 -5.566240e-01 6.710729e-01 -4.458909e-01 -9.408408e-01 4.003688e-01 7.038686e-01 7.244799e-02 -5.347031e-01 -1.126147e+00
<VARIANCE> 39
 5.447405e+00 1.359453e+01 1.417371e+01 1.133703e+01 1.214583e+01 9.512365e+00 1.794509e+01 1.349389e+01 1.764618e+01 1.453711e+01 2.640778e+01 1.110943e+01 7.200272e+00 4.394960e-01 1.560021e+00 3.351664e+00 1.726394e+00 1.542098e+00 1.797778e+00 2.249008e+00 2.082821e+00 2.845896e+00 1.603144e+00 1.267559e+00 1.446351e+00 1.263566e+00 1.491360e-01 1.743143e-01 3.004040e-01 3.608032e-01 2.372096e-01 5.588735e-01 5.651857e-01 4.245463e-01 4.275678e-01 3.492631e-01 4.015343e-01 2.776745e-01 1.314595e-01
<GCONST> 9.535909e+01
<MIXTURE> 6 5.100305e-02
<MEAN> 39
 4.352923e+00 4.199564e+00 4.091162e+00 1.092911e+00 -1.188867e+00 -7.669520e+00 -5.686810e+00 -4.382160e+00 -6.886269e+00 -7.944777e+00 -8.673595e+00 -4.392005e+00 -1.840102e+00 3.201396e-01 -1.451232e+00 -1.730966e+00 -4.527841e-01 -5.509136e-02 5.612045e-01 5.706549e-01 5.959628e-01 2.047743e-01 -3.993085e-01 -3.105161e-01 -9.952369e-01 2.333987e+00 -2.819957e-01 -8.994671e-01 -9.778556e-01 -1.424033e-01 -1.406582e-01 4.968740e-01 4.914460e-01 4.111081e-01 6.347605e-01 8.609193e-01 1.025824e+00 5.597845e-01 7.326195e-01
<VARIANCE> 39
 4.382992e+00 8.167337e+00 1.120959e+01 1.277912e+01 1.819811e+01 3.512646e+01 1.579007e+01 2.457358e+01 2.473447e+01 1.940239e+01 1.607211e+01 9.019335e+00 6.716764e+00 9.199594e-01 2.371544e+00 3.564758e+00 1.635481e+00 1.786518e+00 3.959116e+00 2.049160e+00 2.273505e+00 2.975266e+00 3.464335e+00 5.006776e+00 2.725391e+00 2.806067e+00 1.182822e-01 2.151242e-01 3.709318e-01 3.729828e-01 4.789803e-01 6.834499e-01 3.856786e-01 7.429047e-01 8.944998e-01 5.086722e-01 4.608634e-01 4.182389e-01 1.727567e-01
<GCONST> 1.055064e+02
<MIXTURE> 7 7.074576e-02
<MEAN> 39
 2.793461e+00 -1.065948e+01 -4.627038e+00 -2.360408e+00 -4.370934e+00 3.723593e-01 1.976508e+00 -8.180522e+00 2.391874e-01 1.725554e-01 8.607138e-01 1.408988e+00 1.071677e+01 -4.810545e-01 -2.966105e+00 -1.142618e+00 -1.414608e+00 -3.639110e-01 3.967119e-01 -1.876889e+00 -2.671314e+00 1.001063e+00 -1.466408e+00 -3.034928e-01 -3.026326e-01 2.960404e+00 -3.864119e-01 1.238988e+00 7.566065e-01 1.913594e-01 6.063498e-01 -7.689448e-02 -4.522092e-01 8.957193e-01 -9.684541e-03 -2.937587e-01 -8.864031e-02 -1.993296e-01 -1.260240e+00
<VARIANCE> 39
 5.415642e+00 1.396482e+01 7.007544e+00 2.372316e+01 1.453946e+01 1.560859e+01 2.407155e+01 1.493823e+01 1.845600e+01 2.155093e+01 9.984776e+00 2.693084e+01 1.039382e+01 9.851757e-01 1.708291e+00 1.282569e+00 2.531400e+00 2.360322e+00 5.790889e+00 3.549149e+00 1.799277e+00 3.522982e+00 1.958237e+00 1.506738e+00 2.602673e+00 1.876517e+00 1.261534e-01 2.306991e-01 2.468507e-01 3.700140e-01 3.327348e-01 4.943506e-01 9.513503e-01 3.108531e-01 3.983064e-01 3.575760e-01 3.075908e-01 5.096906e-01 2.443701e-01
<GCONST> 1.022778e+02
<MIXTURE> 8 7.847407e-02
<MEAN> 39
 -1.469643e+00 -1.255401e+00 4.874178e-01 3.556714e+00 4.534546e+00 4.627227e+00 2.405638e+00 1.546068e+00 1.578807e+00 2.088943e+00 1.157016e+00 1.628646e+00 -4.486665e+00 -7.866382e-02 1.980654e-01 1.237052e-01 6.761504e-02 2.325653e-01 1.195332e-03 7.037556e-03 3.039297e-01 3.202282e-01 -1.548651e-02 -1.867381e-01 -1.946943e-01 -2.874982e-02 2.313657e-01 6.031894e-02 -5.344092e-02 -3.577642e-01 -5.249676e-01 -3.571190e-01 -7.949412e-02 -1.631594e-01 -1.825193e-01 -1.838181e-01 -3.171394e-02 -7.277629e-02 4.546552e-01
<VARIANCE> 39
 2.154466e+00 8.610876e+00 1.049984e+01 1.059809e+01 1.380069e+01 1.133203e+01 1.438404e+01 1.656757e+01 1.202725e+01 1.407451e+01 9.900699e+00 9.689433e+00 2.591452e+00 1.699869e-01 3.018894e-01 4.749860e-01 1.026474e+00 1.122812e+00 1.536128e+00 1.459956e+00 1.108036e+00 1.334501e+00 1.293578e+00 1.076846e+00 1.203869e+00 2.036020e-01 6.798840e-02 9.281886e-02 1.508403e-01 2.249512e-01 2.580164e-01 2.896522e-01 3.408981e-01 4.314520e-01 3.006821e-01 3.403764e-01 2.232636e-01 2.756389e-01 1.310784e-01
<GCONST> 7.697617e+01
<MIXTURE> 9 7.047268e-02
<MEAN> 39
 3.602263e+00 2.218636e+00 6.089432e-01 -9.878867e-01 -1.282831e+00 -2.418444e+00 -5.097231e+00 -5.518954e+00 -4.753030e+00 -2.101064e+00 -6.517166e-01 -1.115284e+00 1.144508e+00 8.673406e-01 -2.261236e+00 -4.086873e+00 -1.411399e+00 1.865575e-02 -3.575138e-01 6.271745e-01 1.771891e+00 1.921848e+00 1.652807e-01 -5.366082e-01 -5.131573e-01 3.084791e+00 6.993472e-02 -3.487934e-01 -8.361914e-01 1.968350e-01 2.584530e-01 -2.837398e-01 2.562756e-01 4.218060e-01 3.351946e-01 -6.120917e-03 -2.437621e-01 6.568100e-02 2.884995e-01
<VARIANCE> 39
 6.619246e+00 1.085327e+01 1.765322e+01 1.186339e+01 9.078252e+00 1.524034e+01 9.926663e+00 1.732394e+01 1.593123e+01 1.840650e+01 1.166276e+01 1.104563e+01 1.205109e+01 1.020684e+00 1.291229e+00 2.210864e+00 1.671528e+00 2.332681e+00 3.064954e+00 3.677708e+00 2.655220e+00 2.126351e+00 2.949305e+00 2.379043e+00 1.805628e+00 1.322589e+00 1.703773e-01 2.934680e-01 4.766861e-01 3.434354e-01 2.651488e-01 3.578231e-01 4.597141e-01 5.657558e-01 6.078866e-01 5.315616e-01 3.997214e-01 3.476687e-01 2.510334e-01
<GCONST> 1.008113e+02
<MIXTURE> 10 8.560938e-02
<MEAN> 39
 5.656097e+00 -5.551141e+00 -7.675122e+00 -2.492274e-01 -3.676069e+00 -6.571098e+00 3.659279e-01 4.638562e+00 -4.639822e+00 -3.826812e+00 -6.250977e-01 -9.887915e-01 7.792866e+00 7.671415e-02 -3.518888e+00 -2.717933e+00 -5.012498e-01 -1.039277e+00 5.778756e-01 2.336679e+00 2.548790e-01 -1.622980e+00 -2.628523e-01 9.338188e-02 -7.828951e-01 4.110393e+00 -5.248638e-01 3.566845e-01 8.907194e-01 8.683573e-02 2.553381e-01 6.908494e-01 -2.236524e-01 -1.084078e+00 1.071361e-01 3.901819e-01 -2.224078e-02 4.468382e-02 -5.537531e-01
<VARIANCE> 39
 3.453157e+00 1.131973e+01 1.109215e+01 1.589485e+01 1.641615e+01 1.684048e+01 3.474489e+01 1.824278e+01 2.151008e+01 1.494437e+01 1.625300e+01 1.003720e+01 1.362561e+01 1.148337e+00 1.535562e+00 1.867381e+00 2.682611e+00 1.765807e+00 4.607639e+00 5.135327e+00 5.070231e+00 3.906225e+00 2.727741e+00 2.285440e+00 1.741679e+00 1.657675e+00 8.811019e-02 2.336938e-01 2.352655e-01 3.308560e-01 2.729748e-01 4.548462e-01 9.178891e-01 4.647768e-01 7.038459e-01 3.442868e-01 3.498916e-01 2.161521e-01 2.984097e-01
<GCONST> 1.032730e+02
<MIXTURE> 11 7.658159e-02
<MEAN> 39
 3.157475e+00 -2.520406e+00 -1.869965e+00 2.248098e-01 -1.213389e+00 5.195467e-01 1.462353e+00 -1.444484e+00 -1.614588e+00 -9.525073e-01 6.637127e-01 5.168738e-01 5.328321e+00 1.182309e+00 -3.109629e+00 -1.665391e+00 -1.590724e+00 -1.383018e+00 -1.214643e+00 -9.070951e-01 -2.144882e+00 -9.648418e-01 -1.319021e+00 -3.310440e-01 -3.709551e-01 4.290219e+00 -4.543853e-01 8.284603e-02 3.593317e-01 -1.114556e-01 2.076694e-01 7.091960e-02 -1.076857e-01 1.227705e-01 2.744486e-01 7.388520e-02 -4.122622e-02 -4.421652e-02 -6.226943e-01
<VARIANCE> 39
 7.410111e+00 1.314491e+01 1.047959e+01 1.556901e+01 1.663489e+01 1.924982e+01 2.257212e+01 1.484469e+01 1.560112e+01 1.994176e+01 1.134899e+01 1.936826e+01 1.268437e+01 1.081150e+00 1.706057e+00 1.552243e+00 2.956770e+00 2.931283e+00 3.258699e+00 3.216655e+00 3.584373e+00 4.374405e+00 2.136025e+00 1.836492e+00 2.578191e+00 1.998906e+00 1.351973e-01 2.284825e-01 2.066344e-01 2.445668e-01 3.132375e-01 4.361117e-01 4.909269e-01 3.569838e-01 3.580911e-01 4.435158e-01 2.872881e-01 3.977154e-01 3.246023e-01
<GCONST> 1.025984e+02
<MIXTURE> 12 7.656519e-02
<MEAN> 39
 4.184684e+00 2.391984e+00 2.400582e+00 -9.491426e-01 -6.031039e+00 -9.034585e+00 -1.810761e+00 -2.786566e+00 -6.192979e+00 -1.875156e+00 3.147154e-01 2.036006e+00 -3.793459e-01 3.734505e-01 -2.401507e+00 -1.509892e+00 -8.918862e-01 -7.147338e-01 6.995671e-01 9.220557e-01 -7.785813e-01 -2.654072e-02 -6.039060e-01 -3.335258e-01 -9.277146e-01 2.617231e+00 -5.050811e-01 -8.201407e-01 -4.126847e-01 4.162552e-02 6.825270e-01 1.271656e+00 2.128454e-01 -1.504438e-01 8.400914e-01 8.618239e-02 -1.103789e-02 -2.078543e-01 5.179048e-01
<VARIANCE> 39
 3.126374e+00 9.216589e+00 7.287492e+00 1.278086e+01 9.948859e+00 2.593368e+01 2.291540e+01 1.909378e+01 1.927784e+01 1.382635e+01 1.189261e+01 2.251227e+01 3.894252e+00 7.776096e-01 2.526824e+00 2.095683e+00 2.097980e+00 2.147650e+00 5.338008e+00 3.993866e+00 2.778873e+00 3.827334e+00 2.243409e+00 1.899286e+00 2.258407e+00 1.650506e+00 9.901451e-02 2.419692e-01 2.070070e-01 3.695354e-01 2.317034e-01 6.863596e-01 6.515568e-01 5.733743e-01 5.786480e-01 4.716052e-01 2.910827e-01 4.297744e-01 1.371158e-01
<GCONST> 1.003616e+02
<MIXTURE> 13 6.396859e-02
<MEAN> 39
 -2.460294e+00 -8.713592e-01 2.901667e-01 1.877223e+00 1.909947e+00 4.947773e+00 3.847217e+00 3.148428e+00 2.217651e+00 2.093591e+00 1.502568e+00 2.117169e+00 -4.874820e+00 2.173795e-02 2.874975e-02 3.965216e-01 6.280094e-02 -2.034118e-01 -4.512624e-01 -3.696650e-02 -2.259478e-01 -1.973569e-01 -5.494047e-01 -3.584837e-01 -5.617387e-01 1.349234e+00 4.019991e-01 -1.443477e-01 -3.039995e-02 -8.867420e-02 -2.983560e-01 -5.809156e-01 -3.759189e-01 -3.472245e-01 -3.518221e-01 -4.306765e-01 -1.818195e-01 -2.838024e-01 7.812817e-01
<VARIANCE> 39
 3.107126e+00 9.753284e+00 1.143294e+01 1.116643e+01 8.658073e+00 1.837566e+01 1.512357e+01 9.603638e+00 1.442141e+01 1.301793e+01 1.111345e+01 1.044974e+01 3.171233e+00 7.497301e-01 7.938312e-01 9.879501e-01 9.043982e-01 1.326049e+00 2.103944e+00 2.312814e+00 1.552110e+00 1.739767e+00 1.634324e+00 1.876284e+00 1.396461e+00 1.135566e+00 1.185588e-01 1.958881e-01 1.839651e-01 2.548569e-01 2.670501e-01 3.845338e-01 3.302315e-01 3.362361e-01 2.770969e-01 3.363478e-01 2.792366e-01 2.616074e-01 1.549027e-01
<GCONST> 8.678651e+01
<MIXTURE> 14 6.368056e-02
<MEAN> 39
 2.815251e+00 -1.038159e+01 -8.379173e+00 5.660834e-01 -3.325333e+00 -3.583274e+00 2.882967e+00 1.122851e+00 -1.129921e+01 -1.419277e+00 -4.457226e-01 -1.339977e+00 1.351190e+01 -8.883572e-01 -2.324959e+00 -4.552834e-01 -1.068395e-01 -2.178914e-01 1.441879e+00 7.119703e-01 -2.334286e+00 -9.842054e-01 1.177059e+00 -8.896776e-02 -6.032295e-01 2.662565e+00 -2.336299e-01 1.130482e+00 1.175418e+00 -7.560843e-02 2.626164e-01 2.129487e-01 -7.856020e-01 -6.738934e-01 1.156241e+00 9.865290e-02 -1.088576e-01 1.392884e-01 -1.348701e+00
<VARIANCE> 39
 4.154391e+00 6.249992e+00 5.658521e+00 1.717256e+01 1.286316e+01 9.977422e+00 1.942802e+01 2.718968e+01 1.686156e+01 9.165052e+00 1.315998e+01 1.079521e+01 1.281232e+01 6.819456e-01 1.604125e+00 2.572794e+00 1.974808e+00 1.419040e+00 2.482469e+00 2.962798e+00 1.815294e+00 3.974560e+00 1.444808e+00 1.309513e+00 1.102269e+00 1.985358e+00 9.765940e-02 1.223145e-01 1.433165e-01 2.683079e-01 2.282245e-01 4.030810e-01 5.581439e-01 5.537506e-01 4.572725e-01 2.695805e-01 3.140420e-01 2.481435e-01 2.262602e-01
<GCONST> 9.326199e+01
<MIXTURE> 15 5.413711e-02
<MEAN> 39
 4.212764e+00 3.923910e+00 2.676347e+00 2.449502e+00 -1.077791e+00 -6.318111e+00 -8.213800e+00 -3.929402e+00 -5.224449e+00 -2.484383e+00 -4.213999e-01 2.074210e+00 -2.593582e+00 6.299579e-01 -2.086212e+00 -2.555394e+00 -1.125415e+00 -1.247714e+00 -7.570212e-01 1.559532e+00 2.117333e+00 2.772753e-01 -2.139175e-01 -2.217597e-01 -6.252346e-01 2.866553e+00 -2.860413e-01 -1.041365e+00 -7.275239e-01 -2.737058e-01 -2.395403e-01 6.596259e-01 1.342124e+00 3.857372e-01 6.614349e-02 2.242881e-01 -4.681554e-03 -3.604362e-01 9.188327e-01
<VARIANCE> 39
 3.266821e+00 5.965160e+00 8.607956e+00 1.347132e+01 7.967128e+00 1.407449e+01 2.080528e+01 2.327476e+01 1.461370e+01 1.428266e+01 9.665720e+00 9.262897e+00 2.411850e+00 4.739460e-01 1.204229e+00 1.405659e+00 1.708622e+00 1.052961e+00 2.543460e+00 4.480274e+00 4.048683e+00 2.889227e+00 1.763065e+00 1.415695e+00 1.194906e+00 1.211218e+00 1.206427e-01 1.674886e-01 3.452526e-01 3.349157e-01 2.595492e-01 4.129453e-01 5.271103e-01 8.179144e-01 7.825300e-01 4.059525e-01 2.894599e-01 2.256199e-01 9.594990e-02
<GCONST> 9.220940e+01
<MIXTURE> 16 4.073011e-02
<MEAN> 39
 1.716135e-01 1.214619e+00 1.532034e+00 4.429462e-01 -1.590702e-02 3.604288e-01 -5.312403e-01 -4.939545e-01 4.631950e-02 -2.494453e-01 -1.645877e+00 -8.688073e-01 -3.719904e+00 -1.203016e+00 -1.008735e+00 -6.346721e-01 -3.112781e-01 1.047965e+00 2.428374e+00 1.933020e+00 1.658612e+00 1.478745e+00 1.184061e+00 1.132502e+00 6.233075e-01 -6.605349e-01 1.117599e-01 -1.132047e-01 -4.330688e-02 3.743755e-02 -4.117392e-03 -1.330965e-01 5.949495e-02 -4.912084e-02 -1.192326e-01 3.911622e-02 1.043313e-01 7.663327e-02 1.777916e-01
<VARIANCE> 39
 3.598543e+00 5.275456e+00 8.157104e+00 8.455137e+00 1.322050e+01 1.589518e+01 1.301629e+01 1.802031e+01 1.379950e+01 9.096156e+00 1.280713e+01 1.621575e+01 4.388680e+00 3.228467e-01 5.207561e-01 5.149859e-01 9.087268e-01 1.526940e+00 2.943891e+00 1.737568e+00 1.850290e+00 2.297917e+00 1.962009e+00 1.491976e+00 2.006136e+00 1.563413e-01 6.237698e-02 1.069733e-01 1.540394e-01 1.407509e-01 2.212120e-01 3.696508e-01 2.982220e-01 2.580224e-01 2.944552e-01 2.645418e-01 2.894237e-01 2.717733e-01 7.612941e-02
<GCONST> 8.060263e+01
<STATE> 4
<NUMMIXES> 16
<MIXTURE> 1 7.497091e-02
<MEAN> 39
 -2.075114e+00 -5.288219e-01 1.652101e+00 1.644234e+00 2.764648e+00 5.083840e+00 3.728783e+00 3.212152e+00 2.929895e+00 9.157195e-01 -2.902412e-02 6.132732e-02 -4.685896e+00 -2.602893e-01 -1.032358e-01 1.253349e-01 1.278851e-01 1.919792e-01 3.941877e-01 5.295426e-01 6.924280e-01 4.097725e-01 1.637080e-01 -2.670935e-02 -2.679631e-01 -1.783191e-01 2.716264e-01 2.028731e-01 -1.909635e-02 -6.669818e-02 -4.144444e-01 -6.588147e-01 -4.531866e-01 -4.431479e-01 -3.460000e-01 6.797430e-02 4.341287e-02 1.311016e-01 1.570764e-01
<VARIANCE> 39
 3.831846e+00 6.788164e+00 1.037037e+01 1.206188e+01 1.262380e+01 1.396878e+01 1.311433e+01 1.888358e+01 1.401595e+01 1.373416e+01 1.240317e+01 1.356879e+01 4.044802e+00 2.895932e-01 3.390416e-01 3.966047e-01 6.203939e-01 1.223677e+00 1.630834e+00 1.886181e+00 1.478453e+00 1.530140e+00 1.129711e+00 1.186037e+00 1.155952e+00 7.928073e-02 4.238297e-02 1.004872e-01 1.229537e-01 1.425669e-01 2.378599e-01 4.334126e-01 4.236890e-01 3.538745e-01 2.738489e-01 1.772285e-01 1.600743e-01 2.797979e-01 4.081671e-02
<GCONST> 7.555157e+01
<MIXTURE> 2 4.006768e-02
<MEAN> 39
 2.071080e+00 -8.059844e+00 -3.960494e+00 -2.635134e+00 -6.150469e+00 2.614695e-01 4.115112e+00 -2.485164e+00 -9.001744e+00 1.078781e+00 -4.115511e+00 -3.206606e+00 1.422807e+01 -7.024654e-01 5.912886e-01 1.647833e+00 -2.263638e+00 -4.975616e-01 3.128141e+00 -5.618528e-01 -2.638554e+00 1.308763e+00 6.048669e-01 -1.501353e+00 2.280659e-01 6.179132e-01 1.865534e-01 1.137246e+00 3.011177e-01 -6.133024e-02 6.782147e-01 -4.294679e-01 -1.219311e+00 -6.836062e-02 1.066530e+00 -6.387473e-01 1.505345e-01 5.028337e-01 -1.075511e+00
<VARIANCE> 39
 4.223952e+00 1.510579e+01 2.017631e+01 3.227589e+01 1.711877e+01 1.532243e+01 3.973798e+01 3.066428e+01 2.605124e+01 1.097006e+01 1.581311e+01 1.174172e+01 1.226936e+01 3.732927e-01 1.789580e+00 1.271263e+00 1.892635e+00 1.782056e+00 2.201549e+00 3.161647e+00 1.473394e+00 2.291128e+00 2.337581e+00 1.158464e+00 1.376617e+00 1.457012e+00 6.924576e-02 3.406670e-01 5.439608e-01 6.781572e-01 2.992711e-01 7.120887e-01 9.399579e-01 7.646269e-01 5.981697e-01 4.377058e-01 4.054991e-01 2.809125e-01 3.079241e-01
<GCONST> 1.029637e+02
<MIXTURE> 3 5.958775e-02
<MEAN> 39
 -1.462956e+00 -1.128264e+01 -1.385220e+00 -1.421718e+00 -1.163299e+00 -4.060400e+00 -8.050315e+00 -6.815379e+00 2.827308e+00 -6.634275e+00 -2.069795e+00 -1.746385e+00 1.256863e+01 -2.805994e-01 1.226998e+00 -2.324151e-02 -9.795863e-01 8.184805e-01 -1.754382e-01 -1.056952e+00 8.987436e-01 -3.171377e-01 -1.156596e+00 6.659085e-01 -3.482197e-01 -1.841801e-01 3.199990e-01 5.083892e-01 -3.798441e-01 -2.823647e-02 1.454077e-01 2.208708e-01 6.611673e-01 2.110550e-01 -4.668894e-01 5.109938e-01 2.723499e-01 -2.660412e-03 -3.448875e-01
<VARIANCE> 39
 4.842731e+00 8.506001e+00 8.330009e+00 1.252305e+01 1.331547e+01 9.583799e+00 1.325656e+01 1.387279e+01 1.760166e+01 2.458095e+01 1.274584e+01 1.656893e+01 1.428339e+01 1.909655e-01 6.569002e-01 9.131486e-01 8.088443e-01 1.403697e+00 9.554981e-01 1.296755e+00 1.128861e+00 1.811331e+00 1.272369e+00 7.558484e-01 9.088555e-01 1.063000e-01 7.224903e-02 2.900187e-01 1.392206e-01 1.100994e-01 2.345162e-01 1.920458e-01 3.384086e-01 2.394452e-01 2.697142e-01 3.743176e-01 2.719592e-01 2.261117e-01 1.325639e-01
<GCONST> 7.994258e+01
<MIXTURE> 4 6.976934e-02
<MEAN> 39
 7.885947e+00 -1.881135e+00 -1.393675e+01 -4.450527e+00 1.031201e+00 -3.670069e+00 -5.362998e+00 -5.043137e-01 2.975313e+00 1.818512e-01 -4.007667e+00 -3.591584e+00 7.899261e+00 1.164228e+00 -5.902822e-01 -3.474773e+00 -2.274309e-01 9.703239e-01 -7.156724e-01 -3.742675e-01 5.972208e-01 1.316163e+00 5.301924e-01 -1.037786e+00 -4.705730e-01 1.034086e+00 -4.115821e-01 5.161939e-01 1.225727e+00 4.609504e-01 -3.783499e-02 6.828538e-02 8.248376e-02 -4.405684e-01 -6.738560e-01 -2.168441e-01 1.918724e-01 3.041061e-01 -7.498959e-01
<VARIANCE> 39
 3.127591e+00 1.161245e+01 1.615482e+01 1.306073e+01 1.277079e+01 1.083888e+01 1.546762e+01 1.796199e+01 1.177592e+01 2.295797e+01 1.742722e+01 1.488994e+01 5.667679e+00 7.424524e-01 2.094325e+00 3.310777e+00 2.220821e+00 1.425550e+00 1.701659e+00 1.564623e+00 2.546215e+00 2.298689e+00 3.512746e+00 1.659275e+00 1.590571e+00 1.551631e+00 9.533353e-02 1.421637e-01 2.415637e-01 1.624175e-01 2.658210e-01 3.115990e-01 3.558520e-01 2.751402e-01 3.083803e-01 3.400780e-01 2.993976e-01 1.993077e-01 9.995762e-02
<GCONST> 9.254439e+01
<MIXTURE> 5 4.564277e-02
<MEAN> 39
 3.600091e+00 -9.092589e+00 -1.151289e+01 3.233691e+00 -1.261438e-01 -5.963703e+00 3.573673e+00 6.308281e-01 -8.981330e+00 -4.256368e+00 -2.171072e+00 3.445055e+00 1.437891e+01 -6.309210e-01 -4.230208e-01 1.445962e+00 -1.703361e-01 -7.356517e-01 9.668239e-01 8.796704e-01 -1.490623e+00 -1.408673e+00 1.325794e+00 9.656904e-01 -6.777671e-01 4.510384e-01 9.667747e-02 4.385858e-01 3.424701e-01 -6.361426e-01 -9.528340e-02 3.468478e-01 -4.275504e-01 -3.154632e-01 6.771772e-01 5.152390e-01 -3.353952e-01 -5.984678e-01 -3.786257e-01
<VARIANCE> 39
 6.214073e+00 7.446361e+00 1.193202e+01 1.427744e+01 8.004967e+00 9.313674e+00 2.028580e+01 1.707256e+01 1.876113e+01 1.147935e+01 1.089832e+01 5.863733e+00 9.329568e+00 1.306982e-01 2.051181e-01 7.256377e-01 7.017356e-01 5.417901e-01 8.241232e-01 6.206913e-01 1.045993e+00 1.006691e+00 1.004552e+00 5.540458e-01 7.505885e-01 1.012817e-01 4.353941e-02 8.197048e-02 1.706566e-01 1.719010e-01 8.407725e-02 1.956586e-01 1.525519e-01 2.138852e-01 2.697327e-01 2.287208e-01 2.052690e-01 1.296856e-01 8.341080e-02
<GCONST> 6.829325e+01
<MIXTURE> 6 5.389233e-02
<MEAN> 39
 2.578784e+00 -1.159463e+01 -4.998606e+00 4.274920e+00 -3.207887e+00 -2.116935e+00 -2.355850e+00 -8.689414e+00 -2.100791e+00 -2.477082e+00 -1.411186e+00 -4.121676e+00 8.832424e+00 -1.701212e-01 7.700884e-02 4.151418e-01 -2.170074e-01 1.112390e-01 3.066177e-01 -5.159076e-01 -1.190146e-01 5.226552e-01 -6.468004e-02 -2.997003e-01 2.977088e-01 -2.138921e-02 3.970760e-02 6.674126e-02 -5.098847e-02 -1.768183e-01 6.575748e-02 6.576111e-02 -9.335047e-04 9.585489e-02 4.298124e-02 -1.453259e-01 4.477467e-02 7.427976e-02 -1.077367e-02
<VARIANCE> 39
 1.830125e+00 3.671742e+00 6.175511e+00 5.239311e+00 8.772580e+00 2.301685e+01 9.727946e+00 7.293767e+00 1.011205e+01 7.754369e+00 5.910092e+00 8.739440e+00 5.590664e+00 7.849894e-02 1.831181e-01 2.740444e-01 3.646217e-01 4.351781e-01 5.340803e-01 5.840249e-01 6.000873e-01 6.134487e-01 5.471310e-01 5.540458e-01 5.005188e-01 4.733916e-02 2.131019e-02 3.334215e-02 4.885243e-02 6.606110e-02 7.748714e-02 9.945033e-02 1.012023e-01 1.089561e-01 1.120291e-01 1.015407e-01 9.704361e-02 8.715379e-02 8.525244e-03
<GCONST> 4.580589e+01
<MIXTURE> 7 4.158202e-02
<MEAN> 39
 2.039875e+00 -7.059913e+00 -3.493364e+00 -3.638220e+00 -1.368561e+00 -7.502182e-01 1.103737e+00 -4.516296e+00 -2.439610e+00 -2.459953e+00 -6.677039e-01 -9.969926e-01 9.271541e+00 5.026956e-02 1.958546e+00 1.638308e+00 -2.511838e-01 2.390715e-01 6.661214e-02 -7.355455e-01 1.023518e-01 3.078396e-01 -2.177398e-01 -8.524972e-02 -1.804325e-01 -1.585377e+00 1.033081e-01 9.649015e-01 5.060138e-01 3.435242e-01 -2.734386e-02 -2.700543e-01 -2.390623e-01 4.304455e-01 8.502666e-02 1.291936e-01 -1.129431e-02 1.241199e-01 -8.989597e-01
<VARIANCE> 39
 7.412628e+00 1.965792e+01 1.803675e+01 3.970191e+01 3.903152e+01 5.083137e+01 3.444890e+01 3.379308e+01 2.889052e+01 2.480377e+01 2.298744e+01 1.440411e+01 1.808066e+01 8.542171e-01 2.329162e+00 3.095102e+00 2.165523e+00 2.834526e+00 2.090967e+00 3.435033e+00 3.882454e+00 2.258275e+00 2.214792e+00 1.816208e+00 2.033594e+00 2.314340e+00 1.886162e-01 3.981263e-01 4.186720e-01 6.534707e-01 5.610531e-01 1.013206e+00 7.065873e-01 6.857733e-01 5.604649e-01 5.884255e-01 6.231048e-01 3.709418e-01 3.636527e-01
<GCONST> 1.151129e+02
<MIXTURE> 8 6.162687e-02
<MEAN> 39
 -1.024871e-01 6.891444e-01 1.667752e+00 1.881108e+00 9.521391e-01 -1.438058e-01 2.137262e-01 -1.127396e-01 -1.898464e-01 7.545457e-01 1.093009e-01 4.993567e-01 -1.622987e+00 1.797736e-01 1.026074e-01 5.881057e-01 -1.562269e-01 -1.300252e-01 -4.344888e-01 -9.208101e-02 -4.979234e-01 -2.149823e-01 -4.469565e-01 1.108047e-01 -4.382547e-01 1.368274e+00 -4.855191e-02 -2.205972e-01 -1.810530e-02 -1.882399e-01 -2.277069e-02 1.295182e-02 -7.285953e-02 -1.426119e-01 1.424964e-02 -5.867810e-02 9.342112e-02 2.246005e-02 2.244072e-01
<VARIANCE> 39
 7.158310e+00 7.625711e+00 7.158861e+00 1.120367e+01 1.015849e+01 4.660501e+01 3.878301e+01 3.215559e+01 1.652108e+01 1.604691e+01 1.595193e+01 1.889563e+01 9.836245e+00 1.294857e+00 1.208981e+00 1.384460e+00 1.613729e+00 1.957292e+00 2.080731e+00 1.800674e+00 1.710693e+00 1.429929e+00 2.113631e+00 1.582384e+00 2.121516e+00 1.842153e+00 1.142286e-01 1.586051e-01 1.759940e-01 2.812113e-01 2.125003e-01 4.074436e-01 3.880289e-01 3.843294e-01 3.043886e-01 2.346036e-01 3.610629e-01 3.363136e-01 1.711487e-01
<GCONST> 9.575492e+01
<MIXTURE> 9 6.963292e-02
<MEAN> 39
 2.181645e+00 -1.036316e+01 -7.279971e+00 4.709718e-01 -1.325263e+00 -2.643561e+00 3.035885e+00 -3.002386e+00 -1.156791e+01 8.404515e-01 -1.193437e+00 -5.662570e-01 1.529370e+01 -3.840630e-01 6.460342e-02 1.101449e+00 -1.067534e+00 -3.803267e-01 1.176005e+00 -9.147839e-02 -1.225692e+00 2.225944e-01 1.019996e+00 -4.629678e-01 -5.317352e-01 1.201798e-01 6.899010e-02 2.268938e-01 -2.014250e-02 -3.238942e-01 -7.317484e-02 1.330397e-01 -2.227182e-01 2.067428e-01 5.023835e-01 -3.412559e-01 -3.644640e-01 1.928978e-01 -1.230913e-01
<VARIANCE> 39
 7.302494e+00 5.317793e+00 9.155239e+00 1.134978e+01 6.288040e+00 8.617905e+00 1.599674e+01 1.901045e+01 1.201712e+01 1.092746e+01 1.427149e+01 8.643060e+00 1.453377e+01 7.849894e-02 1.908549e-01 3.157097e-01 7.847949e-01 4.525631e-01 6.684392e-01 5.840249e-01 6.000873e-01 8.390576e-01 7.005605e-01 7.120018e-01 5.005188e-01 4.733916e-02 1.372716e-02 3.499427e-02 4.885243e-02 7.605277e-02 7.748714e-02 9.945033e-02 1.012023e-01 1.418651e-01 1.302295e-01 1.604190e-01 9.901000e-02 1.027574e-01 8.525244e-03
<GCONST> 5.403857e+01
<MIXTURE> 10 5.796008e-02
<MEAN> 39
 1.863317e-01 -1.069890e+01 -3.959569e+00 -2.297976e+00 -3.342815e+00 1.340495e+00 -3.602166e+00 -1.019724e+01 4.222913e+00 -5.128382e+00 -5.729712e-01 -9.531619e-01 1.134532e+01 -8.994133e-01 9.008241e-02 4.646119e-01 -7.577083e-01 7.933643e-01 -1.723403e-01 -2.765484e+00 1.435497e-01 9.854671e-01 -1.827068e+00 -1.217633e-01 -5.367941e-01 3.392390e-01 1.846386e-01 1.440817e+00 5.696612e-01 8.228989e-02 2.350735e-01 -4.784668e-01 2.525196e-01 1.175113e+00 -7.825508e-01 3.101468e-01 3.892756e-02 2.167754e-02 -1.222432e+00
<VARIANCE> 39
 5.349361e+00 9.906136e+00 6.261028e+00 2.269493e+01 7.138839e+00 1.745864e+01 2.004884e+01 1.397801e+01 1.153156e+01 1.724415e+01 1.027365e+01 1.572351e+01 6.640716e+00 3.257230e-01 1.727823e+00 1.150657e+00 1.814957e+00 2.059846e+00 2.486599e+00 2.941837e+00 2.519494e+00 2.023745e+00 1.769428e+00 1.950316e+00 1.834711e+00 9.582506e-01 1.455940e-01 2.557020e-01 2.348372e-01 3.150939e-01 3.853620e-01 6.020283e-01 5.223069e-01 4.490923e-01 3.282202e-01 4.432664e-01 2.244559e-01 3.158601e-01 2.433732e-01
<GCONST> 9.484858e+01
<MIXTURE> 11 6.695843e-02
<MEAN> 39
 2.482344e-01 -1.184594e+01 -4.491994e+00 1.252092e+00 -1.330656e+00 -2.233566e+00 4.171333e-01 -4.206358e+00 -9.110690e+00 2.505129e+00 -1.091083e+00 -1.858215e+00 1.544005e+01 -5.834791e-01 8.001086e-02 1.395664e+00 -8.202610e-01 -3.589351e-01 1.175581e+00 -3.696291e-01 -2.074110e+00 1.357232e+00 5.168813e-01 -3.743064e-01 -2.539851e-01 1.496370e-01 1.956856e-01 9.505908e-01 1.887421e-01 -3.988566e-01 2.362813e-02 4.174074e-02 -2.884445e-01 4.089446e-01 8.141484e-01 -6.819255e-01 -6.847975e-02 2.067215e-01 -9.451408e-01
<VARIANCE> 39
 7.127173e+00 5.886424e+00 6.907306e+00 1.172784e+01 7.264113e+00 1.326285e+01 1.683226e+01 1.238187e+01 1.642936e+01 6.961820e+00 1.329420e+01 7.399267e+00 5.763172e+00 3.363877e-01 5.950329e-01 9.792889e-01 1.287421e+00 1.031610e+00 1.401954e+00 1.108434e+00 1.279779e+00 9.241723e-01 1.242004e+00 1.026691e+00 1.044974e+00 5.010436e-01 1.155541e-01 1.973138e-01 2.657576e-01 2.567421e-01 2.248212e-01 3.464966e-01 3.068489e-01 2.542066e-01 4.005406e-01 2.303199e-01 2.334443e-01 1.689508e-01 3.551725e-01
<GCONST> 8.143383e+01
<MIXTURE> 12 9.570888e-02
<MEAN> 39
 5.226226e+00 -7.506422e+00 -6.791547e+00 -1.455417e+00 -3.835911e+00 -4.273345e+00 1.691607e+00 5.874307e-01 -4.778201e+00 -6.606347e+00 -5.104487e-01 -2.302901e+00 1.012438e+01 4.195040e-01 -1.409286e+00 -2.475426e-01 -3.656995e-01 -6.199552e-01 -5.297827e-01 3.953678e-01 -8.000398e-01 -6.556703e-01 -3.912674e-01 3.140557e-01 -2.593594e-01 1.220376e+00 -5.914655e-01 8.632813e-01 9.319437e-01 2.359536e-01 4.051629e-01 4.054635e-01 -1.352304e-01 -2.243578e-01 5.500684e-01 7.099530e-01 7.046776e-02 2.141385e-01 -1.182637e+00
<VARIANCE> 39
 6.360381e+00 1.163286e+01 2.212358e+01 1.839635e+01 2.443638e+01 2.638784e+01 1.851007e+01 2.228811e+01 1.737868e+01 1.995218e+01 1.338521e+01 1.593875e+01 1.221943e+01 1.130865e+00 1.863663e+00 2.837182e+00 3.395916e+00 1.939744e+00 3.449917e+00 2.077059e+00 2.615702e+00 2.438793e+00 2.652129e+00 1.565464e+00 1.897781e+00 1.804843e+00 1.601311e-01 3.137840e-01 3.888653e-01 3.082679e-01 4.680252e-01 5.624973e-01 5.176807e-01 4.781727e-01 5.829245e-01 3.758269e-01 3.718185e-01 3.589730e-01 2.784476e-01
<GCONST> 1.056927e+02
<MIXTURE> 13 8.311513e-02
<MEAN> 39
 -1.210666e+00 -8.454347e-01 -3.695538e-01 2.409990e-01 1.507154e+00 2.649770e+00 2.254436e+00 2.142882e+00 2.506391e+00 3.197407e+00 1.743629e+00 1.205790e+00 -4.032162e+00 -3.349991e-01 -1.525112e-01 9.183814e-02 1.442656e-02 2.458767e-01 6.095165e-01 7.193621e-01 4.411912e-01 3.822354e-01 3.551713e-01 1.321671e-01 -5.422945e-02 -2.523480e-01 1.909426e-01 2.129896e-01 2.056721e-01 9.712308e-02 -1.367086e-01 -2.933373e-01 -3.831866e-01 -3.820585e-01 -4.501565e-01 -4.323795e-01 -2.449577e-01 -4.898879e-02 1.037066e-01
<VARIANCE> 39
 3.793723e+00 4.013243e+00 5.300217e+00 9.186241e+00 1.359354e+01 1.208124e+01 8.566472e+00 1.047381e+01 1.287472e+01 1.661789e+01 1.378593e+01 8.170165e+00 3.466584e+00 2.167791e-01 4.253944e-01 5.833995e-01 8.746889e-01 1.259729e+00 1.565512e+00 1.499432e+00 1.736632e+00 1.429202e+00 1.287602e+00 1.658085e+00 1.122429e+00 5.199626e-02 2.912938e-02 6.557290e-02 6.896026e-02 1.484535e-01 2.277914e-01 2.267608e-01 1.872024e-01 2.169629e-01 2.240337e-01 3.119167e-01 2.918167e-01 2.010840e-01 1.134185e-02
<GCONST> 6.908591e+01
<MIXTURE> 14 6.767987e-02
<MEAN> 39
 -2.703919e+00 -1.314966e+00 1.436260e+00 3.685313e+00 3.656588e+00 4.303797e+00 3.311469e+00 2.789040e+00 1.400508e+00 1.141651e+00 1.365886e+00 9.097087e-01 -2.945340e+00 9.200434e-01 1.319767e-02 -5.152925e-02 -8.660963e-01 -1.321433e+00 -1.530511e+00 -8.891510e-01 -8.367688e-01 -7.336285e-01 -1.301506e+00 -4.551363e-01 -6.198823e-01 2.359535e+00 4.865815e-01 -2.750437e-01 -2.804962e-01 -5.090610e-01 -5.640216e-01 -4.338571e-01 -2.741780e-01 -3.988024e-01 -2.863299e-01 -2.688152e-01 -1.131644e-01 -1.217796e-01 6.705784e-01
<VARIANCE> 39
 4.486086e+00 9.452112e+00 1.257598e+01 1.098579e+01 2.067692e+01 2.018049e+01 1.435762e+01 1.181793e+01 1.655541e+01 1.901022e+01 1.014444e+01 1.093536e+01 1.049191e+01 1.040661e+00 1.419186e+00 1.407322e+00 2.257036e+00 1.435096e+00 2.519161e+00 2.888255e+00 2.641973e+00 1.409706e+00 1.586629e+00 1.701381e+00 2.046921e+00 1.370992e+00 1.625431e-01 2.157297e-01 2.025685e-01 3.202539e-01 4.867867e-01 5.978904e-01 4.399983e-01 4.350630e-01 4.313875e-01 4.264642e-01 3.727773e-01 3.442338e-01 3.714054e-01
<GCONST> 9.785294e+01
<MIXTURE> 15 6.749357e-02
<MEAN> 39
 6.839134e-01 -9.488340e+00 -2.184876e+00 -8.242559e+00 -1.175659e+00 6.631935e-01 -1.831593e+00 -7.177276e+00 -4.894635e-01 -3.606232e+00 -9.979008e-01 3.020525e-02 1.191267e+01 -4.630485e-01 -1.564064e-01 -2.174858e-01 -1.788364e+00 7.065883e-01 -1.993787e-01 -1.459586e+00 -5.651298e-01 3.877778e-01 -1.698335e+00 -1.502970e-01 -6.161341e-01 1.008979e+00 -7.406375e-02 1.235415e+00 3.353235e-01 8.772079e-01 2.924278e-01 -2.371170e-01 1.227011e-01 8.438788e-01 1.783162e-02 1.464846e-01 8.387172e-02 -1.263672e-01 -1.306605e+00
<VARIANCE> 39
 5.995369e+00 1.857293e+01 1.042231e+01 2.091885e+01 1.815631e+01 2.180391e+01 2.649638e+01 1.411746e+01 1.141737e+01 1.638358e+01 1.956614e+01 1.991054e+01 1.067137e+01 1.096363e+00 2.595604e+00 1.907501e+00 1.812577e+00 3.147534e+00 2.478705e+00 2.745941e+00 1.672561e+00 3.056058e+00 1.510941e+00 1.975236e+00 2.265947e+00 1.847925e+00 2.630551e-01 3.588167e-01 3.419738e-01 4.277913e-01 4.350197e-01 1.121691e+00 8.103201e-01 4.543654e-01 3.606839e-01 4.596565e-01 4.864039e-01 5.180782e-01 3.628863e-01
<GCONST> 1.065636e+02
<MIXTURE> 16 4.430713e-02
<MEAN> 39
 2.834339e+00 -1.104849e+01 -8.274227e+00 3.630867e+00 -5.970776e+00 -6.685923e-01 2.481492e+00 -8.405041e+00 -4.007611e+00 -3.753476e+00 1.473185e+00 -4.864637e+00 1.043208e+01 -6.346499e-01 -5.190282e-01 4.475035e-01 3.374938e-01 2.735928e-04 9.345743e-01 -1.594407e+00 -1.786001e+00 4.541472e-01 3.228082e-01 -7.562407e-01 -3.845776e-01 5.563537e-01 9.083705e-02 9.498745e-01 7.607319e-01 -4.295605e-01 2.408022e-01 -3.835234e-01 -5.687463e-01 6.772323e-01 2.055900e-01 -1.906261e-02 -2.897473e-01 4.409728e-01 -7.220982e-01
<VARIANCE> 39
 3.604495e+00 8.353846e+00 6.953762e+00 1.091959e+01 9.820689e+00 1.890249e+01 1.282439e+01 1.914981e+01 9.024315e+00 1.122998e+01 8.966211e+00 7.998300e+00 7.187303e+00 2.534865e-01 5.636226e-01 7.585701e-01 1.419960e+00 6.243191e-01 1.575967e+00 1.987523e+00 2.396416e+00 2.205293e+00 1.759420e+00 8.100094e-01 1.055802e+00 4.451156e-01 5.089792e-02 1.614650e-01 2.320725e-01 1.126367e-01 1.049156e-01 2.956026e-01 3.568804e-01 3.977878e-01 1.981633e-01 1.349523e-01 2.465250e-01 1.187788e-01 1.209086e-01
<GCONST> 7.792982e+01
<TRANSP> 5
 0.000000e+00 1.000000e+00 0.000000e+00 0.000000e+00 0.000000e+00
 0.000000e+00 7.076140e-01 2.923860e-01 0.000000e+00 0.000000e+00
 0.000000e+00 0.000000e+00 5.710538e-01 4.289462e-01 0.000000e+00
 0.000000e+00 0.000000e+00 0.000000e+00 4.949415e-01 5.050585e-01
 0.000000e+00 0.000000e+00 0.000000e+00 0.000000e+00 0.000000e+00
<ENDHMM>
~h "c"
<BEGINHMM>
<NUMSTATES> 5
<STATE> 2
<NUMMIXES> 16
<MIXTURE> 1 7.074746e-02
<MEAN> 39
 -8.779146e-01 1.025795e+00 2.398220e+00 2.682697e+00 1.871148e+00 4.002488e+00 4.065905e+00 2.139652e+00 2.167106e+00 2.570800e+00 8.843902e-01 5.082329e-01 -5.168785e+00 -2.824839e-03 6.279435e-02 2.733128e-02 5.809964e-02 -2.593402e-01 -8.023645e-02 -1.103798e-01 2.713827e-02 -1.472749e-01 -1.366664e-01 9.465751e-02 1.604355e-01 -8.166269e-02 -1.108168e-01 3.665209e-02 -1.337154e-01 2.234961e-02 -1.390497e-01 -2.287360e-01 -1.113796e-01 -9.473634e-02 -1.497228e-01 -1.363412e-01 -1.397994e-01 -4.475050e-02 3.323980e-01
<VARIANCE> 39
 1.426920e+00 2.829598e+00 8.379315e+00 7.657986e+00 1.167643e+01 1.471879e+01 1.289302e+01 1.859345e+01 1.341496e+01 8.371625e+00 1.181705e+01 1.212534e+01 1.661897e+00 1.211973e-01 1.831181e-01 3.377829e-01 7.860509e-01 7.945312e-01 1.172099e+00 8.952296e-01 1.277272e+00 1.545012e+00 8.405373e-01 1.152608e+00 9.636205e-01 5.783065e-02 5.815791e-02 6.579649e-02 9.741548e-02 1.619827e-01 1.621222e-01 2.259397e-01 2.237436e-01 2.874463e-01 3.277671e-01 2.092785e-01 2.412416e-01 2.571329e-01 5.936361e-02
<GCONST> 6.645003e+01
<MIXTURE> 2 6.943045e-02
<MEAN> 39
 -8.071290e+00 2.633328e+00 -3.395978e+00 2.346436e+00 4.011189e-01 4.359684e-02 2.674690e+00 1.893033e+00 3.904538e+00 -2.624448e+00 2.796728e+00 -1.018447e+00 2.439258e+00 2.216274e+00 1.194707e+00 5.930784e-01 -2.883174e+00 -9.020126e-01 -7.921809e-01 -1.276485e+00 -1.184668e+00 -1.688054e-01 -1.586897e+00 -1.132126e+00 -7.952005e-01 1.600843e+00 8.865614e-01 -3.139297e-01 2.294630e-02 -1.113815e+00 -3.318950e-01 1.313559e-01 -4.744650e-01 -1.783682e-01 -3.508432e-01 1.526949e-01 -4.297459e-01 1.315478e-01 4.246138e-01
<VARIANCE> 39
 6.582395e+00 8.080400e+00 1.132659e+01 1.105293e+01 8.616529e+00 1.493237e+01 1.723546e+01 1.612464e+01 1.706550e+01 1.585880e+01 1.196905e+01 1.569933e+01 6.977978e+00 1.350060e+00 1.194064e+00 1.024716e+00 2.045434e+00 1.395225e+00 1.363615e+00 1.212492e+00 1.271679e+00 1.379457e+00 1.512226e+00 2.165944e+00 1.271120e+00 9.231738e-01 2.371365e-01 2.860433e-01 2.600184e-01 2.677239e-01 2.666585e-01 3.031633e-01 3.517808e-01 3.031570e-01 4.241654e-01 3.735847e-01 3.123979e-01 2.763788e-01 1.392744e-01
<GCONST> 9.133469e+01
<MIXTURE> 3 4.369700e-02
<MEAN> 39
 -5.586149e+00 1.147722e+00 2.024011e+00 4.091185e+00 1.217781e+00 3.665286e+00 3.583610e+00 4.392671e+00 3.063928e+00 2.629215e+00 9.814181e-01 5.772157e-02 -7.331910e-01 -1.475558e+00 5.577687e-01 -7.517196e-01 4.322216e-01 6.314650e-01 3.139790e-01 5.223460e-01 6.567468e-01 3.721033e-01 3.038585e-01 1.117713e-01 -1.939740e-01 1.067480e+00 5.500044e-01 1.862979e-01 -1.672969e-01 -4.444547e-01 -6.619915e-02 -2.479971e-01 -1.912642e-01 -3.484445e-01 -4.427735e-01 -3.069220e-01 -1.904611e-02 2.962857e-02 -9.477739e-02
<VARIANCE> 39
 4.053471e+00 1.073919e+01 1.063245e+01 1.021640e+01 1.199304e+01 1.725574e+01 1.076680e+01 9.637261e+00 1.246401e+01 1.041037e+01 1.054092e+01 1.020543e+01 4.449278e+00 5.853906e-01 1.024973e+00 9.384657e-01 9.670868e-01 1.480718e+00 1.845387e+00 1.916932e+00 1.718395e+00 2.522960e+00 1.235075e+00 1.454361e+00 1.548661e+00 1.425032e+00 1.335057e-01 2.145138e-01 1.981708e-01 2.878821e-01 1.952463e-01 3.120215e-01 2.390841e-01 1.862025e-01 2.508207e-01 1.720010e-01 2.098900e-01 2.076068e-01 7.462011e-02
<GCONST> 8.384324e+01
<MIXTURE> 4 6.662433e-02
<MEAN> 39
 -6.125910e+00 2.510517e+00 -5.620511e-01 3.085992e+00 2.509912e+00 3.398251e+00 3.291038e+00 4.871397e+00 -6.404769e-01 2.416760e+00 -2.081752e-01 -2.434000e-01 1.215842e+00 2.568120e+00 -1.889500e-01 -2.273880e+00 -3.981397e+00 -1.776024e+00 -1.924302e+00 -1.819209e+00 -1.109763e+00 -1.437712e+00 -1.242468e+00 2.463067e-01 1.624378e-01 1.391768e+00 5.993742e-01 -5.877745e-01 -4.723885e-01 -8.365782e-01 -2.746505e-01 -3.321413e-01 -4.633061e-01 -6.722851e-01 -8.804817e-02 -6.579297e-01 -1.230508e-01 -2.095609e-01 4.810389e-01
<VARIANCE> 39
 5.345135e+00 6.295183e+00 8.335513e+00 1.340871e+01 1.885153e+01 1.534859e+01 1.670758e+01 1.762489e+01 2.535617e+01 1.266981e+01 2.219825e+01 1.388101e+01 4.058526e+00 5.604855e-01 1.267996e+00 1.406872e+00 1.303505e+00 1.600917e+00 1.709723e+00 1.858666e+00 2.355054e+00 1.186209e+00 2.874561e+00 1.452124e+00 3.064638e+00 5.982713e-01 2.071451e-01 1.721185e-01 2.125479e-01 4.079878e-01 4.568322e-01 3.338313e-01 3.699505e-01 3.552675e-01 5.074078e-01 2.879260e-01 3.521785e-01 2.946921e-01 8.519942e-02
<GCONST> 9.277959e+01
<MIXTURE> 5 4.511942e-02
<MEAN> 39
 -1.059144e+00 1.867462e+00 7.660526e-01 1.075060e+00 4.643258e-01 -7.927684e-01 -1.207311e+00 7.750303e-01 1.294144e+00 2.328205e+00 3.487890e+00 1.341708e+00 -4.689482e+00 -5.702860e-01 -1.305411e+00 -7.115491e-01 2.752718e-01 4.753477e-01 1.200191e+00 1.189499e+00 1.171289e+00 1.152343e+00 1.134343e+00 9.397573e-01 5.133498e-01 -6.076179e-01 1.150523e-01 2.263212e-01 -9.745466e-02 -2.559057e-01 -2.836221e-01 -1.685034e-01 2.562391e-02 -1.246431e-01 -2.417640e-01 -4.009935e-01 -4.605186e-01 -3.577619e-01 7.070072e-01
<VARIANCE> 39
 4.653198e+00 6.462025e+00 8.467085e+00 1.397101e+01 1.116559e+01 1.521924e+01 1.111632e+01 1.832091e+01 1.731415e+01 1.823417e+01 1.286303e+01 9.908891e+00 4.515323e+00 9.276875e-01 7.625848e-01 1.014295e+00 1.743060e+00 1.388276e+00 1.648988e+00 2.490358e+00 1.684548e+00 1.790242e+00 2.147113e+00 1.227851e+00 1.566751e+00 1.235829e+00 1.327164e-01 1.612190e-01 2.358291e-01 3.702478e-01 2.645541e-01 3.640389e-01 3.692338e-01 3.761790e-01 4.093252e-01 5.101033e-01 3.026969e-01 3.799071e-01 8.548148e-02
<GCONST> 9.032851e+01
<MIXTURE> 6 7.549462e-02
<MEAN> 39
 -1.046727e+01 3.383577e+00 -4.900734e+00 1.865578e+00 2.351554e-01 -4.201551e-01 2.250056e+00 7.047515e-01 3.056059e+00 -8.542641e-02 1.653296e+00 2.051011e+00 3.691926e+00 -4.595095e-01 1.033152e+00 6.715881e-01 -8.969942e-01 -3.521185e-02 -3.643194e-01 2.044175e-01 -6.416849e-01 5.956982e-01 -3.632752e-01 -6.983511e-01 3.206398e-01 8.758852e-01 1.452805e+00 -1.647969e-01 6.900963e-01 -7.101111e-01 -3.221029e-01 1.464142e-02 -3.676409e-01 -1.433177e-01 -2.878563e-01 -2.077172e-01 -3.542976e-01 -3.089788e-01 -2.799572e-01
<VARIANCE> 39
 7.043386e+00 7.345130e+00 1.089455e+01 1.615150e+01 1.132948e+01 1.676863e+01 2.385370e+01 1.538919e+01 1.513653e+01 1.200587e+01 1.507586e+01 1.006658e+01 8.464263e+00 1.520153e+00 1.106855e+00 1.591570e+00 1.399160e+00 2.010776e+00 1.409359e+00 2.050608e+00 2.232074e+00 1.559719e+00 2.146528e+00 1.639129e+00 2.018835e+00 1.474815e+00 1.737982e-01 1.766226e-01 3.241302e-01 4.562440e-01 3.348332e-01 3.343765e-01 4.990925e-01 3.522474e-01 3.659619e-01 2.919961e-01 3.442845e-01 2.654501e-01 1.587976e-01
<GCONST> 9.519212e+01
<MIXTURE> 7 8.371039e-02
<MEAN> 39
 -1.305022e+00 1.466908e+00 3.156989e+00 3.974003e+00 1.726065e+00 3.986832e+00 4.109529e+00 2.357135e+00 1.789766e+00 1.767321e+00 -2.567743e-01 -4.219894e-01 -5.420921e+00 -1.076431e+00 -4.140461e-01 -8.202249e-01 5.236100e-01 -1.230269e-01 -3.796891e-01 -6.690037e-01 -4.289766e-01 7.215247e-02 -5.613358e-02 2.955601e-02 7.832790e-03 1.701137e+00 -3.766544e-01 1.173268e-01 -3.893275e-01 -1.983830e-02 -5.029604e-02 -2.204788e-01 -1.881564e-01 2.288982e-02 -9.195673e-02 8.355498e-02 2.891130e-02 8.838922e-02 5.308638e-01
<VARIANCE> 39
 2.954587e+00 4.054468e+00 8.750631e+00 6.626808e+00 8.418281e+00 1.414775e+01 1.316564e+01 1.537133e+01 1.092485e+01 1.413116e+01 9.239725e+00 1.129510e+01 2.158170e+00 4.241180e-01 7.780325e-01 9.643113e-01 1.009217e+00 1.086983e+00 1.484108e+00 1.580152e+00 1.577225e+00 1.645655e+00 1.273536e+00 9.147188e-01 1.024911e+00 5.690185e-01 6.691182e-02 1.361012e-01 1.356794e-01 1.577295e-01 2.267973e-01 3.914215e-01 3.114606e-01 3.418767e-01 2.924236e-01 2.362570e-01 1.845461e-01 1.946175e-01 7.580365e-02
<GCONST> 7.735127e+01
<MIXTURE> 8 6.666815e-02
<MEAN> 39
 -4.166238e+00 -1.532898e+00 -6.883286e-02 3.521904e+00 4.650789e-01 1.204482e+00 1.340028e+00 -6.534034e-02 2.557175e-01 7.760908e-01 7.198569e-01 1.280520e+00 9.278768e-01 -1.755592e+00 5.455662e-01 -1.110631e+00 3.290173e-01 5.082854e-02 -4.170000e-01 -2.567871e-01 1.587239e-01 -1.797950e-01 1.905580e-01 -1.420909e-01 1.543596e-01 1.805564e+00 4.746461e-02 4.752683e-01 -2.912477e-02 -2.371204e-01 1.503194e-01 1.042623e-01 2.615603e-01 3.635233e-01 -3.287591e-02 6.221115e-02 -8.712974e-02 -7.143115e-02 -2.347586e-01
<VARIANCE> 39
 3.590679e+00 8.401640e+00 1.168483e+01 1.091364e+01 8.195315e+00 1.100433e+01 7.806685e+00 7.945892e+00 8.568379e+00 8.713535e+00 1.203427e+01 8.291237e+00 5.915478e+00 4.896634e-01 8.727330e-01 9.324587e-01 8.085778e-01 1.218845e+00 1.313322e+00 1.620064e+00 2.136457e+00 1.545744e+00 1.866758e+00 9.983065e-01 1.104923e+00 6.332279e-01 1.128702e-01 1.817565e-01 1.780359e-01 2.845873e-01 2.341313e-01 2.683305e-01 2.729826e-01 3.037142e-01 2.711158e-01 2.537020e-01 2.387179e-01 2.098515e-01 1.210707e-01
<GCONST> 8.062711e+01
<MIXTURE> 9 4.218801e-02
<MEAN> 39
 -7.544974e-02 -1.175127e+00 -4.209838e-01 2.013672e+00 -8.259093e-01 2.466897e+00 8.255650e+00 5.020898e+00 -4.297172e-01 9.827091e-01 1.289891e+00 1.290842e-01 -4.939507e+00 -3.431217e-01 -3.620332e-02 -2.007205e-01 2.131433e-01 3.069852e-01 5.724595e-01 2.559161e-01 5.182320e-01 7.120715e-01 4.624483e-01 3.252826e-01 -2.621807e-01 -1.820658e-01 -7.428402e-02 3.563269e-01 1.828081e-01 5.543777e-02 -1.462854e-01 -4.567205e-01 -9.616282e-01 -6.003335e-01 1.859187e-02 -9.490328e-02 -5.527442e-03 -6.668862e-02 3.922832e-01
<VARIANCE> 39
 1.783829e+00 5.405779e+00 8.982869e+00 9.612607e+00 1.278940e+01 2.400527e+01 1.882899e+01 7.293767e+00 1.747664e+01 1.443766e+01 1.354057e+01 1.713316e+01 3.432833e+00 1.755003e-01 6.906442e-01 9.558685e-01 8.683068e-01 9.378818e-01 1.618847e+00 2.881773e+00 1.248982e+00 1.228923e+00 1.262038e+00 7.226541e-01 9.123002e-01 1.871588e-01 6.929696e-02 1.115380e-01 1.842404e-01 2.992633e-01 1.731572e-01 3.921864e-01 3.984681e-01 2.484807e-01 2.907846e-01 2.918327e-01 2.032665e-01 2.852485e-01 9.187403e-02
<GCONST> 7.854562e+01
<MIXTURE> 10 4.271230e-02
<MEAN> 39
 -1.012064e+01 5.670010e+00 -1.409565e+00 -8.321782e-01 1.681497e+00 3.290123e-01 8.577342e-01 -7.119691e-01 3.164479e+00 -7.697536e-01 6.876877e-01 2.310914e+00 5.427895e+00 2.889298e+00 -5.716985e-02 1.648907e+00 -3.392797e+00 -2.103755e+00 -1.409827e+00 -1.823161e+00 -1.265555e+00 -7.220773e-01 -7.268419e-01 -1.275133e+00 -4.843431e-01 1.241416e+00 1.294581e+00 -9.023733e-01 -3.026118e-02 -4.364236e-01 -7.090808e-01 -5.144965e-02 -2.358819e-01 -6.912472e-03 -4.543599e-01 6.870912e-03 -1.974816e-01 -4.294337e-01 5.262078e-02
<VARIANCE> 39
 7.718240e+00 1.300357e+01 1.807389e+01 2.135634e+01 1.914384e+01 2.219047e+01 2.321528e+01 2.408607e+01 1.766065e+01 1.739554e+01 1.872056e+01 2.477108e+01 8.008848e+00 1.187348e+00 2.063050e+00 1.954998e+00 3.836718e+00 1.772197e+00 3.057992e+00 3.250851e+00 1.641165e+00 2.444511e+00 1.937795e+00 3.319530e+00 2.094255e+00 9.132532e-01 3.948859e-01 4.427872e-01 4.420382e-01 7.790527e-01 5.881340e-01 7.355930e-01 6.701601e-01 6.096721e-01 3.638608e-01 4.793787e-01 5.125265e-01 6.517993e-01 2.351893e-01
<GCONST> 1.094134e+02
<MIXTURE> 11 5.537830e-02
<MEAN> 39
 -9.096046e+00 1.587311e+00 -2.654423e+00 5.811522e+00 4.189528e+00 3.854695e+00 3.898947e+00 3.913350e+00 -3.482630e-01 2.784939e+00 -1.432858e-01 9.929534e-01 3.279525e+00 3.741421e-02 1.140031e+00 -7.644856e-01 -1.326006e+00 -1.116210e-01 -5.736268e-01 -3.765075e-01 2.582147e-01 -7.393687e-01 -6.219620e-01 -2.252539e-01 -4.662311e-01 1.062914e+00 1.362483e+00 -1.023731e-02 1.425415e-01 -1.434752e+00 -8.319818e-01 -6.733658e-01 -7.606741e-01 -6.173740e-01 -5.701823e-02 -6.211968e-01 4.554561e-02 -8.924370e-02 -1.321469e-01
<VARIANCE> 39
 4.487504e+00 2.076259e+01 1.059213e+01 1.223806e+01 1.515198e+01 2.275527e+01 2.300537e+01 2.082805e+01 1.955111e+01 1.839004e+01 2.036032e+01 2.028531e+01 6.546033e+00 2.147463e+00 1.608406e+00 1.334764e+00 1.994786e+00 2.054794e+00 2.786081e+00 2.360698e+00 2.762176e+00 2.180715e+00 2.486051e+00 2.113235e+00 1.797548e+00 1.190473e+00 8.905780e-02 4.808933e-01 3.284907e-01 2.364800e-01 4.003972e-01 5.976399e-01 5.419472e-01 4.967454e-01 3.992356e-01 4.826194e-01 4.541691e-01 5.435036e-01 1.682909e-01
<GCONST> 1.026406e+02
<MIXTURE> 12 1.026334e-01
<MEAN> 39
 -6.417720e+00 -2.542080e-01 -4.705847e+00 2.834888e+00 -1.030079e-01 1.382648e+00 1.149399e+00 2.254622e+00 1.831788e+00 -3.746960e-01 3.355364e+00 -1.681169e-02 1.518039e+00 -2.070676e+00 6.103762e-01 -1.153942e+00 -6.040047e-02 -5.784170e-02 -3.221109e-01 -5.717855e-02 -7.477260e-02 5.685744e-01 -7.865711e-01 1.173321e-02 -1.114183e-01 2.346150e+00 4.706427e-01 4.329959e-01 6.169573e-01 -4.780261e-01 -6.912349e-02 -1.666384e-01 -8.782488e-02 -3.248411e-01 -4.884209e-02 -8.212600e-02 -3.587391e-01 6.056103e-02 -2.114794e-01
<VARIANCE> 39
 6.241016e+00 1.706965e+01 9.091914e+00 9.826344e+00 1.221974e+01 1.255041e+01 1.770840e+01 1.508660e+01 1.688576e+01 1.722649e+01 1.168560e+01 1.231091e+01 1.172923e+01 8.044084e-01 9.436961e-01 1.665830e+00 1.272900e+00 1.247500e+00 1.614673e+00 1.735060e+00 2.006148e+00 1.974681e+00 1.785847e+00 1.566835e+00 1.387984e+00 1.048057e+00 2.299703e-01 3.217598e-01 2.292897e-01 2.919209e-01 3.520529e-01 2.852024e-01 4.454410e-01 3.739966e-01 3.989127e-01 3.531193e-01 2.623129e-01 2.957624e-01 2.327199e-01
<GCONST> 9.369746e+01
<MIXTURE> 13 7.699727e-02
<MEAN> 39
 -1.202584e+00 1.116184e+00 1.525195e+00 2.465619e+00 5.904028e-01 2.259822e+00 1.822948e+00 1.191012e+00 -6.995583e-01 1.235765e+00 2.407932e+00 1.573055e+00 -6.068625e+00 -1.164669e+00 -1.502536e-01 -1.151374e+00 1.246242e-01 -1.759007e-01 -2.251827e-01 -1.076577e-01 -1.637982e-01 -1.451817e-01 -4.171081e-01 1.865815e-01 -5.097321e-01 1.778724e+00 -5.859613e-01 2.590331e-01 -3.577575e-01 -8.074026e-03 1.058362e-03 -1.771842e-01 -6.622658e-02 4.692889e-02 2.775239e-01 -1.808244e-01 -1.250566e-01 -1.886849e-01 7.842410e-01
<VARIANCE> 39
 2.512479e+00 4.417215e+00 9.479844e+00 8.596848e+00 1.194649e+01 1.443894e+01 1.079797e+01 1.583590e+01 8.477172e+00 1.211120e+01 9.295288e+00 9.247324e+00 4.015696e+00 8.184397e-01 1.069140e+00 1.376699e+00 9.775710e-01 1.017589e+00 1.342330e+00 1.805035e+00 1.426401e+00 1.609776e+00 1.279878e+00 1.192998e+00 1.063960e+00 1.347317e+00 7.501081e-02 1.478775e-01 2.142141e-01 1.749873e-01 2.482166e-01 1.718610e-01 3.166728e-01 3.129230e-01 2.714098e-01 3.922241e-01 2.007896e-01 2.305850e-01 1.112012e-01
<GCONST> 8.117204e+01
<MIXTURE> 14 4.971334e-02
<MEAN> 39
 -9.049724e-01 1.508446e+00 1.833995e+00 1.807038e+00 1.132594e+00 3.725130e+00 4.637742e+00 2.430352e+00 1.620201e+00 3.317478e-01 -9.339708e-02 8.454180e-01 -4.778577e+00 -3.229891e-01 -3.970506e-01 8.588587e-02 2.538737e-01 6.528750e-01 9.143206e-01 9.581089e-01 3.137685e-01 9.859809e-02 -1.185629e-01 1.935204e-01 2.157966e-01 -4.339980e-01 1.575266e-01 2.386685e-01 -2.385823e-01 -3.233132e-01 -5.224762e-01 -7.518291e-01 -7.383951e-01 -4.013019e-01 -2.941160e-01 -1.546527e-01 -9.095147e-02 -2.552055e-01 5.813765e-01
<VARIANCE> 39
 2.355301e+00 4.329972e+00 8.279433e+00 1.025349e+01 9.252406e+00 1.047655e+01 1.338675e+01 1.264447e+01 1.646999e+01 1.085429e+01 1.101987e+01 1.262292e+01 3.219260e+00 2.469972e-01 4.527695e-01 6.590378e-01 8.840271e-01 1.021734e+00 1.438078e+00 1.421718e+00 1.699094e+00 2.344387e+00 1.719478e+00 1.330933e+00 1.234714e+00 1.022143e-01 8.162104e-02 1.003427e-01 1.654409e-01 2.758366e-01 2.065447e-01 2.753853e-01 3.015626e-01 2.549087e-01 3.684774e-01 2.186295e-01 3.963249e-01 2.532583e-01 8.732048e-02
<GCONST> 7.700249e+01
<MIXTURE> 15 5.741898e-02
<MEAN> 39
 -1.833709e+00 2.108308e-01 -1.354282e+00 1.074962e+00 8.449708e-01 1.110258e+00 1.721479e+00 3.732468e+00 4.006562e+00 4.321129e+00 3.512263e+00 1.504176e+00 -5.986654e+00 -7.900517e-01 -3.087585e-01 -5.320799e-01 1.709858e-01 -1.107442e-01 4.926272e-01 9.238649e-02 3.843257e-01 1.540396e-01 -5.286727e-01 7.671143e-02 -1.400855e-01 9.390792e-01 -1.651746e-01 3.573271e-01 1.422397e-01 1.341227e-01 -1.533904e-01 -2.521730e-01 -3.141727e-01 -3.873361e-01 -5.317830e-01 -6.833503e-01 -3.249371e-01 -2.535290e-01 7.536846e-01
<VARIANCE> 39
 4.418608e+00 6.374323e+00 6.560239e+00 1.103227e+01 1.177978e+01 1.193040e+01 1.041086e+01 1.125184e+01 9.987274e+00 1.215645e+01 1.347534e+01 1.088722e+01 4.831981e+00 1.051905e+00 1.011264e+00 1.159281e+00 1.242147e+00 1.402994e+00 1.079575e+00 2.017364e+00 1.325235e+00 1.913731e+00 1.723739e+00 1.187399e+00 1.247544e+00 1.780830e+00 1.341369e-01 2.072058e-01 1.418132e-01 2.759786e-01 2.367486e-01 3.252048e-01 3.125968e-01 2.681175e-01 2.046202e-01 2.653143e-01 2.488387e-01 1.807442e-01 1.372258e-01
<GCONST> 8.448944e+01
<MIXTURE> 16 5.146026e-02
<MEAN> 39
 -7.120992e+00 3.209608e+00 6.775146e-01 5.178566e+00 2.032121e+00 4.629450e+00 2.287571e+00 3.726294e+00 1.132649e+00 7.181314e-01 7.710686e-02 -9.234095e-01 6.330791e-01 -6.598678e-01 8.086703e-01 -9.152519e-01 -1.438295e-01 4.019272e-02 -1.903283e-01 -2.617547e-02 3.649437e-01 -3.304659e-01 3.073772e-01 2.138859e-01 2.010707e-01 4.849494e-01 1.154200e+00 -2.320609e-01 -3.722423e-01 -1.179107e+00 -4.872114e-01 -6.703891e-01 -3.773320e-01 -4.737149e-01 -3.744951e-01 -1.392753e-01 3.069120e-02 2.173441e-01 1.238045e-02
<VARIANCE> 39
 3.711014e+00 1.042244e+01 7.111084e+00 1.038385e+01 1.174218e+01 1.178410e+01 1.707925e+01 1.917165e+01 1.618738e+01 1.362187e+01 1.305773e+01 1.053738e+01 3.053595e+00 9.878922e-01 9.643995e-01 9.210104e-01 1.588123e+00 1.462828e+00 1.298044e+00 1.416169e+00 1.264190e+00 1.742423e+00 1.365384e+00 1.522302e+00 1.164750e+00 8.720475e-01 7.171030e-02 2.444285e-01 2.215317e-01 3.000656e-01 2.256724e-01 1.974715e-01 3.698717e-01 4.279945e-01 3.867140e-01 3.301048e-01 2.488120e-01 2.514907e-01 1.026907e-01
<GCONST> 8.583530e+01
<STATE> 3
<NUMMIXES> 16
<MIXTURE> 1 4.507891e-02
<MEAN> 39
 8.264539e-02 3.296515e+00 1.088348e+00 -9.294999e-01 7.915918e-01 -1.745619e-01 2.078635e+00 4.314584e+00 9.731732e-01 8.837162e-01 1.219363e+00 -1.937310e+00 8.054001e-01 2.927883e-01 -5.693474e-01 -1.158176e-01 4.628459e-02 4.022833e-01 5.594475e-02 -7.803269e-02 2.499172e-01 1.084367e-01 -2.191281e-01 3.134458e-01 -5.287364e-01 -2.069041e-03 -2.330378e-02 -3.714431e-02 -3.661753e-01 -3.522977e-01 -1.534464e-01 -2.830838e-01 -4.913317e-01 -4.306186e-01 -2.121265e-01 -5.807133e-02 -1.169673e-01 1.826139e-01 1.247154e-01
<VARIANCE> 39
 1.117117e+01 1.755205e+01 1.240883e+01 1.614362e+01 2.581134e+01 2.280671e+01 2.970018e+01 4.531847e+01 2.018319e+01 1.795152e+01 1.191022e+01 9.166266e+00 3.316118e+01 3.929139e+00 1.646209e+00 2.279670e+00 3.443875e+00 2.923633e+00 4.811444e+00 4.068963e+00 2.649460e+00 2.061216e+00 2.925720e+00 1.466588e+00 1.936022e+00 5.386177e-01 3.358276e-01 4.270040e-01 5.329042e-01 7.846830e-01 6.377879e-01 4.827042e-01 4.243320e-01 5.824909e-01 6.076972e-01 5.478215e-01 2.558679e-01 2.618153e-01 1.962791e-01
<GCONST> 1.102749e+02
<MIXTURE> 2 6.593084e-02
<MEAN> 39
 3.105264e+00 -6.782445e-01 -1.121059e+00 -1.338047e+01 -6.517728e+00 2.738363e+00 -1.135324e+00 -2.333795e+00 2.893249e+00 -2.492652e+00 -6.866303e+00 1.509660e-01 1.237244e+01 1.412370e+00 -3.086991e+00 -3.361893e-01 -1.649197e+00 -7.920625e-01 1.950900e+00 4.654106e-01 -4.009802e-01 -1.140890e+00 1.752264e-01 -1.026212e+00 5.290419e-02 2.058372e+00 -1.039758e+00 -1.611188e-01 -1.733452e-01 1.494578e+00 6.086279e-01 6.597495e-02 1.025432e-01 3.540821e-02 -3.025882e-01 3.032627e-01 8.230074e-01 1.437027e-01 -5.247910e-01
<VARIANCE> 39
 4.234629e+00 1.126076e+01 4.974022e+00 1.378461e+01 1.369703e+01 1.534742e+01 1.215015e+01 8.531088e+00 1.427283e+01 1.465079e+01 1.054059e+01 7.795924e+00 6.965966e+00 1.372903e+00 7.616790e-01 9.343992e-01 2.165602e+00 1.540521e+00 7.576877e-01 2.975793e+00 1.323915e+00 1.764253e+00 1.629428e+00 1.831892e+00 1.341953e+00 8.626660e-01 8.390295e-02 2.133018e-01 1.194354e-01 2.147406e-01 2.871275e-01 3.082676e-01 3.018321e-01 1.958164e-01 3.073564e-01 2.940619e-01 2.989196e-01 2.027099e-01 6.815714e-02
<GCONST> 8.470178e+01
<MIXTURE> 3 7.750882e-02
<MEAN> 39
 9.046597e-01 -1.022596e-01 -7.775726e+00 -1.302738e+01 -2.384799e+00 -2.584856e+00 -3.094006e+00 -3.650471e-01 -3.998026e+00 -8.346069e+00 -1.324476e+00 -4.807441e+00 1.059038e+01 5.603185e-02 -1.729318e+00 -5.450591e-01 -1.029340e+00 6.018968e-01 1.145972e+00 -8.076079e-01 -9.836061e-01 -2.673028e-02 -1.391873e+00 -3.819515e-01 -6.430318e-01 1.630937e+00 -7.997563e-01 2.155251e-02 7.528412e-01 1.756611e+00 6.058386e-01 5.496482e-01 3.711271e-01 1.184315e-01 5.039424e-01 9.589868e-01 1.703628e-01 4.036313e-01 -6.164001e-01
<VARIANCE> 39
 4.773788e+00 1.291591e+01 5.648136e+00 1.527295e+01 2.071904e+01 2.014416e+01 1.923985e+01 1.335830e+01 1.269852e+01 1.399776e+01 1.462440e+01 2.398658e+01 7.615357e+00 9.565795e-01 9.837869e-01 1.484661e+00 3.034359e+00 2.650782e+00 1.718790e+00 2.087514e+00 1.243225e+00 1.883514e+00 1.284658e+00 1.878024e+00 2.577584e+00 8.775716e-01 1.299254e-01 2.623182e-01 1.657408e-01 3.886077e-01 4.439741e-01 4.350041e-01 3.585762e-01 3.354454e-01 3.223715e-01 2.997526e-01 3.292381e-01 4.591754e-01 9.863593e-02
<GCONST> 9.472851e+01
<MIXTURE> 4 6.013624e-02
<MEAN> 39
 2.110831e+00 -4.454751e+00 -2.763028e+00 -1.156640e+01 -4.806248e+00 5.677176e+00 -1.846742e+00 -4.228405e+00 -1.056973e+00 -4.550928e+00 -5.146396e+00 5.151243e-01 1.421669e+01 -4.304960e-02 -1.930138e+00 2.343878e-01 1.417630e+00 7.106655e-01 1.128443e+00 -6.499637e-01 -1.056991e+00 -1.314343e+00 6.665522e-01 8.281161e-01 1.500223e-01 4.852892e-01 -4.111003e-01 5.424368e-01 2.542231e-01 9.140676e-01 3.441122e-01 -6.084505e-01 -3.107827e-01 5.564777e-02 9.031236e-02 2.960996e-01 4.297273e-01 -2.013201e-01 -7.189530e-01
<VARIANCE> 39
 8.031919e+00 1.357736e+01 8.972926e+00 7.700553e+00 1.485263e+01 1.259393e+01 1.745892e+01 1.585673e+01 8.073655e+00 1.234784e+01 1.356557e+01 8.697969e+00 9.458094e+00 1.277503e-01 6.092216e-01 3.086609e-01 6.314368e-01 9.070279e-01 8.627878e-01 1.832431e+00 1.122223e+00 1.129435e+00 1.344577e+00 1.704896e+00 1.687424e+00 3.515666e-01 1.453837e-01 1.291903e-01 1.178598e-01 2.436004e-01 1.718726e-01 1.236509e-01 2.532863e-01 1.777844e-01 1.845778e-01 1.121975e-01 2.746350e-01 1.474386e-01 4.888139e-02
<GCONST> 7.521613e+01
<MIXTURE> 5 8.884853e-02
<MEAN> 39
 9.742829e-01 6.454412e+00 -2.589406e+00 -8.670016e+00 -3.184488e+00 -3.187611e+00 -3.726629e+00 -1.347642e+00 1.235509e+00 -5.871168e+00 -9.306341e-03 -4.197976e+00 8.533344e+00 2.115173e+00 8.663242e-02 -1.305200e-01 -3.933508e+00 -4.900352e-01 -7.434331e-03 -1.649780e+00 -5.675491e-01 -2.875087e-01 -5.603058e-01 -7.970020e-01 -1.647413e-01 2.708192e+00 -7.354925e-01 -8.252280e-01 -1.772001e-01 6.484367e-01 3.896410e-01 5.609132e-01 3.023987e-01 1.619469e-01 -2.131705e-02 5.143213e-01 7.677601e-02 6.268042e-01 -8.971345e-02
<VARIANCE> 39
 7.041144e+00 5.665974e+00 5.824307e+00 1.254741e+01 9.862492e+00 1.261042e+01 1.197996e+01 8.920569e+00 8.503902e+00 9.835323e+00 1.053793e+01 1.007668e+01 8.033816e+00 1.247524e+00 1.309702e+00 1.038532e+00 2.378780e+00 1.430783e+00 2.467530e+00 1.786529e+00 1.201693e+00 1.977775e+00 1.520554e+00 1.706153e+00 1.471989e+00 9.330553e-01 1.566871e-01 1.755800e-01 1.214602e-01 2.855834e-01 1.893448e-01 2.161281e-01 2.926195e-01 1.800587e-01 2.375434e-01 1.796524e-01 1.857346e-01 1.441298e-01 1.011038e-01
<GCONST> 8.353847e+01
<MIXTURE> 6 4.914377e-02
<MEAN> 39
 -1.795057e-01 -1.066684e+00 -5.967054e+00 -1.020113e+01 3.524769e+00 3.358700e-01 -5.254679e+00 -2.904025e+00 -1.643708e+00 -6.287193e+00 1.617480e+00 -1.310366e+00 1.126647e+01 -6.134164e-01 -1.565844e+00 5.329734e-01 1.090416e+00 1.090675e+00 4.629427e-01 -1.067373e+00 -1.117054e+00 -9.204676e-02 2.179464e-01 2.314120e-02 7.339535e-01 7.988300e-01 -3.308018e-01 1.573914e-01 4.945112e-01 9.662251e-01 -2.928592e-01 -9.637485e-02 4.330297e-01 1.516163e-01 3.783839e-01 3.074046e-01 -3.360740e-02 -1.407168e-02 -6.585225e-01
<VARIANCE> 39
 2.155538e+00 8.877132e+00 3.825282e+00 7.228083e+00 1.208095e+01 7.146565e+00 8.106401e+00 7.293767e+00 7.040851e+00 6.314414e+00 5.910092e+00 7.164155e+00 9.339788e+00 1.572396e-01 5.324095e-01 4.093658e-01 5.093948e-01 6.271180e-01 8.013436e-01 5.840249e-01 1.123308e+00 1.024511e+00 5.471310e-01 7.086977e-01 1.249452e+00 3.287260e-01 9.948900e-02 1.141868e-01 8.889951e-02 1.829394e-01 2.620956e-01 1.704210e-01 1.272913e-01 1.082932e-01 1.259045e-01 1.046066e-01 1.408761e-01 1.083767e-01 2.099077e-02
<GCONST> 6.092557e+01
<MIXTURE> 7 5.387141e-02
<MEAN> 39
 1.322988e+00 3.096798e+00 -6.557179e+00 -6.788886e+00 -4.937075e+00 -4.426455e+00 -2.374446e+00 9.875323e-01 -2.064224e+00 2.692421e+00 3.249668e+00 3.965615e+00 3.317263e+00 2.061259e+00 -8.010823e-01 -2.666064e+00 -4.157150e+00 -9.965208e-01 -1.735964e+00 -1.417022e+00 -9.520196e-01 -1.643383e+00 -1.870045e+00 -3.452650e-01 4.256088e-01 1.963988e+00 -5.483887e-01 -3.845832e-01 5.298979e-01 7.645050e-01 8.512200e-01 6.785753e-01 6.870255e-02 1.524173e-03 2.326322e-01 -5.610812e-01 -4.158493e-01 -6.690750e-01 1.070791e-01
<VARIANCE> 39
 3.881047e+00 4.673856e+00 1.252343e+01 1.713328e+01 7.933284e+00 1.218287e+01 1.551824e+01 1.224963e+01 1.058460e+01 1.736086e+01 9.990188e+00 7.896327e+00 3.888403e+00 5.884181e-01 8.409863e-01 1.448240e+00 2.573698e+00 2.180162e+00 1.766647e+00 3.130895e+00 2.366593e+00 1.199007e+00 1.352072e+00 1.946942e+00 1.715909e+00 4.388270e-01 1.552231e-01 1.714529e-01 2.463978e-01 3.693706e-01 2.415601e-01 3.298312e-01 3.828712e-01 3.133912e-01 1.952648e-01 3.817208e-01 2.101193e-01 1.773711e-01 6.047060e-02
<GCONST> 8.616635e+01
<MIXTURE> 8 5.677183e-02
<MEAN> 39
 -7.544776e-01 2.323861e+00 -2.763703e+00 -1.438464e+01 -4.038242e+00 -7.990468e-01 -3.264887e+00 2.172045e-01 3.360181e+00 -3.849295e+00 -3.495985e+00 -1.850757e+00 1.286669e+01 -1.338042e-01 -1.427298e+00 -8.055201e-01 -1.926019e+00 1.221103e-01 1.373325e+00 -2.082746e-01 -1.561834e-01 -2.714013e-01 2.611164e-01 -1.252218e+00 1.020229e+00 2.405262e+00 -5.580660e-01 -4.251972e-01 -2.081721e-02 1.655820e+00 5.757523e-01 3.904840e-01 5.165241e-01 -1.327495e-01 -2.453629e-01 1.091989e-01 4.433163e-01 3.144515e-01 -7.992485e-01
<VARIANCE> 39
 2.402405e+00 5.707709e+00 4.597568e+00 8.935546e+00 5.544307e+00 9.074544e+00 7.208624e+00 7.293767e+00 7.040851e+00 8.524523e+00 9.186575e+00 5.765870e+00 5.279739e+00 2.826032e-01 3.660159e-01 4.422554e-01 2.480544e+00 9.239097e-01 7.190318e-01 1.250599e+00 6.713979e-01 6.134487e-01 6.445171e-01 6.738892e-01 5.005188e-01 1.315026e+00 5.657431e-02 6.971154e-02 1.343137e-01 2.014797e-01 9.576554e-02 1.570591e-01 1.555004e-01 1.055572e-01 1.666301e-01 1.283787e-01 1.265636e-01 1.178669e-01 7.150773e-02
<GCONST> 6.297934e+01
<MIXTURE> 9 6.242500e-02
<MEAN> 39
 -7.257810e-01 -1.156333e+00 -3.769984e+00 -1.243906e+01 -6.219062e+00 2.346963e+00 -2.140888e+00 -2.385690e+00 1.649073e+00 -4.274224e+00 -8.280543e+00 9.251509e-01 1.417974e+01 -9.651098e-02 -1.723714e+00 -4.594261e-01 7.389363e-01 5.314273e-01 1.434812e+00 6.271127e-01 -1.081204e+00 -1.592739e+00 4.338177e-01 -6.801401e-01 4.940017e-01 6.827124e-01 -1.097477e-01 2.288811e-01 2.757464e-01 1.057803e+00 4.550764e-01 -1.685280e-01 6.742587e-02 -1.860366e-01 -2.242288e-01 1.092650e-01 7.845868e-01 -8.680762e-02 -7.830759e-01
<VARIANCE> 39
 4.499886e+00 4.310509e+00 7.933851e+00 9.840007e+00 1.414802e+01 8.267406e+00 9.170268e+00 8.234070e+00 7.040851e+00 1.854757e+01 1.365075e+01 5.765870e+00 5.601544e+00 1.002903e-01 2.647184e-01 2.740444e-01 5.586051e-01 4.351781e-01 5.826032e-01 1.337229e+00 7.499793e-01 7.093582e-01 6.983042e-01 7.216164e-01 8.226230e-01 1.618476e-01 5.242204e-02 4.835909e-02 6.997916e-02 2.084839e-01 1.341629e-01 1.277173e-01 1.738176e-01 1.160827e-01 1.776935e-01 2.323180e-01 1.843877e-01 1.479209e-01 5.758077e-02
<GCONST> 6.130837e+01
<MIXTURE> 10 6.991559e-02
<MEAN> 39
 5.183608e-01 3.340539e+00 1.473737e+00 -1.148466e+01 -6.500849e+00 -4.136843e+00 -5.843309e+00 -4.113493e+00 -4.005079e-01 -2.353636e+00 -2.365816e+00 -5.641550e-01 9.651267e+00 3.113747e+00 -2.176417e+00 4.181935e-01 -3.032031e+00 -3.264549e+00 -7.459340e-01 -9.954775e-01 -1.145930e+00 -8.917307e-01 -1.244855e-01 -1.081261e+00 -1.100814e+00 2.016212e+00 -5.158603e-01 -5.615110e-01 -6.502032e-01 1.515658e+00 5.111643e-01 4.252971e-01 9.993642e-01 4.641647e-01 -2.269920e-01 2.262543e-01 2.475077e-01 -6.694611e-02 -3.593215e-01
<VARIANCE> 39
 8.362526e+00 1.491966e+01 2.078041e+01 2.132759e+01 1.261368e+01 2.197847e+01 1.459289e+01 1.425667e+01 1.395189e+01 1.844248e+01 3.209185e+01 1.187767e+01 9.832743e+00 1.476255e+00 2.492001e+00 1.567201e+00 4.690270e+00 2.477429e+00 2.684689e+00 3.651794e+00 4.239829e+00 4.064487e+00 3.584145e+00 2.944661e+00 4.326731e+00 8.628410e-01 3.168896e-01 2.638445e-01 3.968077e-01 5.928469e-01 4.139126e-01 7.507906e-01 4.602267e-01 4.230319e-01 3.113461e-01 3.450867e-01 7.764039e-01 3.488090e-01 1.168130e-01
<GCONST> 1.079295e+02
<MIXTURE> 11 6.540503e-02
<MEAN> 39
 7.617484e-02 -3.068210e+00 -1.089202e+01 -6.506392e+00 1.779699e+00 -3.691921e+00 -4.955829e+00 -3.808661e+00 -5.154590e+00 -2.430679e+00 -1.890774e+00 -2.016987e+00 1.026030e+01 -5.378807e-01 -1.077692e+00 1.278386e+00 1.648057e+00 1.366138e+00 -1.395738e+00 -2.136427e+00 -4.448011e-01 5.202532e-01 -2.080594e-01 -9.399933e-02 -1.676830e+00 2.828089e-01 -2.603668e-01 3.948121e-01 9.167167e-01 6.966180e-01 -2.955374e-01 1.263893e-01 1.418187e-01 5.158356e-01 3.277745e-01 1.990267e-01 2.369573e-01 7.936437e-02 -5.208599e-01
<VARIANCE> 39
 2.675170e+00 4.317658e+00 9.463573e+00 1.788282e+01 9.430786e+00 1.049879e+01 3.374942e+01 2.953807e+01 7.166472e+00 1.124272e+01 8.795530e+00 1.791597e+01 8.880300e+00 2.751620e-01 4.117651e-01 6.977071e-01 8.773198e-01 1.234500e+00 1.771554e+00 1.127260e+00 1.476732e+00 7.939219e-01 9.259589e-01 1.471478e+00 1.155366e+00 2.859121e-01 1.013390e-01 6.479869e-02 2.952759e-01 4.400347e-01 3.541794e-01 3.635594e-01 5.094230e-01 4.117310e-01 1.522747e-01 1.989508e-01 2.081933e-01 2.105009e-01 4.469037e-02
<GCONST> 7.957210e+01
<MIXTURE> 12 8.085765e-02
<MEAN> 39
 1.746180e+00 -9.015634e-01 -1.212225e+01 -1.060831e+01 -2.335537e+00 -2.061429e+00 -2.072655e+00 -1.102752e+00 -5.790370e+00 -3.955372e+00 -1.405401e+00 8.412865e-01 9.174462e+00 5.996420e-01 -1.689559e+00 -1.976189e+00 -1.744282e+00 9.173132e-01 -1.149716e+00 -1.713055e+00 -1.558630e+00 -6.428182e-01 -1.594069e+00 -5.663795e-01 -1.241229e+00 1.939223e+00 -8.734941e-01 -2.943844e-02 1.164485e+00 1.616070e+00 7.521597e-01 3.565474e-01 3.605772e-02 3.094421e-01 6.482674e-01 4.483426e-01 1.246291e-01 -4.989890e-01 -4.743432e-01
<VARIANCE> 39
 3.771738e+00 4.018629e+00 9.312334e+00 1.389079e+01 1.175983e+01 6.895484e+00 1.957896e+01 1.768755e+01 1.083761e+01 1.221473e+01 1.363897e+01 1.483922e+01 5.531356e+00 7.376649e-01 5.729797e-01 1.523716e+00 2.367172e+00 1.912139e+00 1.740227e+00 2.377233e+00 2.052778e+00 1.564445e+00 1.177861e+00 1.205549e+00 1.434099e+00 4.673699e-01 6.468284e-02 1.047903e-01 1.714164e-01 1.427019e-01 2.410821e-01 2.634021e-01 3.325906e-01 3.071624e-01 1.701171e-01 2.105959e-01 2.411242e-01 2.457326e-01 4.977884e-02
<GCONST> 8.211671e+01
<MIXTURE> 13 8.097289e-02
<MEAN> 39
 -1.993479e+00 6.391276e+00 3.677865e-01 -2.502932e+00 -2.249940e+00 -1.486225e+00 -1.837888e+00 -3.415674e+00 1.227330e+00 -5.327884e+00 -1.928938e+00 -7.917148e-02 3.164210e+00 3.163732e+00 -4.838563e-01 3.740387e-01 -4.394750e+00 -2.128832e+00 2.975941e-02 -1.686906e+00 -1.034024e+00 -6.667323e-01 -1.018288e+00 -2.260988e+00 -5.989475e-01 2.682011e+00 -1.071172e-01 -9.750270e-01 -5.153504e-01 -1.278315e-01 -2.419535e-03 4.923568e-01 2.262129e-01 3.450665e-01 -1.391989e-01 4.663457e-01 5.664092e-03 3.038684e-02 5.235595e-01
<VARIANCE> 39
 1.000055e+01 7.947350e+00 1.051272e+01 1.538150e+01 1.680627e+01 9.824783e+00 1.530676e+01 1.357345e+01 1.904207e+01 1.860935e+01 1.789921e+01 1.502923e+01 8.961098e+00 1.333673e+00 2.261510e+00 1.357255e+00 1.967369e+00 2.224717e+00 2.541090e+00 1.768457e+00 1.628806e+00 2.316819e+00 1.529492e+00 1.599994e+00 1.342250e+00 6.760274e-01 2.355338e-01 1.917654e-01 1.515573e-01 2.637084e-01 2.734443e-01 1.775135e-01 3.591825e-01 2.362409e-01 3.350268e-01 3.854684e-01 3.266814e-01 3.717566e-01 1.363941e-01
<GCONST> 9.379713e+01
<MIXTURE> 14 4.808984e-02
<MEAN> 39
 2.938801e+00 3.155691e+00 -6.636747e+00 -8.123664e+00 -4.505142e+00 -2.510617e+00 -3.131516e+00 -8.704342e-01 -6.268317e+00 -2.477984e+00 6.538780e-01 7.229264e-01 5.576418e+00 2.487602e+00 -1.025473e+00 -2.646623e+00 -4.109767e+00 -1.812372e+00 -1.654485e+00 -2.261630e+00 -2.370837e+00 -1.012062e+00 -3.089093e+00 -3.954667e-01 -1.405442e+00 2.366063e+00 -7.860936e-01 -5.774810e-01 2.148487e-01 8.958897e-01 7.429428e-01 4.611316e-01 2.878601e-01 -1.281118e-01 5.852150e-01 2.117710e-01 -1.706522e-02 -2.134026e-01 1.172358e-01
<VARIANCE> 39
 5.219602e+00 6.361839e+00 1.255989e+01 1.986705e+01 1.186690e+01 1.203510e+01 7.197078e+00 1.020796e+01 8.024373e+00 1.275286e+01 1.496603e+01 1.827052e+01 6.405789e+00 5.457268e-01 1.144233e+00 1.399481e+00 1.129759e+00 1.553857e+00 2.770994e+00 1.686584e+00 1.700637e+00 1.655284e+00 1.690973e+00 1.648076e+00 2.985135e+00 5.598962e-01 1.134286e-01 1.076031e-01 1.917396e-01 2.985550e-01 2.319931e-01 3.381671e-01 2.806734e-01 2.246675e-01 1.991206e-01 2.019132e-01 2.833451e-01 3.890351e-01 7.961971e-02
<GCONST> 8.607314e+01
<MIXTURE> 15 6.469893e-02
<MEAN> 39
 5.798243e-01 -3.722149e+00 -8.521987e+00 -8.280985e+00 8.879693e-01 -8.271289e-01 -6.013757e+00 -2.515946e+00 -4.915980e+00 -6.206216e+00 -6.846312e-03 -5.848745e+00 1.021465e+01 -4.115483e-01 -7.947376e-01 5.957158e-01 1.013667e+00 9.211903e-01 2.161542e-01 -1.320711e+00 -8.666223e-01 5.537832e-01 2.000998e-01 1.095904e+00 -4.209138e-01 3.428095e-01 1.018333e-02 2.813472e-01 3.794657e-01 3.458212e-01 -2.506986e-01 -6.455417e-02 1.335586e-01 2.137008e-01 1.219108e-01 3.298894e-01 5.489025e-02 4.166995e-01 -4.126988e-01
<VARIANCE> 39
 5.551668e+00 4.020049e+00 4.069824e+00 5.381072e+00 8.200657e+00 1.642231e+01 1.119639e+01 1.419733e+01 9.333639e+00 1.713759e+01 8.105877e+00 1.171656e+01 4.968958e+00 1.966560e-01 3.151005e-01 3.424191e-01 4.378866e-01 5.949907e-01 9.937209e-01 6.406440e-01 7.198870e-01 7.110986e-01 9.885671e-01 9.610420e-01 5.251442e-01 1.122724e-01 6.364027e-02 4.278594e-02 7.978600e-02 1.976211e-01 1.183327e-01 2.074648e-01 1.243162e-01 1.536765e-01 1.794032e-01 2.172260e-01 1.225691e-01 1.317907e-01 5.215834e-02
<GCONST> 6.182630e+01
<MIXTURE> 16 3.034369e-02
<MEAN> 39
 -9.351272e-01 3.242191e+00 -2.927872e+00 -1.283777e+01 -8.812206e+00 -1.044604e+00 -5.525944e+00 -2.248601e+00 5.156885e+00 -7.223783e+00 -5.210610e+00 -2.339666e-01 1.217612e+01 1.186502e+00 -2.154058e+00 -5.947302e-01 -3.197602e+00 -1.881214e+00 4.189011e-01 -3.378115e-01 -5.716408e-01 -2.900363e-01 -9.732772e-02 -2.928559e+00 -2.143370e-01 3.211098e+00 -6.184826e-01 -7.932709e-01 -3.573641e-01 1.413903e+00 8.637934e-01 6.525241e-01 8.963217e-01 1.461871e-01 -5.662259e-01 7.977875e-01 3.980601e-01 8.455966e-02 -4.590530e-01
<VARIANCE> 39
 2.834324e+00 5.064236e+00 1.354537e+01 1.131286e+01 1.032936e+01 8.618013e+00 7.469243e+00 7.572293e+00 7.040851e+00 1.706633e+01 1.289141e+01 5.765870e+00 4.872388e+00 7.354486e-01 7.235767e-01 7.480570e-01 1.690857e+00 1.245744e+00 1.083442e+00 2.871611e+00 1.342208e+00 1.280805e+00 2.015454e+00 7.992893e-01 5.005188e-01 7.066749e-01 4.008912e-02 1.146828e-01 1.799224e-01 1.010937e-01 1.542854e-01 9.987089e-02 2.815883e-01 1.055572e-01 1.743052e-01 1.850874e-01 4.168839e-01 1.496375e-01 7.869967e-02
<GCONST> 7.368819e+01
<STATE> 4
<NUMMIXES> 16
<MIXTURE> 1 6.285858e-02
<MEAN> 39
 -1.553088e-01 2.062526e+00 -2.038409e+00 -6.254768e+00 -1.983806e+00 -1.772787e+00 -2.070428e+00 -5.310453e-01 4.579914e-01 -3.688012e+00 1.092110e-01 -4.630229e-01 4.228559e+00 -2.254721e-01 -1.474458e-01 2.127864e-01 3.327663e-01 1.176894e-01 7.323554e-01 4.864242e-01 3.186387e-02 2.396883e-01 1.489170e-01 -5.249792e-01 3.526605e-02 -2.163899e-01 -1.351483e-01 2.012712e-01 1.202585e-01 4.721984e-01 -1.038206e-02 2.866240e-02 1.153360e-01 -5.066489e-02 -1.123728e-02 3.343082e-01 3.045600e-02 7.684071e-02 -2.181070e-01
<VARIANCE> 39
 3.674078e+00 1.345739e+01 2.791344e+01 5.324128e+01 1.960937e+01 2.031633e+01 2.895927e+01 1.357576e+01 1.696208e+01 1.987483e+01 1.322325e+01 1.646688e+01 5.269704e+01 6.676426e-01 7.077224e-01 1.681010e+00 2.131048e+00 1.628391e+00 1.398660e+00 1.887999e+00 1.721122e+00 1.657012e+00 1.442105e+00 1.689525e+00 9.464340e-01 3.540057e-01 1.695233e-01 1.909751e-01 3.702946e-01 7.902098e-01 3.215008e-01 4.197339e-01 3.980853e-01 3.057795e-01 3.688287e-01 4.004138e-01 2.530229e-01 2.991266e-01 1.401707e-01
<GCONST> 9.761498e+01
<MIXTURE> 2 6.817625e-02
<MEAN> 39
 -1.729582e+00 -1.782959e+00 -1.848662e+00 -3.697068e+00 1.877148e+00 7.798852e-01 -5.049869e+00 -6.647258e+00 -1.065759e+00 -5.569138e+00 1.257285e+00 1.271995e+00 1.300798e+01 2.612762e-02 -2.279675e-01 2.661208e-01 3.383202e-01 -3.543323e-01 1.231656e-01 5.635775e-02 -4.391394e-01 2.264484e-01 2.609825e-02 -7.515927e-02 1.907975e-02 -5.370905e-02 5.357358e-02 6.141647e-02 -5.806880e-02 -6.326802e-02 -2.771363e-02 -2.528352e-04 6.161398e-02 3.770038e-02 -2.966518e-02 4.278168e-02 -4.477562e-02 -3.282654e-02 -4.830549e-02
<VARIANCE> 39
 1.363559e+00 2.829598e+00 3.825282e+00 5.224469e+00 5.544307e+00 6.895484e+00 7.197078e+00 7.293767e+00 7.040851e+00 6.314414e+00 5.910092e+00 5.765870e+00 1.661897e+00 7.849894e-02 1.831181e-01 2.740444e-01 3.646217e-01 4.351781e-01 5.340803e-01 5.840249e-01 6.000873e-01 6.134487e-01 5.471310e-01 5.540458e-01 5.005188e-01 4.733916e-02 1.372716e-02 3.334215e-02 4.885243e-02 6.606110e-02 7.748714e-02 9.945033e-02 1.012023e-01 1.055572e-01 1.120291e-01 1.015407e-01 9.704361e-02 8.715379e-02 8.525244e-03
<GCONST> 4.013578e+01
<MIXTURE> 3 3.375140e-02
<MEAN> 39
 5.194227e+00 1.959244e+00 -1.271550e+00 -1.132574e+01 -1.292495e+00 6.091257e+00 -3.174255e-01 -7.745275e-01 2.105380e+00 -4.854585e+00 -3.668137e+00 7.598425e-01 1.089430e+01 1.723941e-01 5.119899e-01 2.252292e-01 -5.284286e-02 3.066221e-01 -5.517685e-01 -5.009586e-01 3.819999e-01 -3.291825e-02 2.793900e-01 3.865982e-01 -4.239689e-01 -4.320304e-01 -1.589750e-02 2.356997e-01 -1.942525e-02 -2.334394e-02 1.470910e-02 -2.611090e-01 -1.215804e-01 1.376507e-01 7.916840e-02 4.270489e-02 1.443924e-01 -2.389700e-01 -9.180979e-02
<VARIANCE> 39
 1.363559e+00 9.851375e+00 3.825282e+00 5.739573e+00 5.544307e+00 8.220654e+00 1.531616e+01 9.399894e+00 7.040851e+00 7.483374e+00 6.240693e+00 6.817758e+00 4.176145e+00 7.849894e-02 3.934611e-01 6.596673e-01 5.126474e-01 6.184234e-01 1.088477e+00 8.842497e-01 1.163967e+00 7.187698e-01 5.804498e-01 5.540458e-01 9.293185e-01 4.805878e-02 1.372716e-02 3.334215e-02 1.184862e-01 1.343994e-01 8.304697e-02 1.447061e-01 2.087634e-01 1.922439e-01 1.120291e-01 1.015407e-01 9.704361e-02 9.411553e-02 1.555974e-02
<GCONST> 5.299411e+01
<MIXTURE> 4 8.230865e-02
<MEAN> 39
 2.757097e-01 -6.347918e+00 -6.072639e+00 -5.325866e+00 6.340828e-01 3.900554e-01 -1.036160e+01 -3.023695e+00 -3.234560e+00 -8.166188e+00 3.848300e+00 -4.565737e+00 1.024389e+01 4.069888e-02 8.744165e-02 1.076953e-01 7.609217e-02 2.250972e-01 -3.661875e-03 2.910249e-01 -1.196044e-01 1.452255e-01 -1.927081e-01 1.497266e-01 2.002127e-01 -6.023424e-02 -2.591613e-02 1.834454e-01 -5.366516e-02 -1.372018e-01 5.608394e-02 -4.606907e-02 1.433332e-01 1.641995e-01 -1.525401e-01 2.176736e-01 -1.045069e-01 1.349207e-03 -2.991472e-02
<VARIANCE> 39
 1.363559e+00 3.712235e+00 8.179936e+00 5.224469e+00 8.120895e+00 2.004749e+01 7.552998e+00 1.197836e+01 9.152852e+00 1.042854e+01 5.910092e+00 6.057007e+00 2.313897e+00 9.979931e-02 2.123078e-01 2.740444e-01 3.646217e-01 4.351781e-01 5.340803e-01 5.840249e-01 6.000873e-01 6.134487e-01 5.471310e-01 5.540458e-01 5.005188e-01 4.733916e-02 1.372716e-02 3.334215e-02 4.885243e-02 6.606110e-02 7.748714e-02 9.945033e-02 1.012023e-01 1.055572e-01 1.120291e-01 1.015407e-01 9.704361e-02 8.715379e-02 8.525244e-03
<GCONST> 4.469286e+01
<MIXTURE> 5 6.032214e-02
<MEAN> 39
 1.335131e-01 -5.930630e+00 -6.899555e+00 -5.523799e+00 2.683251e+00 -5.825066e-02 -1.025915e+01 2.851403e-01 -4.255781e+00 -3.916257e+00 3.376638e+00 -3.954571e+00 8.598650e+00 -6.691416e-02 -6.539780e-01 1.889237e-01 5.062447e-01 -3.533092e-02 5.518052e-01 -8.716045e-01 -2.950846e-01 -8.909820e-02 -5.693648e-01 5.536962e-01 1.364333e-01 1.507000e-01 3.878226e-02 2.276015e-01 -1.137188e-01 -1.129894e-01 -1.718590e-01 -2.732731e-03 3.217607e-01 2.641780e-02 3.609355e-02 2.206476e-02 -2.411176e-01 2.156832e-01 -7.500256e-02
<VARIANCE> 39
 2.830490e+00 6.132302e+00 4.884914e+00 6.216194e+00 1.228726e+01 1.281736e+01 1.347778e+01 1.400002e+01 1.282986e+01 1.150465e+01 7.552108e+00 5.765870e+00 4.369742e+00 1.217051e-01 2.894259e-01 3.841891e-01 3.646217e-01 5.728984e-01 5.933520e-01 5.840249e-01 7.510213e-01 6.134487e-01 5.471310e-01 6.466523e-01 5.005188e-01 4.733916e-02 1.887251e-02 4.243150e-02 5.934184e-02 6.606110e-02 9.459393e-02 1.059822e-01 1.067633e-01 1.331078e-01 1.120291e-01 1.015407e-01 9.704361e-02 1.150552e-01 8.525244e-03
<GCONST> 5.073828e+01
<MIXTURE> 6 4.756840e-02
<MEAN> 39
 -7.951134e-01 -3.581454e+00 -7.561456e+00 -1.643968e+00 3.659758e+00 -9.957393e+00 -8.766542e+00 -4.616362e+00 -3.386792e+00 -3.340649e+00 -2.576982e+00 -3.555755e+00 1.021570e+01 -1.925585e-01 5.560352e-02 1.599703e+00 8.681304e-01 -6.444126e-01 -1.389839e+00 -1.204265e+00 9.749084e-01 6.557827e-01 -8.389856e-01 -3.435894e-01 -8.618685e-01 -2.273733e-01 1.464522e-01 2.381782e-01 -1.888134e-01 -6.039198e-01 -4.935456e-01 5.729262e-01 4.560928e-01 2.725988e-01 -1.505305e-01 -9.227365e-02 4.014836e-02 1.781837e-01 -8.649446e-02
<VARIANCE> 39
 3.173067e+00 6.219870e+00 7.744038e+00 1.346499e+01 1.172865e+01 1.189020e+01 1.411210e+01 2.900572e+01 7.574554e+00 1.254862e+01 1.087359e+01 2.663199e+01 5.651924e+00 8.503698e-02 1.831651e-01 1.000619e+00 1.107269e+00 1.032819e+00 1.101150e+00 8.038622e-01 1.199455e+00 6.852352e-01 5.471310e-01 9.963109e-01 1.421319e+00 6.269513e-02 1.673952e-02 5.897907e-02 9.779872e-02 1.057631e-01 2.684503e-01 1.704231e-01 1.232786e-01 2.570516e-01 1.120291e-01 1.321830e-01 1.689685e-01 2.412382e-01 1.535470e-02
<GCONST> 6.522662e+01
<MIXTURE> 7 4.874601e-02
<MEAN> 39
 1.290769e+00 -6.664029e+00 -2.954727e+00 -9.457221e+00 -6.428503e+00 5.685557e+00 -6.998482e-01 -6.945284e+00 -3.834310e+00 -1.020607e+00 -7.080060e+00 2.702307e-01 1.461860e+01 2.017485e-01 -1.351912e+00 3.010557e-01 1.692796e+00 4.377050e-01 3.206249e-01 -2.574592e-01 -8.201616e-01 -1.368497e+00 9.211079e-01 1.019666e+00 -3.684339e-01 -7.238940e-03 -4.924994e-02 5.528018e-01 1.664881e-01 5.110527e-02 3.921834e-02 -5.970210e-01 -3.423601e-01 2.861345e-01 5.479295e-01 -2.679107e-01 2.510702e-01 -1.203900e-01 -2.979387e-01
<VARIANCE> 39
 7.219517e+00 6.007242e+00 1.111447e+01 1.493516e+01 9.324996e+00 9.135055e+00 2.509493e+01 8.270065e+00 1.178770e+01 9.952787e+00 1.190112e+01 5.927505e+00 7.097777e+00 7.849894e-02 3.146415e-01 3.337520e-01 5.901319e-01 6.145642e-01 1.041810e+00 2.768999e+00 6.335792e-01 1.342398e+00 9.907597e-01 8.856751e-01 7.820508e-01 4.733916e-02 2.143108e-02 5.071934e-02 6.939229e-02 1.444217e-01 7.748714e-02 9.945033e-02 2.430347e-01 1.055572e-01 1.321256e-01 1.015407e-01 2.810285e-01 1.136949e-01 4.508310e-02
<GCONST> 6.216774e+01
<MIXTURE> 8 7.294276e-02
<MEAN> 39
 -1.032983e+00 -4.864335e+00 -3.548088e+00 -7.494382e+00 2.376038e+00 2.408579e+00 -6.792668e+00 -6.547985e+00 -1.081628e+00 -4.929267e+00 -5.804532e-01 -2.715232e-01 1.402498e+01 -1.070038e-01 -9.268875e-01 8.892341e-01 1.413345e+00 2.194242e-01 -2.228615e-01 -8.737192e-01 -9.069486e-01 2.360727e-01 6.957005e-01 -1.010513e-01 3.346238e-01 -1.095373e-02 1.043908e-01 3.896922e-01 -3.638079e-03 -1.901604e-01 -3.715574e-01 -2.638043e-01 2.436738e-01 3.795479e-01 8.280804e-02 -5.940678e-02 -8.783536e-02 -2.940678e-01 -2.385624e-01
<VARIANCE> 39
 3.454057e+00 9.535174e+00 4.950129e+00 7.521579e+00 1.146025e+01 1.008176e+01 8.138911e+00 9.388000e+00 7.040851e+00 6.632209e+00 5.910092e+00 1.800391e+01 1.271999e+01 7.898662e-02 2.451309e-01 2.740444e-01 4.504372e-01 7.910156e-01 5.340803e-01 8.823045e-01 6.000873e-01 7.766919e-01 6.250038e-01 7.568668e-01 5.697816e-01 8.022375e-02 1.487834e-02 3.334215e-02 4.991822e-02 6.606110e-02 7.822978e-02 1.031476e-01 1.012023e-01 1.237018e-01 1.576804e-01 1.015407e-01 9.704361e-02 8.715379e-02 1.864458e-02
<GCONST> 5.189513e+01
<MIXTURE> 9 6.064655e-02
<MEAN> 39
 -5.805259e-01 -4.837361e+00 -7.072361e+00 -7.607885e+00 4.673845e-01 -1.361933e+00 -9.876365e+00 -3.499650e+00 -5.022601e+00 -4.923490e+00 3.662496e+00 -6.415229e+00 1.169698e+01 -5.751030e-02 -1.977174e-01 4.754195e-01 1.752758e-01 -7.310733e-02 2.729859e-01 -3.214479e-01 -2.221743e-01 2.117570e-01 -6.556176e-02 3.945978e-01 2.246225e-02 4.599659e-02 1.823473e-01 8.509962e-02 -5.246490e-02 -1.432276e-01 -1.159474e-01 5.653265e-02 2.204527e-01 7.846788e-02 -4.862653e-02 -2.274998e-01 -2.454423e-01 1.339435e-01 -1.484963e-01
<VARIANCE> 39
 5.285166e+00 3.191921e+00 3.825282e+00 5.224469e+00 6.920889e+00 1.099194e+01 7.197078e+00 8.065079e+00 7.374518e+00 7.578937e+00 5.910092e+00 1.211520e+01 1.661897e+00 1.163739e-01 2.382333e-01 2.740444e-01 3.646217e-01 4.351781e-01 5.340803e-01 5.840249e-01 6.898364e-01 6.134487e-01 5.471310e-01 5.540458e-01 5.005188e-01 4.733916e-02 4.421331e-02 3.334215e-02 4.885243e-02 6.994491e-02 7.748714e-02 9.945033e-02 1.012023e-01 1.055572e-01 1.120291e-01 1.015407e-01 9.704361e-02 8.715379e-02 1.628260e-02
<GCONST> 4.604108e+01
<MIXTURE> 10 7.931530e-02
<MEAN> 39
 8.100244e-01 -4.732697e+00 -2.401284e+00 -1.029480e+01 -4.456753e+00 5.564591e+00 -3.477969e-01 -3.995231e+00 -1.465297e+00 -1.959834e+00 -8.676952e+00 1.910478e+00 1.381233e+01 1.336382e-01 -2.194572e-01 -3.693299e-04 1.973784e-01 3.797583e-01 2.261781e-02 -1.124633e-03 -3.055336e-01 -2.440803e-01 -9.268048e-02 1.574861e-01 4.898604e-02 -1.481954e-01 2.920097e-02 3.565396e-01 1.264968e-01 -7.779648e-02 6.410003e-02 -2.683662e-01 -1.384845e-01 7.320527e-02 2.559085e-01 -6.091546e-03 1.731541e-01 -2.377779e-02 -1.800257e-01
<VARIANCE> 39
